svm_type c_svc
kernel_type rbf
gamma 0.0416667
nr_class 2
total_sv 2394
rho 0.441195
label 1 0
probA -3.23196
probB -0.96391
nr_sv 890 1504
SV
1 1:4 2:1 5:21 6:0.57142854 7:2 8:1 9:2 10:0.38095236 11:0.3333333 12:0.047619045 13:19 14:2 15:0.53164554 16:0.20253164 17:0.25316453 18:0.278481 19:0.26582277 20:0.13513513 21:0.90909094 23:0.1875 24:2 
1 1:2 5:23 6:0.52380955 8:3 9:3 10:0.23809522 11:0.14285713 12:0.23809522 13:14 14:1 15:0.5 16:0.2708333 17:0.375 18:0.125 19:0.22916669 20:0.36363637 21:0.2857143 24:4 
1 1:4 2:12 3:1 4:1 5:21 6:0.38095236 7:2 8:2 9:2 10:0.23809522 11:0.19047618 12:0.38095236 13:18 14:4 15:0.3043478 16:0.3043478 17:0.13043481 18:0.17391306 19:0.39130437 20:0.21839081 21:0.77777779 22:0.05882353 23:0.2888889 24:18 
1 1:4 2:1 5:22 6:0.52380955 7:1 8:1 9:2 10:0.28571427 11:0.19047618 12:0.19047618 13:20 14:1 15:0.5060241 16:0.22891569 17:0.24096388 18:0.26506025 19:0.26506025 20:0.12820514 21:1.1111112 22:0.14285715 23:0.22222222 24:6 
1 1:4 2:1 5:21 6:0.52380955 7:2 8:1 9:4 10:0.3333333 11:0.38095236 12:0.14285713 13:17 14:2 15:0.56153846 16:0.20769233 17:0.25384617 18:0.3076923 19:0.23076922 20:0.11811024 21:1.2857143 23:0.082352944 24:4 
1 1:1 2:1 3:1 4:4 5:22 6:0.6363636 7:2 8:1 9:1 10:0.27272725 11:0.40909094 12:0.090909064 13:21 14:4 15:0.5795455 16:0.18181819 17:0.27272725 18:0.3068182 19:0.23863637 20:0.082352944 21:0.75 22:0.16666667 23:0.12195122 24:25 
1 1:2 2:6 3:2 4:1 5:21 6:0.38095236 7:3 10:0.23809522 11:0.19047618 12:0.38095236 13:20 14:3 15:0.3611111 16:0.3 17:0.14444447 18:0.21666664 19:0.33888888 20:0.18128654 21:0.69999999 22:0.23076923 23:0.2248062 24:8 
1 1:3 2:9 3:4 4:8 5:25 6:0.52 7:5 8:2 9:4 10:0.19999999 11:0.36 12:0.27999997 13:19 14:1 15:0.57575756 16:0.18181819 17:0.219697 18:0.35606062 19:0.24242425 20:0.29133859 21:0.875 22:0.36000001 23:0.34177214 24:54 
1 1:2 2:2 3:2 4:3 5:22 6:0.45454544 7:1 8:1 9:1 10:0.36363637 11:0.13636363 12:0.18181819 13:20 14:3 15:0.6091954 16:0.19540232 17:0.3218391 18:0.28735632 19:0.19540232 20:0.17073171 21:0.54545456 22:0.10714286 23:0.2631579 24:30 
1 1:4 2:2 3:2 4:3 5:22 6:0.45454544 7:1 8:1 9:2 10:0.13636363 11:0.27272725 12:0.40909094 13:20 14:2 15:0.62637365 16:0.18681318 17:0.3296703 18:0.29670328 19:0.18681318 20:0.1627907 21:1 22:0.11538462 23:0.23809524 24:28 
1 1:4 2:4 3:1 4:1 5:23 6:0.6086956 7:2 8:1 9:6 10:0.17391306 11:0.6086956 12:0.21739131 13:17 14:4 15:0.6918239 16:0.13207549 17:0.33962262 18:0.35220128 19:0.17610061 20:0.25827813 21:0.8888889 22:0.071428575 23:0.28440368 24:16 
1 1:2 2:1 5:21 6:0.45 7:1 8:5 9:1 10:0.5 11:0.25 12:0.050000012 13:14 14:4 15:0.5068493 16:0.21917808 17:0.21917808 18:0.2876712 19:0.27397263 20:0.23529412 21:1.8 23:0.11111111 24:6 
1 1:4 2:1 3:8 4:2 5:20 6:0.5 7:1 8:2 9:3 10:0.25 11:0.25 12:0.25 13:16 14:3 15:0.47619045 16:0.25396824 17:0.25396824 18:0.22222221 19:0.26984125 20:0.18518518 21:1.4 22:0.39285713 23:0.14285715 24:30 
1 1:2 2:1 3:8 4:2 5:21 6:0.57142854 7:1 8:1 9:2 10:0.23809522 11:0.3333333 12:0.19047618 13:17 14:3 15:0.5074627 16:0.23880595 17:0.26865673 18:0.23880595 19:0.25373137 20:0.1724138 21:0.625 22:0.42307693 23:0.125 24:28 
1 1:2 2:1 5:21 6:0.45 8:2 9:3 10:0.45 11:0.25 12:0.10000002 13:16 14:4 15:0.520548 16:0.21917808 17:0.23287672 18:0.2876712 19:0.260274 20:0.1884058 21:1.4285715 23:0.14285715 24:6 
1 1:1 3:8 4:4 5:21 6:0.7619048 7:3 8:2 9:2 10:0.14285713 11:0.52380955 12:0.09523809 13:17 14:3 15:0.7291666 16:0.10416669 17:0.3541667 18:0.375 19:0.16666669 20:0.18181819 21:0.80000001 22:0.3442623 24:34 
1 1:4 3:8 4:3 5:21 6:0.71428573 7:2 8:2 9:3 10:0.047619045 11:0.23809522 12:0.23809522 13:17 14:2 15:0.75 16:0.096153855 17:0.36538464 18:0.38461536 19:0.15384614 20:0.16666667 21:0.8888889 22:0.36842105 24:32 
1 1:4 2:6 3:2 4:1 5:21 6:0.52380955 7:1 8:1 9:1 10:0.14285713 11:0.28571427 12:0.3333333 13:20 14:2 15:0.53125 16:0.1484375 17:0.28125 18:0.25 19:0.3203125 20:0.32258064 21:1 22:0.2 23:0.46341464 24:23 
1 1:4 2:4 3:1 4:1 5:21 6:0.4285714 7:2 8:1 9:1 10:0.23809522 11:0.3333333 12:0.3333333 13:20 14:1 15:0.42148763 16:0.32231402 17:0.18181819 18:0.23966944 19:0.25619835 20:0.21367522 21:1.25 22:0.083333336 23:0.30666667 24:24 
1 1:4 2:1 3:1 4:1 5:22 6:0.5909091 8:2 9:2 10:0.27272725 11:0.36363637 12:0.13636363 13:18 14:1 15:0.5326087 16:0.25 17:0.26086956 18:0.27173913 19:0.21739131 20:0.15909091 21:0.63636363 22:0.25 23:0.13636364 24:5 
1 1:4 2:8 5:21 6:0.47619045 7:2 8:2 9:2 10:0.09523809 11:0.3333333 12:0.4285714 13:18 14:2 15:0.49425286 16:0.28735632 17:0.22988504 18:0.26436782 19:0.21839082 20:0.2820513 21:1 22:0.07692308 23:0.44444445 24:8 
1 1:1 3:1 4:1 5:24 6:0.4583333 7:1 8:2 9:2 10:0.16666669 11:0.375 12:0.375 13:21 14:1 15:0.42253524 16:0.26760566 17:0.21126759 18:0.21126759 19:0.30985916 20:0.10344828 21:0.72727275 22:0.125 24:11 
1 1:4 2:5 3:5 4:17 5:24 6:0.7619048 7:1 8:3 9:1 10:0.09523809 11:0.4285714 12:0.14285713 13:21 14:4 15:0.7580645 16:0.12903225 17:0.39516127 18:0.36290324 19:0.11290324 20:0.15966387 21:1.6666666 22:0.18548387 23:0.21621622 24:128 
1 1:1 2:5 3:5 4:17 5:19 6:0.57894737 10:0.21052629 11:0.31578946 12:0.21052629 13:19 14:2 15:0.7297298 16:0.1418919 17:0.3783784 18:0.35135138 19:0.12837839 20:0.13286713 21:0.90909094 22:0.20535715 23:0.18095239 24:116 
1 1:4 2:7 3:3 4:8 5:21 6:0.47619045 8:2 9:1 10:0.09523809 11:0.23809522 12:0.4285714 13:19 14:2 15:0.5327511 16:0.17467248 17:0.26637554 18:0.26637554 19:0.29257643 20:0.22321428 21:1 22:0.19354838 23:0.25274727 24:77 
1 1:4 2:5 3:3 4:3 5:21 6:0.4285714 8:1 9:2 10:0.23809522 11:0.14285713 12:0.3333333 13:19 14:3 15:0.4047619 16:0.3333333 17:0.20238096 18:0.20238096 19:0.26190478 20:0.18987341 21:0.90909094 22:0.16666667 23:0.2972973 24:32 
0.8986209082894776 1:4 2:2 3:9 4:4 5:21 6:0.52380955 8:2 9:2 10:0.09523809 11:0.28571427 12:0.38095236 13:18 14:4 15:0.48809522 16:0.22619045 17:0.26190478 18:0.22619045 19:0.28571427 20:0.17948718 21:0.69999999 22:0.34482759 23:0.22222222 24:39 
0.7122839343387952 1:4 2:7 3:2 4:5 5:21 6:0.52380955 8:1 9:2 10:0.23809522 11:0.28571427 12:0.23809522 13:19 14:4 15:0.36507934 16:0.28571427 17:0.16666669 18:0.19841272 19:0.34920633 20:0.22314049 21:0.90909094 22:0.2 23:0.30864197 24:43 
1 1:2 2:3 3:1 4:2 5:22 6:0.5909091 7:3 8:1 9:2 10:0.18181819 11:0.40909094 12:0.22727275 13:20 14:1 15:0.5119048 16:0.1785714 17:0.25 18:0.26190478 19:0.30952382 20:0.15789473 21:1.25 22:0.11627907 23:0.25 24:25 
0.9345474313258525 1:1 2:2 3:14 4:3 5:22 6:0.3181818 7:1 8:1 9:1 10:0.40909094 11:0.3181818 12:0.27272725 13:20 14:1 15:0.3563218 16:0.2988506 17:0.14942527 18:0.20689654 19:0.3448276 20:0.18421052 21:0.875 22:0.47368422 23:0.3125 24:39 
1 1:4 2:3 3:1 4:1 5:24 6:0.4583333 7:3 8:1 9:1 10:0.16666669 11:0.2916667 12:0.375 13:22 14:3 15:0.4918033 16:0.22950822 17:0.21311474 18:0.27868855 19:0.27868855 20:0.16239317 21:0.63636363 22:0.11111111 23:0.2173913 24:13 
1 1:2 2:3 3:1 4:1 5:24 6:0.4583333 7:3 8:1 9:2 10:0.2916667 11:0.25 12:0.25 13:22 14:1 15:0.49206346 16:0.23015875 17:0.21428573 18:0.2777778 19:0.2777778 20:0.1570248 21:1.4285715 22:0.14285715 23:0.20547946 24:11 
0.8368519454240532 1:4 2:5 3:1 4:1 5:21 6:0.4285714 7:3 8:1 9:2 10:0.19047618 11:0.28571427 12:0.38095236 13:19 14:4 15:0.25842696 16:0.30337077 17:0.11235952 18:0.14606744 19:0.43820226 20:0.19512194 21:0.66666669 22:0.05882353 23:0.30000001 24:12 
1 1:4 2:4 3:2 4:7 5:20 6:0.7 7:1 8:2 9:3 10:0.25 11:0.45 12:0.050000012 13:16 14:1 15:0.6300578 16:0.17919075 17:0.27745664 18:0.35260117 19:0.1849711 20:0.23636363 21:1.6666666 22:0.21212122 23:0.248 24:35 
1 1:2 2:3 3:4 4:13 5:21 6:0.8095238 7:4 8:3 9:2 10:0.09523809 11:0.52380955 12:0.09523809 13:17 14:4 15:0.6321839 16:0.16091955 17:0.2758621 18:0.3563218 19:0.20689654 20:0.24050634 21:1.5 22:0.22368421 23:0.34999999 24:78 
1 1:2 2:2 3:1 4:2 5:22 6:0.5454545 7:3 8:1 9:1 10:0.27272725 11:0.36363637 12:0.18181819 13:21 14:1 15:0.5 16:0.19047618 17:0.26190478 18:0.23809522 19:0.30952382 20:0.13157895 21:1.1111112 22:0.17647059 23:0.25 24:18 
1 1:4 2:4 3:2 4:3 5:21 6:0.61904764 7:2 8:2 9:2 10:0.28571427 11:0.4285714 12:0.09523809 13:18 14:1 15:0.44871795 16:0.3076923 17:0.26923078 18:0.17948717 19:0.24358976 20:0.26027396 21:1 22:0.2 23:0.41935483 24:19 
1 1:1 3:8 4:1 5:21 6:0.52380955 8:1 9:1 10:0.28571427 11:0.4285714 12:0.19047618 13:20 14:4 15:0.4263566 16:0.29457366 17:0.21705425 18:0.2093023 19:0.27906978 20:0.016129032 21:0.60000002 22:0.25 24:21 
1 1:4 2:1 3:1 4:3 5:21 6:0.52380955 7:3 8:1 9:1 10:0.23809522 11:0.52380955 12:0.23809522 13:20 14:4 15:0.44444442 16:0.24242425 17:0.18181819 18:0.2626263 19:0.31313133 20:0.065217391 21:0.81818181 22:0.17647059 23:0.079999998 24:18 
1 1:4 3:1 4:4 5:21 6:0.4285714 7:2 8:1 9:2 10:0.23809522 11:0.3333333 12:0.3333333 13:19 14:4 15:0.4375 16:0.22916669 17:0.16666669 18:0.2708333 19:0.3333333 20:0.073170729 21:0.875 22:0.10588235 24:44 
1 1:2 3:1 4:4 5:23 6:0.3181818 7:2 8:1 9:2 10:0.22727275 11:0.090909064 12:0.45454544 13:20 14:3 15:0.41818184 16:0.23636365 17:0.16363639 18:0.25454545 19:0.34545457 20:0.083333336 21:1 22:0.1025641 24:40 
1 1:4 2:6 5:25 6:0.375 7:4 8:5 9:2 10:0.16666669 11:0.25 12:0.4583333 13:16 14:1 15:0.3076923 16:0.18681318 17:0.09890109 18:0.2087912 19:0.5054945 20:0.37931034 21:1 23:0.46341464 24:3 
1 1:3 2:14 5:21 6:0.3333333 7:3 8:1 9:1 10:0.3333333 11:0.14285713 12:0.3333333 13:19 15:0.38333333 16:0.23333335 17:0.14999998 18:0.23333335 19:0.38333333 20:0.21428572 21:1.125 23:0.2857143 24:1 
1 1:3 2:14 5:21 6:0.47619045 7:3 8:1 9:2 10:0.09523809 11:0.38095236 12:0.4285714 13:19 14:2 15:0.37288135 16:0.23728812 17:0.14406782 18:0.22881359 19:0.38983053 20:0.21818182 21:1 23:0.29411766 24:2 
1 1:2 2:2 3:2 4:3 5:21 6:0.4285714 7:2 8:1 9:2 10:0.3333333 11:0.23809522 12:0.23809522 13:18 14:1 15:0.40909094 16:0.26136363 17:0.14772725 18:0.26136363 19:0.32954544 20:0.20481928 21:1.4285715 22:0.13636364 23:0.2682927 24:24 
1 1:3 2:2 3:2 4:2 5:21 6:0.4285714 7:2 8:1 9:2 10:0.28571427 11:0.28571427 12:0.28571427 13:19 14:1 15:0.4130435 16:0.26086956 17:0.15217394 18:0.26086956 19:0.32608694 20:0.19540229 21:0.90909094 22:0.15000001 23:0.2888889 24:22 
1 1:1 2:4 3:3 4:2 5:21 6:0.4285714 7:1 8:1 9:1 10:0.28571427 11:0.28571427 12:0.28571427 13:19 14:2 15:0.32038838 16:0.33009708 17:0.13592231 18:0.184466 19:0.34951454 20:0.19587629 21:1 22:0.26666668 23:0.27272728 24:16 
1 1:4 2:12 3:1 4:2 5:21 6:0.61904764 7:2 8:2 9:2 10:0.28571427 11:0.4285714 12:0.09523809 13:15 14:4 15:0.4583333 16:0.2361111 17:0.22222221 18:0.2361111 19:0.30555558 20:0.35714287 21:1 22:0.25 23:0.3877551 24:11 
0.6905453808227876 1:4 2:2 3:2 4:2 5:21 6:0.57142854 7:2 8:1 9:2 10:0.28571427 11:0.3333333 12:0.14285713 13:19 14:4 15:0.49295777 16:0.21126759 17:0.25352114 18:0.23943663 19:0.29577464 20:0.14705883 21:1 22:0.30000001 23:0.23076923 24:15 
1 1:2 3:1 4:2 5:20 6:0.7 7:1 8:2 9:2 10:0.3 11:0.39999998 13:16 14:3 15:0.74 16:0.16000003 17:0.39999998 18:0.33999997 19:0.10000002 20:0.17391305 21:1.2 22:0.22222222 24:11 
1 1:2 2:3 3:2 4:2 5:21 6:0.47619045 7:1 10:0.47619045 11:0.28571427 12:0.047619045 13:21 14:4 15:0.5 16:0.2352941 17:0.2647059 18:0.2352941 19:0.2647059 20:0.1 21:1 22:0.2173913 23:0.33333334 24:18 
1 1:3 2:3 3:2 4:1 5:21 6:0.47619045 7:1 11:0.19047618 12:0.52380955 13:21 14:1 15:0.5 16:0.2361111 17:0.2638889 18:0.2361111 19:0.2638889 20:0.09375 21:1.1 22:0.2631579 23:0.27272728 24:16 
0.08836242937307401 1:4 2:7 3:8 4:5 5:21 6:0.4285714 7:1 8:1 9:1 10:0.4285714 11:0.3333333 12:0.14285713 13:17 14:3 15:0.48421055 16:0.24210525 17:0.24210525 18:0.24210525 19:0.2736842 20:0.30337077 21:0.71428573 22:0.40000001 23:0.40425533 24:37 
1 1:1 2:1 5:24 6:0.375 7:1 8:2 9:2 10:0.375 11:0.041666687 12:0.25 13:21 14:2 15:0.44927537 16:0.2753623 17:0.26086956 18:0.18840581 19:0.2753623 20:0.13793103 21:1 23:0.2 24:11 
1 1:2 2:4 5:22 6:0.40909094 7:4 8:1 9:2 10:0.18181819 11:0.18181819 12:0.40909094 13:19 14:3 15:0.503876 16:0.24031007 17:0.2093023 18:0.29457366 19:0.25581396 20:0.19354838 21:1 22:0.125 23:0.22499999 24:9 
1 1:2 2:7 3:1 4:2 5:20 6:0.39999998 7:3 8:3 9:3 10:0.10000002 11:0.19999999 12:0.5 13:15 14:1 15:0.408 16:0.232 17:0.208 18:0.19999999 19:0.36 20:0.27731094 21:1.4285715 22:0.18181819 23:0.29113925 24:12 
1 1:1 2:6 3:3 4:1 5:21 6:0.4285714 7:1 8:1 9:2 10:0.28571427 11:0.28571427 12:0.28571427 13:18 14:3 15:0.34408605 16:0.22580647 17:0.15053761 18:0.19354838 19:0.43010753 20:0.21839081 21:0.69999999 22:0.29032257 23:0.2888889 24:17 
1 1:2 2:8 5:21 6:0.52380955 8:1 9:2 10:0.23809522 11:0.19047618 12:0.23809522 13:19 14:4 15:0.47826087 16:0.29710144 17:0.26811594 18:0.21014494 19:0.22463769 20:0.17910448 21:1.1 23:0.2173913 24:24 
0.5966065399477852 1:2 2:10 3:1 4:1 5:21 6:0.57142854 7:1 10:0.28571427 11:0.28571427 12:0.14285713 13:20 14:2 15:0.33536583 16:0.2865854 17:0.14634144 18:0.18902439 19:0.37804878 20:0.32894737 21:0.72727275 22:0.07692308 23:0.43636364 24:11 
0.05252134844083974 1:4 2:4 3:2 4:6 5:21 6:0.61904764 8:2 9:4 10:0.14285713 11:0.19047618 12:0.23809522 13:16 14:1 15:0.517647 16:0.2117647 17:0.2588235 18:0.2588235 19:0.27058822 20:0.2820513 21:1.2222222 22:0.24137931 23:0.33333334 24:33 
1 1:4 2:5 5:20 6:0.19999999 7:1 8:1 9:2 10:0.25 11:0.050000012 12:0.55 13:18 14:1 15:0.16384178 16:0.40677965 17:0.06779659 18:0.096045196 19:0.4293785 20:0.23255815 21:1 23:0.27272728 24:4 
1 1:1 3:1 4:1 5:21 6:0.7619048 7:4 8:1 9:2 10:0.14285713 11:0.52380955 12:0.09523809 13:19 14:3 15:0.7083334 16:0.125 17:0.3125 18:0.3958333 19:0.16666669 20:0.090909094 21:1 22:0.07692308 24:20 
1 1:4 5:21 6:0.71428573 7:3 8:1 9:2 10:0.047619045 11:0.3333333 12:0.23809522 13:19 14:2 15:0.7307692 16:0.11538464 17:0.32692307 18:0.40384614 19:0.15384614 20:0.083333336 21:0.72727275 22:0.090909094 24:18 
1 1:4 2:7 5:22 6:0.52380955 7:2 8:1 9:3 10:0.09523809 11:0.3333333 12:0.38095236 13:19 14:2 15:0.5274725 16:0.16483516 17:0.24175823 18:0.28571427 19:0.3076923 20:0.23809524 21:1.25 22:0.66666669 23:0.36585367 24:31 
1 1:1 2:4 3:4 4:3 5:24 6:0.375 7:1 8:1 9:1 10:0.16666669 11:0.2916667 12:0.4583333 13:23 14:1 15:0.43421054 16:0.25 17:0.18421054 18:0.25 19:0.31578946 20:0.12676056 21:0.89999998 22:0.19402985 23:0.30434781 24:39 
1 1:2 2:6 3:5 4:3 5:22 6:0.45454544 8:3 9:1 10:0.22727275 11:0.090909064 12:0.3181818 13:16 14:3 15:0.37209302 16:0.25581396 17:0.1976744 18:0.17441863 19:0.37209302 20:0.24050634 21:0.71428573 22:0.37931034 23:0.22222222 24:30 
1 1:4 2:2 5:21 6:0.52380955 7:1 8:2 9:3 10:0.23809522 11:0.23809522 12:0.23809522 13:17 14:4 15:0.41860467 16:0.25581396 17:0.18604654 18:0.23255813 19:0.32558137 20:0.20512821 21:1 23:0.22222222 24:2 
1 1:2 2:1 3:3 4:1 5:22 6:0.5454545 7:1 8:2 9:2 10:0.18181819 11:0.36363637 12:0.27272725 13:17 14:3 15:0.47945207 16:0.20547944 17:0.1917808 18:0.2876712 19:0.31506848 20:0.23076923 21:0.875 22:0.2857143 23:0.23809524 24:15 
1 1:4 2:1 3:1 4:2 5:22 6:0.6818182 8:2 9:4 10:0.18181819 11:0.22727275 12:0.13636363 13:16 14:3 15:0.7234043 16:0.13829786 17:0.39361703 18:0.32978725 19:0.13829786 20:0.20454545 21:2.2 22:0.1 23:0.19148937 24:13 
0.09422965187751518 1:4 2:1 3:1 4:2 5:22 6:0.75 8:2 9:3 10:0.14999998 11:0.45 12:0.10000002 13:17 14:4 15:0.7346939 16:0.13265306 17:0.39795917 18:0.3367347 19:0.13265306 20:0.19565217 21:0.63636363 22:0.125 23:0.2 24:11 
1 1:2 2:4 3:3 4:5 5:21 6:0.57142854 7:1 8:2 9:2 10:0.14285713 11:0.28571427 12:0.28571427 13:18 14:1 15:0.4705882 16:0.27058822 17:0.2352941 18:0.2352941 19:0.2588235 20:0.22499999 21:0.875 22:0.20754717 23:0.31578946 24:29 
1 1:1 2:15 3:2 4:1 5:19 6:0.052631557 7:2 8:1 9:2 10:0.68421054 11:0.052631557 12:0.2631579 13:17 14:2 15:0.26956522 16:0.35652173 17:0.18260872 18:0.0869565 19:0.37391305 20:0.27777779 21:1.3333334 22:0.2 23:0.38028169 24:16 
1 1:1 2:2 3:7 4:4 5:21 6:0.4285714 7:1 8:1 9:1 10:0.4285714 11:0.23809522 12:0.14285713 13:19 14:4 15:0.34821427 16:0.3035714 17:0.16071427 18:0.1875 19:0.34821427 20:0.17757009 21:1 22:0.44827586 23:0.23076923 24:33 
1 1:4 2:2 3:4 4:4 5:21 6:0.61904764 8:2 9:3 10:0.047619045 11:0.19047618 12:0.3333333 13:17 14:4 15:0.5903615 16:0.19277108 17:0.3012048 18:0.28915662 19:0.21686745 20:0.18987341 21:0.90909094 22:0.25 23:0.21052632 24:36 
1 1:1 2:14 5:21 6:0.38095236 8:1 9:2 10:0.28571427 11:0.14285713 12:0.3333333 13:18 14:1 15:0.33707863 16:0.41573036 17:0.16853935 18:0.16853935 19:0.24719101 20:0.31764707 21:0.77777779 23:0.48837209 24:12 
0.04493274679615483 1:4 3:9 4:4 5:21 6:0.3333333 8:1 9:2 10:0.14285713 12:0.52380955 13:19 14:1 15:0.36363637 16:0.2987013 17:0.23376626 18:0.12987012 19:0.33766234 20:0.064516127 21:1 22:0.3898305 24:40 
1 1:4 2:3 3:2 4:1 5:21 6:0.52380955 7:1 8:2 9:3 10:0.23809522 11:0.23809522 12:0.23809522 13:17 14:4 15:0.43023258 16:0.24418604 17:0.18604654 18:0.24418604 19:0.32558137 20:0.20512821 21:1 22:0.2 23:0.22222222 24:9 
1 1:4 2:2 5:21 6:0.61904764 7:2 8:2 9:2 10:0.14285713 11:0.19047618 12:0.23809522 13:18 14:3 15:0.3960396 16:0.2871287 17:0.16831684 18:0.22772276 19:0.3168317 20:0.17391305 21:1.1111112 23:0.2 24:6 
1 1:4 2:3 3:3 4:3 5:22 6:0.5 8:1 9:2 10:0.39999998 11:0.35000002 12:0.10000002 13:20 14:3 15:0.4512195 16:0.24390244 17:0.24390244 18:0.20731705 19:0.30487806 20:0.13157895 21:0.90909094 22:0.33333334 23:0.23529412 24:22 
1 1:4 2:8 3:2 4:2 5:21 6:0.4285714 7:2 8:1 9:1 10:0.14285713 11:0.23809522 12:0.4285714 13:20 14:2 15:0.41176468 16:0.24509805 17:0.19607842 18:0.21568626 19:0.34313726 20:0.17525773 21:1 22:0.16129032 23:0.27272728 24:20 
1 1:4 2:8 5:21 6:0.52380955 7:3 8:2 9:2 10:0.09523809 11:0.23809522 12:0.38095236 13:18 14:1 15:0.44736844 16:0.2280702 17:0.21052629 18:0.2368421 19:0.32456142 20:0.19266056 21:1.125 22:0.052631579 23:0.2238806 24:14 
1 1:4 2:1 3:1 4:1 5:22 6:0.36363637 7:1 8:1 9:2 10:0.27272725 11:0.18181819 12:0.36363637 13:20 14:1 15:0.3203125 16:0.3515625 17:0.15625 18:0.1640625 19:0.328125 20:0.050000001 21:0.69999999 22:0.07692308 23:0.02631579 24:14 
1 1:4 2:5 3:3 4:2 5:21 6:0.47619045 7:2 8:3 9:3 10:0.19047618 11:0.28571427 12:0.3333333 13:16 14:1 15:0.5145631 16:0.223301 17:0.223301 18:0.29126215 19:0.26213592 20:0.24489796 21:1.125 22:0.23529412 23:0.25 24:26 
1 1:1 2:5 3:3 4:2 5:21 6:0.57142854 7:3 8:1 9:3 10:0.28571427 11:0.38095236 12:0.14285713 13:16 14:2 15:0.5494505 16:0.19780219 17:0.24175823 18:0.3076923 19:0.25274724 20:0.23255815 21:1.2857143 22:0.26086956 23:0.24444444 24:32 
1 1:4 2:2 3:1 4:2 5:21 6:0.38095236 7:2 8:1 9:1 10:0.3333333 11:0.3333333 12:0.28571427 13:20 14:1 15:0.34782606 16:0.28985506 17:0.13043481 18:0.21739131 19:0.3623188 20:0.087719299 21:1.1111112 22:0.18181819 23:0.2 24:16 
0.09740269480467871 1:4 2:1 3:1 4:1 5:22 6:0.18181819 7:1 8:1 9:1 10:0.45454544 11:0.090909064 12:0.36363637 13:21 14:4 15:0.2837838 16:0.3918919 17:0.12162161 18:0.16216218 19:0.3243243 20:0.060606062 21:1 22:0.25 23:0.13043478 24:12 
1 1:4 2:3 5:24 6:0.38095236 7:3 8:4 9:3 10:0.3333333 11:0.23809522 12:0.28571427 13:12 14:3 15:0.34920633 16:0.4126984 17:0.15873015 18:0.19047618 19:0.23809522 20:0.40350878 21:0.5 23:0.33333334 24:6 
1 1:4 2:4 3:4 4:4 5:21 6:0.52380955 7:1 8:2 9:2 10:0.09523809 11:0.38095236 12:0.38095236 13:17 14:1 15:0.39999998 16:0.35294116 17:0.2235294 18:0.17647058 19:0.24705881 20:0.20512821 21:2 22:0.28 23:0.22222222 24:32 
1 1:1 2:1 3:1 4:2 5:21 6:0.47619045 7:5 8:2 9:1 10:0.28571427 11:0.3333333 12:0.23809522 13:19 14:2 15:0.3857143 16:0.28571427 17:0.17142856 18:0.21428573 19:0.32857144 20:0.059701491 21:1.1111112 22:0.1 23:0.043478262 24:21 
1 1:4 2:4 5:21 6:0.45 7:1 8:1 9:3 10:0.19999999 11:0.050000012 12:0.35000002 13:18 14:1 15:0.48314607 16:0.2022472 17:0.25842696 18:0.2247191 19:0.31460673 20:0.16666667 21:1.2857143 22:0.375 23:0.22727273 24:9 
1 1:2 2:1 5:24 6:0.5 7:1 8:1 9:2 10:0.3333333 11:0.25 12:0.16666669 13:22 14:1 15:0.37634408 16:0.31182796 17:0.19354838 18:0.1827957 19:0.31182796 20:0.082352944 21:1 23:0.081081077 24:9 
1 1:1 2:4 3:1 4:1 5:24 6:0.5 7:1 8:2 9:2 10:0.27272725 11:0.13636363 12:0.22727275 13:21 14:3 15:0.45454544 16:0.27272725 17:0.20454544 18:0.25 19:0.27272725 20:0.19767442 21:1 22:0.1 23:0.23809524 24:13 
1 1:4 2:4 3:1 4:1 5:24 6:0.4166667 7:1 8:2 9:2 10:0.2916667 11:0.3333333 12:0.2916667 13:21 14:1 15:0.45555556 16:0.27222222 17:0.20555556 18:0.25 19:0.27222222 20:0.19318181 21:1.1111112 22:0.125 23:0.23076923 24:11 
1 1:1 2:3 3:4 4:3 5:21 6:0.38095236 7:1 10:0.28571427 11:0.23809522 12:0.3333333 13:20 14:2 15:0.4298246 16:0.2719298 17:0.18421054 18:0.24561405 19:0.2982456 20:0.15887851 21:0.77777779 22:0.2820513 23:0.23076923 24:21 
1 1:2 2:1 5:21 6:0.38095236 7:2 10:0.3333333 11:0.23809522 12:0.28571427 13:21 14:1 15:0.3296703 16:0.3296703 17:0.15384614 18:0.17582417 19:0.34065932 20:0.045454547 21:1 23:0.086956523 24:11 
1 1:4 2:5 3:5 4:2 5:21 6:0.61904764 7:2 8:2 9:3 10:0.14285713 11:0.19047618 12:0.23809522 13:16 14:3 15:0.45555556 16:0.26666665 17:0.23333335 18:0.22222221 19:0.2777778 20:0.29411766 21:0.8888889 22:0.3125 23:0.3488372 24:18 
1 1:1 2:3 3:6 4:5 5:20 6:0.45 7:1 10:0.3 11:0.25 12:0.25 13:20 14:1 15:0.39726025 16:0.30136985 17:0.1917808 18:0.20547944 19:0.30136985 20:0.19402985 21:0.90909094 22:0.31506848 23:0.48148149 24:39 
0.6433418930821266 1:2 2:3 3:6 4:3 5:21 6:0.61904764 7:1 10:0.38095236 11:0.3333333 13:20 14:1 15:0.4680851 16:0.21276593 17:0.22340423 18:0.24468082 19:0.31914896 20:0.23595506 21:0.58333331 22:0.29166666 23:0.40425533 24:35 
1 1:4 2:3 5:21 6:0.61904764 7:2 8:1 9:2 10:0.09523809 11:0.23809522 12:0.28571427 13:19 14:4 15:0.53086424 16:0.20987654 17:0.23456788 18:0.2962963 19:0.25925928 20:0.19480519 21:0.72727275 23:0.31428573 24:5 
1 1:4 2:8 3:1 4:1 5:22 6:0.72727275 7:1 8:1 9:1 10:0.13636363 11:0.3181818 12:0.13636363 13:21 14:3 15:0.7432432 16:0.13513511 17:0.3581081 18:0.3851351 19:0.12162161 20:0.15277778 21:1.1 22:0.050000001 23:0.2 24:21 
1 1:4 2:3 3:1 4:2 5:21 6:0.4285714 7:1 8:1 9:1 10:0.14285713 11:0.23809522 12:0.4285714 13:20 14:4 15:0.4166667 16:0.2708333 17:0.19791669 18:0.21875 19:0.3125 20:0.082352944 21:1 22:0.085714288 23:0.11627907 24:24 
1 1:4 2:3 3:1 4:2 5:21 6:0.52380955 7:2 8:1 9:1 10:0.09523809 11:0.23809522 12:0.38095236 13:20 14:1 15:0.4722222 16:0.24074072 17:0.22222221 18:0.25 19:0.28703701 20:0.072164945 21:0.81818181 22:0.13043478 23:0.090909094 24:18 
1 1:4 2:14 3:5 4:4 5:21 6:0.47619045 7:2 8:1 9:1 10:0.19047618 11:0.3333333 12:0.3333333 13:20 14:2 15:0.45 16:0.25 17:0.19166666 18:0.25833333 19:0.3 20:0.24137931 21:0.81818181 22:0.29824561 23:0.35135135 24:31 
0.6211633141984247 1:1 2:14 3:3 4:3 5:21 6:0.3333333 7:2 8:1 9:1 10:0.38095236 11:0.14285713 12:0.28571427 13:20 14:3 15:0.45901638 16:0.24590164 17:0.19672132 18:0.26229507 19:0.29508197 20:0.23728813 21:1 22:0.30909091 23:0.34210527 24:30 
1 1:1 2:3 3:2 4:4 5:24 6:0.5 7:2 8:1 9:3 10:0.25 11:0.2916667 12:0.25 13:21 14:3 15:0.44736844 16:0.2631579 17:0.22368419 18:0.22368419 19:0.2894737 20:0.14285715 21:1.1428572 22:0.22727273 23:0.18181819 24:23 
1 1:4 2:2 3:1 4:1 5:21 6:0.61904764 7:3 8:1 9:2 10:0.09523809 11:0.23809522 12:0.28571427 13:19 14:4 15:0.5764706 16:0.18823528 17:0.29411763 18:0.28235292 19:0.2352941 20:0.14666666 21:0.72727275 22:0.090909094 23:0.21212122 24:11 
1 1:4 2:6 3:1 4:1 5:24 6:0.25 7:3 8:1 9:2 10:0.4166667 11:0.125 12:0.3333333 13:22 14:3 15:0.27572018 16:0.38271606 17:0.12345678 18:0.1522634 19:0.34156376 20:0.16806723 21:0.80000001 22:0.090909094 23:0.19371727 24:12 
1 1:4 2:10 3:2 4:3 5:21 6:0.57142854 8:1 9:2 10:0.19047618 11:0.14285713 12:0.23809522 13:19 14:3 15:0.51552796 16:0.20496893 17:0.26708072 18:0.24844718 19:0.2795031 20:0.23870967 21:1 22:0.2631579 23:0.29824561 24:30 
1 1:2 2:3 3:2 4:5 5:22 6:0.5909091 7:1 10:0.04545456 11:0.04545456 12:0.36363637 13:21 14:1 15:0.5 16:0.23809522 17:0.28571427 18:0.21428573 19:0.26190478 20:0.18421052 21:0.80000001 22:0.24528302 23:0.375 24:30 
1 1:2 2:1 5:19 6:0.4736842 7:1 8:1 9:2 10:0.36842108 11:0.36842108 12:0.15789473 13:17 14:4 15:0.33999997 16:0.32666665 17:0.17333335 18:0.16666669 19:0.3333333 20:0.041666668 21:0.81818181 23:0.018867925 24:3 
1 1:4 2:13 3:4 4:1 5:21 6:0.57142854 8:2 9:2 10:0.19047618 11:0.14285713 12:0.23809522 13:18 14:2 15:0.4437086 16:0.26490068 17:0.23841059 18:0.205298 19:0.29139072 20:0.2739726 21:1 22:0.2173913 23:0.33333334 24:33 
1 1:4 2:11 3:4 4:4 5:21 6:0.57142854 7:2 8:2 9:1 10:0.14285713 11:0.19047618 12:0.28571427 13:19 14:2 15:0.4787234 16:0.27659577 17:0.24468082 18:0.23404253 19:0.24468082 20:0.27272728 21:0.90909094 22:0.30909091 23:0.43478259 24:32 
1 1:4 2:4 5:20 6:0.6 7:2 8:1 9:2 10:0.050000012 11:0.3 12:0.35000002 13:18 14:2 15:0.5074627 16:0.25373137 17:0.23880595 18:0.26865673 19:0.23880595 20:0.15254237 21:0.80000001 23:0.2631579 24:3 
1 1:4 2:3 3:9 4:10 5:21 6:0.57142854 7:3 8:1 9:1 10:0.23809522 11:0.3333333 12:0.19047618 13:19 14:3 15:0.44 16:0.22666669 17:0.21333331 18:0.22666669 19:0.3333333 20:0.22857143 21:0.66666669 22:0.32394367 23:0.42857143 24:77 
1 1:4 2:4 3:1 4:1 5:22 6:0.27272725 7:2 8:1 9:2 10:0.40909094 11:0.27272725 12:0.3181818 13:20 14:4 15:0.21568626 16:0.39215684 17:0.07843137 18:0.1372549 19:0.39215684 20:0.10204082 21:1.5 22:0.016949153 23:0.11111111 24:31 
1 1:4 2:2 3:11 4:3 5:21 6:0.61904764 7:1 8:2 9:4 10:0.14285713 11:0.19047618 12:0.23809522 13:15 14:3 15:0.48051947 16:0.27272725 17:0.24675328 18:0.23376626 19:0.24675328 20:0.26984128 21:0.8888889 22:0.41176471 23:0.23809524 24:32 
0.4382484291835225 1:1 2:8 3:6 4:5 5:21 6:0.5 7:3 8:1 9:1 10:0.25 11:0.3 12:0.25 13:20 14:2 15:0.4736842 16:0.2368421 17:0.2368421 18:0.2368421 19:0.2894737 20:0.19444445 21:1 22:0.37254903 23:0.41935483 24:30 
1 1:4 2:3 5:21 6:0.52380955 7:2 8:2 9:2 10:0.23809522 11:0.23809522 12:0.23809522 13:18 14:4 15:0.4235294 16:0.24705881 17:0.17647058 18:0.24705881 19:0.32941175 20:0.16883117 21:1 23:0.2 24:6 
0.8545727721092096 1:4 2:4 3:3 4:1 5:21 6:0.52380955 7:3 8:1 9:1 10:0.19047618 11:0.3333333 12:0.28571427 13:20 14:4 15:0.41436464 16:0.3038674 17:0.17127073 18:0.24309391 19:0.28176796 20:0.19767442 21:1 22:0.33333334 23:0.24615385 24:10 
1 1:4 2:4 5:21 6:0.61904764 7:1 8:2 9:2 10:0.14285713 11:0.19047618 12:0.23809522 13:17 14:3 15:0.5294118 16:0.24369746 17:0.24369746 18:0.28571427 19:0.22689074 20:0.26126125 21:0.66666669 22:0.2 23:0.30434781 24:12 
1 1:1 2:5 5:21 6:0.6 7:1 8:2 9:2 10:0.19999999 11:0.39999998 12:0.19999999 13:17 15:0.5454545 16:0.25757575 17:0.2878788 18:0.25757575 19:0.19696969 20:0.24590164 21:0.80000001 23:0.42857143 24:1 
1 1:1 2:1 3:3 4:1 5:24 6:0.2916667 7:1 8:2 9:1 10:0.375 11:0.125 12:0.3333333 13:22 14:4 15:0.3333333 16:0.3466667 17:0.14666665 18:0.18666667 19:0.32 20:0.088235296 21:1.25 22:0.069767445 23:0.1 24:26 
1 1:1 2:8 3:2 4:2 5:21 6:0.4285714 7:1 8:1 9:2 10:0.4285714 11:0.3333333 12:0.14285713 13:19 14:4 15:0.49504948 16:0.21782178 17:0.22772276 18:0.2673267 19:0.2871287 20:0.29896906 21:0.89999998 22:0.13513513 23:0.45454547 24:20 
1 1:3 2:3 5:21 6:0.71428573 7:2 8:2 9:1 10:0.14285713 11:0.52380955 12:0.14285713 13:19 14:4 15:0.6413044 16:0.14130437 17:0.32608694 18:0.31521738 19:0.21739131 20:0.20930232 21:1.1 23:0.31818181 24:6 
1 1:2 2:3 5:21 6:0.57142854 7:2 8:2 9:1 10:0.19047618 11:0.14285713 12:0.23809522 13:19 14:3 15:0.6458334 16:0.13541669 17:0.3229167 18:0.3229167 19:0.21875 20:0.2 21:1 23:0.29166666 24:4 
1 1:4 2:5 3:1 4:1 5:24 6:0.4583333 7:2 8:1 9:2 10:0.375 11:0.375 12:0.16666669 13:19 14:3 15:0.4137931 16:0.31034482 17:0.1810345 18:0.23275864 19:0.2758621 20:0.27777779 21:4.5 22:0.1 23:0.33333334 24:13 
1 1:3 2:23 3:2 4:1 5:23 6:0.7619048 7:1 8:2 9:3 11:0.47619045 12:0.23809522 13:18 14:2 15:0.6324786 16:0.09401709 17:0.39316237 18:0.23931623 19:0.27350426 20:0.36283186 21:1 22:0.11764706 23:0.47826087 24:23 
1 1:4 2:3 3:2 4:5 5:24 6:0.5833334 7:1 8:1 9:1 10:0.375 11:0.3333333 12:0.041666687 13:21 14:1 15:0.46666664 16:0.24000001 17:0.22666669 18:0.24000001 19:0.29333335 20:0.22857143 21:0.45454547 22:0.2 23:0.45454547 24:49 
1 1:2 3:1 4:3 5:21 6:0.47619045 7:1 8:1 9:2 10:0.14285713 11:0.3333333 12:0.38095236 13:18 14:2 15:0.52542377 16:0.2711864 17:0.23728812 18:0.2881356 19:0.20338982 20:0.12 21:1.375 22:0.12195122 24:33 
0.704847967897515 1:4 2:3 3:4 4:6 5:21 6:0.38095236 7:2 8:1 9:1 10:0.28571427 11:0.3333333 12:0.3333333 13:20 14:4 15:0.31460673 16:0.34831458 17:0.12359548 18:0.19101125 19:0.33707863 20:0.14285715 21:0.8888889 22:0.25925925 23:0.23809524 24:59 
1 1:1 2:8 3:3 4:2 5:20 6:0.45 7:3 8:2 9:2 10:0.3 11:0.3 12:0.25 13:17 14:2 15:0.42574257 16:0.2920792 17:0.21039605 18:0.21534652 19:0.28217822 20:0.23 21:0.89999998 22:0.23529412 23:0.23888889 24:18 
0.6148599512878741 1:4 2:10 3:5 4:3 5:21 6:0.61904764 7:1 8:2 9:2 10:0.047619045 11:0.3333333 12:0.3333333 13:18 14:2 15:0.46892655 16:0.2824859 17:0.23163843 18:0.23728812 19:0.24858755 20:0.2631579 21:0.40000001 22:0.23809524 23:0.30232558 24:37 
1 1:3 2:2 3:5 4:2 5:21 6:0.71428573 8:1 9:1 10:0.23809522 11:0.61904764 12:0.047619045 13:20 14:2 15:0.63716817 16:0.17699116 17:0.31858408 18:0.31858408 19:0.18584073 20:0.075471699 21:0.83333331 22:0.086419754 23:0.09375 24:48 
1 1:4 2:2 3:3 4:3 5:21 6:0.47619045 7:1 8:1 9:2 10:0.28571427 11:0.23809522 12:0.23809522 13:18 14:2 15:0.37974685 16:0.31645572 17:0.1898734 18:0.1898734 19:0.30379748 20:0.16666667 21:0.85714287 22:0.35135135 23:0.22580644 24:20 
1 1:4 2:4 5:21 6:0.6666666 10:0.09523809 11:0.38095236 12:0.23809522 13:21 14:2 15:0.6441718 16:0.17177916 17:0.3435583 18:0.30061352 19:0.17791408 20:0.10828026 21:0.81818181 23:0.14782609 24:11 
1 1:4 2:3 5:22 6:0.57142854 7:1 8:1 9:4 10:0.23809522 11:0.3333333 12:0.19047618 13:18 14:3 15:0.44897962 16:0.25510204 17:0.21428573 18:0.23469388 19:0.29591835 20:0.2 21:1.2222222 23:0.23076923 24:11 
1 1:4 5:21 6:0.57142854 8:3 9:2 10:0.14285713 11:0.3333333 12:0.28571427 13:17 14:4 15:0.5189873 16:0.1898734 17:0.24050635 18:0.278481 19:0.29113925 20:0.16666667 21:1 23:0.13333334 24:6 
1 1:4 2:6 3:1 4:1 5:24 6:0.25 7:3 8:1 9:2 10:0.4166667 11:0.125 12:0.3333333 13:22 14:3 15:0.25925928 16:0.38683128 17:0.11522633 18:0.1440329 19:0.3539095 20:0.18487395 21:0.80000001 22:0.083333336 23:0.21465969 24:17 
1 1:4 5:23 6:0.27272725 7:2 8:3 9:3 10:0.27272725 11:0.18181819 12:0.45454544 13:16 14:2 15:0.3333333 16:0.28571427 17:0.14285713 18:0.19047618 19:0.38095236 20:0.15789473 21:1 24:11 
0.5892888821059479 1:1 2:5 3:2 4:3 5:21 6:0.61904764 7:2 8:1 9:1 10:0.28571427 11:0.38095236 12:0.09523809 13:20 14:2 15:0.47826087 16:0.24637681 17:0.24637681 18:0.23188406 19:0.2753623 20:0.2 21:0.75 22:0.27777779 23:0.55555558 24:20 
1 1:4 2:5 3:7 4:2 5:21 6:0.38095236 7:1 8:2 9:1 10:0.19047618 11:0.09523809 12:0.4285714 13:19 14:1 15:0.3466667 16:0.30666667 17:0.14666665 18:0.19999999 19:0.3466667 20:0.2 21:1.1111112 22:0.2631579 23:0.35714287 24:27 
1 1:2 2:3 3:1 4:2 5:21 6:0.57142854 7:3 8:2 9:1 10:0.14285713 11:0.4285714 12:0.28571427 13:18 14:4 15:0.41250002 16:0.2625 17:0.19999999 18:0.21249998 19:0.325 20:0.17333333 21:0.69999999 22:0.30000001 23:0.21212122 24:11 
1 1:2 2:1 5:21 6:0.6666666 10:0.09523809 11:0.47619045 12:0.23809522 13:21 14:4 15:0.5887097 16:0.19354838 17:0.2822581 18:0.30645162 19:0.2177419 20:0.016666668 21:1 23:0.025641026 24:11 
1 1:4 2:1 5:21 6:0.57142854 10:0.19047618 11:0.14285713 12:0.23809522 13:21 14:1 15:0.5697675 16:0.1976744 17:0.26744187 18:0.3023256 19:0.23255813 20:0.024390243 21:1 23:0.050000001 24:30 
1 1:4 2:6 3:3 4:2 5:21 6:0.57142854 8:1 9:2 10:0.19047618 11:0.14285713 12:0.23809522 13:19 14:3 15:0.49068326 16:0.22360247 17:0.26086956 18:0.22981364 19:0.28571427 20:0.23809524 21:1 22:0.25 23:0.3018868 24:31 
1 1:4 2:2 5:21 6:0.52380955 7:1 8:1 9:3 10:0.09523809 11:0.19047618 12:0.38095236 13:18 14:4 15:0.39999998 16:0.24705881 17:0.2117647 18:0.18823528 19:0.35294116 20:0.21126761 21:1 23:0.31034482 24:11 
0.3458311283415025 1:4 2:9 5:21 6:0.4285714 7:1 8:1 9:2 10:0.19047618 11:0.28571427 12:0.38095236 13:19 14:3 15:0.45185184 16:0.27407408 17:0.1851852 18:0.26666665 19:0.27407408 20:0.23076923 21:0.85714287 22:0.14285715 23:0.29545453 24:8 
0.187692709421208 1:2 2:5 3:2 4:6 5:22 6:0.6666666 7:2 8:1 9:3 10:0.09523809 11:0.23809522 12:0.23809522 13:19 14:3 15:0.56626505 16:0.19277108 17:0.26506025 18:0.3012048 19:0.24096388 20:0.21518987 21:0.81818181 22:0.28 23:0.33333334 24:33 
1 1:4 2:4 3:1 4:3 5:22 6:0.5 8:1 9:2 10:0.39999998 11:0.35000002 12:0.10000002 13:20 14:3 15:0.4698795 16:0.24096388 17:0.18072289 18:0.28915662 19:0.28915662 20:0.16455697 21:0.90909094 22:0.15384616 23:0.2972973 24:22 
1 1:4 2:2 3:5 4:10 5:21 6:0.57142854 7:2 8:1 9:1 10:0.28571427 11:0.3333333 12:0.14285713 13:20 14:2 15:0.6219512 16:0.17073172 17:0.29268295 18:0.32926828 19:0.20731705 20:0.064935066 21:0.81818181 22:0.2072072 23:0.085714288 24:60 
1 1:1 2:2 3:5 4:7 5:17 6:0.58823526 8:1 9:3 10:0.41176468 11:0.41176468 13:14 14:4 15:0.62068963 16:0.1810345 17:0.28448278 18:0.3362069 19:0.19827586 20:0.0990991 21:0.8888889 22:0.22077923 23:0.064935066 24:43 
1 1:4 2:2 3:1 4:1 5:21 6:0.52380955 8:2 9:2 10:0.14285713 11:0.23809522 12:0.3333333 13:18 14:4 15:0.41237116 16:0.2886598 17:0.17525774 18:0.23711342 19:0.2989691 20:0.15217391 21:1 22:0.06666667 23:0.16 24:18 
1 1:4 2:5 3:1 4:1 5:21 6:0.61904764 8:2 9:2 10:0.14285713 11:0.19047618 12:0.23809522 13:18 14:4 15:0.43835616 16:0.28082192 17:0.23287672 18:0.20547944 19:0.28082192 20:0.30496454 21:0.90909094 22:0.1 23:0.38 24:14 
1 1:2 2:2 3:4 4:4 5:21 6:0.61904764 7:2 8:2 9:2 10:0.09523809 11:0.23809522 12:0.28571427 13:17 14:3 15:0.50617284 16:0.23456788 17:0.24691355 18:0.25925928 19:0.25925928 20:0.23684211 21:0.54545456 22:0.25581396 23:0.29411766 24:31 
1 1:1 2:9 3:1 4:1 5:22 6:0.52380955 7:1 8:1 9:1 10:0.28571427 11:0.3333333 12:0.19047618 13:21 14:2 15:0.4285714 16:0.24489796 17:0.21428573 18:0.21428573 19:0.32653064 20:0.28260869 21:0.72727275 22:0.039999999 23:0.51020408 24:14 
1 1:4 2:2 5:22 6:0.45454544 7:2 8:1 9:1 10:0.22727275 11:0.22727275 12:0.3181818 13:21 14:4 15:0.5 16:0.23015875 17:0.23809522 18:0.26190478 19:0.26984125 20:0.083333336 21:1 23:0.10526316 24:5 
1 1:1 2:1 3:1 4:1 5:21 6:0.47619045 7:1 8:2 9:2 10:0.3333333 11:0.23809522 12:0.19047618 13:18 14:3 15:0.5232558 16:0.23255813 17:0.25581396 18:0.26744187 19:0.24418604 20:0.1 21:1 22:0.041666668 23:0.052631579 24:25 
1 1:4 2:1 3:1 4:1 5:22 6:0.45454544 7:1 8:2 9:2 10:0.22727275 11:0.27272725 12:0.3181818 13:19 14:3 15:0.5222222 16:0.23333335 17:0.25555557 18:0.26666665 19:0.24444443 20:0.095238097 21:0.89999998 22:0.045454547 23:0.050000001 24:23 
1 1:3 2:2 5:19 6:0.4736842 7:2 8:1 9:1 10:0.21052629 11:0.31578946 12:0.31578946 13:18 14:1 15:0.5080645 16:0.22580647 17:0.24193549 18:0.26612902 19:0.26612902 20:0.084745765 21:0.63636363 23:0.1 24:6 
1 1:4 2:3 3:2 4:2 5:21 6:0.52380955 7:2 8:1 9:2 10:0.23809522 11:0.23809522 12:0.23809522 13:19 14:3 15:0.42528737 16:0.25287354 17:0.26436782 18:0.16091955 19:0.3218391 20:0.18181819 21:0.77777779 22:0.375 23:0.33333334 24:18 
1 1:4 2:2 5:21 6:0.3333333 7:2 8:1 9:2 10:0.47619045 11:0.14285713 12:0.19047618 13:19 14:4 15:0.3 16:0.38333333 17:0.13333333 18:0.16666669 19:0.31666666 20:0.13207547 21:1.5 22:0.125 23:0.27272728 24:9 
0.6632478337459971 1:1 2:7 3:8 4:3 5:20 6:0.5 8:1 9:1 10:0.45 11:0.19999999 12:0.050000012 13:19 14:3 15:0.5441177 16:0.2352941 17:0.30882353 18:0.2352941 19:0.2205882 20:0.16923077 21:0.89999998 22:0.12244898 23:0.36000001 24:54 
0.2487729589253873 1:4 2:8 3:1 4:2 5:21 6:0.57142854 10:0.19047618 11:0.23809522 12:0.23809522 13:21 14:4 15:0.53787875 16:0.2348485 17:0.2878788 18:0.25 19:0.22727275 20:0.14728682 21:0.90909094 22:0.11764706 23:0.21839081 24:18 
1 1:1 3:2 4:2 5:21 6:0.38095236 8:1 9:1 10:0.14285713 11:0.38095236 12:0.47619045 13:20 14:3 15:0.38356167 16:0.34246576 17:0.21917808 18:0.16438359 19:0.27397263 20:0.03846154 21:1.2222222 22:0.13636364 24:30 
1 1:1 2:2 3:2 4:2 5:24 6:0.3333333 7:2 8:1 9:2 10:0.20833331 11:0.16666669 12:0.4583333 13:22 14:1 15:0.38983053 16:0.2881356 17:0.19491524 18:0.19491524 19:0.32203388 20:0.12280702 21:1.2857143 22:0.15789473 23:0.15151516 24:21 
0.5279226252094966 1:4 2:9 3:3 4:1 5:21 6:0.47619045 8:1 9:3 10:0.28571427 11:0.14285713 12:0.23809522 13:18 14:4 15:0.46590906 16:0.28409094 17:0.22727275 18:0.23863637 19:0.25 20:0.2857143 21:0.90909094 22:0.2631579 23:0.42857143 24:13 
1 1:4 2:2 3:1 4:1 5:21 6:0.61904764 7:3 8:1 9:2 10:0.09523809 11:0.23809522 12:0.28571427 13:19 14:4 15:0.53571427 16:0.20238096 17:0.25 18:0.28571427 19:0.26190478 20:0.13157895 21:0.72727275 22:0.090909094 23:0.17647059 24:11 
1 1:4 2:2 5:23 6:0.5217391 7:1 8:1 9:1 10:0.21739131 11:0.26086956 12:0.26086956 13:19 14:1 15:0.48019803 16:0.25247526 17:0.22772276 18:0.25247526 19:0.2673267 20:0.13131313 21:0.33333334 23:0.11842106 24:9 
1 1:2 2:3 3:2 4:4 5:23 6:0.5217391 8:2 9:4 10:0.13043481 11:0.26086956 12:0.34782606 13:18 14:3 15:0.47674417 16:0.26744187 17:0.2093023 18:0.26744187 19:0.25581396 20:0.28395063 21:0.8888889 22:0.21875 23:0.3888889 24:34 
1 1:1 2:3 3:2 4:4 5:23 6:0.36363637 8:2 9:3 10:0.40909094 11:0.22727275 12:0.22727275 13:16 14:3 15:0.47777778 16:0.25555557 17:0.21111113 18:0.26666665 19:0.26666665 20:0.31764707 21:1.2 22:0.16666667 23:0.34999999 24:32 
1 1:4 3:2 4:3 5:24 6:0.2916667 7:1 8:2 9:2 10:0.4583333 11:0.16666669 12:0.25 13:17 14:1 15:0.26153845 16:0.36923075 17:0.12307692 18:0.13846153 19:0.36923075 20:0.2631579 21:0.75 22:0.11764706 23:0.11111111 24:52 
1 1:3 2:3 3:1 4:1 5:20 6:0.45 7:1 8:2 9:2 10:0.19999999 11:0.19999999 12:0.35000002 13:17 14:2 15:0.5320513 16:0.19230771 17:0.26923078 18:0.26282054 19:0.27564102 20:0.23178808 21:1.8333334 22:0.14285715 23:0.26126125 24:8 
1 1:4 2:3 3:2 4:3 5:21 6:0.57142854 7:4 8:1 9:2 10:0.14285713 11:0.4285714 12:0.28571427 13:17 14:2 15:0.5350877 16:0.19298244 17:0.28070176 18:0.25438595 19:0.2719298 20:0.26605505 21:0.75 22:0.14285715 23:0.31343284 24:29 
1 1:2 2:3 5:21 6:0.61904764 7:1 8:2 9:1 10:0.19047618 11:0.3333333 12:0.19047618 13:17 14:1 15:0.5375 16:0.1875 17:0.27499998 18:0.2625 19:0.27499998 20:0.23870967 21:0.875 23:0.25663716 24:6 
1 1:1 2:5 3:7 4:5 5:22 6:0.55 7:3 8:3 9:2 10:0.14999998 11:0.39999998 12:0.3 13:17 14:2 15:0.4660194 16:0.26213592 17:0.25242716 18:0.21359223 19:0.27184469 20:0.24444444 21:0.89999998 22:0.30612245 23:0.31999999 24:70 
0.672744862984943 1:4 2:2 3:14 4:3 5:22 6:0.36363637 7:1 8:1 9:2 10:0.27272725 11:0.18181819 12:0.36363637 13:20 14:1 15:0.2734375 16:0.3671875 17:0.1328125 18:0.140625 19:0.359375 20:0.083333336 21:0.69999999 22:0.31428573 23:0.078947365 24:43 
1 1:1 3:11 4:5 5:24 6:0.4166667 8:1 9:1 10:0.2916667 11:0.20833331 12:0.2916667 13:23 14:4 15:0.38181818 16:0.27272725 17:0.18181819 18:0.19999999 19:0.34545457 20:0.019607844 21:1 22:0.26530612 24:61 
1 1:4 3:9 4:4 5:21 6:0.3333333 8:1 9:2 10:0.14285713 12:0.52380955 13:19 14:1 15:0.36363637 16:0.2987013 17:0.23376626 18:0.12987012 19:0.33766234 20:0.064516127 21:1 22:0.3898305 24:40 
1 1:4 2:3 5:22 6:0.4285714 8:2 9:1 10:0.4285714 11:0.28571427 12:0.14285713 13:19 14:2 15:0.4175824 16:0.25274724 17:0.2087912 18:0.2087912 19:0.3296703 20:0.14942528 21:0.63636363 23:0.18181819 24:5 
1 1:4 2:5 5:20 6:0.45 7:1 10:0.25 11:0.050000012 12:0.3 13:20 14:2 15:0.4736842 16:0.2631579 17:0.24561405 18:0.2280702 19:0.2631579 20:0.092024542 21:1 22:0.11111111 23:0.12195122 24:10 
1 1:4 2:2 5:24 6:0.52380955 7:1 8:5 9:2 10:0.28571427 11:0.23809522 12:0.19047618 13:17 14:1 15:0.41111112 16:0.26666665 17:0.1888889 18:0.22222221 19:0.32222223 20:0.2 21:1.8 23:0.15000001 24:11 
0.528483635308389 1:4 2:8 3:3 4:7 5:21 6:0.4285714 8:1 9:3 10:0.38095236 11:0.19047618 12:0.19047618 13:18 14:4 15:0.25438595 16:0.42105263 17:0.13157892 18:0.12280703 19:0.32456142 20:0.23529412 21:1.1111112 22:0.19587629 23:0.30000001 24:51 
1 1:1 2:4 3:1 4:3 5:21 6:0.61904764 7:2 8:1 9:1 10:0.28571427 11:0.38095236 12:0.09523809 13:20 14:4 15:0.47619045 16:0.2190476 17:0.22857141 18:0.24761903 19:0.3047619 20:0.16831683 21:0.83333331 22:0.2 23:0.25423729 24:18 
1 1:4 5:22 6:0.45454544 10:0.40909094 11:0.090909064 12:0.13636363 13:22 14:2 15:0.5 16:0.26744187 17:0.26744187 18:0.23255813 19:0.23255813 21:0.89999998 24:6 
1 1:4 5:21 6:0.47619045 10:0.09523809 11:0.38095236 12:0.4285714 13:21 14:4 15:0.5119048 16:0.26190478 17:0.27380955 18:0.23809522 19:0.22619045 21:1 24:7 
1 1:1 2:5 3:4 4:2 5:21 6:0.38095236 7:1 10:0.28571427 11:0.23809522 12:0.3333333 13:20 14:2 15:0.47500002 16:0.25833333 17:0.19166666 18:0.28333336 19:0.26666665 20:0.22123894 21:0.77777779 22:0.33333334 23:0.32394367 24:21 
1 1:2 2:5 3:2 4:2 5:20 6:0.45 7:1 8:1 9:1 10:0.35000002 11:0.14999998 12:0.19999999 13:17 14:4 15:0.44736844 16:0.2368421 17:0.2368421 18:0.21052629 19:0.31578946 20:0.24637681 21:1 22:0.2 23:0.37931034 24:14 
1 1:2 2:5 3:4 4:1 5:24 6:0.4285714 7:3 8:3 9:3 10:0.19047618 11:0.23809522 12:0.38095236 13:19 14:2 15:0.5223881 16:0.16417909 17:0.22388059 18:0.29850745 19:0.3134328 20:0.20634921 21:0.33333334 22:0.375 23:0.40000001 24:13 
1 1:4 2:4 3:3 4:2 5:23 6:0.47619045 7:1 8:5 9:2 10:0.19047618 11:0.19047618 12:0.3333333 13:12 14:3 15:0.4851485 16:0.1980198 17:0.18811882 18:0.29702967 19:0.3168317 20:0.36170211 21:1.6666666 22:0.25 23:0.29411766 24:23 
0.946983274046644 1:2 2:1 3:9 4:13 5:21 6:0.57142854 8:1 9:3 10:0.19047618 11:0.23809522 12:0.23809522 13:17 14:1 15:0.47500002 16:0.25 17:0.27499998 18:0.19999999 19:0.27499998 20:0.16883117 21:1 22:0.26923078 23:0.16666667 24:86 
0.8999376311123902 1:1 2:1 3:9 4:13 5:21 6:0.52380955 8:1 9:4 10:0.23809522 11:0.28571427 12:0.23809522 13:17 14:3 15:0.46428573 16:0.26190478 17:0.27380955 18:0.19047618 19:0.27380955 20:0.18518518 21:1.125 22:0.2631579 23:0.17948718 24:84 
1 1:4 5:21 6:0.3333333 7:1 8:1 9:3 10:0.4285714 11:0.23809522 12:0.23809522 13:18 14:4 15:0.36363637 16:0.27272725 17:0.12727273 18:0.23636365 19:0.36363637 20:0.12 21:1.125 24:5 
1 1:4 2:4 3:1 4:1 5:21 6:0.45 7:1 8:2 9:4 10:0.19999999 11:0.050000012 12:0.35000002 13:16 14:1 15:0.48314607 16:0.2022472 17:0.25842696 18:0.2247191 19:0.31460673 20:0.22891566 21:2.25 22:0.125 23:0.25581396 24:9 
1 1:4 2:3 3:1 4:2 5:21 6:0.38095236 7:3 8:2 9:1 10:0.28571427 11:0.14285713 12:0.3333333 13:18 14:4 15:0.4390244 16:0.28048778 17:0.20731705 18:0.23170733 19:0.28048778 20:0.25333333 21:4 22:0.13333334 23:0.39393941 24:32 
1 1:4 2:4 3:3 4:3 5:21 6:0.5 7:1 8:1 9:3 10:0.10000002 11:0.050000012 12:0.39999998 13:18 14:1 15:0.35820895 16:0.3134328 17:0.1791045 18:0.1791045 19:0.32835823 20:0.125 21:1.5 22:0.25 23:0.16666667 24:21 
1 1:2 2:4 3:3 4:3 5:18 6:0.58823526 7:1 8:1 9:3 10:0.11764705 12:0.29411763 13:15 14:2 15:0.3943662 16:0.29577464 17:0.19718307 18:0.19718307 19:0.30985916 20:0.11764706 21:0.69999999 22:0.27777779 23:0.11764706 24:19 
1 1:4 2:3 5:21 6:0.61904764 7:1 8:2 9:3 10:0.14285713 11:0.19047618 12:0.23809522 13:16 14:3 15:0.4375 16:0.21428573 17:0.20535713 18:0.23214287 19:0.34821427 20:0.2037037 21:0.66666669 22:0.25 23:0.18181819 24:5 
1 1:4 2:6 3:4 4:3 5:22 6:0.36363637 7:1 8:3 9:3 10:0.36363637 11:0.04545456 12:0.27272725 13:17 14:1 15:0.4027149 16:0.28506786 17:0.18552035 18:0.21719456 19:0.31221718 20:0.22222222 21:0.5 22:0.16 23:0.22543353 24:28 
1 1:1 3:1 4:1 5:22 6:0.61904764 7:2 8:2 9:2 10:0.19047618 11:0.52380955 12:0.19047618 13:17 14:1 15:0.6666666 16:0.1851852 17:0.35185188 18:0.3148148 19:0.14814812 20:0.16666667 21:0.45454547 22:0.15384616 24:14 
1 1:4 2:12 5:21 6:0.57142854 7:1 8:2 9:2 10:0.19047618 11:0.14285713 12:0.23809522 13:18 14:1 15:0.45033115 16:0.22516555 17:0.205298 18:0.24503309 19:0.3245033 20:0.3561644 21:1 22:0.11764706 23:0.44230768 24:30 
1 1:4 2:3 3:1 4:3 5:21 6:0.52380955 8:1 9:2 10:0.14285713 11:0.23809522 12:0.3333333 13:19 14:4 15:0.44897962 16:0.26530612 17:0.21428573 18:0.23469388 19:0.28571427 20:0.1827957 21:1 22:0.14285715 23:0.25490198 24:22 
1 1:4 2:3 3:1 4:1 5:21 6:0.47619045 7:4 8:1 9:2 10:0.19047618 11:0.3333333 12:0.3333333 13:19 14:4 15:0.3333333 16:0.25287354 17:0.12643677 18:0.20689654 19:0.4137931 20:0.13253012 21:0.85714287 22:0.05882353 23:0.17073171 24:12 
1 1:4 2:5 3:1 4:2 5:21 6:0.3333333 7:2 8:1 9:3 10:0.38095236 11:0.14285713 12:0.28571427 13:18 14:1 15:0.42391306 16:0.26086956 17:0.19565219 18:0.22826087 19:0.31521738 20:0.23809524 21:1.2857143 22:0.2 23:0.33333334 24:19 
1 1:4 2:2 3:1 4:2 5:21 6:0.28571427 7:1 10:0.3333333 11:0.19047618 12:0.38095236 13:21 14:1 15:0.33720928 16:0.33720928 17:0.13953489 18:0.1976744 19:0.32558137 20:0.125 21:1.125 22:0.1 23:0.2631579 24:21 
1 1:4 2:6 3:12 4:10 5:21 6:0.4285714 7:2 8:1 9:1 10:0.19047618 11:0.28571427 12:0.38095236 13:18 14:2 15:0.4380952 16:0.22857141 17:0.2095238 18:0.22857141 19:0.3333333 20:0.22772278 21:1.5 22:0.32142857 23:0.28813559 24:69 
1 1:2 2:2 5:22 6:0.5454545 7:2 8:1 9:2 10:0.27272725 11:0.36363637 12:0.18181819 13:20 14:1 15:0.5 16:0.19047618 17:0.23809522 18:0.26190478 19:0.30952382 20:0.13157895 21:1.25 22:0.25 23:0.1875 24:5 
1 1:4 2:2 3:2 4:3 5:21 6:0.61904764 7:4 8:1 9:2 10:0.14285713 11:0.4285714 12:0.23809522 13:18 14:1 15:0.5280899 16:0.1573034 17:0.2247191 18:0.30337077 19:0.31460673 20:0.20481928 21:0.875 22:0.2 23:0.2857143 24:19 
1 1:3 2:5 3:4 4:9 5:21 6:0.52380955 7:1 8:2 9:1 10:0.38095236 11:0.3333333 12:0.09523809 13:19 14:3 15:0.3854167 16:0.19791669 17:0.16666669 18:0.21875 19:0.4166667 20:0.16049382 21:0.90909094 22:0.12426036 23:0.23076923 24:87 
0.495305920505861 1:2 2:5 3:4 4:9 5:21 6:0.47619045 7:1 8:2 9:1 10:0.09523809 11:0.19047618 12:0.4285714 13:19 14:4 15:0.3854167 16:0.19791669 17:0.16666669 18:0.21875 19:0.4166667 20:0.16049382 21:1.1 22:0.12426036 23:0.23076923 24:87 
1 1:2 2:1 3:2 4:2 5:22 6:0.57142854 7:1 8:1 9:3 10:0.28571427 11:0.38095236 12:0.14285713 13:18 14:4 15:0.6764706 16:0.13235295 17:0.30882353 18:0.36764705 19:0.19117647 20:0.15625 21:0.80000001 22:0.30000001 23:0.14285715 24:12 
0.6308177235991099 1:4 2:4 3:8 4:4 5:19 6:0.5263158 8:1 9:3 10:0.21052629 11:0.10526317 12:0.2631579 13:16 14:4 15:0.4479167 16:0.21875 17:0.22916669 18:0.21875 19:0.3333333 20:0.24444444 21:1 22:0.40000001 23:0.30769232 24:39 
1 1:1 3:3 4:3 5:21 6:0.57142854 7:1 8:1 9:1 10:0.23809522 11:0.38095236 12:0.19047618 13:20 14:3 15:0.51724136 16:0.24137932 17:0.25862068 18:0.25862068 19:0.24137932 20:0.039999999 21:0.89999998 22:0.15254237 24:34 
0.6924559975247684 1:4 2:2 3:16 4:5 5:21 6:0.28571427 8:1 9:1 10:0.38095236 11:0.19047618 12:0.3333333 13:20 14:3 15:0.28735632 16:0.3678161 17:0.12643677 18:0.16091955 19:0.3448276 20:0.11764706 21:1 22:0.42168674 23:0.23076923 24:65 
1 1:1 2:3 3:2 4:3 5:21 6:0.61904764 7:1 8:1 9:1 10:0.28571427 11:0.38095236 12:0.09523809 13:20 14:2 15:0.4366197 16:0.22535211 17:0.21126759 18:0.22535211 19:0.3380282 20:0.13432837 21:0.75 22:0.27777779 23:0.28 24:20 
1 1:1 2:5 3:8 4:6 5:21 6:0.61904764 8:3 9:2 10:0.09523809 11:0.19047618 12:0.28571427 13:15 14:3 15:0.45977014 16:0.26436782 17:0.26436782 18:0.19540232 19:0.2758621 20:0.28947368 21:2 22:0.41732284 23:0.33333334 24:85 
1 1:1 2:4 5:22 6:0.40909094 7:2 8:1 9:3 10:0.27272725 11:0.13636363 12:0.3181818 13:19 14:2 15:0.44628102 16:0.24793386 17:0.20661157 18:0.23966944 19:0.30578512 20:0.23076923 21:1.125 22:0.1 23:0.2972973 24:11 
1 1:4 2:1 5:21 6:0.57142854 8:1 9:3 10:0.38095236 11:0.3333333 12:0.047619045 13:18 14:2 15:0.61728394 16:0.19753087 17:0.28395063 18:0.3333333 19:0.1851852 20:0.18421052 21:0.90909094 23:0.23529412 24:3 
1 1:4 2:7 3:3 4:2 5:21 6:0.61904764 7:1 8:2 9:2 10:0.14285713 11:0.19047618 12:0.23809522 13:17 14:3 15:0.4859813 16:0.18691587 17:0.22429907 18:0.26168227 19:0.32710278 20:0.30097088 21:0.66666669 22:0.29411766 23:0.37704918 24:22 
1 1:3 2:1 3:3 4:2 5:21 6:0.71428573 7:1 8:3 9:1 10:0.23809522 11:0.61904764 12:0.047619045 13:18 14:2 15:0.59292036 16:0.20353985 17:0.28318584 18:0.30973452 19:0.20353985 20:0.11320755 21:0.83333331 22:0.07692308 23:0.09375 24:43 
1 1:4 2:1 3:1 4:1 5:22 6:0.27272725 8:1 9:1 10:0.40909094 11:0.27272725 12:0.3181818 13:21 14:4 15:0.23000002 16:0.38 17:0.13999999 18:0.089999974 19:0.39 20:0.090909094 21:1 22:0.037037037 23:0.13636364 24:28 
1 1:4 3:3 4:1 5:21 6:0.4285714 7:3 8:1 9:2 10:0.23809522 11:0.23809522 12:0.3333333 13:19 14:3 15:0.40625 16:0.21875 17:0.234375 18:0.171875 19:0.375 20:0.083333336 21:0.77777779 22:0.37931034 24:16 
1 1:4 2:2 5:21 6:0.57142854 7:2 8:1 9:3 10:0.38095236 11:0.3333333 12:0.047619045 13:18 14:2 15:0.53164554 16:0.21518987 17:0.24050635 18:0.29113925 19:0.25316453 20:0.1891892 21:1 23:0.25 24:2 
0.130834975217219 1:4 2:2 3:5 4:1 5:21 6:0.52380955 7:1 8:2 9:3 10:0.23809522 11:0.23809522 12:0.23809522 13:17 14:4 15:0.39534885 16:0.26744187 17:0.17441863 18:0.22093022 19:0.33720928 20:0.20512821 21:1 22:0.44444445 23:0.22222222 24:11 
1 1:4 2:3 5:21 6:0.61904764 7:1 8:1 9:2 10:0.28571427 11:0.52380955 12:0.09523809 13:19 14:4 15:0.52380955 16:0.1785714 17:0.25 18:0.27380955 19:0.29761904 20:0.18987341 21:0.90909094 23:0.2972973 24:3 
1 1:4 2:6 5:26 6:0.375 7:2 8:5 9:2 10:0.16666669 11:0.25 12:0.4583333 13:16 14:1 15:0.35869563 16:0.20652175 17:0.15217394 18:0.20652175 19:0.43478262 20:0.36363637 21:0.90909094 23:0.41463414 24:3 
0.7344202613620268 1:4 2:8 3:7 4:3 5:25 6:0.4583333 8:2 9:5 10:0.3333333 11:0.16666669 12:0.20833331 13:19 14:4 15:0.48351645 16:0.26373625 17:0.2087912 18:0.27472526 19:0.25274724 20:0.23255815 21:1.1428572 22:0.2 23:0.2631579 24:35 
0.5939422175968637 1:4 2:8 3:7 4:2 5:25 6:0.5 8:2 9:4 10:0.25 11:0.375 12:0.25 13:20 14:1 15:0.48421055 16:0.2631579 17:0.21052629 18:0.2736842 19:0.2526316 20:0.22222222 21:1.2857143 22:0.21568628 23:0.2857143 24:33 
0.9668590937000636 1:4 2:2 3:7 4:2 5:21 6:0.52380955 7:1 8:2 9:3 10:0.23809522 11:0.23809522 12:0.23809522 13:17 14:4 15:0.45348835 16:0.25581396 17:0.2093023 18:0.24418604 19:0.2906977 20:0.17948718 21:1 22:0.48387095 23:0.16666667 24:20 
1 1:1 2:10 5:21 6:0.38095236 7:1 8:5 9:1 10:0.14285713 11:0.14285713 12:0.47619045 13:15 14:4 15:0.40707964 16:0.30973452 17:0.19469029 18:0.21238941 19:0.28318584 20:0.40186915 21:1.125 22:0.40000001 23:0.49253732 24:6 
1 1:4 2:4 3:6 4:3 5:21 6:0.4285714 8:1 9:1 10:0.28571427 11:0.19047618 12:0.28571427 13:19 14:1 15:0.3402778 16:0.2777778 17:0.1111111 18:0.22916669 19:0.38194442 20:0.18181819 21:0.8888889 22:0.52380955 23:0.22222222 24:24 
1 1:4 2:1 3:6 4:7 5:21 6:0.3333333 7:1 8:1 9:2 10:0.23809522 11:0.14285713 12:0.4285714 13:19 14:3 15:0.44117647 16:0.2205882 17:0.19117647 18:0.25 19:0.33823532 20:0.084745765 21:1.2857143 22:0.37704918 23:0.11111111 24:39 
1 1:1 2:1 3:6 4:6 5:21 6:0.45 7:1 8:1 9:2 10:0.3 11:0.25 12:0.25 13:18 14:2 15:0.44444442 16:0.20833331 17:0.19444442 18:0.25 19:0.3472222 20:0.11111111 21:1 22:0.36842105 23:0.090909094 24:37 
1 1:4 5:21 6:0.57142854 8:3 9:2 10:0.14285713 11:0.3333333 12:0.28571427 13:17 14:4 15:0.5189873 16:0.1898734 17:0.24050635 18:0.278481 19:0.29113925 20:0.16666667 21:1 23:0.13333334 24:8 
0.9451006305197341 1:1 2:11 3:4 4:5 5:24 6:0.375 7:1 8:2 9:1 10:0.4166667 11:0.2916667 12:0.20833331 13:21 14:1 15:0.21768707 16:0.4557823 17:0.12244898 18:0.09523809 19:0.32653064 20:0.31428573 21:3 22:0.14285715 23:0.41304347 24:52 
1 1:3 2:2 3:4 4:4 5:24 6:0.34782606 8:2 9:1 10:0.34782606 11:0.17391306 12:0.3043478 13:18 14:4 15:0.2936508 16:0.25396824 17:0.15079367 18:0.14285713 19:0.45238096 20:0.25274727 22:0.20689656 23:0.27272728 24:41 
1 1:4 2:2 5:21 6:0.61904764 7:2 8:2 9:2 10:0.09523809 11:0.23809522 12:0.28571427 13:18 14:4 15:0.6 16:0.17500001 17:0.3 18:0.3 19:0.22500002 20:0.21052632 21:0.72727275 23:0.29411766 24:11 
1 1:1 2:4 5:24 6:0.4583333 7:2 8:5 9:3 10:0.375 11:0.125 12:0.16666669 13:11 14:3 15:0.39097744 16:0.34586465 17:0.14285713 18:0.24812031 19:0.2631579 20:0.33870968 23:0.23076923 24:5 
1 1:4 5:21 6:0.57142854 7:4 8:2 9:3 10:0.14285713 11:0.3333333 12:0.28571427 13:17 14:3 15:0.52 16:0.16000003 17:0.22000003 18:0.3 19:0.32 20:0.17391305 21:0.89999998 24:7 
1 1:4 3:1 4:1 5:20 6:0.45 7:1 8:2 9:3 10:0.19999999 11:0.14999998 12:0.35000002 13:16 14:4 15:0.3076923 16:0.3076923 17:0.12307692 18:0.18461537 19:0.38461536 20:0.13793103 21:1 22:0.1 24:11 
1 1:1 3:2 4:3 5:24 6:0.3333333 8:2 9:2 10:0.3333333 11:0.20833331 12:0.3333333 13:21 14:4 15:0.34285712 16:0.34285712 17:0.17142856 18:0.17142856 19:0.3142857 20:0.09375 21:0.36363637 22:0.19047619 24:29 
1 1:1 2:2 3:6 4:3 5:22 6:0.27272725 7:1 8:1 9:2 10:0.5 11:0.090909064 12:0.22727275 13:20 14:1 15:0.32352942 16:0.33823532 17:0.16176468 18:0.16176468 19:0.33823532 20:0.09375 21:0.77777779 22:0.27500001 23:0.1 24:44 
1 1:1 2:6 3:1 4:1 5:24 6:0.4583333 8:1 9:2 10:0.3333333 11:0.2916667 12:0.20833331 13:22 14:1 15:0.40625 16:0.28125 17:0.19999999 18:0.20625001 19:0.3125 20:0.1025641 21:0.80000001 22:0.06666667 23:0.11111111 24:16 
1 1:2 2:2 5:21 6:0.52380955 7:1 8:1 9:1 10:0.19047618 11:0.23809522 12:0.28571427 13:19 14:4 15:0.44444442 16:0.25925928 17:0.19444442 18:0.25 19:0.2962963 20:0.15384616 21:1.1111112 23:0.20634921 24:9 
1 1:4 2:2 5:22 6:0.3333333 7:2 8:2 9:2 10:0.38095236 11:0.23809522 12:0.28571427 13:19 14:4 15:0.44680852 16:0.25531918 17:0.19148934 18:0.25531918 19:0.29787236 20:0.17777778 21:1 23:0.23404256 24:16 
1 1:4 2:1 5:24 6:0.5 7:1 8:2 9:2 10:0.25 11:0.20833331 12:0.25 13:20 14:1 15:0.5 16:0.23170733 17:0.25609756 18:0.24390244 19:0.26829267 20:0.14666666 21:1.6 23:0.11111111 24:25 
1 1:1 2:5 5:24 6:0.4583333 7:1 8:4 9:3 10:0.3333333 11:0.16666669 12:0.20833331 13:15 14:3 15:0.38636363 16:0.32954544 17:0.125 18:0.26136363 19:0.28409094 20:0.30120483 21:0.2857143 23:0.2631579 24:4 
1 1:1 2:2 3:2 4:3 5:24 6:0.3333333 7:2 8:1 9:2 10:0.20833331 11:0.16666669 12:0.4583333 13:22 14:1 15:0.3865546 16:0.29411763 17:0.1932773 18:0.1932773 19:0.3193277 20:0.13043478 21:1.2857143 22:0.25 23:0.1641791 24:22 
1 1:4 2:20 3:3 4:3 5:21 6:0.3333333 7:1 8:2 9:2 10:0.23809522 11:0.14285713 12:0.4285714 13:17 14:1 15:0.25668448 16:0.33155078 17:0.12299466 18:0.13368982 19:0.41176468 20:0.28961748 21:2.5 22:0.21951219 23:0.31914893 24:31 
1 1:4 2:20 3:3 4:4 5:21 6:0.3333333 7:1 8:3 9:3 10:0.38095236 11:0.14285713 12:0.28571427 13:16 14:1 15:0.23489934 16:0.33557045 17:0.12080538 18:0.11409396 19:0.4295302 20:0.32413793 21:1 22:0.18987341 23:0.35922331 24:50 
1 1:2 2:2 3:1 4:1 5:22 6:0.5454545 7:2 8:1 9:1 10:0.22727275 11:0.36363637 12:0.22727275 13:21 14:1 15:0.516129 16:0.2096774 17:0.24193549 18:0.27419353 19:0.27419353 20:0.10344828 21:1.375 22:0.13333334 23:0.2857143 24:16 
1 1:4 2:4 3:5 4:5 5:20 6:0.39999998 7:1 8:2 9:2 10:0.25 11:0.14999998 12:0.35000002 13:17 14:4 15:0.4931507 16:0.260274 17:0.260274 18:0.23287672 19:0.24657536 20:0.2647059 21:1.8 22:0.37931034 23:0.42857143 24:33 
1 1:4 2:4 5:23 6:0.3333333 8:8 9:2 10:0.47619045 11:0.14285713 12:0.19047618 13:14 14:3 15:0.27659577 16:0.30851066 17:0.17021275 18:0.10638297 19:0.41489363 20:0.44736841 21:1.1428572 23:0.5625 24:4 
1 1:4 2:4 3:2 4:1 5:32 6:0.5 7:2 8:12 9:1 10:0.14999998 11:0.14999998 12:0.35000002 13:20 14:1 15:0.48275864 16:0.24137932 17:0.24827588 18:0.23448277 19:0.2758621 20:0.24812031 21:3.3333333 22:0.25 23:0.25925925 24:14 
1 1:4 2:4 3:1 4:2 5:20 6:0.39999998 10:0.19999999 11:0.25 12:0.39999998 13:20 14:2 15:0.46099293 16:0.26950353 17:0.22695035 18:0.23404253 19:0.26950353 20:0.094890513 21:0.89999998 22:0.0099009899 23:0.13402061 24:203 
1 1:4 2:2 3:3 4:6 5:21 6:0.47619045 8:1 9:3 10:0.14285713 11:0.3333333 12:0.38095236 13:18 14:1 15:0.5128205 16:0.21794873 17:0.23076922 18:0.28205127 19:0.26923078 20:0.19444445 21:1 22:0.22499999 23:0.26666668 24:43 
1 1:2 2:11 3:3 4:4 5:22 6:0.5 7:1 10:0.27272725 11:0.090909064 12:0.22727275 13:18 14:3 15:0.43442625 16:0.26229507 17:0.22950822 18:0.20491803 19:0.30327868 20:0.1724138 22:0.28301886 23:0.21052632 24:36 
1 1:4 3:4 4:2 5:33 6:0.47619045 8:12 9:3 10:0.28571427 11:0.23809522 12:0.23809522 13:17 14:2 15:0.5333333 16:0.3 17:0.28333336 18:0.25 19:0.16666669 20:0.30612245 21:1.4 22:0.16666667 24:32 
1 1:2 2:9 3:8 4:10 5:22 6:0.36363637 8:1 9:1 10:0.36363637 11:0.18181819 12:0.27272725 13:20 14:1 15:0.34591192 16:0.3207547 17:0.17610061 18:0.16981131 19:0.3333333 20:0.17419355 21:0.69999999 22:0.22580644 23:0.21428572 24:83 
1 1:1 3:8 4:4 5:21 6:0.7619048 7:2 8:2 9:2 10:0.14285713 11:0.52380955 12:0.09523809 13:17 14:3 15:0.7083334 16:0.125 17:0.3541667 18:0.3541667 19:0.16666669 20:0.18181819 21:0.80000001 22:0.37704918 24:34 
1 1:4 3:8 4:3 5:21 6:0.71428573 7:2 8:2 9:3 10:0.047619045 11:0.23809522 12:0.23809522 13:17 14:2 15:0.7307692 16:0.11538464 17:0.36538464 18:0.36538464 19:0.15384614 20:0.16666667 21:0.8888889 22:0.40350878 24:32 
1 1:2 2:2 3:1 4:4 5:21 6:0.57142854 7:2 10:0.28571427 11:0.28571427 12:0.14285713 13:20 14:2 15:0.47826087 16:0.26086956 17:0.21739131 18:0.26086956 19:0.26086956 20:0.15625 21:0.72727275 22:0.07692308 23:0.36363637 24:41 
1 1:4 2:4 5:21 6:0.4285714 7:3 8:2 9:1 10:0.23809522 11:0.3333333 12:0.3333333 13:18 14:1 15:0.46428573 16:0.22619045 17:0.22619045 18:0.23809522 19:0.30952382 20:0.22580644 21:0.77777779 22:0.5 23:0.25663716 24:11 
1 1:1 2:7 3:2 4:2 5:24 6:0.3333333 7:2 8:1 9:2 10:0.20833331 11:0.16666669 12:0.4583333 13:22 14:1 15:0.36134452 16:0.29411763 17:0.17647058 18:0.18487394 19:0.3445378 20:0.2 21:1.2857143 22:0.15000001 23:0.28358209 24:22 
1 1:4 2:11 5:22 6:0.3333333 8:1 9:3 10:0.3333333 11:0.19047618 12:0.3333333 13:19 14:1 15:0.26744187 16:0.3604651 17:0.1511628 18:0.11627907 19:0.37209302 20:0.29870129 21:1.1666666 23:0.52941179 24:4 
0.8606621737314939 1:4 2:11 5:22 6:0.27272725 8:1 9:3 10:0.45454544 11:0.13636363 12:0.27272725 13:19 14:1 15:0.2777778 16:0.35555553 17:0.15555555 18:0.12222224 19:0.36666667 20:0.28395063 21:0.60000002 23:0.47368422 24:2 
0.1920929586953053 1:4 2:4 3:5 4:2 5:21 6:0.28571427 8:1 9:1 10:0.19047618 11:0.14285713 12:0.52380955 13:20 14:4 15:0.22748816 16:0.38862562 17:0.0947867 18:0.1327014 19:0.38388628 20:0.12077295 21:0.8888889 22:0.19565217 23:0.13939394 24:48 
1 1:4 2:4 3:5 4:2 5:21 6:0.3333333 8:1 9:1 10:0.47619045 11:0.19047618 12:0.19047618 13:19 14:4 15:0.23004693 16:0.3849765 17:0.098591566 18:0.13145542 19:0.3849765 20:0.1291866 21:1.5 22:0.17777778 23:0.13772455 24:47 
0.06482285441490881 1:4 2:2 3:3 4:6 5:21 6:0.47619045 7:2 8:2 9:2 10:0.19047618 11:0.23809522 12:0.3333333 13:18 14:2 15:0.44444442 16:0.23809522 17:0.2063492 18:0.23809522 19:0.3174603 20:0.19298245 21:1.6 22:0.23333333 23:0.33333334 24:34 
1 1:4 2:6 5:26 6:0.375 7:2 8:5 9:2 10:0.16666669 11:0.25 12:0.4583333 13:16 14:1 15:0.34782606 16:0.20652175 17:0.14130437 18:0.20652175 19:0.4456522 20:0.36470589 21:0.90909094 23:0.42105263 24:4 
1 1:1 2:5 3:2 4:3 5:21 6:0.4285714 8:1 9:1 10:0.38095236 11:0.19047618 12:0.19047618 13:20 14:3 15:0.66885245 16:0.17704916 17:0.33442622 18:0.33442622 19:0.15409833 20:0.11627907 21:1.1111112 22:0.048192769 23:0.12741312 24:84 
1 1:4 2:5 3:4 4:9 5:21 6:0.61904764 8:1 9:1 10:0.14285713 11:0.4285714 12:0.23809522 13:20 14:2 15:0.6838235 16:0.16911763 17:0.33823532 18:0.3455882 19:0.14705884 20:0.16666667 21:0.90909094 22:0.06268657 23:0.22222222 24:171 
1 1:4 2:5 3:2 4:3 5:21 6:0.47619045 8:1 9:1 10:0.19047618 11:0.28571427 12:0.3333333 13:20 14:4 15:0.67313915 16:0.1747573 17:0.3365696 18:0.3365696 19:0.15210354 20:0.1147541 21:0.89999998 22:0.049382716 23:0.12547529 24:82 
1 1:2 2:2 3:2 4:2 5:22 6:0.5 7:3 8:2 9:2 10:0.27272725 11:0.3181818 12:0.22727275 13:19 14:1 15:0.4677419 16:0.22580647 17:0.2096774 18:0.2580645 19:0.30645162 20:0.1724138 21:1.4 22:0.18181819 23:0.2857143 24:24 
1 1:4 2:3 5:21 6:0.52380955 7:1 8:2 9:2 10:0.23809522 11:0.23809522 12:0.23809522 13:18 14:4 15:0.38095236 16:0.28571427 17:0.1785714 18:0.20238096 19:0.3333333 20:0.18421052 21:1 23:0.23529412 24:2 
1 1:1 2:2 3:2 4:2 5:24 6:0.3333333 7:2 8:1 9:2 10:0.20833331 11:0.16666669 12:0.4583333 13:22 14:4 15:0.39830506 16:0.279661 17:0.19491524 18:0.20338982 19:0.32203388 20:0.12280702 21:1.2857143 22:0.19047619 23:0.15151516 24:22 
0.002554938980069935 1:4 2:5 3:2 4:1 5:20 6:0.6 7:4 8:1 9:1 10:0.19999999 11:0.35000002 12:0.19999999 13:18 14:4 15:0.3674699 16:0.32530123 17:0.17469877 18:0.19277108 19:0.30722892 20:0.24050634 21:1 22:0.22222222 23:0.28813559 24:11 
1 1:4 2:3 3:1 4:1 5:21 6:0.61904764 8:2 9:4 10:0.14285713 11:0.19047618 12:0.23809522 13:16 14:1 15:0.5764706 16:0.2117647 17:0.30588233 18:0.27058822 19:0.2117647 20:0.24675325 21:1.2222222 22:0.22222222 23:0.25714287 24:10 
0.6191076898009913 1:2 3:3 4:7 5:21 6:0.38095236 7:2 10:0.3333333 11:0.14285713 12:0.28571427 13:20 14:2 15:0.48275864 16:0.25862068 17:0.2241379 18:0.25862068 19:0.25862068 20:0.18518518 21:0.54545456 22:0.35714287 23:0.66666669 24:31 
1 1:3 2:5 3:3 4:7 5:21 6:0.4285714 7:2 8:1 9:1 10:0.19047618 11:0.28571427 12:0.38095236 13:20 14:3 15:0.5 16:0.25 17:0.23333335 18:0.26666665 19:0.25 20:0.17857143 21:1.4285715 22:0.37037036 23:0.5714286 24:30 
1 1:2 2:2 5:42 6:0.5416666 7:1 8:19 9:4 10:0.16666669 11:0.4166667 12:0.2916667 13:18 14:1 15:0.5252525 16:0.19191921 17:0.2929293 18:0.23232323 19:0.28282827 20:0.375 21:0.81818181 23:0.2 24:4 
1 1:2 2:2 3:1 4:1 5:22 6:0.5454545 7:2 8:1 9:1 10:0.22727275 11:0.36363637 12:0.22727275 13:21 14:1 15:0.516129 16:0.2096774 17:0.24193549 18:0.27419353 19:0.27419353 20:0.10344828 21:1.375 22:0.13333334 23:0.2857143 24:16 
0.7934406733174439 1:4 2:3 3:9 4:1 5:20 6:0.55 7:3 8:1 9:2 10:0.25 11:0.19999999 12:0.19999999 13:18 14:4 15:0.4352941 16:0.28235292 17:0.19999999 18:0.2352941 19:0.28235292 20:0.16883117 21:1.125 22:0.33333334 23:0.24324325 24:19 
1 1:3 2:6 3:1 4:1 5:21 6:0.4285714 7:1 8:1 9:2 10:0.38095236 11:0.14285713 12:0.19047618 13:19 14:1 15:0.3333333 16:0.34408605 17:0.13978493 18:0.19354838 19:0.32258064 20:0.21839081 21:1.375 22:0.14285715 23:0.33333334 24:8 
1 1:1 2:6 3:1 4:1 5:21 6:0.38095236 7:2 8:1 9:1 10:0.28571427 11:0.23809522 12:0.3333333 13:19 14:2 15:0.32989693 16:0.3402062 17:0.13402063 18:0.1958763 19:0.32989693 20:0.20879121 21:0.69999999 22:0.2 23:0.30612245 24:6 
1 1:2 2:10 5:20 6:0.5 8:1 9:1 10:0.050000012 11:0.050000012 12:0.45 13:19 14:2 15:0.43434346 16:0.2626263 17:0.22222221 18:0.21212119 19:0.3030303 20:0.30526316 21:1 23:0.4909091 24:1 
1 1:4 2:2 3:2 4:1 5:26 6:0.3333333 7:4 8:8 9:3 10:0.3333333 11:0.28571427 12:0.3333333 13:13 14:3 15:0.4375 16:0.265625 17:0.140625 18:0.296875 19:0.296875 20:0.41379312 21:0.33333334 22:0.17647059 23:0.33333334 24:11 
1 1:4 2:6 3:2 4:2 5:20 6:0.5 7:1 8:2 9:2 10:0.25 11:0.3 12:0.25 13:16 14:4 15:0.40659338 16:0.28571427 17:0.19230771 18:0.21428573 19:0.3076923 20:0.24293785 21:0.80000001 22:0.14285715 23:0.25547445 24:22 
0.7931967497567645 1:3 2:10 3:1 4:1 5:24 6:0.5 7:1 8:1 9:1 10:0.125 11:0.5 12:0.375 13:23 14:1 15:0.43548387 16:0.27419353 17:0.23387098 18:0.20161289 19:0.2903226 20:0.25423729 21:0.90909094 22:0.047619049 23:0.40000001 24:16 
1 1:3 2:4 5:21 6:0.47619045 8:1 9:2 10:0.23809522 11:0.3333333 12:0.28571427 13:17 14:2 15:0.42741936 16:0.2580645 17:0.17741936 18:0.25 19:0.31451613 20:0.28813559 21:1.4 23:0.34210527 24:11 
1 1:4 2:2 3:1 4:1 5:21 6:0.6666666 7:1 8:1 9:3 10:0.14285713 11:0.38095236 12:0.19047618 13:18 14:2 15:0.5081967 16:0.24590164 17:0.22950822 18:0.27868855 19:0.24590164 20:0.16853933 21:0.8888889 22:0.25 23:0.17647059 24:5 
1 1:1 2:1 3:1 4:1 5:20 6:0.5 8:1 9:2 10:0.25 11:0.19999999 12:0.25 13:18 14:4 15:0.5185185 16:0.24691355 17:0.27160496 18:0.24691355 19:0.23456788 20:0.07692308 21:0.81818181 22:0.050000001 23:0.052631579 24:21 
1 1:2 2:1 3:1 4:1 5:19 6:0.5263158 8:1 9:2 10:0.21052629 11:0.2631579 12:0.2631579 13:17 14:4 15:0.5185185 16:0.24691355 17:0.27160496 18:0.24691355 19:0.23456788 20:0.07692308 21:1.3333334 22:0.050000001 23:0.050000001 24:21 
1 1:4 2:7 5:21 6:0.38095236 7:2 8:1 9:3 10:0.23809522 11:0.3333333 12:0.38095236 13:17 14:4 15:0.32 16:0.32999998 17:0.11000001 18:0.20999998 19:0.35000002 20:0.22916667 21:0.85714287 23:0.29824561 24:4 
1 1:4 2:3 3:1 4:1 5:21 6:0.57142854 7:3 8:1 9:2 10:0.23809522 11:0.3333333 12:0.19047618 13:19 14:3 15:0.44680852 16:0.17021275 17:0.19148934 18:0.25531918 19:0.38297874 20:0.17948718 21:1.1 22:0.1 23:0.27777779 24:11 
0.1414139274596893 1:4 2:8 3:3 4:6 5:21 6:0.52380955 8:1 9:2 10:0.23809522 11:0.28571427 12:0.23809522 13:19 14:4 15:0.38095236 16:0.30158728 17:0.1825397 18:0.19841272 19:0.3174603 20:0.22314049 21:0.90909094 22:0.22499999 23:0.30864197 24:47 
1 1:4 2:5 5:21 6:0.47619045 7:2 8:1 9:2 10:0.23809522 11:0.23809522 12:0.28571427 13:19 14:3 15:0.4324324 16:0.2882883 17:0.1981982 18:0.23423421 19:0.2792793 20:0.18867925 21:0.77777779 22:0.16666667 23:0.25 24:11 
1 1:2 2:6 3:1 4:1 5:19 6:0.42105263 10:0.052631557 11:0.31578946 12:0.5263158 13:19 14:4 15:0.44736844 16:0.32894737 17:0.19736844 18:0.25 19:0.22368419 20:0.12903225 21:1 22:0.14285715 23:0.33333334 24:11 
1 1:4 3:4 4:2 5:21 6:0.47619045 7:2 8:1 9:1 10:0.28571427 11:0.19047618 12:0.23809522 13:20 14:2 15:0.34285712 16:0.3142857 17:0.17142856 18:0.17142856 19:0.34285712 20:0.02 21:1.125 22:0.052631579 24:64 
1 1:1 2:1 3:4 4:2 5:21 6:0.28571427 7:1 10:0.28571427 11:0.19047618 12:0.4285714 13:21 14:3 15:0.3333333 16:0.32026142 17:0.16339868 18:0.16993463 19:0.3464052 20:0.013513514 21:0.89999998 22:0.090909094 23:0.018867925 24:40 
1 1:4 2:4 3:5 4:5 5:21 6:0.38095236 7:3 8:2 9:1 10:0.23809522 11:0.28571427 12:0.38095236 13:16 14:3 15:0.5285714 16:0.1857143 17:0.25714284 18:0.27142859 19:0.28571427 20:0.27272728 21:0.25 22:0.26666668 23:0.33333334 24:33 
1 1:4 2:5 3:1 4:3 5:21 6:0.61904764 7:1 8:3 9:2 10:0.14285713 11:0.19047618 12:0.23809522 13:17 14:1 15:0.48000002 16:0.21333331 17:0.21333331 18:0.26666665 19:0.30666667 20:0.2 21:0.91666669 22:0.21951219 23:0.21428572 24:29 
1 1:3 2:4 3:1 4:1 5:21 6:0.57142854 8:1 9:2 10:0.19047618 11:0.4285714 12:0.23809522 13:19 14:1 15:0.46728975 16:0.23364484 17:0.23364484 18:0.23364484 19:0.2990654 20:0.2 21:1 22:0.22222222 23:0.27586207 24:12 
1 1:2 2:4 3:1 4:4 5:21 6:0.61904764 7:1 8:2 9:1 10:0.19047618 11:0.14285713 12:0.19047618 13:18 14:1 15:0.5031056 16:0.17391306 17:0.24223602 18:0.26086956 19:0.32298136 20:0.21794872 21:0.80000001 22:0.15555556 23:0.24561404 24:32 
1 1:4 2:5 3:4 4:1 5:27 6:0.3333333 7:2 8:4 9:4 10:0.20833331 11:0.20833331 12:0.4583333 13:19 14:1 15:0.3333333 16:0.22222221 17:0.1388889 18:0.19444442 19:0.44444442 20:0.28358209 21:1.2857143 22:0.42857143 23:0.41176471 24:16 
0.9947867393867253 1:4 2:1 3:3 4:1 5:21 6:0.52380955 7:2 8:1 9:1 10:0.23809522 11:0.23809522 12:0.23809522 13:20 14:4 15:0.41176468 16:0.30588233 17:0.17647058 18:0.2352941 19:0.28235292 20:0.081081077 21:1 22:0.42857143 23:0.125 24:11 
1 1:4 5:26 6:0.6818182 7:2 8:4 9:4 11:0.22727275 12:0.3181818 13:19 14:3 15:0.7222222 16:0.1111111 17:0.3148148 18:0.4074074 19:0.16666669 20:0.16 21:0.81818181 22:0.33333334 24:15 
1 1:4 2:11 3:5 4:2 5:22 6:0.4285714 8:1 9:1 10:0.4285714 11:0.28571427 12:0.14285713 13:21 14:4 15:0.3719008 16:0.38016528 17:0.1570248 18:0.21487606 19:0.24793386 20:0.32743362 21:0.81818181 22:0.29411766 23:0.51428574 24:19 
1 1:4 2:9 5:22 6:0.5 7:2 8:1 9:2 10:0.22727275 11:0.22727275 12:0.27272725 13:19 14:3 15:0.4177215 16:0.24050635 17:0.24050635 18:0.17721522 19:0.34177214 20:0.2238806 21:1 23:0.41666666 24:2 
1 1:4 2:2 3:8 4:5 5:21 6:0.57142854 7:1 8:2 9:4 10:0.19047618 11:0.23809522 12:0.23809522 13:16 14:2 15:0.44186044 16:0.31395346 17:0.18604654 18:0.25581396 19:0.24418604 20:0.23076923 21:0.875 22:0.33333334 23:0.22222222 24:57 
1 1:4 2:2 3:8 4:5 5:21 6:0.52380955 7:1 8:2 9:3 10:0.38095236 11:0.3333333 12:0.09523809 13:17 14:2 15:0.4680851 16:0.29787236 17:0.20212764 18:0.26595747 19:0.23404253 20:0.20930232 21:0.90909094 22:0.36585367 23:0.22727273 24:53 
1 1:4 2:7 3:1 4:2 5:22 6:0.57142854 7:3 8:2 9:4 10:0.14285713 11:0.3333333 12:0.28571427 13:17 14:3 15:0.41176468 16:0.24509805 17:0.18627453 18:0.22549021 19:0.34313726 20:0.34042552 21:1.2857143 22:0.13043478 23:0.46153846 24:13 
1 1:4 2:3 3:1 4:1 5:21 6:0.5 7:1 8:1 9:1 10:0.39999998 11:0.35000002 12:0.10000002 13:20 14:2 15:0.4270833 16:0.19791669 17:0.17708331 18:0.25 19:0.375 20:0.12359551 21:0.90909094 22:0.090909094 23:0.20833333 24:7 
1 1:2 2:4 3:2 4:3 5:21 6:0.57142854 7:2 8:1 9:1 10:0.38095236 11:0.3333333 12:0.047619045 13:19 14:1 15:0.48913044 16:0.22826087 17:0.26086956 18:0.22826087 19:0.2826087 20:0.24137931 21:0.63636363 22:0.27777779 23:0.37777779 24:30 
1 1:4 2:1 3:1 4:3 5:23 6:0.47826087 7:3 8:2 9:1 10:0.3043478 11:0.21739131 12:0.21739131 13:20 14:1 15:0.33720928 16:0.38372093 17:0.1976744 18:0.13953489 19:0.27906978 20:0.2647059 21:0.5714286 22:0.07692308 23:0.54545456 24:40 
1 1:1 2:5 3:2 4:2 5:22 6:0.40909094 8:1 9:1 10:0.27272725 11:0.22727275 12:0.3181818 13:21 14:4 15:0.40206188 16:0.31958765 17:0.1958763 18:0.20618558 19:0.27835053 20:0.15217391 21:1.125 22:0.095238097 23:0.25 24:23 
1 1:2 2:6 3:1 4:2 5:21 6:0.52380955 8:1 9:1 10:0.23809522 11:0.19047618 12:0.23809522 13:18 14:4 15:0.43457943 16:0.3037383 17:0.25700933 18:0.1775701 19:0.26168227 20:0.25 21:1.1428572 22:0.10526316 23:0.27710843 24:20 
0.2650049721569112 1:4 2:5 3:8 4:2 5:22 6:0.52380955 7:2 8:1 9:3 10:0.09523809 11:0.3333333 12:0.38095236 13:19 14:2 15:0.5049505 16:0.1980198 17:0.25742573 18:0.24752474 19:0.29702967 20:0.20833333 21:1.25 22:0.26530612 23:0.28301886 24:39 
1 1:4 2:1 3:1 4:1 5:22 6:0.36363637 8:1 9:1 10:0.27272725 11:0.18181819 12:0.36363637 13:20 14:1 15:0.3203125 16:0.3515625 17:0.171875 18:0.1484375 19:0.328125 20:0.06666667 21:2 22:0.037037037 23:0.052631579 24:15 
1 1:4 2:1 5:24 6:0.57142854 7:1 8:3 9:2 10:0.19047618 11:0.4285714 12:0.23809522 13:20 14:4 15:0.55 16:0.16666669 17:0.3 18:0.25 19:0.28333336 20:0.11111111 21:0.80000001 23:0.11111111 24:21 
1 1:1 2:4 3:2 4:2 5:21 6:0.52380955 7:2 8:1 9:1 10:0.28571427 11:0.23809522 12:0.19047618 13:20 14:1 15:0.46666664 16:0.24000001 17:0.18666667 18:0.27999997 19:0.29333335 20:0.18309858 21:1 22:0.27272728 23:0.37931034 24:18 
1 1:1 2:1 3:6 4:7 5:21 6:0.38095236 7:3 8:1 9:2 10:0.28571427 11:0.19047618 12:0.3333333 13:19 14:4 15:0.4375 16:0.28750002 17:0.22500002 18:0.21249998 19:0.27499998 20:0.13513513 21:1 22:0.3968254 23:0.1875 24:37 
1 1:4 2:2 3:6 4:6 5:21 6:0.47619045 7:4 8:1 9:3 10:0.23809522 11:0.28571427 12:0.28571427 13:18 14:2 15:0.44047618 16:0.27380955 17:0.22619045 18:0.21428573 19:0.28571427 20:0.15384616 21:1.1428572 22:0.3898305 23:0.16666667 24:35 
1 1:4 2:2 3:1 4:1 5:21 6:0.47619045 7:2 8:1 9:2 10:0.23809522 11:0.23809522 12:0.28571427 13:19 14:3 15:0.39999998 16:0.17272729 17:0.21818179 18:0.18181819 19:0.42727274 20:0.14634146 21:0.77777779 22:0.2631579 23:0.2 24:11 
1 1:1 2:12 5:21 6:0.3333333 7:1 8:3 9:1 10:0.4285714 11:0.23809522 12:0.23809522 13:16 14:4 15:0.32286996 16:0.29596412 17:0.14798206 18:0.1748879 19:0.38116592 20:0.34562212 21:2.5 23:0.37853107 24:11 
0.9918185040362242 1:4 2:13 3:13 4:12 5:21 6:0.3333333 7:1 8:3 9:2 10:0.38095236 11:0.23809522 12:0.28571427 13:17 14:1 15:0.34444445 16:0.22222221 17:0.14444447 18:0.19999999 19:0.43333334 20:0.27906978 21:0.80000001 22:0.39024389 23:0.37777779 24:87 
0.9265338519655291 1:1 2:13 3:13 4:12 5:22 6:0.38095236 7:1 8:3 9:2 10:0.28571427 11:0.19047618 12:0.3333333 13:18 14:3 15:0.34042555 16:0.22340423 17:0.13829786 18:0.20212764 19:0.43617022 20:0.26666668 21:1.375 22:0.40000001 23:0.36170211 24:85 
1 1:1 2:1 3:1 4:1 5:25 6:0.5833334 7:1 8:1 9:4 10:0.2916667 11:0.375 12:0.125 13:21 14:3 15:0.5131579 16:0.2631579 17:0.2894737 18:0.22368419 19:0.22368419 20:0.14285715 21:1.1111112 22:0.035714287 23:0.18181819 24:32 
0.699074928710779 1:2 2:6 3:3 4:3 5:22 6:0.5909091 8:1 9:3 10:0.04545456 11:0.04545456 12:0.36363637 13:18 14:1 15:0.44144142 16:0.23423421 17:0.22522521 18:0.2162162 19:0.3243243 20:0.25 21:1 22:0.14285715 23:0.3114754 24:32 
1 1:1 2:6 3:3 4:3 5:21 6:0.47619045 8:1 9:3 10:0.38095236 11:0.38095236 12:0.14285713 13:18 14:4 15:0.4434783 16:0.23478264 17:0.22608697 18:0.21739131 19:0.32173914 20:0.24074075 21:1.375 22:0.15555556 23:0.30303031 24:30 
1 1:1 2:2 3:6 4:1 5:24 6:0.23809522 7:3 8:4 9:4 10:0.47619045 11:0.19047618 12:0.28571427 13:16 14:3 15:0.3296703 16:0.36263734 17:0.12087911 18:0.2087912 19:0.3076923 20:0.29411766 21:0.66666669 22:0.15000001 23:0.30000001 24:24 
1 1:4 2:1 3:2 4:3 5:21 6:0.4285714 7:1 8:2 9:3 10:0.23809522 11:0.28571427 12:0.3333333 13:16 14:1 15:0.3918919 16:0.2972973 17:0.14864862 18:0.24324322 19:0.3108108 20:0.2173913 21:1 22:0.24324325 23:0.18518518 24:20 
1 1:1 2:1 3:2 4:2 5:21 6:0.3333333 7:1 8:2 9:2 10:0.38095236 11:0.23809522 12:0.28571427 13:17 14:3 15:0.3974359 16:0.2948718 17:0.15384614 18:0.24358976 19:0.3076923 20:0.20547946 21:0.60000002 22:0.27272728 23:0.22580644 24:18 
1 1:4 2:17 3:1 4:1 5:21 6:0.52380955 7:2 8:3 9:3 10:0.23809522 11:0.4285714 12:0.23809522 13:16 14:2 15:0.5314286 16:0.21714288 17:0.29142857 18:0.24000001 19:0.25142854 20:0.3882353 21:0.22222222 22:0.06666667 23:0.44615385 24:16 
1 1:1 2:2 3:1 4:1 5:20 6:0.5 7:1 8:2 9:2 10:0.3 11:0.19999999 12:0.19999999 13:17 14:2 15:0.48809522 16:0.22619045 17:0.26190478 18:0.22619045 19:0.28571427 20:0.19480519 21:0.69999999 22:0.11111111 23:0.24324325 24:12 
1 1:4 2:2 3:3 4:3 5:21 6:0.61904764 7:2 8:2 9:2 10:0.09523809 11:0.23809522 12:0.28571427 13:18 14:4 15:0.5125 16:0.22500002 17:0.23750001 18:0.27499998 19:0.2625 20:0.18421052 21:0.72727275 22:0.2820513 23:0.23529412 24:21 
0.1591861756220075 1:4 2:4 3:9 4:2 5:22 6:0.4285714 7:2 8:1 9:2 10:0.19047618 11:0.047619045 12:0.38095236 13:19 14:1 15:0.50543475 16:0.22282606 17:0.25 18:0.2554348 19:0.27173913 20:0.22905028 21:0.75 22:0.20833333 23:0.2647059 24:40 
1 1:1 2:13 3:6 4:1 5:24 6:0.3333333 7:2 8:1 9:2 10:0.20833331 11:0.16666669 12:0.4583333 13:22 14:1 15:0.3652174 16:0.29565215 17:0.17391306 18:0.19130433 19:0.33913046 20:0.27927929 21:1.2857143 22:0.23076923 23:0.42857143 24:25 
1 1:4 2:2 5:22 6:0.45454544 7:2 8:1 9:2 10:0.18181819 11:0.3181818 12:0.36363637 13:20 14:4 15:0.32558137 16:0.26744187 17:0.13953489 18:0.18604654 19:0.40697676 20:0.14634146 21:0.66666669 23:0.23076923 24:6 
1 1:3 2:7 5:23 6:0.3043478 7:2 8:1 9:1 10:0.39130437 11:0.17391306 12:0.3043478 13:22 14:3 15:0.34862387 16:0.3669725 17:0.20183486 18:0.14678901 19:0.28440368 20:0.17647059 21:1 23:0.2857143 24:11 
1 1:1 2:2 5:24 6:0.3333333 7:2 8:1 9:2 10:0.20833331 11:0.16666669 12:0.4583333 13:22 14:1 15:0.4102564 16:0.27350426 17:0.2051282 18:0.2051282 19:0.3162393 20:0.11504425 21:1.2857143 23:0.13846155 24:8 
1 1:4 2:1 3:3 4:3 5:24 6:0.23809522 7:2 8:3 9:2 10:0.38095236 11:0.047619045 12:0.38095236 13:20 14:4 15:0.37179488 16:0.3333333 17:0.16666669 18:0.2051282 19:0.2948718 20:0.14285715 21:0.8888889 22:0.2 23:0.2 24:33 
1 1:4 2:1 3:3 4:3 5:21 6:0.3333333 7:2 8:3 9:2 10:0.38095236 11:0.28571427 12:0.28571427 13:17 14:1 15:0.38157892 16:0.32894737 17:0.17105263 18:0.21052629 19:0.2894737 20:0.14705883 21:1.6666666 22:0.19148937 23:0.1724138 24:34 
1 1:2 2:4 5:20 6:0.6 7:3 10:0.19999999 11:0.35000002 12:0.19999999 13:18 14:1 15:0.5283019 16:0.2201258 17:0.26415092 18:0.26415092 19:0.2515723 20:0.20512821 21:0.875 23:0.24786325 24:2 
1 1:4 2:1 3:2 4:5 5:21 6:0.61904764 7:2 8:2 9:2 10:0.14285713 11:0.19047618 12:0.23809522 13:18 14:1 15:0.6 16:0.17142856 17:0.3142857 18:0.28571427 19:0.22857141 20:0.14285715 21:0.91666669 22:0.3877551 23:0.14285715 24:29 
1 1:4 2:5 3:7 4:2 5:22 6:0.45454544 7:2 8:2 9:1 10:0.13636363 11:0.3181818 12:0.40909094 13:20 14:3 15:0.39999998 16:0.32631576 17:0.19999999 18:0.19999999 19:0.2736842 20:0.19101124 21:0.89999998 22:0.30909091 23:0.2888889 24:29 
1 1:4 2:4 3:1 4:2 5:21 6:0.47619045 7:2 8:1 9:2 10:0.23809522 11:0.23809522 12:0.28571427 13:19 14:3 15:0.3695652 16:0.26086956 17:0.1630435 18:0.20652175 19:0.3695652 20:0.1627907 21:0.77777779 22:0.26666668 23:0.22727273 24:16 
1 1:3 3:1 4:1 5:24 6:0.4583333 7:6 8:1 9:2 10:0.2916667 11:0.3333333 12:0.25 13:20 14:1 15:0.4339623 16:0.2264151 17:0.11320752 18:0.3207547 19:0.33962262 20:0.125 21:1 22:0.2631579 24:15 
1 1:4 2:4 3:5 4:6 5:21 6:0.47619045 7:2 8:1 9:1 10:0.28571427 11:0.3333333 12:0.23809522 13:20 14:2 15:0.38636363 16:0.26136363 17:0.18181819 18:0.20454544 19:0.35227275 20:0.15294118 21:0.81818181 22:0.24705882 23:0.25581396 24:47 
1 1:3 2:3 3:3 4:2 5:25 6:0.38095236 7:1 8:3 9:3 10:0.28571427 11:0.3333333 12:0.3333333 13:17 14:1 15:0.33749998 16:0.28750002 17:0.16250002 18:0.17500001 19:0.375 20:0.24324325 21:1.8 22:0.2972973 23:0.24137931 24:21 
1 1:4 2:1 3:1 4:1 5:22 6:0.36363637 7:1 8:1 9:1 10:0.27272725 11:0.18181819 12:0.36363637 13:21 14:1 15:0.2890625 16:0.3515625 17:0.1328125 18:0.15625 19:0.359375 20:0.064516127 21:0.69999999 22:0.071428575 23:0.075000003 24:15 
1 1:1 2:8 5:22 6:0.40909094 8:1 9:2 10:0.45454544 11:0.18181819 12:0.13636363 13:19 14:4 15:0.31914896 16:0.35106385 17:0.17021275 18:0.14893615 19:0.32978725 20:0.19101124 21:2.25 23:0.24444444 24:11 
1 1:4 2:2 3:1 4:9 5:21 6:0.47619045 7:1 10:0.28571427 11:0.28571427 12:0.23809522 13:21 14:3 15:0.5142857 16:0.21428573 17:0.25714284 18:0.25714284 19:0.27142859 20:0.10769231 21:1 22:0.074074075 23:0.30434781 24:110 
1 1:4 2:2 5:20 6:0.5 7:1 8:4 9:2 10:0.19999999 11:0.25 12:0.3 13:15 14:1 15:0.36190474 16:0.28571427 17:0.2190476 18:0.14285713 19:0.35238093 20:0.20454545 21:1.125 23:0.18367347 24:10 
1 1:2 2:6 3:2 4:1 5:21 6:0.61904764 8:1 9:1 10:0.38095236 11:0.3333333 13:19 14:1 15:0.51086956 16:0.18478262 17:0.26086956 18:0.25 19:0.3043478 20:0.24705882 21:0.58333331 22:0.11111111 23:0.39534885 24:30 
1 1:4 2:8 3:1 4:1 5:22 6:0.45 7:3 8:1 9:3 10:0.19999999 11:0.050000012 12:0.35000002 13:19 14:1 15:0.48351645 16:0.18681318 17:0.24175823 18:0.24175823 19:0.3296703 20:0.22499999 21:1.2857143 22:0.125 23:0.36842105 24:9 
1 1:4 2:1 3:1 4:1 5:22 6:0.36363637 7:1 8:1 9:1 10:0.27272725 11:0.18181819 12:0.36363637 13:21 14:1 15:0.2578125 16:0.3828125 17:0.1328125 18:0.125 19:0.359375 20:0.080645159 21:0.69999999 22:0.052631579 23:0.1 24:20 
0.7945237321678618 1:4 2:12 3:1 4:1 5:20 6:0.6 8:2 9:2 10:0.19999999 11:0.35000002 12:0.19999999 13:16 14:4 15:0.46327686 16:0.24293786 17:0.19209039 18:0.2711864 19:0.29378533 20:0.27906978 21:1 22:0.11111111 23:0.30303031 24:11 
1 1:2 2:3 3:3 4:6 5:22 6:0.61904764 7:1 8:2 9:2 10:0.23809522 11:0.3333333 12:0.14285713 13:18 14:2 15:0.3960396 16:0.2871287 17:0.16831684 18:0.22772276 19:0.3168317 20:0.2 21:0.72727275 22:0.175 23:0.23076923 24:43 
0.4617701977822509 1:4 2:8 3:2 4:5 5:22 6:0.45454544 7:2 8:1 9:2 10:0.18181819 11:0.3181818 12:0.36363637 13:20 14:4 15:0.4380952 16:0.25714284 17:0.19999999 18:0.23809522 19:0.3047619 20:0.20792079 21:0.80000001 22:0.21621622 23:0.31034482 24:38 
1 1:4 2:2 3:5 4:3 5:21 6:0.61904764 7:3 8:1 9:2 10:0.09523809 11:0.23809522 12:0.28571427 13:19 14:4 15:0.6333333 16:0.16666669 17:0.35555553 18:0.2777778 19:0.19999999 20:0.15789473 21:0.72727275 22:0.34999999 23:0.23529412 24:40 
1 1:4 2:4 3:1 4:2 5:22 6:0.27272725 7:3 8:1 9:2 10:0.40909094 11:0.27272725 12:0.3181818 13:20 14:4 15:0.18181819 16:0.42424244 17:0.090909064 18:0.090909064 19:0.39393938 20:0.16129032 21:1 22:0.071428575 23:0.22448979 24:29 
1 1:4 2:1 3:2 4:2 5:20 6:0.25 7:4 10:0.25 11:0.14999998 12:0.5 13:20 14:1 15:0.36507934 16:0.3174603 17:0.14285713 18:0.22222221 19:0.3174603 20:0.068965517 21:0.8888889 22:0.23529412 23:0.22222222 24:30 
1 1:4 2:1 3:1 4:1 5:21 6:0.47619045 7:4 8:1 9:1 10:0.28571427 11:0.28571427 12:0.23809522 13:20 14:4 15:0.37313432 16:0.32835823 17:0.14925373 18:0.22388059 19:0.29850745 20:0.096774191 21:1.2857143 22:0.2 23:0.2 24:28 
1 1:4 3:1 4:1 5:22 6:0.36363637 10:0.27272725 11:0.18181819 12:0.36363637 13:22 14:1 15:0.33870965 16:0.33064514 17:0.16129035 18:0.17741936 19:0.33064514 21:1 22:0.071428575 24:15 
1 1:3 2:3 3:3 4:1 5:21 6:0.6666666 7:3 8:1 9:2 10:0.23809522 11:0.4285714 12:0.09523809 13:19 14:4 15:0.4774775 16:0.24324322 17:0.22522521 18:0.25225228 19:0.2792793 20:0.18867925 21:0.66666669 22:0.25 23:0.25 24:13 
1 1:2 2:3 5:21 6:0.52380955 7:3 8:1 9:2 10:0.14285713 11:0.23809522 12:0.3333333 13:19 14:2 15:0.47826087 16:0.24347824 17:0.22608697 18:0.2521739 19:0.2782609 20:0.18181819 21:1.5714285 22:0.30000001 23:0.23529412 24:11 
1 1:4 2:8 3:1 5:21 6:0.09523809 8:5 9:1 10:0.47619045 12:0.4285714 13:16 14:4 15:0.06504065 16:0.41463417 17:0.032520354 18:0.032520354 19:0.5203252 20:0.24137931 21:1 22:0.33333334 23:0.25333333 24:17 
1 1:2 3:1 4:1 5:21 6:0.47619045 7:1 8:1 9:2 10:0.3333333 11:0.14285713 12:0.19047618 13:18 14:4 15:0.3918919 16:0.3243243 17:0.22972971 18:0.16216218 19:0.2837838 20:0.10344828 21:1 22:0.06666667 24:12 
1 1:1 2:2 3:1 4:3 5:20 6:0.35000002 8:1 9:2 10:0.35000002 11:0.050000012 12:0.3 13:18 14:4 15:0.3642857 16:0.3214286 17:0.1857143 18:0.1785714 19:0.3142857 20:0.096296296 21:0.8888889 22:0.054054055 23:0.094736844 24:39 
0.3753668357742662 1:1 2:6 3:3 4:5 5:21 6:0.47619045 8:1 9:3 10:0.14285713 11:0.047619045 12:0.38095236 13:17 14:1 15:0.49532712 16:0.20560747 17:0.18691587 18:0.30841124 19:0.2990654 20:0.21568628 21:1 22:0.25806451 23:0.23333333 24:37 
0.5879252903445051 1:1 2:6 3:3 4:4 5:21 6:0.38095236 8:2 9:3 10:0.4285714 11:0.3333333 12:0.19047618 13:17 14:3 15:0.4864865 16:0.2162162 17:0.1891892 18:0.2972973 19:0.2972973 20:0.2264151 21:2 22:0.24137931 23:0.25 24:35 
1 1:4 2:1 3:6 4:5 5:23 6:0.3333333 7:4 8:1 9:4 10:0.23809522 11:0.23809522 12:0.4285714 13:19 14:4 15:0.32558137 16:0.26744187 17:0.13953489 18:0.18604654 19:0.40697676 20:0.084337346 21:1.2857143 22:0.19480519 23:0.025641026 24:42 
0.2565969011955016 1:4 2:6 5:21 6:0.4285714 7:3 8:1 9:2 10:0.09523809 11:0.19047618 12:0.47619045 13:19 14:4 15:0.32919252 16:0.27329195 17:0.14285713 18:0.18633538 19:0.39751554 20:0.1392405 21:0.77777779 23:0.16239317 24:2 
1 1:3 2:23 5:22 6:0.5454545 7:3 8:1 9:3 10:0.27272725 11:0.36363637 12:0.18181819 13:18 14:4 15:0.25850338 16:0.46258503 17:0.14285713 18:0.11564624 19:0.2789116 20:0.39568347 21:1 23:0.49473685 24:4 
1 1:4 2:20 3:3 4:6 5:22 6:0.45454544 7:2 8:2 9:1 10:0.13636363 11:0.40909094 12:0.40909094 13:18 14:3 15:0.43548387 16:0.18548387 17:0.19354838 18:0.24193549 19:0.37903225 20:0.31092438 21:0.85714287 22:0.16071428 23:0.39473686 24:57 
1 1:1 2:2 3:6 4:4 5:21 6:0.4285714 7:1 8:3 9:1 10:0.14285713 11:0.28571427 12:0.4285714 13:18 14:2 15:0.40909094 16:0.3181818 17:0.21590906 18:0.19318181 19:0.27272725 20:0.15662651 21:0.89999998 22:0.38461539 23:0.17073171 24:33 
1 1:1 2:1 3:2 4:4 5:24 6:0.375 7:3 8:1 9:2 10:0.16666669 11:0.25 12:0.4583333 13:22 14:1 15:0.37333333 16:0.27999997 17:0.17333335 18:0.19999999 19:0.3466667 20:0.10714286 21:1.4285715 22:0.19298245 23:0.25 24:32 
1 1:3 2:2 5:26 6:0.73913044 7:2 8:3 9:4 10:0.13043481 11:0.39130437 12:0.13043481 13:18 14:3 15:0.5584415 16:0.22077924 17:0.27272725 18:0.28571427 19:0.22077924 20:0.21212122 21:0.81818181 23:0.15789473 24:3 
1 1:4 2:7 3:5 4:13 5:21 6:0.57142854 8:1 9:4 10:0.28571427 11:0.3333333 12:0.14285713 13:17 14:3 15:0.47142857 16:0.25714284 17:0.24285716 18:0.22857141 19:0.27142859 20:0.25373134 21:1 22:0.27941176 23:0.36000001 24:75 
1 1:2 2:1 3:1 4:1 5:22 6:0.55 8:1 9:2 10:0.39999998 11:0.35000002 12:0.050000012 13:20 14:2 15:0.5925926 16:0.19753087 17:0.28395063 18:0.30864197 19:0.20987654 20:0.10526316 21:0.72727275 22:0.090909094 23:0.17647059 24:13 
1 1:4 2:4 3:3 4:4 5:21 6:0.6666666 7:3 8:2 9:3 10:0.14285713 11:0.19047618 12:0.19047618 13:17 14:3 15:0.3897059 16:0.29411763 17:0.18382353 18:0.20588237 19:0.31617647 20:0.20610687 21:0.83333331 22:0.26086956 23:0.21348314 24:26 
0.8462635162924842 1:4 2:2 3:1 5:21 6:0.47619045 7:2 8:1 9:1 10:0.23809522 11:0.23809522 12:0.28571427 13:20 14:4 15:0.41975307 16:0.25925928 17:0.19753087 18:0.22222221 19:0.32098764 20:0.14666666 21:1 22:0.33333334 23:0.27272728 24:12 
1 1:4 2:1 3:2 4:3 5:23 6:0.45454544 8:2 9:2 10:0.36363637 11:0.13636363 12:0.18181819 13:19 14:1 15:0.4366197 16:0.26760566 17:0.22535211 18:0.21126759 19:0.29577464 20:0.1641791 21:1.3333334 22:0.13333334 23:0.18181819 24:46 
1 1:4 3:5 4:2 5:22 6:0.4736842 8:2 9:4 10:0.2631579 11:0.21052629 12:0.2631579 13:14 14:3 15:0.5185185 16:0.2777778 17:0.3148148 18:0.2037037 19:0.2037037 20:0.2173913 21:0.875 22:0.24324325 24:23 
1 1:4 2:4 3:4 4:1 5:22 6:0.61904764 7:1 8:1 9:3 10:0.14285713 11:0.23809522 12:0.23809522 13:18 14:3 15:0.56842107 16:0.19999999 17:0.32631576 18:0.24210525 19:0.23157895 20:0.19101124 21:1.2857143 22:0.40000001 23:0.2173913 24:26 
1 1:1 2:1 5:30 6:0.39999998 8:10 9:2 10:0.35000002 11:0.3 12:0.25 13:17 14:1 15:0.39999998 16:0.3 17:0.23750001 18:0.16250002 19:0.3 20:0.25 21:2.5 23:0.090909094 24:11 
1 1:4 2:2 3:5 4:5 5:21 6:0.52380955 8:2 9:3 10:0.19047618 11:0.19047618 12:0.28571427 13:16 14:4 15:0.5072464 16:0.21739131 17:0.23188406 18:0.2753623 19:0.2753623 20:0.21875 21:0.80000001 22:0.35593221 23:0.18181819 24:32 
1 1:4 2:28 3:1 4:3 5:21 6:0.61904764 7:1 8:2 9:3 10:0.14285713 11:0.19047618 12:0.23809522 13:17 14:3 15:0.5104166 16:0.22916669 17:0.23958331 18:0.2708333 19:0.2604167 20:0.39130434 21:0.66666669 22:0.23529412 23:0.56 24:24 
1 1:4 2:2 3:3 4:3 5:21 6:0.19047618 7:2 8:1 9:1 10:0.28571427 11:0.09523809 12:0.52380955 13:20 14:2 15:0.2605042 16:0.39495796 17:0.14285713 18:0.11764705 19:0.3445378 20:0.12280702 21:0.66666669 22:0.078014188 23:0.16666667 24:75 
1 1:1 2:5 3:4 4:2 5:21 6:0.61904764 7:1 8:1 9:1 10:0.28571427 11:0.38095236 12:0.09523809 13:19 14:2 15:0.4390244 16:0.25609756 17:0.23170733 18:0.20731705 19:0.30487806 20:0.2631579 21:0.58333331 22:0.2173913 23:0.47058824 24:25 
1 1:2 2:14 3:1 4:2 5:21 6:0.57142854 8:2 9:1 10:0.28571427 11:0.28571427 12:0.14285713 13:18 14:4 15:0.32631576 16:0.33684212 17:0.14736843 18:0.17894739 19:0.33684212 20:0.26086956 21:0.72727275 22:0.081081077 23:0.36000001 24:20 
1 1:4 2:3 5:23 6:0.47619045 8:1 9:2 10:0.4285714 11:0.3333333 12:0.09523809 13:20 14:3 15:0.43209875 16:0.25925928 17:0.23456788 18:0.19753087 19:0.30864197 20:0.13157895 21:1.25 23:0.1875 24:2 
1 1:4 2:1 3:5 4:3 5:21 6:0.4285714 7:3 8:1 9:1 10:0.23809522 11:0.3333333 12:0.3333333 13:20 14:4 15:0.38666666 16:0.27999997 17:0.16000003 18:0.22666669 19:0.3333333 20:0.070422538 21:1.3333334 22:0.34782609 23:0.10344828 24:26 
1 1:4 2:3 3:3 4:4 5:22 6:0.45454544 7:2 8:1 9:1 10:0.3181818 11:0.22727275 12:0.22727275 13:21 14:2 15:0.3820225 16:0.25842696 17:0.16853935 18:0.21348315 19:0.35955054 20:0.11627907 21:1 22:0.37142858 23:0.19047619 24:19 
1 1:3 2:1 5:22 6:0.52380955 7:3 8:1 9:2 10:0.14285713 11:0.3333333 12:0.3333333 13:20 14:2 15:0.58208954 16:0.13432837 17:0.26865673 18:0.3134328 19:0.2835821 20:0.096774191 21:1.375 22:0.1 23:0.15789473 24:14 
1 1:4 3:1 4:1 5:24 6:0.4166667 7:2 8:1 9:2 10:0.20833331 11:0.2916667 12:0.375 13:22 14:3 15:0.36507934 16:0.25396824 17:0.15873015 18:0.2063492 19:0.38095236 20:0.07692308 21:1.5 22:0.045454547 24:23 
1 1:4 2:3 5:22 6:0.4285714 7:3 8:2 9:2 10:0.23809522 11:0.3333333 12:0.3333333 13:19 14:3 15:0.4390244 16:0.23780489 17:0.18902439 18:0.25 19:0.32317072 20:0.21250001 21:0.66666669 22:0.40000001 23:0.24786325 24:11 
1 1:4 2:2 5:21 6:0.57142854 7:1 8:1 9:2 10:0.19047618 11:0.3333333 12:0.23809522 13:18 14:4 15:0.41279072 16:0.29651165 17:0.2093023 18:0.20348835 19:0.2906977 20:0.20512821 21:1 23:0.22807017 24:3 
1 1:1 2:6 3:2 4:6 5:21 6:0.38095236 7:3 8:1 9:1 10:0.14285713 11:0.28571427 12:0.47619045 13:20 14:1 15:0.39108908 16:0.28217822 17:0.20297033 18:0.18811882 19:0.3267327 20:0.15151516 21:0.89999998 22:0.13978495 23:0.17948718 24:48 
0.8373463585032888 1:4 2:6 3:2 4:4 5:21 6:0.4285714 7:1 8:1 9:2 10:0.19047618 11:0.3333333 12:0.38095236 13:18 14:1 15:0.38839287 16:0.28571427 17:0.20535713 18:0.18303573 19:0.32589287 20:0.15454546 21:1.4285715 22:0.12676056 23:0.15730338 24:37 
1 1:4 5:24 6:0.3333333 7:7 8:4 9:3 10:0.14285713 11:0.3333333 12:0.52380955 13:17 14:3 15:0.3770492 16:0.21311474 17:0.13114756 18:0.24590164 19:0.40983605 20:0.22448979 21:2 24:4 
1 1:4 2:7 3:2 4:3 5:21 6:0.47619045 7:2 8:1 9:2 10:0.19047618 11:0.14285713 12:0.3333333 13:19 14:3 15:0.43382353 16:0.30147058 17:0.18382353 18:0.25 19:0.2647059 20:0.19083969 21:0.90909094 22:0.25490198 23:0.24444444 24:34 
1 1:4 3:2 4:2 5:22 6:0.45454544 7:3 8:4 9:3 10:0.18181819 11:0.18181819 12:0.36363637 13:10 14:4 15:0.5625 16:0.125 17:0.1875 18:0.375 19:0.3125 20:0.45454547 21:2 22:0.27272728 24:17 
1 1:1 2:2 3:1 4:1 5:21 6:0.7619048 8:1 9:1 10:0.09523809 11:0.3333333 12:0.14285713 13:20 14:1 15:0.69135803 16:0.1851852 17:0.3333333 18:0.35802472 19:0.12345678 20:0.078947365 21:0.83333331 22:0.11111111 23:0.11764706 24:10 
1 1:4 3:1 4:1 5:20 6:0.6 10:0.19999999 11:0.3 12:0.19999999 13:19 14:1 15:0.6727273 16:0.19999999 17:0.3090909 18:0.36363637 19:0.12727273 20:0.079999998 21:1.25 22:0.090909094 23:0.2 24:23 
1 1:4 2:7 3:2 4:3 5:29 6:0.4285714 7:2 8:7 9:2 10:0.28571427 11:0.4285714 12:0.28571427 13:21 14:1 15:0.4275862 16:0.25517243 17:0.19310343 18:0.23448277 19:0.31724137 20:0.1970803 21:1.4285715 22:0.33333334 23:0.21839081 24:15 
1 1:2 2:7 3:2 4:3 5:21 6:0.52380955 7:1 8:1 9:1 10:0.23809522 11:0.047619045 12:0.23809522 13:18 14:1 15:0.42176872 16:0.26530612 17:0.19047618 18:0.23129255 19:0.31292516 20:0.2086331 21:1 22:0.28 23:0.25252524 24:14 
0.8854630339662085 1:4 2:10 3:2 4:3 5:20 6:0.45 7:3 10:0.14999998 11:0.14999998 12:0.39999998 13:20 14:3 15:0.38805968 16:0.2761194 17:0.16417909 18:0.22388059 19:0.3358209 20:0.22580644 21:1.1111112 22:0.15789473 23:0.33333334 24:21 
0.5796985014031918 1:4 2:6 5:21 6:0.4285714 7:5 8:1 9:1 10:0.23809522 11:0.3333333 12:0.3333333 13:20 14:2 15:0.37222224 16:0.29444444 17:0.17777777 18:0.19444442 19:0.3333333 20:0.21637426 21:1 23:0.27131784 24:3 
1 1:1 2:2 3:2 4:1 5:24 6:0.3333333 7:3 8:1 9:1 10:0.20833331 11:0.16666669 12:0.4583333 13:21 14:1 15:0.40336132 16:0.26890755 17:0.20168066 18:0.20168066 19:0.32773107 20:0.14782609 21:1.8 22:0.22222222 23:0.1641791 24:13 
1 1:4 2:4 3:5 4:8 5:22 6:0.5 8:1 9:1 10:0.22727275 11:0.3181818 12:0.27272725 13:21 14:1 15:0.51111114 16:0.25555557 17:0.28888887 18:0.22222221 19:0.23333335 20:0.073170729 21:1 22:0.2 23:0.10526316 24:71 
1 1:1 2:4 3:5 4:5 5:19 6:0.4736842 8:1 9:3 10:0.36842108 11:0.21052629 12:0.15789473 13:16 14:4 15:0.515625 16:0.2578125 17:0.296875 18:0.21875 19:0.2265625 20:0.1 21:0.875 22:0.21568628 23:0.073170729 24:52 
1 1:4 2:4 3:2 4:3 5:23 6:0.47619045 7:1 8:1 9:3 10:0.28571427 11:0.23809522 12:0.23809522 13:20 14:2 15:0.5243902 16:0.21951222 17:0.23170733 18:0.29268295 19:0.25609756 20:0.21052632 21:0.77777779 22:0.25714287 23:0.375 24:24 
1 1:2 2:4 3:1 4:1 5:21 6:0.57142854 7:4 10:0.14285713 11:0.4285714 12:0.28571427 13:20 14:4 15:0.40217394 16:0.25 17:0.20652175 18:0.19565219 19:0.34782606 20:0.18181819 21:0.69999999 22:0.2 23:0.30434781 24:11 
1 1:4 2:2 3:2 4:1 5:20 6:0.3 7:5 8:2 9:3 10:0.25 11:0.25 12:0.45 13:16 14:1 15:0.25 16:0.265625 17:0.03125 18:0.21875 19:0.484375 20:0.25423729 21:0.66666669 22:0.33333334 23:0.40000001 24:11 
1 1:2 2:5 3:3 4:1 5:21 6:0.61904764 7:1 8:2 9:2 10:0.23809522 11:0.3333333 12:0.14285713 13:17 14:4 15:0.5 16:0.15853661 17:0.24390244 18:0.25609756 19:0.3414634 20:0.30769232 21:0.66666669 22:0.21052632 23:0.44444445 24:21 
1 1:2 2:3 5:21 6:0.6666666 7:1 8:1 9:1 10:0.23809522 11:0.4285714 12:0.09523809 13:20 14:4 15:0.6140351 16:0.19298244 17:0.28070176 18:0.3333333 19:0.18421054 20:0.1559633 21:1.4285715 23:0.2238806 24:14 
1 1:4 2:3 3:1 4:1 5:21 6:0.61904764 8:1 9:1 10:0.09523809 11:0.28571427 12:0.28571427 13:19 14:2 15:0.5972222 16:0.19444442 17:0.2638889 18:0.3333333 19:0.19444442 20:0.2238806 21:0.72727275 22:0.029411765 23:0.44 24:35 
1 1:4 3:7 4:2 5:21 6:0.4285714 10:0.28571427 11:0.14285713 12:0.28571427 13:21 14:1 15:0.45569623 16:0.24050635 17:0.22784811 18:0.22784811 19:0.30379748 21:1 22:0.21951219 24:33 
1 1:4 2:6 3:1 4:1 5:23 6:0.36363637 8:1 9:3 10:0.27272725 11:0.13636363 12:0.36363637 13:20 14:3 15:0.47908747 16:0.21292776 17:0.20152092 18:0.27756655 19:0.30798477 20:0.28125 21:0.77777779 22:0.2857143 23:0.32075471 24:9 
1 1:1 5:22 6:0.3181818 7:2 8:1 9:1 10:0.45454544 11:0.3181818 12:0.22727275 13:21 14:1 15:0.26530612 16:0.36734694 17:0.1122449 18:0.15306121 19:0.36734694 20:0.022222223 21:1 24:28 
1 1:4 2:9 3:4 4:3 5:22 6:0.45454544 7:1 8:1 9:2 10:0.13636363 11:0.3181818 12:0.40909094 13:20 14:1 15:0.37634408 16:0.31182796 17:0.19354838 18:0.1827957 19:0.31182796 20:0.22222222 21:1.125 22:0.29166666 23:0.36170211 24:33 
1 1:4 2:3 3:4 4:4 5:21 6:0.61904764 8:1 9:1 10:0.14285713 11:0.28571427 12:0.23809522 13:19 14:2 15:0.6484848 16:0.17575759 17:0.3393939 18:0.3090909 19:0.17575759 20:0.1125 21:1.25 22:0.11764706 23:0.11864407 24:53 
1 1:4 2:4 5:21 6:0.57142854 7:1 10:0.19047618 11:0.28571427 12:0.23809522 13:20 14:1 15:0.62745094 16:0.18039215 17:0.32941175 18:0.2980392 19:0.19215685 20:0.12 21:1.125 23:0.13461539 24:7 
1 1:4 2:2 5:21 6:0.6666666 7:1 8:4 9:2 10:0.28571427 11:0.4285714 12:0.047619045 13:15 14:3 15:0.6363636 16:0.18181819 17:0.25974023 18:0.3766234 19:0.18181819 20:0.23943663 21:0.45454547 23:0.25 24:6 
1 1:2 2:2 3:2 4:1 5:25 6:0.5 7:1 8:4 9:3 10:0.18181819 11:0.18181819 12:0.3181818 13:18 14:2 15:0.64179105 16:0.16417909 17:0.25373137 18:0.38805968 19:0.19402987 20:0.21311475 21:0.5 22:0.2857143 23:0.14285715 24:11 
1 1:1 2:2 5:21 6:0.52380955 7:6 8:2 9:3 10:0.28571427 11:0.52380955 12:0.19047618 13:17 14:4 15:0.39999998 16:0.22666669 17:0.07999998 18:0.32 19:0.37333333 20:0.17142858 21:1.125 23:0.1724138 24:5 
1 1:1 3:1 4:3 5:21 6:0.52380955 8:3 9:2 10:0.38095236 11:0.19047618 12:0.09523809 13:17 14:3 15:0.5692308 16:0.18461537 17:0.3076923 18:0.26153845 19:0.24615383 20:0.14285715 21:0.75 22:0.14285715 24:30 
0.4993299174434984 1:4 2:6 5:21 6:0.4285714 7:3 8:2 9:1 10:0.23809522 11:0.3333333 12:0.3333333 13:19 14:2 15:0.38461536 16:0.3021978 17:0.17032969 18:0.21428573 19:0.31318682 20:0.23976608 21:1 23:0.28682169 24:2 
1 1:4 2:4 3:2 4:1 5:42 6:0.21739131 7:1 8:20 9:3 10:0.47826087 11:0.13043481 12:0.3043478 13:18 14:4 15:0.24861878 16:0.38121545 17:0.1491713 18:0.09944749 19:0.37016577 20:0.30061349 21:0.25 22:0.2 23:0.20408164 24:11 
1 1:4 2:1 3:6 4:2 5:21 6:0.61904764 7:3 8:1 9:1 10:0.14285713 11:0.4285714 12:0.23809522 13:18 14:1 15:0.46551722 16:0.25862068 17:0.2241379 18:0.24137932 19:0.2758621 20:0.16 21:2 22:0.2 23:0.25 24:39 
1 1:1 2:3 5:21 6:0.38095236 8:1 9:1 10:0.23809522 11:0.23809522 12:0.38095236 13:20 14:4 15:0.44117647 16:0.27205884 17:0.22794116 18:0.21323532 19:0.28676468 20:0.13846155 21:0.89999998 23:0.18181819 24:30 
1 1:2 2:2 5:24 6:0.375 7:2 8:1 9:2 10:0.16666669 11:0.2916667 12:0.4583333 13:22 14:4 15:0.32 16:0.30666667 17:0.14666665 18:0.17333335 19:0.37333333 20:0.11428571 21:1.4285715 23:0.18181819 24:11 
1 1:1 2:10 3:1 4:1 5:24 6:0.4583333 7:2 8:1 9:2 10:0.3333333 11:0.2916667 12:0.20833331 13:22 14:1 15:0.4375 16:0.26875 17:0.21249998 18:0.22500002 19:0.29375 20:0.11538462 21:1.1 22:0.06666667 23:0.12962963 24:16 
1 1:1 2:4 3:3 4:1 5:21 6:0.52380955 7:1 8:1 9:1 10:0.28571427 11:0.38095236 12:0.19047618 13:19 14:4 15:0.45783132 16:0.24096388 17:0.20481926 18:0.25301206 19:0.3012048 20:0.24528302 21:0.69999999 22:0.2857143 23:0.29914531 24:13 
1 1:1 2:4 3:1 4:1 5:21 6:0.57142854 7:2 8:1 9:2 10:0.3333333 11:0.3333333 12:0.09523809 13:19 14:2 15:0.40963858 16:0.25301206 17:0.1686747 18:0.24096388 19:0.3373494 20:0.22077923 21:1.1111112 22:0.2 23:0.37142858 24:11 
1 1:4 2:6 3:12 4:20 5:21 6:0.57142854 7:2 8:1 9:1 10:0.23809522 11:0.3333333 12:0.19047618 13:19 14:3 15:0.44578314 16:0.21686745 17:0.20481926 18:0.24096388 19:0.3373494 20:0.16216215 21:0.66666669 22:0.30405405 23:0.25 24:168 
1 1:4 2:2 3:12 4:21 5:21 6:0.57142854 7:3 8:1 9:1 10:0.14285713 11:0.28571427 12:0.28571427 13:20 14:4 15:0.443038 16:0.22784811 17:0.20253164 18:0.24050635 19:0.3291139 20:0.14285715 21:1 22:0.30666667 23:0.2857143 24:170 
1 1:4 2:1 3:8 4:2 5:21 6:0.61904764 7:2 8:2 9:2 10:0.09523809 11:0.23809522 12:0.28571427 13:18 14:4 15:0.5060241 16:0.22891569 17:0.24096388 18:0.26506025 19:0.26506025 20:0.14666666 21:0.72727275 22:0.2173913 23:0.15151516 24:28 
1 1:2 2:2 3:2 4:2 5:22 6:0.5454545 7:3 8:1 9:1 10:0.27272725 11:0.36363637 12:0.18181819 13:21 14:1 15:0.47619045 16:0.19047618 17:0.23809522 18:0.23809522 19:0.3333333 20:0.13157895 21:1.1111112 22:0.25 23:0.25 24:17 
1 1:4 2:2 3:3 4:6 5:21 6:0.57142854 7:2 8:1 9:1 10:0.23809522 11:0.3333333 12:0.19047618 13:19 14:3 15:0.44736844 16:0.2368421 17:0.21052629 18:0.2368421 19:0.31578946 20:0.17142858 21:0.66666669 22:0.15384616 23:0.2857143 24:42 
0.6910176707006813 1:3 2:1 3:5 4:4 5:21 6:0.61904764 8:1 9:2 10:0.23809522 11:0.3333333 12:0.14285713 13:19 14:3 15:0.56410253 16:0.23076922 17:0.26923078 18:0.2948718 19:0.2051282 20:0.088235296 21:1.5 22:0.2888889 23:0.07692308 24:33 
1 1:1 2:1 3:5 4:4 5:21 6:0.61904764 8:1 9:1 10:0.14285713 11:0.3333333 12:0.23809522 13:20 14:1 15:0.5853659 16:0.21951222 17:0.28048778 18:0.30487806 19:0.19512194 20:0.083333336 21:0.91666669 22:0.31707317 23:0.13333334 24:31 
1 1:4 2:4 3:2 4:2 5:21 6:0.61904764 7:3 8:1 9:2 10:0.14285713 11:0.4285714 12:0.23809522 13:18 14:1 15:0.6363636 16:0.15909094 17:0.27272725 18:0.36363637 19:0.20454544 20:0.19512194 21:0.875 22:0.17647059 23:0.25 24:22 
1 1:4 2:3 5:22 6:0.4285714 7:3 8:2 9:2 10:0.23809522 11:0.3333333 12:0.3333333 13:19 14:3 15:0.44512194 16:0.23780489 17:0.19512194 18:0.25 19:0.31707317 20:0.21250001 21:0.66666669 22:0.40000001 23:0.24786325 24:11 
1 1:4 2:2 5:22 6:0.52380955 7:3 8:1 9:2 10:0.23809522 11:0.28571427 12:0.23809522 13:20 14:3 15:0.38834953 16:0.25242716 17:0.184466 18:0.20388347 19:0.3592233 20:0.15463917 21:1 23:0.22222222 24:11 
1 1:2 3:3 4:3 5:22 6:0.36363637 10:0.36363637 11:0.090909064 12:0.27272725 13:22 14:4 15:0.42622954 16:0.29508197 17:0.21311474 18:0.21311474 19:0.27868855 21:1.1111112 22:0.27777779 24:19 
1 1:4 2:3 3:2 4:3 5:23 6:0.47619045 7:1 8:1 9:3 10:0.28571427 11:0.23809522 12:0.23809522 13:20 14:2 15:0.5 16:0.25 17:0.25 18:0.25 19:0.25 20:0.23684211 21:0.77777779 22:0.22222222 23:0.4375 24:23 
1 1:2 2:2 3:1 4:1 5:20 6:0.55 8:2 9:2 10:0.19999999 11:0.050000012 12:0.25 13:17 14:4 15:0.4366197 16:0.23943663 17:0.22535211 18:0.21126759 19:0.32394367 20:0.16923077 21:0.77777779 22:0.14285715 23:0.23076923 24:8 
1 1:4 2:4 3:7 4:3 5:20 6:0.6 8:2 9:2 10:0.19999999 11:0.35000002 12:0.19999999 13:16 14:4 15:0.42603552 16:0.3076923 17:0.18934911 18:0.23668641 19:0.2662722 20:0.24691358 21:1 22:0.51351351 23:0.26229507 24:23 
0.2849911341956207 1:1 2:10 3:3 4:4 5:21 6:0.61904764 7:1 8:1 9:1 10:0.28571427 11:0.38095236 12:0.09523809 13:19 14:4 15:0.4390244 16:0.25609756 17:0.21951222 18:0.21951222 19:0.30487806 20:0.31428573 21:0.58333331 22:0.12903225 23:0.64285713 24:34 
1 1:4 5:21 6:0.57142854 8:3 9:2 10:0.14285713 11:0.3333333 12:0.28571427 13:16 14:4 15:0.5063291 16:0.1898734 17:0.24050635 18:0.26582277 19:0.30379748 20:0.19444445 21:1 23:0.13333334 24:13 
1 1:4 3:1 4:1 5:21 6:0.28571427 7:2 10:0.23809522 11:0.23809522 12:0.47619045 13:21 14:4 15:0.22222221 16:0.3888889 17:0.0925926 18:0.12962961 19:0.3888889 21:0.8888889 22:0.35294119 24:30 
0.5755074881671628 1:4 2:15 3:1 4:1 5:22 6:0.5 7:1 8:1 9:1 10:0.27272725 11:0.22727275 12:0.22727275 13:21 14:4 15:0.34285712 16:0.29285717 17:0.19999999 18:0.14285713 19:0.3642857 20:0.30303031 21:1 22:0.1 23:0.43820226 24:11 
1 1:1 3:4 4:3 5:21 6:0.4285714 10:0.28571427 11:0.3333333 12:0.28571427 13:21 14:4 15:0.3 16:0.35000002 17:0.14999998 18:0.14999998 19:0.35000002 21:0.90909094 22:0.29411766 24:26 
1 1:4 2:2 3:1 4:2 5:22 6:0.5454545 7:3 8:1 9:2 10:0.22727275 11:0.40909094 12:0.22727275 13:20 14:1 15:0.54761904 16:0.16666669 17:0.25 18:0.29761904 19:0.28571427 20:0.15789473 21:1.25 22:0.17647059 23:0.25 24:18 
1 1:4 2:4 3:1 4:3 5:21 6:0.61904764 7:1 10:0.14285713 11:0.3333333 12:0.23809522 13:21 14:1 15:0.503876 16:0.22480619 17:0.25581396 18:0.24806201 19:0.27131784 20:0.089430891 21:0.90909094 22:0.050000001 23:0.13580246 24:61 
1 1:1 2:4 3:1 4:3 5:21 6:0.61904764 7:1 10:0.23809522 11:0.38095236 12:0.14285713 13:21 14:3 15:0.5037594 16:0.22556388 17:0.25563908 18:0.24812031 19:0.27067667 20:0.086614177 21:1.1 22:0.05172414 23:0.12941177 24:59 
1 1:1 2:4 3:1 4:1 5:21 6:0.28571427 8:2 9:3 10:0.3333333 11:0.23809522 12:0.38095236 13:17 14:2 15:0.26190478 16:0.32539684 17:0.17460316 18:0.08730161 19:0.4126984 20:0.28070176 21:0.89999998 22:0.125 23:0.33333334 24:9 
1 1:4 2:4 3:1 4:2 5:21 6:0.23809522 8:2 9:3 10:0.28571427 12:0.47619045 13:17 14:1 15:0.2719298 16:0.30701756 17:0.18421054 18:0.08771932 19:0.42105263 20:0.29411766 21:0.80000001 22:0.14285715 23:0.36666667 24:15 
0.8703773547277257 1:4 2:14 3:2 4:1 5:21 6:0.52380955 7:2 8:1 9:2 10:0.23809522 11:0.23809522 12:0.23809522 13:19 14:3 15:0.42391306 16:0.26086956 17:0.26086956 18:0.1630435 19:0.31521738 20:0.40909091 21:0.77777779 22:0.22580644 23:0.69565219 24:17 
