svm_type c_svc
kernel_type rbf
gamma 0.0416667
nr_class 2
total_sv 452
rho 0.443868
label 1 0
probA -15.5288
probB -11.2962
nr_sv 188 264
SV
1 1:1 2:1 3:7 4:23 5:0.6521739 6:1 7:2 8:0.0869565 9:0.47826087 10:0.17391306 11:0.26086956 12:53 13:0.090909094 14:3 15:0.6721312 16:61 17:0.09836066 18:0.32786888 19:0.3442623 20:0.22950822 21:0.14285715 22:0.80000001 23:0.2 24:0.33333334 
0.2329135480103272 3:4 4:23 5:0.39130437 6:2 7:2 8:0.17391306 9:0.21739131 10:0.17391306 11:0.43478262 12:4 13:0.15555556 14:4 15:0.42372882 16:59 17:0.23728812 18:0.16949153 19:0.2542373 20:0.33898306 21:0.24528302 22:0.25 24:0.75 
0.3854252238607473 1:3 2:1 3:6 4:23 5:0.45454544 6:2 7:2 8:0.22727275 9:0.090909064 10:0.36363637 11:0.3181818 12:43 13:0.24444444 14:3 15:0.39682537 16:63 17:0.25396824 18:0.15873015 19:0.23809522 20:0.34920633 21:0.29824561 22:4.5 24:0.5 
1 3:1 4:22 5:0.6363636 6:4 7:2 8:0.13636363 9:0.40909094 10:0.22727275 11:0.22727275 12:7 13:0.27272728 14:3 15:0.6111111 16:54 17:0.2037037 18:0.3148148 19:0.2962963 20:0.1851852 21:0.26086956 22:0.8888889 
1 3:3 4:22 5:0.6363636 6:4 7:3 8:0.3181818 9:0.22727275 10:0.40909094 11:0.04545456 12:41 13:0.27272728 14:3 15:0.63793105 16:58 17:0.18965518 18:0.32758623 19:0.31034482 20:0.17241377 21:0.23999999 22:1.1111112 
0.4273422430024265 3:5 4:21 5:0.57142854 6:2 7:3 8:0.3333333 9:0.047619045 10:0.52380955 11:0.09523809 12:17 13:0.2682927 14:2 15:0.5818182 16:55 17:0.23636365 18:0.34545457 19:0.23636365 20:0.18181819 21:0.31999999 22:2 23:0.22580644 24:0.55555558 
1 3:3 4:25 5:0.40909094 6:2 7:3 8:0.090909064 9:0.13636363 10:0.27272725 11:0.5 12:47 13:0.19148937 14:2 15:0.46551722 16:58 17:0.24137932 18:0.18965518 19:0.2758621 20:0.29310346 21:0.16981132 22:1 23:0.30000001 
0.4277156657557608 3:5 4:22 5:0.47619045 6:2 7:2 8:0.19047618 9:0.28571427 10:0.19047618 11:0.3333333 12:21 13:0.11627907 14:2 15:0.5090909 16:55 17:0.23636365 18:0.25454545 19:0.25454545 20:0.25454545 21:0.1923077 22:1.125 23:0.31818181 24:0.55555558 
1 1:2 2:1 3:5 4:22 5:0.57142854 6:2 7:3 8:0.14285713 9:0.23809522 10:0.3333333 11:0.28571427 12:5 13:0.20930232 14:2 15:0.5 16:58 17:0.2241379 18:0.24137932 19:0.25862068 20:0.2758621 21:0.24528302 22:1 23:0.25 24:0.40000001 
0.02653079605158068 1:2 2:1 3:7 4:23 5:0.6086956 6:2 7:4 8:0.26086956 9:0.3043478 10:0.3043478 11:0.13043481 12:43 13:0.24444444 14:3 15:0.546875 16:64 17:0.203125 18:0.28125 19:0.265625 20:0.25 21:0.25423729 22:0.875 24:0.2857143 
1 1:2 2:2 3:10 4:22 5:0.6363636 6:2 7:4 8:0.27272725 9:0.22727275 10:0.40909094 11:0.090909064 12:47 13:0.33333334 14:2 15:0.6060606 16:66 17:0.19696969 18:0.3333333 19:0.27272725 20:0.19696969 21:0.3442623 22:1 24:0.36842105 
1 4:22 5:0.5 6:2 7:3 8:0.19999999 9:0.3 10:0.19999999 11:0.3 12:14 13:0.14285715 14:2 15:0.46296299 16:54 17:0.22222221 18:0.24074072 19:0.22222221 20:0.3148148 21:0.14285715 22:1.125 23:0.18518518 
1 1:1 2:1 3:7 4:23 5:0.5909091 6:3 7:2 8:0.22727275 9:0.22727275 10:0.36363637 11:0.18181819 12:57 13:0.15555556 14:3 15:0.44444442 16:63 17:0.23809522 18:0.19047618 19:0.25396824 20:0.3174603 21:0.15254237 22:0.375 23:0.31034482 24:0.14285715 
1 3:3 4:26 5:0.5909091 6:3 7:5 8:0.13636363 9:0.27272725 10:0.3181818 11:0.27272725 12:9 13:0.20833333 14:1 15:0.5862069 16:58 17:0.13793105 18:0.24137932 19:0.3448276 20:0.2758621 21:0.18518518 22:2.3333333 23:0.06666667 
1 1:3 2:2 3:13 4:22 5:0.71428573 6:1 7:4 8:0.14285713 9:0.23809522 10:0.47619045 11:0.14285713 12:51 13:0.1627907 14:2 15:0.6231884 16:69 17:0.13043481 18:0.26086956 19:0.3623188 20:0.24637681 21:0.16923077 22:1 24:0.18181819 
0.02159103812895419 3:1 4:23 5:0.5 6:1 7:2 8:0.40909094 9:0.18181819 10:0.3181818 11:0.090909064 12:22 13:0.06666667 14:3 15:0.4915254 16:59 17:0.23728812 18:0.2542373 19:0.23728812 20:0.2711864 21:0.063829787 22:0.89999998 23:0.3488372 
1 3:3 4:23 5:0.5217391 6:1 7:2 8:0.0869565 9:0.26086956 10:0.26086956 11:0.39130437 12:60 13:0.090909094 14:1 15:0.5 16:62 17:0.22580647 18:0.2580645 19:0.24193549 20:0.27419353 21:0.079999998 22:1.2857143 23:0.34999999 
1 1:1 2:1 3:5 4:23 5:0.6086956 6:2 7:3 8:0.17391306 9:0.21739131 10:0.39130437 11:0.21739131 12:5 13:0.2 14:1 15:0.5263158 16:57 17:0.21052629 18:0.2280702 19:0.2982456 20:0.2631579 21:0.18518518 22:0.5 24:0.11111111 
1 1:3 2:1 3:9 4:21 5:0.61904764 6:2 7:1 8:0.09523809 9:0.57142854 10:0.047619045 11:0.28571427 12:54 13:0.14285715 14:4 15:0.60317457 16:63 17:0.17460316 18:0.25396824 19:0.34920633 20:0.22222221 21:0.20689656 22:1.25 23:0.13043478 24:0.375 
1 1:3 2:2 3:10 4:23 5:0.72727275 6:2 7:6 8:0.13636363 9:0.45454544 10:0.27272725 11:0.13636363 12:47 13:0.2888889 14:3 15:0.7384615 16:65 17:0.09230769 18:0.39999998 19:0.33846152 20:0.16923076 21:0.29032257 22:1.3333334 24:0.29411766 
1 1:3 2:1 3:11 4:21 5:0.61904764 6:2 7:3 8:0.19047618 9:0.23809522 10:0.38095236 11:0.19047618 12:54 13:0.2682927 14:1 15:0.6 16:65 17:0.19999999 18:0.27692306 19:0.3230769 20:0.19999999 21:0.23333333 22:0.80000001 23:0.11111111 24:0.15789473 
0.7786514764004654 1:1 2:1 3:6 4:23 5:0.5 6:1 7:3 8:0.13636363 9:0.27272725 10:0.22727275 11:0.36363637 12:42 13:0.11111111 14:2 15:0.5833334 16:60 17:0.19999999 18:0.3 19:0.28333336 20:0.21666664 21:0.12280702 22:0.63636363 24:0.16666667 
1 4:24 5:0.5416666 6:2 7:5 8:0.16666669 9:0.375 10:0.16666669 11:0.2916667 12:9 13:0.2173913 14:2 15:0.5272727 16:55 17:0.14545453 18:0.25454545 19:0.27272725 20:0.3272727 21:0.2173913 22:0.77777779 23:0.16666667 
1 1:1 2:1 3:5 4:23 5:0.5 6:1 7:4 8:0.090909064 9:0.13636363 10:0.36363637 11:0.40909094 12:46 13:0.2 14:4 15:0.5555556 16:63 17:0.12698412 18:0.26984125 19:0.28571427 20:0.3174603 21:0.22222222 22:0.875 24:0.33333334 
1 3:1 4:24 5:0.45454544 6:2 7:2 8:0.22727275 9:0.18181819 10:0.27272725 11:0.3181818 12:14 13:0.2173913 14:4 15:0.4918033 16:61 17:0.19672132 18:0.27868855 19:0.21311474 20:0.3114754 21:0.20833333 22:1.25 23:0.375 
1 3:3 4:23 5:0.45454544 6:2 7:4 8:0.3181818 9:0.27272725 10:0.18181819 11:0.22727275 12:6 13:0.2 14:4 15:0.4153846 16:65 17:0.26153845 18:0.19999999 19:0.2153846 20:0.3230769 21:0.17647059 22:1 23:0.40000001 
1 3:2 4:23 5:0.47826087 6:2 7:4 8:0.0869565 9:0.17391306 10:0.3043478 11:0.43478262 12:47 13:0.2 14:2 15:0.4285714 16:63 17:0.25396824 18:0.2063492 19:0.22222221 20:0.3174603 21:0.18367347 22:0.875 23:0.33333334 
0.9743691178496617 3:2 4:24 5:0.4583333 6:2 7:3 8:0.16666669 9:0.08333331 10:0.375 11:0.375 12:20 13:0.24444444 14:1 15:0.4166667 16:60 17:0.25 18:0.23333335 19:0.18333334 20:0.3333333 21:0.22448979 22:0.42857143 23:0.2820513 
1 1:2 2:1 3:9 4:22 5:0.61904764 6:2 7:4 8:0.047619045 9:0.52380955 10:0.09523809 11:0.3333333 12:50 13:0.20930232 14:2 15:0.61764705 16:68 17:0.14705884 18:0.2647059 19:0.35294116 20:0.2352941 21:0.2 22:0.77777779 24:0.17647059 
0.4093018765819832 3:4 4:24 5:0.5909091 6:2 7:4 8:0.3181818 9:0.27272725 10:0.3181818 11:0.090909064 12:14 13:0.15555556 14:1 15:0.52542377 16:59 17:0.2711864 18:0.23728812 19:0.2881356 20:0.20338982 21:0.13207547 22:1 23:0.07692308 
1 3:8 4:23 5:0.5454545 6:1 7:4 8:0.27272725 9:0.18181819 10:0.36363637 11:0.18181819 12:54 13:0.1627907 14:3 15:0.515625 16:64 17:0.28125 18:0.234375 19:0.28125 20:0.203125 21:0.13793103 22:0.71428573 23:0.047619049 24:0.06666667 
1 1:2 2:1 3:9 4:22 5:0.5454545 6:2 7:3 8:0.04545456 9:0.40909094 10:0.13636363 11:0.40909094 12:6 13:0.17073171 14:1 15:0.5 16:60 17:0.21666664 18:0.28333336 19:0.21666664 20:0.28333336 21:0.19298245 22:0.66666669 23:0.2 24:0.25 
1 1:2 2:1 3:8 4:25 5:0.5 6:2 7:3 8:0.45454544 9:0.18181819 10:0.3181818 11:0.04545456 12:46 13:0.23404256 14:1 15:0.5 16:64 17:0.21875 18:0.265625 19:0.234375 20:0.28125 21:0.21311475 22:1.1666666 24:0.14285715 
0.7468824233337514 3:2 4:22 5:0.5454545 6:2 7:4 8:0.22727275 9:0.18181819 10:0.36363637 11:0.22727275 12:19 13:0.25581396 14:3 15:0.5 16:56 17:0.23214287 18:0.21428573 19:0.28571427 20:0.26785713 21:0.23404256 22:0.5714286 23:0.13333334 
0.7839065681532542 3:5 4:21 5:0.55 6:2 7:3 8:0.10000002 9:0.3 10:0.25 11:0.35000002 12:57 13:0.21951219 14:2 15:0.51666665 16:60 17:0.21666664 18:0.21666664 19:0.3 20:0.26666665 21:0.21568628 22:0.85714287 23:0.15384616 24:0.2 
1 1:1 2:1 3:8 4:22 5:0.45454544 6:2 7:3 8:0.3181818 9:0.18181819 10:0.27272725 11:0.22727275 12:15 13:0.20930232 14:4 15:0.44444442 16:63 17:0.22222221 18:0.17460316 19:0.26984125 20:0.3333333 21:0.20689656 22:1.125 23:0.2857143 24:0.2 
1 1:1 2:1 3:9 4:23 5:0.5 6:2 7:4 8:0.18181819 9:0.27272725 10:0.22727275 11:0.3181818 12:58 13:0.2 14:4 15:0.46268654 16:67 17:0.20895523 18:0.19402987 19:0.26865673 20:0.32835823 21:0.22580644 22:1.4285715 23:0.25 24:0.29411766 
1 4:26 5:0.73913044 6:2 7:3 8:0.0869565 9:0.39130437 10:0.34782606 11:0.17391306 12:14 13:0.14285715 14:1 15:0.7307692 16:52 17:0.11538464 18:0.40384614 19:0.32692307 20:0.15384614 21:0.14285715 22:0.875 23:0.30769232 
1 1:1 2:1 3:6 4:19 5:0.7368421 6:2 7:2 8:0.15789473 9:0.31578946 10:0.42105263 11:0.10526317 12:46 13:0.085714288 14:3 15:0.74 16:50 17:0.10000002 18:0.39999998 19:0.33999997 20:0.16000003 21:0.10638298 22:1.2 23:0.35714287 24:0.16666667 
1 4:23 5:0.40909094 6:2 7:3 8:0.22727275 9:0.18181819 10:0.22727275 11:0.36363637 12:14 13:0.15555556 14:3 15:0.41071427 16:56 17:0.28571427 18:0.1785714 19:0.23214287 20:0.3035714 21:0.15555556 22:1 23:0.15384616 
0.2611878887219514 4:22 5:0.6363636 6:1 7:3 8:0.18181819 9:0.5 10:0.13636363 11:0.18181819 12:22 13:0.13636364 14:4 15:0.625 16:56 17:0.1785714 18:0.3214286 19:0.3035714 20:0.1964286 21:0.13636364 22:1.1111112 23:0.14285715 
1 1:2 2:1 3:10 4:23 5:0.45454544 6:1 7:1 8:0.36363637 9:0.18181819 10:0.27272725 11:0.18181819 12:6 13:0.022222223 14:2 15:0.5230769 16:65 17:0.19999999 18:0.23076922 19:0.29230767 20:0.27692306 21:0.081967212 22:0.8888889 24:0.25 
1 1:2 2:2 3:12 4:22 5:0.45454544 6:1 7:1 8:0.13636363 9:0.22727275 10:0.22727275 11:0.40909094 12:50 13:0.023255814 14:3 15:0.53731346 16:67 17:0.19402987 18:0.23880595 19:0.29850745 20:0.26865673 21:0.079365082 22:1.125 24:0.2 
1 1:1 2:1 3:7 4:24 5:0.5652174 6:1 7:3 8:0.13043481 9:0.34782606 10:0.21739131 11:0.3043478 12:54 13:0.13636364 14:2 15:0.609375 16:64 17:0.15625 18:0.328125 19:0.28125 20:0.234375 21:0.15789473 22:0.85714287 23:0.13043478 24:0.23076923 
0.7460014433032987 1:2 2:1 3:5 4:25 5:0.5454545 6:2 7:3 8:0.18181819 9:0.18181819 10:0.36363637 11:0.27272725 12:2 13:0.24444444 14:2 15:0.62068963 16:58 17:0.18965518 18:0.31034482 19:0.31034482 20:0.18965518 21:0.25925925 22:0.30000001 24:0.33333334 
1 3:5 4:22 5:0.5454545 6:1 7:1 8:0.40909094 9:0.13636363 10:0.40909094 11:0.04545456 12:7 13:0.045454547 14:4 15:0.4736842 16:57 17:0.2631579 18:0.19298244 19:0.28070176 20:0.2631579 21:0.16981132 22:1.1111112 24:0.77777779 
1 1:4 2:1 3:7 4:25 5:0.48000002 6:1 7:1 8:0.07999998 9:0.27999997 10:0.19999999 11:0.44 12:44 13:0.039999999 14:3 15:0.49253732 16:67 17:0.25373137 18:0.20895523 19:0.2835821 20:0.25373137 21:0.14285715 22:0.90909094 24:0.53846157 
1 1:1 2:2 3:13 4:24 5:0.8 6:3 7:4 8:0.10000002 9:0.3 10:0.5 11:0.10000002 12:2 13:0.18181819 14:4 15:0.6438356 16:73 17:0.15068495 18:0.260274 19:0.38356167 20:0.20547944 21:0.14705883 22:1.3333334 24:0.083333336 
1 3:2 4:24 5:0.4583333 6:3 7:3 8:0.20833331 9:0.25 10:0.20833331 11:0.3333333 12:4 13:0.11627907 14:2 15:0.5283019 16:53 17:0.20754719 18:0.24528301 19:0.2830189 20:0.26415092 21:0.10638298 22:1.4 
1 3:2 4:28 5:0.5217391 6:3 7:3 8:0.26086956 9:0.3043478 10:0.21739131 11:0.21739131 12:38 13:0.12 14:3 15:0.56666666 16:60 17:0.19999999 18:0.26666665 19:0.3 20:0.23333335 21:0.11111111 22:0.55555558 
0.6159946613810879 3:4 4:25 5:0.6363636 6:3 7:5 8:0.090909064 9:0.22727275 10:0.40909094 11:0.27272725 12:3 13:0.22727273 14:3 15:0.6507937 16:63 17:0.12698412 18:0.30158728 19:0.34920633 20:0.22222221 21:0.1923077 22:0.25 
1 1:1 2:1 3:5 4:23 5:0.34782606 6:2 7:4 8:0.3043478 9:0.13043481 10:0.21739131 11:0.34782606 12:43 13:0.2 14:2 15:0.4915254 16:59 17:0.2542373 18:0.220339 19:0.2711864 20:0.2542373 21:0.18518518 22:1.1666666 24:0.11111111 
1 3:4 4:23 5:0.7826087 6:2 7:3 8:0.17391306 9:0.34782606 10:0.43478262 11:0.04347825 12:4 13:0.13636364 14:2 15:0.78947365 16:57 17:0.12280703 18:0.35087717 19:0.4385965 20:0.08771932 21:0.21568628 22:0.8888889 23:0.14285715 24:0.71428573 
1 1:1 2:1 3:7 4:22 5:0.5454545 6:3 7:2 8:0.27272725 9:0.13636363 10:0.40909094 11:0.18181819 12:1 13:0.12820514 14:1 15:0.5087719 16:57 17:0.2280702 18:0.2280702 19:0.28070176 20:0.2631579 21:0.13207547 22:4.5 24:0.14285715 
1 1:1 2:1 3:6 4:26 5:0.47619045 6:3 7:2 8:0.19047618 9:0.3333333 10:0.14285713 11:0.3333333 12:40 13:0.18181819 14:2 15:0.48333335 16:60 17:0.23333335 18:0.21666664 19:0.26666665 20:0.28333336 21:0.17857143 22:2.5 24:0.16666667 
1 1:2 2:1 3:9 4:28 5:0.6363636 6:6 7:2 8:0.22727275 9:0.40909094 10:0.22727275 11:0.13636363 12:1 13:0.2 15:0.6056338 16:71 17:0.1690141 18:0.28169012 19:0.32394367 20:0.22535211 21:0.20588236 22:3 24:0.22222222 
0.9667792357496515 1:2 2:1 3:9 4:21 5:0.57142854 6:6 7:2 8:0.19047618 9:0.19047618 10:0.38095236 11:0.23809522 12:44 13:0.27777779 14:2 15:0.5964912 16:57 17:0.17543858 18:0.28070176 19:0.31578946 20:0.2280702 21:0.25925925 22:0.60000002 24:0.22222222 
1 3:5 4:20 5:0.55 6:1 7:2 8:0.10000002 9:0.25 10:0.3 11:0.35000002 12:10 13:0.07692308 14:1 15:0.46666664 16:60 17:0.23333335 18:0.21666664 19:0.25 20:0.3 21:0.06122449 22:1 23:0.25 
1 3:5 4:21 5:0.55 6:1 7:2 8:0.3 9:0.19999999 10:0.35000002 11:0.14999998 12:51 13:0.073170729 14:4 15:0.4516129 16:62 17:0.24193549 18:0.2096774 19:0.24193549 20:0.30645162 21:0.05882353 22:1 23:0.2857143 
0.9358002831928656 1:1 2:1 3:7 4:23 5:0.40909094 6:2 7:2 8:0.22727275 9:0.090909064 10:0.3181818 11:0.36363637 12:41 13:0.25581396 14:3 15:0.4745763 16:59 17:0.20338982 18:0.23728812 19:0.23728812 20:0.32203388 21:0.25 24:0.23076923 
1 1:2 2:1 3:5 4:22 5:0.5454545 6:2 7:3 8:0.22727275 9:0.3181818 10:0.22727275 11:0.22727275 12:4 13:0.18181819 14:1 15:0.559322 16:59 17:0.20338982 18:0.30508476 19:0.2542373 20:0.23728812 21:0.20754717 22:1.2857143 24:0.33333334 
1 1:1 2:1 3:7 4:23 5:0.6818182 6:3 7:5 8:0.27272725 9:0.45454544 10:0.22727275 11:0.04545456 12:2 13:0.31707317 14:1 15:0.6166667 16:60 17:0.21666664 18:0.35000002 19:0.26666665 20:0.16666669 21:0.27272728 22:1 24:0.14285715 
1 1:1 2:1 3:4 4:24 5:0.40909094 6:2 7:3 8:0.22727275 9:0.22727275 10:0.18181819 11:0.36363637 12:41 13:0.2 14:4 15:0.44067794 16:59 17:0.23728812 18:0.20338982 19:0.23728812 20:0.32203388 21:0.20754717 22:2 24:0.25 
1 3:2 4:22 5:0.5454545 6:1 7:2 8:0.27272725 9:0.18181819 10:0.36363637 11:0.18181819 12:47 13:0.090909094 14:2 15:0.51724136 16:58 17:0.18965518 18:0.2241379 19:0.29310346 20:0.29310346 21:0.083333336 22:0.63636363 23:0.14285715 
1 3:4 4:24 5:0.72727275 6:1 7:4 8:0.18181819 9:0.45454544 10:0.27272725 11:0.090909064 12:8 13:0.22727273 14:2 15:0.6721312 16:61 17:0.14754099 18:0.32786888 19:0.3442623 20:0.18032789 21:0.1923077 22:3.6666667 23:0.14285715 
1 3:6 4:24 5:0.6666666 6:1 7:4 8:0.20833331 9:0.2916667 10:0.375 11:0.125 12:47 13:0.2 14:2 15:0.671875 16:64 17:0.140625 18:0.328125 19:0.34375 20:0.1875 21:0.2 22:1 23:0.090909094 24:0.2 
1 4:24 5:0.4166667 6:1 7:2 8:0.2916667 9:0.20833331 10:0.20833331 11:0.2916667 12:6 13:0.16666667 14:4 15:0.4423077 16:52 17:0.28846157 18:0.19230771 19:0.25 20:0.26923078 21:0.16666667 22:0.83333331 
1 1:1 2:1 3:5 4:20 5:0.45 6:2 7:2 8:0.25 9:0.14999998 10:0.3 11:0.3 12:39 13:0.15000001 14:1 15:0.4259259 16:54 17:0.2962963 18:0.1851852 19:0.24074072 20:0.2777778 21:0.16 22:2.25 24:0.2 
1 3:2 4:24 5:0.47826087 6:2 7:4 8:0.3043478 9:0.21739131 10:0.26086956 11:0.21739131 12:43 13:0.2173913 14:2 15:0.5409836 16:61 17:0.21311474 18:0.24590164 19:0.29508197 20:0.24590164 21:0.2 22:1.6 23:0.25 
1 1:3 2:1 3:7 4:21 5:0.57142854 6:1 7:2 8:0.28571427 9:0.23809522 10:0.3333333 11:0.14285713 12:43 13:0.095238097 14:4 15:0.48333335 16:60 17:0.21666664 18:0.25 19:0.23333335 20:0.3 21:0.16363636 22:0.63636363 24:0.38461539 
1 4:23 5:0.6818182 6:2 7:3 8:0.18181819 9:0.27272725 10:0.40909094 11:0.13636363 12:6 13:0.24444444 14:3 15:0.66071427 16:56 17:0.14285713 18:0.26785713 19:0.39285713 20:0.1964286 21:0.24444444 22:1 
1 3:5 4:21 5:0.8095238 6:2 7:2 8:0.047619045 9:0.47619045 10:0.3333333 11:0.14285713 12:44 13:0.21951219 14:1 15:0.6935484 16:62 17:0.12903225 18:0.2903226 19:0.40322578 20:0.17741936 21:0.21568628 22:0.66666669 24:0.2 
0.6964223624173893 1:1 2:1 3:5 4:23 5:0.5217391 6:2 7:3 8:0.3043478 9:0.0869565 10:0.43478262 11:0.17391306 12:5 13:0.15555556 14:3 15:0.49206346 16:63 17:0.22222221 18:0.2063492 19:0.28571427 20:0.28571427 21:0.16363636 22:0.90909094 23:0.25 24:0.2 
1 1:1 2:1 3:7 4:23 5:0.5454545 6:2 7:3 8:0.13636363 9:0.3181818 10:0.22727275 11:0.3181818 12:48 13:0.2 14:3 15:0.47761196 16:67 17:0.23880595 18:0.19402987 19:0.2835821 20:0.2835821 21:0.18644068 22:1.4285715 24:0.14285715 
1 1:1 2:1 3:8 4:21 5:0.6666666 6:1 7:2 8:0.09523809 9:0.38095236 10:0.28571427 11:0.23809522 12:4 13:0.21951219 14:3 15:0.73333335 16:60 17:0.11666667 18:0.28333336 19:0.45 20:0.14999998 21:0.2 22:3.6666667 24:0.14285715 
0.1608119805247943 1:1 2:1 3:9 4:21 5:0.85 6:1 7:2 8:0.050000012 9:0.19999999 10:0.65 11:0.10000002 12:45 13:0.17073171 14:1 15:0.7258065 16:62 17:0.11290324 18:0.27419353 19:0.4516129 20:0.16129035 21:0.19298245 22:0.60000002 24:0.25 
1 1:3 2:1 3:6 4:22 5:0.6363636 6:1 7:3 8:0.13636363 9:0.40909094 10:0.22727275 11:0.22727275 12:5 13:0.11627907 14:2 15:0.6666666 16:57 17:0.12280703 18:0.35087717 19:0.31578946 20:0.21052629 21:0.16981132 22:1 23:0.25 24:0.40000001 
1 1:3 2:1 3:8 4:22 5:0.57142854 6:3 7:3 8:0.09523809 9:0.28571427 10:0.28571427 11:0.3333333 12:47 13:0.20930232 14:4 15:0.5409836 16:61 17:0.18032789 18:0.27868855 19:0.26229507 20:0.27868855 21:0.24137931 22:0.54545456 23:0.11111111 24:0.33333334 
1 3:3 4:24 5:0.3333333 6:2 7:3 8:0.5 9:0.041666687 10:0.2916667 11:0.16666669 12:39 13:0.2173913 14:3 15:0.41935486 16:62 17:0.2580645 18:0.19354838 19:0.22580647 20:0.32258064 21:0.1923077 22:2.5 
1 3:1 4:25 5:0.6666666 6:2 7:4 8:0.08333331 9:0.375 10:0.2916667 11:0.25 12:6 13:0.18367347 14:1 15:0.63793105 16:58 17:0.15517241 18:0.29310346 19:0.3448276 20:0.20689654 21:0.17647059 22:0.8888889 
1 3:4 4:24 5:0.625 6:2 7:3 8:0.20833331 9:0.2916667 10:0.3333333 11:0.16666669 12:42 13:0.14893617 14:2 15:0.62903225 16:62 17:0.16129035 18:0.2903226 19:0.33870965 20:0.2096774 21:0.16363636 22:0.72727275 24:0.25 
1 3:3 4:24 5:0.5 6:3 7:4 8:0.3181818 9:0.27272725 10:0.22727275 11:0.18181819 12:7 13:0.26086956 14:3 15:0.4310345 16:58 17:0.29310346 18:0.2241379 19:0.20689654 20:0.2758621 21:0.23076923 22:5 23:0.16666667 
1 3:2 4:22 5:0.5909091 6:2 7:3 8:0.090909064 9:0.22727275 10:0.36363637 11:0.3181818 12:6 13:0.18181819 14:2 15:0.57142854 16:56 17:0.14285713 18:0.23214287 19:0.33928573 20:0.28571427 21:0.20833333 22:1.25 23:0.11111111 24:0.5 
1 1:1 2:1 3:5 4:23 5:0.6818182 6:2 7:3 8:0.13636363 9:0.45454544 10:0.22727275 11:0.18181819 12:44 13:0.13636364 14:2 15:0.671875 16:64 17:0.1875 18:0.390625 19:0.28125 20:0.140625 21:0.13207547 22:0.90909094 24:0.11111111 
1 1:2 2:2 3:9 4:23 5:0.6363636 6:1 7:3 8:0.090909064 9:0.5909091 10:0.04545456 11:0.27272725 12:45 13:0.13636364 14:4 15:0.57575756 16:66 17:0.18181819 18:0.24242425 19:0.3333333 20:0.24242425 21:0.19354838 22:1.4285715 24:0.33333334 
1 1:1 2:2 3:9 4:22 5:0.5 6:1 7:2 8:0.3181818 9:0.13636363 10:0.36363637 11:0.18181819 12:9 13:0.069767445 14:1 15:0.546875 16:64 17:0.203125 18:0.203125 19:0.34375 20:0.25 21:0.1 22:0.69999999 23:0.05882353 24:0.17647059 
1 1:1 2:2 3:11 4:23 5:0.5 6:1 7:3 8:0.13636363 9:0.3181818 10:0.18181819 11:0.36363637 12:54 13:0.090909094 14:2 15:0.5362319 16:69 17:0.20289856 18:0.18840581 19:0.34782606 20:0.26086956 21:0.10769231 22:1.6666666 24:0.14285715 
1 1:2 2:1 3:7 4:21 5:0.61904764 6:1 7:3 8:0.19047618 9:0.3333333 10:0.28571427 11:0.19047618 12:10 13:0.19047619 14:1 15:0.6034483 16:58 17:0.18965518 18:0.3448276 19:0.25862068 20:0.20689654 21:0.18518518 22:1.4285715 23:0.11111111 24:0.16666667 
1 1:2 2:1 3:7 4:21 5:0.61904764 6:1 7:3 8:0.14285713 9:0.38095236 10:0.23809522 11:0.23809522 12:47 13:0.19047619 14:1 15:0.6034483 16:58 17:0.18965518 18:0.3448276 19:0.25862068 20:0.20689654 21:0.18518518 22:0.69999999 23:0.11111111 24:0.16666667 
1 4:22 5:0.5 6:1 7:3 8:0.13636363 9:0.3181818 10:0.18181819 11:0.36363637 12:18 13:0.13636364 14:4 15:0.39999998 16:55 17:0.19999999 18:0.19999999 19:0.19999999 20:0.39999998 21:0.13636364 22:1.2222222 23:0.2 
1 3:2 4:23 5:0.43478262 6:1 7:4 8:0.26086956 9:0.17391306 10:0.26086956 11:0.3043478 12:53 13:0.17391305 14:2 15:0.42622954 16:61 17:0.18032789 18:0.18032789 19:0.24590164 20:0.39344263 21:0.16 22:1.2857143 23:0.1724138 
1 1:1 2:1 3:7 4:24 5:0.5 6:2 7:2 8:0.2916667 9:0.25 10:0.25 11:0.20833331 12:15 13:0.15555556 14:1 15:0.55737704 16:61 17:0.22950822 18:0.27868855 19:0.27868855 20:0.21311474 21:0.19298245 22:0.5 23:0.35714287 24:0.33333334 
0.5133499598421257 1:2 2:2 3:9 4:20 5:0.6666666 6:2 7:2 8:0.055555582 9:0.3333333 10:0.3333333 11:0.2777778 12:57 13:0.10526316 14:2 15:0.56896555 16:58 17:0.20689654 18:0.2758621 19:0.29310346 20:0.2241379 21:0.14814815 22:1 23:0.41935483 24:0.25 
1 3:2 4:21 5:0.4285714 6:3 7:2 8:0.38095236 9:0.23809522 10:0.19047618 11:0.19047618 12:12 13:0.23809524 14:4 15:0.4814815 16:54 17:0.25925928 18:0.22222221 19:0.25925928 20:0.25925928 21:0.2173913 22:1.1428572 23:0.090909094 
1 3:3 4:22 5:0.5 6:3 7:2 8:0.090909064 9:0.22727275 10:0.27272725 11:0.40909094 12:46 13:0.27272728 14:2 15:0.44827586 16:58 17:0.25862068 18:0.20689654 19:0.24137932 20:0.29310346 21:0.23999999 22:1.4 
1 1:1 2:1 3:5 4:24 5:0.6363636 6:2 7:4 8:0.04545456 9:0.27272725 10:0.36363637 11:0.3181818 12:7 13:0.2173913 14:3 15:0.6 16:60 17:0.11666667 18:0.25 19:0.35000002 20:0.28333336 21:0.25 22:1.6666666 23:0.16666667 24:0.40000001 
1 1:2 2:2 3:8 4:24 5:0.6666666 6:2 7:3 8:0.20833331 9:0.25 10:0.4166667 11:0.125 12:46 13:0.19148937 14:3 15:0.5909091 16:66 17:0.13636363 18:0.25757575 19:0.3333333 20:0.27272725 21:0.25806451 22:1 24:0.46666667 
0.6755836034006371 1:1 2:1 3:5 4:23 5:0.40909094 6:1 7:3 8:0.13636363 9:0.27272725 10:0.13636363 11:0.45454544 12:39 13:0.20930232 14:3 15:0.43333334 16:60 17:0.21666664 18:0.19999999 19:0.23333335 20:0.35000002 21:0.1923077 22:3.5 24:0.11111111 
0.6145394911278469 3:6 4:22 5:0.6818182 6:2 7:3 8:0.04545456 9:0.3181818 10:0.36363637 11:0.27272725 12:46 13:0.18181819 14:2 15:0.609375 16:64 17:0.109375 18:0.265625 19:0.34375 20:0.28125 21:0.17857143 22:2 24:0.16666667 
1 4:22 5:0.40909094 6:1 7:2 8:0.3181818 9:0.18181819 10:0.22727275 11:0.27272725 12:6 13:0.090909094 14:3 15:0.38181818 16:55 17:0.2909091 18:0.18181819 19:0.19999999 20:0.3272727 21:0.090909094 22:0.66666669 
1 3:2 4:22 5:0.36363637 6:1 7:2 8:0.27272725 9:0.13636363 10:0.22727275 11:0.36363637 12:41 13:0.090909094 14:3 15:0.37288135 16:59 17:0.2881356 18:0.16949153 19:0.20338982 20:0.33898306 21:0.083333336 22:1.125 
1 1:2 2:1 3:7 4:23 5:0.5652174 6:1 7:4 8:0.26086956 9:0.3043478 10:0.26086956 11:0.17391306 12:47 13:0.13636364 14:2 15:0.53225803 16:62 17:0.22580647 18:0.22580647 19:0.30645162 20:0.24193549 21:0.14285715 22:1.4285715 24:0.16666667 
0.9902375553024956 1:1 2:1 3:9 4:22 5:0.5909091 6:1 7:2 8:0.18181819 9:0.3181818 10:0.27272725 11:0.22727275 12:44 13:0.18181819 14:4 15:0.5692308 16:65 17:0.18461537 18:0.27692306 19:0.29230767 20:0.24615383 21:0.18032786 22:0.625 24:0.17647059 
1 1:2 2:1 3:6 4:23 5:0.43478262 6:2 7:2 8:0.21739131 9:0.26086956 10:0.17391306 11:0.34782606 12:6 13:0.20930232 14:2 15:0.48214287 16:56 17:0.23214287 18:0.23214287 19:0.25 20:0.28571427 21:0.20754717 22:0.2857143 23:0.2 24:0.2 
1 1:2 2:4 3:21 4:21 5:0.6666666 6:2 7:3 8:0.14285713 9:0.38095236 10:0.28571427 11:0.19047618 12:3 13:0.17948718 14:4 15:0.67073166 16:82 17:0.19512194 18:0.31707317 19:0.35365856 20:0.13414633 21:0.18987341 22:0.60000002 24:0.2 
0.7104105984193314 3:5 4:24 5:0.73913044 6:1 7:3 8:0.17391306 9:0.39130437 10:0.34782606 11:0.0869565 12:16 13:0.14893617 14:4 15:0.6779661 16:59 17:0.20338982 18:0.30508476 19:0.37288135 20:0.11864406 21:0.17857143 22:0.81818181 23:0.18518518 24:0.33333334 
1 1:2 2:1 3:7 4:23 5:0.6086956 6:1 7:4 8:0.21739131 9:0.21739131 10:0.39130437 11:0.17391306 12:53 13:0.15555556 14:2 15:0.6557377 16:61 17:0.21311474 18:0.29508197 19:0.36065573 20:0.13114756 21:0.1724138 22:1 23:0.2 24:0.23076923 
1 3:4 4:25 5:0.4583333 6:1 7:5 8:0.20833331 9:0.20833331 10:0.25 11:0.3333333 12:40 13:0.24444444 14:3 15:0.48275864 16:58 17:0.29310346 18:0.24137932 19:0.24137932 20:0.2241379 21:0.20754717 22:1.6 
0.670774139123445 3:2 4:26 5:0.43478262 6:3 7:4 8:0.34782606 9:0.13043481 10:0.3043478 11:0.21739131 12:3 13:0.19148937 14:2 15:0.5 16:62 17:0.2580645 18:0.2903226 19:0.2096774 20:0.24193549 21:0.17647059 22:0.33333334 
1 1:2 2:2 3:9 4:21 5:0.6666666 6:1 7:4 8:0.14285713 9:0.28571427 10:0.38095236 11:0.19047618 12:45 13:0.15000001 14:1 15:0.6885246 16:61 17:0.081967235 18:0.32786888 19:0.36065573 20:0.22950822 21:0.22807017 22:0.72727275 24:0.41176471 
1 1:3 2:2 3:9 4:22 5:0.6666666 6:2 7:3 8:0.19047618 9:0.38095236 10:0.28571427 11:0.14285713 12:5 13:0.19047619 14:2 15:0.6612903 16:62 17:0.12903225 18:0.33870965 19:0.32258064 20:0.2096774 21:0.24137931 22:0.90909094 23:0.25 24:0.375 
1 1:3 2:2 3:11 4:23 5:0.5909091 6:2 7:4 8:0.13636363 9:0.3181818 10:0.27272725 11:0.27272725 12:48 13:0.22727273 14:2 15:0.66176474 16:68 17:0.11764705 18:0.33823532 19:0.32352942 20:0.2205882 21:0.25 22:1.375 24:0.30000001 
0.4414858800366014 3:7 4:24 5:0.4583333 6:1 7:1 8:0.16666669 9:0.25 10:0.20833331 11:0.375 12:7 13:0.17391305 14:4 15:0.52380955 16:63 17:0.22222221 18:0.22222221 19:0.30158728 20:0.25396824 21:0.20689656 24:0.33333334 
1 1:1 2:1 3:6 4:22 5:0.45454544 6:2 7:3 8:0.3181818 9:0.13636363 10:0.3181818 11:0.22727275 12:26 13:0.20930232 14:4 15:0.46551722 16:58 17:0.24137932 18:0.15517241 19:0.31034482 20:0.29310346 21:0.18518518 22:0.69999999 23:0.36363637 24:0.090909094 
1 1:1 2:1 3:7 4:23 5:0.5 6:2 7:4 8:0.18181819 9:0.27272725 10:0.22727275 11:0.3181818 12:64 13:0.24444444 14:4 15:0.4677419 16:62 17:0.22580647 18:0.16129035 19:0.30645162 20:0.30645162 21:0.20689656 22:2 23:0.34999999 24:0.07692308 
1 4:24 5:0.625 6:2 7:1 8:0.08333331 9:0.4166667 10:0.20833331 11:0.2916667 12:7 13:0.125 14:4 15:0.6140351 16:57 17:0.15789473 18:0.28070176 19:0.3333333 20:0.2280702 21:0.086956523 22:0.8888889 
1 3:2 4:24 5:0.625 6:2 7:1 8:0.2916667 9:0.16666669 10:0.4583333 11:0.08333331 12:43 13:0.083333336 14:3 15:0.61904764 16:63 17:0.15873015 18:0.28571427 19:0.3333333 20:0.22222221 21:0.07692308 22:1.1 
1 3:6 4:22 5:0.5 6:2 7:2 8:0.40909094 9:0.13636363 10:0.36363637 11:0.090909064 12:3 13:0.13636364 14:2 15:0.37288135 16:59 17:0.2881356 18:0.16949153 19:0.20338982 20:0.33898306 21:0.12727273 22:0.89999998 24:0.090909094 
0.3935294559387262 4:23 5:0.6086956 6:1 7:3 8:0.17391306 9:0.26086956 10:0.34782606 11:0.21739131 12:3 13:0.11111111 14:2 15:0.6333333 16:60 17:0.19999999 18:0.3 19:0.3333333 20:0.16666669 21:0.11111111 22:0.80000001 
1 3:1 4:23 5:0.6818182 6:1 7:3 8:0.18181819 9:0.36363637 10:0.3181818 11:0.13636363 12:42 13:0.11111111 14:1 15:0.6451613 16:62 17:0.19354838 18:0.30645162 19:0.33870965 20:0.16129035 21:0.10638298 22:1.2222222 
1 1:1 2:1 3:5 4:27 5:0.5909091 6:3 7:4 8:0.27272725 9:0.36363637 10:0.22727275 11:0.13636363 12:53 13:0.16666667 14:2 15:0.63235295 16:68 17:0.17647058 18:0.35294116 19:0.2794118 20:0.19117647 21:0.1724138 22:1.1666666 24:0.2 
1 3:3 4:25 5:0.5 6:2 7:3 8:0.16666669 9:0.125 10:0.375 11:0.3333333 12:6 13:0.14893617 14:2 15:0.4736842 16:57 17:0.24561405 18:0.2280702 19:0.24561405 20:0.28070176 21:0.16981132 22:0.55555558 23:0.090909094 24:0.33333334 
1 1:1 2:1 3:5 4:24 5:0.5 6:2 7:4 8:0.22727275 9:0.36363637 10:0.13636363 11:0.27272725 12:42 13:0.15555556 14:4 15:0.4915254 16:59 17:0.23728812 18:0.23728812 19:0.2542373 20:0.2711864 21:0.16363636 22:1.6666666 23:0.11111111 24:0.2 
1 3:3 4:25 5:0.5 6:2 7:3 8:0.08333331 9:0.25 10:0.25 11:0.4166667 12:4 13:0.125 14:1 15:0.530303 16:66 17:0.18181819 18:0.22727275 19:0.3030303 20:0.2878788 21:0.11111111 22:0.89999998 
1 1:3 2:1 3:8 4:22 5:0.5909091 6:1 7:2 8:0.13636363 9:0.22727275 10:0.36363637 11:0.27272725 12:7 13:0.17073171 14:4 15:0.4915254 16:59 17:0.2711864 18:0.20338982 19:0.2881356 20:0.23728812 21:0.18518518 22:0.18181819 24:0.23076923 
1 1:1 2:1 3:6 4:21 5:0.65 6:2 7:3 8:0.10000002 9:0.14999998 10:0.5 11:0.25 12:50 13:0.15000001 14:4 15:0.64912283 16:57 17:0.10526317 18:0.21052629 19:0.4385965 20:0.24561405 21:0.1923077 22:1 23:0.16666667 24:0.33333334 
1 3:5 4:22 5:0.45454544 6:2 7:2 8:0.36363637 9:0.13636363 10:0.3181818 11:0.18181819 12:3 13:0.14285715 14:1 15:0.4745763 16:59 17:0.2542373 18:0.220339 19:0.2542373 20:0.2711864 21:0.16 22:1.125 24:0.25 
1 3:3 4:23 5:0.45454544 6:2 7:3 8:0.3181818 9:0.27272725 10:0.18181819 11:0.22727275 12:15 13:0.15555556 14:3 15:0.40350878 16:57 17:0.35087717 18:0.2280702 19:0.17543858 20:0.24561405 21:0.17647059 22:2.2 23:0.24137931 24:0.33333334 
0.380911215071905 1:1 2:1 3:4 4:22 5:0.5909091 6:1 7:1 8:0.090909064 9:0.090909064 10:0.5 11:0.3181818 12:59 13:0.023255814 14:4 15:0.64406776 16:59 17:0.13559324 18:0.2711864 19:0.37288135 20:0.220339 21:0.05882353 22:0.89999998 23:0.25581396 24:0.25 
1 3:4 4:22 5:0.6363636 6:2 7:2 9:0.18181819 10:0.45454544 11:0.36363637 12:3 13:0.27272728 14:3 15:0.56896555 16:58 17:0.13793105 18:0.24137932 19:0.32758623 20:0.29310346 21:0.30769232 22:1.6 24:0.5 
0.7890012121349312 3:6 4:22 5:0.77272725 6:2 7:3 8:0.18181819 9:0.36363637 10:0.40909094 11:0.04545456 12:41 13:0.20930232 14:4 15:0.59016395 16:61 17:0.13114756 18:0.26229507 19:0.32786888 20:0.27868855 21:0.30909091 22:1.8333334 24:0.66666669 
0.9886704215412202 1:1 2:1 3:7 4:23 5:0.5652174 6:2 7:2 8:0.0869565 9:0.26086956 10:0.3043478 11:0.34782606 12:9 13:0.095238097 14:4 15:0.52542377 16:59 17:0.1864407 18:0.220339 19:0.30508476 20:0.2881356 21:0.090909094 22:0.45454547 24:0.07692308 
1 1:1 2:1 3:7 4:25 5:0.57142854 6:2 7:2 8:0.23809522 9:0.28571427 10:0.28571427 11:0.19047618 12:49 13:0.086956523 14:4 15:0.49206346 16:63 17:0.2063492 18:0.2063492 19:0.28571427 20:0.30158728 21:0.084745765 22:1.2222222 24:0.07692308 
1 3:2 4:22 5:0.47619045 6:1 7:3 8:0.09523809 9:0.14285713 10:0.3333333 11:0.4285714 12:4 13:0.11627907 14:4 15:0.58928573 16:56 17:0.14285713 18:0.28571427 19:0.3035714 20:0.26785713 21:0.10638298 22:1 
1 4:22 5:0.4285714 6:2 7:2 8:0.19047618 9:0.14285713 10:0.28571427 11:0.38095236 12:23 13:0.11627907 14:2 15:0.45454544 16:55 17:0.27272725 18:0.19999999 19:0.25454545 20:0.27272725 21:0.11627907 22:1.1111112 23:0.44186047 
1 3:2 4:22 5:0.5454545 6:2 7:2 8:0.27272725 9:0.40909094 10:0.13636363 11:0.18181819 12:58 13:0.11627907 14:4 15:0.4745763 16:59 17:0.2542373 18:0.20338982 19:0.2711864 20:0.2711864 21:0.10638298 22:1.1 23:0.48717949 
1 3:4 4:21 5:0.52380955 6:2 7:2 8:0.3333333 9:0.19047618 10:0.3333333 11:0.14285713 12:37 13:0.19047619 14:4 15:0.5090909 16:55 17:0.23636365 18:0.23636365 19:0.27272725 20:0.25454545 21:0.16 22:0.625 
1 3:6 4:20 5:0.5 6:2 7:2 8:0.25 9:0.3 10:0.19999999 11:0.25 12:7 13:0.2 14:3 15:0.39999998 16:55 17:0.27272725 18:0.21818179 19:0.18181819 20:0.3272727 21:0.25490198 22:0.69999999 23:0.23076923 24:0.45454547 
0.263133073803475 1:3 2:1 3:8 4:22 5:0.40909094 6:2 7:4 8:0.27272725 9:0.18181819 10:0.22727275 11:0.3181818 12:44 13:0.25581396 14:3 15:0.41935486 16:62 17:0.2580645 18:0.2096774 19:0.2096774 20:0.32258064 21:0.27586207 22:2 24:0.33333334 
1 1:1 2:1 3:5 4:23 5:0.57142854 6:2 7:3 8:0.28571427 9:0.3333333 10:0.23809522 11:0.14285713 12:53 13:0.18181819 14:4 15:0.56666666 16:60 17:0.16666669 18:0.25 19:0.31666666 20:0.26666665 21:0.16981132 22:0.45454547 23:0.15384616 24:0.11111111 
1 3:2 4:23 5:0.45454544 6:3 7:4 8:0.3181818 9:0.22727275 10:0.22727275 11:0.22727275 12:14 13:0.22727273 14:3 15:0.44067794 16:59 17:0.2711864 18:0.220339 19:0.220339 20:0.2881356 21:0.20833333 22:1.4 23:0.2857143 
1 3:3 4:24 5:0.47826087 6:3 7:4 8:0.21739131 9:0.26086956 10:0.21739131 11:0.3043478 12:52 13:0.30434781 14:2 15:0.44444442 16:63 17:0.25396824 18:0.2063492 19:0.23809522 20:0.30158728 21:0.26923078 22:0.5 23:0.16666667 
1 3:6 4:22 5:0.6363636 6:2 7:3 8:0.090909064 9:0.3181818 10:0.3181818 11:0.27272725 12:46 13:0.27272728 14:2 15:0.59375 16:64 17:0.125 18:0.265625 19:0.328125 20:0.28125 21:0.25 22:1 24:0.16666667 
0.6381725246161711 1:1 2:2 3:7 4:24 5:0.5909091 6:2 7:5 8:0.18181819 9:0.22727275 10:0.36363637 11:0.22727275 12:46 13:0.24444444 14:1 15:0.5625 16:64 17:0.203125 18:0.28125 19:0.28125 20:0.234375 21:0.24137931 22:1.6666666 24:0.23076923 
0.4302565330074695 1:1 2:2 3:5 4:23 5:0.6363636 6:4 7:4 8:0.18181819 9:0.3181818 10:0.3181818 11:0.18181819 12:15 13:0.27272728 14:3 15:0.56896555 16:58 17:0.17241377 18:0.25862068 19:0.31034482 20:0.25862068 21:0.28301886 22:0.80000001 23:0.14285715 24:0.33333334 
1 1:1 2:2 3:6 4:24 5:0.5652174 6:4 7:4 8:0.21739131 9:0.21739131 10:0.34782606 11:0.21739131 12:52 13:0.30434781 14:3 15:0.5483871 16:62 17:0.19354838 18:0.24193549 19:0.30645162 20:0.2580645 21:0.29824561 22:2.25 23:0.083333336 24:0.27272728 
1 3:2 4:22 5:0.36363637 6:3 7:2 8:0.3181818 9:0.13636363 10:0.22727275 11:0.3181818 12:16 13:0.20930232 14:3 15:0.4528302 16:53 17:0.16981131 18:0.18867922 19:0.26415092 20:0.3773585 21:0.23404256 22:0.80000001 23:0.22580644 24:0.5 
1 1:1 2:1 3:4 4:23 5:0.40909094 6:1 7:3 8:0.27272725 9:0.3181818 10:0.090909064 11:0.3181818 12:31 13:0.15555556 14:2 15:0.4385965 16:57 17:0.21052629 18:0.21052629 19:0.2280702 20:0.35087717 21:0.16981132 22:0.55555558 23:0.32258064 24:0.25 
1 1:1 2:1 3:6 4:22 5:0.5 6:1 7:3 8:0.13636363 9:0.18181819 10:0.3181818 11:0.36363637 12:67 13:0.20930232 14:2 15:0.45762712 16:59 17:0.20338982 18:0.23728812 19:0.220339 20:0.33898306 21:0.2 22:2 23:0.30000001 24:0.16666667 
0.8091188804050985 1:2 2:1 3:6 4:24 5:0.4583333 6:3 7:3 8:0.125 9:0.08333331 10:0.375 11:0.4166667 12:58 13:0.17391305 14:2 15:0.52459013 16:61 17:0.18032789 18:0.19672132 19:0.32786888 20:0.29508197 21:0.20689656 22:1.1111112 23:0.2173913 24:0.33333334 
0.8227090217981714 1:2 2:1 3:6 4:22 5:0.5 6:2 7:2 8:0.27272725 9:0.22727275 10:0.27272725 11:0.22727275 12:14 13:0.14285715 14:2 15:0.4915254 16:59 17:0.220339 18:0.23728812 19:0.2542373 20:0.2881356 21:0.15384616 22:0.80000001 23:0.23076923 24:0.2 
1 3:11 4:22 5:0.5454545 6:2 7:4 8:0.18181819 9:0.22727275 10:0.3181818 11:0.27272725 12:15 13:0.22727273 14:3 15:0.52380955 16:63 17:0.23809522 18:0.25396824 19:0.26984125 20:0.23809522 21:0.28813559 22:0.69999999 23:0.21428572 24:0.46666667 
1 3:14 4:22 5:0.8181818 6:1 7:3 8:0.090909064 9:0.22727275 10:0.5909091 11:0.090909064 12:14 13:0.13636364 14:3 15:0.6 16:70 17:0.15714288 18:0.27142859 19:0.32857144 20:0.24285716 21:0.23809524 22:0.8888889 23:0.15384616 24:0.47368422 
1 1:9 2:1 3:16 4:22 5:0.6363636 6:1 7:3 8:0.18181819 9:0.45454544 10:0.18181819 11:0.18181819 12:64 13:0.13636364 14:2 15:0.5810811 16:74 17:0.16216218 18:0.25675678 19:0.3243243 20:0.25675678 21:0.2238806 22:1.5 23:0.18181819 24:0.39130434 
1 1:12 2:1 3:17 4:21 5:0.57142854 6:1 7:5 8:0.28571427 9:0.23809522 10:0.3333333 11:0.14285713 12:51 13:0.23809524 14:2 15:0.61764705 16:68 17:0.25 18:0.36764705 19:0.25 20:0.13235295 21:0.34375 22:0.77777779 24:0.54545456 
1 1:1 2:1 3:3 4:22 5:0.6363636 6:1 7:3 8:0.22727275 9:0.45454544 10:0.18181819 11:0.13636363 12:7 13:0.13636364 14:1 15:0.5925926 16:54 17:0.24074072 18:0.3333333 19:0.25925928 20:0.16666669 21:0.16 22:1 23:0.16666667 24:0.33333334 
1 1:1 2:1 3:5 4:22 5:0.5454545 6:1 7:3 8:0.22727275 9:0.22727275 10:0.3181818 11:0.22727275 12:41 13:0.18181819 14:2 15:0.56896555 16:58 17:0.25862068 18:0.32758623 19:0.24137932 20:0.17241377 21:0.18518518 22:1.2857143 24:0.2 
1 1:5 2:1 3:8 4:23 5:0.5909091 6:3 7:2 8:0.13636363 9:0.22727275 10:0.36363637 11:0.27272725 12:3 13:0.15555556 14:4 15:0.484375 16:64 17:0.234375 18:0.25 19:0.234375 20:0.28125 21:0.26666668 22:2.6666667 24:0.60000002 
0.07088299446640096 3:7 4:22 5:0.36363637 6:3 7:1 8:0.40909094 9:0.22727275 10:0.13636363 11:0.22727275 12:43 13:0.1627907 14:4 15:0.46666664 16:60 17:0.25 18:0.25 19:0.21666664 20:0.28333336 21:0.2857143 22:0.71428573 24:0.69230771 
1 1:6 2:3 3:29 4:22 5:0.5909091 6:1 7:3 8:0.3181818 9:0.36363637 10:0.22727275 11:0.090909064 12:4 13:0.1627907 14:4 15:0.58762884 16:97 17:0.16494846 18:0.2886598 19:0.2989691 20:0.2474227 21:0.24731183 22:0.8888889 23:0.33333334 24:0.31999999 
1 1:6 2:4 3:31 4:23 5:0.5909091 6:2 7:4 8:0.04545456 9:0.22727275 10:0.36363637 11:0.36363637 12:82 13:0.2 14:4 15:0.592233 16:103 17:0.15533978 18:0.29126215 19:0.30097085 20:0.25242716 21:0.25252524 22:1.5 24:0.2962963 
1 4:23 5:0.5652174 6:2 7:2 8:0.26086956 9:0.21739131 10:0.34782606 11:0.17391306 12:10 13:0.13636364 14:3 15:0.5185185 16:54 17:0.25925928 18:0.2777778 19:0.24074072 20:0.22222221 21:0.13636364 22:0.89999998 
1 3:2 4:23 5:0.57142854 6:2 7:3 8:0.14285713 9:0.3333333 10:0.23809522 11:0.28571427 12:45 13:0.13636364 14:4 15:0.51724136 16:58 17:0.25862068 18:0.2758621 19:0.24137932 20:0.2241379 21:0.125 22:1 
1 1:1 2:1 3:8 4:24 5:0.6363636 6:1 7:4 8:0.04545456 9:0.3181818 10:0.3181818 11:0.3181818 12:5 13:0.18181819 14:3 15:0.625 16:64 17:0.203125 18:0.296875 19:0.328125 20:0.171875 21:0.15254237 22:2 23:0.27272728 24:0.06666667 
1 1:1 2:1 3:10 4:24 5:0.6666666 6:1 7:4 8:0.2916667 9:0.2916667 10:0.375 11:0.041666687 12:47 13:0.18181819 14:3 15:0.6212121 16:66 17:0.21212119 18:0.2878788 19:0.3333333 20:0.16666669 21:0.18032786 22:2 23:0.11111111 24:0.17647059 
1 1:1 2:1 3:5 4:24 5:0.5454545 6:2 7:3 8:0.27272725 9:0.18181819 10:0.36363637 11:0.18181819 12:43 13:0.17391305 14:1 15:0.5737705 16:61 17:0.21311474 18:0.29508197 19:0.27868855 20:0.21311474 21:0.16363636 22:0.63636363 24:0.11111111 
0.1184682260622095 3:4 4:24 5:0.4583333 6:1 7:3 8:0.3333333 9:0.2916667 10:0.16666669 11:0.20833331 12:6 13:0.13043478 14:3 15:0.39999998 16:60 17:0.31666666 18:0.18333334 19:0.21666664 20:0.28333336 21:0.13207547 22:0.66666669 24:0.14285715 
1 1:1 2:4 3:18 4:12 5:0.16666669 6:1 7:1 8:0.3333333 9:0.08333331 10:0.08333331 11:0.5 12:56 13:0.083333336 14:3 15:0.421875 16:64 17:0.296875 18:0.1875 19:0.234375 20:0.28125 21:0.12280702 22:1.2857143 24:0.15151516 
1 4:24 5:0.47826087 6:2 7:2 8:0.17391306 9:0.0869565 10:0.39130437 11:0.34782606 12:13 13:0.15555556 14:4 15:0.4727273 16:55 17:0.23636365 18:0.21818179 19:0.25454545 20:0.2909091 21:0.15555556 22:0.44444445 23:0.090909094 
1 3:2 4:24 5:0.5 6:3 7:3 8:0.22727275 9:0.36363637 10:0.13636363 11:0.27272725 12:48 13:0.2 14:4 15:0.4745763 16:59 17:0.220339 18:0.220339 19:0.2542373 20:0.30508476 21:0.18367347 22:3.3333333 
1 3:2 4:22 5:0.72727275 6:2 7:3 8:0.090909064 9:0.27272725 10:0.45454544 11:0.18181819 12:8 13:0.1627907 14:1 15:0.67857146 16:56 17:0.1964286 18:0.375 19:0.3035714 20:0.125 21:0.17391305 22:0.625 23:0.14285715 24:0.33333334 
1 1:1 2:1 3:5 4:20 5:0.6 6:2 7:2 8:0.25 9:0.39999998 10:0.19999999 11:0.14999998 12:45 13:0.15000001 14:3 15:0.6551724 16:58 17:0.20689654 18:0.36206895 19:0.29310346 20:0.13793105 21:0.16666667 22:2 23:0.16666667 24:0.25 
0.5885979591528234 3:3 4:23 5:0.47826087 6:1 7:2 8:0.13043481 9:0.34782606 10:0.13043481 11:0.39130437 12:4 13:0.086956523 15:0.48214287 16:56 17:0.1785714 18:0.23214287 19:0.25 20:0.33928573 21:0.15384616 22:0.63636363 24:0.66666669 
1 3:4 4:25 5:0.5909091 6:2 7:3 8:0.18181819 9:0.13636363 10:0.45454544 11:0.22727275 12:39 13:0.26086956 14:2 15:0.64406776 16:59 17:0.16949153 18:0.30508476 19:0.33898306 20:0.1864407 21:0.22222222 
0.9201104691854187 3:6 4:21 5:0.57142854 6:2 7:1 8:0.14285713 9:0.3333333 10:0.23809522 11:0.28571427 12:50 13:0.14285715 14:4 15:0.53225803 16:62 17:0.2096774 18:0.2580645 19:0.27419353 20:0.2580645 21:0.17647059 22:1.5714285 23:0.125 24:0.33333334 
1 1:5 2:1 3:18 4:24 5:0.5454545 6:3 7:2 8:0.18181819 9:0.13636363 10:0.40909094 11:0.27272725 12:6 13:0.17391305 14:3 15:0.6375 16:80 17:0.125 18:0.28750002 19:0.35000002 20:0.23750001 21:0.18421052 22:1 23:0.40000001 24:0.2 
1 1:5 2:2 3:20 4:23 5:0.6521739 6:3 7:2 8:0.17391306 9:0.34782606 10:0.3043478 11:0.17391306 12:64 13:0.22727273 14:3 15:0.63414633 16:82 17:0.12195122 18:0.28048778 19:0.35365856 20:0.24390244 21:0.20512821 22:1.6666666 23:0.25 24:0.17647059 
0.2480928193234819 1:2 2:1 3:6 4:23 5:0.45454544 6:2 7:3 8:0.3181818 9:0.13636363 10:0.3181818 11:0.22727275 12:42 13:0.15555556 14:2 15:0.44262296 16:61 17:0.21311474 18:0.19672132 19:0.24590164 20:0.3442623 21:0.16363636 22:1.125 24:0.2 
1 1:1 2:2 3:8 4:23 5:0.5652174 6:4 7:2 8:0.26086956 9:0.26086956 10:0.3043478 11:0.17391306 12:6 13:0.19047619 14:2 15:0.5409836 16:61 17:0.24590164 18:0.24590164 19:0.29508197 20:0.21311474 21:0.19298245 22:0.90909094 23:0.55555558 24:0.2 
1 1:1 2:2 3:8 4:26 5:0.52380955 6:4 7:2 8:0.28571427 9:0.23809522 10:0.28571427 11:0.19047618 12:48 13:0.27659574 14:2 15:0.530303 16:66 17:0.25757575 18:0.25757575 19:0.27272725 20:0.21212119 21:0.25806451 22:5.5 24:0.2 
0.9898313109114141 4:24 5:0.5 6:1 7:3 8:0.22727275 9:0.36363637 10:0.13636363 11:0.27272725 12:14 13:0.17391305 14:2 15:0.375 16:56 17:0.3214286 18:0.1785714 19:0.1964286 20:0.3035714 21:0.17391305 22:0.66666669 23:0.1724138 
1 3:2 4:22 5:0.40909094 6:1 7:3 8:0.3181818 9:0.090909064 10:0.3181818 11:0.27272725 12:48 13:0.19047619 14:2 15:0.375 16:56 17:0.3214286 18:0.1785714 19:0.1964286 20:0.3035714 21:0.17391305 22:1.3333334 23:0.1724138 
0.03937125097879903 3:1 4:22 5:0.4285714 6:1 7:3 8:0.14285713 9:0.14285713 10:0.28571427 11:0.4285714 12:12 13:0.11627907 14:3 15:0.4736842 16:57 17:0.24561405 18:0.2280702 19:0.24561405 20:0.28070176 21:0.11111111 22:1 23:0.18181819 
1 3:1 4:23 5:0.5909091 6:2 7:3 8:0.27272725 9:0.40909094 10:0.18181819 11:0.13636363 12:6 13:0.18181819 14:3 15:0.59615386 16:52 17:0.15384614 18:0.26923078 19:0.32692307 20:0.25 21:0.17391305 22:0.69999999 23:0.2 
1 3:2 4:23 5:0.5 6:2 7:3 8:0.090909064 9:0.090909064 10:0.40909094 11:0.40909094 12:37 13:0.22727273 14:3 15:0.5925926 16:54 17:0.14814812 18:0.25925928 19:0.3333333 20:0.25925928 21:0.20833333 22:1.8 
1 1:2 2:2 3:23 4:20 5:0.57894737 6:2 7:4 8:0.21052629 9:0.31578946 10:0.2631579 11:0.21052629 12:6 13:0.33333334 14:2 15:0.5 16:94 17:0.20212764 18:0.24468082 19:0.25531918 20:0.29787236 21:0.21428572 22:0.85714287 23:0.25 24:0.11111111 
1 1:1 2:1 3:6 4:24 5:0.45454544 6:3 7:4 8:0.18181819 9:0.22727275 10:0.22727275 11:0.36363637 12:46 13:0.2173913 14:3 15:0.44444442 16:63 17:0.2063492 18:0.2063492 19:0.23809522 20:0.34920633 21:0.19298245 22:0.2 23:0.25 24:0.090909094 
1 1:1 2:2 3:11 4:22 5:0.6363636 6:1 7:5 8:0.22727275 9:0.18181819 10:0.45454544 11:0.13636363 12:8 13:0.22727273 14:2 15:0.5857143 16:70 17:0.1857143 18:0.25714284 19:0.32857144 20:0.22857141 21:0.1875 22:1.375 24:0.1 
-0.307353312597845 1:3 2:1 3:8 4:22 5:0.6818182 6:1 7:4 8:0.18181819 9:0.27272725 10:0.40909094 11:0.13636363 12:46 13:0.1627907 14:3 15:0.56666666 16:60 17:0.14999998 18:0.23333335 19:0.3333333 20:0.28333336 21:0.17857143 22:0.8888889 23:0.07692308 24:0.23076923 
-0.9447860165556936 1:1 2:1 3:5 4:22 5:0.5454545 6:2 7:3 8:0.18181819 9:0.36363637 10:0.18181819 11:0.27272725 12:6 13:0.19047619 14:2 15:0.57894737 16:57 17:0.21052629 18:0.2982456 19:0.28070176 20:0.21052629 21:0.17647059 22:1.1428572 24:0.11111111 
-0.7862615555095438 1:1 2:1 3:3 4:23 5:0.5909091 6:2 7:3 8:0.27272725 9:0.36363637 10:0.22727275 11:0.13636363 12:44 13:0.15555556 14:3 15:0.6333333 16:60 17:0.21666664 18:0.35000002 19:0.28333336 20:0.14999998 21:0.16 22:1.1428572 23:0.2 24:0.2 
-1 1:3 2:1 3:8 4:22 5:0.6818182 6:1 7:4 8:0.18181819 9:0.27272725 10:0.40909094 11:0.13636363 12:46 13:0.1627907 14:3 15:0.56666666 16:60 17:0.14999998 18:0.23333335 19:0.3333333 20:0.28333336 21:0.17857143 22:0.8888889 23:0.07692308 24:0.23076923 
-0.9671709194247804 1:1 2:1 3:7 4:22 5:0.6363636 6:1 7:2 8:0.3181818 9:0.27272725 10:0.36363637 11:0.04545456 12:4 13:0.11627907 14:2 15:0.5833334 16:60 17:0.19999999 18:0.3 19:0.28333336 20:0.21666664 21:0.12280702 22:1.5714285 24:0.14285715 
-0.6688817407581155 3:1 4:23 5:0.5909091 6:2 7:4 8:0.13636363 9:0.3181818 10:0.27272725 11:0.27272725 12:15 13:0.1627907 14:4 15:0.5818182 16:55 17:0.21818179 18:0.34545457 19:0.23636365 20:0.19999999 21:0.15555556 22:1.5714285 23:0.12 
-1 1:1 2:1 3:5 4:22 5:0.5454545 6:2 7:3 8:0.18181819 9:0.36363637 10:0.18181819 11:0.27272725 12:6 13:0.19047619 14:2 15:0.57894737 16:57 17:0.21052629 18:0.2982456 19:0.28070176 20:0.21052629 21:0.17647059 22:1.1428572 24:0.11111111 
-1 1:1 2:1 3:3 4:23 5:0.5909091 6:2 7:3 8:0.27272725 9:0.36363637 10:0.22727275 11:0.13636363 12:44 13:0.15555556 14:3 15:0.6333333 16:60 17:0.21666664 18:0.35000002 19:0.28333336 20:0.14999998 21:0.16 22:1.1428572 23:0.2 24:0.2 
-0.1766612176967298 3:3 4:23 5:0.5454545 6:2 7:4 8:0.27272725 9:0.40909094 10:0.13636363 11:0.18181819 12:4 13:0.22727273 14:3 15:0.60714287 16:56 17:0.14285713 18:0.26785713 19:0.33928573 20:0.25 21:0.2 22:0.60000002 
-1 1:3 2:1 3:8 4:22 5:0.6818182 6:1 7:4 8:0.18181819 9:0.27272725 10:0.40909094 11:0.13636363 12:46 13:0.1627907 14:3 15:0.56666666 16:60 17:0.14999998 18:0.23333335 19:0.3333333 20:0.28333336 21:0.17857143 22:0.8888889 23:0.07692308 24:0.23076923 
-1 1:1 2:1 3:7 4:22 5:0.6363636 6:1 7:2 8:0.3181818 9:0.27272725 10:0.36363637 11:0.04545456 12:4 13:0.11627907 14:2 15:0.5833334 16:60 17:0.19999999 18:0.3 19:0.28333336 20:0.21666664 21:0.12280702 22:1.5714285 24:0.14285715 
-0.8726652290388472 1:2 2:1 3:9 4:25 5:0.5 6:2 7:4 8:0.40909094 9:0.18181819 10:0.3181818 11:0.090909064 12:47 13:0.19148937 14:2 15:0.5 16:66 17:0.21212119 18:0.25757575 19:0.24242425 20:0.2878788 21:0.20634921 22:1.5 24:0.25 
-1 3:1 4:23 5:0.5909091 6:2 7:4 8:0.13636363 9:0.3181818 10:0.27272725 11:0.27272725 12:15 13:0.1627907 14:4 15:0.5818182 16:55 17:0.21818179 18:0.34545457 19:0.23636365 20:0.19999999 21:0.15555556 22:1.5714285 23:0.12 
-1 1:1 2:1 3:5 4:22 5:0.5454545 6:2 7:3 8:0.18181819 9:0.36363637 10:0.18181819 11:0.27272725 12:6 13:0.19047619 14:2 15:0.57894737 16:57 17:0.21052629 18:0.2982456 19:0.28070176 20:0.21052629 21:0.17647059 22:1.1428572 24:0.11111111 
-1 1:1 2:1 3:3 4:23 5:0.5909091 6:2 7:3 8:0.27272725 9:0.36363637 10:0.22727275 11:0.13636363 12:44 13:0.15555556 14:3 15:0.6333333 16:60 17:0.21666664 18:0.35000002 19:0.28333336 20:0.14999998 21:0.16 22:1.1428572 23:0.2 24:0.2 
-1 3:3 4:23 5:0.5454545 6:2 7:4 8:0.27272725 9:0.40909094 10:0.13636363 11:0.18181819 12:4 13:0.22727273 14:3 15:0.60714287 16:56 17:0.14285713 18:0.26785713 19:0.33928573 20:0.25 21:0.2 22:0.60000002 
-0.04382833239376577 3:3 4:20 5:0.45 6:2 7:2 8:0.3 9:0.25 10:0.19999999 11:0.25 12:49 13:0.15789473 14:4 15:0.46428573 16:56 17:0.23214287 18:0.25 19:0.21428573 20:0.3035714 21:0.18181819 22:1.2857143 23:0.12 24:0.33333334 
-1 1:3 2:1 3:8 4:22 5:0.6818182 6:1 7:4 8:0.18181819 9:0.27272725 10:0.40909094 11:0.13636363 12:46 13:0.1627907 14:3 15:0.56666666 16:60 17:0.14999998 18:0.23333335 19:0.3333333 20:0.28333336 21:0.17857143 22:0.8888889 23:0.07692308 24:0.23076923 
-1 1:1 2:1 3:7 4:22 5:0.6363636 6:1 7:2 8:0.3181818 9:0.27272725 10:0.36363637 11:0.04545456 12:4 13:0.11627907 14:2 15:0.5833334 16:60 17:0.19999999 18:0.3 19:0.28333336 20:0.21666664 21:0.12280702 22:1.5714285 24:0.14285715 
-1 1:2 2:1 3:9 4:25 5:0.5 6:2 7:4 8:0.40909094 9:0.18181819 10:0.3181818 11:0.090909064 12:47 13:0.19148937 14:2 15:0.5 16:66 17:0.21212119 18:0.25757575 19:0.24242425 20:0.2878788 21:0.20634921 22:1.5 24:0.25 
-0.09777645222427857 3:4 4:23 5:0.5454545 6:2 7:3 8:0.090909064 9:0.3181818 10:0.22727275 11:0.36363637 12:56 13:0.24444444 14:4 15:0.53225803 16:62 17:0.2096774 18:0.22580647 19:0.30645162 20:0.2580645 21:0.20754717 22:0.60000002 23:0.16666667 
-0.3741418581542234 3:6 4:22 5:0.77272725 6:2 7:2 8:0.090909064 9:0.40909094 10:0.36363637 11:0.13636363 12:45 13:0.1627907 14:1 15:0.6818182 16:66 17:0.13636363 18:0.2878788 19:0.39393938 20:0.18181819 21:0.2 22:0.90909094 24:0.33333334 
-0.6589294211955792 3:3 4:22 5:0.36363637 6:2 7:3 8:0.45454544 9:0.04545456 10:0.3181818 11:0.18181819 12:39 13:0.14285715 14:3 15:0.4310345 16:58 17:0.2241379 18:0.18965518 19:0.24137932 20:0.3448276 21:0.125 22:1.25 
-1 3:4 4:24 5:0.625 6:2 7:3 8:0.20833331 9:0.2916667 10:0.3333333 11:0.16666669 12:42 13:0.14893617 14:2 15:0.62903225 16:62 17:0.16129035 18:0.2903226 19:0.33870965 20:0.2096774 21:0.16363636 22:0.72727275 24:0.25 
-0.9547589434483117 4:25 5:0.6666666 6:2 7:4 8:0.08333331 9:0.3333333 10:0.3333333 11:0.25 12:7 13:0.18367347 14:3 15:0.625 16:56 17:0.16071427 18:0.28571427 19:0.33928573 20:0.21428573 21:0.18367347 22:0.8888889 
-0.573815769319745 3:2 4:23 5:0.5652174 6:1 7:4 8:0.0869565 9:0.26086956 10:0.3043478 11:0.34782606 12:15 13:0.17391305 14:3 15:0.42622954 16:61 17:0.18032789 18:0.18032789 19:0.24590164 20:0.39344263 21:0.16 22:0.77777779 23:0.1724138 
-1 3:1 4:23 5:0.5909091 6:2 7:4 8:0.13636363 9:0.3181818 10:0.27272725 11:0.27272725 12:15 13:0.1627907 14:4 15:0.5818182 16:55 17:0.21818179 18:0.34545457 19:0.23636365 20:0.19999999 21:0.15555556 22:1.5714285 23:0.12 
-0.2826619959657656 1:1 2:1 3:8 4:21 5:0.71428573 6:2 7:2 8:0.047619045 9:0.23809522 10:0.47619045 11:0.23809522 12:13 13:0.17073171 14:2 15:0.5645161 16:62 17:0.16129035 18:0.24193549 19:0.32258064 20:0.27419353 21:0.16363636 22:1.6666666 23:0.16666667 24:0.14285715 
-0.05633388732274585 1:2 2:1 3:6 4:24 5:0.5909091 6:2 7:3 8:0.13636363 9:0.36363637 10:0.22727275 11:0.27272725 12:53 13:0.17391305 14:1 15:0.47619045 16:63 17:0.22222221 18:0.23809522 19:0.23809522 20:0.30158728 21:0.17857143 22:2 23:0.18181819 24:0.2 
-1 1:1 2:1 3:5 4:22 5:0.5454545 6:2 7:3 8:0.18181819 9:0.36363637 10:0.18181819 11:0.27272725 12:6 13:0.19047619 14:2 15:0.57894737 16:57 17:0.21052629 18:0.2982456 19:0.28070176 20:0.21052629 21:0.17647059 22:1.1428572 24:0.11111111 
-1 1:1 2:1 3:3 4:23 5:0.5909091 6:2 7:3 8:0.27272725 9:0.36363637 10:0.22727275 11:0.13636363 12:44 13:0.15555556 14:3 15:0.6333333 16:60 17:0.21666664 18:0.35000002 19:0.28333336 20:0.14999998 21:0.16 22:1.1428572 23:0.2 24:0.2 
-1 3:3 4:23 5:0.5454545 6:2 7:4 8:0.27272725 9:0.40909094 10:0.13636363 11:0.18181819 12:4 13:0.22727273 14:3 15:0.60714287 16:56 17:0.14285713 18:0.26785713 19:0.33928573 20:0.25 21:0.2 22:0.60000002 
-1 3:2 4:22 5:0.45454544 6:1 7:1 8:0.18181819 9:0.27272725 10:0.18181819 11:0.36363637 12:7 13:0.18181819 14:3 15:0.44444442 16:54 17:0.24074072 18:0.1851852 19:0.25925928 20:0.3148148 21:0.20833333 22:2 23:0.5 24:0.5 
-0.3123265705015146 1:2 2:1 3:5 4:21 5:0.57142854 6:2 7:3 8:0.23809522 9:0.28571427 10:0.28571427 11:0.19047618 12:41 13:0.21951219 14:4 15:0.51785713 16:56 17:0.21428573 18:0.25 19:0.26785713 20:0.26785713 21:0.25490198 22:1 23:0.2 24:0.40000001 
-1 3:3 4:20 5:0.45 6:2 7:2 8:0.3 9:0.25 10:0.19999999 11:0.25 12:49 13:0.15789473 14:4 15:0.46428573 16:56 17:0.23214287 18:0.25 19:0.21428573 20:0.3035714 21:0.18181819 22:1.2857143 23:0.12 24:0.33333334 
-1 1:3 2:1 3:8 4:22 5:0.6818182 6:1 7:4 8:0.18181819 9:0.27272725 10:0.40909094 11:0.13636363 12:46 13:0.1627907 14:3 15:0.56666666 16:60 17:0.14999998 18:0.23333335 19:0.3333333 20:0.28333336 21:0.17857143 22:0.8888889 23:0.07692308 24:0.23076923 
-1 1:1 2:1 3:7 4:22 5:0.6363636 6:1 7:2 8:0.3181818 9:0.27272725 10:0.36363637 11:0.04545456 12:4 13:0.11627907 14:2 15:0.5833334 16:60 17:0.19999999 18:0.3 19:0.28333336 20:0.21666664 21:0.12280702 22:1.5714285 24:0.14285715 
-0.526612885507843 3:3 4:22 5:0.5 6:2 7:1 8:0.18181819 9:0.27272725 10:0.22727275 11:0.3181818 12:53 13:0.23809524 14:4 15:0.4918033 16:61 17:0.19672132 18:0.27868855 19:0.21311474 20:0.3114754 21:0.20833333 22:0.80000001 23:0.375 
-0.188073823682469 3:1 4:24 5:0.47826087 6:2 7:4 8:0.3043478 9:0.3043478 10:0.17391306 11:0.21739131 12:7 13:0.19148937 14:4 15:0.4285714 16:63 17:0.25396824 18:0.2063492 19:0.22222221 20:0.3174603 21:0.18367347 22:0.80000001 23:0.33333334 
-1 1:2 2:1 3:9 4:25 5:0.5 6:2 7:4 8:0.40909094 9:0.18181819 10:0.3181818 11:0.090909064 12:47 13:0.19148937 14:2 15:0.5 16:66 17:0.21212119 18:0.25757575 19:0.24242425 20:0.2878788 21:0.20634921 22:1.5 24:0.25 
-1 3:4 4:23 5:0.5454545 6:2 7:3 8:0.090909064 9:0.3181818 10:0.22727275 11:0.36363637 12:56 13:0.24444444 14:4 15:0.53225803 16:62 17:0.2096774 18:0.22580647 19:0.30645162 20:0.2580645 21:0.20754717 22:0.60000002 23:0.16666667 
-0.2907151147274448 3:2 4:26 5:0.7083334 6:3 7:5 8:0.16666669 9:0.4583333 10:0.25 11:0.125 12:8 13:0.20833333 14:2 15:0.6721312 16:61 17:0.14754099 18:0.32786888 19:0.3442623 20:0.18032789 21:0.1923077 22:2.2 23:0.14285715 
-0.8428881252805016 1:1 2:1 3:5 4:24 5:0.4583333 6:2 7:2 8:0.25 9:0.16666669 10:0.2916667 11:0.2916667 12:39 13:0.125 14:1 15:0.43548387 16:62 17:0.2903226 18:0.19354838 19:0.24193549 20:0.27419353 21:0.13793103 22:0.89999998 24:0.2 
-1 3:6 4:22 5:0.77272725 6:2 7:2 8:0.090909064 9:0.40909094 10:0.36363637 11:0.13636363 12:45 13:0.1627907 14:1 15:0.6818182 16:66 17:0.13636363 18:0.2878788 19:0.39393938 20:0.18181819 21:0.2 22:0.90909094 24:0.33333334 
-0.3627211003474974 3:4 4:24 5:0.5217391 6:2 7:3 8:0.13043481 9:0.34782606 10:0.17391306 11:0.34782606 12:45 13:0.14893617 14:4 15:0.49206346 16:63 17:0.22222221 18:0.2063492 19:0.28571427 20:0.28571427 21:0.16363636 22:1 23:0.25 24:0.25 
-1 3:3 4:22 5:0.36363637 6:2 7:3 8:0.45454544 9:0.04545456 10:0.3181818 11:0.18181819 12:39 13:0.14285715 14:3 15:0.4310345 16:58 17:0.2241379 18:0.18965518 19:0.24137932 20:0.3448276 21:0.125 22:1.25 
-1 3:4 4:24 5:0.625 6:2 7:3 8:0.20833331 9:0.2916667 10:0.3333333 11:0.16666669 12:42 13:0.14893617 14:2 15:0.62903225 16:62 17:0.16129035 18:0.2903226 19:0.33870965 20:0.2096774 21:0.16363636 22:0.72727275 24:0.25 
-1 4:25 5:0.6666666 6:2 7:4 8:0.08333331 9:0.3333333 10:0.3333333 11:0.25 12:7 13:0.18367347 14:3 15:0.625 16:56 17:0.16071427 18:0.28571427 19:0.33928573 20:0.21428573 21:0.18367347 22:0.8888889 
-0.6270404004391484 1:1 2:1 3:8 4:23 5:0.5454545 6:1 7:2 8:0.090909064 9:0.3181818 10:0.22727275 11:0.36363637 12:51 13:0.06666667 14:3 15:0.546875 16:64 17:0.203125 18:0.203125 19:0.34375 20:0.25 21:0.1 22:1.4285715 23:0.05882353 24:0.2 
-1 3:2 4:23 5:0.5652174 6:1 7:4 8:0.0869565 9:0.26086956 10:0.3043478 11:0.34782606 12:15 13:0.17391305 14:3 15:0.42622954 16:61 17:0.18032789 18:0.18032789 19:0.24590164 20:0.39344263 21:0.16 22:0.77777779 23:0.1724138 
-0.6022387475833848 1:2 2:3 3:10 4:22 5:0.6363636 6:2 7:2 8:0.22727275 9:0.22727275 10:0.40909094 11:0.13636363 12:48 13:0.20930232 14:3 15:0.5909091 16:66 17:0.13636363 18:0.25757575 19:0.3333333 20:0.27272725 21:0.25806451 22:1 24:0.36842105 
-0.01155225431906389 4:22 5:0.40909094 6:1 7:2 8:0.27272725 9:0.18181819 10:0.22727275 11:0.3181818 12:7 13:0.13636364 14:4 15:0.3962264 16:53 17:0.2830189 18:0.18867922 19:0.20754719 20:0.3207547 21:0.095238097 22:0.85714287 
-0.01569698660180344 3:4 4:26 5:0.47826087 6:2 7:2 8:0.3043478 9:0.21739131 10:0.26086956 11:0.21739131 12:40 13:0.22448979 14:4 15:0.48275864 16:58 17:0.2241379 18:0.24137932 19:0.24137932 20:0.29310346 21:0.23636363 24:0.33333334 
-1 1:3 2:2 3:12 4:22 5:0.61904764 6:2 7:4 8:0.14285713 9:0.3333333 10:0.28571427 11:0.23809522 12:49 13:0.23809524 14:1 15:0.66176474 16:68 17:0.11764705 18:0.33823532 19:0.32352942 20:0.2205882 21:0.25 22:1.375 24:0.27272728 
-1 3:1 4:23 5:0.5909091 6:2 7:4 8:0.13636363 9:0.3181818 10:0.27272725 11:0.27272725 12:15 13:0.1627907 14:4 15:0.5818182 16:55 17:0.21818179 18:0.34545457 19:0.23636365 20:0.19999999 21:0.15555556 22:1.5714285 23:0.12 
-0.3021429648330881 3:7 4:25 5:0.40909094 6:1 7:2 8:0.27272725 9:0.22727275 10:0.18181819 11:0.3181818 12:46 13:0.23404256 14:3 15:0.49206346 16:63 17:0.25396824 18:0.22222221 19:0.26984125 20:0.25396824 21:0.24137931 24:0.27272728 
-1 1:1 2:1 3:8 4:21 5:0.71428573 6:2 7:2 8:0.047619045 9:0.23809522 10:0.47619045 11:0.23809522 12:13 13:0.17073171 14:2 15:0.5645161 16:62 17:0.16129035 18:0.24193549 19:0.32258064 20:0.27419353 21:0.16363636 22:1.6666666 23:0.16666667 24:0.14285715 
-1 1:2 2:1 3:6 4:24 5:0.5909091 6:2 7:3 8:0.13636363 9:0.36363637 10:0.22727275 11:0.27272725 12:53 13:0.17391305 14:1 15:0.47619045 16:63 17:0.22222221 18:0.23809522 19:0.23809522 20:0.30158728 21:0.17857143 22:2 23:0.18181819 24:0.2 
-1 1:2 2:1 3:9 4:22 5:0.5909091 6:2 7:3 8:0.22727275 9:0.22727275 10:0.36363637 11:0.18181819 12:55 13:0.18181819 14:3 15:0.53846157 16:65 17:0.2153846 18:0.27692306 19:0.26153845 20:0.24615383 21:0.18032786 22:1.8333334 23:0.2 24:0.17647059 
-1 1:1 2:1 3:5 4:22 5:0.5454545 6:2 7:3 8:0.18181819 9:0.36363637 10:0.18181819 11:0.27272725 12:6 13:0.19047619 14:2 15:0.57894737 16:57 17:0.21052629 18:0.2982456 19:0.28070176 20:0.21052629 21:0.17647059 22:1.1428572 24:0.11111111 
-1 1:1 2:1 3:3 4:23 5:0.5909091 6:2 7:3 8:0.27272725 9:0.36363637 10:0.22727275 11:0.13636363 12:44 13:0.15555556 14:3 15:0.6333333 16:60 17:0.21666664 18:0.35000002 19:0.28333336 20:0.14999998 21:0.16 22:1.1428572 23:0.2 24:0.2 
-1 3:3 4:23 5:0.5454545 6:2 7:4 8:0.27272725 9:0.40909094 10:0.13636363 11:0.18181819 12:4 13:0.22727273 14:3 15:0.60714287 16:56 17:0.14285713 18:0.26785713 19:0.33928573 20:0.25 21:0.2 22:0.60000002 
-1 3:2 4:22 5:0.45454544 6:1 7:1 8:0.18181819 9:0.27272725 10:0.18181819 11:0.36363637 12:7 13:0.18181819 14:3 15:0.44444442 16:54 17:0.24074072 18:0.1851852 19:0.25925928 20:0.3148148 21:0.20833333 22:2 23:0.5 24:0.5 
-1 1:2 2:1 3:5 4:21 5:0.57142854 6:2 7:3 8:0.23809522 9:0.28571427 10:0.28571427 11:0.19047618 12:41 13:0.21951219 14:4 15:0.51785713 16:56 17:0.21428573 18:0.25 19:0.26785713 20:0.26785713 21:0.25490198 22:1 23:0.2 24:0.40000001 
-1 3:3 4:20 5:0.45 6:2 7:2 8:0.3 9:0.25 10:0.19999999 11:0.25 12:49 13:0.15789473 14:4 15:0.46428573 16:56 17:0.23214287 18:0.25 19:0.21428573 20:0.3035714 21:0.18181819 22:1.2857143 23:0.12 24:0.33333334 
-1 1:3 2:1 3:8 4:22 5:0.6818182 6:1 7:4 8:0.18181819 9:0.27272725 10:0.40909094 11:0.13636363 12:46 13:0.1627907 14:3 15:0.56666666 16:60 17:0.14999998 18:0.23333335 19:0.3333333 20:0.28333336 21:0.17857143 22:0.8888889 23:0.07692308 24:0.23076923 
-0.2560528512579714 3:6 4:22 5:0.5909091 6:1 7:3 8:0.090909064 9:0.27272725 10:0.3181818 11:0.3181818 12:63 13:0.095238097 14:1 15:0.530303 16:66 17:0.21212119 18:0.27272725 19:0.25757575 20:0.25757575 21:0.074074075 22:1.1111112 23:0.3888889 
-0.5779489094521949 1:3 2:1 3:7 4:22 5:0.77272725 6:1 7:4 8:0.090909064 9:0.36363637 10:0.40909094 11:0.13636363 12:8 13:0.25581396 14:1 15:0.7413793 16:58 17:0.08620691 18:0.39655173 19:0.3448276 20:0.17241377 21:0.27272728 22:1.125 23:0.23076923 24:0.33333334 
-1 1:1 2:1 3:7 4:22 5:0.6363636 6:1 7:2 8:0.3181818 9:0.27272725 10:0.36363637 11:0.04545456 12:4 13:0.11627907 14:2 15:0.5833334 16:60 17:0.19999999 18:0.3 19:0.28333336 20:0.21666664 21:0.12280702 22:1.5714285 24:0.14285715 
-0.3482278561696545 1:1 2:1 3:5 4:25 5:0.5416666 6:1 7:4 8:0.08333331 9:0.20833331 10:0.3333333 11:0.375 12:46 13:0.18367347 14:4 15:0.58208954 16:67 17:0.11940301 18:0.2835821 19:0.29850745 20:0.29850745 21:0.20689656 22:0.63636363 24:0.33333334 
-1 3:3 4:22 5:0.5 6:2 7:1 8:0.18181819 9:0.27272725 10:0.22727275 11:0.3181818 12:53 13:0.23809524 14:4 15:0.4918033 16:61 17:0.19672132 18:0.27868855 19:0.21311474 20:0.3114754 21:0.20833333 22:0.80000001 23:0.375 
-1 3:1 4:24 5:0.47826087 6:2 7:4 8:0.3043478 9:0.3043478 10:0.17391306 11:0.21739131 12:7 13:0.19148937 14:4 15:0.4285714 16:63 17:0.25396824 18:0.2063492 19:0.22222221 20:0.3174603 21:0.18367347 22:0.80000001 23:0.33333334 
-1 1:2 2:1 3:9 4:25 5:0.5 6:2 7:4 8:0.40909094 9:0.18181819 10:0.3181818 11:0.090909064 12:47 13:0.19148937 14:2 15:0.5 16:66 17:0.21212119 18:0.25757575 19:0.24242425 20:0.2878788 21:0.20634921 22:1.5 24:0.25 
-1 3:4 4:23 5:0.5454545 6:2 7:3 8:0.090909064 9:0.3181818 10:0.22727275 11:0.36363637 12:56 13:0.24444444 14:4 15:0.53225803 16:62 17:0.2096774 18:0.22580647 19:0.30645162 20:0.2580645 21:0.20754717 22:0.60000002 23:0.16666667 
-1 1:1 2:1 3:10 4:22 5:0.6315789 6:3 7:3 8:0.15789473 9:0.4736842 10:0.15789473 11:0.21052629 12:8 13:0.21951219 14:2 15:0.71875 16:64 17:0.125 18:0.390625 19:0.328125 20:0.15625 21:0.18032786 22:2.75 23:0.2857143 24:0.1 
-0.595966602740622 1:2 2:1 3:6 4:22 5:0.5 6:2 7:1 8:0.40909094 9:0.18181819 10:0.3181818 11:0.090909064 12:10 13:0.047619049 14:1 15:0.51785713 16:56 17:0.21428573 18:0.23214287 19:0.28571427 20:0.26785713 21:0.07692308 22:1.8 23:0.052631579 24:0.2 
-0.6792656162558942 4:25 5:0.73913044 6:2 7:4 8:0.13043481 9:0.26086956 10:0.47826087 11:0.13043481 12:18 13:0.17391305 14:2 15:0.6603774 16:53 17:0.13207549 18:0.3584906 19:0.3018868 20:0.20754719 21:0.17391305 22:0.89999998 23:0.11764706 
-0.3235529555032867 3:4 4:22 5:0.45454544 6:1 7:1 9:0.22727275 10:0.22727275 11:0.5454545 12:41 13:0.090909094 14:1 15:0.4909091 16:55 17:0.25454545 18:0.19999999 19:0.2909091 20:0.25454545 21:0.17647059 22:0.60000002 24:0.71428573 
-0.7300257832914927 1:1 2:1 3:3 4:24 5:0.8 6:3 7:4 8:0.050000012 9:0.25 10:0.55 11:0.14999998 12:11 13:0.18181819 14:2 15:0.6666666 16:54 17:0.16666669 18:0.2777778 19:0.3888889 20:0.16666669 21:0.18367347 22:0.80000001 23:0.052631579 24:0.2 
-0.1160426240397792 4:29 5:0.5833334 6:3 7:3 8:0.20833331 9:0.3333333 10:0.25 11:0.20833331 12:36 13:0.094339624 14:2 15:0.5762712 16:59 17:0.1864407 18:0.2711864 19:0.30508476 20:0.23728812 21:0.094339624 22:1 
-0.7762434491150262 1:1 2:1 3:7 4:23 5:0.5909091 6:2 7:3 8:0.22727275 9:0.18181819 10:0.40909094 11:0.18181819 12:2 13:0.30232558 14:1 15:0.44444442 16:63 17:0.23809522 18:0.19047618 19:0.25396824 20:0.3174603 21:0.2631579 24:0.14285715 
-0.2151544973014143 3:2 4:24 5:0.72727275 6:3 7:5 8:0.18181819 9:0.27272725 10:0.45454544 11:0.090909064 12:45 13:0.22727273 14:3 15:0.68421054 16:57 17:0.14035088 18:0.3333333 19:0.35087717 20:0.17543858 21:0.20833333 22:0.45454547 23:0.11111111 
-1 3:2 4:26 5:0.7083334 6:3 7:5 8:0.16666669 9:0.4583333 10:0.25 11:0.125 12:8 13:0.20833333 14:2 15:0.6721312 16:61 17:0.14754099 18:0.32786888 19:0.3442623 20:0.18032789 21:0.1923077 22:2.2 23:0.14285715 
-1 1:1 2:1 3:5 4:24 5:0.4583333 6:2 7:2 8:0.25 9:0.16666669 10:0.2916667 11:0.2916667 12:39 13:0.125 14:1 15:0.43548387 16:62 17:0.2903226 18:0.19354838 19:0.24193549 20:0.27419353 21:0.13793103 22:0.89999998 24:0.2 
-1 3:6 4:22 5:0.77272725 6:2 7:2 8:0.090909064 9:0.40909094 10:0.36363637 11:0.13636363 12:45 13:0.1627907 14:1 15:0.6818182 16:66 17:0.13636363 18:0.2878788 19:0.39393938 20:0.18181819 21:0.2 22:0.90909094 24:0.33333334 
-1 3:4 4:24 5:0.5217391 6:2 7:3 8:0.13043481 9:0.34782606 10:0.17391306 11:0.34782606 12:45 13:0.14893617 14:4 15:0.49206346 16:63 17:0.22222221 18:0.2063492 19:0.28571427 20:0.28571427 21:0.16363636 22:1 23:0.25 24:0.25 
-0.3362720217669146 1:3 2:1 3:6 4:22 5:0.6363636 6:1 7:3 8:0.13636363 9:0.40909094 10:0.22727275 11:0.22727275 12:5 13:0.11627907 14:2 15:0.6666666 16:57 17:0.12280703 18:0.35087717 19:0.31578946 20:0.21052629 21:0.16981132 22:1 23:0.25 24:0.40000001 
-1 3:3 4:22 5:0.36363637 6:2 7:3 8:0.45454544 9:0.04545456 10:0.3181818 11:0.18181819 12:39 13:0.14285715 14:3 15:0.4310345 16:58 17:0.2241379 18:0.18965518 19:0.24137932 20:0.3448276 21:0.125 22:1.25 
-1 3:4 4:24 5:0.625 6:2 7:3 8:0.20833331 9:0.2916667 10:0.3333333 11:0.16666669 12:42 13:0.14893617 14:2 15:0.62903225 16:62 17:0.16129035 18:0.2903226 19:0.33870965 20:0.2096774 21:0.16363636 22:0.72727275 24:0.25 
-1 4:25 5:0.6666666 6:2 7:4 8:0.08333331 9:0.3333333 10:0.3333333 11:0.25 12:7 13:0.18367347 14:3 15:0.625 16:56 17:0.16071427 18:0.28571427 19:0.33928573 20:0.21428573 21:0.18367347 22:0.8888889 
-1 1:1 2:1 3:8 4:23 5:0.5454545 6:1 7:2 8:0.090909064 9:0.3181818 10:0.22727275 11:0.36363637 12:51 13:0.06666667 14:3 15:0.546875 16:64 17:0.203125 18:0.203125 19:0.34375 20:0.25 21:0.1 22:1.4285715 23:0.05882353 24:0.2 
-1 3:2 4:23 5:0.5652174 6:1 7:4 8:0.0869565 9:0.26086956 10:0.3043478 11:0.34782606 12:15 13:0.17391305 14:3 15:0.42622954 16:61 17:0.18032789 18:0.18032789 19:0.24590164 20:0.39344263 21:0.16 22:0.77777779 23:0.1724138 
-1 1:2 2:3 3:10 4:22 5:0.6363636 6:2 7:2 8:0.22727275 9:0.22727275 10:0.40909094 11:0.13636363 12:48 13:0.20930232 14:3 15:0.5909091 16:66 17:0.13636363 18:0.25757575 19:0.3333333 20:0.27272725 21:0.25806451 22:1 24:0.36842105 
-1 4:22 5:0.40909094 6:1 7:2 8:0.27272725 9:0.18181819 10:0.22727275 11:0.3181818 12:7 13:0.13636364 14:4 15:0.3962264 16:53 17:0.2830189 18:0.18867922 19:0.20754719 20:0.3207547 21:0.095238097 22:0.85714287 
-1 3:4 4:26 5:0.47826087 6:2 7:2 8:0.3043478 9:0.21739131 10:0.26086956 11:0.21739131 12:40 13:0.22448979 14:4 15:0.48275864 16:58 17:0.2241379 18:0.24137932 19:0.24137932 20:0.29310346 21:0.23636363 24:0.33333334 
-0.3470398898078484 1:3 2:2 3:12 4:22 5:0.61904764 6:2 7:4 8:0.14285713 9:0.3333333 10:0.28571427 11:0.23809522 12:49 13:0.23809524 14:1 15:0.66176474 16:68 17:0.11764705 18:0.33823532 19:0.32352942 20:0.2205882 21:0.25 22:1.375 24:0.27272728 
-1 1:1 2:1 3:5 4:22 5:0.45454544 6:2 7:3 8:0.27272725 9:0.13636363 10:0.3181818 11:0.27272725 12:27 13:0.1627907 14:3 15:0.46428573 16:56 17:0.23214287 18:0.16071427 19:0.3035714 20:0.3035714 21:0.15384616 22:1.1111112 23:0.39130434 24:0.11111111 
-1 3:1 4:23 5:0.5909091 6:2 7:4 8:0.13636363 9:0.3181818 10:0.27272725 11:0.27272725 12:15 13:0.1627907 14:4 15:0.5818182 16:55 17:0.21818179 18:0.34545457 19:0.23636365 20:0.19999999 21:0.15555556 22:1.5714285 23:0.12 
-1 3:7 4:25 5:0.40909094 6:1 7:2 8:0.27272725 9:0.22727275 10:0.18181819 11:0.3181818 12:46 13:0.23404256 14:3 15:0.49206346 16:63 17:0.25396824 18:0.22222221 19:0.26984125 20:0.25396824 21:0.24137931 24:0.27272728 
-0.1785572237599774 1:3 2:1 3:12 4:20 5:0.39999998 6:1 7:4 8:0.3 9:0.10000002 10:0.3 11:0.3 12:48 13:0.2820513 14:3 15:0.42424244 16:66 17:0.25757575 18:0.21212119 19:0.21212119 20:0.3181818 21:0.25806451 22:0.71428573 24:0.2173913 
-0.648843885655683 1:3 2:1 3:8 4:23 5:0.5 6:2 7:5 8:0.18181819 9:0.3181818 10:0.18181819 11:0.3181818 12:3 13:0.24444444 14:3 15:0.40625 16:64 17:0.265625 18:0.203125 19:0.203125 20:0.328125 21:0.26666668 22:0.40000001 24:0.33333334 
-0.9321779314454527 1:1 2:1 3:5 4:25 5:0.5652174 6:2 7:3 8:0.26086956 9:0.34782606 10:0.21739131 11:0.17391306 12:53 13:0.16666667 14:4 15:0.578125 16:64 17:0.15625 18:0.25 19:0.328125 20:0.265625 21:0.15789473 22:0.5 23:0.18181819 24:0.11111111 
-1 1:1 2:1 3:8 4:21 5:0.71428573 6:2 7:2 8:0.047619045 9:0.23809522 10:0.47619045 11:0.23809522 12:13 13:0.17073171 14:2 15:0.5645161 16:62 17:0.16129035 18:0.24193549 19:0.32258064 20:0.27419353 21:0.16363636 22:1.6666666 23:0.16666667 24:0.14285715 
-1 1:2 2:1 3:6 4:24 5:0.5909091 6:2 7:3 8:0.13636363 9:0.36363637 10:0.22727275 11:0.27272725 12:53 13:0.17391305 14:1 15:0.47619045 16:63 17:0.22222221 18:0.23809522 19:0.23809522 20:0.30158728 21:0.17857143 22:2 23:0.18181819 24:0.2 
-1 1:9 2:1 3:17 4:22 5:0.5909091 6:1 7:2 8:0.18181819 9:0.40909094 10:0.18181819 11:0.22727275 12:65 13:0.13636364 14:3 15:0.56578946 16:76 17:0.17105263 18:0.25 19:0.31578946 20:0.2631579 21:0.2173913 22:1 23:0.2 24:0.36000001 
-1 1:2 2:1 3:9 4:22 5:0.5909091 6:2 7:3 8:0.22727275 9:0.22727275 10:0.36363637 11:0.18181819 12:55 13:0.18181819 14:3 15:0.53846157 16:65 17:0.2153846 18:0.27692306 19:0.26153845 20:0.24615383 21:0.18032786 22:1.8333334 23:0.2 24:0.17647059 
-1 1:1 2:1 3:5 4:22 5:0.5454545 6:2 7:3 8:0.18181819 9:0.36363637 10:0.18181819 11:0.27272725 12:6 13:0.19047619 14:2 15:0.57894737 16:57 17:0.21052629 18:0.2982456 19:0.28070176 20:0.21052629 21:0.17647059 22:1.1428572 24:0.11111111 
-1 1:1 2:1 3:3 4:23 5:0.5909091 6:2 7:3 8:0.27272725 9:0.36363637 10:0.22727275 11:0.13636363 12:44 13:0.15555556 14:3 15:0.6333333 16:60 17:0.21666664 18:0.35000002 19:0.28333336 20:0.14999998 21:0.16 22:1.1428572 23:0.2 24:0.2 
-1 3:3 4:23 5:0.5454545 6:2 7:4 8:0.27272725 9:0.40909094 10:0.13636363 11:0.18181819 12:4 13:0.22727273 14:3 15:0.60714287 16:56 17:0.14285713 18:0.26785713 19:0.33928573 20:0.25 21:0.2 22:0.60000002 
-0.2274267263805234 1:3 2:4 3:23 4:23 5:0.6521739 6:1 7:2 8:0.0869565 9:0.3043478 10:0.34782606 11:0.26086956 12:69 13:0.31818181 14:3 15:0.70329666 16:91 17:0.07692307 18:0.3186813 19:0.38461536 20:0.2197802 21:0.25581396 24:0.19047619 
-0.9653923258178504 3:2 4:22 5:0.45454544 6:1 7:1 8:0.18181819 9:0.27272725 10:0.18181819 11:0.36363637 12:7 13:0.18181819 14:3 15:0.44444442 16:54 17:0.24074072 18:0.1851852 19:0.25925928 20:0.3148148 21:0.20833333 22:2 23:0.5 24:0.5 
-0.03660418891674568 4:22 5:0.5909091 6:4 7:2 8:0.27272725 9:0.27272725 10:0.3181818 11:0.13636363 12:35 13:0.36363637 14:4 15:0.63043475 16:46 17:0.17391306 18:0.32608694 19:0.3043478 20:0.19565219 21:0.2631579 22:0.25 23:0.1 
-0.3703476617411027 3:11 4:22 5:0.8181818 6:1 7:2 8:0.18181819 9:0.3181818 10:0.5 12:49 13:0.2 14:3 15:0.6571429 16:70 17:0.17142856 18:0.32857144 19:0.32857144 20:0.17142856 21:0.25806451 24:0.36363637 
-0.6762434307594246 1:3 2:3 3:17 4:21 5:0.6666666 6:2 7:2 8:0.28571427 9:0.09523809 10:0.57142854 11:0.047619045 12:5 13:0.23809524 14:2 15:0.65822786 16:79 17:0.20253164 18:0.36708862 19:0.29113925 20:0.1392405 21:0.2972973 22:1.5 23:0.14285715 24:0.375 
-0.172527309778841 4:22 5:0.45454544 6:2 7:3 8:0.3181818 9:0.27272725 10:0.18181819 11:0.22727275 12:18 13:0.17073171 14:4 15:0.4318182 16:44 17:0.25 18:0.20454544 19:0.22727275 20:0.3181818 21:0.12820514 22:1.125 23:0.29411766 
-0.5168164209243586 1:3 2:3 3:21 4:24 5:0.57142854 6:5 7:4 8:0.19047618 9:0.19047618 10:0.38095236 11:0.23809522 12:6 13:0.2888889 14:2 15:0.5113636 16:88 17:0.19318181 18:0.26136363 19:0.25 20:0.29545456 21:0.27058825 22:0.30000001 23:0.090909094 24:0.25 
-0.4256998662796135 1:3 2:3 3:27 4:22 5:0.45454544 6:5 7:5 8:0.13636363 9:0.3181818 10:0.13636363 11:0.40909094 12:76 13:0.34999999 14:4 15:0.5157895 16:95 17:0.19999999 18:0.2631579 19:0.2526316 20:0.2842105 21:0.26086956 22:0.875 24:0.1923077 
-1 1:2 2:1 3:5 4:21 5:0.57142854 6:2 7:3 8:0.23809522 9:0.28571427 10:0.28571427 11:0.19047618 12:41 13:0.21951219 14:4 15:0.51785713 16:56 17:0.21428573 18:0.25 19:0.26785713 20:0.26785713 21:0.25490198 22:1 23:0.2 24:0.40000001 
-1 3:3 4:20 5:0.45 6:2 7:2 8:0.3 9:0.25 10:0.19999999 11:0.25 12:49 13:0.15789473 14:4 15:0.46428573 16:56 17:0.23214287 18:0.25 19:0.21428573 20:0.3035714 21:0.18181819 22:1.2857143 23:0.12 24:0.33333334 
-0.2788525575944007 1:3 2:3 3:21 4:23 5:0.5 6:4 7:2 8:0.3181818 9:0.27272725 10:0.22727275 11:0.18181819 12:70 13:0.2 14:3 15:0.46666664 16:90 17:0.23333335 18:0.21111113 19:0.25555557 20:0.3 21:0.20930232 22:1.1111112 24:0.21951219 
-0.2426229238840315 1:3 2:2 3:15 4:22 5:0.40909094 6:1 8:0.18181819 9:0.13636363 10:0.27272725 11:0.40909094 12:9 13:0.20930232 14:2 15:0.43421054 16:76 17:0.2368421 18:0.18421054 19:0.25 20:0.32894737 21:0.22222222 23:0.125 24:0.24137931 
-0.9991612562591847 1:3 2:1 3:8 4:22 5:0.6818182 6:1 7:4 8:0.18181819 9:0.27272725 10:0.40909094 11:0.13636363 12:46 13:0.1627907 14:3 15:0.56666666 16:60 17:0.14999998 18:0.23333335 19:0.3333333 20:0.28333336 21:0.17857143 22:0.8888889 23:0.07692308 24:0.23076923 
-0.6517363272858493 1:3 2:2 3:12 4:21 5:0.57142854 6:1 7:4 8:0.14285713 9:0.3333333 10:0.23809522 11:0.28571427 12:5 13:0.17073171 14:3 15:0.6 16:65 17:0.13846153 18:0.24615383 19:0.35384613 20:0.26153845 21:0.18032786 22:0.8888889 24:0.2 
-1 3:6 4:22 5:0.5909091 6:1 7:3 8:0.090909064 9:0.27272725 10:0.3181818 11:0.3181818 12:63 13:0.095238097 14:1 15:0.530303 16:66 17:0.21212119 18:0.27272725 19:0.25757575 20:0.25757575 21:0.074074075 22:1.1111112 23:0.3888889 
-0.3869165926852766 1:1 2:1 3:14 4:25 5:0.6086956 6:3 7:4 8:0.26086956 9:0.21739131 10:0.39130437 11:0.13043481 12:9 13:0.23404256 14:4 15:0.5697675 16:86 17:0.2093023 18:0.26744187 19:0.3023256 20:0.22093022 21:0.16216215 22:0.60000002 23:0.375 24:0.037037037 
-0.1984183032689197 4:21 5:0.4285714 6:2 7:3 8:0.23809522 9:0.23809522 10:0.19047618 11:0.3333333 12:34 13:0.21951219 15:0.5 16:42 17:0.23809522 18:0.23809522 19:0.26190478 20:0.26190478 21:0.17948718 22:0.66666669 23:0.13043478 
-0.4797686088577345 1:2 2:3 3:18 4:24 5:0.5833334 6:3 7:3 8:0.16666669 9:0.20833331 10:0.375 11:0.25 12:61 13:0.17391305 14:3 15:0.5487805 16:82 17:0.17073172 18:0.23170733 19:0.31707317 20:0.28048778 21:0.16455697 22:1.8 24:0.15151516 
-0.2386684252054688 4:24 5:0.61904764 6:2 7:3 8:0.3333333 9:0.38095236 10:0.23809522 11:0.047619045 12:45 13:0.15555556 15:0.54347825 16:46 17:0.19565219 18:0.23913044 19:0.3043478 20:0.26086956 21:0.11627907 22:0.8888889 23:0.2 
-0.8527479066526629 1:3 2:3 3:20 4:21 5:0.6666666 6:2 7:2 8:0.047619045 9:0.61904764 10:0.047619045 11:0.28571427 12:65 13:0.12195122 14:3 15:0.6666666 16:84 17:0.13095236 18:0.29761904 19:0.36904764 20:0.20238096 21:0.18987341 22:0.90909094 24:0.2631579 
-1 1:3 2:1 3:7 4:22 5:0.77272725 6:1 7:4 8:0.090909064 9:0.36363637 10:0.40909094 11:0.13636363 12:8 13:0.25581396 14:1 15:0.7413793 16:58 17:0.08620691 18:0.39655173 19:0.3448276 20:0.17241377 21:0.27272728 22:1.125 23:0.23076923 24:0.33333334 
-1 1:1 2:1 3:7 4:22 5:0.6363636 6:1 7:2 8:0.3181818 9:0.27272725 10:0.36363637 11:0.04545456 12:4 13:0.11627907 14:2 15:0.5833334 16:60 17:0.19999999 18:0.3 19:0.28333336 20:0.21666664 21:0.12280702 22:1.5714285 24:0.14285715 
-0.9616496054701809 1:1 2:1 3:5 4:25 5:0.5416666 6:1 7:4 8:0.08333331 9:0.20833331 10:0.3333333 11:0.375 12:46 13:0.18367347 14:4 15:0.58208954 16:67 17:0.11940301 18:0.2835821 19:0.29850745 20:0.29850745 21:0.20689656 22:0.63636363 24:0.33333334 
-0.9892037416532912 3:3 4:22 5:0.5 6:2 7:1 8:0.18181819 9:0.27272725 10:0.22727275 11:0.3181818 12:53 13:0.23809524 14:4 15:0.4918033 16:61 17:0.19672132 18:0.27868855 19:0.21311474 20:0.3114754 21:0.20833333 22:0.80000001 23:0.375 
-0.2226256111821685 3:6 4:22 5:0.45454544 6:2 7:3 8:0.090909064 9:0.18181819 10:0.27272725 11:0.45454544 12:51 13:0.27272728 14:1 15:0.42028987 16:69 17:0.24637681 18:0.18840581 19:0.23188406 20:0.3333333 21:0.23636363 22:1 24:0.090909094 
-1 3:1 4:24 5:0.47826087 6:2 7:4 8:0.3043478 9:0.3043478 10:0.17391306 11:0.21739131 12:7 13:0.19148937 14:4 15:0.4285714 16:63 17:0.25396824 18:0.2063492 19:0.22222221 20:0.3174603 21:0.18367347 22:0.80000001 23:0.33333334 
-0.3242798306734172 1:2 2:3 3:21 4:24 5:0.375 6:4 7:4 8:0.375 9:0.3333333 10:0.041666687 11:0.25 12:75 13:0.36170211 14:4 15:0.42268044 16:97 17:0.26804125 18:0.22680414 19:0.1958763 20:0.30927837 21:0.25581396 22:0.83333331 24:0.12820514 
-0.136712380754805 1:2 2:2 3:12 4:21 5:0.6666666 6:2 7:3 8:0.19047618 9:0.09523809 10:0.57142854 11:0.14285713 12:1 13:0.21951219 15:0.625 16:72 17:0.15277779 18:0.2777778 19:0.3472222 20:0.22222221 21:0.21875 22:0.75 24:0.2173913 
-0.6395952107238166 1:2 2:2 3:18 4:23 5:0.6363636 6:1 7:4 8:0.27272725 9:0.36363637 10:0.27272725 11:0.090909064 12:2 13:0.11627907 14:3 15:0.5421687 16:83 17:0.24096388 18:0.24096388 19:0.3012048 20:0.21686745 21:0.11688311 22:1.2222222 24:0.11764706 
-0.2470976390923737 1:2 2:2 3:17 4:24 5:0.5454545 6:1 7:4 8:0.13636363 9:0.18181819 10:0.36363637 11:0.3181818 12:63 13:0.11111111 14:4 15:0.5421687 16:83 17:0.24096388 18:0.24096388 19:0.3012048 20:0.21686745 21:0.11688311 22:0.72727275 24:0.125 
-0.9987378618782556 1:2 2:1 3:9 4:25 5:0.5 6:2 7:4 8:0.40909094 9:0.18181819 10:0.3181818 11:0.090909064 12:47 13:0.19148937 14:2 15:0.5 16:66 17:0.21212119 18:0.25757575 19:0.24242425 20:0.2878788 21:0.20634921 22:1.5 24:0.25 
-0.323289839196265 1:2 2:1 3:12 4:24 5:0.625 6:4 7:3 8:0.375 9:0.4583333 10:0.16666669 12:7 13:0.2173913 14:1 15:0.5694444 16:72 17:0.18055558 18:0.30555558 19:0.2638889 20:0.25 21:0.17647059 22:1.4285715 24:0.090909094 
-1 3:4 4:23 5:0.5454545 6:2 7:3 8:0.090909064 9:0.3181818 10:0.22727275 11:0.36363637 12:56 13:0.24444444 14:4 15:0.53225803 16:62 17:0.2096774 18:0.22580647 19:0.30645162 20:0.2580645 21:0.20754717 22:0.60000002 23:0.16666667 
-0.8625199850130517 1:2 2:2 3:12 4:20 5:0.7 6:2 7:3 8:0.14999998 9:0.14999998 10:0.55 11:0.14999998 12:11 13:0.15789473 14:1 15:0.53521127 16:71 17:0.19718307 18:0.22535211 19:0.30985916 20:0.26760566 21:0.19354838 22:1.1428572 23:0.2 24:0.25 
-0.2499742541958017 4:23 5:0.45454544 6:2 7:4 8:0.13636363 9:0.22727275 10:0.22727275 11:0.40909094 12:49 13:0.2888889 14:3 15:0.4375 16:48 17:0.20833331 18:0.16666669 19:0.2708333 20:0.3541667 21:0.25581396 22:0.875 23:0.20930232 
-0.3305090961911262 1:1 2:1 3:12 4:23 5:0.6086956 6:3 7:2 8:0.21739131 9:0.17391306 10:0.43478262 11:0.17391306 12:52 13:0.27272728 14:4 15:0.71428573 16:70 17:0.14285713 18:0.3857143 19:0.32857144 20:0.14285713 21:0.2238806 22:1.4 24:0.13043478 
-0.7796177409853479 1:1 2:1 3:10 4:22 5:0.6315789 6:3 7:3 8:0.15789473 9:0.4736842 10:0.15789473 11:0.21052629 12:8 13:0.21951219 14:2 15:0.71875 16:64 17:0.125 18:0.390625 19:0.328125 20:0.15625 21:0.18032786 22:2.75 23:0.2857143 24:0.1 
-0.2273041689520588 1:1 2:1 3:11 4:22 5:0.40909094 6:2 7:4 8:0.18181819 9:0.22727275 10:0.18181819 11:0.40909094 12:4 13:0.22727273 14:4 15:0.43421054 16:76 17:0.2631579 18:0.18421054 19:0.25 20:0.30263156 21:0.16923077 22:1.1428572 24:0.047619049 
-0.3478654111246591 1:1 2:3 3:17 4:22 5:0.72727275 6:2 7:2 8:0.18181819 9:0.36363637 10:0.36363637 11:0.090909064 12:5 13:0.11627907 14:3 15:0.6404494 16:89 17:0.1797753 18:0.32584268 19:0.31460673 20:0.1797753 21:0.14285715 22:0.81818181 23:0.11111111 24:0.17647059 
-0.7846429801931164 1:2 2:2 3:14 4:22 5:0.5 6:1 7:1 8:0.13636363 9:0.22727275 10:0.27272725 11:0.36363637 12:52 13:0.023255814 14:1 15:0.53521127 16:71 17:0.19718307 18:0.23943663 19:0.29577464 20:0.26760566 21:0.074626863 22:1 24:0.16666667 
-0.8476299035727614 1:2 2:1 3:6 4:22 5:0.5 6:2 7:1 8:0.40909094 9:0.18181819 10:0.3181818 11:0.090909064 12:10 13:0.047619049 14:1 15:0.51785713 16:56 17:0.21428573 18:0.23214287 19:0.28571427 20:0.26785713 21:0.07692308 22:1.8 23:0.052631579 24:0.2 
-0.5218783702447015 4:25 5:0.73913044 6:2 7:4 8:0.13043481 9:0.26086956 10:0.47826087 11:0.13043481 12:18 13:0.17391305 14:2 15:0.6603774 16:53 17:0.13207549 18:0.3584906 19:0.3018868 20:0.20754719 21:0.17391305 22:0.89999998 23:0.11764706 
-0.2531255029490341 4:22 5:0.6818182 6:2 7:3 8:0.3181818 9:0.27272725 10:0.40909094 12:30 13:0.2857143 15:0.6904762 16:42 17:0.19047618 18:0.3333333 19:0.35714287 20:0.11904764 21:0.21052632 22:0.75 23:0.16666667 
-0.9822604657617628 3:4 4:22 5:0.45454544 6:1 7:1 9:0.22727275 10:0.22727275 11:0.5454545 12:41 13:0.090909094 14:1 15:0.4909091 16:55 17:0.25454545 18:0.19999999 19:0.2909091 20:0.25454545 21:0.17647059 22:0.60000002 24:0.71428573 
-1 1:1 2:1 3:3 4:24 5:0.8 6:3 7:4 8:0.050000012 9:0.25 10:0.55 11:0.14999998 12:11 13:0.18181819 14:2 15:0.6666666 16:54 17:0.16666669 18:0.2777778 19:0.3888889 20:0.16666669 21:0.18367347 22:0.80000001 23:0.052631579 24:0.2 
-0.9986273439050277 4:29 5:0.5833334 6:3 7:3 8:0.20833331 9:0.3333333 10:0.25 11:0.20833331 12:36 13:0.094339624 14:2 15:0.5762712 16:59 17:0.1864407 18:0.2711864 19:0.30508476 20:0.23728812 21:0.094339624 22:1 
-0.6445163451964958 1:1 2:2 3:12 4:23 5:0.6363636 6:3 7:2 8:0.13636363 9:0.22727275 10:0.40909094 11:0.22727275 12:3 13:0.2 14:3 15:0.5753425 16:73 17:0.17808217 18:0.24657536 19:0.32876712 20:0.24657536 21:0.20588236 22:1.1 24:0.2173913 
-0.07489393527016244 4:25 5:0.8181818 6:2 7:4 8:0.13636363 9:0.40909094 10:0.40909094 11:0.04545456 12:40 13:0.14893617 14:4 15:0.6551724 16:58 17:0.12068963 18:0.31034482 19:0.3448276 20:0.2241379 21:0.14893617 22:1 23:0.33333334 
-0.4087923990398654 4:22 5:0.5 6:3 7:2 8:0.27272725 9:0.22727275 10:0.27272725 11:0.22727275 12:9 13:0.23076923 14:2 15:0.5121951 16:41 17:0.21951222 18:0.21951222 19:0.29268295 20:0.26829267 21:0.1891892 22:1.25 
-0.2733302123159125 4:26 5:0.57142854 6:3 7:3 8:0.19047618 9:0.28571427 10:0.28571427 11:0.23809522 12:32 13:0.23404256 15:0.5319149 16:47 17:0.21276593 18:0.23404253 19:0.29787236 20:0.25531918 21:0.1627907 22:0.25 
-0.5499019899501578 4:28 5:0.72727275 6:6 7:2 8:0.18181819 9:0.36363637 10:0.36363637 11:0.090909064 12:11 13:0.23999999 14:4 15:0.60784316 16:51 17:0.17647058 18:0.25490195 19:0.35294116 20:0.21568626 21:0.20833333 22:2.75 23:0.2 
-0.3404857664092781 3:2 4:21 5:0.52380955 6:6 7:1 8:0.23809522 9:0.23809522 10:0.28571427 11:0.23809522 12:37 13:0.27777779 14:1 15:0.55813956 16:43 17:0.2093023 18:0.23255813 19:0.32558137 20:0.23255813 21:0.25 22:0.5 23:0.14285715 
-0.6806462530088905 4:20 5:0.45 6:1 7:1 8:0.14999998 9:0.19999999 10:0.25 11:0.39999998 12:15 13:0.07692308 14:3 15:0.44 16:50 17:0.26 18:0.22000003 19:0.22000003 20:0.3 21:0.07692308 22:0.875 23:0.15384616 
-0.9778481379567702 3:8 4:20 5:0.45 6:1 7:2 8:0.050000012 9:0.19999999 10:0.25 11:0.5 12:7 13:0.10526316 14:2 15:0.4307692 16:65 17:0.24615383 18:0.19999999 19:0.23076922 20:0.3230769 21:0.074074075 22:0.60000002 23:0.27272728 
-0.300031831530495 4:26 5:0.6818182 6:3 7:6 8:0.090909064 9:0.36363637 10:0.3181818 11:0.22727275 12:36 13:0.25 14:2 15:0.6037736 16:53 17:0.20754719 18:0.33962262 19:0.26415092 20:0.18867922 21:0.25 22:0.875 
-0.9137484605196464 1:1 2:1 3:7 4:23 5:0.5909091 6:2 7:3 8:0.22727275 9:0.18181819 10:0.40909094 11:0.18181819 12:2 13:0.30232558 14:1 15:0.44444442 16:63 17:0.23809522 18:0.19047618 19:0.25396824 20:0.3174603 21:0.2631579 24:0.14285715 
-0.5256184218504198 1:1 2:1 3:9 4:22 5:0.5454545 6:1 7:1 8:0.3181818 9:0.090909064 10:0.45454544 11:0.13636363 12:54 13:0.069767445 14:1 15:0.52112675 16:71 17:0.19718307 18:0.22535211 19:0.29577464 20:0.28169012 21:0.081967212 22:0.69999999 23:0.25 24:0.11111111 
-0.9883653712163581 3:2 4:24 5:0.72727275 6:3 7:5 8:0.18181819 9:0.27272725 10:0.45454544 11:0.090909064 12:45 13:0.22727273 14:3 15:0.68421054 16:57 17:0.14035088 18:0.3333333 19:0.35087717 20:0.17543858 21:0.20833333 22:0.45454547 23:0.11111111 
-1 3:2 4:26 5:0.7083334 6:3 7:5 8:0.16666669 9:0.4583333 10:0.25 11:0.125 12:8 13:0.20833333 14:2 15:0.6721312 16:61 17:0.14754099 18:0.32786888 19:0.3442623 20:0.18032789 21:0.1923077 22:2.2 23:0.14285715 
-1 1:1 2:1 3:5 4:24 5:0.4583333 6:2 7:2 8:0.25 9:0.16666669 10:0.2916667 11:0.2916667 12:39 13:0.125 14:1 15:0.43548387 16:62 17:0.2903226 18:0.19354838 19:0.24193549 20:0.27419353 21:0.13793103 22:0.89999998 24:0.2 
-0.5657408191910678 4:24 5:0.45454544 6:2 7:3 8:0.27272725 9:0.36363637 10:0.090909064 11:0.27272725 12:5 13:0.13043478 14:3 15:0.43137252 16:51 17:0.2745098 18:0.2352941 19:0.19607842 20:0.29411763 21:0.13043478 22:1.1111112 
-0.8658364786131525 3:6 4:22 5:0.77272725 6:2 7:2 8:0.090909064 9:0.40909094 10:0.36363637 11:0.13636363 12:45 13:0.1627907 14:1 15:0.6818182 16:66 17:0.13636363 18:0.2878788 19:0.39393938 20:0.18181819 21:0.2 22:0.90909094 24:0.33333334 
-1 3:4 4:24 5:0.5217391 6:2 7:3 8:0.13043481 9:0.34782606 10:0.17391306 11:0.34782606 12:45 13:0.14893617 14:4 15:0.49206346 16:63 17:0.22222221 18:0.2063492 19:0.28571427 20:0.28571427 21:0.16363636 22:1 23:0.25 24:0.25 
-0.07503858195554747 3:3 4:22 5:0.65 6:4 7:4 8:0.10000002 9:0.39999998 10:0.25 11:0.25 12:8 13:0.2682927 14:2 15:0.71153843 16:52 17:0.13461536 18:0.26923078 19:0.4423077 20:0.15384614 21:0.23404256 22:0.875 
-1 3:3 4:22 5:0.36363637 6:2 7:3 8:0.45454544 9:0.04545456 10:0.3181818 11:0.18181819 12:39 13:0.14285715 14:3 15:0.4310345 16:58 17:0.2241379 18:0.18965518 19:0.24137932 20:0.3448276 21:0.125 22:1.25 
-0.8751370667443852 4:26 5:0.5416666 6:2 7:3 8:0.041666687 9:0.3333333 10:0.20833331 11:0.4166667 12:6 13:0.28 14:1 15:0.48076922 16:52 17:0.19230771 18:0.21153843 19:0.26923078 20:0.32692307 21:0.14285715 
-0.6903732983146258 3:4 4:24 5:0.625 6:2 7:3 8:0.20833331 9:0.2916667 10:0.3333333 11:0.16666669 12:42 13:0.14893617 14:2 15:0.62903225 16:62 17:0.16129035 18:0.2903226 19:0.33870965 20:0.2096774 21:0.16363636 22:0.72727275 24:0.25 
-0.8737397750256281 4:25 5:0.6666666 6:2 7:4 8:0.08333331 9:0.3333333 10:0.3333333 11:0.25 12:7 13:0.18367347 14:3 15:0.625 16:56 17:0.16071427 18:0.28571427 19:0.33928573 20:0.21428573 21:0.18367347 22:0.8888889 
-0.2339633735557058 1:2 2:2 3:14 4:24 5:0.5652174 6:3 7:3 8:0.21739131 9:0.39130437 10:0.17391306 11:0.21739131 12:7 13:0.23404256 14:3 15:0.43209875 16:81 17:0.23456788 18:0.20987654 19:0.22222221 20:0.3333333 21:0.22666667 22:0.875 23:0.16666667 24:0.21428572 
-0.1679541441605739 1:2 2:2 3:16 4:22 5:0.57142854 6:3 7:3 8:0.19047618 9:0.38095236 10:0.19047618 11:0.23809522 12:7 13:0.25581396 14:3 15:0.43209875 16:81 17:0.23456788 18:0.20987654 19:0.22222221 20:0.3333333 21:0.22666667 22:1.1666666 23:0.16666667 24:0.1875 
-1 1:1 2:1 3:8 4:23 5:0.5454545 6:1 7:2 8:0.090909064 9:0.3181818 10:0.22727275 11:0.36363637 12:51 13:0.06666667 14:3 15:0.546875 16:64 17:0.203125 18:0.203125 19:0.34375 20:0.25 21:0.1 22:1.4285715 23:0.05882353 24:0.2 
-0.07477970537099621 4:23 5:0.5454545 6:1 7:3 8:0.13636363 9:0.22727275 10:0.3181818 11:0.3181818 12:44 13:0.11111111 14:1 15:0.5510204 16:49 17:0.20408165 18:0.20408165 19:0.3469388 20:0.24489796 21:0.11111111 22:1.1428572 23:0.0625 
-0.2606133262349882 3:2 4:21 5:0.6666666 6:2 7:5 8:0.09523809 9:0.38095236 10:0.28571427 11:0.23809522 12:42 13:0.25 14:4 15:0.6458334 16:48 17:0.16666669 18:0.375 19:0.2708333 20:0.1875 21:0.22727273 22:0.75 23:0.071428575 
-0.5566959518080686 3:5 4:21 5:0.61904764 6:1 7:4 8:0.19047618 9:0.38095236 10:0.23809522 11:0.19047618 12:12 13:0.19047619 14:4 15:0.6111111 16:54 17:0.1851852 18:0.35185188 19:0.25925928 20:0.2037037 21:0.2 22:1.25 23:0.090909094 24:0.25 
-0.05459372952642461 1:1 2:2 3:16 4:23 5:0.72727275 6:2 7:4 8:0.18181819 9:0.3181818 10:0.40909094 11:0.090909064 12:2 13:0.2 14:3 15:0.47727275 16:88 17:0.18181819 18:0.21590906 19:0.26136363 20:0.34090906 21:0.16883117 22:0.875 24:0.125 
-1 3:2 4:23 5:0.5652174 6:1 7:4 8:0.0869565 9:0.26086956 10:0.3043478 11:0.34782606 12:15 13:0.17391305 14:3 15:0.42622954 16:61 17:0.18032789 18:0.18032789 19:0.24590164 20:0.39344263 21:0.16 22:0.77777779 23:0.1724138 
-0.5201249881336365 4:28 5:0.6666666 6:2 7:4 8:0.16666669 9:0.3333333 10:0.3333333 11:0.16666669 12:50 13:0.15384616 14:3 15:0.58928573 16:56 17:0.1964286 18:0.28571427 19:0.3035714 20:0.21428573 21:0.15384616 22:0.63636363 23:0.39393941 
-0.4158563377494874 3:3 4:18 5:0.5555556 6:2 7:2 8:0.22222221 9:0.3333333 10:0.22222221 11:0.22222221 12:25 13:0.11764706 14:4 15:0.6136364 16:44 17:0.18181819 18:0.29545456 19:0.3181818 20:0.20454544 21:0.15000001 22:1.8 23:0.33333334 24:0.33333334 
-0.08531575594034259 1:1 2:1 3:11 4:21 5:0.57142854 6:2 7:1 8:0.09523809 9:0.28571427 10:0.28571427 11:0.3333333 12:54 13:0.23809524 14:3 15:0.4861111 16:72 17:0.22222221 18:0.20833331 19:0.2777778 20:0.2916667 21:0.1875 22:0.30000001 24:0.090909094 
-1 1:2 2:3 3:10 4:22 5:0.6363636 6:2 7:2 8:0.22727275 9:0.22727275 10:0.40909094 11:0.13636363 12:48 13:0.20930232 14:3 15:0.5909091 16:66 17:0.13636363 18:0.25757575 19:0.3333333 20:0.27272725 21:0.25806451 22:1 24:0.36842105 
-0.1464721037506487 1:1 2:1 3:11 4:22 5:0.6363636 6:2 7:4 8:0.18181819 9:0.27272725 10:0.36363637 11:0.18181819 12:59 13:0.22727273 14:2 15:0.53246754 16:77 17:0.18181819 18:0.24675328 19:0.28571427 20:0.28571427 21:0.2 22:1 23:0.14285715 24:0.14285715 
-0.195594152672124 4:22 5:0.45454544 6:1 7:3 8:0.27272725 9:0.18181819 10:0.27272725 11:0.27272725 12:7 13:0.23809524 14:1 15:0.45652175 16:46 17:0.23913044 18:0.21739131 19:0.23913044 20:0.3043478 21:0.15789473 22:1.2 
-0.0026297897020457 4:22 5:0.45454544 6:1 7:1 8:0.27272725 9:0.18181819 10:0.27272725 11:0.27272725 12:11 13:0.27272728 14:1 15:0.46666664 16:45 17:0.22222221 18:0.22222221 19:0.24444443 20:0.3111111 21:0.05882353 23:0.1 
-1 4:22 5:0.40909094 6:1 7:2 8:0.27272725 9:0.18181819 10:0.22727275 11:0.3181818 12:7 13:0.13636364 14:4 15:0.3962264 16:53 17:0.2830189 18:0.18867922 19:0.20754719 20:0.3207547 21:0.095238097 22:0.85714287 
-0.5074488780772695 1:2 2:1 3:12 4:25 5:0.5652174 6:1 7:4 8:0.0869565 9:0.17391306 10:0.39130437 11:0.34782606 12:1 13:0.125 15:0.53947365 16:76 17:0.21052629 18:0.22368419 19:0.31578946 20:0.25 21:0.11428571 22:1.125 24:0.090909094 
-0.3419051233827639 4:24 5:0.4166667 6:3 7:3 8:0.25 9:0.20833331 10:0.20833331 11:0.3333333 12:21 13:0.26086956 14:1 15:0.52 16:50 17:0.19999999 18:0.24000001 19:0.27999997 20:0.27999997 21:0.26086956 22:1.2857143 23:0.23076923 
-1 3:4 4:26 5:0.47826087 6:2 7:2 8:0.3043478 9:0.21739131 10:0.26086956 11:0.21739131 12:40 13:0.22448979 14:4 15:0.48275864 16:58 17:0.2241379 18:0.24137932 19:0.24137932 20:0.29310346 21:0.23636363 24:0.33333334 
-0.9590447125555978 1:2 2:1 3:9 4:21 5:0.4285714 6:2 7:1 8:0.23809522 9:0.23809522 10:0.19047618 11:0.3333333 12:5 13:0.2820513 14:2 15:0.48275864 16:58 17:0.2241379 18:0.24137932 19:0.24137932 20:0.29310346 21:0.23636363 24:0.125 
-0.2990881688193409 4:22 5:0.71428573 6:2 7:4 8:0.19047618 9:0.38095236 10:0.3333333 11:0.09523809 12:24 13:0.23809524 14:3 15:0.6511628 16:43 17:0.23255813 18:0.3023256 19:0.3488372 20:0.11627907 21:0.2 22:1 23:0.1627907 
-0.1642412128913567 1:2 2:2 3:15 4:25 5:0.6521739 6:2 7:3 8:0.26086956 9:0.26086956 10:0.39130437 11:0.0869565 12:61 13:0.20833333 14:2 15:0.67088604 16:79 17:0.20253164 18:0.31645572 19:0.35443038 20:0.12658226 21:0.18421052 22:0.75 23:0.14285715 24:0.14285715 
-0.5115680588435459 3:2 4:28 5:0.5833334 6:2 7:7 8:0.3333333 9:0.2916667 10:0.2916667 11:0.08333331 12:5 13:0.21568628 14:2 15:0.5 16:60 17:0.28333336 18:0.25 19:0.25 20:0.21666664 21:0.2 22:0.66666669 
-0.7368784795566514 3:5 4:24 5:0.5652174 6:3 7:3 8:0.17391306 9:0.43478262 10:0.13043481 11:0.26086956 12:43 13:0.18181819 14:1 15:0.515625 16:64 17:0.25 18:0.296875 19:0.21875 20:0.234375 21:0.16981132 22:1.4 24:0.11111111 
-0.3455156066860988 4:22 5:0.6666666 6:2 7:4 8:0.09523809 9:0.4285714 10:0.23809522 11:0.23809522 12:14 13:0.33333334 14:4 15:0.6904762 16:42 17:0.0714286 18:0.30952382 19:0.38095236 20:0.23809522 21:0.2631579 22:3 23:0.11111111 
-0.1034773361842074 1:3 2:2 3:10 4:23 5:0.6363636 6:2 7:3 8:0.18181819 9:0.3181818 10:0.3181818 11:0.18181819 12:3 13:0.22727273 14:2 15:0.6515151 16:66 17:0.12121213 18:0.3333333 19:0.3181818 20:0.22727275 21:0.25806451 22:0.63636363 24:0.33333334 
-0.4708471291998567 1:2 2:2 3:18 4:22 5:0.5 6:2 7:3 8:0.27272725 9:0.13636363 10:0.36363637 11:0.22727275 12:14 13:0.25581396 14:3 15:0.4634146 16:82 17:0.21951222 18:0.15853661 19:0.30487806 20:0.31707317 21:0.20512821 22:0.625 23:0.5 24:0.14285715 
-0.9707984049052936 1:1 2:1 3:5 4:22 5:0.45454544 6:2 7:3 8:0.27272725 9:0.13636363 10:0.3181818 11:0.27272725 12:27 13:0.1627907 14:3 15:0.46428573 16:56 17:0.23214287 18:0.16071427 19:0.3035714 20:0.3035714 21:0.15384616 22:1.1111112 23:0.39130434 24:0.11111111 
-0.1018387092499068 1:1 2:1 3:14 4:22 5:0.5454545 6:1 7:4 8:0.04545456 9:0.090909064 10:0.45454544 11:0.40909094 12:60 13:0.23809524 14:4 15:0.556962 16:79 17:0.16455698 18:0.26582277 19:0.29113925 20:0.278481 21:0.2 22:0.75 24:0.14285715 
-0.1037728331603562 4:24 5:0.75 6:2 7:1 8:0.16666669 9:0.20833331 10:0.5416666 11:0.08333331 12:37 13:0.25 14:4 15:0.6862745 16:51 17:0.11764705 18:0.31372547 19:0.372549 20:0.19607842 21:0.1 
-1 3:1 4:23 5:0.5909091 6:2 7:4 8:0.13636363 9:0.3181818 10:0.27272725 11:0.27272725 12:15 13:0.1627907 14:4 15:0.5818182 16:55 17:0.21818179 18:0.34545457 19:0.23636365 20:0.19999999 21:0.15555556 22:1.5714285 23:0.12 
-0.2567079033453773 3:8 4:22 5:0.47619045 6:2 7:3 8:0.09523809 9:0.23809522 10:0.23809522 11:0.4285714 12:2 13:0.23809524 14:4 15:0.5 16:70 17:0.21428573 18:0.21428573 19:0.28571427 20:0.28571427 21:0.1724138 22:0.55555558 
-0.9912582022201082 3:7 4:25 5:0.40909094 6:1 7:2 8:0.27272725 9:0.22727275 10:0.18181819 11:0.3181818 12:46 13:0.23404256 14:3 15:0.49206346 16:63 17:0.25396824 18:0.22222221 19:0.26984125 20:0.25396824 21:0.24137931 24:0.27272728 
-0.15589807547931 1:1 2:3 3:13 4:21 5:0.85 6:2 7:3 8:0.050000012 9:0.39999998 10:0.45 11:0.10000002 12:6 13:0.21951219 14:2 15:0.7183099 16:71 17:0.08450705 18:0.26760566 19:0.45070422 20:0.19718307 21:0.21212122 22:1.7142857 24:0.2 
-0.1437535757510288 3:2 4:22 5:0.45454544 6:2 7:3 8:0.27272725 9:0.27272725 10:0.18181819 11:0.27272725 12:48 13:0.20930232 14:4 15:0.3584906 16:53 17:0.3773585 18:0.20754719 19:0.1509434 20:0.26415092 21:0.19148937 22:0.5 23:0.21212122 
-0.6604456160428249 4:23 5:0.6818182 6:1 7:2 8:0.13636363 9:0.36363637 10:0.3181818 11:0.18181819 12:26 13:0.11111111 14:3 15:0.64705884 16:51 17:0.1372549 18:0.2745098 19:0.372549 20:0.21568626 21:0.069767445 22:2 23:0.21568628 
-0.2575371884148756 4:22 5:0.5454545 6:4 7:3 9:0.13636363 10:0.40909094 11:0.45454544 12:7 13:0.31818181 14:3 15:0.53999996 16:50 17:0.13999999 18:0.24000001 19:0.3 20:0.32 21:0.31818181 22:2.2 23:0.2 
-0.3902579895422157 1:1 2:1 3:12 4:26 5:0.47619045 6:2 7:2 8:0.19047618 9:0.23809522 10:0.23809522 11:0.3333333 12:54 13:0.14893617 14:3 15:0.45945948 16:74 17:0.24324322 18:0.1891892 19:0.2702703 20:0.2972973 21:0.11428571 22:2.5 24:0.043478262 
-0.01601460843719549 4:21 5:0.71428573 6:1 7:3 8:0.14285713 9:0.47619045 10:0.23809522 11:0.14285713 12:35 13:0.17073171 14:2 15:0.6041666 16:48 17:0.125 18:0.2916667 19:0.3125 20:0.2708333 21:0.12820514 22:1 
-0.2920086831933838 1:2 2:2 3:21 4:23 5:0.61904764 6:6 7:4 8:0.047619045 9:0.4285714 10:0.19047618 11:0.3333333 12:77 13:0.44186047 14:2 15:0.5104166 16:96 17:0.20833331 18:0.23958331 19:0.2708333 20:0.28125 21:0.2857143 22:2 24:0.12195122 
-0.4878641895654574 1:1 2:1 3:10 4:22 5:0.5909091 6:2 7:3 8:0.18181819 9:0.3181818 10:0.27272725 11:0.22727275 12:66 13:0.19047619 14:3 15:0.527027 16:74 17:0.2162162 18:0.2162162 19:0.3108108 20:0.25675678 21:0.16129032 22:1.2 23:0.58333331 24:0.1 
-0.9744907509485065 1:3 2:1 3:12 4:20 5:0.39999998 6:1 7:4 8:0.3 9:0.10000002 10:0.3 11:0.3 12:48 13:0.2820513 14:3 15:0.42424244 16:66 17:0.25757575 18:0.21212119 19:0.21212119 20:0.3181818 21:0.25806451 22:0.71428573 24:0.2173913 
-1 1:3 2:1 3:8 4:23 5:0.5 6:2 7:5 8:0.18181819 9:0.3181818 10:0.18181819 11:0.3181818 12:3 13:0.24444444 14:3 15:0.40625 16:64 17:0.265625 18:0.203125 19:0.203125 20:0.328125 21:0.26666668 22:0.40000001 24:0.33333334 
-0.9939988137129595 1:1 2:1 3:8 4:21 5:0.71428573 6:2 7:2 8:0.047619045 9:0.23809522 10:0.47619045 11:0.23809522 12:13 13:0.17073171 14:2 15:0.5645161 16:62 17:0.16129035 18:0.24193549 19:0.32258064 20:0.27419353 21:0.16363636 22:1.6666666 23:0.16666667 24:0.14285715 
-0.1006593548392925 1:3 2:2 3:15 4:24 5:0.5 6:3 7:3 8:0.13636363 9:0.22727275 10:0.27272725 11:0.36363637 12:2 13:0.2173913 14:3 15:0.4352941 16:85 17:0.24705881 18:0.19999999 19:0.2352941 20:0.31764704 21:0.24324325 22:0.72727275 24:0.2857143 
-0.6053151989310126 3:6 4:24 5:0.47826087 6:2 7:4 8:0.17391306 9:0.17391306 10:0.3043478 11:0.34782606 12:9 13:0.23404256 14:1 15:0.44927537 16:69 17:0.24637681 18:0.20289856 19:0.24637681 20:0.3043478 21:0.24137931 22:1.4 23:0.22222222 24:0.27272728 
-0.3798474122472763 1:1 2:2 3:14 4:22 5:0.6363636 6:1 7:5 8:0.18181819 9:0.36363637 10:0.27272725 11:0.18181819 12:7 13:0.20930232 14:3 15:0.554054 16:74 17:0.1891892 18:0.25675678 19:0.2972973 20:0.25675678 21:0.27536231 22:0.63636363 24:0.38461539 
-0.322641957840601 1:4 2:3 3:19 4:23 5:0.6086956 6:1 7:4 8:0.17391306 9:0.34782606 10:0.26086956 11:0.21739131 12:1 13:0.17391305 15:0.54651165 16:86 17:0.17441863 18:0.23255813 19:0.31395346 20:0.27906978 21:0.2345679 22:1 24:0.31428573 
-0.1992002844124934 1:1 2:2 3:14 4:22 5:0.45454544 6:2 7:2 8:0.090909064 9:0.22727275 10:0.22727275 11:0.45454544 12:59 13:0.30232558 14:4 15:0.4736842 16:76 17:0.17105263 18:0.19736844 19:0.2763158 20:0.35526317 21:0.22857143 22:0.25 23:0.25 24:0.11111111 
-0.5650456095761214 1:1 2:1 3:10 4:23 5:0.5909091 6:2 7:3 8:0.13636363 9:0.40909094 10:0.18181819 11:0.27272725 12:25 13:0.2 14:3 15:0.49275362 16:69 17:0.18840581 18:0.26086956 19:0.23188406 20:0.31884056 21:0.2 22:0.80000001 23:0.31999999 24:0.2 
-0.5361720075374733 1:1 2:2 3:13 4:22 5:0.5454545 6:2 7:4 8:0.090909064 9:0.22727275 10:0.3181818 11:0.36363637 12:74 13:0.25581396 14:4 15:0.4931507 16:73 17:0.17808217 18:0.24657536 19:0.24657536 20:0.32876712 21:0.2173913 22:1.4 23:0.30434781 24:0.15384616 
-0.2830495740401233 4:24 5:0.4583333 6:3 7:3 8:0.20833331 9:0.08333331 10:0.375 11:0.3333333 12:52 13:0.23404256 14:4 15:0.53999996 16:50 17:0.18 18:0.19999999 19:0.33999997 20:0.27999997 21:0.23404256 22:0.36363637 23:0.17647059 
-1 1:2 2:1 3:6 4:24 5:0.5909091 6:2 7:3 8:0.13636363 9:0.36363637 10:0.22727275 11:0.27272725 12:53 13:0.17391305 14:1 15:0.47619045 16:63 17:0.22222221 18:0.23809522 19:0.23809522 20:0.30158728 21:0.17857143 22:2 23:0.18181819 24:0.2 
-0.4023474402399037 1:7 2:3 3:24 4:23 5:0.6818182 6:1 7:6 8:0.18181819 9:0.3181818 10:0.36363637 11:0.13636363 12:69 13:0.22727273 14:2 15:0.56179774 16:89 17:0.2022472 18:0.28089887 19:0.28089887 20:0.23595506 21:0.27058825 22:1.125 24:0.31707317 
-0.2985340217019469 1:9 2:1 3:17 4:22 5:0.5909091 6:1 7:2 8:0.18181819 9:0.40909094 10:0.18181819 11:0.22727275 12:65 13:0.13636364 14:3 15:0.56578946 16:76 17:0.17105263 18:0.25 19:0.31578946 20:0.2631579 21:0.2173913 22:1 23:0.2 24:0.36000001 
-0.7051540802477436 1:9 2:2 3:20 4:22 5:0.6363636 6:1 7:2 8:0.13636363 9:0.090909064 10:0.5454545 11:0.22727275 12:8 13:0.090909094 14:4 15:0.5609756 16:82 17:0.17073172 18:0.24390244 19:0.31707317 20:0.26829267 21:0.2 22:1.5 23:0.2857143 24:0.3548387 
-0.488793590146282 3:6 4:21 5:0.52380955 6:1 7:2 8:0.38095236 9:0.28571427 10:0.23809522 11:0.09523809 12:40 13:0.45454547 14:4 15:0.5869565 16:46 17:0.3043478 18:0.34782606 19:0.23913044 20:0.10869563 21:0.42857143 23:0.14285715 24:0.33333334 
-0.9220201718208985 1:2 2:1 3:9 4:22 5:0.5909091 6:2 7:3 8:0.22727275 9:0.22727275 10:0.36363637 11:0.18181819 12:55 13:0.18181819 14:3 15:0.53846157 16:65 17:0.2153846 18:0.27692306 19:0.26153845 20:0.24615383 21:0.18032786 22:1.8333334 23:0.2 24:0.17647059 
-0.5084072006389813 3:2 4:22 5:0.5 6:4 7:1 8:0.18181819 9:0.27272725 10:0.22727275 11:0.3181818 12:9 13:0.3488372 14:4 15:0.49019605 16:51 17:0.2352941 18:0.2745098 19:0.21568626 20:0.2745098 21:0.31914893 23:0.06666667 
-0.1205345355943387 4:23 5:0.5 6:5 7:2 8:0.3181818 9:0.27272725 10:0.22727275 11:0.18181819 12:37 13:0.33333334 14:4 15:0.5102041 16:49 17:0.22448981 18:0.28571427 19:0.22448981 20:0.26530612 21:0.33333334 22:0.54545456 23:0.05882353 
-0.2924867183013866 3:2 4:22 5:0.5909091 6:6 7:2 8:0.090909064 9:0.40909094 10:0.18181819 11:0.3181818 12:30 13:0.2972973 14:2 15:0.5555556 16:45 17:0.17777777 18:0.28888887 19:0.26666665 20:0.26666665 21:0.2682927 22:0.5 23:0.24137931 
-0.7327702756988792 1:1 2:1 3:16 4:23 5:0.6363636 6:3 7:4 8:0.13636363 9:0.3181818 10:0.3181818 11:0.22727275 12:16 13:0.31818181 14:3 15:0.5675676 16:74 17:0.16216218 18:0.2837838 19:0.2837838 20:0.2702703 21:0.2857143 22:0.66666669 23:0.1724138 24:0.23076923 
-0.2899087368786118 1:2 2:1 3:8 4:23 5:0.6521739 6:1 7:2 8:0.21739131 9:0.21739131 10:0.43478262 11:0.13043481 12:2 13:0.086956523 14:2 15:0.5142857 16:70 17:0.24285716 18:0.25714284 19:0.25714284 20:0.24285716 21:0.1 22:1 24:0.14285715 
-0.313687058693195 4:21 5:0.52380955 6:2 7:2 8:0.28571427 9:0.19047618 10:0.3333333 11:0.19047618 12:12 13:0.1 14:2 15:0.5 16:50 17:0.26 18:0.26 19:0.24000001 20:0.24000001 21:0.1 22:1 23:0.090909094 
-0.6761358228706933 1:2 2:2 3:14 4:22 5:0.6363636 6:3 7:5 8:0.27272725 9:0.27272725 10:0.36363637 11:0.090909064 12:51 13:0.23076923 14:3 15:0.6086956 16:69 17:0.20289856 18:0.2753623 19:0.3333333 20:0.18840581 21:0.1875 22:4 24:0.12 
-0.0837768148985141 4:25 5:0.625 6:2 7:4 8:0.16666669 9:0.25 10:0.375 11:0.20833331 12:12 13:0.17391305 14:4 15:0.63265306 16:49 17:0.22448981 18:0.28571427 19:0.3469388 20:0.14285713 21:0.13636364 22:0.8888889 23:0.23076923 
-1 1:1 2:1 3:5 4:22 5:0.5454545 6:2 7:3 8:0.18181819 9:0.36363637 10:0.18181819 11:0.27272725 12:6 13:0.19047619 14:2 15:0.57894737 16:57 17:0.21052629 18:0.2982456 19:0.28070176 20:0.21052629 21:0.17647059 22:1.1428572 24:0.11111111 
-0.5551984174622802 1:1 2:4 3:21 4:12 5:0.5 6:1 7:1 8:0.4166667 9:0.16666669 10:0.3333333 11:0.08333331 12:1 13:0.083333336 15:0.44285715 16:70 17:0.27142859 18:0.1857143 19:0.25714284 20:0.28571427 21:0.11111111 22:1.125 24:0.12820514 
-0.7112154027410665 3:6 4:25 5:0.5217391 6:3 7:3 8:0.21739131 9:0.43478262 10:0.0869565 11:0.26086956 12:52 13:0.19148937 14:3 15:0.5072464 16:69 17:0.20289856 18:0.23188406 19:0.2753623 20:0.28985506 21:0.15254237 22:0.45454547 
