svm_type c_svc
kernel_type rbf
gamma 0.0416667
nr_class 2
total_sv 491
rho 0.454207
label 1 0
probA -18.7814
probB -14.0732
nr_sv 203 288
SV
1 1:1 2:1 3:7 4:23 5:0.6521739 6:1 7:2 8:0.0869565 9:0.47826087 10:0.17391306 11:0.26086956 12:53 13:0.090909094 14:3 15:0.6721312 16:61 17:0.09836066 18:0.32786888 19:0.3442623 20:0.22950822 21:0.14285715 22:0.80000001 23:0.2 24:0.33333334 
1 3:4 4:23 5:0.39130437 6:2 7:2 8:0.17391306 9:0.21739131 10:0.17391306 11:0.43478262 12:4 13:0.15555556 14:4 15:0.42372882 16:59 17:0.23728812 18:0.16949153 19:0.2542373 20:0.33898306 21:0.24528302 22:0.25 24:0.75 
1 1:3 2:1 3:6 4:23 5:0.45454544 6:2 7:2 8:0.22727275 9:0.090909064 10:0.36363637 11:0.3181818 12:43 13:0.24444444 14:3 15:0.39682537 16:63 17:0.25396824 18:0.15873015 19:0.23809522 20:0.34920633 21:0.29824561 22:4.5 24:0.5 
1 3:1 4:22 5:0.6363636 6:4 7:2 8:0.13636363 9:0.40909094 10:0.22727275 11:0.22727275 12:7 13:0.27272728 14:3 15:0.6111111 16:54 17:0.2037037 18:0.3148148 19:0.2962963 20:0.1851852 21:0.26086956 22:0.8888889 
1 3:3 4:22 5:0.6363636 6:4 7:3 8:0.3181818 9:0.22727275 10:0.40909094 11:0.04545456 12:41 13:0.27272728 14:3 15:0.63793105 16:58 17:0.18965518 18:0.32758623 19:0.31034482 20:0.17241377 21:0.23999999 22:1.1111112 
1 3:5 4:21 5:0.57142854 6:2 7:3 8:0.3333333 9:0.047619045 10:0.52380955 11:0.09523809 12:17 13:0.2682927 14:2 15:0.5818182 16:55 17:0.23636365 18:0.34545457 19:0.23636365 20:0.18181819 21:0.31999999 22:2 23:0.22580644 24:0.55555558 
1 1:3 2:1 3:7 4:22 5:0.5454545 6:2 7:1 8:0.27272725 9:0.3181818 10:0.22727275 11:0.18181819 12:56 13:0.1627907 14:2 15:0.52542377 16:59 17:0.220339 18:0.2711864 19:0.2542373 20:0.2542373 21:0.21428572 22:1 23:0.30000001 24:0.38461539 
1 1:2 2:1 3:5 4:22 5:0.57142854 6:2 7:3 8:0.14285713 9:0.23809522 10:0.3333333 11:0.28571427 12:5 13:0.20930232 14:2 15:0.5 16:58 17:0.2241379 18:0.24137932 19:0.25862068 20:0.2758621 21:0.24528302 22:1 23:0.25 24:0.40000001 
1 1:2 2:1 3:7 4:23 5:0.6086956 6:2 7:4 8:0.26086956 9:0.3043478 10:0.3043478 11:0.13043481 12:43 13:0.24444444 14:3 15:0.546875 16:64 17:0.203125 18:0.28125 19:0.265625 20:0.25 21:0.25423729 22:0.875 24:0.2857143 
1 1:2 2:2 3:10 4:22 5:0.6363636 6:2 7:4 8:0.27272725 9:0.22727275 10:0.40909094 11:0.090909064 12:47 13:0.33333334 14:2 15:0.6060606 16:66 17:0.19696969 18:0.3333333 19:0.27272725 20:0.19696969 21:0.3442623 22:1 24:0.36842105 
1 4:22 5:0.5 6:2 7:3 8:0.19999999 9:0.3 10:0.19999999 11:0.3 12:14 13:0.14285715 14:2 15:0.46296299 16:54 17:0.22222221 18:0.24074072 19:0.22222221 20:0.3148148 21:0.14285715 22:1.125 23:0.18518518 
1 3:6 4:22 5:0.45454544 6:3 7:2 8:0.27272725 9:0.18181819 10:0.27272725 11:0.27272725 12:18 13:0.1627907 14:3 15:0.45762712 16:59 17:0.23728812 18:0.20338982 19:0.2542373 20:0.30508476 21:0.16363636 22:1.5 23:0.27272728 24:0.16666667 
1 3:3 4:26 5:0.5909091 6:3 7:5 8:0.13636363 9:0.27272725 10:0.3181818 11:0.27272725 12:9 13:0.20833333 14:1 15:0.5862069 16:58 17:0.13793105 18:0.24137932 19:0.3448276 20:0.2758621 21:0.18518518 22:2.3333333 23:0.06666667 
1 1:3 2:2 3:13 4:22 5:0.71428573 6:1 7:4 8:0.14285713 9:0.23809522 10:0.47619045 11:0.14285713 12:51 13:0.1627907 14:2 15:0.6231884 16:69 17:0.13043481 18:0.26086956 19:0.3623188 20:0.24637681 21:0.16923077 22:1 24:0.18181819 
1 3:1 4:23 5:0.5 6:1 7:2 8:0.40909094 9:0.18181819 10:0.3181818 11:0.090909064 12:22 13:0.06666667 14:3 15:0.4915254 16:59 17:0.23728812 18:0.2542373 19:0.23728812 20:0.2711864 21:0.063829787 22:0.89999998 23:0.3488372 
0.8364878769412198 3:3 4:23 5:0.5217391 6:1 7:2 8:0.0869565 9:0.26086956 10:0.26086956 11:0.39130437 12:60 13:0.090909094 14:1 15:0.5 16:62 17:0.22580647 18:0.2580645 19:0.24193549 20:0.27419353 21:0.079999998 22:1.2857143 23:0.34999999 
0.05390306702678137 1:1 2:1 3:5 4:23 5:0.6086956 6:2 7:3 8:0.17391306 9:0.21739131 10:0.39130437 11:0.21739131 12:5 13:0.2 14:1 15:0.5263158 16:57 17:0.21052629 18:0.2280702 19:0.2982456 20:0.2631579 21:0.18518518 22:0.5 24:0.11111111 
1 1:1 2:1 3:7 4:22 5:0.57142854 6:2 7:4 8:0.23809522 9:0.28571427 10:0.28571427 11:0.19047618 12:42 13:0.20930232 14:3 15:0.5084746 16:59 17:0.220339 18:0.220339 19:0.2881356 20:0.2711864 21:0.17857143 22:1.4285715 24:0.07692308 
1 1:1 2:1 3:5 4:24 5:0.5 6:2 7:3 8:0.16666669 9:0.16666669 10:0.3333333 11:0.3333333 12:14 13:0.17391305 14:2 15:0.55172414 16:58 17:0.20689654 18:0.25862068 19:0.29310346 20:0.24137932 21:0.16363636 22:0.80000001 23:0.14285715 24:0.11111111 
1 1:1 2:1 3:7 4:23 5:0.6666666 6:2 7:4 8:0.23809522 9:0.4285714 10:0.23809522 11:0.09523809 12:52 13:0.18181819 14:4 15:0.56666666 16:60 17:0.19999999 18:0.26666665 19:0.3 20:0.23333335 21:0.15789473 22:0.625 23:0.15384616 24:0.07692308 
0.7885160990525113 1:3 2:1 3:9 4:21 5:0.61904764 6:2 7:1 8:0.09523809 9:0.57142854 10:0.047619045 11:0.28571427 12:54 13:0.14285715 14:4 15:0.60317457 16:63 17:0.17460316 18:0.25396824 19:0.34920633 20:0.22222221 21:0.20689656 22:1.25 23:0.13043478 24:0.375 
0.6049236741099868 1:3 2:2 3:10 4:23 5:0.72727275 6:2 7:6 8:0.13636363 9:0.45454544 10:0.27272725 11:0.13636363 12:47 13:0.2888889 14:3 15:0.7384615 16:65 17:0.09230769 18:0.39999998 19:0.33846152 20:0.16923076 21:0.29032257 22:1.3333334 24:0.29411766 
1 1:3 2:1 3:11 4:21 5:0.61904764 6:2 7:3 8:0.19047618 9:0.23809522 10:0.38095236 11:0.19047618 12:54 13:0.2682927 14:1 15:0.6 16:65 17:0.19999999 18:0.27692306 19:0.3230769 20:0.19999999 21:0.23333333 22:0.80000001 23:0.11111111 24:0.15789473 
1 1:1 2:1 3:6 4:23 5:0.5 6:1 7:3 8:0.13636363 9:0.27272725 10:0.22727275 11:0.36363637 12:42 13:0.11111111 14:2 15:0.5833334 16:60 17:0.19999999 18:0.3 19:0.28333336 20:0.21666664 21:0.12280702 22:0.63636363 24:0.16666667 
1 4:24 5:0.5416666 6:2 7:5 8:0.16666669 9:0.375 10:0.16666669 11:0.2916667 12:9 13:0.2173913 14:2 15:0.5272727 16:55 17:0.14545453 18:0.25454545 19:0.27272725 20:0.3272727 21:0.2173913 22:0.77777779 23:0.16666667 
1 1:1 2:1 3:5 4:23 5:0.5 6:1 7:4 8:0.090909064 9:0.13636363 10:0.36363637 11:0.40909094 12:46 13:0.2 14:4 15:0.5555556 16:63 17:0.12698412 18:0.26984125 19:0.28571427 20:0.3174603 21:0.22222222 22:0.875 24:0.33333334 
0.752461801842502 3:1 4:24 5:0.45454544 6:2 7:2 8:0.22727275 9:0.18181819 10:0.27272725 11:0.3181818 12:14 13:0.2173913 14:4 15:0.4918033 16:61 17:0.19672132 18:0.27868855 19:0.21311474 20:0.3114754 21:0.20833333 22:1.25 23:0.375 
1 3:3 4:23 5:0.45454544 6:2 7:4 8:0.3181818 9:0.27272725 10:0.18181819 11:0.22727275 12:6 13:0.2 14:4 15:0.4153846 16:65 17:0.26153845 18:0.19999999 19:0.2153846 20:0.3230769 21:0.17647059 22:1 23:0.40000001 
0.5594019915767819 3:2 4:23 5:0.47826087 6:2 7:4 8:0.0869565 9:0.17391306 10:0.3043478 11:0.43478262 12:47 13:0.2 14:2 15:0.4285714 16:63 17:0.25396824 18:0.2063492 19:0.22222221 20:0.3174603 21:0.18367347 22:0.875 23:0.33333334 
1 3:2 4:24 5:0.4583333 6:2 7:3 8:0.16666669 9:0.08333331 10:0.375 11:0.375 12:20 13:0.24444444 14:1 15:0.4166667 16:60 17:0.25 18:0.23333335 19:0.18333334 20:0.3333333 21:0.22448979 22:0.42857143 23:0.2820513 
1 1:2 2:1 3:9 4:22 5:0.61904764 6:2 7:4 8:0.047619045 9:0.52380955 10:0.09523809 11:0.3333333 12:50 13:0.20930232 14:2 15:0.61764705 16:68 17:0.14705884 18:0.2647059 19:0.35294116 20:0.2352941 21:0.2 22:0.77777779 24:0.17647059 
0.3040686427302623 3:4 4:24 5:0.5909091 6:2 7:4 8:0.3181818 9:0.27272725 10:0.3181818 11:0.090909064 12:14 13:0.15555556 14:1 15:0.52542377 16:59 17:0.2711864 18:0.23728812 19:0.2881356 20:0.20338982 21:0.13207547 22:1 23:0.07692308 
1 3:8 4:23 5:0.5454545 6:1 7:4 8:0.27272725 9:0.18181819 10:0.36363637 11:0.18181819 12:54 13:0.1627907 14:3 15:0.515625 16:64 17:0.28125 18:0.234375 19:0.28125 20:0.203125 21:0.13793103 22:0.71428573 23:0.047619049 24:0.06666667 
1 1:2 2:1 3:9 4:22 5:0.5454545 6:2 7:3 8:0.04545456 9:0.40909094 10:0.13636363 11:0.40909094 12:6 13:0.17073171 14:1 15:0.5 16:60 17:0.21666664 18:0.28333336 19:0.21666664 20:0.28333336 21:0.19298245 22:0.66666669 23:0.2 24:0.25 
0.8600514445142269 1:2 2:1 3:8 4:25 5:0.5 6:2 7:3 8:0.45454544 9:0.18181819 10:0.3181818 11:0.04545456 12:46 13:0.23404256 14:1 15:0.5 16:64 17:0.21875 18:0.265625 19:0.234375 20:0.28125 21:0.21311475 22:1.1666666 24:0.14285715 
0.5178439299334793 3:2 4:22 5:0.5454545 6:2 7:4 8:0.22727275 9:0.18181819 10:0.36363637 11:0.22727275 12:19 13:0.25581396 14:3 15:0.5 16:56 17:0.23214287 18:0.21428573 19:0.28571427 20:0.26785713 21:0.23404256 22:0.5714286 23:0.13333334 
1 3:5 4:21 5:0.55 6:2 7:3 8:0.10000002 9:0.3 10:0.25 11:0.35000002 12:57 13:0.21951219 14:2 15:0.51666665 16:60 17:0.21666664 18:0.21666664 19:0.3 20:0.26666665 21:0.21568628 22:0.85714287 23:0.15384616 24:0.2 
1 1:1 2:1 3:8 4:22 5:0.45454544 6:2 7:3 8:0.3181818 9:0.18181819 10:0.27272725 11:0.22727275 12:15 13:0.20930232 14:4 15:0.44444442 16:63 17:0.22222221 18:0.17460316 19:0.26984125 20:0.3333333 21:0.20689656 22:1.125 23:0.2857143 24:0.2 
1 1:1 2:1 3:9 4:23 5:0.5 6:2 7:4 8:0.18181819 9:0.27272725 10:0.22727275 11:0.3181818 12:58 13:0.2 14:4 15:0.46268654 16:67 17:0.20895523 18:0.19402987 19:0.26865673 20:0.32835823 21:0.22580644 22:1.4285715 23:0.25 24:0.29411766 
1 4:26 5:0.73913044 6:2 7:3 8:0.0869565 9:0.39130437 10:0.34782606 11:0.17391306 12:14 13:0.14285715 14:1 15:0.7307692 16:52 17:0.11538464 18:0.40384614 19:0.32692307 20:0.15384614 21:0.14285715 22:0.875 23:0.30769232 
1 1:1 2:1 3:6 4:19 5:0.7368421 6:2 7:2 8:0.15789473 9:0.31578946 10:0.42105263 11:0.10526317 12:46 13:0.085714288 14:3 15:0.74 16:50 17:0.10000002 18:0.39999998 19:0.33999997 20:0.16000003 21:0.10638298 22:1.2 23:0.35714287 24:0.16666667 
1 4:23 5:0.40909094 6:2 7:3 8:0.22727275 9:0.18181819 10:0.22727275 11:0.36363637 12:14 13:0.15555556 14:3 15:0.41071427 16:56 17:0.28571427 18:0.1785714 19:0.23214287 20:0.3035714 21:0.15555556 22:1 23:0.15384616 
0.7791645386884984 4:22 5:0.6363636 6:1 7:3 8:0.18181819 9:0.5 10:0.13636363 11:0.18181819 12:22 13:0.13636364 14:4 15:0.625 16:56 17:0.1785714 18:0.3214286 19:0.3035714 20:0.1964286 21:0.13636364 22:1.1111112 23:0.14285715 
1 1:2 2:1 3:10 4:23 5:0.45454544 6:1 7:1 8:0.36363637 9:0.18181819 10:0.27272725 11:0.18181819 12:6 13:0.022222223 14:2 15:0.5230769 16:65 17:0.19999999 18:0.23076922 19:0.29230767 20:0.27692306 21:0.081967212 22:0.8888889 24:0.25 
1 1:2 2:2 3:12 4:22 5:0.45454544 6:1 7:1 8:0.13636363 9:0.22727275 10:0.22727275 11:0.40909094 12:50 13:0.023255814 14:3 15:0.53731346 16:67 17:0.19402987 18:0.23880595 19:0.29850745 20:0.26865673 21:0.079365082 22:1.125 24:0.2 
0.8966148205000778 1:1 2:1 3:7 4:24 5:0.5652174 6:1 7:3 8:0.13043481 9:0.34782606 10:0.21739131 11:0.3043478 12:54 13:0.13636364 14:2 15:0.609375 16:64 17:0.15625 18:0.328125 19:0.28125 20:0.234375 21:0.15789473 22:0.85714287 23:0.13043478 24:0.23076923 
0.6128509621865551 1:2 2:1 3:5 4:25 5:0.5454545 6:2 7:3 8:0.18181819 9:0.18181819 10:0.36363637 11:0.27272725 12:2 13:0.24444444 14:2 15:0.62068963 16:58 17:0.18965518 18:0.31034482 19:0.31034482 20:0.18965518 21:0.25925925 22:0.30000001 24:0.33333334 
1 3:5 4:22 5:0.5454545 6:1 7:1 8:0.40909094 9:0.13636363 10:0.40909094 11:0.04545456 12:7 13:0.045454547 14:4 15:0.4736842 16:57 17:0.2631579 18:0.19298244 19:0.28070176 20:0.2631579 21:0.16981132 22:1.1111112 24:0.77777779 
1 1:4 2:1 3:7 4:25 5:0.48000002 6:1 7:1 8:0.07999998 9:0.27999997 10:0.19999999 11:0.44 12:44 13:0.039999999 14:3 15:0.49253732 16:67 17:0.25373137 18:0.20895523 19:0.2835821 20:0.25373137 21:0.14285715 22:0.90909094 24:0.53846157 
1 1:1 2:2 3:13 4:24 5:0.8 6:3 7:4 8:0.10000002 9:0.3 10:0.5 11:0.10000002 12:2 13:0.18181819 14:4 15:0.6438356 16:73 17:0.15068495 18:0.260274 19:0.38356167 20:0.20547944 21:0.14705883 22:1.3333334 24:0.083333336 
1 3:2 4:24 5:0.4583333 6:3 7:3 8:0.20833331 9:0.25 10:0.20833331 11:0.3333333 12:4 13:0.11627907 14:2 15:0.5283019 16:53 17:0.20754719 18:0.24528301 19:0.2830189 20:0.26415092 21:0.10638298 22:1.4 
1 3:2 4:28 5:0.5217391 6:3 7:3 8:0.26086956 9:0.3043478 10:0.21739131 11:0.21739131 12:38 13:0.12 14:3 15:0.56666666 16:60 17:0.19999999 18:0.26666665 19:0.3 20:0.23333335 21:0.11111111 22:0.55555558 
1 1:1 2:1 3:5 4:23 5:0.5454545 6:3 7:2 8:0.18181819 9:0.22727275 10:0.3181818 11:0.27272725 12:10 13:0.2 14:4 15:0.5423729 16:59 17:0.20338982 18:0.23728812 19:0.30508476 20:0.2542373 21:0.22222222 22:0.80000001 23:0.11111111 24:0.33333334 
1 1:1 2:2 3:7 4:22 5:0.5 6:3 7:2 8:0.18181819 9:0.3181818 10:0.18181819 11:0.3181818 12:48 13:0.25581396 14:2 15:0.5409836 16:61 17:0.19672132 18:0.22950822 19:0.3114754 20:0.26229507 21:0.25 22:2 24:0.23076923 
1 3:4 4:25 5:0.6363636 6:3 7:5 8:0.090909064 9:0.22727275 10:0.40909094 11:0.27272725 12:3 13:0.22727273 14:3 15:0.6507937 16:63 17:0.12698412 18:0.30158728 19:0.34920633 20:0.22222221 21:0.1923077 22:0.25 
1 1:1 2:1 3:5 4:23 5:0.34782606 6:2 7:4 8:0.3043478 9:0.13043481 10:0.21739131 11:0.34782606 12:43 13:0.2 14:2 15:0.4915254 16:59 17:0.2542373 18:0.220339 19:0.2711864 20:0.2542373 21:0.18518518 22:1.1666666 24:0.11111111 
1 3:4 4:23 5:0.7826087 6:2 7:3 8:0.17391306 9:0.34782606 10:0.43478262 11:0.04347825 12:4 13:0.13636364 14:2 15:0.78947365 16:57 17:0.12280703 18:0.35087717 19:0.4385965 20:0.08771932 21:0.21568628 22:0.8888889 23:0.14285715 24:0.71428573 
0.4610506098393968 1:1 2:1 3:7 4:22 5:0.5454545 6:3 7:2 8:0.27272725 9:0.13636363 10:0.40909094 11:0.18181819 12:1 13:0.12820514 14:1 15:0.5087719 16:57 17:0.2280702 18:0.2280702 19:0.28070176 20:0.2631579 21:0.13207547 22:4.5 24:0.14285715 
1 1:1 2:1 3:6 4:26 5:0.47619045 6:3 7:2 8:0.19047618 9:0.3333333 10:0.14285713 11:0.3333333 12:40 13:0.18181819 14:2 15:0.48333335 16:60 17:0.23333335 18:0.21666664 19:0.26666665 20:0.28333336 21:0.17857143 22:2.5 24:0.16666667 
1 1:2 2:1 3:9 4:28 5:0.6363636 6:6 7:2 8:0.22727275 9:0.40909094 10:0.22727275 11:0.13636363 12:1 13:0.2 15:0.6056338 16:71 17:0.1690141 18:0.28169012 19:0.32394367 20:0.22535211 21:0.20588236 22:3 24:0.22222222 
0.7702356177803068 1:2 2:1 3:9 4:21 5:0.57142854 6:6 7:2 8:0.19047618 9:0.19047618 10:0.38095236 11:0.23809522 12:44 13:0.27777779 14:2 15:0.5964912 16:57 17:0.17543858 18:0.28070176 19:0.31578946 20:0.2280702 21:0.25925925 22:0.60000002 24:0.22222222 
1 3:5 4:20 5:0.55 6:1 7:2 8:0.10000002 9:0.25 10:0.3 11:0.35000002 12:10 13:0.07692308 14:1 15:0.46666664 16:60 17:0.23333335 18:0.21666664 19:0.25 20:0.3 21:0.06122449 22:1 23:0.25 
0.6540578184492124 3:5 4:21 5:0.55 6:1 7:2 8:0.3 9:0.19999999 10:0.35000002 11:0.14999998 12:51 13:0.073170729 14:4 15:0.4516129 16:62 17:0.24193549 18:0.2096774 19:0.24193549 20:0.30645162 21:0.05882353 22:1 23:0.2857143 
1 1:1 2:1 3:7 4:23 5:0.40909094 6:2 7:2 8:0.22727275 9:0.090909064 10:0.3181818 11:0.36363637 12:41 13:0.25581396 14:3 15:0.4745763 16:59 17:0.20338982 18:0.23728812 19:0.23728812 20:0.32203388 21:0.25 24:0.23076923 
0.4239203011502661 1:2 2:1 3:5 4:22 5:0.5454545 6:2 7:3 8:0.22727275 9:0.3181818 10:0.22727275 11:0.22727275 12:4 13:0.18181819 14:1 15:0.559322 16:59 17:0.20338982 18:0.30508476 19:0.2542373 20:0.23728812 21:0.20754717 22:1.2857143 24:0.33333334 
1 1:1 2:1 3:7 4:23 5:0.6818182 6:3 7:5 8:0.27272725 9:0.45454544 10:0.22727275 11:0.04545456 12:2 13:0.31707317 14:1 15:0.6166667 16:60 17:0.21666664 18:0.35000002 19:0.26666665 20:0.16666669 21:0.27272728 22:1 24:0.14285715 
1 1:1 2:1 3:4 4:24 5:0.40909094 6:2 7:3 8:0.22727275 9:0.22727275 10:0.18181819 11:0.36363637 12:41 13:0.2 14:4 15:0.44067794 16:59 17:0.23728812 18:0.20338982 19:0.23728812 20:0.32203388 21:0.20754717 22:2 24:0.25 
1 3:4 4:24 5:0.72727275 6:1 7:4 8:0.18181819 9:0.45454544 10:0.27272725 11:0.090909064 12:8 13:0.22727273 14:2 15:0.6721312 16:61 17:0.14754099 18:0.32786888 19:0.3442623 20:0.18032789 21:0.1923077 22:3.6666667 23:0.14285715 
1 3:6 4:24 5:0.6666666 6:1 7:4 8:0.20833331 9:0.2916667 10:0.375 11:0.125 12:47 13:0.2 14:2 15:0.671875 16:64 17:0.140625 18:0.328125 19:0.34375 20:0.1875 21:0.2 22:1 23:0.090909094 24:0.2 
1 4:24 5:0.4166667 6:1 7:2 8:0.2916667 9:0.20833331 10:0.20833331 11:0.2916667 12:6 13:0.16666667 14:4 15:0.4423077 16:52 17:0.28846157 18:0.19230771 19:0.25 20:0.26923078 21:0.16666667 22:0.83333331 
1 1:1 2:1 3:5 4:20 5:0.45 6:2 7:2 8:0.25 9:0.14999998 10:0.3 11:0.3 12:39 13:0.15000001 14:1 15:0.4259259 16:54 17:0.2962963 18:0.1851852 19:0.24074072 20:0.2777778 21:0.16 22:2.25 24:0.2 
1 1:2 2:1 3:8 4:22 5:0.40909094 6:1 7:2 8:0.18181819 9:0.04545456 10:0.36363637 11:0.40909094 12:40 13:0.14285715 14:3 15:0.42622954 16:61 17:0.26229507 18:0.22950822 19:0.19672132 20:0.3114754 21:0.14285715 22:2.25 24:0.14285715 
1 3:2 4:24 5:0.47826087 6:2 7:4 8:0.3043478 9:0.21739131 10:0.26086956 11:0.21739131 12:43 13:0.2173913 14:2 15:0.5409836 16:61 17:0.21311474 18:0.24590164 19:0.29508197 20:0.24590164 21:0.2 22:1.6 23:0.25 
1 1:3 2:1 3:7 4:21 5:0.57142854 6:1 7:2 8:0.28571427 9:0.23809522 10:0.3333333 11:0.14285713 12:43 13:0.095238097 14:4 15:0.48333335 16:60 17:0.21666664 18:0.25 19:0.23333335 20:0.3 21:0.16363636 22:0.63636363 24:0.38461539 
1 4:23 5:0.6818182 6:2 7:3 8:0.18181819 9:0.27272725 10:0.40909094 11:0.13636363 12:6 13:0.24444444 14:3 15:0.66071427 16:56 17:0.14285713 18:0.26785713 19:0.39285713 20:0.1964286 21:0.24444444 22:1 
1 3:5 4:21 5:0.8095238 6:2 7:2 8:0.047619045 9:0.47619045 10:0.3333333 11:0.14285713 12:44 13:0.21951219 14:1 15:0.6935484 16:62 17:0.12903225 18:0.2903226 19:0.40322578 20:0.17741936 21:0.21568628 22:0.66666669 24:0.2 
1 1:1 2:1 3:5 4:23 5:0.5217391 6:2 7:3 8:0.3043478 9:0.0869565 10:0.43478262 11:0.17391306 12:5 13:0.15555556 14:3 15:0.49206346 16:63 17:0.22222221 18:0.2063492 19:0.28571427 20:0.28571427 21:0.16363636 22:0.90909094 23:0.25 24:0.2 
1 1:1 2:1 3:7 4:23 5:0.5454545 6:2 7:3 8:0.13636363 9:0.3181818 10:0.22727275 11:0.3181818 12:48 13:0.2 14:3 15:0.47761196 16:67 17:0.23880595 18:0.19402987 19:0.2835821 20:0.2835821 21:0.18644068 22:1.4285715 24:0.14285715 
1 1:1 2:1 3:8 4:21 5:0.6666666 6:1 7:2 8:0.09523809 9:0.38095236 10:0.28571427 11:0.23809522 12:4 13:0.21951219 14:3 15:0.73333335 16:60 17:0.11666667 18:0.28333336 19:0.45 20:0.14999998 21:0.2 22:3.6666667 24:0.14285715 
1 1:1 2:1 3:9 4:21 5:0.85 6:1 7:2 8:0.050000012 9:0.19999999 10:0.65 11:0.10000002 12:45 13:0.17073171 14:1 15:0.7258065 16:62 17:0.11290324 18:0.27419353 19:0.4516129 20:0.16129035 21:0.19298245 22:0.60000002 24:0.25 
0.3601529436069943 1:3 2:1 3:6 4:22 5:0.6363636 6:1 7:3 8:0.13636363 9:0.40909094 10:0.22727275 11:0.22727275 12:5 13:0.11627907 14:2 15:0.6666666 16:57 17:0.12280703 18:0.35087717 19:0.31578946 20:0.21052629 21:0.16981132 22:1 23:0.25 24:0.40000001 
1 1:3 2:1 3:8 4:22 5:0.57142854 6:3 7:3 8:0.09523809 9:0.28571427 10:0.28571427 11:0.3333333 12:47 13:0.20930232 14:4 15:0.5409836 16:61 17:0.18032789 18:0.27868855 19:0.26229507 20:0.27868855 21:0.24137931 22:0.54545456 23:0.11111111 24:0.33333334 
1 3:1 4:24 5:0.45454544 6:2 7:3 8:0.090909064 9:0.3181818 10:0.13636363 11:0.45454544 12:3 13:0.13043478 14:1 15:0.4310345 16:58 17:0.2241379 18:0.18965518 19:0.24137932 20:0.3448276 21:0.125 22:0.80000001 
1 3:3 4:24 5:0.3333333 6:2 7:3 8:0.5 9:0.041666687 10:0.2916667 11:0.16666669 12:39 13:0.2173913 14:3 15:0.41935486 16:62 17:0.2580645 18:0.19354838 19:0.22580647 20:0.32258064 21:0.1923077 22:2.5 
1 3:1 4:25 5:0.6666666 6:2 7:4 8:0.08333331 9:0.375 10:0.2916667 11:0.25 12:6 13:0.18367347 14:1 15:0.63793105 16:58 17:0.15517241 18:0.29310346 19:0.3448276 20:0.20689654 21:0.17647059 22:0.8888889 
1 3:4 4:24 5:0.625 6:2 7:3 8:0.20833331 9:0.2916667 10:0.3333333 11:0.16666669 12:42 13:0.14893617 14:2 15:0.62903225 16:62 17:0.16129035 18:0.2903226 19:0.33870965 20:0.2096774 21:0.16363636 22:0.72727275 24:0.25 
1 3:3 4:24 5:0.5 6:3 7:4 8:0.3181818 9:0.27272725 10:0.22727275 11:0.18181819 12:7 13:0.26086956 14:3 15:0.4310345 16:58 17:0.29310346 18:0.2241379 19:0.20689654 20:0.2758621 21:0.23076923 22:5 23:0.16666667 
1 3:7 4:22 5:0.45454544 6:2 7:3 8:0.3181818 9:0.18181819 10:0.27272725 11:0.22727275 12:45 13:0.22727273 14:3 15:0.43548387 16:62 17:0.2903226 18:0.22580647 19:0.2096774 20:0.27419353 21:0.25 22:1.2857143 24:0.33333334 
1 3:2 4:22 5:0.5909091 6:2 7:3 8:0.090909064 9:0.22727275 10:0.36363637 11:0.3181818 12:6 13:0.18181819 14:2 15:0.57142854 16:56 17:0.14285713 18:0.23214287 19:0.33928573 20:0.28571427 21:0.20833333 22:1.25 23:0.11111111 24:0.5 
1 3:3 4:24 5:0.47826087 6:2 7:2 8:0.34782606 9:0.34782606 10:0.13043481 11:0.17391306 12:18 13:0.14893617 14:4 15:0.38983053 16:59 17:0.2711864 18:0.1864407 19:0.20338982 20:0.33898306 21:0.20754717 22:0.69999999 23:0.23529412 24:0.66666669 
1 1:1 2:1 3:5 4:23 5:0.6818182 6:2 7:3 8:0.13636363 9:0.45454544 10:0.22727275 11:0.18181819 12:44 13:0.13636364 14:2 15:0.671875 16:64 17:0.1875 18:0.390625 19:0.28125 20:0.140625 21:0.13207547 22:0.90909094 24:0.11111111 
1 1:2 2:2 3:9 4:23 5:0.6363636 6:1 7:3 8:0.090909064 9:0.5909091 10:0.04545456 11:0.27272725 12:45 13:0.13636364 14:4 15:0.57575756 16:66 17:0.18181819 18:0.24242425 19:0.3333333 20:0.24242425 21:0.19354838 22:1.4285715 24:0.33333334 
1 1:1 2:2 3:9 4:22 5:0.5 6:1 7:2 8:0.3181818 9:0.13636363 10:0.36363637 11:0.18181819 12:9 13:0.069767445 14:1 15:0.546875 16:64 17:0.203125 18:0.203125 19:0.34375 20:0.25 21:0.1 22:0.69999999 23:0.05882353 24:0.17647059 
1 1:1 2:2 3:11 4:23 5:0.5 6:1 7:3 8:0.13636363 9:0.3181818 10:0.18181819 11:0.36363637 12:54 13:0.090909094 14:2 15:0.5362319 16:69 17:0.20289856 18:0.18840581 19:0.34782606 20:0.26086956 21:0.10769231 22:1.6666666 24:0.14285715 
0.3650019150708479 1:2 2:1 3:7 4:21 5:0.61904764 6:1 7:3 8:0.19047618 9:0.3333333 10:0.28571427 11:0.19047618 12:10 13:0.19047619 14:1 15:0.6034483 16:58 17:0.18965518 18:0.3448276 19:0.25862068 20:0.20689654 21:0.18518518 22:1.4285715 23:0.11111111 24:0.16666667 
1 1:2 2:1 3:7 4:21 5:0.61904764 6:1 7:3 8:0.14285713 9:0.38095236 10:0.23809522 11:0.23809522 12:47 13:0.19047619 14:1 15:0.6034483 16:58 17:0.18965518 18:0.3448276 19:0.25862068 20:0.20689654 21:0.18518518 22:0.69999999 23:0.11111111 24:0.16666667 
1 4:22 5:0.5 6:1 7:3 8:0.13636363 9:0.3181818 10:0.18181819 11:0.36363637 12:18 13:0.13636364 14:4 15:0.39999998 16:55 17:0.19999999 18:0.19999999 19:0.19999999 20:0.39999998 21:0.13636364 22:1.2222222 23:0.2 
1 3:2 4:23 5:0.43478262 6:1 7:4 8:0.26086956 9:0.17391306 10:0.26086956 11:0.3043478 12:53 13:0.17391305 14:2 15:0.42622954 16:61 17:0.18032789 18:0.18032789 19:0.24590164 20:0.39344263 21:0.16 22:1.2857143 23:0.1724138 
0.2244689545660713 1:1 2:1 3:7 4:24 5:0.5 6:2 7:2 8:0.2916667 9:0.25 10:0.25 11:0.20833331 12:15 13:0.15555556 14:1 15:0.55737704 16:61 17:0.22950822 18:0.27868855 19:0.27868855 20:0.21311474 21:0.19298245 22:0.5 23:0.35714287 24:0.33333334 
0.7738738247632482 1:2 2:2 3:9 4:20 5:0.6666666 6:2 7:2 8:0.055555582 9:0.3333333 10:0.3333333 11:0.2777778 12:57 13:0.10526316 14:2 15:0.56896555 16:58 17:0.20689654 18:0.2758621 19:0.29310346 20:0.2241379 21:0.14814815 22:1 23:0.41935483 24:0.25 
1 3:2 4:21 5:0.4285714 6:3 7:2 8:0.38095236 9:0.23809522 10:0.19047618 11:0.19047618 12:12 13:0.23809524 14:4 15:0.4814815 16:54 17:0.25925928 18:0.22222221 19:0.25925928 20:0.25925928 21:0.2173913 22:1.1428572 23:0.090909094 
1 1:1 2:1 3:5 4:24 5:0.6363636 6:2 7:4 8:0.04545456 9:0.27272725 10:0.36363637 11:0.3181818 12:7 13:0.2173913 14:3 15:0.6 16:60 17:0.11666667 18:0.25 19:0.35000002 20:0.28333336 21:0.25 22:1.6666666 23:0.16666667 24:0.40000001 
1 1:2 2:2 3:8 4:24 5:0.6666666 6:2 7:3 8:0.20833331 9:0.25 10:0.4166667 11:0.125 12:46 13:0.19148937 14:3 15:0.5909091 16:66 17:0.13636363 18:0.25757575 19:0.3333333 20:0.27272725 21:0.25806451 22:1 24:0.46666667 
1 3:2 4:23 5:0.5909091 6:1 7:3 8:0.18181819 9:0.22727275 10:0.36363637 11:0.22727275 12:51 13:0.2 14:2 15:0.4918033 16:61 17:0.21311474 18:0.21311474 19:0.27868855 20:0.29508197 21:0.18367347 22:1.75 23:0.2173913 
1 1:1 2:1 3:5 4:23 5:0.40909094 6:1 7:3 8:0.13636363 9:0.27272725 10:0.13636363 11:0.45454544 12:39 13:0.20930232 14:3 15:0.43333334 16:60 17:0.21666664 18:0.19999999 19:0.23333335 20:0.35000002 21:0.1923077 22:3.5 24:0.11111111 
1 3:6 4:22 5:0.6818182 6:2 7:3 8:0.04545456 9:0.3181818 10:0.36363637 11:0.27272725 12:46 13:0.18181819 14:2 15:0.609375 16:64 17:0.109375 18:0.265625 19:0.34375 20:0.28125 21:0.17857143 22:2 24:0.16666667 
0.527649508076358 4:22 5:0.40909094 6:1 7:2 8:0.3181818 9:0.18181819 10:0.22727275 11:0.27272725 12:6 13:0.090909094 14:3 15:0.38181818 16:55 17:0.2909091 18:0.18181819 19:0.19999999 20:0.3272727 21:0.090909094 22:0.66666669 
1 3:2 4:22 5:0.36363637 6:1 7:2 8:0.27272725 9:0.13636363 10:0.22727275 11:0.36363637 12:41 13:0.090909094 14:3 15:0.37288135 16:59 17:0.2881356 18:0.16949153 19:0.20338982 20:0.33898306 21:0.083333336 22:1.125 
1 3:5 4:24 5:0.5909091 6:1 7:3 8:0.090909064 9:0.22727275 10:0.36363637 11:0.3181818 12:9 13:0.13043478 14:4 15:0.5333333 16:60 17:0.23333335 18:0.23333335 19:0.3 20:0.23333335 21:0.14814815 22:0.80000001 24:0.25 
1 1:2 2:1 3:7 4:23 5:0.5652174 6:1 7:4 8:0.26086956 9:0.3043478 10:0.26086956 11:0.17391306 12:47 13:0.13636364 14:2 15:0.53225803 16:62 17:0.22580647 18:0.22580647 19:0.30645162 20:0.24193549 21:0.14285715 22:1.4285715 24:0.16666667 
0.3562525370263384 3:6 4:24 5:0.4166667 6:3 7:3 8:0.2916667 9:0.16666669 10:0.25 11:0.2916667 12:15 13:0.15555556 14:2 15:0.4918033 16:61 17:0.22950822 18:0.22950822 19:0.26229507 20:0.27868855 21:0.22807017 22:0.77777779 23:0.2857143 24:0.5 
0.9608255454057397 1:1 2:1 3:9 4:22 5:0.5909091 6:1 7:2 8:0.18181819 9:0.3181818 10:0.27272725 11:0.22727275 12:44 13:0.18181819 14:4 15:0.5692308 16:65 17:0.18461537 18:0.27692306 19:0.29230767 20:0.24615383 21:0.18032786 22:0.625 24:0.17647059 
1 1:2 2:1 3:6 4:23 5:0.43478262 6:2 7:2 8:0.21739131 9:0.26086956 10:0.17391306 11:0.34782606 12:6 13:0.20930232 14:2 15:0.48214287 16:56 17:0.23214287 18:0.23214287 19:0.25 20:0.28571427 21:0.20754717 22:0.2857143 23:0.2 24:0.2 
1 1:2 2:1 3:7 4:24 5:0.47619045 6:4 7:3 8:0.28571427 9:0.23809522 10:0.23809522 11:0.23809522 12:43 13:0.24444444 14:2 15:0.5 16:60 17:0.21666664 18:0.25 19:0.25 20:0.28333336 21:0.22807017 22:2.3333333 24:0.16666667 
1 1:2 2:4 3:21 4:21 5:0.6666666 6:2 7:3 8:0.14285713 9:0.38095236 10:0.28571427 11:0.19047618 12:3 13:0.17948718 14:4 15:0.67073166 16:82 17:0.19512194 18:0.31707317 19:0.35365856 20:0.13414633 21:0.18987341 22:0.60000002 24:0.2 
1 3:5 4:24 5:0.73913044 6:1 7:3 8:0.17391306 9:0.39130437 10:0.34782606 11:0.0869565 12:16 13:0.14893617 14:4 15:0.6779661 16:59 17:0.20338982 18:0.30508476 19:0.37288135 20:0.11864406 21:0.17857143 22:0.81818181 23:0.18518518 24:0.33333334 
1 1:2 2:1 3:7 4:23 5:0.6086956 6:1 7:4 8:0.21739131 9:0.21739131 10:0.39130437 11:0.17391306 12:53 13:0.15555556 14:2 15:0.6557377 16:61 17:0.21311474 18:0.29508197 19:0.36065573 20:0.13114756 21:0.1724138 22:1 23:0.2 24:0.23076923 
1 3:4 4:25 5:0.4583333 6:1 7:5 8:0.20833331 9:0.20833331 10:0.25 11:0.3333333 12:40 13:0.24444444 14:3 15:0.48275864 16:58 17:0.29310346 18:0.24137932 19:0.24137932 20:0.2241379 21:0.20754717 22:1.6 
1 3:2 4:26 5:0.43478262 6:3 7:4 8:0.34782606 9:0.13043481 10:0.3043478 11:0.21739131 12:3 13:0.19148937 14:2 15:0.5 16:62 17:0.2580645 18:0.2903226 19:0.2096774 20:0.24193549 21:0.17647059 22:0.33333334 
1 1:2 2:2 3:9 4:21 5:0.6666666 6:1 7:4 8:0.14285713 9:0.28571427 10:0.38095236 11:0.19047618 12:45 13:0.15000001 14:1 15:0.6885246 16:61 17:0.081967235 18:0.32786888 19:0.36065573 20:0.22950822 21:0.22807017 22:0.72727275 24:0.41176471 
1 1:3 2:2 3:9 4:22 5:0.6666666 6:2 7:3 8:0.19047618 9:0.38095236 10:0.28571427 11:0.14285713 12:5 13:0.19047619 14:2 15:0.6612903 16:62 17:0.12903225 18:0.33870965 19:0.32258064 20:0.2096774 21:0.24137931 22:0.90909094 23:0.25 24:0.375 
1 1:3 2:2 3:11 4:23 5:0.5909091 6:2 7:4 8:0.13636363 9:0.3181818 10:0.27272725 11:0.27272725 12:48 13:0.22727273 14:2 15:0.66176474 16:68 17:0.11764705 18:0.33823532 19:0.32352942 20:0.2205882 21:0.25 22:1.375 24:0.30000001 
1 3:7 4:24 5:0.4583333 6:1 7:1 8:0.16666669 9:0.25 10:0.20833331 11:0.375 12:7 13:0.17391305 14:4 15:0.52380955 16:63 17:0.22222221 18:0.22222221 19:0.30158728 20:0.25396824 21:0.20689656 24:0.33333334 
1 1:1 2:1 3:6 4:22 5:0.45454544 6:2 7:3 8:0.3181818 9:0.13636363 10:0.3181818 11:0.22727275 12:26 13:0.20930232 14:4 15:0.46551722 16:58 17:0.24137932 18:0.15517241 19:0.31034482 20:0.29310346 21:0.18518518 22:0.69999999 23:0.36363637 24:0.090909094 
0.8581929278678713 1:1 2:1 3:7 4:23 5:0.5 6:2 7:4 8:0.18181819 9:0.27272725 10:0.22727275 11:0.3181818 12:64 13:0.24444444 14:4 15:0.4677419 16:62 17:0.22580647 18:0.16129035 19:0.30645162 20:0.30645162 21:0.20689656 22:2 23:0.34999999 24:0.07692308 
1 4:24 5:0.625 6:2 7:1 8:0.08333331 9:0.4166667 10:0.20833331 11:0.2916667 12:7 13:0.125 14:4 15:0.6140351 16:57 17:0.15789473 18:0.28070176 19:0.3333333 20:0.2280702 21:0.086956523 22:0.8888889 
1 3:2 4:24 5:0.625 6:2 7:1 8:0.2916667 9:0.16666669 10:0.4583333 11:0.08333331 12:43 13:0.083333336 14:3 15:0.61904764 16:63 17:0.15873015 18:0.28571427 19:0.3333333 20:0.22222221 21:0.07692308 22:1.1 
1 3:6 4:22 5:0.5 6:2 7:2 8:0.40909094 9:0.13636363 10:0.36363637 11:0.090909064 12:3 13:0.13636364 14:2 15:0.37288135 16:59 17:0.2881356 18:0.16949153 19:0.20338982 20:0.33898306 21:0.12727273 22:0.89999998 24:0.090909094 
1 4:23 5:0.6086956 6:1 7:3 8:0.17391306 9:0.26086956 10:0.34782606 11:0.21739131 12:3 13:0.11111111 14:2 15:0.6333333 16:60 17:0.19999999 18:0.3 19:0.3333333 20:0.16666669 21:0.11111111 22:0.80000001 
1 3:1 4:23 5:0.6818182 6:1 7:3 8:0.18181819 9:0.36363637 10:0.3181818 11:0.13636363 12:42 13:0.11111111 14:1 15:0.6451613 16:62 17:0.19354838 18:0.30645162 19:0.33870965 20:0.16129035 21:0.10638298 22:1.2222222 
1 1:1 2:1 3:5 4:27 5:0.5909091 6:3 7:4 8:0.27272725 9:0.36363637 10:0.22727275 11:0.13636363 12:53 13:0.16666667 14:2 15:0.63235295 16:68 17:0.17647058 18:0.35294116 19:0.2794118 20:0.19117647 21:0.1724138 22:1.1666666 24:0.2 
1 3:3 4:25 5:0.5 6:2 7:3 8:0.16666669 9:0.125 10:0.375 11:0.3333333 12:6 13:0.14893617 14:2 15:0.4736842 16:57 17:0.24561405 18:0.2280702 19:0.24561405 20:0.28070176 21:0.16981132 22:0.55555558 23:0.090909094 24:0.33333334 
1 1:1 2:1 3:5 4:24 5:0.5 6:2 7:4 8:0.22727275 9:0.36363637 10:0.13636363 11:0.27272725 12:42 13:0.15555556 14:4 15:0.4915254 16:59 17:0.23728812 18:0.23728812 19:0.2542373 20:0.2711864 21:0.16363636 22:1.6666666 23:0.11111111 24:0.2 
1 3:3 4:25 5:0.5 6:2 7:3 8:0.08333331 9:0.25 10:0.25 11:0.4166667 12:4 13:0.125 14:1 15:0.530303 16:66 17:0.18181819 18:0.22727275 19:0.3030303 20:0.2878788 21:0.11111111 22:0.89999998 
1 3:4 4:22 5:0.52380955 6:2 7:3 8:0.38095236 9:0.19047618 10:0.3333333 11:0.09523809 12:47 13:0.14285715 14:2 15:0.516129 16:62 17:0.19354838 18:0.22580647 19:0.2903226 20:0.2903226 21:0.12 22:1.125 
1 1:3 2:1 3:8 4:22 5:0.5909091 6:1 7:2 8:0.13636363 9:0.22727275 10:0.36363637 11:0.27272725 12:7 13:0.17073171 14:4 15:0.4915254 16:59 17:0.2711864 18:0.20338982 19:0.2881356 20:0.23728812 21:0.18518518 22:0.18181819 24:0.23076923 
1 1:1 2:1 3:6 4:21 5:0.65 6:2 7:3 8:0.10000002 9:0.14999998 10:0.5 11:0.25 12:50 13:0.15000001 14:4 15:0.64912283 16:57 17:0.10526317 18:0.21052629 19:0.4385965 20:0.24561405 21:0.1923077 22:1 23:0.16666667 24:0.33333334 
0.5128299333096892 3:3 4:23 5:0.45454544 6:2 7:3 8:0.3181818 9:0.27272725 10:0.18181819 11:0.22727275 12:15 13:0.15555556 14:3 15:0.40350878 16:57 17:0.35087717 18:0.2280702 19:0.17543858 20:0.24561405 21:0.17647059 22:2.2 23:0.24137931 24:0.33333334 
1 1:1 2:1 3:5 4:22 5:0.5454545 6:1 7:2 8:0.22727275 9:0.27272725 10:0.27272725 11:0.22727275 12:51 13:0.1627907 14:2 15:0.40677965 16:59 17:0.33898306 18:0.220339 19:0.1864407 20:0.2542373 21:0.16981132 22:0.5 23:0.25925925 24:0.2 
1 3:4 4:22 5:0.6363636 6:2 7:2 9:0.18181819 10:0.45454544 11:0.36363637 12:3 13:0.27272728 14:3 15:0.56896555 16:58 17:0.13793105 18:0.24137932 19:0.32758623 20:0.29310346 21:0.30769232 22:1.6 24:0.5 
1 3:6 4:22 5:0.77272725 6:2 7:3 8:0.18181819 9:0.36363637 10:0.40909094 11:0.04545456 12:41 13:0.20930232 14:4 15:0.59016395 16:61 17:0.13114756 18:0.26229507 19:0.32786888 20:0.27868855 21:0.30909091 22:1.8333334 24:0.66666669 
0.2979502078056268 1:1 2:1 3:7 4:23 5:0.5652174 6:2 7:2 8:0.0869565 9:0.26086956 10:0.3043478 11:0.34782606 12:9 13:0.095238097 14:4 15:0.52542377 16:59 17:0.1864407 18:0.220339 19:0.30508476 20:0.2881356 21:0.090909094 22:0.45454547 24:0.07692308 
1 1:1 2:1 3:7 4:25 5:0.57142854 6:2 7:2 8:0.23809522 9:0.28571427 10:0.28571427 11:0.19047618 12:49 13:0.086956523 14:4 15:0.49206346 16:63 17:0.2063492 18:0.2063492 19:0.28571427 20:0.30158728 21:0.084745765 22:1.2222222 24:0.07692308 
1 3:2 4:22 5:0.47619045 6:1 7:3 8:0.09523809 9:0.14285713 10:0.3333333 11:0.4285714 12:4 13:0.11627907 14:4 15:0.58928573 16:56 17:0.14285713 18:0.28571427 19:0.3035714 20:0.26785713 21:0.10638298 22:1 
1 4:22 5:0.4285714 6:2 7:2 8:0.19047618 9:0.14285713 10:0.28571427 11:0.38095236 12:23 13:0.11627907 14:2 15:0.45454544 16:55 17:0.27272725 18:0.19999999 19:0.25454545 20:0.27272725 21:0.11627907 22:1.1111112 23:0.44186047 
0.794674139823393 3:2 4:22 5:0.5454545 6:2 7:2 8:0.27272725 9:0.40909094 10:0.13636363 11:0.18181819 12:58 13:0.11627907 14:4 15:0.4745763 16:59 17:0.2542373 18:0.20338982 19:0.2711864 20:0.2711864 21:0.10638298 22:1.1 23:0.48717949 
1 3:4 4:21 5:0.52380955 6:2 7:2 8:0.3333333 9:0.19047618 10:0.3333333 11:0.14285713 12:37 13:0.19047619 14:4 15:0.5090909 16:55 17:0.23636365 18:0.23636365 19:0.27272725 20:0.25454545 21:0.16 22:0.625 
1 3:6 4:20 5:0.5 6:2 7:2 8:0.25 9:0.3 10:0.19999999 11:0.25 12:7 13:0.2 14:3 15:0.39999998 16:55 17:0.27272725 18:0.21818179 19:0.18181819 20:0.3272727 21:0.25490198 22:0.69999999 23:0.23076923 24:0.45454547 
0.1264630108022926 1:3 2:1 3:8 4:22 5:0.40909094 6:2 7:4 8:0.27272725 9:0.18181819 10:0.22727275 11:0.3181818 12:44 13:0.25581396 14:3 15:0.41935486 16:62 17:0.2580645 18:0.2096774 19:0.2096774 20:0.32258064 21:0.27586207 22:2 24:0.33333334 
0.5100261471656176 1:1 2:1 3:4 4:23 5:0.6086956 6:2 7:3 8:0.0869565 9:0.21739131 10:0.39130437 11:0.3043478 12:15 13:0.18181819 14:2 15:0.55172414 16:58 17:0.17241377 18:0.24137932 19:0.31034482 20:0.2758621 21:0.17647059 22:1.1428572 23:0.14285715 24:0.14285715 
1 1:1 2:1 3:5 4:23 5:0.57142854 6:2 7:3 8:0.28571427 9:0.3333333 10:0.23809522 11:0.14285713 12:53 13:0.18181819 14:4 15:0.56666666 16:60 17:0.16666669 18:0.25 19:0.31666666 20:0.26666665 21:0.16981132 22:0.45454547 23:0.15384616 24:0.11111111 
1 3:2 4:23 5:0.45454544 6:3 7:4 8:0.3181818 9:0.22727275 10:0.22727275 11:0.22727275 12:14 13:0.22727273 14:3 15:0.44067794 16:59 17:0.2711864 18:0.220339 19:0.220339 20:0.2881356 21:0.20833333 22:1.4 23:0.2857143 
1 3:3 4:24 5:0.47826087 6:3 7:4 8:0.21739131 9:0.26086956 10:0.21739131 11:0.3043478 12:52 13:0.30434781 14:2 15:0.44444442 16:63 17:0.25396824 18:0.2063492 19:0.23809522 20:0.30158728 21:0.26923078 22:0.5 23:0.16666667 
1 3:6 4:22 5:0.6363636 6:2 7:3 8:0.090909064 9:0.3181818 10:0.3181818 11:0.27272725 12:46 13:0.27272728 14:2 15:0.59375 16:64 17:0.125 18:0.265625 19:0.328125 20:0.28125 21:0.25 22:1 24:0.16666667 
1 1:1 2:2 3:7 4:24 5:0.5909091 6:2 7:5 8:0.18181819 9:0.22727275 10:0.36363637 11:0.22727275 12:46 13:0.24444444 14:1 15:0.5625 16:64 17:0.203125 18:0.28125 19:0.28125 20:0.234375 21:0.24137931 22:1.6666666 24:0.23076923 
1 1:1 2:2 3:5 4:23 5:0.6363636 6:4 7:4 8:0.18181819 9:0.3181818 10:0.3181818 11:0.18181819 12:15 13:0.27272728 14:3 15:0.56896555 16:58 17:0.17241377 18:0.25862068 19:0.31034482 20:0.25862068 21:0.28301886 22:0.80000001 23:0.14285715 24:0.33333334 
1 1:1 2:2 3:6 4:24 5:0.5652174 6:4 7:4 8:0.21739131 9:0.21739131 10:0.34782606 11:0.21739131 12:52 13:0.30434781 14:3 15:0.5483871 16:62 17:0.19354838 18:0.24193549 19:0.30645162 20:0.2580645 21:0.29824561 22:2.25 23:0.083333336 24:0.27272728 
1 3:2 4:22 5:0.36363637 6:3 7:2 8:0.3181818 9:0.13636363 10:0.22727275 11:0.3181818 12:16 13:0.20930232 14:3 15:0.4528302 16:53 17:0.16981131 18:0.18867922 19:0.26415092 20:0.3773585 21:0.23404256 22:0.80000001 23:0.22580644 24:0.5 
1 1:1 2:1 3:4 4:23 5:0.45454544 6:3 7:3 8:0.13636363 9:0.22727275 10:0.22727275 11:0.40909094 12:50 13:0.2 14:2 15:0.44067794 16:59 17:0.1864407 18:0.1864407 19:0.2542373 20:0.37288135 21:0.20754717 22:1.2857143 23:0.28 24:0.25 
1 1:1 2:1 3:4 4:23 5:0.40909094 6:1 7:3 8:0.27272725 9:0.3181818 10:0.090909064 11:0.3181818 12:31 13:0.15555556 14:2 15:0.4385965 16:57 17:0.21052629 18:0.21052629 19:0.2280702 20:0.35087717 21:0.16981132 22:0.55555558 23:0.32258064 24:0.25 
1 1:1 2:1 3:6 4:22 5:0.5 6:1 7:3 8:0.13636363 9:0.18181819 10:0.3181818 11:0.36363637 12:67 13:0.20930232 14:2 15:0.45762712 16:59 17:0.20338982 18:0.23728812 19:0.220339 20:0.33898306 21:0.2 22:2 23:0.30000001 24:0.16666667 
0.1460834776780042 1:2 2:1 3:6 4:24 5:0.4583333 6:3 7:3 8:0.125 9:0.08333331 10:0.375 11:0.4166667 12:58 13:0.17391305 14:2 15:0.52459013 16:61 17:0.18032789 18:0.19672132 19:0.32786888 20:0.29508197 21:0.20689656 22:1.1111112 23:0.2173913 24:0.33333334 
0.8821459691159028 1:2 2:1 3:6 4:22 5:0.5 6:2 7:2 8:0.27272725 9:0.22727275 10:0.27272725 11:0.22727275 12:14 13:0.14285715 14:2 15:0.4915254 16:59 17:0.220339 18:0.23728812 19:0.2542373 20:0.2881356 21:0.15384616 22:0.80000001 23:0.23076923 24:0.2 
1 3:11 4:22 5:0.5454545 6:2 7:4 8:0.18181819 9:0.22727275 10:0.3181818 11:0.27272725 12:15 13:0.22727273 14:3 15:0.52380955 16:63 17:0.23809522 18:0.25396824 19:0.26984125 20:0.23809522 21:0.28813559 22:0.69999999 23:0.21428572 24:0.46666667 
1 3:14 4:22 5:0.8181818 6:1 7:3 8:0.090909064 9:0.22727275 10:0.5909091 11:0.090909064 12:14 13:0.13636364 14:3 15:0.6 16:70 17:0.15714288 18:0.27142859 19:0.32857144 20:0.24285716 21:0.23809524 22:0.8888889 23:0.15384616 24:0.47368422 
1 1:9 2:1 3:16 4:22 5:0.6363636 6:1 7:3 8:0.18181819 9:0.45454544 10:0.18181819 11:0.18181819 12:64 13:0.13636364 14:2 15:0.5810811 16:74 17:0.16216218 18:0.25675678 19:0.3243243 20:0.25675678 21:0.2238806 22:1.5 23:0.18181819 24:0.39130434 
1 1:12 2:1 3:17 4:21 5:0.57142854 6:1 7:5 8:0.28571427 9:0.23809522 10:0.3333333 11:0.14285713 12:51 13:0.23809524 14:2 15:0.61764705 16:68 17:0.25 18:0.36764705 19:0.25 20:0.13235295 21:0.34375 22:0.77777779 24:0.54545456 
0.6148136422335559 1:2 2:1 3:6 4:22 5:0.5909091 6:2 7:2 8:0.18181819 9:0.3181818 10:0.27272725 11:0.22727275 12:15 13:0.13636364 14:1 15:0.5762712 16:59 17:0.1864407 18:0.2881356 19:0.2881356 20:0.23728812 21:0.16363636 22:1 23:0.23076923 24:0.27272728 
1 1:1 2:1 3:3 4:22 5:0.6363636 6:1 7:3 8:0.22727275 9:0.45454544 10:0.18181819 11:0.13636363 12:7 13:0.13636364 14:1 15:0.5925926 16:54 17:0.24074072 18:0.3333333 19:0.25925928 20:0.16666669 21:0.16 22:1 23:0.16666667 24:0.33333334 
1 1:1 2:1 3:5 4:22 5:0.5454545 6:1 7:3 8:0.22727275 9:0.22727275 10:0.3181818 11:0.22727275 12:41 13:0.18181819 14:2 15:0.56896555 16:58 17:0.25862068 18:0.32758623 19:0.24137932 20:0.17241377 21:0.18518518 22:1.2857143 24:0.2 
1 1:5 2:1 3:8 4:23 5:0.5909091 6:3 7:2 8:0.13636363 9:0.22727275 10:0.36363637 11:0.27272725 12:3 13:0.15555556 14:4 15:0.484375 16:64 17:0.234375 18:0.25 19:0.234375 20:0.28125 21:0.26666668 22:2.6666667 24:0.60000002 
1 3:7 4:22 5:0.36363637 6:3 7:1 8:0.40909094 9:0.22727275 10:0.13636363 11:0.22727275 12:43 13:0.1627907 14:4 15:0.46666664 16:60 17:0.25 18:0.25 19:0.21666664 20:0.28333336 21:0.2857143 22:0.71428573 24:0.69230771 
1 1:6 2:3 3:29 4:22 5:0.5909091 6:1 7:3 8:0.3181818 9:0.36363637 10:0.22727275 11:0.090909064 12:4 13:0.1627907 14:4 15:0.58762884 16:97 17:0.16494846 18:0.2886598 19:0.2989691 20:0.2474227 21:0.24731183 22:0.8888889 23:0.33333334 24:0.31999999 
1 1:6 2:4 3:31 4:23 5:0.5909091 6:2 7:4 8:0.04545456 9:0.22727275 10:0.36363637 11:0.36363637 12:82 13:0.2 14:4 15:0.592233 16:103 17:0.15533978 18:0.29126215 19:0.30097085 20:0.25242716 21:0.25252524 22:1.5 24:0.2962963 
1 4:23 5:0.5652174 6:2 7:2 8:0.26086956 9:0.21739131 10:0.34782606 11:0.17391306 12:10 13:0.13636364 14:3 15:0.5185185 16:54 17:0.25925928 18:0.2777778 19:0.24074072 20:0.22222221 21:0.13636364 22:0.89999998 
1 3:2 4:23 5:0.57142854 6:2 7:3 8:0.14285713 9:0.3333333 10:0.23809522 11:0.28571427 12:45 13:0.13636364 14:4 15:0.51724136 16:58 17:0.25862068 18:0.2758621 19:0.24137932 20:0.2241379 21:0.125 22:1 
1 1:1 2:1 3:8 4:24 5:0.6363636 6:1 7:4 8:0.04545456 9:0.3181818 10:0.3181818 11:0.3181818 12:5 13:0.18181819 14:3 15:0.625 16:64 17:0.203125 18:0.296875 19:0.328125 20:0.171875 21:0.15254237 22:2 23:0.27272728 24:0.06666667 
1 1:1 2:1 3:10 4:24 5:0.6666666 6:1 7:4 8:0.2916667 9:0.2916667 10:0.375 11:0.041666687 12:47 13:0.18181819 14:3 15:0.6212121 16:66 17:0.21212119 18:0.2878788 19:0.3333333 20:0.16666669 21:0.18032786 22:2 23:0.11111111 24:0.17647059 
1 1:1 2:1 3:5 4:24 5:0.5454545 6:2 7:3 8:0.27272725 9:0.18181819 10:0.36363637 11:0.18181819 12:43 13:0.17391305 14:1 15:0.5737705 16:61 17:0.21311474 18:0.29508197 19:0.27868855 20:0.21311474 21:0.16363636 22:0.63636363 24:0.11111111 
1 3:4 4:24 5:0.4583333 6:1 7:3 8:0.3333333 9:0.2916667 10:0.16666669 11:0.20833331 12:6 13:0.13043478 14:3 15:0.39999998 16:60 17:0.31666666 18:0.18333334 19:0.21666664 20:0.28333336 21:0.13207547 22:0.66666669 24:0.14285715 
1 1:1 2:4 3:18 4:12 5:0.16666669 6:1 7:1 8:0.3333333 9:0.08333331 10:0.08333331 11:0.5 12:56 13:0.083333336 14:3 15:0.421875 16:64 17:0.296875 18:0.1875 19:0.234375 20:0.28125 21:0.12280702 22:1.2857143 24:0.15151516 
1 4:24 5:0.47826087 6:2 7:2 8:0.17391306 9:0.0869565 10:0.39130437 11:0.34782606 12:13 13:0.15555556 14:4 15:0.4727273 16:55 17:0.23636365 18:0.21818179 19:0.25454545 20:0.2909091 21:0.15555556 22:0.44444445 23:0.090909094 
1 3:5 4:22 5:0.5454545 6:1 7:1 8:0.27272725 9:0.22727275 10:0.3181818 11:0.18181819 12:49 13:0.18181819 14:2 15:0.4745763 16:59 17:0.2881356 18:0.20338982 19:0.2711864 20:0.23728812 21:0.14814815 22:0.625 23:0.13043478 
1 3:2 4:22 5:0.72727275 6:2 7:3 8:0.090909064 9:0.27272725 10:0.45454544 11:0.18181819 12:8 13:0.1627907 14:1 15:0.67857146 16:56 17:0.1964286 18:0.375 19:0.3035714 20:0.125 21:0.17391305 22:0.625 23:0.14285715 24:0.33333334 
0.5428243785590677 1:1 2:1 3:5 4:20 5:0.6 6:2 7:2 8:0.25 9:0.39999998 10:0.19999999 11:0.14999998 12:45 13:0.15000001 14:3 15:0.6551724 16:58 17:0.20689654 18:0.36206895 19:0.29310346 20:0.13793105 21:0.16666667 22:2 23:0.16666667 24:0.25 
0.1610908865827412 3:3 4:23 5:0.47826087 6:1 7:2 8:0.13043481 9:0.34782606 10:0.13043481 11:0.39130437 12:4 13:0.086956523 15:0.48214287 16:56 17:0.1785714 18:0.23214287 19:0.25 20:0.33928573 21:0.15384616 22:0.63636363 24:0.66666669 
1 3:4 4:25 5:0.5909091 6:2 7:3 8:0.18181819 9:0.13636363 10:0.45454544 11:0.22727275 12:39 13:0.26086956 14:2 15:0.64406776 16:59 17:0.16949153 18:0.30508476 19:0.33898306 20:0.1864407 21:0.22222222 
1 3:3 4:26 5:0.5652174 6:3 7:4 8:0.17391306 9:0.3043478 10:0.26086956 11:0.26086956 12:4 13:0.22448979 14:1 15:0.55 16:60 17:0.19999999 18:0.3 19:0.25 20:0.25 21:0.2 22:1.6666666 
1 3:3 4:23 5:0.5217391 6:2 7:1 8:0.21739131 9:0.17391306 10:0.34782606 11:0.26086956 12:10 13:0.1627907 14:3 15:0.51666665 16:60 17:0.21666664 18:0.26666665 19:0.25 20:0.26666665 21:0.14285715 22:3 23:0.22222222 
1 3:6 4:21 5:0.57142854 6:2 7:1 8:0.14285713 9:0.3333333 10:0.23809522 11:0.28571427 12:50 13:0.14285715 14:4 15:0.53225803 16:62 17:0.2096774 18:0.2580645 19:0.27419353 20:0.2580645 21:0.17647059 22:1.5714285 23:0.125 24:0.33333334 
1 1:5 2:1 3:18 4:24 5:0.5454545 6:3 7:2 8:0.18181819 9:0.13636363 10:0.40909094 11:0.27272725 12:6 13:0.17391305 14:3 15:0.6375 16:80 17:0.125 18:0.28750002 19:0.35000002 20:0.23750001 21:0.18421052 22:1 23:0.40000001 24:0.2 
1 1:5 2:2 3:20 4:23 5:0.6521739 6:3 7:2 8:0.17391306 9:0.34782606 10:0.3043478 11:0.17391306 12:64 13:0.22727273 14:3 15:0.63414633 16:82 17:0.12195122 18:0.28048778 19:0.35365856 20:0.24390244 21:0.20512821 22:1.6666666 23:0.25 24:0.17647059 
1 1:2 2:1 3:6 4:23 5:0.45454544 6:2 7:3 8:0.3181818 9:0.13636363 10:0.3181818 11:0.22727275 12:42 13:0.15555556 14:2 15:0.44262296 16:61 17:0.21311474 18:0.19672132 19:0.24590164 20:0.3442623 21:0.16363636 22:1.125 24:0.2 
1 1:1 2:2 3:8 4:23 5:0.5652174 6:4 7:2 8:0.26086956 9:0.26086956 10:0.3043478 11:0.17391306 12:6 13:0.19047619 14:2 15:0.5409836 16:61 17:0.24590164 18:0.24590164 19:0.29508197 20:0.21311474 21:0.19298245 22:0.90909094 23:0.55555558 24:0.2 
1 1:1 2:2 3:8 4:26 5:0.52380955 6:4 7:2 8:0.28571427 9:0.23809522 10:0.28571427 11:0.19047618 12:48 13:0.27659574 14:2 15:0.530303 16:66 17:0.25757575 18:0.25757575 19:0.27272725 20:0.21212119 21:0.25806451 22:5.5 24:0.2 
1 4:24 5:0.5 6:1 7:3 8:0.22727275 9:0.36363637 10:0.13636363 11:0.27272725 12:14 13:0.17391305 14:2 15:0.375 16:56 17:0.3214286 18:0.1785714 19:0.1964286 20:0.3035714 21:0.17391305 22:0.66666669 23:0.1724138 
0.5481602941049095 3:2 4:22 5:0.40909094 6:1 7:3 8:0.3181818 9:0.090909064 10:0.3181818 11:0.27272725 12:48 13:0.19047619 14:2 15:0.375 16:56 17:0.3214286 18:0.1785714 19:0.1964286 20:0.3035714 21:0.17391305 22:1.3333334 23:0.1724138 
1 3:1 4:22 5:0.4285714 6:1 7:3 8:0.14285713 9:0.14285713 10:0.28571427 11:0.4285714 12:12 13:0.11627907 14:3 15:0.4736842 16:57 17:0.24561405 18:0.2280702 19:0.24561405 20:0.28070176 21:0.11111111 22:1 23:0.18181819 
1 3:1 4:23 5:0.5909091 6:2 7:3 8:0.27272725 9:0.40909094 10:0.18181819 11:0.13636363 12:6 13:0.18181819 14:3 15:0.59615386 16:52 17:0.15384614 18:0.26923078 19:0.32692307 20:0.25 21:0.17391305 22:0.69999999 23:0.2 
1 3:2 4:23 5:0.5 6:2 7:3 8:0.090909064 9:0.090909064 10:0.40909094 11:0.40909094 12:37 13:0.22727273 14:3 15:0.5925926 16:54 17:0.14814812 18:0.25925928 19:0.3333333 20:0.25925928 21:0.20833333 22:1.8 
1 1:2 2:2 3:23 4:20 5:0.57894737 6:2 7:4 8:0.21052629 9:0.31578946 10:0.2631579 11:0.21052629 12:6 13:0.33333334 14:2 15:0.5 16:94 17:0.20212764 18:0.24468082 19:0.25531918 20:0.29787236 21:0.21428572 22:0.85714287 23:0.25 24:0.11111111 
1 1:1 2:1 3:6 4:24 5:0.45454544 6:3 7:4 8:0.18181819 9:0.22727275 10:0.22727275 11:0.36363637 12:46 13:0.2173913 14:3 15:0.44444442 16:63 17:0.2063492 18:0.2063492 19:0.23809522 20:0.34920633 21:0.19298245 22:0.2 23:0.25 24:0.090909094 
1 1:1 2:2 3:11 4:22 5:0.6363636 6:1 7:5 8:0.22727275 9:0.18181819 10:0.45454544 11:0.13636363 12:8 13:0.22727273 14:2 15:0.5857143 16:70 17:0.1857143 18:0.25714284 19:0.32857144 20:0.22857141 21:0.1875 22:1.375 24:0.1 
-0.5243546577658982 1:1 2:2 3:6 4:22 5:0.5909091 6:2 7:3 8:0.3181818 9:0.40909094 10:0.18181819 11:0.090909064 12:46 13:0.18181819 14:3 15:0.640625 16:64 17:0.21875 18:0.34375 19:0.296875 20:0.140625 21:0.18518518 22:1.5714285 24:0.2 
-1 1:1 2:2 3:6 4:22 5:0.5909091 6:2 7:3 8:0.3181818 9:0.40909094 10:0.18181819 11:0.090909064 12:46 13:0.18181819 14:3 15:0.640625 16:64 17:0.21875 18:0.34375 19:0.296875 20:0.140625 21:0.18518518 22:1.5714285 24:0.2 
-1 1:1 2:2 3:6 4:22 5:0.5909091 6:2 7:3 8:0.3181818 9:0.40909094 10:0.18181819 11:0.090909064 12:46 13:0.18181819 14:3 15:0.640625 16:64 17:0.21875 18:0.34375 19:0.296875 20:0.140625 21:0.18518518 22:1.5714285 24:0.2 
-0.6518022455159038 1:4 2:1 3:7 4:22 5:0.45454544 6:1 7:1 8:0.04545456 9:0.27272725 10:0.18181819 11:0.5 12:44 13:0.045454547 14:3 15:0.47540987 16:61 17:0.26229507 18:0.19672132 19:0.27868855 20:0.26229507 21:0.15789473 22:1 24:0.53846157 
-0.0378528055163594 3:7 4:22 5:0.6818182 6:1 7:4 8:0.22727275 9:0.27272725 10:0.40909094 11:0.090909064 12:48 13:0.14285715 14:1 15:0.6825397 16:63 17:0.14285713 18:0.3333333 19:0.34920633 20:0.17460316 21:0.18518518 22:0.72727275 23:0.16666667 24:0.33333334 
-0.06184311714684221 3:1 4:23 5:0.34782606 6:1 7:2 8:0.39130437 9:0.17391306 10:0.17391306 11:0.26086956 12:11 13:0.17391305 14:1 15:0.40677965 16:59 17:0.2542373 18:0.1864407 19:0.220339 20:0.33898306 21:0.16666667 22:0.5 23:0.2 
-0.2578402800828697 3:3 4:22 5:0.8181818 6:2 7:3 8:0.04545456 9:0.40909094 10:0.40909094 11:0.13636363 12:42 13:0.25581396 14:2 15:0.68333334 16:60 17:0.13333333 18:0.28333336 19:0.39999998 20:0.18333334 21:0.22448979 22:0.45454547 
-0.8318232744491095 1:1 2:1 3:4 4:24 5:0.6086956 6:4 7:4 8:0.21739131 9:0.3043478 10:0.3043478 11:0.17391306 12:15 13:0.26086956 14:3 15:0.56896555 16:58 17:0.17241377 18:0.25862068 19:0.31034482 20:0.25862068 21:0.28301886 22:0.80000001 23:0.14285715 24:0.42857143 
-1 1:1 2:2 3:6 4:22 5:0.5909091 6:2 7:3 8:0.3181818 9:0.40909094 10:0.18181819 11:0.090909064 12:46 13:0.18181819 14:3 15:0.640625 16:64 17:0.21875 18:0.34375 19:0.296875 20:0.140625 21:0.18518518 22:1.5714285 24:0.2 
-1 3:6 4:23 5:0.6086956 6:2 7:3 8:0.17391306 9:0.26086956 10:0.34782606 11:0.21739131 12:41 13:0.2 14:3 15:0.55 16:60 17:0.19999999 18:0.3 19:0.25 20:0.25 21:0.2 22:1.8 24:0.2 
-0.01588058536176992 3:1 4:24 5:0.5217391 6:1 7:2 8:0.39130437 9:0.21739131 10:0.3043478 11:0.0869565 12:21 13:0.063829787 14:4 15:0.5081967 16:61 17:0.22950822 18:0.26229507 19:0.24590164 20:0.26229507 21:0.06122449 22:0.89999998 23:0.36585367 
-0.1589131849183557 1:1 2:1 3:6 4:24 5:0.5652174 6:2 7:4 8:0.26086956 9:0.3043478 10:0.26086956 11:0.17391306 12:41 13:0.19148937 14:1 15:0.4918033 16:61 17:0.22950822 18:0.21311474 19:0.27868855 20:0.27868855 21:0.1724138 22:1.6666666 24:0.090909094 
-0.5344986662177285 1:1 2:1 3:4 4:22 5:0.5454545 6:1 7:3 8:0.18181819 9:0.40909094 10:0.13636363 11:0.27272725 12:7 13:0.23809524 14:3 15:0.5423729 16:59 17:0.13559324 18:0.2711864 19:0.2711864 20:0.32203388 21:0.23999999 22:1.6 24:0.25 
-0.587231386963158 3:6 4:25 5:0.5 6:2 7:4 8:0.40909094 9:0.18181819 10:0.3181818 11:0.090909064 12:44 13:0.19148937 14:4 15:0.5 16:60 17:0.21666664 18:0.28333336 19:0.21666664 20:0.28333336 21:0.19298245 22:1.1666666 23:0.2 24:0.2 
-0.5330546552082785 1:2 2:2 3:10 4:22 5:0.5454545 6:2 7:3 8:0.04545456 9:0.40909094 10:0.13636363 11:0.40909094 12:5 13:0.17073171 14:3 15:0.48387098 16:62 17:0.22580647 18:0.27419353 19:0.2096774 20:0.2903226 21:0.18644068 22:0.80000001 23:0.25 24:0.22222222 
-1 1:4 2:1 3:7 4:22 5:0.45454544 6:1 7:1 8:0.04545456 9:0.27272725 10:0.18181819 11:0.5 12:44 13:0.045454547 14:3 15:0.47540987 16:61 17:0.26229507 18:0.19672132 19:0.27868855 20:0.26229507 21:0.15789473 22:1 24:0.53846157 
-1 3:7 4:22 5:0.6818182 6:1 7:4 8:0.22727275 9:0.27272725 10:0.40909094 11:0.090909064 12:48 13:0.14285715 14:1 15:0.6825397 16:63 17:0.14285713 18:0.3333333 19:0.34920633 20:0.17460316 21:0.18518518 22:0.72727275 23:0.16666667 24:0.33333334 
-1 3:1 4:23 5:0.34782606 6:1 7:2 8:0.39130437 9:0.17391306 10:0.17391306 11:0.26086956 12:11 13:0.17391305 14:1 15:0.40677965 16:59 17:0.2542373 18:0.1864407 19:0.220339 20:0.33898306 21:0.16666667 22:0.5 23:0.2 
-1 3:1 4:24 5:0.6521739 6:2 7:4 8:0.13043481 9:0.34782606 10:0.3043478 11:0.21739131 12:6 13:0.17391305 14:1 15:0.5423729 16:59 17:0.20338982 18:0.2542373 19:0.2881356 20:0.2542373 21:0.16666667 22:0.45454547 23:0.40000001 
-1 3:3 4:22 5:0.8181818 6:2 7:3 8:0.04545456 9:0.40909094 10:0.40909094 11:0.13636363 12:42 13:0.25581396 14:2 15:0.68333334 16:60 17:0.13333333 18:0.28333336 19:0.39999998 20:0.18333334 21:0.22448979 22:0.45454547 
-0.3472317030807175 3:3 4:22 5:0.45454544 6:1 7:4 8:0.27272725 9:0.18181819 10:0.27272725 11:0.27272725 12:54 13:0.18181819 14:1 15:0.42622954 16:61 17:0.18032789 18:0.18032789 19:0.24590164 20:0.39344263 21:0.16 22:1 23:0.1724138 
-0.7545521012657027 3:1 4:22 5:0.40909094 6:3 7:2 8:0.40909094 9:0.22727275 10:0.18181819 11:0.18181819 12:12 13:0.22727273 14:4 15:0.4814815 16:54 17:0.25925928 18:0.22222221 19:0.25925928 20:0.25925928 21:0.2173913 22:1.1428572 23:0.090909094 
-1 1:2 2:1 3:7 4:22 5:0.71428573 6:1 7:3 8:0.19047618 9:0.38095236 10:0.3333333 11:0.09523809 12:16 13:0.1627907 14:4 15:0.6779661 16:59 17:0.20338982 18:0.30508476 19:0.37288135 20:0.11864406 21:0.17857143 22:1.125 23:0.18518518 24:0.23076923 
-0.09034309510192502 3:6 4:23 5:0.5 6:2 7:4 8:0.22727275 9:0.3181818 10:0.18181819 11:0.27272725 12:5 13:0.2 14:3 15:0.39999998 16:60 17:0.26666665 18:0.21666664 19:0.18333334 20:0.3333333 21:0.25 22:0.5 23:0.25 24:0.45454547 
-1 1:1 2:1 3:4 4:24 5:0.6086956 6:4 7:4 8:0.21739131 9:0.3043478 10:0.3043478 11:0.17391306 12:15 13:0.26086956 14:3 15:0.56896555 16:58 17:0.17241377 18:0.25862068 19:0.31034482 20:0.25862068 21:0.28301886 22:0.80000001 23:0.14285715 24:0.42857143 
-0.6299917506121034 1:2 2:1 3:6 4:22 5:0.5909091 6:2 7:2 8:0.22727275 9:0.22727275 10:0.36363637 11:0.18181819 12:52 13:0.13636364 14:3 15:0.5762712 16:59 17:0.1864407 18:0.2881356 19:0.2881356 20:0.23728812 21:0.16363636 22:1 23:0.23076923 24:0.27272728 
-1 1:1 2:2 3:6 4:22 5:0.5909091 6:2 7:3 8:0.3181818 9:0.40909094 10:0.18181819 11:0.090909064 12:46 13:0.18181819 14:3 15:0.640625 16:64 17:0.21875 18:0.34375 19:0.296875 20:0.140625 21:0.18518518 22:1.5714285 24:0.2 
-0.3137339916090485 3:4 4:23 5:0.5909091 6:2 7:3 8:0.18181819 9:0.36363637 10:0.22727275 11:0.22727275 12:4 13:0.20930232 14:4 15:0.67857146 16:56 17:0.14285713 18:0.3214286 19:0.35714287 20:0.1785714 21:0.17647059 22:0.625 
-1 3:6 4:23 5:0.6086956 6:2 7:3 8:0.17391306 9:0.26086956 10:0.34782606 11:0.21739131 12:41 13:0.2 14:3 15:0.55 16:60 17:0.19999999 18:0.3 19:0.25 20:0.25 21:0.2 22:1.8 24:0.2 
-1 3:1 4:24 5:0.5217391 6:1 7:2 8:0.39130437 9:0.21739131 10:0.3043478 11:0.0869565 12:21 13:0.063829787 14:4 15:0.5081967 16:61 17:0.22950822 18:0.26229507 19:0.24590164 20:0.26229507 21:0.06122449 22:0.89999998 23:0.36585367 
-1 1:1 2:1 3:6 4:24 5:0.5652174 6:2 7:4 8:0.26086956 9:0.3043478 10:0.26086956 11:0.17391306 12:41 13:0.19148937 14:1 15:0.4918033 16:61 17:0.22950822 18:0.21311474 19:0.27868855 20:0.27868855 21:0.1724138 22:1.6666666 24:0.090909094 
-1 1:1 2:1 3:4 4:22 5:0.5454545 6:1 7:3 8:0.18181819 9:0.40909094 10:0.13636363 11:0.27272725 12:7 13:0.23809524 14:3 15:0.5423729 16:59 17:0.13559324 18:0.2711864 19:0.2711864 20:0.32203388 21:0.23999999 22:1.6 24:0.25 
-0.191313939869279 3:6 4:21 5:0.61904764 6:2 7:3 8:0.19047618 9:0.14285713 10:0.47619045 11:0.19047618 12:7 13:0.19047619 14:2 15:0.59016395 16:61 17:0.14754099 18:0.24590164 19:0.3442623 20:0.26229507 21:0.20754717 22:0.89999998 23:0.11111111 24:0.27272728 
-1 3:6 4:25 5:0.5 6:2 7:4 8:0.40909094 9:0.18181819 10:0.3181818 11:0.090909064 12:44 13:0.19148937 14:4 15:0.5 16:60 17:0.21666664 18:0.28333336 19:0.21666664 20:0.28333336 21:0.19298245 22:1.1666666 23:0.2 24:0.2 
-1 1:2 2:2 3:10 4:22 5:0.5454545 6:2 7:3 8:0.04545456 9:0.40909094 10:0.13636363 11:0.40909094 12:5 13:0.17073171 14:3 15:0.48387098 16:62 17:0.22580647 18:0.27419353 19:0.2096774 20:0.2903226 21:0.18644068 22:0.80000001 23:0.25 24:0.22222222 
-1 1:4 2:1 3:7 4:22 5:0.45454544 6:1 7:1 8:0.04545456 9:0.27272725 10:0.18181819 11:0.5 12:44 13:0.045454547 14:3 15:0.47540987 16:61 17:0.26229507 18:0.19672132 19:0.27868855 20:0.26229507 21:0.15789473 22:1 24:0.53846157 
-0.2728257187100537 3:3 4:25 5:0.48000002 6:1 7:1 8:0.48000002 9:0.12000001 10:0.36 11:0.04000002 12:6 13:0.12 14:2 15:0.45762712 16:59 17:0.2711864 18:0.1864407 19:0.2711864 20:0.2711864 21:0.16363636 22:2.5 24:0.60000002 
-1 3:7 4:22 5:0.6818182 6:1 7:4 8:0.22727275 9:0.27272725 10:0.40909094 11:0.090909064 12:48 13:0.14285715 14:1 15:0.6825397 16:63 17:0.14285713 18:0.3333333 19:0.34920633 20:0.17460316 21:0.18518518 22:0.72727275 23:0.16666667 24:0.33333334 
-1 3:1 4:23 5:0.34782606 6:1 7:2 8:0.39130437 9:0.17391306 10:0.17391306 11:0.26086956 12:11 13:0.17391305 14:1 15:0.40677965 16:59 17:0.2542373 18:0.1864407 19:0.220339 20:0.33898306 21:0.16666667 22:0.5 23:0.2 
-1 3:1 4:24 5:0.6521739 6:2 7:4 8:0.13043481 9:0.34782606 10:0.3043478 11:0.21739131 12:6 13:0.17391305 14:1 15:0.5423729 16:59 17:0.20338982 18:0.2542373 19:0.2881356 20:0.2542373 21:0.16666667 22:0.45454547 23:0.40000001 
-1 3:3 4:22 5:0.8181818 6:2 7:3 8:0.04545456 9:0.40909094 10:0.40909094 11:0.13636363 12:42 13:0.25581396 14:2 15:0.68333334 16:60 17:0.13333333 18:0.28333336 19:0.39999998 20:0.18333334 21:0.22448979 22:0.45454547 
-1 4:26 5:0.5 6:2 7:3 8:0.08333331 9:0.2916667 10:0.20833331 11:0.4166667 12:4 13:0.2 14:1 15:0.4464286 16:56 17:0.21428573 18:0.1964286 19:0.25 20:0.33928573 21:0.13043478 22:1.6 
-1 1:2 2:1 3:8 4:21 5:0.57142854 6:1 7:3 8:0.19047618 9:0.3333333 10:0.23809522 11:0.23809522 12:48 13:0.19047619 14:2 15:0.5833334 16:60 17:0.21666664 18:0.3333333 19:0.25 20:0.19999999 21:0.21428572 22:1.25 24:0.2857143 
-1 3:3 4:22 5:0.45454544 6:1 7:4 8:0.27272725 9:0.18181819 10:0.27272725 11:0.27272725 12:54 13:0.18181819 14:1 15:0.42622954 16:61 17:0.18032789 18:0.18032789 19:0.24590164 20:0.39344263 21:0.16 22:1 23:0.1724138 
-1 3:1 4:22 5:0.40909094 6:3 7:2 8:0.40909094 9:0.22727275 10:0.18181819 11:0.18181819 12:12 13:0.22727273 14:4 15:0.4814815 16:54 17:0.25925928 18:0.22222221 19:0.25925928 20:0.25925928 21:0.2173913 22:1.1428572 23:0.090909094 
-0.771764272298277 1:2 2:1 3:10 4:22 5:0.5454545 6:1 7:4 8:0.27272725 9:0.27272725 10:0.27272725 11:0.18181819 12:50 13:0.14285715 14:3 15:0.530303 16:66 17:0.22727275 18:0.22727275 19:0.3030303 20:0.24242425 21:0.13333334 22:1.2857143 24:0.11111111 
-0.9953274187098381 1:1 2:1 3:4 4:23 5:0.6363636 6:3 7:2 8:0.090909064 9:0.36363637 10:0.27272725 11:0.27272725 12:5 13:0.15555556 14:4 15:0.57894737 16:57 17:0.19298244 18:0.28070176 19:0.2982456 20:0.2280702 21:0.16981132 22:1.125 23:0.25 24:0.25 
-1 1:2 2:1 3:7 4:22 5:0.71428573 6:1 7:3 8:0.19047618 9:0.38095236 10:0.3333333 11:0.09523809 12:16 13:0.1627907 14:4 15:0.6779661 16:59 17:0.20338982 18:0.30508476 19:0.37288135 20:0.11864406 21:0.17857143 22:1.125 23:0.18518518 24:0.23076923 
-1 1:2 2:1 3:6 4:23 5:0.6521739 6:1 7:3 8:0.21739131 9:0.21739131 10:0.43478262 11:0.13043481 12:52 13:0.15555556 14:3 15:0.6779661 16:59 17:0.20338982 18:0.30508476 19:0.37288135 20:0.11864406 21:0.17857143 22:1.2222222 23:0.18518518 24:0.27272728 
-0.8506975837784886 1:2 2:1 3:7 4:24 5:0.5652174 6:3 7:3 8:0.13043481 9:0.43478262 10:0.13043481 11:0.3043478 12:45 13:0.1627907 14:4 15:0.5223881 16:67 17:0.23880595 18:0.29850745 19:0.22388059 20:0.23880595 21:0.17857143 22:1.375 24:0.23076923 
-0.003209714769706318 3:3 4:23 5:0.5 6:2 7:2 8:0.18181819 9:0.090909064 10:0.40909094 11:0.3181818 12:8 13:0.11627907 14:3 15:0.4716981 16:53 17:0.26415092 18:0.2264151 19:0.24528301 20:0.26415092 21:0.14285715 22:0.77777779 23:0.2 24:0.33333334 
-0.1950741405905021 1:3 2:1 3:9 4:25 5:0.40909094 6:1 7:2 8:0.27272725 9:0.27272725 10:0.13636363 11:0.3181818 12:48 13:0.31914893 14:2 15:0.47761196 16:67 17:0.25373137 18:0.22388059 19:0.25373137 20:0.26865673 21:0.29032257 24:0.2 
-0.3559593083171082 3:6 4:23 5:0.45454544 6:2 7:2 8:0.18181819 9:0.27272725 10:0.18181819 11:0.36363637 12:42 13:0.1627907 14:1 15:0.45901638 16:61 17:0.27868855 18:0.21311474 19:0.24590164 20:0.26229507 21:0.1923077 22:2.75 24:0.33333334 
-1 3:6 4:23 5:0.5 6:2 7:4 8:0.22727275 9:0.3181818 10:0.18181819 11:0.27272725 12:5 13:0.2 14:3 15:0.39999998 16:60 17:0.26666665 18:0.21666664 19:0.18333334 20:0.3333333 21:0.25 22:0.5 23:0.25 24:0.45454547 
-0.2913598661617219 4:24 5:0.47826087 6:3 7:4 8:0.3043478 9:0.21739131 10:0.26086956 11:0.21739131 12:16 13:0.26086956 14:4 15:0.4727273 16:55 17:0.25454545 18:0.23636365 19:0.23636365 20:0.27272725 21:0.22727273 22:1.125 23:0.25 
-0.3160327121090316 1:1 2:2 3:8 4:23 5:0.5909091 6:4 7:5 8:0.22727275 9:0.27272725 10:0.3181818 11:0.18181819 12:54 13:0.31818181 14:2 15:0.5625 16:64 17:0.1875 18:0.25 19:0.3125 20:0.25 21:0.28813559 22:0.5714286 23:0.090909094 24:0.2 
-1 1:1 2:1 3:4 4:24 5:0.6086956 6:4 7:4 8:0.21739131 9:0.3043478 10:0.3043478 11:0.17391306 12:15 13:0.26086956 14:3 15:0.56896555 16:58 17:0.17241377 18:0.25862068 19:0.31034482 20:0.25862068 21:0.28301886 22:0.80000001 23:0.14285715 24:0.42857143 
-1 1:1 2:1 3:5 4:23 5:0.45454544 6:3 7:3 8:0.13636363 9:0.22727275 10:0.22727275 11:0.40909094 12:51 13:0.2 14:1 15:0.44262296 16:61 17:0.18032789 18:0.18032789 19:0.26229507 20:0.3770492 21:0.2 22:0.77777779 23:0.30434781 24:0.2 
-1 1:2 2:1 3:6 4:22 5:0.5909091 6:2 7:2 8:0.22727275 9:0.22727275 10:0.36363637 11:0.18181819 12:52 13:0.13636364 14:3 15:0.5762712 16:59 17:0.1864407 18:0.2881356 19:0.2881356 20:0.23728812 21:0.16363636 22:1 23:0.23076923 24:0.27272728 
-1 1:1 2:2 3:6 4:22 5:0.5909091 6:2 7:3 8:0.3181818 9:0.40909094 10:0.18181819 11:0.090909064 12:46 13:0.18181819 14:3 15:0.640625 16:64 17:0.21875 18:0.34375 19:0.296875 20:0.140625 21:0.18518518 22:1.5714285 24:0.2 
-1 3:4 4:23 5:0.5909091 6:2 7:3 8:0.18181819 9:0.36363637 10:0.22727275 11:0.22727275 12:4 13:0.20930232 14:4 15:0.67857146 16:56 17:0.14285713 18:0.3214286 19:0.35714287 20:0.1785714 21:0.17647059 22:0.625 
-1 3:6 4:23 5:0.6086956 6:2 7:3 8:0.17391306 9:0.26086956 10:0.34782606 11:0.21739131 12:41 13:0.2 14:3 15:0.55 16:60 17:0.19999999 18:0.3 19:0.25 20:0.25 21:0.2 22:1.8 24:0.2 
-1 3:5 4:22 5:0.72727275 6:4 7:3 8:0.27272725 9:0.27272725 10:0.45454544 12:43 13:0.27272728 14:4 15:0.6451613 16:62 17:0.17741936 18:0.32258064 19:0.32258064 20:0.17741936 21:0.22222222 22:0.54545456 
-0.9228201810669578 1:2 2:1 3:5 4:22 5:0.6363636 6:3 7:5 8:0.27272725 9:0.22727275 10:0.40909094 11:0.090909064 12:42 13:0.31707317 14:4 15:0.57142854 16:56 17:0.1964286 18:0.3035714 19:0.26785713 20:0.23214287 21:0.33333334 22:1.125 23:0.2857143 24:0.40000001 
-1 1:3 2:2 3:12 4:23 5:0.72727275 6:1 7:4 8:0.13636363 9:0.22727275 10:0.5 11:0.13636363 12:50 13:0.15555556 14:3 15:0.6231884 16:69 17:0.13043481 18:0.26086956 19:0.3623188 20:0.24637681 21:0.16923077 22:1 24:0.2 
-1 3:1 4:24 5:0.5217391 6:1 7:2 8:0.39130437 9:0.21739131 10:0.3043478 11:0.0869565 12:21 13:0.063829787 14:4 15:0.5081967 16:61 17:0.22950822 18:0.26229507 19:0.24590164 20:0.26229507 21:0.06122449 22:0.89999998 23:0.36585367 
-1 1:1 2:1 3:6 4:24 5:0.5652174 6:2 7:4 8:0.26086956 9:0.3043478 10:0.26086956 11:0.17391306 12:41 13:0.19148937 14:1 15:0.4918033 16:61 17:0.22950822 18:0.21311474 19:0.27868855 20:0.27868855 21:0.1724138 22:1.6666666 24:0.090909094 
-1 1:1 2:1 3:5 4:24 5:0.625 6:1 7:4 8:0.16666669 9:0.4166667 10:0.20833331 11:0.20833331 12:4 13:0.19148937 14:2 15:0.5692308 16:65 17:0.12307692 18:0.27692306 19:0.29230767 20:0.3076923 21:0.21428572 22:1.1428572 24:0.33333334 
-1 1:1 2:1 3:4 4:22 5:0.5454545 6:1 7:3 8:0.18181819 9:0.40909094 10:0.13636363 11:0.27272725 12:7 13:0.23809524 14:3 15:0.5423729 16:59 17:0.13559324 18:0.2711864 19:0.2711864 20:0.32203388 21:0.23999999 22:1.6 24:0.25 
-1 3:6 4:21 5:0.61904764 6:2 7:3 8:0.19047618 9:0.14285713 10:0.47619045 11:0.19047618 12:7 13:0.19047619 14:2 15:0.59016395 16:61 17:0.14754099 18:0.24590164 19:0.3442623 20:0.26229507 21:0.20754717 22:0.89999998 23:0.11111111 24:0.27272728 
-1 3:6 4:25 5:0.5 6:2 7:4 8:0.40909094 9:0.18181819 10:0.3181818 11:0.090909064 12:44 13:0.19148937 14:4 15:0.5 16:60 17:0.21666664 18:0.28333336 19:0.21666664 20:0.28333336 21:0.19298245 22:1.1666666 23:0.2 24:0.2 
-1 1:2 2:2 3:10 4:22 5:0.5454545 6:2 7:3 8:0.04545456 9:0.40909094 10:0.13636363 11:0.40909094 12:5 13:0.17073171 14:3 15:0.48387098 16:62 17:0.22580647 18:0.27419353 19:0.2096774 20:0.2903226 21:0.18644068 22:0.80000001 23:0.25 24:0.22222222 
-0.5399591050752076 1:2 2:1 3:5 4:24 5:0.6363636 6:2 7:3 8:0.22727275 9:0.40909094 10:0.22727275 11:0.13636363 12:37 13:0.20930232 14:2 15:0.64285713 16:56 17:0.1785714 18:0.3214286 19:0.3214286 20:0.1785714 21:0.23076923 22:2 24:0.33333334 
-1 1:4 2:1 3:7 4:22 5:0.45454544 6:1 7:1 8:0.04545456 9:0.27272725 10:0.18181819 11:0.5 12:44 13:0.045454547 14:3 15:0.47540987 16:61 17:0.26229507 18:0.19672132 19:0.27868855 20:0.26229507 21:0.15789473 22:1 24:0.53846157 
-1 3:3 4:25 5:0.48000002 6:1 7:1 8:0.48000002 9:0.12000001 10:0.36 11:0.04000002 12:6 13:0.12 14:2 15:0.45762712 16:59 17:0.2711864 18:0.1864407 19:0.2711864 20:0.2711864 21:0.16363636 22:2.5 24:0.60000002 
-1 1:1 2:1 3:4 4:26 5:0.6363636 6:3 7:5 8:0.13636363 9:0.3181818 10:0.3181818 11:0.22727275 12:40 13:0.27659574 14:3 15:0.6166667 16:60 17:0.21666664 18:0.35000002 19:0.26666665 20:0.16666669 21:0.27272728 22:1.5 24:0.25 
-1 3:7 4:22 5:0.6818182 6:1 7:4 8:0.22727275 9:0.27272725 10:0.40909094 11:0.090909064 12:48 13:0.14285715 14:1 15:0.6825397 16:63 17:0.14285713 18:0.3333333 19:0.34920633 20:0.17460316 21:0.18518518 22:0.72727275 23:0.16666667 24:0.33333334 
-0.431001442333666 3:3 4:26 5:0.75 6:3 7:5 8:0.16666669 9:0.4583333 10:0.2916667 11:0.08333331 12:7 13:0.20833333 14:4 15:0.6825397 16:63 17:0.14285713 18:0.3333333 19:0.34920633 20:0.17460316 21:0.18518518 22:3.6666667 23:0.16666667 
-1 3:1 4:23 5:0.34782606 6:1 7:2 8:0.39130437 9:0.17391306 10:0.17391306 11:0.26086956 12:11 13:0.17391305 14:1 15:0.40677965 16:59 17:0.2542373 18:0.1864407 19:0.220339 20:0.33898306 21:0.16666667 22:0.5 23:0.2 
-0.04369361820954374 1:1 2:1 3:4 4:24 5:0.4166667 6:2 7:2 8:0.25 9:0.125 10:0.2916667 11:0.3333333 12:38 13:0.125 14:1 15:0.4166667 16:60 17:0.3 18:0.18333334 19:0.23333335 20:0.28333336 21:0.14285715 22:1 24:0.25 
-1 3:1 4:24 5:0.6521739 6:2 7:4 8:0.13043481 9:0.34782606 10:0.3043478 11:0.21739131 12:6 13:0.17391305 14:1 15:0.5423729 16:59 17:0.20338982 18:0.2542373 19:0.2881356 20:0.2542373 21:0.16666667 22:0.45454547 23:0.40000001 
-1 3:3 4:22 5:0.8181818 6:2 7:3 8:0.04545456 9:0.40909094 10:0.40909094 11:0.13636363 12:42 13:0.25581396 14:2 15:0.68333334 16:60 17:0.13333333 18:0.28333336 19:0.39999998 20:0.18333334 21:0.22448979 22:0.45454547 
-0.9667434854974717 3:1 4:22 5:0.5 6:1 7:3 8:0.18181819 9:0.090909064 10:0.40909094 11:0.3181818 12:10 13:0.1627907 14:2 15:0.49056602 16:53 17:0.20754719 18:0.18867922 19:0.3018868 20:0.3018868 21:0.15555556 22:1 23:0.22222222 
-1 4:26 5:0.5 6:2 7:3 8:0.08333331 9:0.2916667 10:0.20833331 11:0.4166667 12:4 13:0.2 14:1 15:0.4464286 16:56 17:0.21428573 18:0.1964286 19:0.25 20:0.33928573 21:0.13043478 22:1.6 
-1 3:3 4:24 5:0.5833334 6:2 7:3 8:0.20833331 9:0.25 10:0.3333333 11:0.20833331 12:41 13:0.19148937 14:2 15:0.6166667 16:60 17:0.16666669 18:0.28333336 19:0.3333333 20:0.21666664 21:0.16981132 22:0.5 
-0.1583475971120616 3:4 4:22 5:0.45454544 6:2 7:3 8:0.36363637 9:0.22727275 10:0.22727275 11:0.18181819 12:42 13:0.2857143 14:3 15:0.4464286 16:56 17:0.28571427 18:0.23214287 19:0.21428573 20:0.26785713 21:0.23999999 22:0.2 23:0.14285715 
-1 3:3 4:24 5:0.5 6:3 7:4 8:0.3181818 9:0.27272725 10:0.22727275 11:0.18181819 12:7 13:0.26086956 14:3 15:0.4310345 16:58 17:0.29310346 18:0.2241379 19:0.20689654 20:0.2758621 21:0.23076923 22:5 23:0.16666667 
-0.4888756638483053 1:2 2:1 3:8 4:23 5:0.39130437 6:3 7:3 8:0.0869565 9:0.13043481 10:0.26086956 11:0.5217391 12:58 13:0.24444444 14:1 15:0.38805968 16:67 17:0.26865673 18:0.19402987 19:0.19402987 20:0.3432836 21:0.24590164 22:1.75 23:0.15384616 24:0.25 
-1 3:3 4:22 5:0.5454545 6:1 7:4 8:0.18181819 9:0.04545456 10:0.5 11:0.27272725 12:7 13:0.25581396 14:2 15:0.5849056 16:53 17:0.18867922 18:0.24528301 19:0.33962262 20:0.2264151 21:0.22448979 22:2.2 
-1 1:2 2:1 3:8 4:21 5:0.57142854 6:1 7:3 8:0.19047618 9:0.3333333 10:0.23809522 11:0.23809522 12:48 13:0.19047619 14:2 15:0.5833334 16:60 17:0.21666664 18:0.3333333 19:0.25 20:0.19999999 21:0.21428572 22:1.25 24:0.2857143 
-1 3:3 4:22 5:0.45454544 6:1 7:4 8:0.27272725 9:0.18181819 10:0.27272725 11:0.27272725 12:54 13:0.18181819 14:1 15:0.42622954 16:61 17:0.18032789 18:0.18032789 19:0.24590164 20:0.39344263 21:0.16 22:1 23:0.1724138 
-1 3:1 4:22 5:0.40909094 6:3 7:2 8:0.40909094 9:0.22727275 10:0.18181819 11:0.18181819 12:12 13:0.22727273 14:4 15:0.4814815 16:54 17:0.25925928 18:0.22222221 19:0.25925928 20:0.25925928 21:0.2173913 22:1.1428572 23:0.090909094 
-0.2291273412266658 1:1 2:1 3:5 4:26 5:0.625 6:2 7:4 8:0.041666687 9:0.2916667 10:0.3333333 11:0.3333333 12:5 13:0.2 14:1 15:0.59375 16:64 17:0.125 18:0.25 19:0.34375 20:0.28125 21:0.23333333 22:1.6666666 23:0.25 24:0.40000001 
-1 3:1 4:22 5:0.5 6:1 7:4 8:0.22727275 9:0.18181819 10:0.3181818 11:0.27272725 12:4 13:0.14285715 14:4 15:0.48076922 16:52 17:0.23076922 18:0.23076922 19:0.25 20:0.28846157 21:0.13636364 22:1.1428572 
-1 1:2 2:1 3:10 4:22 5:0.5454545 6:1 7:4 8:0.27272725 9:0.27272725 10:0.27272725 11:0.18181819 12:50 13:0.14285715 14:3 15:0.530303 16:66 17:0.22727275 18:0.22727275 19:0.3030303 20:0.24242425 21:0.13333334 22:1.2857143 24:0.11111111 
-1 1:1 2:1 3:4 4:23 5:0.6363636 6:3 7:2 8:0.090909064 9:0.36363637 10:0.27272725 11:0.27272725 12:5 13:0.15555556 14:4 15:0.57894737 16:57 17:0.19298244 18:0.28070176 19:0.2982456 20:0.2280702 21:0.16981132 22:1.125 23:0.25 24:0.25 
-1 1:2 2:1 3:7 4:22 5:0.71428573 6:1 7:3 8:0.19047618 9:0.38095236 10:0.3333333 11:0.09523809 12:16 13:0.1627907 14:4 15:0.6779661 16:59 17:0.20338982 18:0.30508476 19:0.37288135 20:0.11864406 21:0.17857143 22:1.125 23:0.18518518 24:0.23076923 
-1 1:2 2:1 3:6 4:23 5:0.6521739 6:1 7:3 8:0.21739131 9:0.21739131 10:0.43478262 11:0.13043481 12:52 13:0.15555556 14:3 15:0.6779661 16:59 17:0.20338982 18:0.30508476 19:0.37288135 20:0.11864406 21:0.17857143 22:1.2222222 23:0.18518518 24:0.27272728 
-0.008590059001507007 1:2 2:3 3:18 4:23 5:0.6956522 6:2 7:3 8:0.13043481 9:0.39130437 10:0.3043478 11:0.17391306 12:4 13:0.13636364 14:4 15:0.67901236 16:81 17:0.19753087 18:0.32098764 19:0.35802472 20:0.12345678 21:0.17948718 22:0.72727275 23:0.2 24:0.23529412 
-1 1:2 2:1 3:7 4:24 5:0.5652174 6:3 7:3 8:0.13043481 9:0.43478262 10:0.13043481 11:0.3043478 12:45 13:0.1627907 14:4 15:0.5223881 16:67 17:0.23880595 18:0.29850745 19:0.22388059 20:0.23880595 21:0.17857143 22:1.375 24:0.23076923 
-0.008020281226346316 3:7 4:26 5:0.4583333 6:4 7:2 8:0.375 9:0.16666669 10:0.2916667 11:0.16666669 12:48 13:0.16 14:3 15:0.53731346 16:67 17:0.20895523 18:0.22388059 19:0.3134328 20:0.25373137 21:0.19354838 22:2 24:0.33333334 
-1 3:3 4:23 5:0.5 6:2 7:2 8:0.18181819 9:0.090909064 10:0.40909094 11:0.3181818 12:8 13:0.11627907 14:3 15:0.4716981 16:53 17:0.26415092 18:0.2264151 19:0.24528301 20:0.26415092 21:0.14285715 22:0.77777779 23:0.2 24:0.33333334 
-1 3:3 4:25 5:0.5833334 6:2 7:3 8:0.3333333 9:0.20833331 10:0.375 11:0.08333331 12:46 13:0.125 14:1 15:0.530303 16:66 17:0.18181819 18:0.22727275 19:0.3030303 20:0.2878788 21:0.11111111 22:1.1111112 
-1 1:3 2:1 3:9 4:25 5:0.40909094 6:1 7:2 8:0.27272725 9:0.27272725 10:0.13636363 11:0.3181818 12:48 13:0.31914893 14:2 15:0.47761196 16:67 17:0.25373137 18:0.22388059 19:0.25373137 20:0.26865673 21:0.29032257 24:0.2 
-0.7948651434768447 1:1 2:2 3:9 4:21 5:0.75 6:2 7:3 8:0.050000012 9:0.45 10:0.3 11:0.19999999 12:10 13:0.21951219 14:2 15:0.6825397 16:63 17:0.09523809 18:0.23809522 19:0.44444442 20:0.22222221 21:0.24137931 22:0.5 24:0.29411766 
-1 3:6 4:23 5:0.45454544 6:2 7:2 8:0.18181819 9:0.27272725 10:0.18181819 11:0.36363637 12:42 13:0.1627907 14:1 15:0.45901638 16:61 17:0.27868855 18:0.21311474 19:0.24590164 20:0.26229507 21:0.1923077 22:2.75 24:0.33333334 
-0.9286795651357869 3:1 4:23 5:0.36363637 6:2 7:4 8:0.36363637 9:0.18181819 10:0.18181819 11:0.27272725 12:17 13:0.2 14:3 15:0.3584906 16:53 17:0.3773585 18:0.20754719 19:0.1509434 20:0.26415092 21:0.19148937 22:1.4285715 23:0.21212122 
-0.7739474629638117 4:23 5:0.6818182 6:1 7:2 8:0.090909064 9:0.36363637 10:0.3181818 11:0.22727275 12:25 13:0.06666667 14:3 15:0.6415094 16:53 17:0.13207549 18:0.26415092 19:0.3773585 20:0.2264151 21:0.06666667 22:1.2857143 23:0.22448979 
-1 3:6 4:23 5:0.5 6:2 7:4 8:0.22727275 9:0.3181818 10:0.18181819 11:0.27272725 12:5 13:0.2 14:3 15:0.39999998 16:60 17:0.26666665 18:0.21666664 19:0.18333334 20:0.3333333 21:0.25 22:0.5 23:0.25 24:0.45454547 
-1 4:24 5:0.47826087 6:3 7:4 8:0.3043478 9:0.21739131 10:0.26086956 11:0.21739131 12:16 13:0.26086956 14:4 15:0.4727273 16:55 17:0.25454545 18:0.23636365 19:0.23636365 20:0.27272725 21:0.22727273 22:1.125 23:0.25 
-1 1:1 2:2 3:8 4:23 5:0.5909091 6:4 7:5 8:0.22727275 9:0.27272725 10:0.3181818 11:0.18181819 12:54 13:0.31818181 14:2 15:0.5625 16:64 17:0.1875 18:0.25 19:0.3125 20:0.25 21:0.28813559 22:0.5714286 23:0.090909094 24:0.2 
-1 1:1 2:1 3:4 4:24 5:0.6086956 6:4 7:4 8:0.21739131 9:0.3043478 10:0.3043478 11:0.17391306 12:15 13:0.26086956 14:3 15:0.56896555 16:58 17:0.17241377 18:0.25862068 19:0.31034482 20:0.25862068 21:0.28301886 22:0.80000001 23:0.14285715 24:0.42857143 
-1 1:1 2:1 3:5 4:23 5:0.45454544 6:3 7:3 8:0.13636363 9:0.22727275 10:0.22727275 11:0.40909094 12:51 13:0.2 14:1 15:0.44262296 16:61 17:0.18032789 18:0.18032789 19:0.26229507 20:0.3770492 21:0.2 22:0.77777779 23:0.30434781 24:0.2 
-1 1:2 2:1 3:6 4:22 5:0.5909091 6:2 7:2 8:0.22727275 9:0.22727275 10:0.36363637 11:0.18181819 12:52 13:0.13636364 14:3 15:0.5762712 16:59 17:0.1864407 18:0.2881356 19:0.2881356 20:0.23728812 21:0.16363636 22:1 23:0.23076923 24:0.27272728 
-1 1:1 2:1 3:6 4:22 5:0.5454545 6:2 7:3 8:0.18181819 9:0.3181818 10:0.22727275 11:0.27272725 12:5 13:0.14285715 14:4 15:0.59322035 16:59 17:0.20338982 18:0.30508476 19:0.2881356 20:0.20338982 21:0.16981132 22:1.2222222 24:0.27272728 
-1 1:1 2:2 3:6 4:22 5:0.5909091 6:2 7:3 8:0.3181818 9:0.40909094 10:0.18181819 11:0.090909064 12:46 13:0.18181819 14:3 15:0.640625 16:64 17:0.21875 18:0.34375 19:0.296875 20:0.140625 21:0.18518518 22:1.5714285 24:0.2 
-1 3:4 4:23 5:0.5909091 6:2 7:3 8:0.18181819 9:0.36363637 10:0.22727275 11:0.22727275 12:4 13:0.20930232 14:4 15:0.67857146 16:56 17:0.14285713 18:0.3214286 19:0.35714287 20:0.1785714 21:0.17647059 22:0.625 
-1 3:6 4:23 5:0.6086956 6:2 7:3 8:0.17391306 9:0.26086956 10:0.34782606 11:0.21739131 12:41 13:0.2 14:3 15:0.55 16:60 17:0.19999999 18:0.3 19:0.25 20:0.25 21:0.2 22:1.8 24:0.2 
-0.3660495607607698 3:7 4:24 5:0.5217391 6:5 7:2 8:0.17391306 9:0.17391306 10:0.34782606 11:0.3043478 12:15 13:0.14285715 14:3 15:0.6 16:60 17:0.13333333 18:0.26666665 19:0.3333333 20:0.26666665 21:0.10714286 22:4.5 23:0.40000001 
-0.9735778387041288 3:2 4:23 5:0.6363636 6:1 7:5 8:0.13636363 9:0.18181819 10:0.45454544 11:0.22727275 12:16 13:0.2 14:2 15:0.57407403 16:54 17:0.2037037 18:0.24074072 19:0.3333333 20:0.22222221 21:0.20833333 22:0.77777779 23:0.06666667 24:0.33333334 
-0.453766576270162 3:2 4:23 5:0.6521739 6:3 7:3 8:0.13043481 9:0.5217391 10:0.13043481 11:0.21739131 12:48 13:0.14285715 14:3 15:0.64705884 16:51 17:0.11764705 18:0.3333333 19:0.31372547 20:0.2352941 21:0.17391305 22:0.8888889 23:0.13333334 24:0.5 
-0.7569122610731117 3:2 4:23 5:0.43478262 6:1 7:1 8:0.21739131 9:0.0869565 10:0.34782606 11:0.34782606 12:39 13:0.2173913 14:2 15:0.4464286 16:56 17:0.23214287 18:0.1785714 19:0.26785713 20:0.3214286 21:0.23999999 22:0.66666669 24:0.5 
-0.9260238423616878 3:5 4:22 5:0.72727275 6:4 7:3 8:0.27272725 9:0.27272725 10:0.45454544 12:43 13:0.27272728 14:4 15:0.6451613 16:62 17:0.17741936 18:0.32258064 19:0.32258064 20:0.17741936 21:0.22222222 22:0.54545456 
-0.2320950395541213 1:3 2:2 3:13 4:21 5:0.6666666 6:2 7:2 8:0.28571427 9:0.09523809 10:0.57142854 11:0.047619045 12:9 13:0.23809524 14:2 15:0.63380283 16:71 17:0.21126759 18:0.35211265 19:0.28169012 20:0.15492958 21:0.30303031 22:1 23:0.2 24:0.41666666 
-0.01053474083763114 4:25 5:0.45454544 6:2 7:3 8:0.13636363 9:0.18181819 10:0.27272725 11:0.40909094 12:42 13:0.19148937 15:0.4375 16:48 17:0.25 18:0.20833331 19:0.22916669 20:0.3125 21:0.11627907 22:0.55555558 23:0.33333334 
-0.3417851840757121 1:3 2:2 3:15 4:23 5:0.57142854 6:2 7:4 8:0.19047618 9:0.19047618 10:0.38095236 11:0.23809522 12:11 13:0.18181819 14:4 15:0.53947365 16:76 17:0.21052629 18:0.2763158 19:0.2631579 20:0.25 21:0.20547946 22:1.8 23:0.39130434 24:0.24137931 
-0.4150604980313374 1:3 2:2 3:13 4:22 5:0.5909091 6:2 7:3 8:0.18181819 9:0.3181818 10:0.27272725 11:0.22727275 12:62 13:0.1627907 14:4 15:0.52112675 16:71 17:0.21126759 18:0.26760566 19:0.25352114 20:0.26760566 21:0.20588236 22:1.1111112 23:0.35714287 24:0.28 
-0.02955652416454043 3:1 4:21 5:0.57142854 6:2 7:3 8:0.19047618 9:0.3333333 10:0.23809522 11:0.23809522 12:37 13:0.31707317 14:1 15:0.5208334 16:48 17:0.20833331 18:0.25 19:0.2708333 20:0.2708333 21:0.30232558 22:0.66666669 23:0.11111111 
-0.9390571774876113 1:2 2:1 3:6 4:24 5:0.6521739 6:2 7:4 8:0.0869565 9:0.3043478 10:0.34782606 11:0.26086956 12:2 13:0.23404256 14:1 15:0.546875 16:64 17:0.203125 18:0.28125 19:0.265625 20:0.25 21:0.25423729 22:0.80000001 24:0.33333334 
-0.8340904376375499 1:2 2:1 3:5 4:22 5:0.6363636 6:3 7:5 8:0.27272725 9:0.22727275 10:0.40909094 11:0.090909064 12:42 13:0.31707317 14:4 15:0.57142854 16:56 17:0.1964286 18:0.3035714 19:0.26785713 20:0.23214287 21:0.33333334 22:1.125 23:0.2857143 24:0.40000001 
-0.1535777075262287 4:22 5:0.5 6:2 7:3 8:0.3181818 9:0.22727275 10:0.27272725 11:0.18181819 12:40 13:0.42857143 15:0.4285714 16:42 17:0.23809522 18:0.23809522 19:0.19047618 20:0.3333333 21:0.2 23:0.12820514 
-0.0236864457451115 4:22 5:0.40909094 6:3 7:3 8:0.18181819 9:0.22727275 10:0.18181819 11:0.40909094 12:25 13:0.25581396 14:1 15:0.48888886 16:45 17:0.22222221 18:0.22222221 19:0.26666665 20:0.28888887 21:0.21951219 22:1.6666666 23:0.19148937 
-0.4600647487186438 1:3 2:3 3:18 4:23 5:0.40909094 6:4 7:1 8:0.36363637 9:0.22727275 10:0.18181819 11:0.22727275 12:67 13:0.15555556 14:2 15:0.44047618 16:84 17:0.23809522 18:0.19047618 19:0.25 20:0.3214286 21:0.2 22:0.89999998 23:0.25 24:0.25714287 
-0.3765826380542995 1:3 2:2 3:12 4:23 5:0.72727275 6:1 7:4 8:0.13636363 9:0.22727275 10:0.5 11:0.13636363 12:50 13:0.15555556 14:3 15:0.6231884 16:69 17:0.13043481 18:0.26086956 19:0.3623188 20:0.24637681 21:0.16923077 22:1 24:0.2 
-0.2274533554640058 4:21 5:0.61904764 6:3 7:2 8:0.14285713 9:0.19047618 10:0.4285714 11:0.23809522 12:36 13:0.21052632 15:0.57894737 16:38 17:0.13157892 18:0.21052629 19:0.36842108 20:0.2894737 21:0.11764706 22:0.45454547 23:0.2 
-0.5609140650187595 1:1 2:2 3:23 4:24 5:0.5454545 6:3 7:4 8:0.22727275 9:0.22727275 10:0.3181818 11:0.22727275 12:1 13:0.33333334 15:0.5490196 16:102 17:0.22549021 18:0.24509805 19:0.30392158 20:0.22549021 21:0.2 22:1.125 24:0.06666667 
-1 3:1 4:24 5:0.5217391 6:1 7:2 8:0.39130437 9:0.21739131 10:0.3043478 11:0.0869565 12:21 13:0.063829787 14:4 15:0.5081967 16:61 17:0.22950822 18:0.26229507 19:0.24590164 20:0.26229507 21:0.06122449 22:0.89999998 23:0.36585367 
-0.9647851302756821 1:1 2:1 3:6 4:24 5:0.5652174 6:2 7:4 8:0.26086956 9:0.3043478 10:0.26086956 11:0.17391306 12:41 13:0.19148937 14:1 15:0.4918033 16:61 17:0.22950822 18:0.21311474 19:0.27868855 20:0.27868855 21:0.1724138 22:1.6666666 24:0.090909094 
-0.07610148970445846 4:24 5:0.5 6:2 7:3 8:0.08333331 9:0.125 10:0.375 11:0.4166667 12:20 13:0.15555556 14:3 15:0.54347825 16:46 17:0.19565219 18:0.23913044 19:0.3043478 20:0.26086956 21:0.11627907 22:1.125 23:0.2 
-0.8949640504137356 1:1 2:1 3:11 4:21 5:0.61904764 6:1 7:3 8:0.14285713 9:0.19047618 10:0.4285714 11:0.23809522 12:11 13:0.14285715 14:1 15:0.5625 16:64 17:0.1875 18:0.25 19:0.3125 20:0.25 21:0.14754099 22:0.77777779 23:0.18181819 24:0.15789473 
-0.5725506698454358 1:3 2:3 3:20 4:22 5:0.8095238 6:2 7:2 8:0.14285713 9:0.14285713 10:0.6666666 11:0.047619045 12:1 13:0.11627907 15:0.67441857 16:86 17:0.12790698 18:0.3023256 19:0.37209302 20:0.1976744 21:0.18518518 22:1.1 24:0.2631579 
-0.4710581797822317 1:3 2:3 3:14 4:22 5:0.77272725 6:2 7:5 9:0.40909094 10:0.36363637 11:0.22727275 12:1 13:0.25581396 15:0.73239434 16:71 17:0.098591566 18:0.3943662 19:0.3380282 20:0.1690141 21:0.2647059 22:1.8333334 24:0.28 
-0.2332788056806714 1:3 2:2 3:16 4:21 5:0.7619048 6:2 7:4 8:0.09523809 9:0.23809522 10:0.52380955 11:0.14285713 12:59 13:0.21951219 14:2 15:0.64 16:75 17:0.17333335 18:0.30666667 19:0.3333333 20:0.18666667 21:0.22857143 22:1.3333334 24:0.24137931 
-0.5972909619238171 1:1 2:1 3:5 4:24 5:0.625 6:1 7:4 8:0.16666669 9:0.4166667 10:0.20833331 11:0.20833331 12:4 13:0.19148937 14:2 15:0.5692308 16:65 17:0.12307692 18:0.27692306 19:0.29230767 20:0.3076923 21:0.21428572 22:1.1428572 24:0.33333334 
-1 1:1 2:1 3:4 4:22 5:0.5454545 6:1 7:3 8:0.18181819 9:0.40909094 10:0.13636363 11:0.27272725 12:7 13:0.23809524 14:3 15:0.5423729 16:59 17:0.13559324 18:0.2711864 19:0.2711864 20:0.32203388 21:0.23999999 22:1.6 24:0.25 
-0.4371953369757717 1:2 2:1 3:17 4:22 5:0.45454544 6:8 7:2 8:0.13636363 9:0.3181818 10:0.13636363 11:0.40909094 12:67 13:0.37142858 14:3 15:0.4814815 16:81 17:0.20987654 18:0.28395063 19:0.19753087 20:0.30864197 21:0.2647059 22:0.80000001 23:0.33333334 24:0.15151516 
-0.4178428152292667 1:1 2:2 3:13 4:24 5:0.4166667 6:3 7:4 8:0.2916667 10:0.4166667 11:0.2916667 12:9 13:0.26086956 14:3 15:0.41463417 16:82 17:0.26829267 18:0.21951222 19:0.19512194 20:0.31707317 21:0.21126761 22:1 23:0.41176471 24:0.12 
-0.9683987176754359 3:6 4:21 5:0.61904764 6:2 7:3 8:0.19047618 9:0.14285713 10:0.47619045 11:0.19047618 12:7 13:0.19047619 14:2 15:0.59016395 16:61 17:0.14754099 18:0.24590164 19:0.3442623 20:0.26229507 21:0.20754717 22:0.89999998 23:0.11111111 24:0.27272728 
-1 3:6 4:25 5:0.5 6:2 7:4 8:0.40909094 9:0.18181819 10:0.3181818 11:0.090909064 12:44 13:0.19148937 14:4 15:0.5 16:60 17:0.21666664 18:0.28333336 19:0.21666664 20:0.28333336 21:0.19298245 22:1.1666666 23:0.2 24:0.2 
-0.968098545444535 1:2 2:2 3:10 4:22 5:0.5454545 6:2 7:3 8:0.04545456 9:0.40909094 10:0.13636363 11:0.40909094 12:5 13:0.17073171 14:3 15:0.48387098 16:62 17:0.22580647 18:0.27419353 19:0.2096774 20:0.2903226 21:0.18644068 22:0.80000001 23:0.25 24:0.22222222 
-0.09532608648884827 4:24 5:0.625 6:2 7:3 8:0.25 9:0.375 10:0.25 11:0.125 12:19 13:0.11111111 14:4 15:0.53061223 16:49 17:0.20408165 18:0.24489796 19:0.28571427 20:0.26530612 21:0.11111111 22:1.1428572 23:0.2 
-0.3199932482990161 1:1 2:1 3:9 4:24 5:0.5 6:2 7:3 8:0.13636363 9:0.3181818 10:0.18181819 11:0.36363637 12:61 13:0.13043478 14:3 15:0.520548 16:73 17:0.20547944 18:0.21917808 19:0.30136985 20:0.27397263 21:0.1875 22:1 23:0.23076923 24:0.33333334 
-0.7554873086392826 1:2 2:2 3:12 4:20 5:0.7 6:2 7:3 8:0.14999998 9:0.14999998 10:0.55 11:0.14999998 12:11 13:0.15789473 14:1 15:0.53521127 16:71 17:0.19718307 18:0.22535211 19:0.30985916 20:0.26760566 21:0.19354838 22:1.1428572 23:0.2 24:0.25 
-0.5715376402402119 3:1 4:23 5:0.45454544 6:2 7:4 8:0.13636363 9:0.22727275 10:0.22727275 11:0.40909094 12:51 13:0.24444444 14:3 15:0.4423077 16:52 17:0.21153843 18:0.17307693 19:0.26923078 20:0.34615386 21:0.23404256 22:0.75 23:0.23076923 
-0.7648249628596246 1:1 2:1 3:13 4:24 5:0.6521739 6:3 7:3 8:0.17391306 9:0.43478262 10:0.21739131 11:0.17391306 12:3 13:0.23404256 14:2 15:0.7027027 16:74 17:0.14864862 18:0.3783784 19:0.3243243 20:0.14864862 21:0.21126761 22:0.5 24:0.16666667 
-0.5534209120825848 1:2 2:2 3:15 4:19 5:0.6315789 6:3 7:2 8:0.15789473 9:0.15789473 10:0.4736842 11:0.21052629 12:55 13:0.24324325 14:4 15:0.7205882 16:68 17:0.13235295 18:0.38235295 19:0.33823532 20:0.14705884 21:0.2 22:1 23:0.2 24:0.14285715 
-0.265011325190645 1:1 2:1 3:11 4:22 5:0.40909094 6:2 7:4 8:0.18181819 9:0.22727275 10:0.18181819 11:0.40909094 12:4 13:0.22727273 14:4 15:0.43421054 16:76 17:0.2631579 18:0.18421054 19:0.25 20:0.30263156 21:0.16923077 22:1.1428572 24:0.047619049 
-0.2039578924144822 1:1 2:1 3:13 4:23 5:0.47826087 6:2 7:3 8:0.13043481 9:0.21739131 10:0.26086956 11:0.39130437 12:1 13:0.2173913 15:0.42682928 16:82 17:0.25609756 18:0.17073172 19:0.25609756 20:0.31707317 21:0.15492958 22:1.8 24:0.039999999 
-0.2298159541145392 4:22 5:0.5 6:1 7:2 8:0.22727275 9:0.45454544 10:0.04545456 11:0.27272725 12:28 13:0.40909091 14:2 15:0.6136364 16:44 17:0.18181819 18:0.3181818 19:0.29545456 20:0.20454544 21:0.1875 23:0.11111111 
-0.3486870042151625 4:22 5:0.5909091 6:2 7:2 8:0.22727275 9:0.27272725 10:0.3181818 11:0.18181819 12:18 13:0.2 14:4 15:0.6 16:40 17:0.17500001 18:0.27499998 19:0.325 20:0.22500002 21:0.11111111 22:1.8333334 23:0.028571429 
-0.1696166633616593 4:26 5:0.5454545 6:2 7:2 8:0.090909064 9:0.22727275 10:0.3181818 11:0.36363637 12:40 13:0.16666667 15:0.5625 16:48 17:0.1875 18:0.25 19:0.3125 20:0.25 21:0.090909094 22:0.66666669 23:0.037037037 
-0.2800017805644393 1:2 2:4 3:18 4:25 5:0.6521739 6:2 7:3 8:0.13043481 9:0.39130437 10:0.26086956 11:0.21739131 12:65 13:0.10638298 14:2 15:0.6436782 16:87 17:0.16091955 18:0.3333333 19:0.31034482 20:0.19540232 21:0.15000001 22:1 24:0.21212122 
-0.9935821710597746 1:2 2:1 3:5 4:24 5:0.6363636 6:2 7:3 8:0.22727275 9:0.40909094 10:0.22727275 11:0.13636363 12:37 13:0.20930232 14:2 15:0.64285713 16:56 17:0.1785714 18:0.3214286 19:0.3214286 20:0.1785714 21:0.23076923 22:2 24:0.33333334 
-1 1:4 2:1 3:7 4:22 5:0.45454544 6:1 7:1 8:0.04545456 9:0.27272725 10:0.18181819 11:0.5 12:44 13:0.045454547 14:3 15:0.47540987 16:61 17:0.26229507 18:0.19672132 19:0.27868855 20:0.26229507 21:0.15789473 22:1 24:0.53846157 
-0.9638563722952214 3:3 4:25 5:0.48000002 6:1 7:1 8:0.48000002 9:0.12000001 10:0.36 11:0.04000002 12:6 13:0.12 14:2 15:0.45762712 16:59 17:0.2711864 18:0.1864407 19:0.2711864 20:0.2711864 21:0.16363636 22:2.5 24:0.60000002 
-0.1503098110816605 3:2 4:20 5:0.45 6:3 7:3 8:0.3 9:0.3 10:0.14999998 11:0.25 12:40 13:0.1891892 14:1 15:0.64444447 16:45 17:0.17777777 18:0.26666665 19:0.37777776 20:0.17777777 21:0.2 22:1.5714285 23:0.071428575 24:0.33333334 
-0.9195302614429329 4:29 5:0.5416666 6:3 7:3 8:0.25 9:0.2916667 10:0.25 11:0.20833331 12:35 13:0.13207547 14:4 15:0.5614035 16:57 17:0.19298244 18:0.2631579 19:0.2982456 20:0.24561405 21:0.098039217 22:1 
-0.9470031389696368 3:1 4:23 5:0.47826087 6:3 7:2 8:0.21739131 9:0.21739131 10:0.26086956 11:0.3043478 12:6 13:0.095238097 14:1 15:0.53999996 16:50 17:0.19999999 18:0.24000001 19:0.3 20:0.26 21:0.090909094 22:1.25 23:0.11111111 
-0.1864645604637059 1:1 2:3 3:15 4:22 5:0.5454545 6:3 7:2 8:0.13636363 9:0.22727275 10:0.3181818 11:0.3181818 12:56 13:0.20930232 14:3 15:0.58441556 16:77 17:0.16883117 18:0.24675328 19:0.33766234 20:0.24675328 21:0.19444445 22:0.2 24:0.1724138 
-0.5830617647657975 1:1 2:2 3:12 4:22 5:0.5 6:3 7:2 8:0.18181819 9:0.3181818 10:0.18181819 11:0.3181818 12:53 13:0.20930232 14:1 15:0.5774648 16:71 17:0.18309861 18:0.25352114 19:0.32394367 20:0.23943663 21:0.21212122 22:0.90909094 24:0.2173913 
-0.3912745595656085 4:27 5:0.5909091 6:3 7:3 8:0.18181819 9:0.3181818 10:0.27272725 11:0.22727275 12:32 13:0.22448979 15:0.5510204 16:49 17:0.20408165 18:0.24489796 19:0.30612242 20:0.24489796 21:0.15555556 22:0.18181819 
-0.01683834294100214 1:1 2:1 3:5 4:21 5:0.6666666 6:3 7:2 8:0.14285713 9:0.23809522 10:0.4285714 11:0.19047618 12:4 13:0.13513513 14:4 15:0.5686275 16:51 17:0.19607842 18:0.25490195 19:0.31372547 20:0.2352941 21:0.14893617 22:1.375 24:0.2 
-0.2747919703670763 3:2 4:22 5:0.5454545 6:6 7:1 8:0.22727275 9:0.22727275 10:0.3181818 11:0.22727275 12:37 13:0.2631579 14:1 15:0.5555556 16:45 17:0.19999999 18:0.22222221 19:0.3333333 20:0.24444443 21:0.23809524 22:0.5 23:0.15384616 
-0.8130806882783878 1:2 2:1 3:14 4:21 5:0.6666666 6:2 7:1 8:0.047619045 9:0.23809522 10:0.4285714 11:0.28571427 12:49 13:0.15000001 14:3 15:0.6268657 16:67 17:0.16417909 18:0.29850745 19:0.32835823 20:0.20895523 21:0.21875 22:0.54545456 24:0.33333334 
-0.9001661055637298 3:8 4:23 5:0.55 6:3 7:3 8:0.35000002 9:0.19999999 10:0.35000002 11:0.10000002 12:54 13:0.1627907 14:3 15:0.47142857 16:70 17:0.22857141 18:0.24285716 19:0.22857141 20:0.3 21:0.11864407 22:3.3333333 
-0.3233914717046272 4:20 5:0.45 6:1 7:1 8:0.25 9:0.25 10:0.19999999 11:0.3 12:18 13:0.17948718 14:1 15:0.47727275 16:44 17:0.22727275 18:0.25 19:0.22727275 20:0.29545456 21:0.030303031 22:3.5 23:0.1875 
-0.2765646994650467 1:1 2:1 3:11 4:22 5:0.5909091 6:2 7:2 8:0.18181819 9:0.36363637 10:0.22727275 11:0.22727275 12:1 13:0.11627907 15:0.46153843 16:65 17:0.19999999 18:0.2153846 19:0.24615383 20:0.33846152 21:0.22580644 22:1 24:0.47368422 
-0.3707122584748965 1:1 2:1 3:4 4:26 5:0.6363636 6:3 7:5 8:0.13636363 9:0.3181818 10:0.3181818 11:0.22727275 12:40 13:0.27659574 14:3 15:0.6166667 16:60 17:0.21666664 18:0.35000002 19:0.26666665 20:0.16666669 21:0.27272728 22:1.5 24:0.25 
-0.1286028816941671 4:23 5:0.45454544 6:2 7:4 8:0.27272725 9:0.13636363 10:0.3181818 11:0.27272725 12:35 13:0.27272728 14:4 15:0.43478262 16:46 17:0.26086956 18:0.19565219 19:0.23913044 20:0.3043478 21:0.2 22:0.33333334 
-0.1979974770535851 1:1 2:2 3:12 4:23 5:0.6363636 6:1 7:2 8:0.090909064 9:0.36363637 10:0.27272725 11:0.27272725 12:1 13:0.06666667 14:4 15:0.56962025 16:79 17:0.17721522 18:0.24050635 19:0.3291139 20:0.25316453 21:0.10144927 22:0.89999998 24:0.16666667 
-1 3:7 4:22 5:0.6818182 6:1 7:4 8:0.22727275 9:0.27272725 10:0.40909094 11:0.090909064 12:48 13:0.14285715 14:1 15:0.6825397 16:63 17:0.14285713 18:0.3333333 19:0.34920633 20:0.17460316 21:0.18518518 22:0.72727275 23:0.16666667 24:0.33333334 
-0.9994661426753793 3:3 4:26 5:0.75 6:3 7:5 8:0.16666669 9:0.4583333 10:0.2916667 11:0.08333331 12:7 13:0.20833333 14:4 15:0.6825397 16:63 17:0.14285713 18:0.3333333 19:0.34920633 20:0.17460316 21:0.18518518 22:3.6666667 23:0.16666667 
-0.9623757652481046 3:1 4:23 5:0.34782606 6:1 7:2 8:0.39130437 9:0.17391306 10:0.17391306 11:0.26086956 12:11 13:0.17391305 14:1 15:0.40677965 16:59 17:0.2542373 18:0.1864407 19:0.220339 20:0.33898306 21:0.16666667 22:0.5 23:0.2 
-1 1:1 2:1 3:4 4:24 5:0.4166667 6:2 7:2 8:0.25 9:0.125 10:0.2916667 11:0.3333333 12:38 13:0.125 14:1 15:0.4166667 16:60 17:0.3 18:0.18333334 19:0.23333335 20:0.28333336 21:0.14285715 22:1 24:0.25 
-0.1522167787654171 4:20 5:0.35000002 6:1 7:2 8:0.39999998 9:0.10000002 10:0.25 11:0.25 12:32 13:0.2 15:0.35000002 16:40 17:0.35000002 18:0.14999998 19:0.19999999 20:0.3 21:0.11111111 22:0.18181819 23:0.18181819 
-0.09118446778169721 4:22 5:0.40909094 6:2 7:3 8:0.27272725 9:0.18181819 10:0.22727275 11:0.3181818 12:30 13:0.23809524 15:0.41860467 16:43 17:0.27906978 18:0.23255813 19:0.18604654 20:0.3023256 21:0.15789473 22:0.625 
-0.8530401456942429 3:1 4:24 5:0.6521739 6:2 7:4 8:0.13043481 9:0.34782606 10:0.3043478 11:0.21739131 12:6 13:0.17391305 14:1 15:0.5423729 16:59 17:0.20338982 18:0.2542373 19:0.2881356 20:0.2542373 21:0.16666667 22:0.45454547 23:0.40000001 
-1 3:3 4:22 5:0.8181818 6:2 7:3 8:0.04545456 9:0.40909094 10:0.40909094 11:0.13636363 12:42 13:0.25581396 14:2 15:0.68333334 16:60 17:0.13333333 18:0.28333336 19:0.39999998 20:0.18333334 21:0.22448979 22:0.45454547 
-1 3:1 4:22 5:0.5 6:1 7:3 8:0.18181819 9:0.090909064 10:0.40909094 11:0.3181818 12:10 13:0.1627907 14:2 15:0.49056602 16:53 17:0.20754719 18:0.18867922 19:0.3018868 20:0.3018868 21:0.15555556 22:1 23:0.22222222 
-0.2907452182226603 3:3 4:22 5:0.7619048 6:4 7:4 8:0.14285713 9:0.14285713 10:0.61904764 11:0.09523809 12:39 13:0.2682927 14:3 15:0.71153843 16:52 17:0.13461536 18:0.26923078 19:0.4423077 20:0.15384614 21:0.23404256 22:1.1428572 
-0.002793443834739615 3:2 4:21 5:0.75 6:4 7:3 8:0.14999998 9:0.14999998 10:0.6 11:0.10000002 12:38 13:0.23076923 14:2 15:0.7083334 16:48 17:0.14583331 18:0.25 19:0.4583333 20:0.14583331 21:0.20930232 22:0.80000001 23:0.11111111 
-0.0948530899125932 3:1 4:25 5:0.6818182 6:3 7:4 8:0.090909064 9:0.3181818 10:0.36363637 11:0.22727275 12:38 13:0.19148937 14:4 15:0.6415094 16:53 17:0.13207549 18:0.33962262 19:0.3018868 20:0.2264151 21:0.18367347 22:0.30000001 23:0.16666667 
-0.8671965956459128 4:26 5:0.5 6:2 7:3 8:0.08333331 9:0.2916667 10:0.20833331 11:0.4166667 12:4 13:0.2 14:1 15:0.4464286 16:56 17:0.21428573 18:0.1964286 19:0.25 20:0.33928573 21:0.13043478 22:1.6 
-0.4636827941523859 3:3 4:24 5:0.5833334 6:2 7:3 8:0.20833331 9:0.25 10:0.3333333 11:0.20833331 12:41 13:0.19148937 14:2 15:0.6166667 16:60 17:0.16666669 18:0.28333336 19:0.3333333 20:0.21666664 21:0.16981132 22:0.5 
-0.9659732549153166 3:4 4:22 5:0.45454544 6:2 7:3 8:0.36363637 9:0.22727275 10:0.22727275 11:0.18181819 12:42 13:0.2857143 14:3 15:0.4464286 16:56 17:0.28571427 18:0.23214287 19:0.21428573 20:0.26785713 21:0.23999999 22:0.2 23:0.14285715 
-0.5721855772113394 3:3 4:24 5:0.5 6:3 7:4 8:0.3181818 9:0.27272725 10:0.22727275 11:0.18181819 12:7 13:0.26086956 14:3 15:0.4310345 16:58 17:0.29310346 18:0.2241379 19:0.20689654 20:0.2758621 21:0.23076923 22:5 23:0.16666667 
-1 1:2 2:1 3:8 4:23 5:0.39130437 6:3 7:3 8:0.0869565 9:0.13043481 10:0.26086956 11:0.5217391 12:58 13:0.24444444 14:1 15:0.38805968 16:67 17:0.26865673 18:0.19402987 19:0.19402987 20:0.3432836 21:0.24590164 22:1.75 23:0.15384616 24:0.25 
-0.4668899528560869 4:21 5:0.23809522 6:2 7:2 8:0.19047618 9:0.09523809 10:0.14285713 11:0.57142854 12:47 13:0.31707317 15:0.31707317 16:41 17:0.29268295 18:0.12195122 19:0.19512194 20:0.3902439 21:0.2 22:0.25 23:0.23076923 
-0.1153633671693147 3:3 4:22 5:0.5454545 6:1 7:4 8:0.18181819 9:0.04545456 10:0.5 11:0.27272725 12:7 13:0.25581396 14:2 15:0.5849056 16:53 17:0.18867922 18:0.24528301 19:0.33962262 20:0.2264151 21:0.22448979 22:2.2 
-0.8852627470759776 1:2 2:1 3:8 4:21 5:0.57142854 6:1 7:3 8:0.19047618 9:0.3333333 10:0.23809522 11:0.23809522 12:48 13:0.19047619 14:2 15:0.5833334 16:60 17:0.21666664 18:0.3333333 19:0.25 20:0.19999999 21:0.21428572 22:1.25 24:0.2857143 
-0.8746928350321266 1:2 2:2 3:12 4:21 5:0.61904764 6:1 7:4 8:0.19047618 9:0.4285714 10:0.19047618 11:0.19047618 12:52 13:0.19047619 14:2 15:0.63235295 16:68 17:0.19117647 18:0.35294116 19:0.2794118 20:0.17647058 21:0.1875 22:0.66666669 24:0.18181819 
-1 3:3 4:22 5:0.45454544 6:1 7:4 8:0.27272725 9:0.18181819 10:0.27272725 11:0.27272725 12:54 13:0.18181819 14:1 15:0.42622954 16:61 17:0.18032789 18:0.18032789 19:0.24590164 20:0.39344263 21:0.16 22:1 23:0.1724138 
-0.3223350891181183 1:1 2:2 3:14 4:23 5:0.5652174 6:2 7:4 8:0.13043481 9:0.21739131 10:0.34782606 11:0.3043478 12:65 13:0.2 14:4 15:0.47619045 16:84 17:0.1785714 18:0.21428573 19:0.26190478 20:0.3452381 21:0.1780822 22:1 24:0.14285715 
-0.1655992925790712 1:2 2:2 3:13 4:24 5:0.5 6:4 7:3 8:0.2916667 9:0.25 10:0.25 11:0.20833331 12:9 13:0.2888889 14:2 15:0.5479452 16:73 17:0.24657536 18:0.27397263 19:0.27397263 20:0.20547944 21:0.24637681 22:0.8888889 23:0.25 24:0.16666667 
-0.4879085663639656 1:2 2:3 3:17 4:21 5:0.44444442 6:4 7:3 8:0.2777778 9:0.2777778 10:0.16666669 11:0.2777778 12:65 13:0.2820513 14:2 15:0.56 16:75 17:0.24000001 18:0.27999997 19:0.27999997 20:0.19999999 21:0.23943663 22:1.125 23:0.2857143 24:0.1875 
-0.2357366345237261 3:1 4:21 5:0.57142854 6:3 7:2 8:0.09523809 9:0.23809522 10:0.3333333 11:0.3333333 12:44 13:0.19047619 14:2 15:0.5 16:52 17:0.26923078 18:0.23076922 19:0.26923078 20:0.23076922 21:0.18181819 22:0.69999999 23:0.16666667 
-0.9669914695204073 3:1 4:22 5:0.40909094 6:3 7:2 8:0.40909094 9:0.22727275 10:0.18181819 11:0.18181819 12:12 13:0.22727273 14:4 15:0.4814815 16:54 17:0.25925928 18:0.22222221 19:0.25925928 20:0.25925928 21:0.2173913 22:1.1428572 23:0.090909094 
-0.05207537924685329 4:23 5:0.5909091 6:2 7:4 8:0.13636363 9:0.18181819 10:0.40909094 11:0.27272725 12:14 13:0.2888889 14:4 15:0.6 16:45 17:0.13333333 18:0.24444443 19:0.35555553 20:0.26666665 21:0.21951219 22:2.2 23:0.25925925 
-1 1:1 2:1 3:5 4:26 5:0.625 6:2 7:4 8:0.041666687 9:0.2916667 10:0.3333333 11:0.3333333 12:5 13:0.2 14:1 15:0.59375 16:64 17:0.125 18:0.25 19:0.34375 20:0.28125 21:0.23333333 22:1.6666666 23:0.25 24:0.40000001 
-0.8116731108285723 3:1 4:22 5:0.5 6:1 7:4 8:0.22727275 9:0.18181819 10:0.3181818 11:0.27272725 12:4 13:0.14285715 14:4 15:0.48076922 16:52 17:0.23076922 18:0.23076922 19:0.25 20:0.28846157 21:0.13636364 22:1.1428572 
-0.4655975783381448 4:22 5:0.36363637 6:1 7:2 8:0.22727275 9:0.13636363 10:0.22727275 11:0.40909094 12:38 13:0.13636364 14:3 15:0.3962264 16:53 17:0.2830189 18:0.18867922 19:0.20754719 20:0.3207547 21:0.095238097 22:1.1666666 
-0.6119741245531742 3:5 4:22 5:0.36363637 6:1 7:2 8:0.22727275 9:0.18181819 10:0.18181819 11:0.40909094 12:1 13:0.090909094 15:0.36923075 16:65 17:0.29230767 18:0.16923076 19:0.19999999 20:0.33846152 21:0.074074075 22:1.2857143 
-1 1:2 2:1 3:10 4:22 5:0.5454545 6:1 7:4 8:0.27272725 9:0.27272725 10:0.27272725 11:0.18181819 12:50 13:0.14285715 14:3 15:0.530303 16:66 17:0.22727275 18:0.22727275 19:0.3030303 20:0.24242425 21:0.13333334 22:1.2857143 24:0.11111111 
-0.375775192363854 1:3 2:2 3:17 4:24 5:0.5 6:1 7:3 8:0.2916667 9:0.20833331 10:0.2916667 11:0.20833331 12:4 13:0.2 14:4 15:0.55421686 16:83 17:0.21686745 18:0.26506025 19:0.28915662 20:0.22891569 21:0.21518987 22:5.5 23:0.66666669 24:0.23529412 
-1 1:1 2:1 3:4 4:23 5:0.6363636 6:3 7:2 8:0.090909064 9:0.36363637 10:0.27272725 11:0.27272725 12:5 13:0.15555556 14:4 15:0.57894737 16:57 17:0.19298244 18:0.28070176 19:0.2982456 20:0.2280702 21:0.16981132 22:1.125 23:0.25 24:0.25 
-0.8789982809093382 1:2 2:1 3:7 4:22 5:0.71428573 6:1 7:3 8:0.19047618 9:0.38095236 10:0.3333333 11:0.09523809 12:16 13:0.1627907 14:4 15:0.6779661 16:59 17:0.20338982 18:0.30508476 19:0.37288135 20:0.11864406 21:0.17857143 22:1.125 23:0.18518518 24:0.23076923 
-0.5300195428211064 1:2 2:1 3:6 4:23 5:0.6521739 6:1 7:3 8:0.21739131 9:0.21739131 10:0.43478262 11:0.13043481 12:52 13:0.15555556 14:3 15:0.6779661 16:59 17:0.20338982 18:0.30508476 19:0.37288135 20:0.11864406 21:0.17857143 22:1.2222222 23:0.18518518 24:0.27272728 
-1 1:2 2:3 3:18 4:23 5:0.6956522 6:2 7:3 8:0.13043481 9:0.39130437 10:0.3043478 11:0.17391306 12:4 13:0.13636364 14:4 15:0.67901236 16:81 17:0.19753087 18:0.32098764 19:0.35802472 20:0.12345678 21:0.17948718 22:0.72727275 23:0.2 24:0.23529412 
-0.7171280838606543 3:5 4:27 5:0.5833334 6:2 7:6 8:0.3333333 9:0.2916667 10:0.2916667 11:0.08333331 12:3 13:0.2 14:1 15:0.515625 16:64 17:0.265625 18:0.25 19:0.265625 20:0.21875 21:0.18644068 22:1 24:0.11111111 
-0.9969148605436595 1:2 2:1 3:7 4:24 5:0.5652174 6:3 7:3 8:0.13043481 9:0.43478262 10:0.13043481 11:0.3043478 12:45 13:0.1627907 14:4 15:0.5223881 16:67 17:0.23880595 18:0.29850745 19:0.22388059 20:0.23880595 21:0.17857143 22:1.375 24:0.23076923 
-0.3835020098752684 1:2 2:2 3:10 4:23 5:0.85714287 6:1 7:4 8:0.047619045 9:0.52380955 10:0.3333333 11:0.09523809 12:2 13:0.13636364 14:3 15:0.7164179 16:67 17:0.07462686 18:0.3432836 19:0.37313432 20:0.20895523 21:0.20634921 22:1.375 24:0.36842105 
-0.9975024385375895 3:7 4:26 5:0.4583333 6:4 7:2 8:0.375 9:0.16666669 10:0.2916667 11:0.16666669 12:48 13:0.16 14:3 15:0.53731346 16:67 17:0.20895523 18:0.22388059 19:0.3134328 20:0.25373137 21:0.19354838 22:2 24:0.33333334 
-0.4918431631922943 1:2 2:2 3:16 4:23 5:0.45454544 6:2 7:4 8:0.18181819 9:0.27272725 10:0.18181819 11:0.36363637 12:73 13:0.24444444 14:3 15:0.47500002 16:80 17:0.21249998 18:0.16250002 19:0.3125 20:0.3125 21:0.21052632 22:1.6 23:0.45454547 24:0.16129032 
-0.1158223726341997 4:22 5:0.45454544 6:2 7:3 8:0.22727275 9:0.090909064 10:0.36363637 11:0.3181818 12:34 13:0.25581396 14:4 15:0.46511626 16:43 17:0.2093023 18:0.13953489 19:0.32558137 20:0.32558137 21:0.17948718 22:2 23:0.32203391 
-0.1064563526714122 1:1 2:1 3:12 4:24 5:0.6363636 6:3 7:5 8:0.22727275 9:0.45454544 10:0.18181819 11:0.13636363 12:3 13:0.26086956 14:1 15:0.556962 16:79 17:0.16455698 18:0.26582277 19:0.29113925 20:0.278481 21:0.2 22:2.6666667 24:0.083333336 
-0.08544609401138083 4:24 5:0.75 6:2 7:1 8:0.16666669 9:0.20833331 10:0.5416666 11:0.08333331 12:37 13:0.25 14:4 15:0.6862745 16:51 17:0.11764705 18:0.31372547 19:0.372549 20:0.19607842 21:0.1 
-0.01945474961845899 4:24 5:0.75 6:2 7:1 8:0.16666669 9:0.25 10:0.5 11:0.08333331 12:36 13:0.29166666 15:0.6938776 16:49 17:0.12244898 18:0.32653064 19:0.36734694 20:0.18367344 21:0.10526316 
-0.02793810778563557 4:24 5:0.6956522 6:1 7:2 8:0.13043481 9:0.34782606 10:0.34782606 11:0.17391306 12:36 13:0.27659574 14:1 15:0.6153846 16:52 17:0.21153843 18:0.3076923 19:0.3076923 20:0.17307693 21:0.081081077 23:0.16666667 
-0.2027122289670664 1:1 2:3 3:16 4:22 5:0.8181818 6:3 7:2 9:0.3181818 10:0.5 11:0.18181819 12:1 13:0.15000001 15:0.675 16:80 17:0.14999998 18:0.3625 19:0.3125 20:0.17500001 21:0.14285715 22:2.4000001 24:0.13333334 
-0.1217624451909836 4:25 5:0.5 6:2 7:3 8:0.25 9:0.125 10:0.375 11:0.25 12:11 13:0.19148937 14:4 15:0.5319149 16:47 17:0.25531918 18:0.25531918 19:0.27659577 20:0.21276593 21:0.11627907 22:2.75 23:0.23809524 
-1 3:3 4:23 5:0.5 6:2 7:2 8:0.18181819 9:0.090909064 10:0.40909094 11:0.3181818 12:8 13:0.11627907 14:3 15:0.4716981 16:53 17:0.26415092 18:0.2264151 19:0.24528301 20:0.26415092 21:0.14285715 22:0.77777779 23:0.2 24:0.33333334 
-0.9550654946673431 3:3 4:25 5:0.5833334 6:2 7:3 8:0.3333333 9:0.20833331 10:0.375 11:0.08333331 12:46 13:0.125 14:1 15:0.530303 16:66 17:0.18181819 18:0.22727275 19:0.3030303 20:0.2878788 21:0.11111111 22:1.1111112 
-0.3144455732206801 3:9 4:22 5:0.47619045 6:2 7:3 8:0.09523809 9:0.19047618 10:0.28571427 11:0.4285714 12:1 13:0.2857143 15:0.5 16:72 17:0.20833331 18:0.20833331 19:0.2916667 20:0.2916667 21:0.2 22:0.22222222 
-1 1:3 2:1 3:9 4:25 5:0.40909094 6:1 7:2 8:0.27272725 9:0.27272725 10:0.13636363 11:0.3181818 12:48 13:0.31914893 14:2 15:0.47761196 16:67 17:0.25373137 18:0.22388059 19:0.25373137 20:0.26865673 21:0.29032257 24:0.2 
