svm_type c_svc
kernel_type rbf
gamma 0.0416667
nr_class 2
total_sv 423
rho 0.360271
label 1 0
probA -1.95749
probB 0.0554719
nr_sv 183 240
SV
1 3:4 4:23 5:0.39130437 6:2 7:2 8:0.17391306 9:0.21739131 10:0.17391306 11:0.43478262 12:4 13:0.15555556 14:4 15:0.42372882 16:59 17:0.23728812 18:0.16949153 19:0.2542373 20:0.33898306 21:0.24528302 22:0.25 24:0.75 
0.2483811732001458 1:3 2:1 3:6 4:23 5:0.45454544 6:2 7:2 8:0.22727275 9:0.090909064 10:0.36363637 11:0.3181818 12:43 13:0.24444444 14:3 15:0.39682537 16:63 17:0.25396824 18:0.15873015 19:0.23809522 20:0.34920633 21:0.29824561 22:4.5 24:0.5 
1 3:1 4:22 5:0.6363636 6:4 7:2 8:0.13636363 9:0.40909094 10:0.22727275 11:0.22727275 12:7 13:0.27272728 14:3 15:0.6111111 16:54 17:0.2037037 18:0.3148148 19:0.2962963 20:0.1851852 21:0.26086956 22:0.8888889 
1 3:3 4:22 5:0.6363636 6:4 7:3 8:0.3181818 9:0.22727275 10:0.40909094 11:0.04545456 12:41 13:0.27272728 14:3 15:0.63793105 16:58 17:0.18965518 18:0.32758623 19:0.31034482 20:0.17241377 21:0.23999999 22:1.1111112 
1 3:5 4:21 5:0.57142854 6:2 7:3 8:0.3333333 9:0.047619045 10:0.52380955 11:0.09523809 12:17 13:0.2682927 14:2 15:0.5818182 16:55 17:0.23636365 18:0.34545457 19:0.23636365 20:0.18181819 21:0.31999999 22:2 23:0.22580644 24:0.55555558 
1 3:3 4:25 5:0.40909094 6:2 7:3 8:0.090909064 9:0.13636363 10:0.27272725 11:0.5 12:47 13:0.19148937 14:2 15:0.46551722 16:58 17:0.24137932 18:0.18965518 19:0.2758621 20:0.29310346 21:0.16981132 22:1 23:0.30000001 
1 3:5 4:22 5:0.47619045 6:2 7:2 8:0.19047618 9:0.28571427 10:0.19047618 11:0.3333333 12:21 13:0.11627907 14:2 15:0.5090909 16:55 17:0.23636365 18:0.25454545 19:0.25454545 20:0.25454545 21:0.1923077 22:1.125 23:0.31818181 24:0.55555558 
1 1:2 2:1 3:5 4:22 5:0.57142854 6:2 7:3 8:0.14285713 9:0.23809522 10:0.3333333 11:0.28571427 12:5 13:0.20930232 14:2 15:0.5 16:58 17:0.2241379 18:0.24137932 19:0.25862068 20:0.2758621 21:0.24528302 22:1 23:0.25 24:0.40000001 
1 1:2 2:2 3:10 4:22 5:0.6363636 6:2 7:4 8:0.27272725 9:0.22727275 10:0.40909094 11:0.090909064 12:47 13:0.33333334 14:2 15:0.6060606 16:66 17:0.19696969 18:0.3333333 19:0.27272725 20:0.19696969 21:0.3442623 22:1 24:0.36842105 
1 4:22 5:0.5 6:2 7:3 8:0.19999999 9:0.3 10:0.19999999 11:0.3 12:14 13:0.14285715 14:2 15:0.46296299 16:54 17:0.22222221 18:0.24074072 19:0.22222221 20:0.3148148 21:0.14285715 22:1.125 23:0.18518518 
0.02728619246829019 3:6 4:22 5:0.45454544 6:3 7:2 8:0.27272725 9:0.18181819 10:0.27272725 11:0.27272725 12:18 13:0.1627907 14:3 15:0.45762712 16:59 17:0.23728812 18:0.20338982 19:0.2542373 20:0.30508476 21:0.16363636 22:1.5 23:0.27272728 24:0.16666667 
1 1:1 2:1 3:7 4:23 5:0.5909091 6:3 7:2 8:0.22727275 9:0.22727275 10:0.36363637 11:0.18181819 12:57 13:0.15555556 14:3 15:0.44444442 16:63 17:0.23809522 18:0.19047618 19:0.25396824 20:0.3174603 21:0.15254237 22:0.375 23:0.31034482 24:0.14285715 
1 3:3 4:26 5:0.5909091 6:3 7:5 8:0.13636363 9:0.27272725 10:0.3181818 11:0.27272725 12:9 13:0.20833333 14:1 15:0.5862069 16:58 17:0.13793105 18:0.24137932 19:0.3448276 20:0.2758621 21:0.18518518 22:2.3333333 23:0.06666667 
1 1:3 2:2 3:13 4:22 5:0.71428573 6:1 7:4 8:0.14285713 9:0.23809522 10:0.47619045 11:0.14285713 12:51 13:0.1627907 14:2 15:0.6231884 16:69 17:0.13043481 18:0.26086956 19:0.3623188 20:0.24637681 21:0.16923077 22:1 24:0.18181819 
0.001803204902039707 3:1 4:23 5:0.5 6:1 7:2 8:0.40909094 9:0.18181819 10:0.3181818 11:0.090909064 12:22 13:0.06666667 14:3 15:0.4915254 16:59 17:0.23728812 18:0.2542373 19:0.23728812 20:0.2711864 21:0.063829787 22:0.89999998 23:0.3488372 
0.9868333246060271 3:3 4:23 5:0.5217391 6:1 7:2 8:0.0869565 9:0.26086956 10:0.26086956 11:0.39130437 12:60 13:0.090909094 14:1 15:0.5 16:62 17:0.22580647 18:0.2580645 19:0.24193549 20:0.27419353 21:0.079999998 22:1.2857143 23:0.34999999 
1 1:1 2:1 3:5 4:23 5:0.6086956 6:2 7:3 8:0.17391306 9:0.21739131 10:0.39130437 11:0.21739131 12:5 13:0.2 14:1 15:0.5263158 16:57 17:0.21052629 18:0.2280702 19:0.2982456 20:0.2631579 21:0.18518518 22:0.5 24:0.11111111 
1 1:1 2:1 3:7 4:22 5:0.57142854 6:2 7:4 8:0.23809522 9:0.28571427 10:0.28571427 11:0.19047618 12:42 13:0.20930232 14:3 15:0.5084746 16:59 17:0.220339 18:0.220339 19:0.2881356 20:0.2711864 21:0.17857143 22:1.4285715 24:0.07692308 
1 1:1 2:1 3:5 4:24 5:0.5 6:2 7:3 8:0.16666669 9:0.16666669 10:0.3333333 11:0.3333333 12:14 13:0.17391305 14:2 15:0.55172414 16:58 17:0.20689654 18:0.25862068 19:0.29310346 20:0.24137932 21:0.16363636 22:0.80000001 23:0.14285715 24:0.11111111 
0.9296174006246289 1:3 2:1 3:9 4:21 5:0.61904764 6:2 7:1 8:0.09523809 9:0.57142854 10:0.047619045 11:0.28571427 12:54 13:0.14285715 14:4 15:0.60317457 16:63 17:0.17460316 18:0.25396824 19:0.34920633 20:0.22222221 21:0.20689656 22:1.25 23:0.13043478 24:0.375 
1 1:3 2:2 3:10 4:23 5:0.72727275 6:2 7:6 8:0.13636363 9:0.45454544 10:0.27272725 11:0.13636363 12:47 13:0.2888889 14:3 15:0.7384615 16:65 17:0.09230769 18:0.39999998 19:0.33846152 20:0.16923076 21:0.29032257 22:1.3333334 24:0.29411766 
1 1:3 2:1 3:11 4:21 5:0.61904764 6:2 7:3 8:0.19047618 9:0.23809522 10:0.38095236 11:0.19047618 12:54 13:0.2682927 14:1 15:0.6 16:65 17:0.19999999 18:0.27692306 19:0.3230769 20:0.19999999 21:0.23333333 22:0.80000001 23:0.11111111 24:0.15789473 
1 4:24 5:0.5416666 6:2 7:5 8:0.16666669 9:0.375 10:0.16666669 11:0.2916667 12:9 13:0.2173913 14:2 15:0.5272727 16:55 17:0.14545453 18:0.25454545 19:0.27272725 20:0.3272727 21:0.2173913 22:0.77777779 23:0.16666667 
0.4899695162264365 3:1 4:24 5:0.45454544 6:2 7:2 8:0.22727275 9:0.18181819 10:0.27272725 11:0.3181818 12:14 13:0.2173913 14:4 15:0.4918033 16:61 17:0.19672132 18:0.27868855 19:0.21311474 20:0.3114754 21:0.20833333 22:1.25 23:0.375 
1 3:3 4:23 5:0.45454544 6:2 7:4 8:0.3181818 9:0.27272725 10:0.18181819 11:0.22727275 12:6 13:0.2 14:4 15:0.4153846 16:65 17:0.26153845 18:0.19999999 19:0.2153846 20:0.3230769 21:0.17647059 22:1 23:0.40000001 
0.1474789912365381 3:2 4:23 5:0.47826087 6:2 7:4 8:0.0869565 9:0.17391306 10:0.3043478 11:0.43478262 12:47 13:0.2 14:2 15:0.4285714 16:63 17:0.25396824 18:0.2063492 19:0.22222221 20:0.3174603 21:0.18367347 22:0.875 23:0.33333334 
0.3790521572462278 3:2 4:24 5:0.4583333 6:2 7:3 8:0.16666669 9:0.08333331 10:0.375 11:0.375 12:20 13:0.24444444 14:1 15:0.4166667 16:60 17:0.25 18:0.23333335 19:0.18333334 20:0.3333333 21:0.22448979 22:0.42857143 23:0.2820513 
1 1:2 2:1 3:9 4:22 5:0.61904764 6:2 7:4 8:0.047619045 9:0.52380955 10:0.09523809 11:0.3333333 12:50 13:0.20930232 14:2 15:0.61764705 16:68 17:0.14705884 18:0.2647059 19:0.35294116 20:0.2352941 21:0.2 22:0.77777779 24:0.17647059 
0.05446991230130403 3:4 4:24 5:0.5909091 6:2 7:4 8:0.3181818 9:0.27272725 10:0.3181818 11:0.090909064 12:14 13:0.15555556 14:1 15:0.52542377 16:59 17:0.2711864 18:0.23728812 19:0.2881356 20:0.20338982 21:0.13207547 22:1 23:0.07692308 
1 3:8 4:23 5:0.5454545 6:1 7:4 8:0.27272725 9:0.18181819 10:0.36363637 11:0.18181819 12:54 13:0.1627907 14:3 15:0.515625 16:64 17:0.28125 18:0.234375 19:0.28125 20:0.203125 21:0.13793103 22:0.71428573 23:0.047619049 24:0.06666667 
1 1:2 2:1 3:9 4:22 5:0.5454545 6:2 7:3 8:0.04545456 9:0.40909094 10:0.13636363 11:0.40909094 12:6 13:0.17073171 14:1 15:0.5 16:60 17:0.21666664 18:0.28333336 19:0.21666664 20:0.28333336 21:0.19298245 22:0.66666669 23:0.2 24:0.25 
0.1775382896438749 1:2 2:1 3:8 4:25 5:0.5 6:2 7:3 8:0.45454544 9:0.18181819 10:0.3181818 11:0.04545456 12:46 13:0.23404256 14:1 15:0.5 16:64 17:0.21875 18:0.265625 19:0.234375 20:0.28125 21:0.21311475 22:1.1666666 24:0.14285715 
1 3:5 4:24 5:0.6666666 6:1 7:2 8:0.2916667 9:0.4166667 10:0.25 11:0.041666687 12:14 13:0.086956523 14:4 15:0.56896555 16:58 17:0.18965518 18:0.2758621 19:0.29310346 20:0.24137932 21:0.11111111 22:0.75 23:0.23076923 24:0.25 
0.08305140151475181 3:2 4:22 5:0.5454545 6:2 7:4 8:0.22727275 9:0.18181819 10:0.36363637 11:0.22727275 12:19 13:0.25581396 14:3 15:0.5 16:56 17:0.23214287 18:0.21428573 19:0.28571427 20:0.26785713 21:0.23404256 22:0.5714286 23:0.13333334 
1 1:1 2:1 3:8 4:22 5:0.45454544 6:2 7:3 8:0.3181818 9:0.18181819 10:0.27272725 11:0.22727275 12:15 13:0.20930232 14:4 15:0.44444442 16:63 17:0.22222221 18:0.17460316 19:0.26984125 20:0.3333333 21:0.20689656 22:1.125 23:0.2857143 24:0.2 
1 1:1 2:1 3:9 4:23 5:0.5 6:2 7:4 8:0.18181819 9:0.27272725 10:0.22727275 11:0.3181818 12:58 13:0.2 14:4 15:0.46268654 16:67 17:0.20895523 18:0.19402987 19:0.26865673 20:0.32835823 21:0.22580644 22:1.4285715 23:0.25 24:0.29411766 
1 4:26 5:0.73913044 6:2 7:3 8:0.0869565 9:0.39130437 10:0.34782606 11:0.17391306 12:14 13:0.14285715 14:1 15:0.7307692 16:52 17:0.11538464 18:0.40384614 19:0.32692307 20:0.15384614 21:0.14285715 22:0.875 23:0.30769232 
1 1:1 2:1 3:6 4:19 5:0.7368421 6:2 7:2 8:0.15789473 9:0.31578946 10:0.42105263 11:0.10526317 12:46 13:0.085714288 14:3 15:0.74 16:50 17:0.10000002 18:0.39999998 19:0.33999997 20:0.16000003 21:0.10638298 22:1.2 23:0.35714287 24:0.16666667 
1 4:23 5:0.40909094 6:2 7:3 8:0.22727275 9:0.18181819 10:0.22727275 11:0.36363637 12:14 13:0.15555556 14:3 15:0.41071427 16:56 17:0.28571427 18:0.1785714 19:0.23214287 20:0.3035714 21:0.15555556 22:1 23:0.15384616 
0.2840138254739238 4:22 5:0.6363636 6:1 7:3 8:0.18181819 9:0.5 10:0.13636363 11:0.18181819 12:22 13:0.13636364 14:4 15:0.625 16:56 17:0.1785714 18:0.3214286 19:0.3035714 20:0.1964286 21:0.13636364 22:1.1111112 23:0.14285715 
1 1:2 2:1 3:10 4:23 5:0.45454544 6:1 7:1 8:0.36363637 9:0.18181819 10:0.27272725 11:0.18181819 12:6 13:0.022222223 14:2 15:0.5230769 16:65 17:0.19999999 18:0.23076922 19:0.29230767 20:0.27692306 21:0.081967212 22:0.8888889 24:0.25 
1 1:2 2:2 3:12 4:22 5:0.45454544 6:1 7:1 8:0.13636363 9:0.22727275 10:0.22727275 11:0.40909094 12:50 13:0.023255814 14:3 15:0.53731346 16:67 17:0.19402987 18:0.23880595 19:0.29850745 20:0.26865673 21:0.079365082 22:1.125 24:0.2 
1 1:1 2:1 3:7 4:24 5:0.5652174 6:1 7:3 8:0.13043481 9:0.34782606 10:0.21739131 11:0.3043478 12:54 13:0.13636364 14:2 15:0.609375 16:64 17:0.15625 18:0.328125 19:0.28125 20:0.234375 21:0.15789473 22:0.85714287 23:0.13043478 24:0.23076923 
0.1188917200981525 1:2 2:1 3:5 4:25 5:0.5454545 6:2 7:3 8:0.18181819 9:0.18181819 10:0.36363637 11:0.27272725 12:2 13:0.24444444 14:2 15:0.62068963 16:58 17:0.18965518 18:0.31034482 19:0.31034482 20:0.18965518 21:0.25925925 22:0.30000001 24:0.33333334 
1 3:5 4:22 5:0.5454545 6:1 7:1 8:0.40909094 9:0.13636363 10:0.40909094 11:0.04545456 12:7 13:0.045454547 14:4 15:0.4736842 16:57 17:0.2631579 18:0.19298244 19:0.28070176 20:0.2631579 21:0.16981132 22:1.1111112 24:0.77777779 
1 1:4 2:1 3:7 4:25 5:0.48000002 6:1 7:1 8:0.07999998 9:0.27999997 10:0.19999999 11:0.44 12:44 13:0.039999999 14:3 15:0.49253732 16:67 17:0.25373137 18:0.20895523 19:0.2835821 20:0.25373137 21:0.14285715 22:0.90909094 24:0.53846157 
1 1:1 2:2 3:13 4:24 5:0.8 6:3 7:4 8:0.10000002 9:0.3 10:0.5 11:0.10000002 12:2 13:0.18181819 14:4 15:0.6438356 16:73 17:0.15068495 18:0.260274 19:0.38356167 20:0.20547944 21:0.14705883 22:1.3333334 24:0.083333336 
1 3:2 4:24 5:0.4583333 6:3 7:3 8:0.20833331 9:0.25 10:0.20833331 11:0.3333333 12:4 13:0.11627907 14:2 15:0.5283019 16:53 17:0.20754719 18:0.24528301 19:0.2830189 20:0.26415092 21:0.10638298 22:1.4 
1 3:2 4:28 5:0.5217391 6:3 7:3 8:0.26086956 9:0.3043478 10:0.21739131 11:0.21739131 12:38 13:0.12 14:3 15:0.56666666 16:60 17:0.19999999 18:0.26666665 19:0.3 20:0.23333335 21:0.11111111 22:0.55555558 
1 1:1 2:1 3:5 4:23 5:0.5454545 6:3 7:2 8:0.18181819 9:0.22727275 10:0.3181818 11:0.27272725 12:10 13:0.2 14:4 15:0.5423729 16:59 17:0.20338982 18:0.23728812 19:0.30508476 20:0.2542373 21:0.22222222 22:0.80000001 23:0.11111111 24:0.33333334 
1 3:4 4:25 5:0.6363636 6:3 7:5 8:0.090909064 9:0.22727275 10:0.40909094 11:0.27272725 12:3 13:0.22727273 14:3 15:0.6507937 16:63 17:0.12698412 18:0.30158728 19:0.34920633 20:0.22222221 21:0.1923077 22:0.25 
1 1:1 2:1 3:5 4:23 5:0.34782606 6:2 7:4 8:0.3043478 9:0.13043481 10:0.21739131 11:0.34782606 12:43 13:0.2 14:2 15:0.4915254 16:59 17:0.2542373 18:0.220339 19:0.2711864 20:0.2542373 21:0.18518518 22:1.1666666 24:0.11111111 
1 3:4 4:23 5:0.7826087 6:2 7:3 8:0.17391306 9:0.34782606 10:0.43478262 11:0.04347825 12:4 13:0.13636364 14:2 15:0.78947365 16:57 17:0.12280703 18:0.35087717 19:0.4385965 20:0.08771932 21:0.21568628 22:0.8888889 23:0.14285715 24:0.71428573 
1 1:1 2:1 3:7 4:22 5:0.5454545 6:3 7:2 8:0.27272725 9:0.13636363 10:0.40909094 11:0.18181819 12:1 13:0.12820514 14:1 15:0.5087719 16:57 17:0.2280702 18:0.2280702 19:0.28070176 20:0.2631579 21:0.13207547 22:4.5 24:0.14285715 
1 1:1 2:1 3:6 4:26 5:0.47619045 6:3 7:2 8:0.19047618 9:0.3333333 10:0.14285713 11:0.3333333 12:40 13:0.18181819 14:2 15:0.48333335 16:60 17:0.23333335 18:0.21666664 19:0.26666665 20:0.28333336 21:0.17857143 22:2.5 24:0.16666667 
1 1:2 2:1 3:9 4:28 5:0.6363636 6:6 7:2 8:0.22727275 9:0.40909094 10:0.22727275 11:0.13636363 12:1 13:0.2 15:0.6056338 16:71 17:0.1690141 18:0.28169012 19:0.32394367 20:0.22535211 21:0.20588236 22:3 24:0.22222222 
1 1:2 2:1 3:9 4:21 5:0.57142854 6:6 7:2 8:0.19047618 9:0.19047618 10:0.38095236 11:0.23809522 12:44 13:0.27777779 14:2 15:0.5964912 16:57 17:0.17543858 18:0.28070176 19:0.31578946 20:0.2280702 21:0.25925925 22:0.60000002 24:0.22222222 
1 3:5 4:20 5:0.55 6:1 7:2 8:0.10000002 9:0.25 10:0.3 11:0.35000002 12:10 13:0.07692308 14:1 15:0.46666664 16:60 17:0.23333335 18:0.21666664 19:0.25 20:0.3 21:0.06122449 22:1 23:0.25 
0.4193462418073897 3:5 4:21 5:0.55 6:1 7:2 8:0.3 9:0.19999999 10:0.35000002 11:0.14999998 12:51 13:0.073170729 14:4 15:0.4516129 16:62 17:0.24193549 18:0.2096774 19:0.24193549 20:0.30645162 21:0.05882353 22:1 23:0.2857143 
1 1:1 2:1 3:7 4:23 5:0.40909094 6:2 7:2 8:0.22727275 9:0.090909064 10:0.3181818 11:0.36363637 12:41 13:0.25581396 14:3 15:0.4745763 16:59 17:0.20338982 18:0.23728812 19:0.23728812 20:0.32203388 21:0.25 24:0.23076923 
1 1:2 2:1 3:5 4:22 5:0.5454545 6:2 7:3 8:0.22727275 9:0.3181818 10:0.22727275 11:0.22727275 12:4 13:0.18181819 14:1 15:0.559322 16:59 17:0.20338982 18:0.30508476 19:0.2542373 20:0.23728812 21:0.20754717 22:1.2857143 24:0.33333334 
0.8115199987079493 1:1 2:1 3:7 4:23 5:0.6818182 6:3 7:5 8:0.27272725 9:0.45454544 10:0.22727275 11:0.04545456 12:2 13:0.31707317 14:1 15:0.6166667 16:60 17:0.21666664 18:0.35000002 19:0.26666665 20:0.16666669 21:0.27272728 22:1 24:0.14285715 
1 1:1 2:1 3:4 4:24 5:0.40909094 6:2 7:3 8:0.22727275 9:0.22727275 10:0.18181819 11:0.36363637 12:41 13:0.2 14:4 15:0.44067794 16:59 17:0.23728812 18:0.20338982 19:0.23728812 20:0.32203388 21:0.20754717 22:2 24:0.25 
1 3:4 4:24 5:0.72727275 6:1 7:4 8:0.18181819 9:0.45454544 10:0.27272725 11:0.090909064 12:8 13:0.22727273 14:2 15:0.6721312 16:61 17:0.14754099 18:0.32786888 19:0.3442623 20:0.18032789 21:0.1923077 22:3.6666667 23:0.14285715 
1 3:6 4:24 5:0.6666666 6:1 7:4 8:0.20833331 9:0.2916667 10:0.375 11:0.125 12:47 13:0.2 14:2 15:0.671875 16:64 17:0.140625 18:0.328125 19:0.34375 20:0.1875 21:0.2 22:1 23:0.090909094 24:0.2 
1 4:24 5:0.4166667 6:1 7:2 8:0.2916667 9:0.20833331 10:0.20833331 11:0.2916667 12:6 13:0.16666667 14:4 15:0.4423077 16:52 17:0.28846157 18:0.19230771 19:0.25 20:0.26923078 21:0.16666667 22:0.83333331 
1 1:1 2:1 3:5 4:20 5:0.45 6:2 7:2 8:0.25 9:0.14999998 10:0.3 11:0.3 12:39 13:0.15000001 14:1 15:0.4259259 16:54 17:0.2962963 18:0.1851852 19:0.24074072 20:0.2777778 21:0.16 22:2.25 24:0.2 
0.4558726937131309 3:2 4:24 5:0.47826087 6:2 7:4 8:0.3043478 9:0.21739131 10:0.26086956 11:0.21739131 12:43 13:0.2173913 14:2 15:0.5409836 16:61 17:0.21311474 18:0.24590164 19:0.29508197 20:0.24590164 21:0.2 22:1.6 23:0.25 
0.9790500567764664 1:3 2:1 3:7 4:21 5:0.57142854 6:1 7:2 8:0.28571427 9:0.23809522 10:0.3333333 11:0.14285713 12:43 13:0.095238097 14:4 15:0.48333335 16:60 17:0.21666664 18:0.25 19:0.23333335 20:0.3 21:0.16363636 22:0.63636363 24:0.38461539 
1 4:23 5:0.6818182 6:2 7:3 8:0.18181819 9:0.27272725 10:0.40909094 11:0.13636363 12:6 13:0.24444444 14:3 15:0.66071427 16:56 17:0.14285713 18:0.26785713 19:0.39285713 20:0.1964286 21:0.24444444 22:1 
0.743032750365282 3:5 4:21 5:0.8095238 6:2 7:2 8:0.047619045 9:0.47619045 10:0.3333333 11:0.14285713 12:44 13:0.21951219 14:1 15:0.6935484 16:62 17:0.12903225 18:0.2903226 19:0.40322578 20:0.17741936 21:0.21568628 22:0.66666669 24:0.2 
1 1:1 2:1 3:5 4:23 5:0.5217391 6:2 7:3 8:0.3043478 9:0.0869565 10:0.43478262 11:0.17391306 12:5 13:0.15555556 14:3 15:0.49206346 16:63 17:0.22222221 18:0.2063492 19:0.28571427 20:0.28571427 21:0.16363636 22:0.90909094 23:0.25 24:0.2 
1 1:1 2:1 3:7 4:23 5:0.5454545 6:2 7:3 8:0.13636363 9:0.3181818 10:0.22727275 11:0.3181818 12:48 13:0.2 14:3 15:0.47761196 16:67 17:0.23880595 18:0.19402987 19:0.2835821 20:0.2835821 21:0.18644068 22:1.4285715 24:0.14285715 
1 1:1 2:1 3:8 4:21 5:0.6666666 6:1 7:2 8:0.09523809 9:0.38095236 10:0.28571427 11:0.23809522 12:4 13:0.21951219 14:3 15:0.73333335 16:60 17:0.11666667 18:0.28333336 19:0.45 20:0.14999998 21:0.2 22:3.6666667 24:0.14285715 
1 1:1 2:1 3:9 4:21 5:0.85 6:1 7:2 8:0.050000012 9:0.19999999 10:0.65 11:0.10000002 12:45 13:0.17073171 14:1 15:0.7258065 16:62 17:0.11290324 18:0.27419353 19:0.4516129 20:0.16129035 21:0.19298245 22:0.60000002 24:0.25 
1 1:3 2:1 3:6 4:22 5:0.6363636 6:1 7:3 8:0.13636363 9:0.40909094 10:0.22727275 11:0.22727275 12:5 13:0.11627907 14:2 15:0.6666666 16:57 17:0.12280703 18:0.35087717 19:0.31578946 20:0.21052629 21:0.16981132 22:1 23:0.25 24:0.40000001 
0.8677143604042157 1:3 2:1 3:8 4:22 5:0.57142854 6:3 7:3 8:0.09523809 9:0.28571427 10:0.28571427 11:0.3333333 12:47 13:0.20930232 14:4 15:0.5409836 16:61 17:0.18032789 18:0.27868855 19:0.26229507 20:0.27868855 21:0.24137931 22:0.54545456 23:0.11111111 24:0.33333334 
0.4394977111890603 3:1 4:24 5:0.45454544 6:2 7:3 8:0.090909064 9:0.3181818 10:0.13636363 11:0.45454544 12:3 13:0.13043478 14:1 15:0.4310345 16:58 17:0.2241379 18:0.18965518 19:0.24137932 20:0.3448276 21:0.125 22:0.80000001 
1 3:3 4:24 5:0.3333333 6:2 7:3 8:0.5 9:0.041666687 10:0.2916667 11:0.16666669 12:39 13:0.2173913 14:3 15:0.41935486 16:62 17:0.2580645 18:0.19354838 19:0.22580647 20:0.32258064 21:0.1923077 22:2.5 
1 3:1 4:25 5:0.6666666 6:2 7:4 8:0.08333331 9:0.375 10:0.2916667 11:0.25 12:6 13:0.18367347 14:1 15:0.63793105 16:58 17:0.15517241 18:0.29310346 19:0.3448276 20:0.20689654 21:0.17647059 22:0.8888889 
0.5494851494254321 3:4 4:24 5:0.625 6:2 7:3 8:0.20833331 9:0.2916667 10:0.3333333 11:0.16666669 12:42 13:0.14893617 14:2 15:0.62903225 16:62 17:0.16129035 18:0.2903226 19:0.33870965 20:0.2096774 21:0.16363636 22:0.72727275 24:0.25 
1 3:3 4:24 5:0.5 6:3 7:4 8:0.3181818 9:0.27272725 10:0.22727275 11:0.18181819 12:7 13:0.26086956 14:3 15:0.4310345 16:58 17:0.29310346 18:0.2241379 19:0.20689654 20:0.2758621 21:0.23076923 22:5 23:0.16666667 
1 3:2 4:22 5:0.5909091 6:2 7:3 8:0.090909064 9:0.22727275 10:0.36363637 11:0.3181818 12:6 13:0.18181819 14:2 15:0.57142854 16:56 17:0.14285713 18:0.23214287 19:0.33928573 20:0.28571427 21:0.20833333 22:1.25 23:0.11111111 24:0.5 
1 1:1 2:1 3:5 4:23 5:0.6818182 6:2 7:3 8:0.13636363 9:0.45454544 10:0.22727275 11:0.18181819 12:44 13:0.13636364 14:2 15:0.671875 16:64 17:0.1875 18:0.390625 19:0.28125 20:0.140625 21:0.13207547 22:0.90909094 24:0.11111111 
0.959042167688009 1:2 2:2 3:9 4:23 5:0.6363636 6:1 7:3 8:0.090909064 9:0.5909091 10:0.04545456 11:0.27272725 12:45 13:0.13636364 14:4 15:0.57575756 16:66 17:0.18181819 18:0.24242425 19:0.3333333 20:0.24242425 21:0.19354838 22:1.4285715 24:0.33333334 
1 1:1 2:2 3:9 4:22 5:0.5 6:1 7:2 8:0.3181818 9:0.13636363 10:0.36363637 11:0.18181819 12:9 13:0.069767445 14:1 15:0.546875 16:64 17:0.203125 18:0.203125 19:0.34375 20:0.25 21:0.1 22:0.69999999 23:0.05882353 24:0.17647059 
1 1:1 2:2 3:11 4:23 5:0.5 6:1 7:3 8:0.13636363 9:0.3181818 10:0.18181819 11:0.36363637 12:54 13:0.090909094 14:2 15:0.5362319 16:69 17:0.20289856 18:0.18840581 19:0.34782606 20:0.26086956 21:0.10769231 22:1.6666666 24:0.14285715 
1 1:2 2:1 3:7 4:21 5:0.61904764 6:1 7:3 8:0.19047618 9:0.3333333 10:0.28571427 11:0.19047618 12:10 13:0.19047619 14:1 15:0.6034483 16:58 17:0.18965518 18:0.3448276 19:0.25862068 20:0.20689654 21:0.18518518 22:1.4285715 23:0.11111111 24:0.16666667 
0.9367858178915737 1:2 2:1 3:7 4:21 5:0.61904764 6:1 7:3 8:0.14285713 9:0.38095236 10:0.23809522 11:0.23809522 12:47 13:0.19047619 14:1 15:0.6034483 16:58 17:0.18965518 18:0.3448276 19:0.25862068 20:0.20689654 21:0.18518518 22:0.69999999 23:0.11111111 24:0.16666667 
1 4:22 5:0.5 6:1 7:3 8:0.13636363 9:0.3181818 10:0.18181819 11:0.36363637 12:18 13:0.13636364 14:4 15:0.39999998 16:55 17:0.19999999 18:0.19999999 19:0.19999999 20:0.39999998 21:0.13636364 22:1.2222222 23:0.2 
0.605681347195246 3:2 4:23 5:0.43478262 6:1 7:4 8:0.26086956 9:0.17391306 10:0.26086956 11:0.3043478 12:53 13:0.17391305 14:2 15:0.42622954 16:61 17:0.18032789 18:0.18032789 19:0.24590164 20:0.39344263 21:0.16 22:1.2857143 23:0.1724138 
0.7884102456358943 1:2 2:2 3:9 4:20 5:0.6666666 6:2 7:2 8:0.055555582 9:0.3333333 10:0.3333333 11:0.2777778 12:57 13:0.10526316 14:2 15:0.56896555 16:58 17:0.20689654 18:0.2758621 19:0.29310346 20:0.2241379 21:0.14814815 22:1 23:0.41935483 24:0.25 
1 3:2 4:21 5:0.4285714 6:3 7:2 8:0.38095236 9:0.23809522 10:0.19047618 11:0.19047618 12:12 13:0.23809524 14:4 15:0.4814815 16:54 17:0.25925928 18:0.22222221 19:0.25925928 20:0.25925928 21:0.2173913 22:1.1428572 23:0.090909094 
1 1:1 2:1 3:5 4:24 5:0.6363636 6:2 7:4 8:0.04545456 9:0.27272725 10:0.36363637 11:0.3181818 12:7 13:0.2173913 14:3 15:0.6 16:60 17:0.11666667 18:0.25 19:0.35000002 20:0.28333336 21:0.25 22:1.6666666 23:0.16666667 24:0.40000001 
0.8426631724799543 1:1 2:1 3:5 4:23 5:0.40909094 6:1 7:3 8:0.13636363 9:0.27272725 10:0.13636363 11:0.45454544 12:39 13:0.20930232 14:3 15:0.43333334 16:60 17:0.21666664 18:0.19999999 19:0.23333335 20:0.35000002 21:0.1923077 22:3.5 24:0.11111111 
1 4:22 5:0.40909094 6:1 7:2 8:0.3181818 9:0.18181819 10:0.22727275 11:0.27272725 12:6 13:0.090909094 14:3 15:0.38181818 16:55 17:0.2909091 18:0.18181819 19:0.19999999 20:0.3272727 21:0.090909094 22:0.66666669 
1 3:2 4:22 5:0.36363637 6:1 7:2 8:0.27272725 9:0.13636363 10:0.22727275 11:0.36363637 12:41 13:0.090909094 14:3 15:0.37288135 16:59 17:0.2881356 18:0.16949153 19:0.20338982 20:0.33898306 21:0.083333336 22:1.125 
1 3:5 4:24 5:0.5909091 6:1 7:3 8:0.090909064 9:0.22727275 10:0.36363637 11:0.3181818 12:9 13:0.13043478 14:4 15:0.5333333 16:60 17:0.23333335 18:0.23333335 19:0.3 20:0.23333335 21:0.14814815 22:0.80000001 24:0.25 
0.02781585485760691 1:2 2:1 3:7 4:23 5:0.5652174 6:1 7:4 8:0.26086956 9:0.3043478 10:0.26086956 11:0.17391306 12:47 13:0.13636364 14:2 15:0.53225803 16:62 17:0.22580647 18:0.22580647 19:0.30645162 20:0.24193549 21:0.14285715 22:1.4285715 24:0.16666667 
1 1:1 2:1 3:9 4:22 5:0.5909091 6:1 7:2 8:0.18181819 9:0.3181818 10:0.27272725 11:0.22727275 12:44 13:0.18181819 14:4 15:0.5692308 16:65 17:0.18461537 18:0.27692306 19:0.29230767 20:0.24615383 21:0.18032786 22:0.625 24:0.17647059 
1 1:2 2:1 3:6 4:23 5:0.43478262 6:2 7:2 8:0.21739131 9:0.26086956 10:0.17391306 11:0.34782606 12:6 13:0.20930232 14:2 15:0.48214287 16:56 17:0.23214287 18:0.23214287 19:0.25 20:0.28571427 21:0.20754717 22:0.2857143 23:0.2 24:0.2 
1 1:2 2:4 3:21 4:21 5:0.6666666 6:2 7:3 8:0.14285713 9:0.38095236 10:0.28571427 11:0.19047618 12:3 13:0.17948718 14:4 15:0.67073166 16:82 17:0.19512194 18:0.31707317 19:0.35365856 20:0.13414633 21:0.18987341 22:0.60000002 24:0.2 
0.4834811852522187 1:2 2:1 3:7 4:23 5:0.6086956 6:1 7:4 8:0.21739131 9:0.21739131 10:0.39130437 11:0.17391306 12:53 13:0.15555556 14:2 15:0.6557377 16:61 17:0.21311474 18:0.29508197 19:0.36065573 20:0.13114756 21:0.1724138 22:1 23:0.2 24:0.23076923 
1 3:4 4:25 5:0.4583333 6:1 7:5 8:0.20833331 9:0.20833331 10:0.25 11:0.3333333 12:40 13:0.24444444 14:3 15:0.48275864 16:58 17:0.29310346 18:0.24137932 19:0.24137932 20:0.2241379 21:0.20754717 22:1.6 
0.3908326308739926 3:2 4:26 5:0.43478262 6:3 7:4 8:0.34782606 9:0.13043481 10:0.3043478 11:0.21739131 12:3 13:0.19148937 14:2 15:0.5 16:62 17:0.2580645 18:0.2903226 19:0.2096774 20:0.24193549 21:0.17647059 22:0.33333334 
1 1:2 2:2 3:9 4:21 5:0.6666666 6:1 7:4 8:0.14285713 9:0.28571427 10:0.38095236 11:0.19047618 12:45 13:0.15000001 14:1 15:0.6885246 16:61 17:0.081967235 18:0.32786888 19:0.36065573 20:0.22950822 21:0.22807017 22:0.72727275 24:0.41176471 
1 1:3 2:2 3:9 4:22 5:0.6666666 6:2 7:3 8:0.19047618 9:0.38095236 10:0.28571427 11:0.14285713 12:5 13:0.19047619 14:2 15:0.6612903 16:62 17:0.12903225 18:0.33870965 19:0.32258064 20:0.2096774 21:0.24137931 22:0.90909094 23:0.25 24:0.375 
0.7221758047604659 3:7 4:24 5:0.4583333 6:1 7:1 8:0.16666669 9:0.25 10:0.20833331 11:0.375 12:7 13:0.17391305 14:4 15:0.52380955 16:63 17:0.22222221 18:0.22222221 19:0.30158728 20:0.25396824 21:0.20689656 24:0.33333334 
0.9028133675591126 1:1 2:1 3:6 4:22 5:0.45454544 6:2 7:3 8:0.3181818 9:0.13636363 10:0.3181818 11:0.22727275 12:26 13:0.20930232 14:4 15:0.46551722 16:58 17:0.24137932 18:0.15517241 19:0.31034482 20:0.29310346 21:0.18518518 22:0.69999999 23:0.36363637 24:0.090909094 
0.8392513219589895 1:1 2:1 3:7 4:23 5:0.5 6:2 7:4 8:0.18181819 9:0.27272725 10:0.22727275 11:0.3181818 12:64 13:0.24444444 14:4 15:0.4677419 16:62 17:0.22580647 18:0.16129035 19:0.30645162 20:0.30645162 21:0.20689656 22:2 23:0.34999999 24:0.07692308 
0.06865773170156761 3:3 4:22 5:0.5 6:3 7:3 9:0.090909064 10:0.40909094 11:0.5 12:49 13:0.25581396 14:2 15:0.55172414 16:58 17:0.15517241 18:0.29310346 19:0.25862068 20:0.29310346 21:0.22448979 22:1 23:0.12 
1 4:24 5:0.625 6:2 7:1 8:0.08333331 9:0.4166667 10:0.20833331 11:0.2916667 12:7 13:0.125 14:4 15:0.6140351 16:57 17:0.15789473 18:0.28070176 19:0.3333333 20:0.2280702 21:0.086956523 22:0.8888889 
1 3:2 4:24 5:0.625 6:2 7:1 8:0.2916667 9:0.16666669 10:0.4583333 11:0.08333331 12:43 13:0.083333336 14:3 15:0.61904764 16:63 17:0.15873015 18:0.28571427 19:0.3333333 20:0.22222221 21:0.07692308 22:1.1 
1 3:6 4:22 5:0.5 6:2 7:2 8:0.40909094 9:0.13636363 10:0.36363637 11:0.090909064 12:3 13:0.13636364 14:2 15:0.37288135 16:59 17:0.2881356 18:0.16949153 19:0.20338982 20:0.33898306 21:0.12727273 22:0.89999998 24:0.090909094 
1 4:23 5:0.6086956 6:1 7:3 8:0.17391306 9:0.26086956 10:0.34782606 11:0.21739131 12:3 13:0.11111111 14:2 15:0.6333333 16:60 17:0.19999999 18:0.3 19:0.3333333 20:0.16666669 21:0.11111111 22:0.80000001 
1 3:1 4:23 5:0.6818182 6:1 7:3 8:0.18181819 9:0.36363637 10:0.3181818 11:0.13636363 12:42 13:0.11111111 14:1 15:0.6451613 16:62 17:0.19354838 18:0.30645162 19:0.33870965 20:0.16129035 21:0.10638298 22:1.2222222 
1 1:1 2:1 3:5 4:27 5:0.5909091 6:3 7:4 8:0.27272725 9:0.36363637 10:0.22727275 11:0.13636363 12:53 13:0.16666667 14:2 15:0.63235295 16:68 17:0.17647058 18:0.35294116 19:0.2794118 20:0.19117647 21:0.1724138 22:1.1666666 24:0.2 
1 3:3 4:25 5:0.5 6:2 7:3 8:0.16666669 9:0.125 10:0.375 11:0.3333333 12:6 13:0.14893617 14:2 15:0.4736842 16:57 17:0.24561405 18:0.2280702 19:0.24561405 20:0.28070176 21:0.16981132 22:0.55555558 23:0.090909094 24:0.33333334 
1 1:1 2:1 3:5 4:24 5:0.5 6:2 7:4 8:0.22727275 9:0.36363637 10:0.13636363 11:0.27272725 12:42 13:0.15555556 14:4 15:0.4915254 16:59 17:0.23728812 18:0.23728812 19:0.2542373 20:0.2711864 21:0.16363636 22:1.6666666 23:0.11111111 24:0.2 
1 3:3 4:25 5:0.5 6:2 7:3 8:0.08333331 9:0.25 10:0.25 11:0.4166667 12:4 13:0.125 14:1 15:0.530303 16:66 17:0.18181819 18:0.22727275 19:0.3030303 20:0.2878788 21:0.11111111 22:0.89999998 
1 1:3 2:1 3:8 4:22 5:0.5909091 6:1 7:2 8:0.13636363 9:0.22727275 10:0.36363637 11:0.27272725 12:7 13:0.17073171 14:4 15:0.4915254 16:59 17:0.2711864 18:0.20338982 19:0.2881356 20:0.23728812 21:0.18518518 22:0.18181819 24:0.23076923 
0.724445486735647 1:1 2:1 3:6 4:21 5:0.65 6:2 7:3 8:0.10000002 9:0.14999998 10:0.5 11:0.25 12:50 13:0.15000001 14:4 15:0.64912283 16:57 17:0.10526317 18:0.21052629 19:0.4385965 20:0.24561405 21:0.1923077 22:1 23:0.16666667 24:0.33333334 
0.6064639835249915 3:5 4:22 5:0.45454544 6:2 7:2 8:0.36363637 9:0.13636363 10:0.3181818 11:0.18181819 12:3 13:0.14285715 14:1 15:0.4745763 16:59 17:0.2542373 18:0.220339 19:0.2542373 20:0.2711864 21:0.16 22:1.125 24:0.25 
0.5974081016490876 3:3 4:23 5:0.45454544 6:2 7:3 8:0.3181818 9:0.27272725 10:0.18181819 11:0.22727275 12:15 13:0.15555556 14:3 15:0.40350878 16:57 17:0.35087717 18:0.2280702 19:0.17543858 20:0.24561405 21:0.17647059 22:2.2 23:0.24137931 24:0.33333334 
0.6357074737664306 1:1 2:1 3:5 4:22 5:0.5454545 6:1 7:2 8:0.22727275 9:0.27272725 10:0.27272725 11:0.22727275 12:51 13:0.1627907 14:2 15:0.40677965 16:59 17:0.33898306 18:0.220339 19:0.1864407 20:0.2542373 21:0.16981132 22:0.5 23:0.25925925 24:0.2 
0.02964049785997847 1:1 2:1 3:4 4:22 5:0.5909091 6:1 7:1 8:0.090909064 9:0.090909064 10:0.5 11:0.3181818 12:59 13:0.023255814 14:4 15:0.64406776 16:59 17:0.13559324 18:0.2711864 19:0.37288135 20:0.220339 21:0.05882353 22:0.89999998 23:0.25581396 24:0.25 
1 3:4 4:22 5:0.6363636 6:2 7:2 9:0.18181819 10:0.45454544 11:0.36363637 12:3 13:0.27272728 14:3 15:0.56896555 16:58 17:0.13793105 18:0.24137932 19:0.32758623 20:0.29310346 21:0.30769232 22:1.6 24:0.5 
1 1:1 2:1 3:7 4:23 5:0.5652174 6:2 7:2 8:0.0869565 9:0.26086956 10:0.3043478 11:0.34782606 12:9 13:0.095238097 14:4 15:0.52542377 16:59 17:0.1864407 18:0.220339 19:0.30508476 20:0.2881356 21:0.090909094 22:0.45454547 24:0.07692308 
1 1:1 2:1 3:7 4:25 5:0.57142854 6:2 7:2 8:0.23809522 9:0.28571427 10:0.28571427 11:0.19047618 12:49 13:0.086956523 14:4 15:0.49206346 16:63 17:0.2063492 18:0.2063492 19:0.28571427 20:0.30158728 21:0.084745765 22:1.2222222 24:0.07692308 
1 3:2 4:22 5:0.47619045 6:1 7:3 8:0.09523809 9:0.14285713 10:0.3333333 11:0.4285714 12:4 13:0.11627907 14:4 15:0.58928573 16:56 17:0.14285713 18:0.28571427 19:0.3035714 20:0.26785713 21:0.10638298 22:1 
1 4:22 5:0.4285714 6:2 7:2 8:0.19047618 9:0.14285713 10:0.28571427 11:0.38095236 12:23 13:0.11627907 14:2 15:0.45454544 16:55 17:0.27272725 18:0.19999999 19:0.25454545 20:0.27272725 21:0.11627907 22:1.1111112 23:0.44186047 
0.6573675688599927 3:2 4:22 5:0.5454545 6:2 7:2 8:0.27272725 9:0.40909094 10:0.13636363 11:0.18181819 12:58 13:0.11627907 14:4 15:0.4745763 16:59 17:0.2542373 18:0.20338982 19:0.2711864 20:0.2711864 21:0.10638298 22:1.1 23:0.48717949 
1 3:4 4:21 5:0.52380955 6:2 7:2 8:0.3333333 9:0.19047618 10:0.3333333 11:0.14285713 12:37 13:0.19047619 14:4 15:0.5090909 16:55 17:0.23636365 18:0.23636365 19:0.27272725 20:0.25454545 21:0.16 22:0.625 
1 3:6 4:20 5:0.5 6:2 7:2 8:0.25 9:0.3 10:0.19999999 11:0.25 12:7 13:0.2 14:3 15:0.39999998 16:55 17:0.27272725 18:0.21818179 19:0.18181819 20:0.3272727 21:0.25490198 22:0.69999999 23:0.23076923 24:0.45454547 
0.1919497704621265 3:2 4:23 5:0.45454544 6:3 7:4 8:0.3181818 9:0.22727275 10:0.22727275 11:0.22727275 12:14 13:0.22727273 14:3 15:0.44067794 16:59 17:0.2711864 18:0.220339 19:0.220339 20:0.2881356 21:0.20833333 22:1.4 23:0.2857143 
1 3:3 4:24 5:0.47826087 6:3 7:4 8:0.21739131 9:0.26086956 10:0.21739131 11:0.3043478 12:52 13:0.30434781 14:2 15:0.44444442 16:63 17:0.25396824 18:0.2063492 19:0.23809522 20:0.30158728 21:0.26923078 22:0.5 23:0.16666667 
0.5874169307277327 3:6 4:22 5:0.6363636 6:2 7:3 8:0.090909064 9:0.3181818 10:0.3181818 11:0.27272725 12:46 13:0.27272728 14:2 15:0.59375 16:64 17:0.125 18:0.265625 19:0.328125 20:0.28125 21:0.25 22:1 24:0.16666667 
1 1:1 2:2 3:5 4:23 5:0.6363636 6:4 7:4 8:0.18181819 9:0.3181818 10:0.3181818 11:0.18181819 12:15 13:0.27272728 14:3 15:0.56896555 16:58 17:0.17241377 18:0.25862068 19:0.31034482 20:0.25862068 21:0.28301886 22:0.80000001 23:0.14285715 24:0.33333334 
1 1:1 2:2 3:6 4:24 5:0.5652174 6:4 7:4 8:0.21739131 9:0.21739131 10:0.34782606 11:0.21739131 12:52 13:0.30434781 14:3 15:0.5483871 16:62 17:0.19354838 18:0.24193549 19:0.30645162 20:0.2580645 21:0.29824561 22:2.25 23:0.083333336 24:0.27272728 
1 3:2 4:22 5:0.36363637 6:3 7:2 8:0.3181818 9:0.13636363 10:0.22727275 11:0.3181818 12:16 13:0.20930232 14:3 15:0.4528302 16:53 17:0.16981131 18:0.18867922 19:0.26415092 20:0.3773585 21:0.23404256 22:0.80000001 23:0.22580644 24:0.5 
0.1268211155159615 1:1 2:1 3:4 4:23 5:0.45454544 6:3 7:3 8:0.13636363 9:0.22727275 10:0.22727275 11:0.40909094 12:50 13:0.2 14:2 15:0.44067794 16:59 17:0.1864407 18:0.1864407 19:0.2542373 20:0.37288135 21:0.20754717 22:1.2857143 23:0.28 24:0.25 
1 1:1 2:1 3:4 4:23 5:0.40909094 6:1 7:3 8:0.27272725 9:0.3181818 10:0.090909064 11:0.3181818 12:31 13:0.15555556 14:2 15:0.4385965 16:57 17:0.21052629 18:0.21052629 19:0.2280702 20:0.35087717 21:0.16981132 22:0.55555558 23:0.32258064 24:0.25 
1 1:1 2:1 3:6 4:22 5:0.5 6:1 7:3 8:0.13636363 9:0.18181819 10:0.3181818 11:0.36363637 12:67 13:0.20930232 14:2 15:0.45762712 16:59 17:0.20338982 18:0.23728812 19:0.220339 20:0.33898306 21:0.2 22:2 23:0.30000001 24:0.16666667 
0.03508084211347925 1:2 2:1 3:6 4:24 5:0.4583333 6:3 7:3 8:0.125 9:0.08333331 10:0.375 11:0.4166667 12:58 13:0.17391305 14:2 15:0.52459013 16:61 17:0.18032789 18:0.19672132 19:0.32786888 20:0.29508197 21:0.20689656 22:1.1111112 23:0.2173913 24:0.33333334 
1 1:2 2:1 3:6 4:22 5:0.5 6:2 7:2 8:0.27272725 9:0.22727275 10:0.27272725 11:0.22727275 12:14 13:0.14285715 14:2 15:0.4915254 16:59 17:0.220339 18:0.23728812 19:0.2542373 20:0.2881356 21:0.15384616 22:0.80000001 23:0.23076923 24:0.2 
1 3:11 4:22 5:0.5454545 6:2 7:4 8:0.18181819 9:0.22727275 10:0.3181818 11:0.27272725 12:15 13:0.22727273 14:3 15:0.52380955 16:63 17:0.23809522 18:0.25396824 19:0.26984125 20:0.23809522 21:0.28813559 22:0.69999999 23:0.21428572 24:0.46666667 
1 3:14 4:22 5:0.8181818 6:1 7:3 8:0.090909064 9:0.22727275 10:0.5909091 11:0.090909064 12:14 13:0.13636364 14:3 15:0.6 16:70 17:0.15714288 18:0.27142859 19:0.32857144 20:0.24285716 21:0.23809524 22:0.8888889 23:0.15384616 24:0.47368422 
1 1:9 2:1 3:16 4:22 5:0.6363636 6:1 7:3 8:0.18181819 9:0.45454544 10:0.18181819 11:0.18181819 12:64 13:0.13636364 14:2 15:0.5810811 16:74 17:0.16216218 18:0.25675678 19:0.3243243 20:0.25675678 21:0.2238806 22:1.5 23:0.18181819 24:0.39130434 
1 1:12 2:1 3:17 4:21 5:0.57142854 6:1 7:5 8:0.28571427 9:0.23809522 10:0.3333333 11:0.14285713 12:51 13:0.23809524 14:2 15:0.61764705 16:68 17:0.25 18:0.36764705 19:0.25 20:0.13235295 21:0.34375 22:0.77777779 24:0.54545456 
1 1:2 2:1 3:6 4:22 5:0.5909091 6:2 7:2 8:0.18181819 9:0.3181818 10:0.27272725 11:0.22727275 12:15 13:0.13636364 14:1 15:0.5762712 16:59 17:0.1864407 18:0.2881356 19:0.2881356 20:0.23728812 21:0.16363636 22:1 23:0.23076923 24:0.27272728 
1 1:1 2:1 3:3 4:22 5:0.6363636 6:1 7:3 8:0.22727275 9:0.45454544 10:0.18181819 11:0.13636363 12:7 13:0.13636364 14:1 15:0.5925926 16:54 17:0.24074072 18:0.3333333 19:0.25925928 20:0.16666669 21:0.16 22:1 23:0.16666667 24:0.33333334 
1 1:1 2:1 3:5 4:22 5:0.5454545 6:1 7:3 8:0.22727275 9:0.22727275 10:0.3181818 11:0.22727275 12:41 13:0.18181819 14:2 15:0.56896555 16:58 17:0.25862068 18:0.32758623 19:0.24137932 20:0.17241377 21:0.18518518 22:1.2857143 24:0.2 
1 1:5 2:1 3:8 4:23 5:0.5909091 6:3 7:2 8:0.13636363 9:0.22727275 10:0.36363637 11:0.27272725 12:3 13:0.15555556 14:4 15:0.484375 16:64 17:0.234375 18:0.25 19:0.234375 20:0.28125 21:0.26666668 22:2.6666667 24:0.60000002 
1 1:6 2:3 3:29 4:22 5:0.5909091 6:1 7:3 8:0.3181818 9:0.36363637 10:0.22727275 11:0.090909064 12:4 13:0.1627907 14:4 15:0.58762884 16:97 17:0.16494846 18:0.2886598 19:0.2989691 20:0.2474227 21:0.24731183 22:0.8888889 23:0.33333334 24:0.31999999 
1 1:6 2:4 3:31 4:23 5:0.5909091 6:2 7:4 8:0.04545456 9:0.22727275 10:0.36363637 11:0.36363637 12:82 13:0.2 14:4 15:0.592233 16:103 17:0.15533978 18:0.29126215 19:0.30097085 20:0.25242716 21:0.25252524 22:1.5 24:0.2962963 
1 4:23 5:0.5652174 6:2 7:2 8:0.26086956 9:0.21739131 10:0.34782606 11:0.17391306 12:10 13:0.13636364 14:3 15:0.5185185 16:54 17:0.25925928 18:0.2777778 19:0.24074072 20:0.22222221 21:0.13636364 22:0.89999998 
1 3:2 4:23 5:0.57142854 6:2 7:3 8:0.14285713 9:0.3333333 10:0.23809522 11:0.28571427 12:45 13:0.13636364 14:4 15:0.51724136 16:58 17:0.25862068 18:0.2758621 19:0.24137932 20:0.2241379 21:0.125 22:1 
1 1:1 2:1 3:8 4:24 5:0.6363636 6:1 7:4 8:0.04545456 9:0.3181818 10:0.3181818 11:0.3181818 12:5 13:0.18181819 14:3 15:0.625 16:64 17:0.203125 18:0.296875 19:0.328125 20:0.171875 21:0.15254237 22:2 23:0.27272728 24:0.06666667 
0.4442913630445489 1:1 2:1 3:10 4:24 5:0.6666666 6:1 7:4 8:0.2916667 9:0.2916667 10:0.375 11:0.041666687 12:47 13:0.18181819 14:3 15:0.6212121 16:66 17:0.21212119 18:0.2878788 19:0.3333333 20:0.16666669 21:0.18032786 22:2 23:0.11111111 24:0.17647059 
0.1019390131786643 1:1 2:1 3:5 4:24 5:0.5454545 6:2 7:3 8:0.27272725 9:0.18181819 10:0.36363637 11:0.18181819 12:43 13:0.17391305 14:1 15:0.5737705 16:61 17:0.21311474 18:0.29508197 19:0.27868855 20:0.21311474 21:0.16363636 22:0.63636363 24:0.11111111 
1 3:4 4:24 5:0.4583333 6:1 7:3 8:0.3333333 9:0.2916667 10:0.16666669 11:0.20833331 12:6 13:0.13043478 14:3 15:0.39999998 16:60 17:0.31666666 18:0.18333334 19:0.21666664 20:0.28333336 21:0.13207547 22:0.66666669 24:0.14285715 
1 1:1 2:4 3:18 4:12 5:0.16666669 6:1 7:1 8:0.3333333 9:0.08333331 10:0.08333331 11:0.5 12:56 13:0.083333336 14:3 15:0.421875 16:64 17:0.296875 18:0.1875 19:0.234375 20:0.28125 21:0.12280702 22:1.2857143 24:0.15151516 
1 4:24 5:0.47826087 6:2 7:2 8:0.17391306 9:0.0869565 10:0.39130437 11:0.34782606 12:13 13:0.15555556 14:4 15:0.4727273 16:55 17:0.23636365 18:0.21818179 19:0.25454545 20:0.2909091 21:0.15555556 22:0.44444445 23:0.090909094 
0.7319228474661863 3:2 4:24 5:0.5 6:3 7:3 8:0.22727275 9:0.36363637 10:0.13636363 11:0.27272725 12:48 13:0.2 14:4 15:0.4745763 16:59 17:0.220339 18:0.220339 19:0.2542373 20:0.30508476 21:0.18367347 22:3.3333333 
1 3:2 4:22 5:0.72727275 6:2 7:3 8:0.090909064 9:0.27272725 10:0.45454544 11:0.18181819 12:8 13:0.1627907 14:1 15:0.67857146 16:56 17:0.1964286 18:0.375 19:0.3035714 20:0.125 21:0.17391305 22:0.625 23:0.14285715 24:0.33333334 
0.2819796451050974 1:1 2:1 3:5 4:20 5:0.6 6:2 7:2 8:0.25 9:0.39999998 10:0.19999999 11:0.14999998 12:45 13:0.15000001 14:3 15:0.6551724 16:58 17:0.20689654 18:0.36206895 19:0.29310346 20:0.13793105 21:0.16666667 22:2 23:0.16666667 24:0.25 
0.2949914288244118 3:3 4:23 5:0.47826087 6:1 7:2 8:0.13043481 9:0.34782606 10:0.13043481 11:0.39130437 12:4 13:0.086956523 15:0.48214287 16:56 17:0.1785714 18:0.23214287 19:0.25 20:0.33928573 21:0.15384616 22:0.63636363 24:0.66666669 
1 3:4 4:25 5:0.5909091 6:2 7:3 8:0.18181819 9:0.13636363 10:0.45454544 11:0.22727275 12:39 13:0.26086956 14:2 15:0.64406776 16:59 17:0.16949153 18:0.30508476 19:0.33898306 20:0.1864407 21:0.22222222 
0.7357468091257938 3:3 4:26 5:0.5652174 6:3 7:4 8:0.17391306 9:0.3043478 10:0.26086956 11:0.26086956 12:4 13:0.22448979 14:1 15:0.55 16:60 17:0.19999999 18:0.3 19:0.25 20:0.25 21:0.2 22:1.6666666 
0.8530139500589513 1:3 2:1 3:9 4:22 5:0.5909091 6:2 7:3 8:0.22727275 9:0.27272725 10:0.3181818 11:0.18181819 12:44 13:0.20930232 14:2 15:0.53125 16:64 17:0.21875 18:0.296875 19:0.234375 20:0.25 21:0.22033899 22:1.2857143 24:0.25 
1 3:3 4:23 5:0.5217391 6:2 7:1 8:0.21739131 9:0.17391306 10:0.34782606 11:0.26086956 12:10 13:0.1627907 14:3 15:0.51666665 16:60 17:0.21666664 18:0.26666665 19:0.25 20:0.26666665 21:0.14285715 22:3 23:0.22222222 
0.604724033952729 3:6 4:21 5:0.57142854 6:2 7:1 8:0.14285713 9:0.3333333 10:0.23809522 11:0.28571427 12:50 13:0.14285715 14:4 15:0.53225803 16:62 17:0.2096774 18:0.2580645 19:0.27419353 20:0.2580645 21:0.17647059 22:1.5714285 23:0.125 24:0.33333334 
1 1:5 2:1 3:18 4:24 5:0.5454545 6:3 7:2 8:0.18181819 9:0.13636363 10:0.40909094 11:0.27272725 12:6 13:0.17391305 14:3 15:0.6375 16:80 17:0.125 18:0.28750002 19:0.35000002 20:0.23750001 21:0.18421052 22:1 23:0.40000001 24:0.2 
1 1:5 2:2 3:20 4:23 5:0.6521739 6:3 7:2 8:0.17391306 9:0.34782606 10:0.3043478 11:0.17391306 12:64 13:0.22727273 14:3 15:0.63414633 16:82 17:0.12195122 18:0.28048778 19:0.35365856 20:0.24390244 21:0.20512821 22:1.6666666 23:0.25 24:0.17647059 
1 1:1 2:2 3:8 4:23 5:0.5652174 6:4 7:2 8:0.26086956 9:0.26086956 10:0.3043478 11:0.17391306 12:6 13:0.19047619 14:2 15:0.5409836 16:61 17:0.24590164 18:0.24590164 19:0.29508197 20:0.21311474 21:0.19298245 22:0.90909094 23:0.55555558 24:0.2 
0.9425448564020277 1:1 2:2 3:8 4:26 5:0.52380955 6:4 7:2 8:0.28571427 9:0.23809522 10:0.28571427 11:0.19047618 12:48 13:0.27659574 14:2 15:0.530303 16:66 17:0.25757575 18:0.25757575 19:0.27272725 20:0.21212119 21:0.25806451 22:5.5 24:0.2 
1 4:24 5:0.5 6:1 7:3 8:0.22727275 9:0.36363637 10:0.13636363 11:0.27272725 12:14 13:0.17391305 14:2 15:0.375 16:56 17:0.3214286 18:0.1785714 19:0.1964286 20:0.3035714 21:0.17391305 22:0.66666669 23:0.1724138 
1 3:2 4:22 5:0.40909094 6:1 7:3 8:0.3181818 9:0.090909064 10:0.3181818 11:0.27272725 12:48 13:0.19047619 14:2 15:0.375 16:56 17:0.3214286 18:0.1785714 19:0.1964286 20:0.3035714 21:0.17391305 22:1.3333334 23:0.1724138 
1 3:1 4:22 5:0.4285714 6:1 7:3 8:0.14285713 9:0.14285713 10:0.28571427 11:0.4285714 12:12 13:0.11627907 14:3 15:0.4736842 16:57 17:0.24561405 18:0.2280702 19:0.24561405 20:0.28070176 21:0.11111111 22:1 23:0.18181819 
1 3:1 4:23 5:0.5909091 6:2 7:3 8:0.27272725 9:0.40909094 10:0.18181819 11:0.13636363 12:6 13:0.18181819 14:3 15:0.59615386 16:52 17:0.15384614 18:0.26923078 19:0.32692307 20:0.25 21:0.17391305 22:0.69999999 23:0.2 
1 3:2 4:23 5:0.5 6:2 7:3 8:0.090909064 9:0.090909064 10:0.40909094 11:0.40909094 12:37 13:0.22727273 14:3 15:0.5925926 16:54 17:0.14814812 18:0.25925928 19:0.3333333 20:0.25925928 21:0.20833333 22:1.8 
1 1:2 2:2 3:23 4:20 5:0.57894737 6:2 7:4 8:0.21052629 9:0.31578946 10:0.2631579 11:0.21052629 12:6 13:0.33333334 14:2 15:0.5 16:94 17:0.20212764 18:0.24468082 19:0.25531918 20:0.29787236 21:0.21428572 22:0.85714287 23:0.25 24:0.11111111 
1 1:1 2:2 3:11 4:22 5:0.6363636 6:1 7:5 8:0.22727275 9:0.18181819 10:0.45454544 11:0.13636363 12:8 13:0.22727273 14:2 15:0.5857143 16:70 17:0.1857143 18:0.25714284 19:0.32857144 20:0.22857141 21:0.1875 22:1.375 24:0.1 
-1 3:4 4:22 5:0.40909094 6:2 7:2 8:0.18181819 9:0.22727275 10:0.18181819 11:0.40909094 12:5 13:0.13636364 14:4 15:0.4310345 16:58 17:0.24137932 18:0.17241377 19:0.25862068 20:0.32758623 21:0.23076923 22:0.625 24:0.75 
-0.05100339592620761 1:4 2:1 3:13 4:22 5:0.8181818 6:1 7:2 8:0.18181819 9:0.27272725 10:0.5454545 12:51 13:0.2631579 14:3 15:0.6666666 16:72 17:0.16666669 18:0.3333333 19:0.3333333 20:0.16666669 21:0.28125 24:0.30769232 
-0.1289901735795199 4:22 5:0.6818182 6:4 7:2 8:0.090909064 9:0.40909094 10:0.27272725 11:0.22727275 12:8 13:0.22727273 14:1 15:0.6346154 16:52 17:0.17307693 18:0.32692307 19:0.3076923 20:0.19230771 21:0.22727273 22:1.2222222 23:0.14285715 
-1 3:4 4:22 5:0.6666666 6:2 7:3 8:0.14285713 9:0.61904764 10:0.047619045 11:0.19047618 12:51 13:0.30232558 14:2 15:0.5818182 16:55 17:0.23636365 18:0.34545457 19:0.23636365 20:0.18181819 21:0.31999999 22:0.5 23:0.22580644 24:0.42857143 
-1 1:2 2:1 3:6 4:21 5:0.57142854 6:2 7:3 8:0.28571427 9:0.28571427 10:0.28571427 11:0.14285713 12:42 13:0.21951219 14:1 15:0.5 16:58 17:0.2241379 18:0.24137932 19:0.25862068 20:0.2758621 21:0.24528302 22:1 23:0.25 24:0.33333334 
-1 1:2 2:1 3:5 4:24 5:0.6086956 6:2 7:3 8:0.13043481 9:0.26086956 10:0.34782606 11:0.26086956 12:3 13:0.23404256 14:3 15:0.53225803 16:62 17:0.2096774 18:0.27419353 19:0.2580645 20:0.2580645 21:0.2631579 22:0.80000001 24:0.40000001 
-1 1:3 2:1 3:9 4:22 5:0.57142854 6:1 7:4 8:0.14285713 9:0.3333333 10:0.23809522 11:0.28571427 12:7 13:0.1627907 14:2 15:0.5806452 16:62 17:0.14516127 18:0.24193549 19:0.33870965 20:0.27419353 21:0.1724138 22:1.1111112 23:0.090909094 24:0.2 
-1 1:1 2:1 3:5 4:24 5:0.5652174 6:2 7:4 8:0.21739131 9:0.3043478 10:0.26086956 11:0.21739131 12:40 13:0.19148937 14:3 15:0.5084746 16:59 17:0.220339 18:0.220339 19:0.2881356 20:0.2711864 21:0.17857143 22:1.4285715 24:0.11111111 
-1 1:1 2:1 3:6 4:21 5:0.61904764 6:2 7:3 8:0.14285713 9:0.23809522 10:0.38095236 11:0.23809522 12:6 13:0.17073171 14:1 15:0.5272727 16:55 17:0.19999999 18:0.23636365 19:0.2909091 20:0.27272725 21:0.15384616 22:0.80000001 23:0.2 24:0.090909094 
-1 4:23 5:0.45454544 6:2 7:3 8:0.27272725 9:0.22727275 10:0.22727275 11:0.27272725 12:11 13:0.24444444 14:2 15:0.39999998 16:55 17:0.27272725 18:0.18181819 19:0.21818179 20:0.3272727 21:0.17073171 22:1 23:0.30000001 
-0.0267095518804532 3:4 4:24 5:0.43478262 6:2 7:4 8:0.3043478 9:0.21739131 10:0.21739131 11:0.26086956 12:4 13:0.27659574 14:4 15:0.42028987 16:69 17:0.24637681 18:0.18840581 19:0.23188406 20:0.3333333 21:0.23636363 22:0.66666669 
-0.7517573268008576 1:1 2:1 3:6 4:23 5:0.5 6:2 7:3 8:0.090909064 9:0.3181818 10:0.18181819 11:0.40909094 12:58 13:0.2 14:2 15:0.5151515 16:66 17:0.21212119 18:0.21212119 19:0.3030303 20:0.27272725 21:0.19298245 22:0.55555558 23:0.2 24:0.16666667 
-0.1449049014761258 1:2 2:3 3:18 4:20 5:0.65 6:3 7:3 8:0.19999999 9:0.14999998 10:0.5 11:0.14999998 12:5 13:0.2 14:4 15:0.525 16:80 17:0.21249998 18:0.22500002 19:0.3 20:0.2625 21:0.21126761 22:0.625 24:0.22222222 
-1 3:3 4:22 5:0.45454544 6:2 7:4 8:0.36363637 9:0.13636363 10:0.3181818 11:0.18181819 12:20 13:0.2857143 14:2 15:0.4339623 16:53 17:0.2264151 18:0.16981131 19:0.26415092 20:0.33962262 21:0.25 22:1.1428572 23:0.21052632 
-0.2011344757068262 1:2 2:2 3:11 4:23 5:0.5 6:1 7:1 8:0.3181818 9:0.18181819 10:0.3181818 11:0.18181819 12:5 13:0.022222223 14:3 15:0.53731346 16:67 17:0.19402987 18:0.23880595 19:0.29850745 20:0.26865673 21:0.079365082 22:0.8888889 24:0.22222222 
-1 1:4 2:1 3:8 4:22 5:0.5 6:1 7:1 8:0.04545456 9:0.27272725 10:0.22727275 11:0.45454544 12:45 13:0.045454547 14:3 15:0.49206346 16:63 17:0.25396824 18:0.2063492 19:0.28571427 20:0.25396824 21:0.15254237 22:0.80000001 24:0.46666667 
-0.6236340537614236 3:2 4:29 5:0.5416666 6:3 7:3 8:0.25 9:0.3333333 10:0.20833331 11:0.20833331 12:38 13:0.13725491 14:3 15:0.5737705 16:61 17:0.19672132 18:0.27868855 19:0.29508197 20:0.22950822 21:0.12727273 22:0.83333331 
-1 1:1 2:1 3:3 4:24 5:0.5909091 6:3 7:3 8:0.13636363 9:0.22727275 10:0.36363637 11:0.27272725 12:11 13:0.17391305 14:3 15:0.54385966 16:57 17:0.19298244 18:0.24561405 19:0.2982456 20:0.2631579 21:0.1923077 22:1.25 23:0.2 24:0.33333334 
-0.2115520450358762 1:1 2:1 3:7 4:21 5:0.57142854 6:3 7:2 8:0.23809522 9:0.14285713 10:0.4285714 11:0.19047618 12:2 13:0.13513513 14:4 15:0.5272727 16:55 17:0.21818179 18:0.23636365 19:0.2909091 20:0.25454545 21:0.13725491 22:5 24:0.14285715 
-0.620370901274384 3:6 4:21 5:0.55 6:1 7:2 8:0.35000002 9:0.19999999 10:0.35000002 11:0.10000002 12:52 13:0.073170729 14:1 15:0.4375 16:64 17:0.25 18:0.203125 19:0.234375 20:0.3125 21:0.056603774 22:1.2222222 23:0.33333334 
-1 3:4 4:22 5:0.5909091 6:2 7:3 8:0.22727275 9:0.27272725 10:0.3181818 11:0.18181819 12:40 13:0.18181819 14:2 15:0.5614035 16:57 17:0.21052629 18:0.31578946 19:0.24561405 20:0.2280702 21:0.21568628 22:0.89999998 24:0.42857143 
-1 3:2 4:22 5:0.45454544 6:1 7:2 8:0.22727275 9:0.27272725 10:0.18181819 11:0.3181818 12:11 13:0.090909094 14:3 15:0.51724136 16:58 17:0.18965518 18:0.2241379 19:0.29310346 20:0.29310346 21:0.083333336 22:1.5714285 23:0.14285715 
-1 1:3 2:1 3:8 4:22 5:0.6363636 6:1 7:4 8:0.22727275 9:0.22727275 10:0.40909094 11:0.13636363 12:49 13:0.17073171 14:3 15:0.671875 16:64 17:0.140625 18:0.328125 19:0.34375 20:0.1875 21:0.2 22:1 23:0.090909094 24:0.2857143 
-1 1:1 2:1 3:4 4:24 5:0.4166667 6:2 7:2 8:0.25 9:0.125 10:0.2916667 11:0.3333333 12:38 13:0.125 14:1 15:0.4166667 16:60 17:0.3 18:0.18333334 19:0.23333335 20:0.28333336 21:0.14285715 22:1 24:0.25 
-1 3:6 4:22 5:0.45454544 6:1 7:2 8:0.36363637 9:0.40909094 10:0.04545456 11:0.18181819 12:1 13:0.090909094 14:4 15:0.44067794 16:59 17:0.2711864 18:0.23728812 19:0.20338982 20:0.2881356 21:0.11111111 22:1 24:0.2 
-1 4:24 5:0.6521739 6:1 7:3 8:0.13043481 9:0.34782606 10:0.3043478 11:0.21739131 12:8 13:0.2173913 14:2 15:0.5454545 16:55 17:0.19999999 18:0.25454545 19:0.2909091 20:0.25454545 21:0.18181819 22:0.42857143 23:0.2857143 
-1 3:4 4:22 5:0.8181818 6:2 7:2 8:0.04545456 9:0.45454544 10:0.36363637 11:0.13636363 12:43 13:0.25581396 14:2 15:0.6935484 16:62 17:0.12903225 18:0.2903226 19:0.40322578 20:0.17741936 21:0.21568628 22:0.41666666 
-1 3:3 4:22 5:0.71428573 6:2 7:3 8:0.19047618 9:0.28571427 10:0.4285714 11:0.09523809 12:4 13:0.25581396 14:2 15:0.68333334 16:60 17:0.13333333 18:0.28333336 19:0.39999998 20:0.18333334 21:0.22448979 22:2.2 
-1 1:1 2:1 3:5 4:22 5:0.5 6:2 7:3 8:0.3181818 9:0.090909064 10:0.40909094 11:0.18181819 12:6 13:0.1627907 14:2 15:0.47540987 16:61 17:0.22950822 18:0.19672132 19:0.27868855 20:0.29508197 21:0.16981132 22:0.63636363 23:0.2 24:0.2 
-1 1:1 2:1 3:5 4:24 5:0.625 6:2 7:3 8:0.20833331 9:0.25 10:0.375 11:0.16666669 12:43 13:0.14893617 14:3 15:0.625 16:64 17:0.15625 18:0.28125 19:0.34375 20:0.21875 21:0.15789473 22:0.80000001 24:0.2 
-1 3:2 4:25 5:0.625 6:2 7:4 8:0.08333331 9:0.375 10:0.25 11:0.2916667 12:5 13:0.18367347 14:2 15:0.6166667 16:60 17:0.16666669 18:0.28333336 19:0.3333333 20:0.21666664 21:0.16981132 22:1.25 
-1 1:1 2:1 3:3 4:23 5:0.6363636 6:2 7:4 8:0.18181819 9:0.40909094 10:0.22727275 11:0.18181819 12:41 13:0.2 14:4 15:0.59322035 16:59 17:0.13559324 18:0.23728812 19:0.35593218 20:0.2711864 21:0.21568628 22:1.2857143 24:0.33333334 
-1 3:4 4:22 5:0.5 6:1 7:2 8:0.27272725 9:0.18181819 10:0.3181818 11:0.22727275 12:14 13:0.069767445 14:2 15:0.5272727 16:55 17:0.21818179 18:0.19999999 19:0.3272727 20:0.25454545 21:0.098039217 22:1.2857143 23:0.07692308 24:0.25 
-1 1:1 2:1 3:5 4:22 5:0.77272725 6:2 7:4 8:0.090909064 9:0.36363637 10:0.40909094 11:0.13636363 12:43 13:0.23809524 14:3 15:0.60714287 16:56 17:0.10714287 18:0.25 19:0.35714287 20:0.28571427 21:0.26923078 22:0.75 23:0.125 24:0.40000001 
-1 4:22 5:0.40909094 6:1 7:2 8:0.27272725 9:0.18181819 10:0.22727275 11:0.3181818 12:7 13:0.13636364 14:4 15:0.3962264 16:53 17:0.2830189 18:0.18867922 19:0.20754719 20:0.3207547 21:0.095238097 22:0.85714287 
-1 1:1 2:1 3:8 4:22 5:0.6666666 6:2 7:3 8:0.14285713 9:0.28571427 10:0.38095236 11:0.19047618 12:45 13:0.19047619 14:2 15:0.68333334 16:60 17:0.11666667 18:0.35000002 19:0.3333333 20:0.19999999 21:0.25 22:1 23:0.2 24:0.42857143 
-1 1:1 2:1 3:7 4:23 5:0.72727275 6:2 7:3 8:0.13636363 9:0.40909094 10:0.3181818 11:0.13636363 12:6 13:0.22727273 14:4 15:0.68333334 16:60 17:0.11666667 18:0.35000002 19:0.3333333 20:0.19999999 21:0.25 22:1.2222222 23:0.2 24:0.33333334 
-0.2716726387784332 3:5 4:24 5:0.6666666 6:2 7:1 8:0.25 9:0.16666669 10:0.5 11:0.08333331 12:46 13:0.083333336 14:4 15:0.6376811 16:69 17:0.14492756 18:0.28985506 19:0.34782606 20:0.21739131 21:0.068965517 22:1 
-1 4:22 5:0.5454545 6:1 7:2 8:0.22727275 9:0.22727275 10:0.3181818 11:0.22727275 12:5 13:0.11627907 14:3 15:0.60714287 16:56 17:0.21428573 18:0.3035714 19:0.3035714 20:0.1785714 21:0.073170729 22:1.25 23:0.25 
-1 1:1 2:1 3:6 4:23 5:0.6818182 6:2 7:3 8:0.090909064 9:0.22727275 10:0.45454544 11:0.22727275 12:10 13:0.17073171 14:3 15:0.61904764 16:63 17:0.19047618 18:0.34920633 19:0.26984125 20:0.19047618 21:0.16981132 22:0.85714287 23:0.05882353 24:0.16666667 
-1 1:1 2:1 3:5 4:23 5:0.5 6:2 7:3 8:0.18181819 9:0.13636363 10:0.36363637 11:0.3181818 12:6 13:0.1627907 14:2 15:0.4736842 16:57 17:0.24561405 18:0.2280702 19:0.24561405 20:0.28070176 21:0.16981132 22:0.5 23:0.090909094 24:0.2 
-1 4:25 5:0.5416666 6:2 7:3 8:0.2916667 9:0.16666669 10:0.375 11:0.16666669 12:43 13:0.125 14:4 15:0.5333333 16:60 17:0.18333334 18:0.23333335 19:0.3 20:0.28333336 21:0.125 22:1.6666666 
-0.1787721112984532 1:1 2:1 3:6 4:21 5:0.7 6:2 7:3 8:0.10000002 9:0.35000002 10:0.35000002 11:0.19999999 12:13 13:0.15000001 14:2 15:0.64912283 16:57 17:0.10526317 18:0.21052629 19:0.4385965 20:0.24561405 21:0.1923077 22:1 23:0.16666667 24:0.33333334 
-1 3:4 4:27 5:0.5652174 6:2 7:2 8:0.3043478 9:0.26086956 10:0.3043478 11:0.13043481 12:46 13:0.079999998 14:3 15:0.5081967 16:61 17:0.19672132 18:0.21311474 19:0.29508197 20:0.29508197 21:0.087719299 22:1.2857143 24:0.14285715 
-0.3204526126104286 4:26 5:0.5652174 6:2 7:4 8:0.3043478 9:0.34782606 10:0.21739131 11:0.13043481 12:49 13:0.18367347 14:4 15:0.57142854 16:56 17:0.16071427 18:0.25 19:0.3214286 20:0.26785713 21:0.18367347 22:1.3333334 23:0.13333334 
-1 1:1 2:1 3:6 4:21 5:0.6666666 6:2 7:3 8:0.047619045 9:0.23809522 10:0.4285714 11:0.28571427 12:15 13:0.2 14:2 15:0.55172414 16:58 17:0.17241377 18:0.24137932 19:0.31034482 20:0.2758621 21:0.17647059 22:1.3333334 23:0.14285715 24:0.090909094 
-0.6489918808644893 3:4 4:22 5:0.6363636 6:3 7:3 8:0.18181819 9:0.3181818 10:0.3181818 11:0.18181819 12:6 13:0.27272728 14:3 15:0.5833334 16:60 17:0.11666667 18:0.26666665 19:0.31666666 20:0.3 21:0.23076923 22:3.5 23:0.2 
-1 1:1 2:1 3:5 4:23 5:0.45454544 6:3 7:3 8:0.13636363 9:0.22727275 10:0.22727275 11:0.40909094 12:51 13:0.2 14:1 15:0.44262296 16:61 17:0.18032789 18:0.18032789 19:0.26229507 20:0.3770492 21:0.2 22:0.77777779 23:0.30434781 24:0.2 
-1 1:1 2:1 3:6 4:22 5:0.36363637 6:3 7:3 8:0.27272725 9:0.090909064 10:0.27272725 11:0.36363637 12:12 13:0.20930232 14:4 15:0.44262296 16:61 17:0.18032789 18:0.18032789 19:0.26229507 20:0.3770492 21:0.2 22:1.2857143 23:0.30434781 24:0.16666667 
-1 1:2 2:1 3:7 4:24 5:0.5909091 6:2 7:3 8:0.13636363 9:0.3181818 10:0.27272725 11:0.27272725 12:54 13:0.17391305 14:3 15:0.49230766 16:65 17:0.2153846 18:0.24615383 19:0.24615383 20:0.29230767 21:0.1724138 22:1.8 23:0.2 24:0.16666667 
-1 1:1 2:2 3:9 4:22 5:0.5454545 6:1 7:3 8:0.27272725 9:0.3181818 10:0.22727275 11:0.18181819 12:45 13:0.13636364 14:2 15:0.5909091 16:66 17:0.24242425 18:0.3333333 19:0.25757575 20:0.16666669 21:0.16129032 22:0.63636363 24:0.22222222 
-0.8706416106527468 1:2 2:1 3:9 4:21 5:0.47619045 6:1 7:2 8:0.14285713 9:0.3333333 10:0.14285713 11:0.38095236 12:50 13:0.095238097 14:2 15:0.5 16:68 17:0.25 18:0.25 19:0.25 20:0.25 21:0.10344828 22:1 24:0.125 
-1 1:1 2:1 3:10 4:22 5:0.6818182 6:1 7:4 8:0.27272725 9:0.3181818 10:0.36363637 11:0.04545456 12:47 13:0.14285715 14:3 15:0.625 16:64 17:0.203125 18:0.296875 19:0.328125 20:0.171875 21:0.15254237 22:1.25 23:0.27272728 24:0.17647059 
-1 3:3 4:25 5:0.5833334 6:2 7:4 8:0.125 9:0.25 10:0.3333333 11:0.2916667 12:8 13:0.17391305 14:2 15:0.6140351 16:57 17:0.21052629 18:0.28070176 19:0.3333333 20:0.17543858 21:0.15384616 22:1.1428572 23:0.22222222 
-1 1:1 2:1 3:5 4:22 5:0.5454545 6:2 7:3 8:0.18181819 9:0.36363637 10:0.18181819 11:0.27272725 12:6 13:0.19047619 14:2 15:0.57894737 16:57 17:0.21052629 18:0.2982456 19:0.28070176 20:0.21052629 21:0.17647059 22:1.1428572 24:0.11111111 
-0.4199013617479876 3:5 4:25 5:0.5217391 6:3 7:3 8:0.21739131 9:0.43478262 10:0.0869565 11:0.26086956 12:51 13:0.19148937 14:2 15:0.49253732 16:67 17:0.20895523 18:0.22388059 19:0.26865673 20:0.29850745 21:0.15789473 22:0.80000001 
-1 4:23 5:0.5 6:2 7:2 8:0.18181819 9:0.090909064 10:0.40909094 11:0.3181818 12:14 13:0.11627907 14:3 15:0.4716981 16:53 17:0.24528301 18:0.2264151 19:0.24528301 20:0.2830189 21:0.11627907 22:0.77777779 23:0.16666667 
-1 3:2 4:25 5:0.5454545 6:3 7:3 8:0.22727275 9:0.27272725 10:0.27272725 11:0.22727275 12:6 13:0.23404256 14:3 15:0.55357146 16:56 17:0.1964286 18:0.3035714 19:0.25 20:0.25 21:0.21568628 22:0.80000001 
-0.07059094707653267 1:5 2:1 3:16 4:26 5:0.5652174 6:3 7:3 8:0.17391306 9:0.13043481 10:0.43478262 11:0.26086956 12:6 13:0.18367347 14:3 15:0.6375 16:80 17:0.125 18:0.28750002 19:0.35000002 20:0.23750001 21:0.18421052 22:1.2857143 23:0.40000001 24:0.18518518 
-1 1:1 2:2 3:9 4:21 5:0.61904764 6:4 7:2 8:0.23809522 9:0.28571427 10:0.3333333 11:0.14285713 12:7 13:0.21052632 14:1 15:0.559322 16:59 17:0.23728812 18:0.2542373 19:0.30508476 20:0.20338982 21:0.2 22:1.1111112 23:0.45454547 24:0.17647059 
-0.07036121953505418 1:1 2:1 3:9 4:22 5:0.5454545 6:2 7:3 8:0.22727275 9:0.13636363 10:0.40909094 11:0.22727275 12:55 13:0.21951219 14:3 15:0.45588237 16:68 17:0.2794118 18:0.20588237 19:0.25 20:0.2647059 21:0.1724138 22:1.3333334 23:0.17647059 24:0.05882353 
-1 4:23 5:0.45454544 6:1 7:3 8:0.090909064 9:0.13636363 10:0.3181818 11:0.45454544 12:13 13:0.15555556 14:4 15:0.4909091 16:55 17:0.23636365 18:0.23636365 19:0.25454545 20:0.27272725 21:0.11627907 22:1 23:0.16666667 
-1 3:2 4:23 5:0.5454545 6:2 7:3 8:0.27272725 9:0.40909094 10:0.13636363 11:0.18181819 12:5 13:0.22727273 14:2 15:0.5925926 16:54 17:0.14814812 18:0.25925928 19:0.3333333 20:0.25925928 21:0.20833333 22:0.55555558 
-0.2674548361449188 3:1 4:23 5:0.6956522 6:3 7:3 8:0.0869565 9:0.5217391 10:0.17391306 11:0.21739131 12:47 13:0.19047619 14:1 15:0.6734694 16:49 17:0.10204083 18:0.3469388 19:0.32653064 20:0.22448981 21:0.18181819 22:0.80000001 23:0.125 
-1 3:4 4:22 5:0.40909094 6:2 7:2 8:0.18181819 9:0.22727275 10:0.18181819 11:0.40909094 12:5 13:0.13636364 14:4 15:0.4310345 16:58 17:0.24137932 18:0.17241377 19:0.25862068 20:0.32758623 21:0.23076923 22:0.625 24:0.75 
-0.9915269251459228 1:4 2:1 3:13 4:22 5:0.8181818 6:1 7:2 8:0.18181819 9:0.27272725 10:0.5454545 12:51 13:0.2631579 14:3 15:0.6666666 16:72 17:0.16666669 18:0.3333333 19:0.3333333 20:0.16666669 21:0.28125 24:0.30769232 
-1 4:22 5:0.6818182 6:4 7:2 8:0.090909064 9:0.40909094 10:0.27272725 11:0.22727275 12:8 13:0.22727273 14:1 15:0.6346154 16:52 17:0.17307693 18:0.32692307 19:0.3076923 20:0.19230771 21:0.22727273 22:1.2222222 23:0.14285715 
-1 3:4 4:22 5:0.6666666 6:2 7:3 8:0.14285713 9:0.61904764 10:0.047619045 11:0.19047618 12:51 13:0.30232558 14:2 15:0.5818182 16:55 17:0.23636365 18:0.34545457 19:0.23636365 20:0.18181819 21:0.31999999 22:0.5 23:0.22580644 24:0.42857143 
-0.7341540718833398 1:2 2:2 3:13 4:22 5:0.36363637 6:3 7:4 8:0.18181819 9:0.13636363 10:0.22727275 11:0.45454544 12:54 13:0.27272728 14:2 15:0.4861111 16:72 17:0.2361111 18:0.20833331 19:0.2777778 20:0.2777778 21:0.2238806 22:1.1666666 24:0.13043478 
-0.5087224046294393 1:3 2:2 3:17 4:21 5:0.57142854 6:1 7:3 8:0.19047618 9:0.38095236 10:0.19047618 11:0.23809522 12:66 13:0.2 14:4 15:0.53947365 16:76 17:0.21052629 18:0.2763158 19:0.2631579 20:0.25 21:0.20547946 22:0.66666669 23:0.39130434 24:0.21212122 
-0.7687712679568438 1:3 2:2 3:12 4:22 5:0.5454545 6:2 7:3 8:0.22727275 9:0.27272725 10:0.27272725 11:0.22727275 12:61 13:0.1627907 14:4 15:0.5072464 16:69 17:0.21739131 18:0.26086956 19:0.24637681 20:0.2753623 21:0.21212122 22:1.25 23:0.33333334 24:0.30434781 
-1 1:2 2:1 3:6 4:21 5:0.57142854 6:2 7:3 8:0.28571427 9:0.28571427 10:0.28571427 11:0.14285713 12:42 13:0.21951219 14:1 15:0.5 16:58 17:0.2241379 18:0.24137932 19:0.25862068 20:0.2758621 21:0.24528302 22:1 23:0.25 24:0.33333334 
-1 1:2 2:1 3:5 4:24 5:0.6086956 6:2 7:3 8:0.13043481 9:0.26086956 10:0.34782606 11:0.26086956 12:3 13:0.23404256 14:3 15:0.53225803 16:62 17:0.2096774 18:0.27419353 19:0.2580645 20:0.2580645 21:0.2631579 22:0.80000001 24:0.40000001 
-0.07541840191322716 1:2 2:1 3:8 4:25 5:0.6818182 6:3 7:5 8:0.18181819 9:0.5454545 10:0.13636363 11:0.13636363 12:2 13:0.31914893 14:3 15:0.61764705 16:68 17:0.19117647 18:0.33823532 19:0.2794118 20:0.19117647 21:0.33333334 22:3 24:0.375 
-0.1276700902601653 1:2 2:2 3:11 4:22 5:0.6 6:1 7:4 8:0.25 9:0.19999999 10:0.39999998 11:0.14999998 12:4 13:0.14285715 14:2 15:0.49333334 16:75 17:0.21333331 18:0.25333333 19:0.24000001 20:0.29333335 21:0.17460318 22:1.2857143 24:0.23809524 
-0.3636266379047554 1:1 2:1 3:10 4:24 5:0.5909091 6:1 7:4 8:0.22727275 9:0.18181819 10:0.40909094 11:0.18181819 12:3 13:0.13043478 14:4 15:0.5064935 16:77 17:0.20779222 18:0.25974023 19:0.24675328 20:0.28571427 21:0.16923077 22:1 24:0.2631579 
-0.6933070317851795 1:3 2:3 3:23 4:22 5:0.40909094 6:4 7:2 8:0.18181819 9:0.13636363 10:0.27272725 11:0.40909094 12:1 13:0.20930232 15:0.45652175 16:92 17:0.23913044 18:0.20652175 19:0.25 20:0.3043478 21:0.20454545 22:0.80000001 24:0.2 
-1 1:3 2:1 3:9 4:22 5:0.57142854 6:1 7:4 8:0.14285713 9:0.3333333 10:0.23809522 11:0.28571427 12:7 13:0.1627907 14:2 15:0.5806452 16:62 17:0.14516127 18:0.24193549 19:0.33870965 20:0.27419353 21:0.1724138 22:1.1111112 23:0.090909094 24:0.2 
-0.4175784114220679 1:1 2:1 3:18 4:23 5:0.6363636 6:3 7:4 8:0.18181819 9:0.3181818 10:0.3181818 11:0.18181819 12:75 13:0.30232558 14:3 15:0.5555556 16:90 17:0.22222221 18:0.26666665 19:0.28888887 20:0.22222221 21:0.17948718 22:1 23:0.33333334 24:0.028571429 
-0.6930364753878897 3:5 4:25 5:0.5652174 6:1 7:3 8:0.34782606 9:0.3043478 10:0.26086956 11:0.0869565 12:17 13:0.14893617 14:1 15:0.5362319 16:69 17:0.21739131 18:0.2753623 19:0.26086956 20:0.24637681 21:0.12280702 22:0.66666669 23:0.33333334 
-1 1:1 2:1 3:5 4:24 5:0.5652174 6:2 7:4 8:0.21739131 9:0.3043478 10:0.26086956 11:0.21739131 12:40 13:0.19148937 14:3 15:0.5084746 16:59 17:0.220339 18:0.220339 19:0.2881356 20:0.2711864 21:0.17857143 22:1.4285715 24:0.11111111 
-1 1:1 2:1 3:6 4:21 5:0.61904764 6:2 7:3 8:0.14285713 9:0.23809522 10:0.38095236 11:0.23809522 12:6 13:0.17073171 14:1 15:0.5272727 16:55 17:0.19999999 18:0.23636365 19:0.2909091 20:0.27272725 21:0.15384616 22:0.80000001 23:0.2 24:0.090909094 
-0.8692771396560411 1:1 2:1 3:8 4:26 5:0.625 6:2 7:4 8:0.20833331 9:0.375 10:0.25 11:0.16666669 12:53 13:0.16 14:4 15:0.5441177 16:68 17:0.19117647 18:0.2352941 19:0.30882353 20:0.2647059 21:0.13846155 22:0.75 23:0.22222222 24:0.06666667 
-0.4446337511786045 1:2 2:2 3:14 4:21 5:0.52380955 6:1 7:2 8:0.14285713 9:0.09523809 10:0.4285714 11:0.3333333 12:8 13:0.095238097 14:1 15:0.55714285 16:70 17:0.1857143 18:0.24285716 19:0.3142857 20:0.25714284 21:0.13432837 22:0.81818181 23:0.25 24:0.2 
-0.6211860419121699 1:3 2:3 3:21 4:21 5:0.6666666 6:2 7:2 8:0.047619045 9:0.57142854 10:0.09523809 11:0.28571427 12:66 13:0.12195122 14:3 15:0.67441857 16:86 17:0.12790698 18:0.3023256 19:0.37209302 20:0.1976744 21:0.18518518 22:0.90909094 24:0.25 
-0.05851606590934404 1:3 2:2 3:12 4:22 5:0.72727275 6:2 7:5 8:0.04545456 9:0.40909094 10:0.3181818 11:0.22727275 12:3 13:0.25581396 14:2 15:0.7164179 16:67 17:0.10447758 18:0.38805968 19:0.32835823 20:0.1791045 21:0.28125 22:1 24:0.33333334 
-0.7512742033680163 1:3 2:1 3:12 4:22 5:0.8095238 6:2 7:4 8:0.09523809 9:0.52380955 10:0.28571427 11:0.09523809 12:8 13:0.25581396 14:3 15:0.6231884 16:69 17:0.18840581 18:0.28985506 19:0.3333333 20:0.18840581 21:0.21875 22:1.2 23:0.14285715 24:0.14285715 
-0.1397103093725168 3:1 4:23 5:0.45454544 6:1 7:4 8:0.18181819 9:0.27272725 10:0.18181819 11:0.36363637 12:37 13:0.15555556 14:3 15:0.53999996 16:50 17:0.22000003 18:0.27999997 19:0.26 20:0.24000001 21:0.14893617 22:0.77777779 
-0.1764450255144993 4:26 5:0.5 6:2 7:5 8:0.125 9:0.16666669 10:0.3333333 11:0.375 12:38 13:0.36000001 15:0.5098039 16:51 17:0.15686274 18:0.25490195 19:0.25490195 20:0.3333333 21:0.23809524 23:0.125 
-0.02248698119553708 4:22 5:0.5909091 6:2 7:4 8:0.18181819 9:0.36363637 10:0.22727275 11:0.22727275 12:14 13:0.3488372 14:4 15:0.5652174 16:46 17:0.13043481 18:0.2826087 19:0.2826087 20:0.3043478 21:0.24324325 22:2.6666667 23:0.14285715 
-0.5084539114796575 1:2 2:2 3:23 4:22 5:0.36363637 6:8 7:2 8:0.18181819 9:0.22727275 10:0.13636363 11:0.45454544 12:73 13:0.44444445 14:3 15:0.49462366 16:93 17:0.20430106 18:0.2903226 19:0.20430106 20:0.30107528 21:0.27500001 22:0.71428573 24:0.13636364 
-0.5134147732284079 4:23 5:0.45454544 6:2 7:3 8:0.27272725 9:0.22727275 10:0.22727275 11:0.27272725 12:11 13:0.24444444 14:2 15:0.39999998 16:55 17:0.27272725 18:0.18181819 19:0.21818179 20:0.3272727 21:0.17073171 22:1 23:0.30000001 
-1 3:4 4:24 5:0.43478262 6:2 7:4 8:0.3043478 9:0.21739131 10:0.21739131 11:0.26086956 12:4 13:0.27659574 14:4 15:0.42028987 16:69 17:0.24637681 18:0.18840581 19:0.23188406 20:0.3333333 21:0.23636363 22:0.66666669 
-0.2583345516203544 1:2 2:3 3:19 4:24 5:0.2916667 6:3 7:3 8:0.4166667 9:0.25 10:0.041666687 11:0.2916667 12:73 13:0.36170211 14:3 15:0.39784944 16:93 17:0.27956986 18:0.21505374 19:0.1827957 20:0.32258064 21:0.2682927 24:0.14285715 
-0.4120783977853388 1:2 2:2 3:18 4:24 5:0.5909091 6:1 7:4 8:0.13636363 9:0.18181819 10:0.40909094 11:0.27272725 12:64 13:0.11111111 14:1 15:0.54117644 16:85 17:0.2352941 18:0.2352941 19:0.30588233 20:0.2235294 21:0.11392405 22:0.89999998 24:0.11764706 
-0.1607594455768765 1:2 2:1 3:11 4:26 5:0.4166667 6:4 7:3 8:0.08333331 9:0.20833331 10:0.20833331 11:0.5 12:56 13:0.2 14:4 15:0.554054 16:74 17:0.1891892 18:0.2972973 19:0.25675678 20:0.25675678 21:0.17142858 22:0.77777779 24:0.1 
-0.9786392259333399 1:1 2:1 3:6 4:23 5:0.5 6:2 7:3 8:0.090909064 9:0.3181818 10:0.18181819 11:0.40909094 12:58 13:0.2 14:2 15:0.5151515 16:66 17:0.21212119 18:0.21212119 19:0.3030303 20:0.27272725 21:0.19298245 22:0.55555558 23:0.2 24:0.16666667 
-0.9745308157529263 1:2 2:3 3:18 4:20 5:0.65 6:3 7:3 8:0.19999999 9:0.14999998 10:0.5 11:0.14999998 12:5 13:0.2 14:4 15:0.525 16:80 17:0.21249998 18:0.22500002 19:0.3 20:0.2625 21:0.21126761 22:0.625 24:0.22222222 
-1 3:3 4:22 5:0.45454544 6:2 7:4 8:0.36363637 9:0.13636363 10:0.3181818 11:0.18181819 12:20 13:0.2857143 14:2 15:0.4339623 16:53 17:0.2264151 18:0.16981131 19:0.26415092 20:0.33962262 21:0.25 22:1.1428572 23:0.21052632 
-0.179418946367664 1:2 2:3 3:21 4:23 5:0.5 6:3 7:3 8:0.18181819 9:0.27272725 10:0.22727275 11:0.3181818 12:70 13:0.2 14:2 15:0.47252744 16:91 17:0.2087912 18:0.2197802 19:0.25274724 20:0.3186813 21:0.23255815 22:0.80000001 24:0.2682927 
-0.7711063730419732 1:1 2:1 3:7 4:22 5:0.68421054 6:3 7:3 8:0.10526317 9:0.42105263 10:0.2631579 11:0.21052629 12:11 13:0.21951219 14:3 15:0.7241379 16:58 17:0.12068963 18:0.39655173 19:0.32758623 20:0.15517241 21:0.2 22:0.27272728 23:0.2 24:0.14285715 
-0.1653134068148381 1:1 2:1 3:11 4:22 5:0.5454545 6:2 7:4 8:0.18181819 9:0.13636363 10:0.40909094 11:0.27272725 12:58 13:0.22727273 14:3 15:0.43421054 16:76 17:0.2631579 18:0.18421054 19:0.25 20:0.30263156 21:0.16923077 22:0.875 24:0.047619049 
-0.1789953629571777 1:1 2:2 3:12 4:22 5:0.6818182 6:2 7:2 8:0.22727275 9:0.40909094 10:0.27272725 11:0.090909064 12:10 13:0.13636364 14:2 15:0.6 16:80 17:0.19999999 18:0.3 19:0.3 20:0.19999999 21:0.14705883 22:1.25 23:0.11111111 24:0.16666667 
-0.06311207818733321 3:2 4:22 5:0.5454545 6:2 7:1 8:0.3181818 9:0.22727275 10:0.3181818 11:0.13636363 12:14 13:0.1 14:4 15:0.5625 16:48 17:0.1875 18:0.25 19:0.3125 20:0.25 21:0.090909094 22:1.8 23:0.037037037 
-1 1:2 2:2 3:11 4:23 5:0.5 6:1 7:1 8:0.3181818 9:0.18181819 10:0.3181818 11:0.18181819 12:5 13:0.022222223 14:3 15:0.53731346 16:67 17:0.19402987 18:0.23880595 19:0.29850745 20:0.26865673 21:0.079365082 22:0.8888889 24:0.22222222 
-0.8090031867792894 4:25 5:0.73913044 6:2 7:4 8:0.13043481 9:0.26086956 10:0.47826087 11:0.13043481 12:19 13:0.19148937 14:2 15:0.6730769 16:52 17:0.11538464 18:0.36538464 19:0.3076923 20:0.21153843 21:0.15555556 22:1.7142857 23:0.14285715 
-0.2755976043041443 4:22 5:0.6363636 6:2 7:3 8:0.3181818 9:0.27272725 10:0.36363637 11:0.04545456 12:31 13:0.23809524 14:3 15:0.6590909 16:44 17:0.20454544 18:0.3181818 19:0.34090906 20:0.13636363 21:0.2 22:0.85714287 23:0.2 
-1 1:4 2:1 3:8 4:22 5:0.5 6:1 7:1 8:0.04545456 9:0.27272725 10:0.22727275 11:0.45454544 12:45 13:0.045454547 14:3 15:0.49206346 16:63 17:0.25396824 18:0.2063492 19:0.28571427 20:0.25396824 21:0.15254237 22:0.80000001 24:0.46666667 
-0.4695627874798473 4:25 5:0.52 6:4 7:2 9:0.24000001 10:0.27999997 11:0.48000002 12:37 13:0.18367347 14:4 15:0.4716981 16:53 17:0.26415092 18:0.18867922 19:0.2830189 20:0.26415092 21:0.18367347 22:0.30000001 
-0.4670679368419102 1:1 2:2 3:18 4:20 5:0.45 6:1 7:3 8:0.14999998 9:0.19999999 10:0.25 11:0.39999998 12:56 13:0.13513513 14:3 15:0.6351352 16:74 17:0.14864862 18:0.25675678 19:0.3783784 20:0.2162162 21:0.1594203 22:1.1666666 24:0.1875 
-1 3:2 4:29 5:0.5416666 6:3 7:3 8:0.25 9:0.3333333 10:0.20833331 11:0.20833331 12:38 13:0.13725491 14:3 15:0.5737705 16:61 17:0.19672132 18:0.27868855 19:0.29508197 20:0.22950822 21:0.12727273 22:0.83333331 
-0.3847471252081718 4:27 5:0.5652174 6:3 7:2 8:0.21739131 9:0.21739131 10:0.34782606 11:0.21739131 12:33 13:0.2 15:0.53999996 16:50 17:0.19999999 18:0.24000001 19:0.3 20:0.26 21:0.090909094 22:0.30000001 23:0.11111111 
-1 1:1 2:1 3:3 4:24 5:0.5909091 6:3 7:3 8:0.13636363 9:0.22727275 10:0.36363637 11:0.27272725 12:11 13:0.17391305 14:3 15:0.54385966 16:57 17:0.19298244 18:0.24561405 19:0.2982456 20:0.2631579 21:0.1923077 22:1.25 23:0.2 24:0.33333334 
-0.2235243155067988 4:22 5:0.5909091 6:1 7:3 8:0.090909064 9:0.27272725 10:0.3181818 11:0.3181818 12:12 13:0.31707317 14:2 15:0.5952381 16:42 17:0.14285713 18:0.28571427 19:0.30952382 20:0.26190478 21:0.096774191 23:0.28 
-0.1696708141293082 1:1 2:2 3:9 4:23 5:0.5652174 6:2 7:3 8:0.21739131 9:0.26086956 10:0.3043478 11:0.21739131 12:3 13:0.17391305 14:1 15:0.49253732 16:67 17:0.25373137 18:0.22388059 19:0.26865673 20:0.25373137 21:0.16129032 22:2.5 24:0.125 
-0.01415392037473797 4:25 5:0.86956525 6:3 7:4 8:0.0869565 9:0.39130437 10:0.47826087 11:0.04347825 12:36 13:0.23404256 14:1 15:0.8113208 16:53 17:0.11320752 18:0.3584906 19:0.4528302 20:0.0754717 21:0.23404256 22:0.5 23:0.090909094 
-0.6750988088281138 1:1 2:1 3:3 4:27 5:0.5454545 6:3 7:2 8:0.18181819 9:0.3181818 10:0.22727275 11:0.27272725 12:37 13:0.125 14:1 15:0.5 16:58 17:0.24137932 18:0.2241379 19:0.2758621 20:0.25862068 21:0.14814815 22:1.6666666 24:0.33333334 
-1 1:1 2:1 3:7 4:21 5:0.57142854 6:3 7:2 8:0.23809522 9:0.14285713 10:0.4285714 11:0.19047618 12:2 13:0.13513513 14:4 15:0.5272727 16:55 17:0.21818179 18:0.23636365 19:0.2909091 20:0.25454545 21:0.13725491 22:5 24:0.14285715 
-0.2570203662392351 3:3 4:22 5:0.5909091 6:6 7:1 8:0.22727275 9:0.22727275 10:0.36363637 11:0.18181819 12:38 13:0.21052632 14:3 15:0.5744681 16:47 17:0.19148934 18:0.23404253 19:0.34042555 20:0.23404253 21:0.22727273 22:0.80000001 23:0.16666667 24:0.33333334 
-0.9131283663547961 1:2 2:1 3:8 4:27 5:0.71428573 6:6 7:2 8:0.19047618 9:0.47619045 10:0.23809522 11:0.09523809 12:3 13:0.20833333 14:3 15:0.6268657 16:67 17:0.16417909 18:0.29850745 19:0.32835823 20:0.20895523 21:0.21875 22:1.8333334 24:0.25 
-0.9987321513281311 3:6 4:21 5:0.55 6:1 7:2 8:0.35000002 9:0.19999999 10:0.35000002 11:0.10000002 12:52 13:0.073170729 14:1 15:0.4375 16:64 17:0.25 18:0.203125 19:0.234375 20:0.3125 21:0.056603774 22:1.2222222 23:0.33333334 
-0.5465367834021819 3:14 4:20 5:0.45 6:3 7:2 8:0.050000012 9:0.35000002 10:0.10000002 11:0.5 12:1 13:0.1891892 15:0.4605263 16:76 17:0.2368421 18:0.2368421 19:0.22368419 20:0.30263156 21:0.10769231 22:1.4285715 
-0.210347328761357 3:2 4:25 5:0.45454544 6:5 7:2 8:0.27272725 9:0.36363637 10:0.090909064 11:0.27272725 12:7 13:0.30434781 14:3 15:0.4339623 16:53 17:0.2264151 18:0.2264151 19:0.20754719 20:0.33962262 21:0.28 22:0.71428573 
-1 3:4 4:22 5:0.5909091 6:2 7:3 8:0.22727275 9:0.27272725 10:0.3181818 11:0.18181819 12:40 13:0.18181819 14:2 15:0.5614035 16:57 17:0.21052629 18:0.31578946 19:0.24561405 20:0.2280702 21:0.21568628 22:0.89999998 24:0.42857143 
-1 3:2 4:22 5:0.45454544 6:1 7:2 8:0.22727275 9:0.27272725 10:0.18181819 11:0.3181818 12:11 13:0.090909094 14:3 15:0.51724136 16:58 17:0.18965518 18:0.2241379 19:0.29310346 20:0.29310346 21:0.083333336 22:1.5714285 23:0.14285715 
-1 1:3 2:1 3:8 4:22 5:0.6363636 6:1 7:4 8:0.22727275 9:0.22727275 10:0.40909094 11:0.13636363 12:49 13:0.17073171 14:3 15:0.671875 16:64 17:0.140625 18:0.328125 19:0.34375 20:0.1875 21:0.2 22:1 23:0.090909094 24:0.2857143 
-0.5544583488960715 1:3 2:1 3:8 4:27 5:0.7916667 6:1 7:6 8:0.16666669 9:0.5416666 10:0.25 11:0.041666687 12:2 13:0.16 14:2 15:0.6986301 16:73 17:0.13698632 18:0.34246576 19:0.3561644 20:0.16438359 21:0.1875 22:1.125 24:0.2857143 
-0.3798573009701522 3:6 4:23 5:0.34782606 6:2 7:3 8:0.34782606 9:0.26086956 10:0.0869565 11:0.3043478 12:6 13:0.17391305 14:4 15:0.40579712 16:69 17:0.26086956 18:0.18840581 19:0.21739131 20:0.3333333 21:0.13793103 22:1.25 23:0.40000001 
-1 1:1 2:1 3:4 4:24 5:0.4166667 6:2 7:2 8:0.25 9:0.125 10:0.2916667 11:0.3333333 12:38 13:0.125 14:1 15:0.4166667 16:60 17:0.3 18:0.18333334 19:0.23333335 20:0.28333336 21:0.14285715 22:1 24:0.25 
-0.3002906148997141 3:1 4:20 5:0.39999998 6:1 7:1 8:0.3 9:0.25 10:0.14999998 11:0.3 12:9 13:0.1 14:4 15:0.43478262 16:46 17:0.3043478 18:0.19565219 19:0.23913044 20:0.26086956 21:0.095238097 22:1.8333334 23:0.25 
-1 3:6 4:22 5:0.45454544 6:1 7:2 8:0.36363637 9:0.40909094 10:0.04545456 11:0.18181819 12:1 13:0.090909094 14:4 15:0.44067794 16:59 17:0.2711864 18:0.23728812 19:0.20338982 20:0.2881356 21:0.11111111 22:1 24:0.2 
-0.2516906373357404 4:24 5:0.6521739 6:1 7:3 8:0.13043481 9:0.34782606 10:0.3043478 11:0.21739131 12:8 13:0.2173913 14:2 15:0.5454545 16:55 17:0.19999999 18:0.25454545 19:0.2909091 20:0.25454545 21:0.18181819 22:0.42857143 23:0.2857143 
-1 3:4 4:22 5:0.8181818 6:2 7:2 8:0.04545456 9:0.45454544 10:0.36363637 11:0.13636363 12:43 13:0.25581396 14:2 15:0.6935484 16:62 17:0.12903225 18:0.2903226 19:0.40322578 20:0.17741936 21:0.21568628 22:0.41666666 
-1 3:3 4:22 5:0.71428573 6:2 7:3 8:0.19047618 9:0.28571427 10:0.4285714 11:0.09523809 12:4 13:0.25581396 14:2 15:0.68333334 16:60 17:0.13333333 18:0.28333336 19:0.39999998 20:0.18333334 21:0.22448979 22:2.2 
-0.104968147585489 4:23 5:0.47826087 6:1 7:3 8:0.17391306 9:0.13043481 10:0.34782606 11:0.34782606 12:14 13:0.2888889 14:3 15:0.5333333 16:45 17:0.19999999 18:0.22222221 19:0.3111111 20:0.26666665 21:0.13513513 23:0.23076923 
-1 1:1 2:1 3:5 4:22 5:0.5 6:2 7:3 8:0.3181818 9:0.090909064 10:0.40909094 11:0.18181819 12:6 13:0.1627907 14:2 15:0.47540987 16:61 17:0.22950822 18:0.19672132 19:0.27868855 20:0.29508197 21:0.16981132 22:0.63636363 23:0.2 24:0.2 
-0.8380154514915344 3:5 4:22 5:0.7619048 6:4 7:3 8:0.14285713 9:0.14285713 10:0.61904764 11:0.09523809 12:41 13:0.23809524 14:3 15:0.73214287 16:56 17:0.125 18:0.28571427 19:0.4464286 20:0.14285713 21:0.21568628 22:0.625 24:0.11111111 
-0.3178762249684571 3:3 4:21 5:0.75 6:4 7:3 8:0.14999998 9:0.14999998 10:0.6 11:0.10000002 12:39 13:0.2820513 14:3 15:0.72 16:50 17:0.13999999 18:0.27999997 19:0.44 20:0.13999999 21:0.24444444 22:1.1428572 
-0.6807970346915604 1:3 2:1 3:10 4:22 5:0.6363636 6:1 7:3 8:0.13636363 9:0.36363637 10:0.27272725 11:0.22727275 12:1 13:0.1627907 15:0.67692304 16:65 17:0.12307692 18:0.36923075 19:0.3076923 20:0.19999999 21:0.18032786 22:1 24:0.22222222 
-0.2967722740807018 4:22 5:0.45454544 6:2 7:2 8:0.22727275 9:0.090909064 10:0.36363637 11:0.3181818 12:31 13:0.38095239 15:0.54761904 16:42 17:0.14285713 18:0.23809522 19:0.30952382 20:0.30952382 21:0.1875 
-0.680010545703888 4:26 5:0.5 6:2 7:3 8:0.041666687 9:0.2916667 10:0.20833331 11:0.4583333 12:5 13:0.23999999 14:4 15:0.46296299 16:54 17:0.2037037 18:0.2037037 19:0.25925928 20:0.3333333 21:0.13636364 22:4 
-1 1:1 2:1 3:5 4:24 5:0.625 6:2 7:3 8:0.20833331 9:0.25 10:0.375 11:0.16666669 12:43 13:0.14893617 14:3 15:0.625 16:64 17:0.15625 18:0.28125 19:0.34375 20:0.21875 21:0.15789473 22:0.80000001 24:0.2 
-1 3:2 4:25 5:0.625 6:2 7:4 8:0.08333331 9:0.375 10:0.25 11:0.2916667 12:5 13:0.18367347 14:2 15:0.6166667 16:60 17:0.16666669 18:0.28333336 19:0.3333333 20:0.21666664 21:0.16981132 22:1.25 
-0.1706278863849625 4:22 5:0.27272725 6:3 7:3 8:0.36363637 9:0.090909064 10:0.18181819 11:0.36363637 12:35 13:0.33333334 15:0.4047619 16:42 17:0.28571427 18:0.19047618 19:0.21428573 20:0.30952382 21:0.22222222 22:0.25 23:0.21428572 
-1 1:1 2:1 3:3 4:23 5:0.6363636 6:2 7:4 8:0.18181819 9:0.40909094 10:0.22727275 11:0.18181819 12:41 13:0.2 14:4 15:0.59322035 16:59 17:0.13559324 18:0.23728812 19:0.35593218 20:0.2711864 21:0.21568628 22:1.2857143 24:0.33333334 
-0.1575667827678588 1:2 2:3 3:22 4:21 5:0.52380955 6:3 7:3 8:0.23809522 9:0.19047618 10:0.3333333 11:0.23809522 12:72 13:0.23809524 14:2 15:0.4395604 16:91 17:0.24175823 18:0.2087912 19:0.23076922 20:0.3186813 21:0.22352941 22:1.2857143 24:0.20930232 
-0.5605521595417677 1:1 2:1 3:6 4:23 5:0.77272725 6:2 7:3 8:0.13636363 9:0.36363637 10:0.40909094 11:0.090909064 12:1 13:0.13636364 14:1 15:0.6818182 16:66 17:0.18181819 18:0.39393938 19:0.2878788 20:0.13636363 21:0.12727273 22:1.375 24:0.090909094 
-0.9174613736313203 3:5 4:22 5:0.5909091 6:1 7:4 8:0.13636363 9:0.04545456 10:0.5454545 11:0.27272725 12:5 13:0.1627907 14:4 15:0.6140351 16:57 17:0.17543858 18:0.2631579 19:0.35087717 20:0.21052629 21:0.20754717 22:1.7142857 24:0.40000001 
-0.2390056409258025 4:23 5:0.5909091 6:1 7:2 8:0.13636363 9:0.22727275 10:0.36363637 11:0.27272725 12:42 13:0.15555556 15:0.6 16:45 17:0.19999999 18:0.22222221 19:0.37777776 20:0.19999999 21:0.073170729 22:0.60000002 23:0.11111111 
-1 3:4 4:22 5:0.5 6:1 7:2 8:0.27272725 9:0.18181819 10:0.3181818 11:0.22727275 12:14 13:0.069767445 14:2 15:0.5272727 16:55 17:0.21818179 18:0.19999999 19:0.3272727 20:0.25454545 21:0.098039217 22:1.2857143 23:0.07692308 24:0.25 
-0.1559901717013958 4:21 5:0.6666666 6:2 7:4 8:0.09523809 9:0.38095236 10:0.28571427 11:0.23809522 12:40 13:0.2 14:4 15:0.6363636 16:44 17:0.15909094 18:0.36363637 19:0.27272725 20:0.20454544 21:0.2 22:1 23:0.125 
-0.389213746809901 4:22 5:0.3181818 6:1 7:3 8:0.3181818 9:0.13636363 10:0.18181819 11:0.36363637 12:48 13:0.27272728 14:4 15:0.32653064 16:49 17:0.22448981 18:0.16326529 19:0.16326529 20:0.44897962 21:0.15789473 22:0.2857143 23:0.17073171 
-0.2119752237062242 1:1 2:1 3:9 4:23 5:0.6956522 6:2 7:4 8:0.04347825 9:0.34782606 10:0.34782606 11:0.26086956 12:8 13:0.2173913 14:4 15:0.48000002 16:75 17:0.16000003 18:0.21333331 19:0.26666665 20:0.36 21:0.1875 22:1 23:0.06666667 24:0.11111111 
-0.2933177549235743 1:2 2:2 3:11 4:27 5:0.5833334 6:4 7:4 8:0.20833331 9:0.2916667 10:0.2916667 11:0.20833331 12:59 13:0.25490198 14:1 15:0.56 16:75 17:0.24000001 18:0.27999997 19:0.27999997 20:0.19999999 21:0.23943663 22:1.5 23:0.2857143 24:0.2 
-0.745415599236871 1:2 2:2 3:12 4:18 5:0.44444442 6:2 7:2 8:0.3333333 9:0.16666669 10:0.2777778 11:0.22222221 12:16 13:0.15151516 14:1 15:0.559322 16:59 17:0.220339 18:0.2711864 19:0.2881356 20:0.220339 21:0.16363636 22:0.8888889 23:0.40000001 24:0.18181819 
-0.1706666368780794 1:1 2:1 3:9 4:21 5:0.57142854 6:3 7:2 8:0.09523809 9:0.28571427 10:0.28571427 11:0.3333333 12:52 13:0.23809524 14:1 15:0.4705882 16:68 17:0.2352941 18:0.20588237 19:0.2647059 20:0.29411763 21:0.2 22:0.5 24:0.11111111 
-1 1:1 2:1 3:5 4:22 5:0.77272725 6:2 7:4 8:0.090909064 9:0.36363637 10:0.40909094 11:0.13636363 12:43 13:0.23809524 14:3 15:0.60714287 16:56 17:0.10714287 18:0.25 19:0.35714287 20:0.28571427 21:0.26923078 22:0.75 23:0.125 24:0.40000001 
-0.9860750532509163 3:1 4:22 5:0.5 6:1 7:4 8:0.22727275 9:0.18181819 10:0.3181818 11:0.27272725 12:4 13:0.14285715 14:4 15:0.48076922 16:52 17:0.23076922 18:0.23076922 19:0.25 20:0.28846157 21:0.13636364 22:1.1428572 
-0.1026369532823453 4:22 5:0.40909094 6:1 7:1 8:0.22727275 9:0.18181819 10:0.22727275 11:0.36363637 12:35 13:0.22727273 14:1 15:0.44680852 16:47 17:0.23404253 18:0.21276593 19:0.23404253 20:0.31914896 21:0.055555556 23:0.11111111 
-0.5687790067250925 4:22 5:0.40909094 6:1 7:2 8:0.27272725 9:0.18181819 10:0.22727275 11:0.3181818 12:7 13:0.13636364 14:4 15:0.3962264 16:53 17:0.2830189 18:0.18867922 19:0.20754719 20:0.3207547 21:0.095238097 22:0.85714287 
-0.2905979176687719 4:22 5:0.5454545 6:2 7:3 8:0.27272725 9:0.27272725 10:0.27272725 11:0.18181819 12:38 13:0.2 14:4 15:0.5 16:42 17:0.23809522 18:0.21428573 19:0.28571427 20:0.26190478 21:0.11111111 22:0.5714286 23:0.11764706 
-0.4424350647137082 4:27 5:0.5217391 6:2 7:4 8:0.13043481 9:0.17391306 10:0.34782606 11:0.34782606 12:12 13:0.16 14:3 15:0.5185185 16:54 17:0.24074072 18:0.24074072 19:0.2777778 20:0.24074072 21:0.125 22:1.1428572 23:0.090909094 
-0.4458589480576131 1:3 2:1 3:12 4:27 5:0.625 6:3 7:5 8:0.20833331 9:0.375 10:0.25 11:0.16666669 12:61 13:0.21568628 14:2 15:0.556962 16:79 17:0.21518987 18:0.26582277 19:0.29113925 20:0.22784811 21:0.22666667 22:1 23:0.40000001 24:0.25 
-0.01343253833233534 4:21 5:0.57142854 6:2 7:3 8:0.14285713 9:0.28571427 10:0.28571427 11:0.28571427 12:14 13:0.15789473 14:1 15:0.53658533 16:41 17:0.19512194 18:0.26829267 19:0.26829267 20:0.26829267 21:0.15789473 22:0.83333331 23:0.28 
-0.5253564449626229 1:2 2:3 3:17 4:23 5:0.6666666 6:2 7:2 8:0.23809522 9:0.28571427 10:0.38095236 11:0.09523809 12:63 13:0.18181819 14:2 15:0.67088604 16:79 17:0.20253164 18:0.31645572 19:0.35443038 20:0.12658226 21:0.18421052 22:1 23:0.14285715 24:0.1875 
-0.3062644566652003 4:27 5:0.5416666 6:1 7:6 8:0.3333333 9:0.2916667 10:0.25 11:0.125 12:9 13:0.23999999 14:4 15:0.5098039 16:51 17:0.25490195 18:0.25490195 19:0.25490195 20:0.2352941 21:0.17391305 22:1.5 23:0.17647059 
-0.09554033876961965 4:25 5:0.6521739 6:2 7:2 8:0.0869565 9:0.43478262 10:0.21739131 11:0.26086956 12:35 13:0.25 14:4 15:0.5294118 16:51 17:0.2352941 18:0.2745098 19:0.25490195 20:0.2352941 21:0.1 23:0.33333334 
-1 1:1 2:1 3:8 4:22 5:0.6666666 6:2 7:3 8:0.14285713 9:0.28571427 10:0.38095236 11:0.19047618 12:45 13:0.19047619 14:2 15:0.68333334 16:60 17:0.11666667 18:0.35000002 19:0.3333333 20:0.19999999 21:0.25 22:1 23:0.2 24:0.42857143 
-1 1:1 2:1 3:7 4:23 5:0.72727275 6:2 7:3 8:0.13636363 9:0.40909094 10:0.3181818 11:0.13636363 12:6 13:0.22727273 14:4 15:0.68333334 16:60 17:0.11666667 18:0.35000002 19:0.3333333 20:0.19999999 21:0.25 22:1.2222222 23:0.2 24:0.33333334 
-0.3200173992198584 4:26 5:0.5 6:3 7:2 8:0.125 9:0.16666669 10:0.3333333 11:0.375 12:12 13:0.10204082 14:3 15:0.537037 16:54 17:0.1851852 18:0.2037037 19:0.3333333 20:0.2777778 21:0.10204082 22:0.90909094 23:0.33333334 
-0.7838052184499638 1:2 2:4 3:25 4:22 5:0.5454545 6:2 7:2 8:0.22727275 9:0.22727275 10:0.3181818 11:0.22727275 12:7 13:0.36842105 14:1 15:0.47777778 16:90 17:0.21111113 18:0.17777777 19:0.3 20:0.3111111 21:0.25581396 23:0.33333334 24:0.16666667 
-0.6827350630148356 1:2 2:4 3:29 4:22 5:0.5454545 6:8 7:2 8:0.27272725 9:0.18181819 10:0.36363637 11:0.18181819 12:3 13:0.36842105 14:2 15:0.4591837 16:98 17:0.23469388 18:0.17346936 19:0.28571427 20:0.30612242 21:0.27659574 22:0.5 24:0.21428572 
-0.2886544252468197 1:1 2:1 3:13 4:24 5:0.5909091 6:1 7:4 8:0.22727275 9:0.40909094 10:0.18181819 11:0.18181819 12:2 13:0.26086956 14:3 15:0.5432099 16:81 17:0.17283952 18:0.25925928 19:0.28395063 20:0.28395063 21:0.19444445 22:2.6666667 24:0.07692308 
-0.9976538696409128 3:5 4:24 5:0.6666666 6:2 7:1 8:0.25 9:0.16666669 10:0.5 11:0.08333331 12:46 13:0.083333336 14:4 15:0.6376811 16:69 17:0.14492756 18:0.28985506 19:0.34782606 20:0.21739131 21:0.068965517 22:1 
-0.06413665429075768 4:23 5:0.47826087 6:1 7:2 8:0.3043478 9:0.26086956 10:0.21739131 11:0.21739131 12:8 13:0.2888889 14:2 15:0.6 16:50 17:0.22000003 18:0.3 19:0.3 20:0.18 21:0.085714288 23:0.14285715 
-1 4:22 5:0.5454545 6:1 7:2 8:0.22727275 9:0.22727275 10:0.3181818 11:0.22727275 12:5 13:0.11627907 14:3 15:0.60714287 16:56 17:0.21428573 18:0.3035714 19:0.3035714 20:0.1785714 21:0.073170729 22:1.25 23:0.25 
-1 1:1 2:1 3:6 4:23 5:0.6818182 6:2 7:3 8:0.090909064 9:0.22727275 10:0.45454544 11:0.22727275 12:10 13:0.17073171 14:3 15:0.61904764 16:63 17:0.19047618 18:0.34920633 19:0.26984125 20:0.19047618 21:0.16981132 22:0.85714287 23:0.05882353 24:0.16666667 
-0.05259584226247579 1:1 2:1 3:8 4:26 5:0.5833334 6:2 7:5 8:0.16666669 9:0.08333331 10:0.5 11:0.25 12:1 13:0.16666667 14:2 15:0.5441177 16:68 17:0.20588237 18:0.25 19:0.29411763 20:0.25 21:0.15625 22:1.125 24:0.125 
-1 1:1 2:1 3:5 4:23 5:0.5 6:2 7:3 8:0.18181819 9:0.13636363 10:0.36363637 11:0.3181818 12:6 13:0.1627907 14:2 15:0.4736842 16:57 17:0.24561405 18:0.2280702 19:0.24561405 20:0.28070176 21:0.16981132 22:0.5 23:0.090909094 24:0.2 
-1 4:25 5:0.5416666 6:2 7:3 8:0.2916667 9:0.16666669 10:0.375 11:0.16666669 12:43 13:0.125 14:4 15:0.5333333 16:60 17:0.18333334 18:0.23333335 19:0.3 20:0.28333336 21:0.125 22:1.6666666 
-0.3746292711801724 1:3 2:2 3:14 4:22 5:0.5454545 6:1 7:1 8:0.18181819 9:0.27272725 10:0.27272725 11:0.27272725 12:1 13:0.42857143 15:0.45070422 16:71 17:0.23943663 18:0.21126759 19:0.23943663 20:0.30985916 21:0.33333334 24:0.16666667 
-1 1:1 2:1 3:6 4:21 5:0.7 6:2 7:3 8:0.10000002 9:0.35000002 10:0.35000002 11:0.19999999 12:13 13:0.15000001 14:2 15:0.64912283 16:57 17:0.10526317 18:0.21052629 19:0.4385965 20:0.24561405 21:0.1923077 22:1 23:0.16666667 24:0.33333334 
-0.3030785342518711 1:2 2:3 3:18 4:22 5:0.6363636 6:2 7:3 8:0.18181819 9:0.27272725 10:0.36363637 11:0.18181819 12:64 13:0.19047619 14:2 15:0.46428573 16:84 17:0.29761904 18:0.25 19:0.21428573 20:0.23809522 21:0.20512821 22:1 24:0.22222222 
-0.3514968959972612 4:23 5:0.3181818 6:2 7:4 8:0.36363637 9:0.22727275 10:0.090909064 11:0.3181818 12:21 13:0.33333334 14:4 15:0.3333333 16:45 17:0.39999998 18:0.19999999 19:0.13333333 20:0.26666665 21:0.23076923 22:4 23:0.17073171 
-0.4136586327313986 1:1 2:1 3:13 4:22 5:0.8181818 6:1 7:1 8:0.04545456 9:0.27272725 10:0.5454545 11:0.13636363 12:68 13:0.023255814 14:4 15:0.7236842 16:76 17:0.10526317 18:0.31578946 19:0.40789473 20:0.17105263 21:0.05882353 22:1.2222222 23:0.38461539 24:0.12 
-0.2309571234017959 4:22 5:0.5 6:4 7:3 8:0.090909064 9:0.18181819 10:0.3181818 11:0.40909094 12:10 13:0.45454547 14:2 15:0.5 16:44 17:0.15909094 18:0.22727275 19:0.27272725 20:0.34090906 21:0.36842105 22:2.6666667 23:0.125 
-0.06147601002080073 4:22 5:0.5 6:4 7:3 8:0.22727275 9:0.27272725 10:0.22727275 11:0.27272725 12:32 13:0.45454547 15:0.5 16:44 17:0.15909094 18:0.22727275 19:0.27272725 20:0.34090906 21:0.36842105 22:0.375 23:0.125 
-1 3:4 4:27 5:0.5652174 6:2 7:2 8:0.3043478 9:0.26086956 10:0.3043478 11:0.13043481 12:46 13:0.079999998 14:3 15:0.5081967 16:61 17:0.19672132 18:0.21311474 19:0.29508197 20:0.29508197 21:0.087719299 22:1.2857143 24:0.14285715 
-0.1145286005688226 1:1 2:1 3:13 4:21 5:0.47619045 6:2 7:2 8:0.19047618 9:0.19047618 10:0.28571427 11:0.3333333 12:5 13:0.10526316 14:4 15:0.49253732 16:67 17:0.20895523 18:0.20895523 19:0.2835821 20:0.29850745 21:0.079365082 22:1.125 24:0.039999999 
-0.05997077786894488 4:22 5:0.57142854 6:1 7:3 8:0.09523809 9:0.09523809 10:0.47619045 11:0.3333333 12:9 13:0.25581396 14:1 15:0.63043475 16:46 17:0.10869563 18:0.3043478 19:0.32608694 20:0.26086956 21:0.13513513 22:2.3333333 
-0.4026679260229876 1:1 2:1 3:11 4:23 5:0.52380955 6:2 7:3 8:0.23809522 9:0.19047618 10:0.3333333 11:0.23809522 12:12 13:0.27272728 14:2 15:0.525641 16:78 17:0.21794873 18:0.23076922 19:0.2948718 20:0.25641024 21:0.21212122 22:1.25 23:0.5 24:0.090909094 
-0.3647395633721637 4:22 5:0.45454544 6:2 7:2 8:0.45454544 9:0.36363637 10:0.090909064 11:0.090909064 12:53 13:0.25581396 14:1 15:0.4285714 16:49 17:0.28571427 18:0.18367344 19:0.24489796 20:0.28571427 21:0.13513513 22:0.22222222 23:0.3877551 
-0.02394988501637148 4:21 5:0.57142854 6:2 7:2 8:0.28571427 9:0.28571427 10:0.28571427 11:0.14285713 12:31 13:0.2857143 15:0.53488374 16:43 17:0.23255813 18:0.25581396 19:0.27906978 20:0.23255813 21:0.21052632 22:0.60000002 
-0.4998999031241433 4:20 5:0.45 6:3 7:2 8:0.19999999 9:0.19999999 10:0.25 11:0.35000002 12:15 13:0.38461539 14:3 15:0.4102564 16:39 17:0.28205127 18:0.23076922 19:0.17948717 20:0.3076923 21:0.31428573 22:1.75 23:0.1724138 
-0.2512267074265215 3:3 4:22 5:0.5 6:2 7:2 8:0.22727275 9:0.27272725 10:0.22727275 11:0.27272725 12:8 13:0.25581396 14:4 15:0.41509432 16:53 17:0.2830189 18:0.2264151 19:0.18867922 20:0.3018868 21:0.22448979 22:4.5 23:0.33333334 
-1 4:26 5:0.5652174 6:2 7:4 8:0.3043478 9:0.34782606 10:0.21739131 11:0.13043481 12:49 13:0.18367347 14:4 15:0.57142854 16:56 17:0.16071427 18:0.25 19:0.3214286 20:0.26785713 21:0.18367347 22:1.3333334 23:0.13333334 
-1 1:1 2:1 3:6 4:21 5:0.6666666 6:2 7:3 8:0.047619045 9:0.23809522 10:0.4285714 11:0.28571427 12:15 13:0.2 14:2 15:0.55172414 16:58 17:0.17241377 18:0.24137932 19:0.31034482 20:0.2758621 21:0.17647059 22:1.3333334 23:0.14285715 24:0.090909094 
-0.2786111398087689 4:23 5:0.40909094 6:3 7:3 8:0.36363637 9:0.22727275 10:0.18181819 11:0.22727275 12:21 13:0.40909091 14:4 15:0.4222222 16:45 17:0.28888887 18:0.19999999 19:0.22222221 20:0.28888887 21:0.23529412 23:0.23809524 
-0.07226036170812916 1:3 2:1 3:10 4:23 5:0.5217391 6:2 7:3 8:0.21739131 9:0.26086956 10:0.26086956 11:0.26086956 12:58 13:0.15555556 14:4 15:0.44 16:75 17:0.25333333 18:0.19999999 19:0.24000001 20:0.30666667 21:0.21875 22:0.89999998 23:0.33333334 24:0.36842105 
-1 3:4 4:22 5:0.6363636 6:3 7:3 8:0.18181819 9:0.3181818 10:0.3181818 11:0.18181819 12:6 13:0.27272728 14:3 15:0.5833334 16:60 17:0.11666667 18:0.26666665 19:0.31666666 20:0.3 21:0.23076923 22:3.5 23:0.2 
-0.349657225288236 4:23 5:0.5 6:4 7:4 8:0.13636363 9:0.22727275 10:0.27272725 11:0.36363637 12:44 13:0.3488372 15:0.52272725 16:44 17:0.15909094 18:0.22727275 19:0.29545456 20:0.3181818 21:0.2820513 22:0.2857143 23:0.19047619 
-0.5081118999481785 1:1 2:2 3:13 4:23 5:0.6086956 6:1 7:5 8:0.17391306 9:0.34782606 10:0.26086956 11:0.21739131 12:7 13:0.24444444 14:3 15:0.554054 16:74 17:0.1891892 18:0.25675678 19:0.2972973 20:0.25675678 21:0.27536231 22:0.77777779 24:0.33333334 
-1 1:1 2:1 3:5 4:23 5:0.45454544 6:3 7:3 8:0.13636363 9:0.22727275 10:0.22727275 11:0.40909094 12:51 13:0.2 14:1 15:0.44262296 16:61 17:0.18032789 18:0.18032789 19:0.26229507 20:0.3770492 21:0.2 22:0.77777779 23:0.30434781 24:0.2 
-1 1:1 2:1 3:6 4:22 5:0.36363637 6:3 7:3 8:0.27272725 9:0.090909064 10:0.27272725 11:0.36363637 12:12 13:0.20930232 14:4 15:0.44262296 16:61 17:0.18032789 18:0.18032789 19:0.26229507 20:0.3770492 21:0.2 22:1.2857143 23:0.30434781 24:0.16666667 
-0.6398318583200562 1:2 2:5 3:33 4:24 5:0.5454545 6:6 7:3 8:0.18181819 9:0.13636363 10:0.40909094 11:0.27272725 12:3 13:0.34782609 14:3 15:0.5043478 16:115 17:0.19130433 18:0.23478264 19:0.26956522 20:0.3043478 21:0.26126125 22:1.1428572 24:0.2 
-0.6028228087240969 1:1 2:2 3:12 4:22 5:0.5454545 6:2 7:3 8:0.13636363 9:0.22727275 10:0.3181818 11:0.3181818 12:73 13:0.25581396 14:2 15:0.49295777 16:71 17:0.18309861 18:0.25352114 19:0.23943663 20:0.32394367 21:0.2238806 22:1.8 23:0.29166666 24:0.16666667 
-0.4917070739592876 1:2 2:2 3:15 4:27 5:0.6666666 6:3 7:4 8:0.16666669 9:0.4583333 10:0.20833331 11:0.16666669 12:10 13:0.21568628 14:3 15:0.57142854 16:84 17:0.16666669 18:0.22619045 19:0.3452381 20:0.26190478 21:0.20987654 22:3 24:0.2 
-1 1:2 2:1 3:7 4:24 5:0.5909091 6:2 7:3 8:0.13636363 9:0.3181818 10:0.27272725 11:0.27272725 12:54 13:0.17391305 14:3 15:0.49230766 16:65 17:0.2153846 18:0.24615383 19:0.24615383 20:0.29230767 21:0.1724138 22:1.8 23:0.2 24:0.16666667 
-0.5184541066291486 1:7 2:1 3:16 4:22 5:0.5909091 6:2 7:5 8:0.13636363 9:0.27272725 10:0.3181818 11:0.27272725 12:10 13:0.31818181 14:3 15:0.56164384 16:73 17:0.20547944 18:0.2876712 19:0.27397263 20:0.23287672 21:0.30434781 22:1 23:0.11111111 24:0.28 
-0.6233089144945595 4:22 5:0.40909094 6:9 7:2 8:0.27272725 9:0.13636363 10:0.27272725 11:0.3181818 12:46 13:0.42857143 14:3 15:0.5263158 16:38 17:0.15789473 18:0.2368421 19:0.2894737 20:0.31578946 21:0.3548387 22:0.66666669 23:0.13793103 
-0.6451528632072966 4:31 5:0.8181818 6:9 7:3 8:0.04545456 9:0.36363637 10:0.45454544 11:0.13636363 12:20 13:0.28301886 14:4 15:0.5862069 16:58 17:0.15517241 18:0.2758621 19:0.31034482 20:0.25862068 21:0.25490198 22:1.3333334 23:0.15789473 
-0.6358816151065445 4:33 5:0.71428573 6:12 7:5 8:0.19047618 9:0.4285714 10:0.28571427 11:0.09523809 12:10 13:0.4074074 14:1 15:0.60714287 16:56 17:0.26785713 18:0.35714287 19:0.25 20:0.125 21:0.38461539 22:1 23:0.11111111 
-1 1:1 2:2 3:9 4:22 5:0.5454545 6:1 7:3 8:0.27272725 9:0.3181818 10:0.22727275 11:0.18181819 12:45 13:0.13636364 14:2 15:0.5909091 16:66 17:0.24242425 18:0.3333333 19:0.25757575 20:0.16666669 21:0.16129032 22:0.63636363 24:0.22222222 
-0.1057408067402149 3:1 4:22 5:0.5454545 6:5 7:2 8:0.18181819 9:0.3181818 10:0.22727275 11:0.27272725 12:10 13:0.3488372 14:1 15:0.5102041 16:49 17:0.22448981 18:0.28571427 19:0.22448981 20:0.26530612 21:0.33333334 22:3.6666667 23:0.05882353 
-0.1863825049534151 1:5 2:1 3:10 4:24 5:0.5909091 6:2 7:1 8:0.090909064 9:0.22727275 10:0.36363637 11:0.3181818 12:1 13:0.17391305 15:0.47826087 16:69 17:0.21739131 18:0.23188406 19:0.24637681 20:0.3043478 21:0.2923077 22:1 24:0.57894737 
-0.6277843389738014 1:6 2:2 3:22 4:23 5:0.6363636 6:3 7:4 8:0.22727275 9:0.3181818 10:0.3181818 11:0.13636363 12:10 13:0.33333334 14:4 15:0.5930233 16:86 17:0.16279072 18:0.2906977 19:0.3023256 20:0.24418604 21:0.2682927 22:1.3333334 23:0.17647059 24:0.1891892 
-0.9648438608492496 1:1 2:1 3:13 4:23 5:0.5909091 6:3 7:2 8:0.13636363 9:0.3181818 10:0.27272725 11:0.27272725 12:19 13:0.36585367 14:3 15:0.5441177 16:68 17:0.16176468 18:0.2647059 19:0.2794118 20:0.29411763 21:0.28125 23:0.2 24:0.13043478 
-1 1:2 2:1 3:9 4:21 5:0.47619045 6:1 7:2 8:0.14285713 9:0.3333333 10:0.14285713 11:0.38095236 12:50 13:0.095238097 14:2 15:0.5 16:68 17:0.25 18:0.25 19:0.25 20:0.25 21:0.10344828 22:1 24:0.125 
-1 1:1 2:1 3:10 4:22 5:0.6818182 6:1 7:4 8:0.27272725 9:0.3181818 10:0.36363637 11:0.04545456 12:47 13:0.14285715 14:3 15:0.625 16:64 17:0.203125 18:0.296875 19:0.328125 20:0.171875 21:0.15254237 22:1.25 23:0.27272728 24:0.17647059 
-1 3:3 4:25 5:0.5833334 6:2 7:4 8:0.125 9:0.25 10:0.3333333 11:0.2916667 12:8 13:0.17391305 14:2 15:0.6140351 16:57 17:0.21052629 18:0.28070176 19:0.3333333 20:0.17543858 21:0.15384616 22:1.1428572 23:0.22222222 
-1 1:1 2:1 3:5 4:22 5:0.5454545 6:2 7:3 8:0.18181819 9:0.36363637 10:0.18181819 11:0.27272725 12:6 13:0.19047619 14:2 15:0.57894737 16:57 17:0.21052629 18:0.2982456 19:0.28070176 20:0.21052629 21:0.17647059 22:1.1428572 24:0.11111111 
-0.6397505242351431 4:14 5:0.5833334 6:1 7:3 8:0.16666669 9:0.16666669 10:0.4166667 11:0.25 12:38 13:0.38461539 15:0.5185185 16:27 17:0.25925928 18:0.25925928 19:0.25925928 20:0.22222221 21:0.2 22:0.22222222 23:0.069767445 
-1 3:5 4:25 5:0.5217391 6:3 7:3 8:0.21739131 9:0.43478262 10:0.0869565 11:0.26086956 12:51 13:0.19148937 14:2 15:0.49253732 16:67 17:0.20895523 18:0.22388059 19:0.26865673 20:0.29850745 21:0.15789473 22:0.80000001 
-1 4:23 5:0.5 6:2 7:2 8:0.18181819 9:0.090909064 10:0.40909094 11:0.3181818 12:14 13:0.11627907 14:3 15:0.4716981 16:53 17:0.24528301 18:0.2264151 19:0.24528301 20:0.2830189 21:0.11627907 22:0.77777779 23:0.16666667 
-0.1332189732485537 1:2 2:1 3:15 4:23 5:0.5909091 6:1 7:3 8:0.090909064 9:0.27272725 10:0.3181818 11:0.3181818 12:2 13:0.15555556 14:3 15:0.5375 16:80 17:0.22500002 18:0.23750001 19:0.3 20:0.23750001 21:0.14666666 22:1.2857143 24:0.13333334 
-0.6042236342388692 1:1 2:2 3:7 4:22 5:0.6363636 6:2 7:3 8:0.090909064 9:0.27272725 10:0.36363637 11:0.27272725 12:3 13:0.18181819 14:4 15:0.6515151 16:66 17:0.21212119 18:0.34848487 19:0.3030303 20:0.13636363 21:0.17857143 22:0.72727275 24:0.16666667 
-0.09518258552439213 4:20 5:0.85 6:1 7:3 8:0.050000012 9:0.35000002 10:0.5 11:0.10000002 12:12 13:0.10526316 14:1 15:0.7291666 16:48 17:0.1875 18:0.3958333 19:0.3333333 20:0.08333331 21:0.10526316 22:1.2222222 23:0.27272728 
-0.785295321039564 3:2 4:23 5:0.6521739 6:3 7:3 8:0.0869565 9:0.34782606 10:0.3043478 11:0.26086956 12:37 13:0.1627907 14:2 15:0.5769231 16:52 17:0.19230771 18:0.3076923 19:0.26923078 20:0.23076922 21:0.14893617 22:0.5 23:0.40000001 
-1 3:2 4:25 5:0.5454545 6:3 7:3 8:0.22727275 9:0.27272725 10:0.27272725 11:0.22727275 12:6 13:0.23404256 14:3 15:0.55357146 16:56 17:0.1964286 18:0.3035714 19:0.25 20:0.25 21:0.21568628 22:0.80000001 
-0.0527839232678445 4:23 5:0.5652174 6:3 7:2 8:0.17391306 9:0.3043478 10:0.26086956 11:0.26086956 12:16 13:0.30232558 14:4 15:0.5416666 16:48 17:0.20833331 18:0.2916667 19:0.25 20:0.25 21:0.1891892 22:3.3333333 23:0.13333334 
-0.1048192969587788 4:21 5:0.57142854 6:3 7:2 8:0.14285713 9:0.3333333 10:0.23809522 11:0.28571427 12:17 13:0.2820513 14:2 15:0.5217391 16:46 17:0.21739131 18:0.2826087 19:0.23913044 20:0.26086956 21:0.2 22:1.5 23:0.125 
-0.8167411871709956 3:4 4:23 5:0.6363636 6:5 7:2 8:0.13636363 9:0.18181819 10:0.45454544 11:0.22727275 12:19 13:0.15000001 14:4 15:0.6346154 16:52 17:0.11538464 18:0.28846157 19:0.34615386 20:0.25 21:0.125 22:1 23:0.31578946 
-0.9852971127863552 1:5 2:1 3:16 4:26 5:0.5652174 6:3 7:3 8:0.17391306 9:0.13043481 10:0.43478262 11:0.26086956 12:6 13:0.18367347 14:3 15:0.6375 16:80 17:0.125 18:0.28750002 19:0.35000002 20:0.23750001 21:0.18421052 22:1.2857143 23:0.40000001 24:0.18518518 
-0.07301193615416265 1:1 2:1 3:3 4:23 5:0.6086956 6:4 7:3 8:0.17391306 9:0.21739131 10:0.39130437 11:0.21739131 12:11 13:0.21951219 14:4 15:0.5686275 16:51 17:0.2352941 18:0.25490195 19:0.31372547 20:0.19607842 21:0.23404256 22:1.2857143 23:0.2631579 24:0.33333334 
-1 1:1 2:2 3:9 4:21 5:0.61904764 6:4 7:2 8:0.23809522 9:0.28571427 10:0.3333333 11:0.14285713 12:7 13:0.21052632 14:1 15:0.559322 16:59 17:0.23728812 18:0.2542373 19:0.30508476 20:0.20338982 21:0.2 22:1.1111112 23:0.45454547 24:0.17647059 
-1 1:1 2:1 3:9 4:22 5:0.5454545 6:2 7:3 8:0.22727275 9:0.13636363 10:0.40909094 11:0.22727275 12:55 13:0.21951219 14:3 15:0.45588237 16:68 17:0.2794118 18:0.20588237 19:0.25 20:0.2647059 21:0.1724138 22:1.3333334 23:0.17647059 24:0.05882353 
-1 4:23 5:0.45454544 6:1 7:3 8:0.090909064 9:0.13636363 10:0.3181818 11:0.45454544 12:13 13:0.15555556 14:4 15:0.4909091 16:55 17:0.23636365 18:0.23636365 19:0.25454545 20:0.27272725 21:0.11627907 22:1 23:0.16666667 
-1 3:2 4:23 5:0.5454545 6:2 7:3 8:0.27272725 9:0.40909094 10:0.13636363 11:0.18181819 12:5 13:0.22727273 14:2 15:0.5925926 16:54 17:0.14814812 18:0.25925928 19:0.3333333 20:0.25925928 21:0.20833333 22:0.55555558 
-0.6014513398758435 1:2 2:2 3:23 4:19 5:0.5263158 6:2 7:3 8:0.21052629 9:0.31578946 10:0.21052629 11:0.2631579 12:80 13:0.35135135 14:3 15:0.48913044 16:92 17:0.20652175 18:0.23913044 19:0.25 20:0.3043478 21:0.21951219 22:2.3333333 23:0.2 24:0.11111111 
-0.05267457744989096 1:1 2:2 3:13 4:22 5:0.6818182 6:1 7:4 8:0.090909064 9:0.5 10:0.18181819 11:0.22727275 12:58 13:0.18181819 14:1 15:0.6081081 16:74 17:0.17567569 18:0.2702703 19:0.33783782 20:0.2162162 21:0.17647059 22:0.75 24:0.16666667 
