svm_type c_svc
kernel_type rbf
gamma 0.0416667
nr_class 2
total_sv 457
rho 0.459835
label 1 0
probA -20.0258
probB -15.8295
nr_sv 184 273
SV
1 3:4 4:23 5:0.39130437 6:2 7:2 8:0.17391306 9:0.21739131 10:0.17391306 11:0.43478262 12:4 13:0.15555556 14:4 15:0.42372882 16:59 17:0.23728812 18:0.16949153 19:0.2542373 20:0.33898306 21:0.24528302 22:0.25 24:0.75 
1 1:3 2:1 3:6 4:23 5:0.45454544 6:2 7:2 8:0.22727275 9:0.090909064 10:0.36363637 11:0.3181818 12:43 13:0.24444444 14:3 15:0.39682537 16:63 17:0.25396824 18:0.15873015 19:0.23809522 20:0.34920633 21:0.29824561 22:4.5 24:0.5 
1 3:1 4:22 5:0.6363636 6:4 7:2 8:0.13636363 9:0.40909094 10:0.22727275 11:0.22727275 12:7 13:0.27272728 14:3 15:0.6111111 16:54 17:0.2037037 18:0.3148148 19:0.2962963 20:0.1851852 21:0.26086956 22:0.8888889 
1 3:3 4:22 5:0.6363636 6:4 7:3 8:0.3181818 9:0.22727275 10:0.40909094 11:0.04545456 12:41 13:0.27272728 14:3 15:0.63793105 16:58 17:0.18965518 18:0.32758623 19:0.31034482 20:0.17241377 21:0.23999999 22:1.1111112 
0.1581406944466336 3:5 4:21 5:0.57142854 6:2 7:3 8:0.3333333 9:0.047619045 10:0.52380955 11:0.09523809 12:17 13:0.2682927 14:2 15:0.5818182 16:55 17:0.23636365 18:0.34545457 19:0.23636365 20:0.18181819 21:0.31999999 22:2 23:0.22580644 24:0.55555558 
0.6902819974958216 3:3 4:25 5:0.40909094 6:2 7:3 8:0.090909064 9:0.13636363 10:0.27272725 11:0.5 12:47 13:0.19148937 14:2 15:0.46551722 16:58 17:0.24137932 18:0.18965518 19:0.2758621 20:0.29310346 21:0.16981132 22:1 23:0.30000001 
0.3696072839937021 3:5 4:22 5:0.47619045 6:2 7:2 8:0.19047618 9:0.28571427 10:0.19047618 11:0.3333333 12:21 13:0.11627907 14:2 15:0.5090909 16:55 17:0.23636365 18:0.25454545 19:0.25454545 20:0.25454545 21:0.1923077 22:1.125 23:0.31818181 24:0.55555558 
0.201817513430415 1:3 2:1 3:7 4:22 5:0.5454545 6:2 7:1 8:0.27272725 9:0.3181818 10:0.22727275 11:0.18181819 12:56 13:0.1627907 14:2 15:0.52542377 16:59 17:0.220339 18:0.2711864 19:0.2542373 20:0.2542373 21:0.21428572 22:1 23:0.30000001 24:0.38461539 
1 1:2 2:1 3:5 4:22 5:0.57142854 6:2 7:3 8:0.14285713 9:0.23809522 10:0.3333333 11:0.28571427 12:5 13:0.20930232 14:2 15:0.5 16:58 17:0.2241379 18:0.24137932 19:0.25862068 20:0.2758621 21:0.24528302 22:1 23:0.25 24:0.40000001 
1 1:2 2:1 3:7 4:23 5:0.6086956 6:2 7:4 8:0.26086956 9:0.3043478 10:0.3043478 11:0.13043481 12:43 13:0.24444444 14:3 15:0.546875 16:64 17:0.203125 18:0.28125 19:0.265625 20:0.25 21:0.25423729 22:0.875 24:0.2857143 
0.8020367392895508 1:2 2:2 3:10 4:22 5:0.6363636 6:2 7:4 8:0.27272725 9:0.22727275 10:0.40909094 11:0.090909064 12:47 13:0.33333334 14:2 15:0.6060606 16:66 17:0.19696969 18:0.3333333 19:0.27272725 20:0.19696969 21:0.3442623 22:1 24:0.36842105 
1 4:22 5:0.5 6:2 7:3 8:0.19999999 9:0.3 10:0.19999999 11:0.3 12:14 13:0.14285715 14:2 15:0.46296299 16:54 17:0.22222221 18:0.24074072 19:0.22222221 20:0.3148148 21:0.14285715 22:1.125 23:0.18518518 
1 1:1 2:1 3:7 4:23 5:0.5909091 6:3 7:2 8:0.22727275 9:0.22727275 10:0.36363637 11:0.18181819 12:57 13:0.15555556 14:3 15:0.44444442 16:63 17:0.23809522 18:0.19047618 19:0.25396824 20:0.3174603 21:0.15254237 22:0.375 23:0.31034482 24:0.14285715 
1 3:3 4:26 5:0.5909091 6:3 7:5 8:0.13636363 9:0.27272725 10:0.3181818 11:0.27272725 12:9 13:0.20833333 14:1 15:0.5862069 16:58 17:0.13793105 18:0.24137932 19:0.3448276 20:0.2758621 21:0.18518518 22:2.3333333 23:0.06666667 
1 1:3 2:2 3:13 4:22 5:0.71428573 6:1 7:4 8:0.14285713 9:0.23809522 10:0.47619045 11:0.14285713 12:51 13:0.1627907 14:2 15:0.6231884 16:69 17:0.13043481 18:0.26086956 19:0.3623188 20:0.24637681 21:0.16923077 22:1 24:0.18181819 
0.1793065412078347 3:1 4:23 5:0.5 6:1 7:2 8:0.40909094 9:0.18181819 10:0.3181818 11:0.090909064 12:22 13:0.06666667 14:3 15:0.4915254 16:59 17:0.23728812 18:0.2542373 19:0.23728812 20:0.2711864 21:0.063829787 22:0.89999998 23:0.3488372 
0.6788335626967964 3:3 4:23 5:0.5217391 6:1 7:2 8:0.0869565 9:0.26086956 10:0.26086956 11:0.39130437 12:60 13:0.090909094 14:1 15:0.5 16:62 17:0.22580647 18:0.2580645 19:0.24193549 20:0.27419353 21:0.079999998 22:1.2857143 23:0.34999999 
1 1:1 2:1 3:5 4:23 5:0.6086956 6:2 7:3 8:0.17391306 9:0.21739131 10:0.39130437 11:0.21739131 12:5 13:0.2 14:1 15:0.5263158 16:57 17:0.21052629 18:0.2280702 19:0.2982456 20:0.2631579 21:0.18518518 22:0.5 24:0.11111111 
1 1:1 2:1 3:7 4:22 5:0.57142854 6:2 7:4 8:0.23809522 9:0.28571427 10:0.28571427 11:0.19047618 12:42 13:0.20930232 14:3 15:0.5084746 16:59 17:0.220339 18:0.220339 19:0.2881356 20:0.2711864 21:0.17857143 22:1.4285715 24:0.07692308 
1 1:3 2:1 3:9 4:21 5:0.61904764 6:2 7:1 8:0.09523809 9:0.57142854 10:0.047619045 11:0.28571427 12:54 13:0.14285715 14:4 15:0.60317457 16:63 17:0.17460316 18:0.25396824 19:0.34920633 20:0.22222221 21:0.20689656 22:1.25 23:0.13043478 24:0.375 
1 1:3 2:1 3:11 4:21 5:0.61904764 6:2 7:3 8:0.19047618 9:0.23809522 10:0.38095236 11:0.19047618 12:54 13:0.2682927 14:1 15:0.6 16:65 17:0.19999999 18:0.27692306 19:0.3230769 20:0.19999999 21:0.23333333 22:0.80000001 23:0.11111111 24:0.15789473 
1 1:1 2:1 3:6 4:23 5:0.5 6:1 7:3 8:0.13636363 9:0.27272725 10:0.22727275 11:0.36363637 12:42 13:0.11111111 14:2 15:0.5833334 16:60 17:0.19999999 18:0.3 19:0.28333336 20:0.21666664 21:0.12280702 22:0.63636363 24:0.16666667 
1 4:24 5:0.5416666 6:2 7:5 8:0.16666669 9:0.375 10:0.16666669 11:0.2916667 12:9 13:0.2173913 14:2 15:0.5272727 16:55 17:0.14545453 18:0.25454545 19:0.27272725 20:0.3272727 21:0.2173913 22:0.77777779 23:0.16666667 
1 1:1 2:1 3:5 4:23 5:0.5 6:1 7:4 8:0.090909064 9:0.13636363 10:0.36363637 11:0.40909094 12:46 13:0.2 14:4 15:0.5555556 16:63 17:0.12698412 18:0.26984125 19:0.28571427 20:0.3174603 21:0.22222222 22:0.875 24:0.33333334 
1 3:1 4:24 5:0.45454544 6:2 7:2 8:0.22727275 9:0.18181819 10:0.27272725 11:0.3181818 12:14 13:0.2173913 14:4 15:0.4918033 16:61 17:0.19672132 18:0.27868855 19:0.21311474 20:0.3114754 21:0.20833333 22:1.25 23:0.375 
1 3:3 4:23 5:0.45454544 6:2 7:4 8:0.3181818 9:0.27272725 10:0.18181819 11:0.22727275 12:6 13:0.2 14:4 15:0.4153846 16:65 17:0.26153845 18:0.19999999 19:0.2153846 20:0.3230769 21:0.17647059 22:1 23:0.40000001 
0.8726322321163091 3:2 4:23 5:0.47826087 6:2 7:4 8:0.0869565 9:0.17391306 10:0.3043478 11:0.43478262 12:47 13:0.2 14:2 15:0.4285714 16:63 17:0.25396824 18:0.2063492 19:0.22222221 20:0.3174603 21:0.18367347 22:0.875 23:0.33333334 
0.7883093918603191 3:2 4:24 5:0.4583333 6:2 7:3 8:0.16666669 9:0.08333331 10:0.375 11:0.375 12:20 13:0.24444444 14:1 15:0.4166667 16:60 17:0.25 18:0.23333335 19:0.18333334 20:0.3333333 21:0.22448979 22:0.42857143 23:0.2820513 
1 1:2 2:1 3:9 4:22 5:0.61904764 6:2 7:4 8:0.047619045 9:0.52380955 10:0.09523809 11:0.3333333 12:50 13:0.20930232 14:2 15:0.61764705 16:68 17:0.14705884 18:0.2647059 19:0.35294116 20:0.2352941 21:0.2 22:0.77777779 24:0.17647059 
1 3:4 4:24 5:0.5909091 6:2 7:4 8:0.3181818 9:0.27272725 10:0.3181818 11:0.090909064 12:14 13:0.15555556 14:1 15:0.52542377 16:59 17:0.2711864 18:0.23728812 19:0.2881356 20:0.20338982 21:0.13207547 22:1 23:0.07692308 
1 3:8 4:23 5:0.5454545 6:1 7:4 8:0.27272725 9:0.18181819 10:0.36363637 11:0.18181819 12:54 13:0.1627907 14:3 15:0.515625 16:64 17:0.28125 18:0.234375 19:0.28125 20:0.203125 21:0.13793103 22:0.71428573 23:0.047619049 24:0.06666667 
1 1:2 2:1 3:9 4:22 5:0.5454545 6:2 7:3 8:0.04545456 9:0.40909094 10:0.13636363 11:0.40909094 12:6 13:0.17073171 14:1 15:0.5 16:60 17:0.21666664 18:0.28333336 19:0.21666664 20:0.28333336 21:0.19298245 22:0.66666669 23:0.2 24:0.25 
1 1:2 2:1 3:8 4:25 5:0.5 6:2 7:3 8:0.45454544 9:0.18181819 10:0.3181818 11:0.04545456 12:46 13:0.23404256 14:1 15:0.5 16:64 17:0.21875 18:0.265625 19:0.234375 20:0.28125 21:0.21311475 22:1.1666666 24:0.14285715 
0.1520747616589498 3:5 4:21 5:0.55 6:2 7:3 8:0.10000002 9:0.3 10:0.25 11:0.35000002 12:57 13:0.21951219 14:2 15:0.51666665 16:60 17:0.21666664 18:0.21666664 19:0.3 20:0.26666665 21:0.21568628 22:0.85714287 23:0.15384616 24:0.2 
0.8741013899028174 1:1 2:1 3:8 4:22 5:0.45454544 6:2 7:3 8:0.3181818 9:0.18181819 10:0.27272725 11:0.22727275 12:15 13:0.20930232 14:4 15:0.44444442 16:63 17:0.22222221 18:0.17460316 19:0.26984125 20:0.3333333 21:0.20689656 22:1.125 23:0.2857143 24:0.2 
1 1:1 2:1 3:9 4:23 5:0.5 6:2 7:4 8:0.18181819 9:0.27272725 10:0.22727275 11:0.3181818 12:58 13:0.2 14:4 15:0.46268654 16:67 17:0.20895523 18:0.19402987 19:0.26865673 20:0.32835823 21:0.22580644 22:1.4285715 23:0.25 24:0.29411766 
1 4:26 5:0.73913044 6:2 7:3 8:0.0869565 9:0.39130437 10:0.34782606 11:0.17391306 12:14 13:0.14285715 14:1 15:0.7307692 16:52 17:0.11538464 18:0.40384614 19:0.32692307 20:0.15384614 21:0.14285715 22:0.875 23:0.30769232 
1 1:1 2:1 3:6 4:19 5:0.7368421 6:2 7:2 8:0.15789473 9:0.31578946 10:0.42105263 11:0.10526317 12:46 13:0.085714288 14:3 15:0.74 16:50 17:0.10000002 18:0.39999998 19:0.33999997 20:0.16000003 21:0.10638298 22:1.2 23:0.35714287 24:0.16666667 
1 4:23 5:0.40909094 6:2 7:3 8:0.22727275 9:0.18181819 10:0.22727275 11:0.36363637 12:14 13:0.15555556 14:3 15:0.41071427 16:56 17:0.28571427 18:0.1785714 19:0.23214287 20:0.3035714 21:0.15555556 22:1 23:0.15384616 
1 1:2 2:1 3:10 4:23 5:0.45454544 6:1 7:1 8:0.36363637 9:0.18181819 10:0.27272725 11:0.18181819 12:6 13:0.022222223 14:2 15:0.5230769 16:65 17:0.19999999 18:0.23076922 19:0.29230767 20:0.27692306 21:0.081967212 22:0.8888889 24:0.25 
1 1:2 2:2 3:12 4:22 5:0.45454544 6:1 7:1 8:0.13636363 9:0.22727275 10:0.22727275 11:0.40909094 12:50 13:0.023255814 14:3 15:0.53731346 16:67 17:0.19402987 18:0.23880595 19:0.29850745 20:0.26865673 21:0.079365082 22:1.125 24:0.2 
1 1:1 2:1 3:7 4:24 5:0.5652174 6:1 7:3 8:0.13043481 9:0.34782606 10:0.21739131 11:0.3043478 12:54 13:0.13636364 14:2 15:0.609375 16:64 17:0.15625 18:0.328125 19:0.28125 20:0.234375 21:0.15789473 22:0.85714287 23:0.13043478 24:0.23076923 
1 1:2 2:1 3:5 4:25 5:0.5454545 6:2 7:3 8:0.18181819 9:0.18181819 10:0.36363637 11:0.27272725 12:2 13:0.24444444 14:2 15:0.62068963 16:58 17:0.18965518 18:0.31034482 19:0.31034482 20:0.18965518 21:0.25925925 22:0.30000001 24:0.33333334 
1 3:5 4:22 5:0.5454545 6:1 7:1 8:0.40909094 9:0.13636363 10:0.40909094 11:0.04545456 12:7 13:0.045454547 14:4 15:0.4736842 16:57 17:0.2631579 18:0.19298244 19:0.28070176 20:0.2631579 21:0.16981132 22:1.1111112 24:0.77777779 
1 1:4 2:1 3:7 4:25 5:0.48000002 6:1 7:1 8:0.07999998 9:0.27999997 10:0.19999999 11:0.44 12:44 13:0.039999999 14:3 15:0.49253732 16:67 17:0.25373137 18:0.20895523 19:0.2835821 20:0.25373137 21:0.14285715 22:0.90909094 24:0.53846157 
1 1:1 2:2 3:13 4:24 5:0.8 6:3 7:4 8:0.10000002 9:0.3 10:0.5 11:0.10000002 12:2 13:0.18181819 14:4 15:0.6438356 16:73 17:0.15068495 18:0.260274 19:0.38356167 20:0.20547944 21:0.14705883 22:1.3333334 24:0.083333336 
1 3:2 4:24 5:0.4583333 6:3 7:3 8:0.20833331 9:0.25 10:0.20833331 11:0.3333333 12:4 13:0.11627907 14:2 15:0.5283019 16:53 17:0.20754719 18:0.24528301 19:0.2830189 20:0.26415092 21:0.10638298 22:1.4 
1 3:2 4:28 5:0.5217391 6:3 7:3 8:0.26086956 9:0.3043478 10:0.21739131 11:0.21739131 12:38 13:0.12 14:3 15:0.56666666 16:60 17:0.19999999 18:0.26666665 19:0.3 20:0.23333335 21:0.11111111 22:0.55555558 
0.768362088635992 1:1 2:1 3:5 4:23 5:0.5454545 6:3 7:2 8:0.18181819 9:0.22727275 10:0.3181818 11:0.27272725 12:10 13:0.2 14:4 15:0.5423729 16:59 17:0.20338982 18:0.23728812 19:0.30508476 20:0.2542373 21:0.22222222 22:0.80000001 23:0.11111111 24:0.33333334 
1 3:4 4:25 5:0.6363636 6:3 7:5 8:0.090909064 9:0.22727275 10:0.40909094 11:0.27272725 12:3 13:0.22727273 14:3 15:0.6507937 16:63 17:0.12698412 18:0.30158728 19:0.34920633 20:0.22222221 21:0.1923077 22:0.25 
1 1:1 2:1 3:5 4:23 5:0.34782606 6:2 7:4 8:0.3043478 9:0.13043481 10:0.21739131 11:0.34782606 12:43 13:0.2 14:2 15:0.4915254 16:59 17:0.2542373 18:0.220339 19:0.2711864 20:0.2542373 21:0.18518518 22:1.1666666 24:0.11111111 
1 3:4 4:23 5:0.7826087 6:2 7:3 8:0.17391306 9:0.34782606 10:0.43478262 11:0.04347825 12:4 13:0.13636364 14:2 15:0.78947365 16:57 17:0.12280703 18:0.35087717 19:0.4385965 20:0.08771932 21:0.21568628 22:0.8888889 23:0.14285715 24:0.71428573 
1 1:1 2:1 3:7 4:22 5:0.5454545 6:3 7:2 8:0.27272725 9:0.13636363 10:0.40909094 11:0.18181819 12:1 13:0.12820514 14:1 15:0.5087719 16:57 17:0.2280702 18:0.2280702 19:0.28070176 20:0.2631579 21:0.13207547 22:4.5 24:0.14285715 
1 1:1 2:1 3:6 4:26 5:0.47619045 6:3 7:2 8:0.19047618 9:0.3333333 10:0.14285713 11:0.3333333 12:40 13:0.18181819 14:2 15:0.48333335 16:60 17:0.23333335 18:0.21666664 19:0.26666665 20:0.28333336 21:0.17857143 22:2.5 24:0.16666667 
1 1:2 2:1 3:9 4:28 5:0.6363636 6:6 7:2 8:0.22727275 9:0.40909094 10:0.22727275 11:0.13636363 12:1 13:0.2 15:0.6056338 16:71 17:0.1690141 18:0.28169012 19:0.32394367 20:0.22535211 21:0.20588236 22:3 24:0.22222222 
1 1:2 2:1 3:9 4:21 5:0.57142854 6:6 7:2 8:0.19047618 9:0.19047618 10:0.38095236 11:0.23809522 12:44 13:0.27777779 14:2 15:0.5964912 16:57 17:0.17543858 18:0.28070176 19:0.31578946 20:0.2280702 21:0.25925925 22:0.60000002 24:0.22222222 
1 3:5 4:20 5:0.55 6:1 7:2 8:0.10000002 9:0.25 10:0.3 11:0.35000002 12:10 13:0.07692308 14:1 15:0.46666664 16:60 17:0.23333335 18:0.21666664 19:0.25 20:0.3 21:0.06122449 22:1 23:0.25 
1 1:1 2:1 3:7 4:23 5:0.40909094 6:2 7:2 8:0.22727275 9:0.090909064 10:0.3181818 11:0.36363637 12:41 13:0.25581396 14:3 15:0.4745763 16:59 17:0.20338982 18:0.23728812 19:0.23728812 20:0.32203388 21:0.25 24:0.23076923 
1 1:2 2:1 3:5 4:22 5:0.5454545 6:2 7:3 8:0.22727275 9:0.3181818 10:0.22727275 11:0.22727275 12:4 13:0.18181819 14:1 15:0.559322 16:59 17:0.20338982 18:0.30508476 19:0.2542373 20:0.23728812 21:0.20754717 22:1.2857143 24:0.33333334 
1 1:1 2:1 3:7 4:23 5:0.6818182 6:3 7:5 8:0.27272725 9:0.45454544 10:0.22727275 11:0.04545456 12:2 13:0.31707317 14:1 15:0.6166667 16:60 17:0.21666664 18:0.35000002 19:0.26666665 20:0.16666669 21:0.27272728 22:1 24:0.14285715 
1 1:1 2:1 3:4 4:24 5:0.40909094 6:2 7:3 8:0.22727275 9:0.22727275 10:0.18181819 11:0.36363637 12:41 13:0.2 14:4 15:0.44067794 16:59 17:0.23728812 18:0.20338982 19:0.23728812 20:0.32203388 21:0.20754717 22:2 24:0.25 
0.652434222820737 3:2 4:22 5:0.5454545 6:1 7:2 8:0.27272725 9:0.18181819 10:0.36363637 11:0.18181819 12:47 13:0.090909094 14:2 15:0.51724136 16:58 17:0.18965518 18:0.2241379 19:0.29310346 20:0.29310346 21:0.083333336 22:0.63636363 23:0.14285715 
1 3:4 4:24 5:0.72727275 6:1 7:4 8:0.18181819 9:0.45454544 10:0.27272725 11:0.090909064 12:8 13:0.22727273 14:2 15:0.6721312 16:61 17:0.14754099 18:0.32786888 19:0.3442623 20:0.18032789 21:0.1923077 22:3.6666667 23:0.14285715 
0.002968102279701726 3:6 4:24 5:0.6666666 6:1 7:4 8:0.20833331 9:0.2916667 10:0.375 11:0.125 12:47 13:0.2 14:2 15:0.671875 16:64 17:0.140625 18:0.328125 19:0.34375 20:0.1875 21:0.2 22:1 23:0.090909094 24:0.2 
1 4:24 5:0.4166667 6:1 7:2 8:0.2916667 9:0.20833331 10:0.20833331 11:0.2916667 12:6 13:0.16666667 14:4 15:0.4423077 16:52 17:0.28846157 18:0.19230771 19:0.25 20:0.26923078 21:0.16666667 22:0.83333331 
1 1:1 2:1 3:5 4:20 5:0.45 6:2 7:2 8:0.25 9:0.14999998 10:0.3 11:0.3 12:39 13:0.15000001 14:1 15:0.4259259 16:54 17:0.2962963 18:0.1851852 19:0.24074072 20:0.2777778 21:0.16 22:2.25 24:0.2 
1 1:2 2:1 3:8 4:22 5:0.40909094 6:1 7:2 8:0.18181819 9:0.04545456 10:0.36363637 11:0.40909094 12:40 13:0.14285715 14:3 15:0.42622954 16:61 17:0.26229507 18:0.22950822 19:0.19672132 20:0.3114754 21:0.14285715 22:2.25 24:0.14285715 
1 3:2 4:24 5:0.47826087 6:2 7:4 8:0.3043478 9:0.21739131 10:0.26086956 11:0.21739131 12:43 13:0.2173913 14:2 15:0.5409836 16:61 17:0.21311474 18:0.24590164 19:0.29508197 20:0.24590164 21:0.2 22:1.6 23:0.25 
1 1:3 2:1 3:7 4:21 5:0.57142854 6:1 7:2 8:0.28571427 9:0.23809522 10:0.3333333 11:0.14285713 12:43 13:0.095238097 14:4 15:0.48333335 16:60 17:0.21666664 18:0.25 19:0.23333335 20:0.3 21:0.16363636 22:0.63636363 24:0.38461539 
1 3:5 4:21 5:0.8095238 6:2 7:2 8:0.047619045 9:0.47619045 10:0.3333333 11:0.14285713 12:44 13:0.21951219 14:1 15:0.6935484 16:62 17:0.12903225 18:0.2903226 19:0.40322578 20:0.17741936 21:0.21568628 22:0.66666669 24:0.2 
1 1:1 2:1 3:5 4:23 5:0.5217391 6:2 7:3 8:0.3043478 9:0.0869565 10:0.43478262 11:0.17391306 12:5 13:0.15555556 14:3 15:0.49206346 16:63 17:0.22222221 18:0.2063492 19:0.28571427 20:0.28571427 21:0.16363636 22:0.90909094 23:0.25 24:0.2 
0.6011807796988152 1:1 2:1 3:7 4:23 5:0.5454545 6:2 7:3 8:0.13636363 9:0.3181818 10:0.22727275 11:0.3181818 12:48 13:0.2 14:3 15:0.47761196 16:67 17:0.23880595 18:0.19402987 19:0.2835821 20:0.2835821 21:0.18644068 22:1.4285715 24:0.14285715 
1 1:1 2:1 3:8 4:21 5:0.6666666 6:1 7:2 8:0.09523809 9:0.38095236 10:0.28571427 11:0.23809522 12:4 13:0.21951219 14:3 15:0.73333335 16:60 17:0.11666667 18:0.28333336 19:0.45 20:0.14999998 21:0.2 22:3.6666667 24:0.14285715 
1 1:1 2:1 3:9 4:21 5:0.85 6:1 7:2 8:0.050000012 9:0.19999999 10:0.65 11:0.10000002 12:45 13:0.17073171 14:1 15:0.7258065 16:62 17:0.11290324 18:0.27419353 19:0.4516129 20:0.16129035 21:0.19298245 22:0.60000002 24:0.25 
1 1:3 2:1 3:6 4:22 5:0.6363636 6:1 7:3 8:0.13636363 9:0.40909094 10:0.22727275 11:0.22727275 12:5 13:0.11627907 14:2 15:0.6666666 16:57 17:0.12280703 18:0.35087717 19:0.31578946 20:0.21052629 21:0.16981132 22:1 23:0.25 24:0.40000001 
1 1:3 2:1 3:8 4:23 5:0.6818182 6:1 7:4 8:0.090909064 9:0.36363637 10:0.3181818 11:0.22727275 12:43 13:0.15555556 14:2 15:0.6666666 16:63 17:0.12698412 18:0.36507934 19:0.30158728 20:0.2063492 21:0.18644068 22:1 24:0.2857143 
1 1:3 2:1 3:8 4:22 5:0.57142854 6:3 7:3 8:0.09523809 9:0.28571427 10:0.28571427 11:0.3333333 12:47 13:0.20930232 14:4 15:0.5409836 16:61 17:0.18032789 18:0.27868855 19:0.26229507 20:0.27868855 21:0.24137931 22:0.54545456 23:0.11111111 24:0.33333334 
1 3:3 4:24 5:0.3333333 6:2 7:3 8:0.5 9:0.041666687 10:0.2916667 11:0.16666669 12:39 13:0.2173913 14:3 15:0.41935486 16:62 17:0.2580645 18:0.19354838 19:0.22580647 20:0.32258064 21:0.1923077 22:2.5 
1 3:1 4:25 5:0.6666666 6:2 7:4 8:0.08333331 9:0.375 10:0.2916667 11:0.25 12:6 13:0.18367347 14:1 15:0.63793105 16:58 17:0.15517241 18:0.29310346 19:0.3448276 20:0.20689654 21:0.17647059 22:0.8888889 
1 3:4 4:24 5:0.625 6:2 7:3 8:0.20833331 9:0.2916667 10:0.3333333 11:0.16666669 12:42 13:0.14893617 14:2 15:0.62903225 16:62 17:0.16129035 18:0.2903226 19:0.33870965 20:0.2096774 21:0.16363636 22:0.72727275 24:0.25 
1 3:3 4:24 5:0.5 6:3 7:4 8:0.3181818 9:0.27272725 10:0.22727275 11:0.18181819 12:7 13:0.26086956 14:3 15:0.4310345 16:58 17:0.29310346 18:0.2241379 19:0.20689654 20:0.2758621 21:0.23076923 22:5 23:0.16666667 
1 3:7 4:22 5:0.45454544 6:2 7:3 8:0.3181818 9:0.18181819 10:0.27272725 11:0.22727275 12:45 13:0.22727273 14:3 15:0.43548387 16:62 17:0.2903226 18:0.22580647 19:0.2096774 20:0.27419353 21:0.25 22:1.2857143 24:0.33333334 
1 3:2 4:22 5:0.5909091 6:2 7:3 8:0.090909064 9:0.22727275 10:0.36363637 11:0.3181818 12:6 13:0.18181819 14:2 15:0.57142854 16:56 17:0.14285713 18:0.23214287 19:0.33928573 20:0.28571427 21:0.20833333 22:1.25 23:0.11111111 24:0.5 
1 1:2 2:1 3:7 4:21 5:0.38095236 6:2 7:2 8:0.09523809 9:0.09523809 10:0.28571427 11:0.52380955 12:57 13:0.21951219 14:2 15:0.3770492 16:61 17:0.27868855 18:0.18032789 19:0.19672132 20:0.3442623 21:0.23636363 22:1.2 23:0.1875 24:0.2857143 
1 1:1 2:1 3:5 4:23 5:0.6818182 6:2 7:3 8:0.13636363 9:0.45454544 10:0.22727275 11:0.18181819 12:44 13:0.13636364 14:2 15:0.671875 16:64 17:0.1875 18:0.390625 19:0.28125 20:0.140625 21:0.13207547 22:0.90909094 24:0.11111111 
1 1:2 2:2 3:9 4:23 5:0.6363636 6:1 7:3 8:0.090909064 9:0.5909091 10:0.04545456 11:0.27272725 12:45 13:0.13636364 14:4 15:0.57575756 16:66 17:0.18181819 18:0.24242425 19:0.3333333 20:0.24242425 21:0.19354838 22:1.4285715 24:0.33333334 
1 1:1 2:2 3:9 4:22 5:0.5 6:1 7:2 8:0.3181818 9:0.13636363 10:0.36363637 11:0.18181819 12:9 13:0.069767445 14:1 15:0.546875 16:64 17:0.203125 18:0.203125 19:0.34375 20:0.25 21:0.1 22:0.69999999 23:0.05882353 24:0.17647059 
1 1:1 2:2 3:11 4:23 5:0.5 6:1 7:3 8:0.13636363 9:0.3181818 10:0.18181819 11:0.36363637 12:54 13:0.090909094 14:2 15:0.5362319 16:69 17:0.20289856 18:0.18840581 19:0.34782606 20:0.26086956 21:0.10769231 22:1.6666666 24:0.14285715 
1 1:2 2:1 3:7 4:21 5:0.61904764 6:1 7:3 8:0.19047618 9:0.3333333 10:0.28571427 11:0.19047618 12:10 13:0.19047619 14:1 15:0.6034483 16:58 17:0.18965518 18:0.3448276 19:0.25862068 20:0.20689654 21:0.18518518 22:1.4285715 23:0.11111111 24:0.16666667 
1 1:2 2:1 3:7 4:21 5:0.61904764 6:1 7:3 8:0.14285713 9:0.38095236 10:0.23809522 11:0.23809522 12:47 13:0.19047619 14:1 15:0.6034483 16:58 17:0.18965518 18:0.3448276 19:0.25862068 20:0.20689654 21:0.18518518 22:0.69999999 23:0.11111111 24:0.16666667 
0.7824022484845731 4:22 5:0.5 6:1 7:3 8:0.13636363 9:0.3181818 10:0.18181819 11:0.36363637 12:18 13:0.13636364 14:4 15:0.39999998 16:55 17:0.19999999 18:0.19999999 19:0.19999999 20:0.39999998 21:0.13636364 22:1.2222222 23:0.2 
0.5952789812162945 3:2 4:23 5:0.43478262 6:1 7:4 8:0.26086956 9:0.17391306 10:0.26086956 11:0.3043478 12:53 13:0.17391305 14:2 15:0.42622954 16:61 17:0.18032789 18:0.18032789 19:0.24590164 20:0.39344263 21:0.16 22:1.2857143 23:0.1724138 
0.5624665536572735 1:1 2:1 3:7 4:24 5:0.5 6:2 7:2 8:0.2916667 9:0.25 10:0.25 11:0.20833331 12:15 13:0.15555556 14:1 15:0.55737704 16:61 17:0.22950822 18:0.27868855 19:0.27868855 20:0.21311474 21:0.19298245 22:0.5 23:0.35714287 24:0.33333334 
1 1:2 2:2 3:9 4:20 5:0.6666666 6:2 7:2 8:0.055555582 9:0.3333333 10:0.3333333 11:0.2777778 12:57 13:0.10526316 14:2 15:0.56896555 16:58 17:0.20689654 18:0.2758621 19:0.29310346 20:0.2241379 21:0.14814815 22:1 23:0.41935483 24:0.25 
1 3:2 4:21 5:0.4285714 6:3 7:2 8:0.38095236 9:0.23809522 10:0.19047618 11:0.19047618 12:12 13:0.23809524 14:4 15:0.4814815 16:54 17:0.25925928 18:0.22222221 19:0.25925928 20:0.25925928 21:0.2173913 22:1.1428572 23:0.090909094 
1 3:3 4:22 5:0.5 6:3 7:2 8:0.090909064 9:0.22727275 10:0.27272725 11:0.40909094 12:46 13:0.27272728 14:2 15:0.44827586 16:58 17:0.25862068 18:0.20689654 19:0.24137932 20:0.29310346 21:0.23999999 22:1.4 
1 1:1 2:1 3:5 4:24 5:0.6363636 6:2 7:4 8:0.04545456 9:0.27272725 10:0.36363637 11:0.3181818 12:7 13:0.2173913 14:3 15:0.6 16:60 17:0.11666667 18:0.25 19:0.35000002 20:0.28333336 21:0.25 22:1.6666666 23:0.16666667 24:0.40000001 
1 1:1 2:1 3:5 4:23 5:0.40909094 6:1 7:3 8:0.13636363 9:0.27272725 10:0.13636363 11:0.45454544 12:39 13:0.20930232 14:3 15:0.43333334 16:60 17:0.21666664 18:0.19999999 19:0.23333335 20:0.35000002 21:0.1923077 22:3.5 24:0.11111111 
0.7534026019181369 3:6 4:22 5:0.6818182 6:2 7:3 8:0.04545456 9:0.3181818 10:0.36363637 11:0.27272725 12:46 13:0.18181819 14:2 15:0.609375 16:64 17:0.109375 18:0.265625 19:0.34375 20:0.28125 21:0.17857143 22:2 24:0.16666667 
1 3:2 4:22 5:0.36363637 6:1 7:2 8:0.27272725 9:0.13636363 10:0.22727275 11:0.36363637 12:41 13:0.090909094 14:3 15:0.37288135 16:59 17:0.2881356 18:0.16949153 19:0.20338982 20:0.33898306 21:0.083333336 22:1.125 
0.2281415799492015 3:5 4:24 5:0.5909091 6:1 7:3 8:0.090909064 9:0.22727275 10:0.36363637 11:0.3181818 12:9 13:0.13043478 14:4 15:0.5333333 16:60 17:0.23333335 18:0.23333335 19:0.3 20:0.23333335 21:0.14814815 22:0.80000001 24:0.25 
1 1:1 2:1 3:9 4:22 5:0.5909091 6:1 7:2 8:0.18181819 9:0.3181818 10:0.27272725 11:0.22727275 12:44 13:0.18181819 14:4 15:0.5692308 16:65 17:0.18461537 18:0.27692306 19:0.29230767 20:0.24615383 21:0.18032786 22:0.625 24:0.17647059 
1 1:2 2:1 3:6 4:23 5:0.43478262 6:2 7:2 8:0.21739131 9:0.26086956 10:0.17391306 11:0.34782606 12:6 13:0.20930232 14:2 15:0.48214287 16:56 17:0.23214287 18:0.23214287 19:0.25 20:0.28571427 21:0.20754717 22:0.2857143 23:0.2 24:0.2 
1 1:2 2:1 3:7 4:24 5:0.47619045 6:4 7:3 8:0.28571427 9:0.23809522 10:0.23809522 11:0.23809522 12:43 13:0.24444444 14:2 15:0.5 16:60 17:0.21666664 18:0.25 19:0.25 20:0.28333336 21:0.22807017 22:2.3333333 24:0.16666667 
1 1:2 2:4 3:21 4:21 5:0.6666666 6:2 7:3 8:0.14285713 9:0.38095236 10:0.28571427 11:0.19047618 12:3 13:0.17948718 14:4 15:0.67073166 16:82 17:0.19512194 18:0.31707317 19:0.35365856 20:0.13414633 21:0.18987341 22:0.60000002 24:0.2 
1 1:2 2:1 3:7 4:23 5:0.6086956 6:1 7:4 8:0.21739131 9:0.21739131 10:0.39130437 11:0.17391306 12:53 13:0.15555556 14:2 15:0.6557377 16:61 17:0.21311474 18:0.29508197 19:0.36065573 20:0.13114756 21:0.1724138 22:1 23:0.2 24:0.23076923 
1 3:4 4:25 5:0.4583333 6:1 7:5 8:0.20833331 9:0.20833331 10:0.25 11:0.3333333 12:40 13:0.24444444 14:3 15:0.48275864 16:58 17:0.29310346 18:0.24137932 19:0.24137932 20:0.2241379 21:0.20754717 22:1.6 
1 3:2 4:26 5:0.43478262 6:3 7:4 8:0.34782606 9:0.13043481 10:0.3043478 11:0.21739131 12:3 13:0.19148937 14:2 15:0.5 16:62 17:0.2580645 18:0.2903226 19:0.2096774 20:0.24193549 21:0.17647059 22:0.33333334 
1 1:2 2:2 3:9 4:21 5:0.6666666 6:1 7:4 8:0.14285713 9:0.28571427 10:0.38095236 11:0.19047618 12:45 13:0.15000001 14:1 15:0.6885246 16:61 17:0.081967235 18:0.32786888 19:0.36065573 20:0.22950822 21:0.22807017 22:0.72727275 24:0.41176471 
1 1:3 2:2 3:9 4:22 5:0.6666666 6:2 7:3 8:0.19047618 9:0.38095236 10:0.28571427 11:0.14285713 12:5 13:0.19047619 14:2 15:0.6612903 16:62 17:0.12903225 18:0.33870965 19:0.32258064 20:0.2096774 21:0.24137931 22:0.90909094 23:0.25 24:0.375 
0.3463782600982228 1:3 2:2 3:11 4:23 5:0.5909091 6:2 7:4 8:0.13636363 9:0.3181818 10:0.27272725 11:0.27272725 12:48 13:0.22727273 14:2 15:0.66176474 16:68 17:0.11764705 18:0.33823532 19:0.32352942 20:0.2205882 21:0.25 22:1.375 24:0.30000001 
1 3:7 4:24 5:0.4583333 6:1 7:1 8:0.16666669 9:0.25 10:0.20833331 11:0.375 12:7 13:0.17391305 14:4 15:0.52380955 16:63 17:0.22222221 18:0.22222221 19:0.30158728 20:0.25396824 21:0.20689656 24:0.33333334 
1 1:1 2:1 3:6 4:22 5:0.45454544 6:2 7:3 8:0.3181818 9:0.13636363 10:0.3181818 11:0.22727275 12:26 13:0.20930232 14:4 15:0.46551722 16:58 17:0.24137932 18:0.15517241 19:0.31034482 20:0.29310346 21:0.18518518 22:0.69999999 23:0.36363637 24:0.090909094 
0.9502427417164792 1:1 2:1 3:7 4:23 5:0.5 6:2 7:4 8:0.18181819 9:0.27272725 10:0.22727275 11:0.3181818 12:64 13:0.24444444 14:4 15:0.4677419 16:62 17:0.22580647 18:0.16129035 19:0.30645162 20:0.30645162 21:0.20689656 22:2 23:0.34999999 24:0.07692308 
0.06982308589759006 4:24 5:0.625 6:2 7:1 8:0.08333331 9:0.4166667 10:0.20833331 11:0.2916667 12:7 13:0.125 14:4 15:0.6140351 16:57 17:0.15789473 18:0.28070176 19:0.3333333 20:0.2280702 21:0.086956523 22:0.8888889 
1 3:2 4:24 5:0.625 6:2 7:1 8:0.2916667 9:0.16666669 10:0.4583333 11:0.08333331 12:43 13:0.083333336 14:3 15:0.61904764 16:63 17:0.15873015 18:0.28571427 19:0.3333333 20:0.22222221 21:0.07692308 22:1.1 
1 3:6 4:22 5:0.5 6:2 7:2 8:0.40909094 9:0.13636363 10:0.36363637 11:0.090909064 12:3 13:0.13636364 14:2 15:0.37288135 16:59 17:0.2881356 18:0.16949153 19:0.20338982 20:0.33898306 21:0.12727273 22:0.89999998 24:0.090909094 
0.3066329606819749 4:23 5:0.6086956 6:1 7:3 8:0.17391306 9:0.26086956 10:0.34782606 11:0.21739131 12:3 13:0.11111111 14:2 15:0.6333333 16:60 17:0.19999999 18:0.3 19:0.3333333 20:0.16666669 21:0.11111111 22:0.80000001 
1 3:1 4:23 5:0.6818182 6:1 7:3 8:0.18181819 9:0.36363637 10:0.3181818 11:0.13636363 12:42 13:0.11111111 14:1 15:0.6451613 16:62 17:0.19354838 18:0.30645162 19:0.33870965 20:0.16129035 21:0.10638298 22:1.2222222 
1 1:1 2:1 3:5 4:27 5:0.5909091 6:3 7:4 8:0.27272725 9:0.36363637 10:0.22727275 11:0.13636363 12:53 13:0.16666667 14:2 15:0.63235295 16:68 17:0.17647058 18:0.35294116 19:0.2794118 20:0.19117647 21:0.1724138 22:1.1666666 24:0.2 
1 3:3 4:25 5:0.5 6:2 7:3 8:0.16666669 9:0.125 10:0.375 11:0.3333333 12:6 13:0.14893617 14:2 15:0.4736842 16:57 17:0.24561405 18:0.2280702 19:0.24561405 20:0.28070176 21:0.16981132 22:0.55555558 23:0.090909094 24:0.33333334 
1 1:1 2:1 3:5 4:24 5:0.5 6:2 7:4 8:0.22727275 9:0.36363637 10:0.13636363 11:0.27272725 12:42 13:0.15555556 14:4 15:0.4915254 16:59 17:0.23728812 18:0.23728812 19:0.2542373 20:0.2711864 21:0.16363636 22:1.6666666 23:0.11111111 24:0.2 
1 3:3 4:25 5:0.5 6:2 7:3 8:0.08333331 9:0.25 10:0.25 11:0.4166667 12:4 13:0.125 14:1 15:0.530303 16:66 17:0.18181819 18:0.22727275 19:0.3030303 20:0.2878788 21:0.11111111 22:0.89999998 
1 1:3 2:1 3:8 4:22 5:0.5909091 6:1 7:2 8:0.13636363 9:0.22727275 10:0.36363637 11:0.27272725 12:7 13:0.17073171 14:4 15:0.4915254 16:59 17:0.2711864 18:0.20338982 19:0.2881356 20:0.23728812 21:0.18518518 22:0.18181819 24:0.23076923 
0.8772965396557758 1:1 2:1 3:6 4:21 5:0.65 6:2 7:3 8:0.10000002 9:0.14999998 10:0.5 11:0.25 12:50 13:0.15000001 14:4 15:0.64912283 16:57 17:0.10526317 18:0.21052629 19:0.4385965 20:0.24561405 21:0.1923077 22:1 23:0.16666667 24:0.33333334 
1 3:5 4:22 5:0.45454544 6:2 7:2 8:0.36363637 9:0.13636363 10:0.3181818 11:0.18181819 12:3 13:0.14285715 14:1 15:0.4745763 16:59 17:0.2542373 18:0.220339 19:0.2542373 20:0.2711864 21:0.16 22:1.125 24:0.25 
1 3:3 4:23 5:0.45454544 6:2 7:3 8:0.3181818 9:0.27272725 10:0.18181819 11:0.22727275 12:15 13:0.15555556 14:3 15:0.40350878 16:57 17:0.35087717 18:0.2280702 19:0.17543858 20:0.24561405 21:0.17647059 22:2.2 23:0.24137931 24:0.33333334 
1 3:4 4:22 5:0.6363636 6:2 7:2 9:0.18181819 10:0.45454544 11:0.36363637 12:3 13:0.27272728 14:3 15:0.56896555 16:58 17:0.13793105 18:0.24137932 19:0.32758623 20:0.29310346 21:0.30769232 22:1.6 24:0.5 
1 3:6 4:22 5:0.77272725 6:2 7:3 8:0.18181819 9:0.36363637 10:0.40909094 11:0.04545456 12:41 13:0.20930232 14:4 15:0.59016395 16:61 17:0.13114756 18:0.26229507 19:0.32786888 20:0.27868855 21:0.30909091 22:1.8333334 24:0.66666669 
1 1:1 2:1 3:7 4:23 5:0.5652174 6:2 7:2 8:0.0869565 9:0.26086956 10:0.3043478 11:0.34782606 12:9 13:0.095238097 14:4 15:0.52542377 16:59 17:0.1864407 18:0.220339 19:0.30508476 20:0.2881356 21:0.090909094 22:0.45454547 24:0.07692308 
0.3516849141191012 1:1 2:1 3:7 4:25 5:0.57142854 6:2 7:2 8:0.23809522 9:0.28571427 10:0.28571427 11:0.19047618 12:49 13:0.086956523 14:4 15:0.49206346 16:63 17:0.2063492 18:0.2063492 19:0.28571427 20:0.30158728 21:0.084745765 22:1.2222222 24:0.07692308 
1 3:2 4:22 5:0.47619045 6:1 7:3 8:0.09523809 9:0.14285713 10:0.3333333 11:0.4285714 12:4 13:0.11627907 14:4 15:0.58928573 16:56 17:0.14285713 18:0.28571427 19:0.3035714 20:0.26785713 21:0.10638298 22:1 
0.8200566872719096 4:22 5:0.4285714 6:2 7:2 8:0.19047618 9:0.14285713 10:0.28571427 11:0.38095236 12:23 13:0.11627907 14:2 15:0.45454544 16:55 17:0.27272725 18:0.19999999 19:0.25454545 20:0.27272725 21:0.11627907 22:1.1111112 23:0.44186047 
0.6692755651896207 3:2 4:22 5:0.5454545 6:2 7:2 8:0.27272725 9:0.40909094 10:0.13636363 11:0.18181819 12:58 13:0.11627907 14:4 15:0.4745763 16:59 17:0.2542373 18:0.20338982 19:0.2711864 20:0.2711864 21:0.10638298 22:1.1 23:0.48717949 
1 3:4 4:21 5:0.52380955 6:2 7:2 8:0.3333333 9:0.19047618 10:0.3333333 11:0.14285713 12:37 13:0.19047619 14:4 15:0.5090909 16:55 17:0.23636365 18:0.23636365 19:0.27272725 20:0.25454545 21:0.16 22:0.625 
1 3:6 4:20 5:0.5 6:2 7:2 8:0.25 9:0.3 10:0.19999999 11:0.25 12:7 13:0.2 14:3 15:0.39999998 16:55 17:0.27272725 18:0.21818179 19:0.18181819 20:0.3272727 21:0.25490198 22:0.69999999 23:0.23076923 24:0.45454547 
1 1:3 2:1 3:8 4:22 5:0.40909094 6:2 7:4 8:0.27272725 9:0.18181819 10:0.22727275 11:0.3181818 12:44 13:0.25581396 14:3 15:0.41935486 16:62 17:0.2580645 18:0.2096774 19:0.2096774 20:0.32258064 21:0.27586207 22:2 24:0.33333334 
1 3:2 4:23 5:0.45454544 6:3 7:4 8:0.3181818 9:0.22727275 10:0.22727275 11:0.22727275 12:14 13:0.22727273 14:3 15:0.44067794 16:59 17:0.2711864 18:0.220339 19:0.220339 20:0.2881356 21:0.20833333 22:1.4 23:0.2857143 
1 3:3 4:24 5:0.47826087 6:3 7:4 8:0.21739131 9:0.26086956 10:0.21739131 11:0.3043478 12:52 13:0.30434781 14:2 15:0.44444442 16:63 17:0.25396824 18:0.2063492 19:0.23809522 20:0.30158728 21:0.26923078 22:0.5 23:0.16666667 
0.5144972310743876 1:1 2:2 3:5 4:23 5:0.6363636 6:4 7:4 8:0.18181819 9:0.3181818 10:0.3181818 11:0.18181819 12:15 13:0.27272728 14:3 15:0.56896555 16:58 17:0.17241377 18:0.25862068 19:0.31034482 20:0.25862068 21:0.28301886 22:0.80000001 23:0.14285715 24:0.33333334 
0.9100876998032764 1:1 2:2 3:6 4:24 5:0.5652174 6:4 7:4 8:0.21739131 9:0.21739131 10:0.34782606 11:0.21739131 12:52 13:0.30434781 14:3 15:0.5483871 16:62 17:0.19354838 18:0.24193549 19:0.30645162 20:0.2580645 21:0.29824561 22:2.25 23:0.083333336 24:0.27272728 
1 3:2 4:22 5:0.36363637 6:3 7:2 8:0.3181818 9:0.13636363 10:0.22727275 11:0.3181818 12:16 13:0.20930232 14:3 15:0.4528302 16:53 17:0.16981131 18:0.18867922 19:0.26415092 20:0.3773585 21:0.23404256 22:0.80000001 23:0.22580644 24:0.5 
1 1:1 2:1 3:4 4:23 5:0.40909094 6:1 7:3 8:0.27272725 9:0.3181818 10:0.090909064 11:0.3181818 12:31 13:0.15555556 14:2 15:0.4385965 16:57 17:0.21052629 18:0.21052629 19:0.2280702 20:0.35087717 21:0.16981132 22:0.55555558 23:0.32258064 24:0.25 
1 1:1 2:1 3:6 4:22 5:0.5 6:1 7:3 8:0.13636363 9:0.18181819 10:0.3181818 11:0.36363637 12:67 13:0.20930232 14:2 15:0.45762712 16:59 17:0.20338982 18:0.23728812 19:0.220339 20:0.33898306 21:0.2 22:2 23:0.30000001 24:0.16666667 
0.03268271628998091 1:2 2:1 3:6 4:24 5:0.4583333 6:3 7:3 8:0.125 9:0.08333331 10:0.375 11:0.4166667 12:58 13:0.17391305 14:2 15:0.52459013 16:61 17:0.18032789 18:0.19672132 19:0.32786888 20:0.29508197 21:0.20689656 22:1.1111112 23:0.2173913 24:0.33333334 
1 3:11 4:22 5:0.5454545 6:2 7:4 8:0.18181819 9:0.22727275 10:0.3181818 11:0.27272725 12:15 13:0.22727273 14:3 15:0.52380955 16:63 17:0.23809522 18:0.25396824 19:0.26984125 20:0.23809522 21:0.28813559 22:0.69999999 23:0.21428572 24:0.46666667 
1 3:14 4:22 5:0.8181818 6:1 7:3 8:0.090909064 9:0.22727275 10:0.5909091 11:0.090909064 12:14 13:0.13636364 14:3 15:0.6 16:70 17:0.15714288 18:0.27142859 19:0.32857144 20:0.24285716 21:0.23809524 22:0.8888889 23:0.15384616 24:0.47368422 
1 1:9 2:1 3:16 4:22 5:0.6363636 6:1 7:3 8:0.18181819 9:0.45454544 10:0.18181819 11:0.18181819 12:64 13:0.13636364 14:2 15:0.5810811 16:74 17:0.16216218 18:0.25675678 19:0.3243243 20:0.25675678 21:0.2238806 22:1.5 23:0.18181819 24:0.39130434 
1 1:12 2:1 3:17 4:21 5:0.57142854 6:1 7:5 8:0.28571427 9:0.23809522 10:0.3333333 11:0.14285713 12:51 13:0.23809524 14:2 15:0.61764705 16:68 17:0.25 18:0.36764705 19:0.25 20:0.13235295 21:0.34375 22:0.77777779 24:0.54545456 
1 1:1 2:1 3:3 4:22 5:0.6363636 6:1 7:3 8:0.22727275 9:0.45454544 10:0.18181819 11:0.13636363 12:7 13:0.13636364 14:1 15:0.5925926 16:54 17:0.24074072 18:0.3333333 19:0.25925928 20:0.16666669 21:0.16 22:1 23:0.16666667 24:0.33333334 
1 1:1 2:1 3:5 4:22 5:0.5454545 6:1 7:3 8:0.22727275 9:0.22727275 10:0.3181818 11:0.22727275 12:41 13:0.18181819 14:2 15:0.56896555 16:58 17:0.25862068 18:0.32758623 19:0.24137932 20:0.17241377 21:0.18518518 22:1.2857143 24:0.2 
1 1:5 2:1 3:8 4:23 5:0.5909091 6:3 7:2 8:0.13636363 9:0.22727275 10:0.36363637 11:0.27272725 12:3 13:0.15555556 14:4 15:0.484375 16:64 17:0.234375 18:0.25 19:0.234375 20:0.28125 21:0.26666668 22:2.6666667 24:0.60000002 
1 3:7 4:22 5:0.36363637 6:3 7:1 8:0.40909094 9:0.22727275 10:0.13636363 11:0.22727275 12:43 13:0.1627907 14:4 15:0.46666664 16:60 17:0.25 18:0.25 19:0.21666664 20:0.28333336 21:0.2857143 22:0.71428573 24:0.69230771 
1 1:6 2:3 3:29 4:22 5:0.5909091 6:1 7:3 8:0.3181818 9:0.36363637 10:0.22727275 11:0.090909064 12:4 13:0.1627907 14:4 15:0.58762884 16:97 17:0.16494846 18:0.2886598 19:0.2989691 20:0.2474227 21:0.24731183 22:0.8888889 23:0.33333334 24:0.31999999 
1 1:6 2:4 3:31 4:23 5:0.5909091 6:2 7:4 8:0.04545456 9:0.22727275 10:0.36363637 11:0.36363637 12:82 13:0.2 14:4 15:0.592233 16:103 17:0.15533978 18:0.29126215 19:0.30097085 20:0.25242716 21:0.25252524 22:1.5 24:0.2962963 
1 4:23 5:0.5652174 6:2 7:2 8:0.26086956 9:0.21739131 10:0.34782606 11:0.17391306 12:10 13:0.13636364 14:3 15:0.5185185 16:54 17:0.25925928 18:0.2777778 19:0.24074072 20:0.22222221 21:0.13636364 22:0.89999998 
1 3:2 4:23 5:0.57142854 6:2 7:3 8:0.14285713 9:0.3333333 10:0.23809522 11:0.28571427 12:45 13:0.13636364 14:4 15:0.51724136 16:58 17:0.25862068 18:0.2758621 19:0.24137932 20:0.2241379 21:0.125 22:1 
1 1:1 2:1 3:8 4:24 5:0.6363636 6:1 7:4 8:0.04545456 9:0.3181818 10:0.3181818 11:0.3181818 12:5 13:0.18181819 14:3 15:0.625 16:64 17:0.203125 18:0.296875 19:0.328125 20:0.171875 21:0.15254237 22:2 23:0.27272728 24:0.06666667 
0.9883468395008638 1:1 2:1 3:10 4:24 5:0.6666666 6:1 7:4 8:0.2916667 9:0.2916667 10:0.375 11:0.041666687 12:47 13:0.18181819 14:3 15:0.6212121 16:66 17:0.21212119 18:0.2878788 19:0.3333333 20:0.16666669 21:0.18032786 22:2 23:0.11111111 24:0.17647059 
1 1:1 2:1 3:5 4:24 5:0.5454545 6:2 7:3 8:0.27272725 9:0.18181819 10:0.36363637 11:0.18181819 12:43 13:0.17391305 14:1 15:0.5737705 16:61 17:0.21311474 18:0.29508197 19:0.27868855 20:0.21311474 21:0.16363636 22:0.63636363 24:0.11111111 
1 3:4 4:24 5:0.4583333 6:1 7:3 8:0.3333333 9:0.2916667 10:0.16666669 11:0.20833331 12:6 13:0.13043478 14:3 15:0.39999998 16:60 17:0.31666666 18:0.18333334 19:0.21666664 20:0.28333336 21:0.13207547 22:0.66666669 24:0.14285715 
1 1:1 2:4 3:18 4:12 5:0.16666669 6:1 7:1 8:0.3333333 9:0.08333331 10:0.08333331 11:0.5 12:56 13:0.083333336 14:3 15:0.421875 16:64 17:0.296875 18:0.1875 19:0.234375 20:0.28125 21:0.12280702 22:1.2857143 24:0.15151516 
1 4:24 5:0.47826087 6:2 7:2 8:0.17391306 9:0.0869565 10:0.39130437 11:0.34782606 12:13 13:0.15555556 14:4 15:0.4727273 16:55 17:0.23636365 18:0.21818179 19:0.25454545 20:0.2909091 21:0.15555556 22:0.44444445 23:0.090909094 
0.4893005425090205 3:5 4:22 5:0.5454545 6:1 7:1 8:0.27272725 9:0.22727275 10:0.3181818 11:0.18181819 12:49 13:0.18181819 14:2 15:0.4745763 16:59 17:0.2881356 18:0.20338982 19:0.2711864 20:0.23728812 21:0.14814815 22:0.625 23:0.13043478 
1 3:2 4:22 5:0.72727275 6:2 7:3 8:0.090909064 9:0.27272725 10:0.45454544 11:0.18181819 12:8 13:0.1627907 14:1 15:0.67857146 16:56 17:0.1964286 18:0.375 19:0.3035714 20:0.125 21:0.17391305 22:0.625 23:0.14285715 24:0.33333334 
1 1:1 2:1 3:5 4:20 5:0.6 6:2 7:2 8:0.25 9:0.39999998 10:0.19999999 11:0.14999998 12:45 13:0.15000001 14:3 15:0.6551724 16:58 17:0.20689654 18:0.36206895 19:0.29310346 20:0.13793105 21:0.16666667 22:2 23:0.16666667 24:0.25 
0.8465248464222692 3:3 4:23 5:0.47826087 6:1 7:2 8:0.13043481 9:0.34782606 10:0.13043481 11:0.39130437 12:4 13:0.086956523 15:0.48214287 16:56 17:0.1785714 18:0.23214287 19:0.25 20:0.33928573 21:0.15384616 22:0.63636363 24:0.66666669 
1 3:4 4:25 5:0.5909091 6:2 7:3 8:0.18181819 9:0.13636363 10:0.45454544 11:0.22727275 12:39 13:0.26086956 14:2 15:0.64406776 16:59 17:0.16949153 18:0.30508476 19:0.33898306 20:0.1864407 21:0.22222222 
1 3:3 4:26 5:0.5652174 6:3 7:4 8:0.17391306 9:0.3043478 10:0.26086956 11:0.26086956 12:4 13:0.22448979 14:1 15:0.55 16:60 17:0.19999999 18:0.3 19:0.25 20:0.25 21:0.2 22:1.6666666 
1 1:3 2:1 3:9 4:22 5:0.5909091 6:2 7:3 8:0.22727275 9:0.27272725 10:0.3181818 11:0.18181819 12:44 13:0.20930232 14:2 15:0.53125 16:64 17:0.21875 18:0.296875 19:0.234375 20:0.25 21:0.22033899 22:1.2857143 24:0.25 
0.2418035212216873 3:3 4:23 5:0.5217391 6:2 7:1 8:0.21739131 9:0.17391306 10:0.34782606 11:0.26086956 12:10 13:0.1627907 14:3 15:0.51666665 16:60 17:0.21666664 18:0.26666665 19:0.25 20:0.26666665 21:0.14285715 22:3 23:0.22222222 
0.4744413063106555 3:6 4:21 5:0.57142854 6:2 7:1 8:0.14285713 9:0.3333333 10:0.23809522 11:0.28571427 12:50 13:0.14285715 14:4 15:0.53225803 16:62 17:0.2096774 18:0.2580645 19:0.27419353 20:0.2580645 21:0.17647059 22:1.5714285 23:0.125 24:0.33333334 
1 1:5 2:1 3:18 4:24 5:0.5454545 6:3 7:2 8:0.18181819 9:0.13636363 10:0.40909094 11:0.27272725 12:6 13:0.17391305 14:3 15:0.6375 16:80 17:0.125 18:0.28750002 19:0.35000002 20:0.23750001 21:0.18421052 22:1 23:0.40000001 24:0.2 
1 1:5 2:2 3:20 4:23 5:0.6521739 6:3 7:2 8:0.17391306 9:0.34782606 10:0.3043478 11:0.17391306 12:64 13:0.22727273 14:3 15:0.63414633 16:82 17:0.12195122 18:0.28048778 19:0.35365856 20:0.24390244 21:0.20512821 22:1.6666666 23:0.25 24:0.17647059 
1 1:2 2:1 3:6 4:23 5:0.45454544 6:2 7:3 8:0.3181818 9:0.13636363 10:0.3181818 11:0.22727275 12:42 13:0.15555556 14:2 15:0.44262296 16:61 17:0.21311474 18:0.19672132 19:0.24590164 20:0.3442623 21:0.16363636 22:1.125 24:0.2 
1 1:1 2:2 3:8 4:23 5:0.5652174 6:4 7:2 8:0.26086956 9:0.26086956 10:0.3043478 11:0.17391306 12:6 13:0.19047619 14:2 15:0.5409836 16:61 17:0.24590164 18:0.24590164 19:0.29508197 20:0.21311474 21:0.19298245 22:0.90909094 23:0.55555558 24:0.2 
1 1:1 2:2 3:8 4:26 5:0.52380955 6:4 7:2 8:0.28571427 9:0.23809522 10:0.28571427 11:0.19047618 12:48 13:0.27659574 14:2 15:0.530303 16:66 17:0.25757575 18:0.25757575 19:0.27272725 20:0.21212119 21:0.25806451 22:5.5 24:0.2 
1 4:24 5:0.5 6:1 7:3 8:0.22727275 9:0.36363637 10:0.13636363 11:0.27272725 12:14 13:0.17391305 14:2 15:0.375 16:56 17:0.3214286 18:0.1785714 19:0.1964286 20:0.3035714 21:0.17391305 22:0.66666669 23:0.1724138 
1 3:2 4:22 5:0.40909094 6:1 7:3 8:0.3181818 9:0.090909064 10:0.3181818 11:0.27272725 12:48 13:0.19047619 14:2 15:0.375 16:56 17:0.3214286 18:0.1785714 19:0.1964286 20:0.3035714 21:0.17391305 22:1.3333334 23:0.1724138 
1 3:1 4:22 5:0.4285714 6:1 7:3 8:0.14285713 9:0.14285713 10:0.28571427 11:0.4285714 12:12 13:0.11627907 14:3 15:0.4736842 16:57 17:0.24561405 18:0.2280702 19:0.24561405 20:0.28070176 21:0.11111111 22:1 23:0.18181819 
1 3:1 4:23 5:0.5909091 6:2 7:3 8:0.27272725 9:0.40909094 10:0.18181819 11:0.13636363 12:6 13:0.18181819 14:3 15:0.59615386 16:52 17:0.15384614 18:0.26923078 19:0.32692307 20:0.25 21:0.17391305 22:0.69999999 23:0.2 
1 3:2 4:23 5:0.5 6:2 7:3 8:0.090909064 9:0.090909064 10:0.40909094 11:0.40909094 12:37 13:0.22727273 14:3 15:0.5925926 16:54 17:0.14814812 18:0.25925928 19:0.3333333 20:0.25925928 21:0.20833333 22:1.8 
1 1:2 2:2 3:23 4:20 5:0.57894737 6:2 7:4 8:0.21052629 9:0.31578946 10:0.2631579 11:0.21052629 12:6 13:0.33333334 14:2 15:0.5 16:94 17:0.20212764 18:0.24468082 19:0.25531918 20:0.29787236 21:0.21428572 22:0.85714287 23:0.25 24:0.11111111 
1 1:1 2:2 3:11 4:22 5:0.6363636 6:1 7:5 8:0.22727275 9:0.18181819 10:0.45454544 11:0.13636363 12:8 13:0.22727273 14:2 15:0.5857143 16:70 17:0.1857143 18:0.25714284 19:0.32857144 20:0.22857141 21:0.1875 22:1.375 24:0.1 
-0.5501805199393467 1:1 2:1 3:7 4:22 5:0.5454545 6:1 7:3 8:0.27272725 9:0.22727275 10:0.3181818 11:0.18181819 12:43 13:0.13636364 14:2 15:0.5645161 16:62 17:0.2580645 18:0.32258064 19:0.24193549 20:0.17741936 21:0.1724138 22:1.5714285 24:0.2857143 
-1 1:1 2:1 3:7 4:22 5:0.5454545 6:1 7:3 8:0.27272725 9:0.22727275 10:0.3181818 11:0.18181819 12:43 13:0.13636364 14:2 15:0.5645161 16:62 17:0.2580645 18:0.32258064 19:0.24193549 20:0.17741936 21:0.1724138 22:1.5714285 24:0.2857143 
-1 1:1 2:1 3:7 4:22 5:0.5454545 6:1 7:3 8:0.27272725 9:0.22727275 10:0.3181818 11:0.18181819 12:43 13:0.13636364 14:2 15:0.5645161 16:62 17:0.2580645 18:0.32258064 19:0.24193549 20:0.17741936 21:0.1724138 22:1.5714285 24:0.2857143 
-0.3855545905646069 1:1 2:1 3:5 4:24 5:0.5652174 6:2 7:4 8:0.21739131 9:0.3043478 10:0.26086956 11:0.21739131 12:40 13:0.19148937 14:3 15:0.5084746 16:59 17:0.220339 18:0.220339 19:0.2881356 20:0.2711864 21:0.17857143 22:1.4285715 24:0.11111111 
-0.02986258113282624 1:1 2:1 3:10 4:22 5:0.85714287 6:1 7:2 8:0.047619045 9:0.28571427 10:0.57142854 11:0.09523809 12:46 13:0.11627907 14:3 15:0.74242425 16:66 17:0.10606062 18:0.2878788 19:0.45454544 20:0.15151513 21:0.18032786 22:0.80000001 24:0.33333334 
-1 1:1 2:1 3:7 4:22 5:0.5454545 6:1 7:3 8:0.27272725 9:0.22727275 10:0.3181818 11:0.18181819 12:43 13:0.13636364 14:2 15:0.5645161 16:62 17:0.2580645 18:0.32258064 19:0.24193549 20:0.17741936 21:0.1724138 22:1.5714285 24:0.2857143 
-0.3592234632964105 3:4 4:22 5:0.5454545 6:2 7:3 8:0.090909064 9:0.3181818 10:0.22727275 11:0.36363637 12:6 13:0.19047619 14:3 15:0.4727273 16:55 17:0.19999999 18:0.21818179 19:0.25454545 20:0.3272727 21:0.18367347 22:0.85714287 24:0.14285715 
-0.07844739063673491 1:2 2:1 3:7 4:22 5:0.5454545 6:1 7:2 8:0.3181818 9:0.22727275 10:0.3181818 11:0.13636363 12:10 13:0.20930232 14:1 15:0.45 16:60 17:0.23333335 18:0.18333334 19:0.26666665 20:0.31666666 21:0.2 22:0.25 23:0.22222222 24:0.16666667 
-1 1:1 2:1 3:5 4:24 5:0.5652174 6:2 7:4 8:0.21739131 9:0.3043478 10:0.26086956 11:0.21739131 12:40 13:0.19148937 14:3 15:0.5084746 16:59 17:0.220339 18:0.220339 19:0.2881356 20:0.2711864 21:0.17857143 22:1.4285715 24:0.11111111 
-0.1256584557635232 1:2 2:1 3:6 4:24 5:0.40909094 6:2 7:1 8:0.13636363 9:0.22727275 10:0.18181819 11:0.45454544 12:46 13:0.043478262 14:3 15:0.51666665 16:60 17:0.21666664 18:0.23333335 19:0.28333336 20:0.26666665 21:0.071428575 22:0.5 23:0.06666667 24:0.2 
-0.3409563617483561 1:2 2:1 3:6 4:22 5:0.6363636 6:2 7:3 8:0.22727275 9:0.27272725 10:0.36363637 11:0.13636363 12:42 13:0.18181819 14:4 15:0.5409836 16:61 17:0.21311474 18:0.29508197 19:0.24590164 20:0.24590164 21:0.2 22:1 24:0.27272728 
-1 1:1 2:1 3:5 4:23 5:0.5 6:2 7:3 8:0.22727275 9:0.18181819 10:0.3181818 11:0.27272725 12:4 13:0.20930232 14:1 15:0.44067794 16:59 17:0.23728812 18:0.20338982 19:0.23728812 20:0.32203388 21:0.20754717 22:0.66666669 24:0.2 
-1 1:1 2:1 3:10 4:22 5:0.85714287 6:1 7:2 8:0.047619045 9:0.28571427 10:0.57142854 11:0.09523809 12:46 13:0.11627907 14:3 15:0.74242425 16:66 17:0.10606062 18:0.2878788 19:0.45454544 20:0.15151513 21:0.18032786 22:0.80000001 24:0.33333334 
-1 1:1 2:1 3:7 4:22 5:0.5454545 6:1 7:3 8:0.27272725 9:0.22727275 10:0.3181818 11:0.18181819 12:43 13:0.13636364 14:2 15:0.5645161 16:62 17:0.2580645 18:0.32258064 19:0.24193549 20:0.17741936 21:0.1724138 22:1.5714285 24:0.2857143 
-1 3:4 4:22 5:0.5454545 6:2 7:3 8:0.090909064 9:0.3181818 10:0.22727275 11:0.36363637 12:6 13:0.19047619 14:3 15:0.4727273 16:55 17:0.19999999 18:0.21818179 19:0.25454545 20:0.3272727 21:0.18367347 22:0.85714287 24:0.14285715 
-1 1:2 2:1 3:7 4:22 5:0.5454545 6:1 7:2 8:0.3181818 9:0.22727275 10:0.3181818 11:0.13636363 12:10 13:0.20930232 14:1 15:0.45 16:60 17:0.23333335 18:0.18333334 19:0.26666665 20:0.31666666 21:0.2 22:0.25 23:0.22222222 24:0.16666667 
-0.2827254036289517 1:3 2:1 3:8 4:21 5:0.71428573 6:1 7:4 8:0.14285713 9:0.28571427 10:0.4285714 11:0.14285713 12:46 13:0.17073171 14:3 15:0.5862069 16:58 17:0.13793105 18:0.24137932 19:0.3448276 20:0.2758621 21:0.18518518 22:1.1428572 23:0.06666667 24:0.23076923 
-1 1:1 2:1 3:5 4:24 5:0.5652174 6:2 7:4 8:0.21739131 9:0.3043478 10:0.26086956 11:0.21739131 12:40 13:0.19148937 14:3 15:0.5084746 16:59 17:0.220339 18:0.220339 19:0.2881356 20:0.2711864 21:0.17857143 22:1.4285715 24:0.11111111 
-0.7783110222927113 4:23 5:0.45454544 6:2 7:3 8:0.27272725 9:0.22727275 10:0.22727275 11:0.27272725 12:11 13:0.24444444 14:2 15:0.39999998 16:55 17:0.27272725 18:0.18181819 19:0.21818179 20:0.3272727 21:0.17073171 22:1 23:0.30000001 
-1 4:24 5:0.39130437 6:2 7:3 8:0.26086956 9:0.17391306 10:0.21739131 11:0.34782606 12:14 13:0.19148937 14:3 15:0.41071427 16:56 17:0.28571427 18:0.1785714 19:0.23214287 20:0.3035714 21:0.15555556 22:1.25 23:0.15384616 
-1 1:2 2:1 3:6 4:24 5:0.40909094 6:2 7:1 8:0.13636363 9:0.22727275 10:0.18181819 11:0.45454544 12:46 13:0.043478262 14:3 15:0.51666665 16:60 17:0.21666664 18:0.23333335 19:0.28333336 20:0.26666665 21:0.071428575 22:0.5 23:0.06666667 24:0.2 
-1 1:2 2:1 3:6 4:22 5:0.6363636 6:2 7:3 8:0.22727275 9:0.27272725 10:0.36363637 11:0.13636363 12:42 13:0.18181819 14:4 15:0.5409836 16:61 17:0.21311474 18:0.29508197 19:0.24590164 20:0.24590164 21:0.2 22:1 24:0.27272728 
-1 1:1 2:1 3:5 4:23 5:0.5 6:2 7:3 8:0.22727275 9:0.18181819 10:0.3181818 11:0.27272725 12:4 13:0.20930232 14:1 15:0.44067794 16:59 17:0.23728812 18:0.20338982 19:0.23728812 20:0.32203388 21:0.20754717 22:0.66666669 24:0.2 
-1 1:1 2:1 3:10 4:22 5:0.85714287 6:1 7:2 8:0.047619045 9:0.28571427 10:0.57142854 11:0.09523809 12:46 13:0.11627907 14:3 15:0.74242425 16:66 17:0.10606062 18:0.2878788 19:0.45454544 20:0.15151513 21:0.18032786 22:0.80000001 24:0.33333334 
-0.2389054264745799 3:1 4:24 5:0.43478262 6:3 7:4 8:0.34782606 9:0.21739131 10:0.21739131 11:0.21739131 12:14 13:0.2173913 14:3 15:0.44067794 16:59 17:0.2711864 18:0.220339 19:0.220339 20:0.2881356 21:0.20833333 22:1 23:0.2857143 
-1 1:1 2:1 3:7 4:22 5:0.5454545 6:1 7:3 8:0.27272725 9:0.22727275 10:0.3181818 11:0.18181819 12:43 13:0.13636364 14:2 15:0.5645161 16:62 17:0.2580645 18:0.32258064 19:0.24193549 20:0.17741936 21:0.1724138 22:1.5714285 24:0.2857143 
-1 3:4 4:22 5:0.5454545 6:2 7:3 8:0.090909064 9:0.3181818 10:0.22727275 11:0.36363637 12:6 13:0.19047619 14:3 15:0.4727273 16:55 17:0.19999999 18:0.21818179 19:0.25454545 20:0.3272727 21:0.18367347 22:0.85714287 24:0.14285715 
-1 1:2 2:1 3:7 4:22 5:0.5454545 6:1 7:2 8:0.3181818 9:0.22727275 10:0.3181818 11:0.13636363 12:10 13:0.20930232 14:1 15:0.45 16:60 17:0.23333335 18:0.18333334 19:0.26666665 20:0.31666666 21:0.2 22:0.25 23:0.22222222 24:0.16666667 
-0.1102164637252143 1:2 2:1 3:5 4:24 5:0.6086956 6:2 7:3 8:0.13043481 9:0.26086956 10:0.34782606 11:0.26086956 12:3 13:0.23404256 14:3 15:0.53225803 16:62 17:0.2096774 18:0.27419353 19:0.2580645 20:0.2580645 21:0.2631579 22:0.80000001 24:0.40000001 
-1 3:3 4:25 5:0.6363636 6:3 7:5 8:0.13636363 9:0.5454545 10:0.090909064 11:0.22727275 12:7 13:0.27659574 14:2 15:0.5862069 16:58 17:0.18965518 18:0.31034482 19:0.2758621 20:0.2241379 21:0.32075471 22:0.80000001 23:0.33333334 24:0.66666669 
-1 1:3 2:1 3:8 4:21 5:0.71428573 6:1 7:4 8:0.14285713 9:0.28571427 10:0.4285714 11:0.14285713 12:46 13:0.17073171 14:3 15:0.5862069 16:58 17:0.13793105 18:0.24137932 19:0.3448276 20:0.2758621 21:0.18518518 22:1.1428572 23:0.06666667 24:0.23076923 
-1 1:1 2:1 3:5 4:24 5:0.5652174 6:2 7:4 8:0.21739131 9:0.3043478 10:0.26086956 11:0.21739131 12:40 13:0.19148937 14:3 15:0.5084746 16:59 17:0.220339 18:0.220339 19:0.2881356 20:0.2711864 21:0.17857143 22:1.4285715 24:0.11111111 
-1 1:1 2:1 3:6 4:22 5:0.6363636 6:1 7:3 8:0.3181818 9:0.27272725 10:0.36363637 11:0.04545456 12:5 13:0.11627907 14:4 15:0.6034483 16:58 17:0.18965518 18:0.31034482 19:0.29310346 20:0.20689654 21:0.12727273 22:1.7142857 24:0.16666667 
-1 4:23 5:0.45454544 6:2 7:3 8:0.27272725 9:0.22727275 10:0.22727275 11:0.27272725 12:11 13:0.24444444 14:2 15:0.39999998 16:55 17:0.27272725 18:0.18181819 19:0.21818179 20:0.3272727 21:0.17073171 22:1 23:0.30000001 
-1 1:2 2:1 3:9 4:22 5:0.5454545 6:2 7:3 8:0.04545456 9:0.40909094 10:0.13636363 11:0.40909094 12:6 13:0.17073171 14:1 15:0.5 16:60 17:0.21666664 18:0.28333336 19:0.21666664 20:0.28333336 21:0.19298245 22:0.66666669 23:0.2 24:0.25 
-0.7622710159785886 3:5 4:22 5:0.45454544 6:2 7:3 8:0.3181818 9:0.18181819 10:0.27272725 11:0.22727275 12:52 13:0.18181819 14:1 15:0.40625 16:64 17:0.296875 18:0.171875 19:0.234375 20:0.296875 21:0.16981132 22:1.2857143 23:0.11111111 24:0.11111111 
-1 4:24 5:0.39130437 6:2 7:3 8:0.26086956 9:0.17391306 10:0.21739131 11:0.34782606 12:14 13:0.19148937 14:3 15:0.41071427 16:56 17:0.28571427 18:0.1785714 19:0.23214287 20:0.3035714 21:0.15555556 22:1.25 23:0.15384616 
-1 1:2 2:1 3:6 4:24 5:0.40909094 6:2 7:1 8:0.13636363 9:0.22727275 10:0.18181819 11:0.45454544 12:46 13:0.043478262 14:3 15:0.51666665 16:60 17:0.21666664 18:0.23333335 19:0.28333336 20:0.26666665 21:0.071428575 22:0.5 23:0.06666667 24:0.2 
-0.9438918580171869 3:5 4:23 5:0.5217391 6:1 7:2 8:0.17391306 9:0.26086956 10:0.26086956 11:0.3043478 12:2 13:0.095238097 14:2 15:0.5614035 16:57 17:0.19298244 18:0.2631579 19:0.2982456 20:0.24561405 21:0.098039217 22:1.6 24:0.11111111 
-1 1:2 2:1 3:6 4:22 5:0.6363636 6:2 7:3 8:0.22727275 9:0.27272725 10:0.36363637 11:0.13636363 12:42 13:0.18181819 14:4 15:0.5409836 16:61 17:0.21311474 18:0.29508197 19:0.24590164 20:0.24590164 21:0.2 22:1 24:0.27272728 
-1 1:1 2:1 3:5 4:23 5:0.5 6:2 7:3 8:0.22727275 9:0.18181819 10:0.3181818 11:0.27272725 12:4 13:0.20930232 14:1 15:0.44067794 16:59 17:0.23728812 18:0.20338982 19:0.23728812 20:0.32203388 21:0.20754717 22:0.66666669 24:0.2 
-1 3:2 4:22 5:0.8181818 6:2 7:3 8:0.04545456 9:0.36363637 10:0.45454544 11:0.13636363 12:41 13:0.25581396 14:3 15:0.6724138 16:58 17:0.13793105 18:0.2758621 19:0.39655173 20:0.18965518 21:0.23404256 22:0.54545456 
-1 1:1 2:1 3:10 4:22 5:0.85714287 6:1 7:2 8:0.047619045 9:0.28571427 10:0.57142854 11:0.09523809 12:46 13:0.11627907 14:3 15:0.74242425 16:66 17:0.10606062 18:0.2878788 19:0.45454544 20:0.15151513 21:0.18032786 22:0.80000001 24:0.33333334 
-0.8167022266854858 3:3 4:21 5:0.52380955 6:3 7:1 8:0.09523809 9:0.23809522 10:0.28571427 11:0.38095236 12:46 13:0.2857143 14:2 15:0.46428573 16:56 17:0.25 18:0.21428573 19:0.25 20:0.28571427 21:0.25 22:1.4 
-1 1:2 2:1 3:9 4:21 5:0.61904764 6:1 7:4 8:0.23809522 9:0.23809522 10:0.38095236 11:0.14285713 12:55 13:0.17073171 14:1 15:0.6557377 16:61 17:0.21311474 18:0.29508197 19:0.36065573 20:0.13114756 21:0.1724138 22:1 23:0.2 24:0.17647059 
-1 3:1 4:24 5:0.625 6:2 7:1 8:0.2916667 9:0.20833331 10:0.4166667 11:0.08333331 12:42 13:0.083333336 14:2 15:0.60655737 16:61 17:0.16393441 18:0.27868855 19:0.32786888 20:0.22950822 21:0.079999998 22:1.2222222 
-0.3111551498879417 1:1 2:1 3:6 4:26 5:0.5416666 6:2 7:4 8:0.20833331 9:0.375 10:0.16666669 11:0.25 12:43 13:0.16666667 14:3 15:0.515625 16:64 17:0.21875 18:0.234375 19:0.28125 20:0.265625 21:0.16666667 22:1.25 24:0.16666667 
-0.8400588756516962 3:2 4:25 5:0.5416666 6:2 7:3 8:0.3333333 9:0.20833331 10:0.3333333 11:0.125 12:45 13:0.125 14:2 15:0.53125 16:64 17:0.1875 18:0.234375 19:0.296875 20:0.28125 21:0.11538462 22:1.1111112 
-0.1085652360554692 1:4 2:1 3:8 4:22 5:0.77272725 6:2 7:3 8:0.18181819 9:0.36363637 10:0.40909094 11:0.04545456 12:43 13:0.2857143 14:2 15:0.578125 16:64 17:0.15625 18:0.25 19:0.328125 20:0.265625 21:0.34482759 22:3.6666667 24:0.5 
-1 3:1 4:24 5:0.43478262 6:3 7:4 8:0.34782606 9:0.21739131 10:0.21739131 11:0.21739131 12:14 13:0.2173913 14:3 15:0.44067794 16:59 17:0.2711864 18:0.220339 19:0.220339 20:0.2881356 21:0.20833333 22:1 23:0.2857143 
-0.2405605608625306 1:1 2:1 3:7 4:23 5:0.45454544 6:3 7:3 8:0.13636363 9:0.22727275 10:0.22727275 11:0.40909094 12:53 13:0.2888889 14:1 15:0.44615382 16:65 17:0.18461537 18:0.18461537 19:0.26153845 20:0.36923075 21:0.25423729 22:1.75 23:0.15789473 24:0.14285715 
-1 1:1 2:1 3:7 4:22 5:0.5454545 6:1 7:3 8:0.27272725 9:0.22727275 10:0.3181818 11:0.18181819 12:43 13:0.13636364 14:2 15:0.5645161 16:62 17:0.2580645 18:0.32258064 19:0.24193549 20:0.17741936 21:0.1724138 22:1.5714285 24:0.2857143 
-0.1674203451697083 1:2 2:1 3:10 4:22 5:0.6363636 6:1 7:3 8:0.18181819 9:0.22727275 10:0.40909094 11:0.18181819 12:54 13:0.13636364 14:4 15:0.49275362 16:69 17:0.24637681 18:0.20289856 19:0.28985506 20:0.26086956 21:0.15625 22:1.6666666 23:0.07692308 24:0.2 
-1 3:1 4:23 5:0.6818182 6:2 7:3 8:0.13636363 9:0.45454544 10:0.22727275 11:0.18181819 12:7 13:0.15555556 14:4 15:0.71153843 16:52 17:0.13461536 18:0.34615386 19:0.36538464 20:0.15384614 21:0.14893617 22:0.75 
-1 3:4 4:22 5:0.5454545 6:2 7:3 8:0.090909064 9:0.3181818 10:0.22727275 11:0.36363637 12:6 13:0.19047619 14:3 15:0.4727273 16:55 17:0.19999999 18:0.21818179 19:0.25454545 20:0.3272727 21:0.18367347 22:0.85714287 24:0.14285715 
-1 1:2 2:1 3:7 4:22 5:0.5454545 6:1 7:2 8:0.3181818 9:0.22727275 10:0.3181818 11:0.13636363 12:10 13:0.20930232 14:1 15:0.45 16:60 17:0.23333335 18:0.18333334 19:0.26666665 20:0.31666666 21:0.2 22:0.25 23:0.22222222 24:0.16666667 
-1 1:2 2:1 3:5 4:24 5:0.6086956 6:2 7:3 8:0.13043481 9:0.26086956 10:0.34782606 11:0.26086956 12:3 13:0.23404256 14:3 15:0.53225803 16:62 17:0.2096774 18:0.27419353 19:0.2580645 20:0.2580645 21:0.2631579 22:0.80000001 24:0.40000001 
-1 3:3 4:25 5:0.6363636 6:3 7:5 8:0.13636363 9:0.5454545 10:0.090909064 11:0.22727275 12:7 13:0.27659574 14:2 15:0.5862069 16:58 17:0.18965518 18:0.31034482 19:0.2758621 20:0.2241379 21:0.32075471 22:0.80000001 23:0.33333334 24:0.66666669 
-1 1:3 2:1 3:8 4:21 5:0.71428573 6:1 7:4 8:0.14285713 9:0.28571427 10:0.4285714 11:0.14285713 12:46 13:0.17073171 14:3 15:0.5862069 16:58 17:0.13793105 18:0.24137932 19:0.3448276 20:0.2758621 21:0.18518518 22:1.1428572 23:0.06666667 24:0.23076923 
-1 1:1 2:1 3:5 4:24 5:0.5652174 6:2 7:4 8:0.21739131 9:0.3043478 10:0.26086956 11:0.21739131 12:40 13:0.19148937 14:3 15:0.5084746 16:59 17:0.220339 18:0.220339 19:0.2881356 20:0.2711864 21:0.17857143 22:1.4285715 24:0.11111111 
-0.09824324391594626 3:2 4:24 5:0.61904764 6:3 7:4 8:0.09523809 9:0.38095236 10:0.23809522 11:0.28571427 12:15 13:0.24444444 14:3 15:0.5925926 16:54 17:0.2037037 18:0.2962963 19:0.2962963 20:0.2037037 21:0.22448979 22:4 23:0.1724138 
-1 1:1 2:1 3:6 4:22 5:0.6363636 6:1 7:3 8:0.3181818 9:0.27272725 10:0.36363637 11:0.04545456 12:5 13:0.11627907 14:4 15:0.6034483 16:58 17:0.18965518 18:0.31034482 19:0.29310346 20:0.20689654 21:0.12727273 22:1.7142857 24:0.16666667 
-0.2878212823061824 4:22 5:0.5 6:2 7:2 8:0.22727275 9:0.27272725 10:0.22727275 11:0.27272725 12:50 13:0.14285715 14:1 15:0.4909091 16:55 17:0.21818179 18:0.27272725 19:0.21818179 20:0.2909091 21:0.14285715 22:0.69999999 23:0.42105263 
-1 4:23 5:0.45454544 6:2 7:3 8:0.27272725 9:0.22727275 10:0.22727275 11:0.27272725 12:11 13:0.24444444 14:2 15:0.39999998 16:55 17:0.27272725 18:0.18181819 19:0.21818179 20:0.3272727 21:0.17073171 22:1 23:0.30000001 
-1 1:2 2:1 3:9 4:22 5:0.5454545 6:2 7:3 8:0.04545456 9:0.40909094 10:0.13636363 11:0.40909094 12:6 13:0.17073171 14:1 15:0.5 16:60 17:0.21666664 18:0.28333336 19:0.21666664 20:0.28333336 21:0.19298245 22:0.66666669 23:0.2 24:0.25 
-1 3:5 4:22 5:0.45454544 6:2 7:3 8:0.3181818 9:0.18181819 10:0.27272725 11:0.22727275 12:52 13:0.18181819 14:1 15:0.40625 16:64 17:0.296875 18:0.171875 19:0.234375 20:0.296875 21:0.16981132 22:1.2857143 23:0.11111111 24:0.11111111 
-1 4:24 5:0.39130437 6:2 7:3 8:0.26086956 9:0.17391306 10:0.21739131 11:0.34782606 12:14 13:0.19148937 14:3 15:0.41071427 16:56 17:0.28571427 18:0.1785714 19:0.23214287 20:0.3035714 21:0.15555556 22:1.25 23:0.15384616 
-1 1:2 2:1 3:6 4:24 5:0.40909094 6:2 7:1 8:0.13636363 9:0.22727275 10:0.18181819 11:0.45454544 12:46 13:0.043478262 14:3 15:0.51666665 16:60 17:0.21666664 18:0.23333335 19:0.28333336 20:0.26666665 21:0.071428575 22:0.5 23:0.06666667 24:0.2 
-1 3:5 4:22 5:0.40909094 6:1 7:1 8:0.04545456 9:0.22727275 10:0.18181819 11:0.5454545 12:42 13:0.045454547 14:1 15:0.4736842 16:57 17:0.2631579 18:0.19298244 19:0.28070176 20:0.2631579 21:0.16981132 22:0.89999998 24:0.77777779 
-1 3:5 4:23 5:0.5217391 6:1 7:2 8:0.17391306 9:0.26086956 10:0.26086956 11:0.3043478 12:2 13:0.095238097 14:2 15:0.5614035 16:57 17:0.19298244 18:0.2631579 19:0.2982456 20:0.24561405 21:0.098039217 22:1.6 24:0.11111111 
-0.6788412287996002 1:2 2:1 3:7 4:22 5:0.6363636 6:6 7:1 8:0.18181819 9:0.22727275 10:0.40909094 11:0.18181819 12:42 13:0.2631579 14:3 15:0.6181818 16:55 17:0.16363639 18:0.2909091 19:0.3272727 20:0.21818179 21:0.26923078 22:1.5 24:0.2857143 
-0.3478401261786848 3:1 4:20 5:0.45 6:1 7:2 8:0.14999998 9:0.19999999 10:0.25 11:0.39999998 12:14 13:0.07692308 14:1 15:0.4423077 16:52 17:0.25 18:0.21153843 19:0.23076922 20:0.3076923 21:0.073170729 22:0.75 23:0.16666667 
-1 1:2 2:1 3:6 4:22 5:0.6363636 6:2 7:3 8:0.22727275 9:0.27272725 10:0.36363637 11:0.13636363 12:42 13:0.18181819 14:4 15:0.5409836 16:61 17:0.21311474 18:0.29508197 19:0.24590164 20:0.24590164 21:0.2 22:1 24:0.27272728 
-0.4663703399023508 1:1 2:1 3:4 4:26 5:0.6363636 6:3 7:5 8:0.13636363 9:0.3181818 10:0.3181818 11:0.22727275 12:40 13:0.27659574 14:3 15:0.6166667 16:60 17:0.21666664 18:0.35000002 19:0.26666665 20:0.16666669 21:0.27272728 22:1.5 24:0.25 
-0.9456271389416208 1:1 2:1 3:5 4:23 5:0.5 6:2 7:3 8:0.22727275 9:0.18181819 10:0.3181818 11:0.27272725 12:4 13:0.20930232 14:1 15:0.44067794 16:59 17:0.23728812 18:0.20338982 19:0.23728812 20:0.32203388 21:0.20754717 22:0.66666669 24:0.2 
-0.4432493164729401 3:2 4:26 5:0.7083334 6:3 7:5 8:0.16666669 9:0.4583333 10:0.25 11:0.125 12:8 13:0.20833333 14:2 15:0.6721312 16:61 17:0.14754099 18:0.32786888 19:0.3442623 20:0.18032789 21:0.1923077 22:2.2 23:0.14285715 
-1 1:1 2:1 3:4 4:24 5:0.4166667 6:2 7:2 8:0.25 9:0.125 10:0.2916667 11:0.3333333 12:38 13:0.125 14:1 15:0.4166667 16:60 17:0.3 18:0.18333334 19:0.23333335 20:0.28333336 21:0.14285715 22:1 24:0.25 
-1 3:2 4:22 5:0.8181818 6:2 7:3 8:0.04545456 9:0.36363637 10:0.45454544 11:0.13636363 12:41 13:0.25581396 14:3 15:0.6724138 16:58 17:0.13793105 18:0.2758621 19:0.39655173 20:0.18965518 21:0.23404256 22:0.54545456 
-0.5452039258569628 1:1 2:1 3:5 4:22 5:0.5 6:2 7:3 8:0.3181818 9:0.090909064 10:0.40909094 11:0.18181819 12:6 13:0.1627907 14:2 15:0.47540987 16:61 17:0.22950822 18:0.19672132 19:0.27868855 20:0.29508197 21:0.16981132 22:0.63636363 23:0.2 24:0.2 
-1 1:1 2:1 3:10 4:22 5:0.85714287 6:1 7:2 8:0.047619045 9:0.28571427 10:0.57142854 11:0.09523809 12:46 13:0.11627907 14:3 15:0.74242425 16:66 17:0.10606062 18:0.2878788 19:0.45454544 20:0.15151513 21:0.18032786 22:0.80000001 24:0.33333334 
-0.1240663347513189 3:4 4:23 5:0.6818182 6:1 7:3 8:0.090909064 9:0.3181818 10:0.36363637 11:0.22727275 12:39 13:0.15555556 14:2 15:0.6545454 16:55 17:0.12727273 18:0.34545457 19:0.3090909 20:0.21818179 21:0.17647059 22:0.81818181 23:0.2 24:0.33333334 
-1 3:3 4:24 5:0.5 6:3 7:4 8:0.3181818 9:0.27272725 10:0.22727275 11:0.18181819 12:7 13:0.26086956 14:3 15:0.4310345 16:58 17:0.29310346 18:0.2241379 19:0.20689654 20:0.2758621 21:0.23076923 22:5 23:0.16666667 
-1 1:1 2:2 3:10 4:22 5:0.5 6:1 7:2 8:0.27272725 9:0.13636363 10:0.36363637 11:0.22727275 12:8 13:0.069767445 14:3 15:0.530303 16:66 17:0.21212119 18:0.19696969 19:0.3333333 20:0.25757575 21:0.096774191 22:0.89999998 23:0.06666667 24:0.15789473 
-1 3:3 4:21 5:0.52380955 6:3 7:1 8:0.09523809 9:0.23809522 10:0.28571427 11:0.38095236 12:46 13:0.2857143 14:2 15:0.46428573 16:56 17:0.25 18:0.21428573 19:0.25 20:0.28571427 21:0.25 22:1.4 
-0.2757496132870569 1:1 2:1 3:6 4:26 5:0.6666666 6:2 7:4 8:0.041666687 9:0.3333333 10:0.3333333 11:0.2916667 12:4 13:0.2 14:3 15:0.5909091 16:66 17:0.13636363 18:0.25757575 19:0.3333333 20:0.27272725 21:0.25806451 22:0.8888889 24:0.5 
-0.2358717263791479 1:1 2:1 3:5 4:23 5:0.6363636 6:3 7:2 8:0.090909064 9:0.36363637 10:0.27272725 11:0.27272725 12:4 13:0.2 14:2 15:0.559322 16:59 17:0.1864407 18:0.2711864 19:0.2881356 20:0.2542373 21:0.2 22:1.5 24:0.2 
-1 1:2 2:1 3:9 4:21 5:0.61904764 6:1 7:4 8:0.23809522 9:0.23809522 10:0.38095236 11:0.14285713 12:55 13:0.17073171 14:1 15:0.6557377 16:61 17:0.21311474 18:0.29508197 19:0.36065573 20:0.13114756 21:0.1724138 22:1 23:0.2 24:0.17647059 
-0.07269450753587602 3:2 4:28 5:0.5833334 6:2 7:7 8:0.3333333 9:0.2916667 10:0.2916667 11:0.08333331 12:5 13:0.21568628 14:2 15:0.5 16:60 17:0.28333336 18:0.25 19:0.25 20:0.21666664 21:0.2 22:0.66666669 
-1 3:1 4:24 5:0.625 6:2 7:1 8:0.2916667 9:0.20833331 10:0.4166667 11:0.08333331 12:42 13:0.083333336 14:2 15:0.60655737 16:61 17:0.16393441 18:0.27868855 19:0.32786888 20:0.22950822 21:0.079999998 22:1.2222222 
-1 1:1 2:1 3:6 4:26 5:0.5416666 6:2 7:4 8:0.20833331 9:0.375 10:0.16666669 11:0.25 12:43 13:0.16666667 14:3 15:0.515625 16:64 17:0.21875 18:0.234375 19:0.28125 20:0.265625 21:0.16666667 22:1.25 24:0.16666667 
-1 3:2 4:25 5:0.5416666 6:2 7:3 8:0.3333333 9:0.20833331 10:0.3333333 11:0.125 12:45 13:0.125 14:2 15:0.53125 16:64 17:0.1875 18:0.234375 19:0.296875 20:0.28125 21:0.11538462 22:1.1111112 
-1 1:4 2:1 3:8 4:22 5:0.77272725 6:2 7:3 8:0.18181819 9:0.36363637 10:0.40909094 11:0.04545456 12:43 13:0.2857143 14:2 15:0.578125 16:64 17:0.15625 18:0.25 19:0.328125 20:0.265625 21:0.34482759 22:3.6666667 24:0.5 
-0.2965272406616166 3:2 4:21 5:0.47619045 6:2 7:2 8:0.14285713 9:0.23809522 10:0.23809522 11:0.38095236 12:5 13:0.19047619 14:1 15:0.5490196 16:51 17:0.21568626 18:0.25490195 19:0.29411763 20:0.2352941 21:0.17391305 22:1.1111112 
-1 3:1 4:24 5:0.43478262 6:3 7:4 8:0.34782606 9:0.21739131 10:0.21739131 11:0.21739131 12:14 13:0.2173913 14:3 15:0.44067794 16:59 17:0.2711864 18:0.220339 19:0.220339 20:0.2881356 21:0.20833333 22:1 23:0.2857143 
-1 1:1 2:1 3:7 4:23 5:0.45454544 6:3 7:3 8:0.13636363 9:0.22727275 10:0.22727275 11:0.40909094 12:53 13:0.2888889 14:1 15:0.44615382 16:65 17:0.18461537 18:0.18461537 19:0.26153845 20:0.36923075 21:0.25423729 22:1.75 23:0.15789473 24:0.14285715 
-1 3:10 4:22 5:0.5454545 6:1 7:2 8:0.18181819 9:0.40909094 10:0.13636363 11:0.27272725 12:58 13:0.2 14:4 15:0.5806452 16:62 17:0.16129035 18:0.27419353 19:0.30645162 20:0.2580645 21:0.23636363 23:0.17647059 24:0.33333334 
-1 1:1 2:1 3:7 4:22 5:0.5454545 6:1 7:3 8:0.27272725 9:0.22727275 10:0.3181818 11:0.18181819 12:43 13:0.13636364 14:2 15:0.5645161 16:62 17:0.2580645 18:0.32258064 19:0.24193549 20:0.17741936 21:0.1724138 22:1.5714285 24:0.2857143 
-0.2210290282852125 1:5 2:1 3:10 4:22 5:0.3181818 6:1 7:1 8:0.40909094 9:0.18181819 10:0.13636363 11:0.27272725 12:46 13:0.11627907 14:1 15:0.4848485 16:66 17:0.22727275 18:0.24242425 19:0.24242425 20:0.2878788 21:0.25806451 22:0.5714286 24:0.57894737 
-1 3:5 4:23 5:0.5652174 6:1 7:2 8:0.3043478 9:0.21739131 10:0.34782606 11:0.13043481 12:5 13:0.13636364 14:2 15:0.484375 16:64 17:0.265625 18:0.25 19:0.234375 20:0.25 21:0.11111111 22:1.6 
-1 1:2 2:1 3:10 4:22 5:0.6363636 6:1 7:3 8:0.18181819 9:0.22727275 10:0.40909094 11:0.18181819 12:54 13:0.13636364 14:4 15:0.49275362 16:69 17:0.24637681 18:0.20289856 19:0.28985506 20:0.26086956 21:0.15625 22:1.6666666 23:0.07692308 24:0.2 
-1 3:1 4:23 5:0.6818182 6:2 7:3 8:0.13636363 9:0.45454544 10:0.22727275 11:0.18181819 12:7 13:0.15555556 14:4 15:0.71153843 16:52 17:0.13461536 18:0.34615386 19:0.36538464 20:0.15384614 21:0.14893617 22:0.75 
-0.3059065174040807 3:6 4:27 5:0.5454545 6:5 7:3 8:0.18181819 9:0.27272725 10:0.27272725 11:0.27272725 12:55 13:0.16666667 14:3 15:0.59375 16:64 17:0.140625 18:0.25 19:0.34375 20:0.265625 21:0.13333334 22:0.83333331 23:0.38461539 
-1 3:4 4:22 5:0.5454545 6:2 7:3 8:0.090909064 9:0.3181818 10:0.22727275 11:0.36363637 12:6 13:0.19047619 14:3 15:0.4727273 16:55 17:0.19999999 18:0.21818179 19:0.25454545 20:0.3272727 21:0.18367347 22:0.85714287 24:0.14285715 
-0.2495495901580822 1:1 2:2 3:8 4:28 5:0.5652174 6:4 7:3 8:0.26086956 9:0.3043478 10:0.26086956 11:0.17391306 12:48 13:0.25490198 14:2 15:0.55714285 16:70 17:0.24285716 18:0.27142859 19:0.28571427 20:0.19999999 21:0.24242425 22:1.8333334 24:0.2 
-0.3155845881305163 1:1 2:2 3:11 4:21 5:0.52380955 6:4 7:2 8:0.28571427 9:0.23809522 10:0.28571427 11:0.19047618 12:5 13:0.24324325 14:2 15:0.53225803 16:62 17:0.2580645 18:0.24193549 19:0.2903226 20:0.2096774 21:0.20689656 22:2.3333333 23:0.5 24:0.14285715 
-0.434504378527951 1:3 2:4 3:20 4:25 5:0.7826087 6:1 7:2 8:0.04347825 9:0.17391306 10:0.6086956 11:0.17391306 12:2 13:0.25 14:3 15:0.6966292 16:89 17:0.07865167 18:0.31460673 19:0.3820225 20:0.2247191 21:0.23809524 24:0.22222222 
-0.6595134305624466 1:4 2:1 3:13 4:22 5:0.8181818 6:1 7:2 8:0.18181819 9:0.27272725 10:0.5454545 12:51 13:0.2631579 14:3 15:0.6666666 16:72 17:0.16666669 18:0.3333333 19:0.3333333 20:0.16666669 21:0.28125 24:0.30769232 
-0.8658303511247637 3:4 4:22 5:0.6818182 6:4 7:3 8:0.04545456 9:0.5 10:0.18181819 11:0.27272725 12:4 13:0.27272728 14:2 15:0.6333333 16:60 17:0.18333334 18:0.31666666 19:0.31666666 20:0.18333334 21:0.23076923 22:1 
-0.1402384826861448 4:21 5:0.57142854 6:3 7:4 8:0.28571427 9:0.14285713 10:0.4285714 11:0.14285713 12:23 13:0.44999999 14:2 15:0.60465115 16:43 17:0.23255813 18:0.37209302 19:0.23255813 20:0.16279072 21:0.42105263 22:1.2 23:0.1627907 
-1 1:2 2:1 3:7 4:22 5:0.5454545 6:1 7:2 8:0.3181818 9:0.22727275 10:0.3181818 11:0.13636363 12:10 13:0.20930232 14:1 15:0.45 16:60 17:0.23333335 18:0.18333334 19:0.26666665 20:0.31666666 21:0.2 22:0.25 23:0.22222222 24:0.16666667 
-0.06594699570614969 4:23 5:0.52380955 6:3 7:3 8:0.09523809 9:0.28571427 10:0.23809522 11:0.38095236 12:26 13:0.27272728 14:4 15:0.5555556 16:45 17:0.22222221 18:0.28888887 19:0.26666665 20:0.22222221 21:0.23809524 22:1.5 23:0.25925925 
-0.4781821722170723 1:3 2:2 3:13 4:24 5:0.5454545 6:2 7:4 8:0.18181819 9:0.22727275 10:0.3181818 11:0.27272725 12:12 13:0.17391305 14:2 15:0.527027 16:74 17:0.2162162 18:0.2702703 19:0.25675678 20:0.25675678 21:0.21126761 22:0.89999998 23:0.36000001 24:0.28 
-0.4891212233029084 3:2 4:21 5:0.57142854 6:2 7:3 8:0.19047618 9:0.3333333 10:0.23809522 11:0.23809522 12:38 13:0.31707317 14:4 15:0.5 16:50 17:0.22000003 18:0.24000001 19:0.26 20:0.27999997 21:0.2888889 22:0.80000001 23:0.125 
-1 1:2 2:1 3:5 4:24 5:0.6086956 6:2 7:3 8:0.13043481 9:0.26086956 10:0.34782606 11:0.26086956 12:3 13:0.23404256 14:3 15:0.53225803 16:62 17:0.2096774 18:0.27419353 19:0.2580645 20:0.2580645 21:0.2631579 22:0.80000001 24:0.40000001 
-0.7219382888138648 3:3 4:25 5:0.6363636 6:3 7:5 8:0.13636363 9:0.5454545 10:0.090909064 11:0.22727275 12:7 13:0.27659574 14:2 15:0.5862069 16:58 17:0.18965518 18:0.31034482 19:0.2758621 20:0.2241379 21:0.32075471 22:0.80000001 23:0.33333334 24:0.66666669 
-0.3163750814073801 1:2 2:2 3:15 4:21 5:0.65 6:1 7:3 8:0.25 9:0.19999999 10:0.45 11:0.10000002 12:1 13:0.12195122 15:0.49382716 16:81 17:0.20987654 18:0.24691355 19:0.24691355 20:0.2962963 21:0.1594203 22:0.90909094 24:0.21428572 
-0.06674141402992119 1:1 2:1 3:7 4:24 5:0.5454545 6:2 7:4 8:0.22727275 9:0.22727275 10:0.3181818 11:0.22727275 12:5 13:0.17391305 14:1 15:0.4861111 16:72 17:0.20833331 18:0.25 19:0.2361111 20:0.30555558 21:0.16666667 22:2.75 23:0.11111111 24:0.14285715 
-0.4843633808860466 1:3 2:2 3:13 4:23 5:0.45454544 6:1 7:1 8:0.3181818 9:0.22727275 10:0.22727275 11:0.22727275 12:62 13:0.15555556 14:2 15:0.44594592 16:74 17:0.24324322 18:0.1891892 19:0.25675678 20:0.3108108 21:0.2 22:3.5 23:0.22222222 24:0.28 
-0.3526775705725065 1:3 2:3 3:22 4:23 5:0.5 6:4 7:2 8:0.3181818 9:0.27272725 10:0.22727275 11:0.18181819 12:71 13:0.2 14:4 15:0.45652175 16:92 17:0.23913044 18:0.20652175 19:0.25 20:0.3043478 21:0.20454545 22:1.25 24:0.20930232 
-0.4493779526735855 4:26 5:0.5454545 6:3 7:4 8:0.090909064 9:0.22727275 10:0.3181818 11:0.36363637 12:14 13:0.25 14:3 15:0.6041666 16:48 17:0.10416669 18:0.25 19:0.3541667 20:0.2916667 21:0.18181819 22:1.2 23:0.12 
-0.9752860111256978 1:3 2:1 3:8 4:21 5:0.71428573 6:1 7:4 8:0.14285713 9:0.28571427 10:0.4285714 11:0.14285713 12:46 13:0.17073171 14:3 15:0.5862069 16:58 17:0.13793105 18:0.24137932 19:0.3448276 20:0.2758621 21:0.18518518 22:1.1428572 23:0.06666667 24:0.23076923 
-0.3178177695454772 1:1 2:2 3:23 4:23 5:0.6363636 6:3 7:4 8:0.22727275 9:0.18181819 10:0.45454544 11:0.13636363 12:80 13:0.3488372 14:1 15:0.53999996 16:100 17:0.23000002 18:0.24000001 19:0.3 20:0.23000002 21:0.20454545 22:1.3333334 24:0.06666667 
-0.2595913140087428 1:1 2:2 3:22 4:24 5:0.6086956 6:3 7:4 8:0.21739131 9:0.17391306 10:0.43478262 11:0.17391306 12:79 13:0.33333334 14:1 15:0.53999996 16:100 17:0.23000002 18:0.24000001 19:0.3 20:0.23000002 21:0.20454545 22:1.1666666 24:0.069767445 
-1 1:1 2:1 3:5 4:24 5:0.5652174 6:2 7:4 8:0.21739131 9:0.3043478 10:0.26086956 11:0.21739131 12:40 13:0.19148937 14:3 15:0.5084746 16:59 17:0.220339 18:0.220339 19:0.2881356 20:0.2711864 21:0.17857143 22:1.4285715 24:0.11111111 
-0.1740929416540173 4:21 5:0.4285714 6:2 7:3 8:0.23809522 9:0.23809522 10:0.19047618 11:0.3333333 12:34 13:0.21951219 15:0.5 16:42 17:0.23809522 18:0.23809522 19:0.26190478 20:0.26190478 21:0.17948718 22:0.66666669 23:0.13043478 
-0.2110299047314475 1:2 2:2 3:12 4:24 5:0.5416666 6:1 7:3 8:0.125 9:0.125 10:0.4166667 11:0.3333333 12:7 13:0.125 14:3 15:0.5416666 16:72 17:0.19444442 18:0.2361111 19:0.30555558 20:0.2638889 21:0.13043478 22:1.125 23:0.2857143 24:0.14285715 
-0.2467551239573209 1:2 2:3 3:15 4:21 5:0.57142854 6:1 7:2 8:0.23809522 9:0.3333333 10:0.23809522 11:0.19047618 12:58 13:0.095238097 14:3 15:0.5416666 16:72 17:0.19444442 18:0.2361111 19:0.30555558 20:0.2638889 21:0.13043478 22:1.1111112 23:0.2857143 24:0.18518518 
-0.5685936361628948 1:3 2:3 3:21 4:21 5:0.6666666 6:2 7:2 8:0.047619045 9:0.57142854 10:0.09523809 11:0.28571427 12:66 13:0.12195122 14:3 15:0.67441857 16:86 17:0.12790698 18:0.3023256 19:0.37209302 20:0.1976744 21:0.18518518 22:0.90909094 24:0.25 
-0.3057343488598994 3:6 4:22 5:0.77272725 6:1 7:5 8:0.090909064 9:0.3181818 10:0.45454544 11:0.13636363 12:9 13:0.20930232 14:4 15:0.75 16:56 17:0.08928573 18:0.39285713 19:0.35714287 20:0.16071427 21:0.24528302 22:1.375 23:0.33333334 24:0.40000001 
-0.9968890770627467 3:2 4:24 5:0.61904764 6:3 7:4 8:0.09523809 9:0.38095236 10:0.23809522 11:0.28571427 12:15 13:0.24444444 14:3 15:0.5925926 16:54 17:0.2037037 18:0.2962963 19:0.2962963 20:0.2037037 21:0.22448979 22:4 23:0.1724138 
-0.9681445870182683 1:1 2:1 3:6 4:22 5:0.6363636 6:1 7:3 8:0.3181818 9:0.27272725 10:0.36363637 11:0.04545456 12:5 13:0.11627907 14:4 15:0.6034483 16:58 17:0.18965518 18:0.31034482 19:0.29310346 20:0.20689654 21:0.12727273 22:1.7142857 24:0.16666667 
-0.2303766102529195 1:2 2:2 3:7 4:22 5:0.6363636 6:1 7:4 8:0.18181819 9:0.40909094 10:0.22727275 11:0.18181819 12:4 13:0.1627907 14:2 15:0.5692308 16:65 17:0.12307692 18:0.27692306 19:0.29230767 20:0.3076923 21:0.21428572 22:0.80000001 24:0.38461539 
-0.9228793643417592 4:22 5:0.5 6:2 7:2 8:0.22727275 9:0.27272725 10:0.22727275 11:0.27272725 12:50 13:0.14285715 14:1 15:0.4909091 16:55 17:0.21818179 18:0.27272725 19:0.21818179 20:0.2909091 21:0.14285715 22:0.69999999 23:0.42105263 
-1 4:23 5:0.45454544 6:2 7:3 8:0.27272725 9:0.22727275 10:0.22727275 11:0.27272725 12:11 13:0.24444444 14:2 15:0.39999998 16:55 17:0.27272725 18:0.18181819 19:0.21818179 20:0.3272727 21:0.17073171 22:1 23:0.30000001 
-0.2542186861434781 1:1 2:1 3:7 4:23 5:0.43478262 6:2 7:4 8:0.3043478 9:0.26086956 10:0.17391306 11:0.26086956 12:2 13:0.26086956 14:3 15:0.42465752 16:73 17:0.24657536 18:0.1917808 19:0.23287672 20:0.32876712 21:0.22033899 22:1 24:0.07692308 
-0.3066452313712005 1:2 2:3 3:18 4:24 5:0.3333333 6:3 7:3 8:0.375 9:0.2916667 10:0.041666687 11:0.2916667 12:72 13:0.31914893 14:1 15:0.39560437 16:91 17:0.27472526 18:0.2087912 19:0.18681318 20:0.3296703 21:0.25 22:4.5 23:0.25 24:0.15151516 
-0.3046495529606106 4:22 5:0.5 6:2 7:2 8:0.22727275 9:0.22727275 10:0.27272725 11:0.27272725 12:44 13:0.19047619 14:1 15:0.52272725 16:44 17:0.25 18:0.22727275 19:0.29545456 20:0.22727275 21:0.10526316 22:0.40000001 23:0.12195122 
-0.7718465172948132 3:9 4:23 5:0.5454545 6:1 7:4 8:0.3181818 9:0.36363637 10:0.18181819 11:0.13636363 12:11 13:0.13636364 14:4 15:0.530303 16:66 17:0.27272725 18:0.24242425 19:0.2878788 20:0.19696969 21:0.13333334 22:1 23:0.052631579 24:0.125 
-0.07469572211529114 4:23 5:0.5454545 6:2 7:3 8:0.22727275 9:0.22727275 10:0.3181818 11:0.22727275 12:37 13:0.25581396 15:0.5681818 16:44 17:0.18181819 18:0.3181818 19:0.25 20:0.25 21:0.21951219 22:0.77777779 23:0.15384616 
-0.3619412083382408 1:2 2:1 3:9 4:22 5:0.5454545 6:2 7:3 8:0.04545456 9:0.40909094 10:0.13636363 11:0.40909094 12:6 13:0.17073171 14:1 15:0.5 16:60 17:0.21666664 18:0.28333336 19:0.21666664 20:0.28333336 21:0.19298245 22:0.66666669 23:0.2 24:0.25 
-0.3151861402305836 1:2 2:1 3:12 4:26 5:0.4583333 6:4 7:3 8:0.08333331 9:0.25 10:0.20833331 11:0.4583333 12:57 13:0.2 14:3 15:0.56578946 16:76 17:0.18421054 18:0.30263156 19:0.2631579 20:0.25 21:0.16666667 22:0.77777779 24:0.090909094 
-0.9289085434559815 1:2 2:3 3:17 4:22 5:0.6363636 6:3 7:3 8:0.22727275 9:0.13636363 10:0.5 11:0.13636363 12:4 13:0.17948718 14:4 15:0.5121951 16:82 17:0.21951222 18:0.21951222 19:0.29268295 20:0.26829267 21:0.20547946 22:0.63636363 24:0.23529412 
-0.1758993936903376 1:2 2:2 3:15 4:20 5:0.7 6:2 7:2 8:0.14999998 9:0.19999999 10:0.5 11:0.14999998 12:8 13:0.22222222 14:4 15:0.52 16:75 17:0.21333331 18:0.22666669 19:0.29333335 20:0.26666665 21:0.21212122 22:0.55555558 23:0.090909094 24:0.2 
-0.09075578411787279 1:2 2:2 3:16 4:22 5:0.6363636 6:1 7:3 8:0.18181819 9:0.27272725 10:0.36363637 11:0.18181819 12:7 13:0.1627907 14:4 15:0.48101264 16:79 17:0.20253164 18:0.21518987 19:0.26582277 20:0.31645572 21:0.21621622 22:0.80000001 23:0.33333334 24:0.29032257 
-0.2757519098288235 4:22 5:0.45454544 6:2 7:4 8:0.27272725 9:0.13636363 10:0.3181818 11:0.27272725 12:23 13:0.25581396 14:4 15:0.4375 16:48 17:0.20833331 18:0.16666669 19:0.2708333 20:0.3541667 21:0.25581396 22:0.8888889 23:0.20930232 
-0.3324444726321313 1:2 2:2 3:16 4:23 5:0.6086956 6:3 7:3 8:0.21739131 9:0.26086956 10:0.34782606 11:0.17391306 12:56 13:0.24444444 14:2 15:0.7179487 16:78 17:0.14102566 18:0.38461536 19:0.3333333 20:0.14102566 21:0.2 22:0.72727275 24:0.13333334 
-1 3:5 4:22 5:0.45454544 6:2 7:3 8:0.3181818 9:0.18181819 10:0.27272725 11:0.22727275 12:52 13:0.18181819 14:1 15:0.40625 16:64 17:0.296875 18:0.171875 19:0.234375 20:0.296875 21:0.16981132 22:1.2857143 23:0.11111111 24:0.11111111 
-0.3568817078476332 4:24 5:0.39130437 6:2 7:3 8:0.26086956 9:0.17391306 10:0.21739131 11:0.34782606 12:14 13:0.19148937 14:3 15:0.41071427 16:56 17:0.28571427 18:0.1785714 19:0.23214287 20:0.3035714 21:0.15555556 22:1.25 23:0.15384616 
-0.2865206520059216 1:1 2:3 3:18 4:23 5:0.5909091 6:2 7:3 8:0.18181819 9:0.27272725 10:0.3181818 11:0.22727275 12:74 13:0.13636364 14:3 15:0.6521739 16:92 17:0.17391306 18:0.32608694 19:0.32608694 20:0.17391306 21:0.15000001 22:1.1111112 24:0.16666667 
-1 1:2 2:1 3:6 4:24 5:0.40909094 6:2 7:1 8:0.13636363 9:0.22727275 10:0.18181819 11:0.45454544 12:46 13:0.043478262 14:3 15:0.51666665 16:60 17:0.21666664 18:0.23333335 19:0.28333336 20:0.26666665 21:0.071428575 22:0.5 23:0.06666667 24:0.2 
-0.2908050491207879 3:3 4:22 5:0.5 6:2 7:1 8:0.36363637 9:0.18181819 10:0.3181818 11:0.13636363 12:13 13:0.073170729 14:4 15:0.53999996 16:50 17:0.19999999 18:0.24000001 19:0.3 20:0.26 21:0.086956523 22:1.125 23:0.039999999 24:0.2 
-0.272824421856418 1:2 2:3 3:12 4:25 5:0.6956522 6:2 7:4 8:0.21739131 9:0.26086956 10:0.43478262 11:0.0869565 12:7 13:0.13043478 14:3 15:0.61333334 16:75 17:0.17333335 18:0.32 19:0.29333335 20:0.21333331 21:0.17647059 22:0.625 24:0.27272728 
-0.2934275395640676 4:22 5:0.6818182 6:2 7:3 8:0.3181818 9:0.27272725 10:0.40909094 12:30 13:0.2857143 15:0.6904762 16:42 17:0.19047618 18:0.3333333 19:0.35714287 20:0.11904764 21:0.21052632 22:0.75 23:0.16666667 
-0.495574160169112 3:5 4:22 5:0.40909094 6:1 7:1 8:0.04545456 9:0.22727275 10:0.18181819 11:0.5454545 12:42 13:0.045454547 14:1 15:0.4736842 16:57 17:0.2631579 18:0.19298244 19:0.28070176 20:0.2631579 21:0.16981132 22:0.89999998 24:0.77777779 
-0.3049153889129043 4:26 5:0.44 6:4 7:2 8:0.48000002 9:0.16000003 10:0.27999997 11:0.07999998 12:10 13:0.25490198 14:2 15:0.45098037 16:51 17:0.2745098 18:0.17647058 19:0.2745098 20:0.2745098 21:0.19148937 22:3.3333333 
-0.8633390123433026 1:1 2:1 3:4 4:24 5:0.8 6:3 7:4 8:0.050000012 9:0.25 10:0.55 11:0.14999998 12:10 13:0.18181819 14:4 15:0.67857146 16:56 17:0.16071427 18:0.28571427 19:0.39285713 20:0.16071427 21:0.17647059 22:0.89999998 23:0.05882353 24:0.14285715 
-0.5305520687286222 4:29 5:0.5416666 6:3 7:3 8:0.25 9:0.20833331 10:0.3333333 11:0.20833331 12:33 13:0.20754717 15:0.5283019 16:53 17:0.20754719 18:0.24528301 19:0.2830189 20:0.26415092 21:0.10638298 22:0.42857143 
-1 3:5 4:23 5:0.5217391 6:1 7:2 8:0.17391306 9:0.26086956 10:0.26086956 11:0.3043478 12:2 13:0.095238097 14:2 15:0.5614035 16:57 17:0.19298244 18:0.2631579 19:0.2982456 20:0.24561405 21:0.098039217 22:1.6 24:0.11111111 
-0.0009681023853858328 1:1 2:2 3:9 4:23 5:0.5909091 6:3 7:3 8:0.18181819 9:0.18181819 10:0.40909094 11:0.22727275 12:6 13:0.24444444 14:2 15:0.5522388 16:67 17:0.19402987 18:0.23880595 19:0.3134328 20:0.25373137 21:0.22580644 22:1 24:0.17647059 
-0.05597125448463686 1:1 2:2 3:11 4:23 5:0.6086956 6:1 7:2 8:0.21739131 9:0.26086956 10:0.34782606 11:0.17391306 12:1 13:0.17391305 15:0.49295777 16:71 17:0.25352114 18:0.22535211 19:0.26760566 20:0.25352114 21:0.15151516 22:2 24:0.1 
-0.3627078731339375 4:22 5:0.5 6:3 7:2 8:0.22727275 9:0.22727275 10:0.27272725 11:0.27272725 12:10 13:0.25 14:2 15:0.525 16:40 17:0.19999999 18:0.22500002 19:0.3 20:0.27499998 21:0.16666667 22:4 23:0.05882353 
-0.5107175133762334 1:1 2:1 3:7 4:21 5:0.57142854 6:3 7:2 8:0.23809522 9:0.14285713 10:0.4285714 11:0.19047618 12:2 13:0.13513513 14:4 15:0.5272727 16:55 17:0.21818179 18:0.23636365 19:0.2909091 20:0.25454545 21:0.13725491 22:5 24:0.14285715 
-0.7060684617674846 1:2 2:1 3:7 4:22 5:0.6363636 6:6 7:1 8:0.18181819 9:0.22727275 10:0.40909094 11:0.18181819 12:42 13:0.2631579 14:3 15:0.6181818 16:55 17:0.16363639 18:0.2909091 19:0.3272727 20:0.21818179 21:0.26923078 22:1.5 24:0.2857143 
-0.5482808158964843 3:3 4:27 5:0.7619048 6:6 7:2 8:0.14285713 9:0.47619045 10:0.28571427 11:0.09523809 12:8 13:0.25 14:2 15:0.5964912 16:57 17:0.17543858 18:0.28070176 19:0.31578946 20:0.2280702 21:0.25925925 22:0.625 24:0.33333334 
-0.08482254892611842 4:21 5:0.55 6:1 7:1 8:0.25 9:0.25 10:0.3 11:0.19999999 12:44 13:0.12195122 14:1 15:0.4375 16:48 17:0.25 18:0.22916669 19:0.20833331 20:0.3125 21:0.027027028 22:0.44444445 23:0.21428572 
-0.9439221278143169 3:1 4:20 5:0.45 6:1 7:2 8:0.14999998 9:0.19999999 10:0.25 11:0.39999998 12:14 13:0.07692308 14:1 15:0.4423077 16:52 17:0.25 18:0.21153843 19:0.23076922 20:0.3076923 21:0.073170729 22:0.75 23:0.16666667 
-0.05280997468162029 3:1 4:25 5:0.5 6:5 7:3 8:0.27272725 9:0.36363637 10:0.13636363 11:0.22727275 12:8 13:0.26086956 14:4 15:0.45098037 16:51 17:0.2352941 18:0.2352941 19:0.21568626 20:0.31372547 21:0.25 22:1.1428572 23:0.14285715 
-1 1:2 2:1 3:6 4:22 5:0.6363636 6:2 7:3 8:0.22727275 9:0.27272725 10:0.36363637 11:0.13636363 12:42 13:0.18181819 14:4 15:0.5409836 16:61 17:0.21311474 18:0.29508197 19:0.24590164 20:0.24590164 21:0.2 22:1 24:0.27272728 
-0.6038213919779428 1:1 2:1 3:4 4:26 5:0.6363636 6:3 7:5 8:0.13636363 9:0.3181818 10:0.3181818 11:0.22727275 12:40 13:0.27659574 14:3 15:0.6166667 16:60 17:0.21666664 18:0.35000002 19:0.26666665 20:0.16666669 21:0.27272728 22:1.5 24:0.25 
-0.5284806828043822 4:22 5:0.45454544 6:1 7:2 8:0.22727275 9:0.18181819 10:0.27272725 11:0.3181818 12:15 13:0.18181819 14:3 15:0.45999998 16:50 17:0.22000003 18:0.19999999 19:0.26 20:0.32 21:0.1 22:1.5 23:0.10344828 
-0.959837707878223 3:2 4:26 5:0.7083334 6:3 7:5 8:0.16666669 9:0.4583333 10:0.25 11:0.125 12:8 13:0.20833333 14:2 15:0.6721312 16:61 17:0.14754099 18:0.32786888 19:0.3442623 20:0.18032789 21:0.1923077 22:2.2 23:0.14285715 
-0.6651456010685147 3:5 4:23 5:0.34782606 6:2 7:3 8:0.34782606 9:0.21739131 10:0.13043481 11:0.3043478 12:7 13:0.17391305 14:3 15:0.38805968 16:67 17:0.26865673 18:0.1791045 19:0.20895523 20:0.3432836 21:0.14285715 22:1 23:0.33333334 
-0.5303960435608073 1:1 2:1 3:4 4:24 5:0.4166667 6:2 7:2 8:0.25 9:0.125 10:0.2916667 11:0.3333333 12:38 13:0.125 14:1 15:0.4166667 16:60 17:0.3 18:0.18333334 19:0.23333335 20:0.28333336 21:0.14285715 22:1 24:0.25 
-0.176835124654624 4:20 5:0.35000002 6:1 7:2 8:0.3 9:0.19999999 10:0.14999998 11:0.35000002 12:10 13:0.1 14:3 15:0.40909094 16:44 17:0.3181818 18:0.18181819 19:0.22727275 20:0.27272725 21:0.1 22:1.8333334 23:0.22222222 
-0.7081558587441942 3:2 4:22 5:0.8181818 6:2 7:3 8:0.04545456 9:0.36363637 10:0.45454544 11:0.13636363 12:41 13:0.25581396 14:3 15:0.6724138 16:58 17:0.13793105 18:0.2758621 19:0.39655173 20:0.18965518 21:0.23404256 22:0.54545456 
-1 1:1 2:1 3:5 4:22 5:0.5 6:2 7:3 8:0.3181818 9:0.090909064 10:0.40909094 11:0.18181819 12:6 13:0.1627907 14:2 15:0.47540987 16:61 17:0.22950822 18:0.19672132 19:0.27868855 20:0.29508197 21:0.16981132 22:0.63636363 23:0.2 24:0.2 
-0.9927127980879252 1:1 2:1 3:10 4:22 5:0.85714287 6:1 7:2 8:0.047619045 9:0.28571427 10:0.57142854 11:0.09523809 12:46 13:0.11627907 14:3 15:0.74242425 16:66 17:0.10606062 18:0.2878788 19:0.45454544 20:0.15151513 21:0.18032786 22:0.80000001 24:0.33333334 
-1 3:4 4:23 5:0.6818182 6:1 7:3 8:0.090909064 9:0.3181818 10:0.36363637 11:0.22727275 12:39 13:0.15555556 14:2 15:0.6545454 16:55 17:0.12727273 18:0.34545457 19:0.3090909 20:0.21818179 21:0.17647059 22:0.81818181 23:0.2 24:0.33333334 
-0.1995851276504697 4:25 5:0.6363636 6:3 7:4 8:0.13636363 9:0.27272725 10:0.36363637 11:0.22727275 12:37 13:0.19148937 14:1 15:0.62745094 16:51 17:0.1372549 18:0.3333333 19:0.29411763 20:0.2352941 21:0.19148937 22:0.5 23:0.14285715 
-0.7388544711760157 3:5 4:21 5:0.61904764 6:3 7:3 8:0.19047618 9:0.28571427 10:0.3333333 11:0.19047618 12:11 13:0.2682927 14:2 15:0.509434 16:53 17:0.18867922 18:0.26415092 19:0.24528301 20:0.3018868 21:0.28 22:1.1428572 23:0.05882353 24:0.33333334 
-0.1830182803503495 4:24 5:0.4583333 6:2 7:3 8:0.2916667 9:0.08333331 10:0.375 11:0.25 12:33 13:0.26086956 14:2 15:0.5 16:50 17:0.18 18:0.22000003 19:0.27999997 20:0.32 21:0.15000001 22:0.22222222 
-0.2669128266093211 1:1 2:1 3:6 4:25 5:0.625 6:2 7:2 8:0.08333331 9:0.3333333 10:0.2916667 11:0.2916667 12:1 13:0.14285715 15:0.64705884 16:68 17:0.14705884 18:0.29411763 19:0.35294116 20:0.20588237 21:0.14754099 22:1.375 24:0.16666667 
-0.0232432983558667 1:1 2:1 3:5 4:25 5:0.5833334 6:2 7:3 8:0.08333331 9:0.2916667 10:0.2916667 11:0.3333333 12:2 13:0.14285715 14:3 15:0.6363636 16:66 17:0.15151513 18:0.2878788 19:0.34848487 20:0.21212119 21:0.15254237 22:1.25 24:0.2 
-0.9280441781341211 3:3 4:24 5:0.5 6:3 7:4 8:0.3181818 9:0.27272725 10:0.22727275 11:0.18181819 12:7 13:0.26086956 14:3 15:0.4310345 16:58 17:0.29310346 18:0.2241379 19:0.20689654 20:0.2758621 21:0.23076923 22:5 23:0.16666667 
-0.1080491843459949 4:24 5:0.47826087 6:2 7:3 8:0.34782606 9:0.26086956 10:0.21739131 11:0.17391306 12:24 13:0.31914893 14:3 15:0.38297874 16:47 17:0.25531918 18:0.17021275 19:0.21276593 20:0.36170214 21:0.21951219 22:3 23:0.2173913 
-0.2684277969963414 1:2 2:2 3:15 4:22 5:0.57142854 6:3 7:2 8:0.19047618 9:0.4285714 10:0.14285713 11:0.23809522 12:8 13:0.25581396 14:4 15:0.43037975 16:79 17:0.24050635 18:0.21518987 19:0.21518987 20:0.3291139 21:0.23287672 22:1.3333334 23:0.14285715 24:0.2 
-0.4010457427010947 1:1 2:2 3:10 4:22 5:0.5 6:1 7:2 8:0.27272725 9:0.13636363 10:0.36363637 11:0.22727275 12:8 13:0.069767445 14:3 15:0.530303 16:66 17:0.21212119 18:0.19696969 19:0.3333333 20:0.25757575 21:0.096774191 22:0.89999998 23:0.06666667 24:0.15789473 
-0.3687594677187824 3:3 4:21 5:0.61904764 6:1 7:4 8:0.14285713 9:0.3333333 10:0.28571427 11:0.23809522 12:43 13:0.25 14:3 15:0.62 16:50 17:0.18 18:0.36 19:0.26 20:0.19999999 21:0.2173913 22:0.625 23:0.07692308 
-0.1923248664158549 1:2 2:2 3:12 4:21 5:0.6666666 6:1 7:4 8:0.19047618 9:0.28571427 10:0.38095236 11:0.14285713 12:5 13:0.19047619 14:4 15:0.63235295 16:68 17:0.19117647 18:0.35294116 19:0.2794118 20:0.17647058 21:0.1875 22:1.5 24:0.18181819 
-0.1937745021016741 1:1 2:2 3:18 4:22 5:0.5909091 6:2 7:3 8:0.090909064 9:0.27272725 10:0.3181818 11:0.3181818 12:69 13:0.1627907 14:2 15:0.48888886 16:90 17:0.17777777 18:0.22222221 19:0.26666665 20:0.3333333 21:0.16455697 22:1.1 24:0.16666667 
-0.4722334266294608 3:5 4:23 5:0.6521739 6:1 7:4 8:0.04347825 9:0.39130437 10:0.26086956 11:0.3043478 12:12 13:0.2173913 14:3 15:0.46268654 16:67 17:0.16417909 18:0.20895523 19:0.25373137 20:0.37313432 21:0.17857143 22:1.3333334 23:0.13043478 
-0.4871024875451966 1:1 2:1 3:7 4:27 5:0.625 6:4 7:3 8:0.16666669 9:0.2916667 10:0.3333333 11:0.20833331 12:55 13:0.21568628 14:1 15:0.5522388 16:67 17:0.23880595 18:0.2835821 19:0.26865673 20:0.20895523 21:0.23809524 22:3.3333333 23:0.27272728 24:0.33333334 
-0.4951865213432057 1:2 2:3 3:19 4:21 5:0.5 6:4 7:3 8:0.2777778 9:0.2777778 10:0.22222221 11:0.22222221 12:67 13:0.2820513 14:1 15:0.56962025 16:79 17:0.22784811 18:0.278481 19:0.29113925 20:0.20253164 21:0.22666667 22:0.5 23:0.40000001 24:0.16666667 
-1 3:3 4:21 5:0.52380955 6:3 7:1 8:0.09523809 9:0.23809522 10:0.28571427 11:0.38095236 12:46 13:0.2857143 14:2 15:0.46428573 16:56 17:0.25 18:0.21428573 19:0.25 20:0.28571427 21:0.25 22:1.4 
-0.2144508022467967 1:1 2:1 3:11 4:22 5:0.5 6:2 7:1 8:0.22727275 9:0.13636363 10:0.36363637 11:0.27272725 12:2 13:0.22727273 14:2 15:0.5 16:74 17:0.2162162 18:0.2162162 19:0.2837838 20:0.2837838 21:0.18181819 22:3.3333333 24:0.090909094 
-0.8193221049241284 1:2 2:4 3:13 4:22 5:0.6363636 6:2 7:3 8:0.27272725 9:0.18181819 10:0.45454544 11:0.090909064 12:51 13:0.1627907 14:3 15:0.5972222 16:72 17:0.1388889 18:0.2638889 19:0.3333333 20:0.2638889 21:0.23529412 22:1.25 24:0.36000001 
-1 1:1 2:1 3:6 4:26 5:0.6666666 6:2 7:4 8:0.041666687 9:0.3333333 10:0.3333333 11:0.2916667 12:4 13:0.2 14:3 15:0.5909091 16:66 17:0.13636363 18:0.25757575 19:0.3333333 20:0.27272725 21:0.25806451 22:0.8888889 24:0.5 
-0.09071419303134375 4:23 5:0.45454544 6:1 7:3 8:0.18181819 9:0.27272725 10:0.18181819 11:0.36363637 12:31 13:0.2888889 15:0.46666664 16:45 17:0.24444443 18:0.22222221 19:0.24444443 20:0.28888887 21:0.13513513 23:0.090909094 
-0.372677720844717 4:22 5:0.36363637 6:1 7:2 8:0.22727275 9:0.13636363 10:0.22727275 11:0.40909094 12:39 13:0.090909094 14:4 15:0.38181818 16:55 17:0.2909091 18:0.18181819 19:0.19999999 20:0.3272727 21:0.090909094 22:1.5 
-0.02470233317585294 4:22 5:0.5909091 6:2 7:3 8:0.22727275 9:0.3181818 10:0.27272725 11:0.18181819 12:39 13:0.15000001 14:1 15:0.52272725 16:44 17:0.22727275 18:0.22727275 19:0.29545456 20:0.25 21:0.10526316 22:0.875 23:0.125 
-0.4245789041553554 1:2 2:1 3:12 4:25 5:0.5652174 6:1 7:4 8:0.0869565 9:0.17391306 10:0.39130437 11:0.34782606 12:1 13:0.125 15:0.53947365 16:76 17:0.21052629 18:0.22368419 19:0.31578946 20:0.25 21:0.11428571 22:1.125 24:0.090909094 
-1 1:1 2:1 3:5 4:23 5:0.6363636 6:3 7:2 8:0.090909064 9:0.36363637 10:0.27272725 11:0.27272725 12:4 13:0.2 14:2 15:0.559322 16:59 17:0.1864407 18:0.2711864 19:0.2881356 20:0.2542373 21:0.2 22:1.5 24:0.2 
-0.9680380533224092 1:2 2:1 3:9 4:21 5:0.61904764 6:1 7:4 8:0.23809522 9:0.23809522 10:0.38095236 11:0.14285713 12:55 13:0.17073171 14:1 15:0.6557377 16:61 17:0.21311474 18:0.29508197 19:0.36065573 20:0.13114756 21:0.1724138 22:1 23:0.2 24:0.17647059 
-0.5261459321523063 1:2 2:1 3:11 4:23 5:0.73913044 6:2 7:4 8:0.17391306 9:0.34782606 10:0.39130437 11:0.0869565 12:11 13:0.18181819 14:1 15:0.6865672 16:67 17:0.19402987 18:0.3134328 19:0.37313432 20:0.11940301 21:0.1875 22:0.54545456 23:0.15789473 24:0.2 
-0.2306460965485259 4:24 5:0.6086956 6:2 7:4 8:0.26086956 9:0.21739131 10:0.39130437 11:0.13043481 12:46 13:0.2173913 15:0.6382979 16:47 17:0.23404253 18:0.29787236 19:0.34042555 20:0.12765956 21:0.18181819 22:0.80000001 23:0.17948718 
-1 3:2 4:28 5:0.5833334 6:2 7:7 8:0.3333333 9:0.2916667 10:0.2916667 11:0.08333331 12:5 13:0.21568628 14:2 15:0.5 16:60 17:0.28333336 18:0.25 19:0.25 20:0.21666664 21:0.2 22:0.66666669 
-0.006716133760142375 3:1 4:24 5:0.71428573 6:3 7:4 8:0.19047618 9:0.38095236 10:0.3333333 11:0.09523809 12:40 13:0.2888889 14:4 15:0.6862745 16:51 17:0.11764705 18:0.35294116 19:0.3333333 20:0.19607842 21:0.27659574 22:1.8 23:0.15789473 
-0.2088791168360243 4:22 5:0.6818182 6:3 7:3 8:0.04545456 9:0.3181818 10:0.36363637 11:0.27272725 12:15 13:0.31707317 14:2 15:0.7073171 16:41 17:0.097561 18:0.36585367 19:0.3414634 20:0.19512194 21:0.24324325 22:1 23:0.24137931 
-0.3114404763058879 3:2 4:25 5:0.5416666 6:3 7:2 8:0.25 9:0.20833331 10:0.3333333 11:0.20833331 12:43 13:0.10638298 14:3 15:0.55357146 16:56 17:0.1785714 18:0.21428573 19:0.33928573 20:0.26785713 21:0.098039217 22:0.5 23:0.36842105 
-0.6816957676701808 1:2 2:4 3:25 4:22 5:0.5454545 6:2 7:2 8:0.22727275 9:0.22727275 10:0.3181818 11:0.22727275 12:7 13:0.36842105 14:1 15:0.47777778 16:90 17:0.21111113 18:0.17777777 19:0.3 20:0.3111111 21:0.25581396 23:0.33333334 24:0.16666667 
-0.5940433646567596 1:2 2:4 3:29 4:22 5:0.5454545 6:8 7:2 8:0.27272725 9:0.18181819 10:0.36363637 11:0.18181819 12:3 13:0.36842105 14:2 15:0.4591837 16:98 17:0.23469388 18:0.17346936 19:0.28571427 20:0.30612242 21:0.27659574 22:0.5 24:0.21428572 
-0.2603557326346174 1:1 2:1 3:16 4:22 5:0.5909091 6:1 7:4 8:0.090909064 9:0.090909064 10:0.5 11:0.3181818 12:62 13:0.14285715 14:2 15:0.55421686 16:83 17:0.1686747 18:0.26506025 19:0.28915662 20:0.27710843 21:0.1891892 22:1.375 24:0.25 
-0.7675856218775404 3:1 4:24 5:0.625 6:2 7:1 8:0.2916667 9:0.20833331 10:0.4166667 11:0.08333331 12:42 13:0.083333336 14:2 15:0.60655737 16:61 17:0.16393441 18:0.27868855 19:0.32786888 20:0.22950822 21:0.079999998 22:1.2222222 
-0.08830540777929219 4:24 5:0.75 6:2 7:1 8:0.16666669 9:0.25 10:0.5 11:0.08333331 12:36 13:0.29166666 15:0.6938776 16:49 17:0.12244898 18:0.32653064 19:0.36734694 20:0.18367344 21:0.10526316 
-0.5916146740581444 3:2 4:24 5:0.6521739 6:1 7:3 8:0.17391306 9:0.34782606 10:0.3043478 11:0.17391306 12:43 13:0.13043478 14:3 15:0.63076925 16:65 17:0.19999999 18:0.3076923 19:0.3230769 20:0.16923076 21:0.12 22:1.375 
-0.2638808060223699 1:1 2:2 3:14 4:22 5:0.8181818 6:3 7:2 9:0.3181818 10:0.5 11:0.18181819 12:3 13:0.17948718 14:3 15:0.65789473 16:76 17:0.15789473 18:0.35526317 19:0.30263156 20:0.18421054 21:0.15151516 22:1.8333334 24:0.11111111 
-0.9798764593563893 1:1 2:1 3:6 4:26 5:0.5416666 6:2 7:4 8:0.20833331 9:0.375 10:0.16666669 11:0.25 12:43 13:0.16666667 14:3 15:0.515625 16:64 17:0.21875 18:0.234375 19:0.28125 20:0.265625 21:0.16666667 22:1.25 24:0.16666667 
-1 3:2 4:25 5:0.5416666 6:2 7:3 8:0.3333333 9:0.20833331 10:0.3333333 11:0.125 12:45 13:0.125 14:2 15:0.53125 16:64 17:0.1875 18:0.234375 19:0.296875 20:0.28125 21:0.11538462 22:1.1111112 
-0.169219759487571 4:21 5:0.75 6:1 7:4 8:0.050000012 9:0.25 10:0.5 11:0.19999999 12:20 13:0.2 14:3 15:0.67441857 16:43 17:0.09302324 18:0.2093023 19:0.46511626 20:0.23255813 21:0.15789473 22:2.2 23:0.21052632 
-0.190159914452109 4:22 5:0.40909094 6:3 7:2 8:0.3181818 9:0.18181819 10:0.22727275 11:0.27272725 12:12 13:0.30000001 14:4 15:0.5121951 16:41 17:0.24390244 18:0.24390244 19:0.26829267 20:0.24390244 21:0.125 23:0.22222222 
-0.003872006373300384 4:23 5:0.3181818 6:2 7:4 8:0.36363637 9:0.22727275 10:0.090909064 11:0.3181818 12:21 13:0.33333334 14:4 15:0.3333333 16:45 17:0.39999998 18:0.19999999 19:0.13333333 20:0.26666665 21:0.23076923 22:4 23:0.17073171 
-0.564113976354033 1:1 2:2 3:20 4:24 5:0.8636364 6:3 7:3 8:0.04545456 9:0.40909094 10:0.45454544 11:0.090909064 12:6 13:0.17391305 14:3 15:0.75268817 16:93 17:0.1075269 18:0.32258064 19:0.43010753 20:0.13978493 21:0.12941177 22:0.30000001 23:0.33333334 24:0.07692308 
-0.9976872996900407 1:4 2:1 3:8 4:22 5:0.77272725 6:2 7:3 8:0.18181819 9:0.36363637 10:0.40909094 11:0.04545456 12:43 13:0.2857143 14:2 15:0.578125 16:64 17:0.15625 18:0.25 19:0.328125 20:0.265625 21:0.34482759 22:3.6666667 24:0.5 
-0.1384796503261793 4:22 5:0.6363636 6:4 7:3 8:0.22727275 9:0.36363637 10:0.27272725 11:0.13636363 12:35 13:0.31818181 14:2 15:0.53999996 16:50 17:0.13999999 18:0.24000001 19:0.3 20:0.32 21:0.31818181 22:0.45454547 23:0.2 
-0.02566602213863331 4:23 5:0.5652174 6:2 7:2 8:0.13043481 9:0.21739131 10:0.34782606 11:0.3043478 12:18 13:0.1627907 14:3 15:0.5813954 16:43 17:0.16279072 18:0.25581396 19:0.32558137 20:0.25581396 21:0.07692308 22:2 23:0.071428575 
-0.4568708416288797 1:1 2:1 3:15 4:21 5:0.4285714 6:2 7:2 8:0.28571427 9:0.19047618 10:0.23809522 11:0.28571427 12:3 13:0.10526316 14:3 15:0.46478873 16:71 17:0.22535211 18:0.19718307 19:0.26760566 20:0.30985916 21:0.074626863 22:1.5 24:0.034482758 
-0.2161400012701288 4:21 5:0.6666666 6:1 7:3 8:0.19047618 9:0.4285714 10:0.23809522 11:0.14285713 12:36 13:0.12195122 14:4 15:0.58000004 16:50 17:0.13999999 18:0.27999997 19:0.3 20:0.27999997 21:0.12195122 22:1.1111112 
-0.3630075201828214 1:2 2:2 3:18 4:22 5:0.57142854 6:6 7:3 8:0.14285713 9:0.23809522 10:0.3333333 11:0.28571427 12:6 13:0.39534885 14:2 15:0.5222222 16:90 17:0.19999999 18:0.24444443 19:0.2777778 20:0.2777778 21:0.2820513 22:0.60000002 23:0.25 24:0.14285715 
-0.4543738000530026 4:22 5:0.45454544 6:2 7:2 8:0.40909094 9:0.36363637 10:0.090909064 11:0.13636363 12:52 13:0.30232558 14:3 15:0.44680852 16:47 17:0.27659577 18:0.19148934 19:0.25531918 20:0.27659577 21:0.14285715 23:0.37254903 
-0.9988233204360769 3:2 4:21 5:0.47619045 6:2 7:2 8:0.14285713 9:0.23809522 10:0.23809522 11:0.38095236 12:5 13:0.19047619 14:1 15:0.5490196 16:51 17:0.21568626 18:0.25490195 19:0.29411763 20:0.2352941 21:0.17391305 22:1.1111112 
-0.6461335563655981 1:3 2:1 3:11 4:21 5:0.55 6:2 7:5 8:0.14999998 9:0.39999998 10:0.14999998 11:0.3 12:2 13:0.2682927 14:3 15:0.42424244 16:66 17:0.25757575 18:0.21212119 19:0.21212119 20:0.3181818 21:0.25806451 22:1.1666666 24:0.23809524 
-0.1182957025877942 1:2 2:2 3:11 4:21 5:0.71428573 6:2 7:1 8:0.047619045 9:0.23809522 10:0.47619045 11:0.23809522 12:10 13:0.14285715 14:1 15:0.5735294 16:68 17:0.16176468 18:0.25 19:0.32352942 20:0.2647059 21:0.14754099 22:1.4285715 23:0.22222222 24:0.15789473 
-0.4039009189737188 1:3 2:3 3:16 4:22 5:0.5454545 6:3 7:3 8:0.22727275 9:0.27272725 10:0.27272725 11:0.22727275 12:64 13:0.23809524 14:2 15:0.44578314 16:83 17:0.24096388 18:0.20481926 19:0.24096388 20:0.313253 21:0.25 22:1.8333334 24:0.26666668 
-1 3:1 4:24 5:0.43478262 6:3 7:4 8:0.34782606 9:0.21739131 10:0.21739131 11:0.21739131 12:14 13:0.2173913 14:3 15:0.44067794 16:59 17:0.2711864 18:0.220339 19:0.220339 20:0.2881356 21:0.20833333 22:1 23:0.2857143 
-0.3027784982865358 1:1 2:2 3:11 4:23 5:0.5909091 6:2 7:4 8:0.13636363 9:0.27272725 10:0.3181818 11:0.27272725 12:1 13:0.25581396 15:0.54285717 16:70 17:0.21428573 18:0.27142859 19:0.27142859 20:0.24285716 21:0.21875 22:2 24:0.14285715 
-0.3279367050489224 4:24 5:0.5909091 6:4 7:4 8:0.18181819 9:0.27272725 10:0.3181818 11:0.22727275 12:20 13:0.33333334 14:2 15:0.5416666 16:48 17:0.16666669 18:0.22916669 19:0.3125 20:0.2916667 21:0.30232558 22:1.6 23:0.15789473 
-0.1051482169903784 3:1 4:24 5:0.6086956 6:4 7:4 8:0.17391306 9:0.26086956 10:0.34782606 11:0.21739131 12:47 13:0.2888889 14:1 15:0.5769231 16:52 17:0.15384614 18:0.25 19:0.32692307 20:0.26923078 21:0.27659574 22:0.55555558 23:0.17647059 
-1 1:1 2:1 3:7 4:23 5:0.45454544 6:3 7:3 8:0.13636363 9:0.22727275 10:0.22727275 11:0.40909094 12:53 13:0.2888889 14:1 15:0.44615382 16:65 17:0.18461537 18:0.18461537 19:0.26153845 20:0.36923075 21:0.25423729 22:1.75 23:0.15789473 24:0.14285715 
-0.6286575958838047 1:1 2:2 3:10 4:22 5:0.40909094 6:3 7:3 8:0.13636363 9:0.18181819 10:0.22727275 11:0.45454544 12:55 13:0.27272728 14:3 15:0.43478262 16:69 17:0.18840581 18:0.17391306 19:0.26086956 20:0.37681162 21:0.23809524 22:2.25 23:0.2 24:0.15789473 
-0.6102052833223213 3:2 4:22 5:0.45454544 6:1 7:2 8:0.13636363 9:0.13636363 10:0.3181818 11:0.40909094 12:63 13:0.13636364 14:3 15:0.42307693 16:52 17:0.23076922 18:0.19230771 19:0.23076922 20:0.34615386 21:0.125 22:0.77777779 23:0.34328359 
-0.5378425997734226 1:1 2:2 3:17 4:23 5:0.6363636 6:2 7:3 8:0.090909064 9:0.27272725 10:0.36363637 11:0.27272725 12:18 13:0.2 14:1 15:0.51807225 16:83 17:0.1686747 18:0.25301206 19:0.26506025 20:0.313253 21:0.18987341 22:1.2222222 23:0.3888889 24:0.17647059 
-0.4090636597948298 1:2 2:2 3:15 4:24 5:0.5 6:3 7:3 8:0.125 9:0.08333331 10:0.4166667 11:0.375 12:67 13:0.24444444 14:4 15:0.53846157 16:78 17:0.17948717 18:0.2051282 19:0.3333333 20:0.28205127 21:0.22666667 22:0.375 24:0.2 
-0.1042550715035813 4:22 5:0.45454544 6:2 7:2 8:0.22727275 9:0.27272725 10:0.18181819 11:0.3181818 12:22 13:0.2 14:4 15:0.4883721 16:43 17:0.2093023 18:0.2093023 19:0.27906978 20:0.3023256 21:0.11111111 22:1.4 23:0.23809524 
-0.8469568445407214 1:7 2:2 3:20 4:22 5:0.5 6:1 7:5 8:0.18181819 9:0.27272725 10:0.22727275 11:0.3181818 12:6 13:0.25581396 14:3 15:0.55 16:80 17:0.19999999 18:0.27499998 19:0.27499998 20:0.25 21:0.28947368 22:0.77777779 23:0.090909094 24:0.33333334 
-0.5299538531190713 4:31 5:0.77272725 6:9 7:3 8:0.090909064 9:0.36363637 10:0.40909094 11:0.13636363 12:19 13:0.24528302 14:2 15:0.56666666 16:60 17:0.16666669 18:0.26666665 19:0.3 20:0.26666665 21:0.24528302 22:1 23:0.16666667 
-0.9016984538071804 3:10 4:22 5:0.5454545 6:1 7:2 8:0.18181819 9:0.40909094 10:0.13636363 11:0.27272725 12:58 13:0.2 14:4 15:0.5806452 16:62 17:0.16129035 18:0.27419353 19:0.30645162 20:0.2580645 21:0.23636363 23:0.17647059 24:0.33333334 
-0.5213292683336306 4:33 5:0.71428573 6:12 7:5 8:0.14285713 9:0.4285714 10:0.28571427 11:0.14285713 12:9 13:0.37037036 14:1 15:0.5862069 16:58 17:0.2758621 18:0.3448276 19:0.24137932 20:0.13793105 21:0.37037036 22:0.875 23:0.125 
-0.381213502544951 1:2 2:1 3:12 4:22 5:0.5 6:2 7:3 8:0.22727275 9:0.40909094 10:0.090909064 11:0.27272725 12:9 13:0.22727273 14:1 15:0.53521127 16:71 17:0.22535211 18:0.28169012 19:0.25352114 20:0.23943663 21:0.19402985 22:0.77777779 23:0.14285715 24:0.13043478 
-0.6943533253503897 1:1 2:1 3:7 4:22 5:0.5454545 6:1 7:3 8:0.27272725 9:0.22727275 10:0.3181818 11:0.18181819 12:43 13:0.13636364 14:2 15:0.5645161 16:62 17:0.2580645 18:0.32258064 19:0.24193549 20:0.17741936 21:0.1724138 22:1.5714285 24:0.2857143 
-1 1:5 2:1 3:10 4:22 5:0.3181818 6:1 7:1 8:0.40909094 9:0.18181819 10:0.13636363 11:0.27272725 12:46 13:0.11627907 14:1 15:0.4848485 16:66 17:0.22727275 18:0.24242425 19:0.24242425 20:0.2878788 21:0.25806451 22:0.5714286 24:0.57894737 
