svm_type c_svc
kernel_type rbf
gamma 0.0416667
nr_class 2
total_sv 465
rho 0.452008
label 1 0
probA -15.441
probB -11.6251
nr_sv 191 274
SV
0.3458569110645833 1:1 2:1 3:7 4:23 5:0.6521739 6:1 7:2 8:0.0869565 9:0.47826087 10:0.17391306 11:0.26086956 12:53 13:0.090909094 14:3 15:0.6721312 16:61 17:0.09836066 18:0.32786888 19:0.3442623 20:0.22950822 21:0.14285715 22:0.80000001 23:0.2 24:0.33333334 
1 3:4 4:23 5:0.39130437 6:2 7:2 8:0.17391306 9:0.21739131 10:0.17391306 11:0.43478262 12:4 13:0.15555556 14:4 15:0.42372882 16:59 17:0.23728812 18:0.16949153 19:0.2542373 20:0.33898306 21:0.24528302 22:0.25 24:0.75 
1 1:3 2:1 3:6 4:23 5:0.45454544 6:2 7:2 8:0.22727275 9:0.090909064 10:0.36363637 11:0.3181818 12:43 13:0.24444444 14:3 15:0.39682537 16:63 17:0.25396824 18:0.15873015 19:0.23809522 20:0.34920633 21:0.29824561 22:4.5 24:0.5 
1 3:1 4:22 5:0.6363636 6:4 7:2 8:0.13636363 9:0.40909094 10:0.22727275 11:0.22727275 12:7 13:0.27272728 14:3 15:0.6111111 16:54 17:0.2037037 18:0.3148148 19:0.2962963 20:0.1851852 21:0.26086956 22:0.8888889 
1 3:3 4:22 5:0.6363636 6:4 7:3 8:0.3181818 9:0.22727275 10:0.40909094 11:0.04545456 12:41 13:0.27272728 14:3 15:0.63793105 16:58 17:0.18965518 18:0.32758623 19:0.31034482 20:0.17241377 21:0.23999999 22:1.1111112 
1 3:5 4:21 5:0.57142854 6:2 7:3 8:0.3333333 9:0.047619045 10:0.52380955 11:0.09523809 12:17 13:0.2682927 14:2 15:0.5818182 16:55 17:0.23636365 18:0.34545457 19:0.23636365 20:0.18181819 21:0.31999999 22:2 23:0.22580644 24:0.55555558 
1 3:3 4:25 5:0.40909094 6:2 7:3 8:0.090909064 9:0.13636363 10:0.27272725 11:0.5 12:47 13:0.19148937 14:2 15:0.46551722 16:58 17:0.24137932 18:0.18965518 19:0.2758621 20:0.29310346 21:0.16981132 22:1 23:0.30000001 
1 3:5 4:22 5:0.47619045 6:2 7:2 8:0.19047618 9:0.28571427 10:0.19047618 11:0.3333333 12:21 13:0.11627907 14:2 15:0.5090909 16:55 17:0.23636365 18:0.25454545 19:0.25454545 20:0.25454545 21:0.1923077 22:1.125 23:0.31818181 24:0.55555558 
1 1:2 2:1 3:5 4:22 5:0.57142854 6:2 7:3 8:0.14285713 9:0.23809522 10:0.3333333 11:0.28571427 12:5 13:0.20930232 14:2 15:0.5 16:58 17:0.2241379 18:0.24137932 19:0.25862068 20:0.2758621 21:0.24528302 22:1 23:0.25 24:0.40000001 
1 1:2 2:1 3:7 4:23 5:0.6086956 6:2 7:4 8:0.26086956 9:0.3043478 10:0.3043478 11:0.13043481 12:43 13:0.24444444 14:3 15:0.546875 16:64 17:0.203125 18:0.28125 19:0.265625 20:0.25 21:0.25423729 22:0.875 24:0.2857143 
1 1:2 2:2 3:10 4:22 5:0.6363636 6:2 7:4 8:0.27272725 9:0.22727275 10:0.40909094 11:0.090909064 12:47 13:0.33333334 14:2 15:0.6060606 16:66 17:0.19696969 18:0.3333333 19:0.27272725 20:0.19696969 21:0.3442623 22:1 24:0.36842105 
1 4:22 5:0.5 6:2 7:3 8:0.19999999 9:0.3 10:0.19999999 11:0.3 12:14 13:0.14285715 14:2 15:0.46296299 16:54 17:0.22222221 18:0.24074072 19:0.22222221 20:0.3148148 21:0.14285715 22:1.125 23:0.18518518 
1 3:2 4:22 5:0.5 6:2 7:3 8:0.27272725 9:0.3181818 10:0.18181819 11:0.22727275 12:48 13:0.19047619 14:2 15:0.48275864 16:58 17:0.2241379 18:0.25862068 19:0.2241379 20:0.29310346 21:0.17391305 22:1 23:0.13043478 
0.3540407898845676 3:6 4:22 5:0.45454544 6:3 7:2 8:0.27272725 9:0.18181819 10:0.27272725 11:0.27272725 12:18 13:0.1627907 14:3 15:0.45762712 16:59 17:0.23728812 18:0.20338982 19:0.2542373 20:0.30508476 21:0.16363636 22:1.5 23:0.27272728 24:0.16666667 
1 1:1 2:1 3:7 4:23 5:0.5909091 6:3 7:2 8:0.22727275 9:0.22727275 10:0.36363637 11:0.18181819 12:57 13:0.15555556 14:3 15:0.44444442 16:63 17:0.23809522 18:0.19047618 19:0.25396824 20:0.3174603 21:0.15254237 22:0.375 23:0.31034482 24:0.14285715 
1 3:3 4:26 5:0.5909091 6:3 7:5 8:0.13636363 9:0.27272725 10:0.3181818 11:0.27272725 12:9 13:0.20833333 14:1 15:0.5862069 16:58 17:0.13793105 18:0.24137932 19:0.3448276 20:0.2758621 21:0.18518518 22:2.3333333 23:0.06666667 
1 1:3 2:2 3:13 4:22 5:0.71428573 6:1 7:4 8:0.14285713 9:0.23809522 10:0.47619045 11:0.14285713 12:51 13:0.1627907 14:2 15:0.6231884 16:69 17:0.13043481 18:0.26086956 19:0.3623188 20:0.24637681 21:0.16923077 22:1 24:0.18181819 
0.2604825419602111 3:1 4:23 5:0.5 6:1 7:2 8:0.40909094 9:0.18181819 10:0.3181818 11:0.090909064 12:22 13:0.06666667 14:3 15:0.4915254 16:59 17:0.23728812 18:0.2542373 19:0.23728812 20:0.2711864 21:0.063829787 22:0.89999998 23:0.3488372 
1 3:3 4:23 5:0.5217391 6:1 7:2 8:0.0869565 9:0.26086956 10:0.26086956 11:0.39130437 12:60 13:0.090909094 14:1 15:0.5 16:62 17:0.22580647 18:0.2580645 19:0.24193549 20:0.27419353 21:0.079999998 22:1.2857143 23:0.34999999 
1 1:1 2:1 3:5 4:23 5:0.6086956 6:2 7:3 8:0.17391306 9:0.21739131 10:0.39130437 11:0.21739131 12:5 13:0.2 14:1 15:0.5263158 16:57 17:0.21052629 18:0.2280702 19:0.2982456 20:0.2631579 21:0.18518518 22:0.5 24:0.11111111 
1 1:1 2:1 3:7 4:22 5:0.57142854 6:2 7:4 8:0.23809522 9:0.28571427 10:0.28571427 11:0.19047618 12:42 13:0.20930232 14:3 15:0.5084746 16:59 17:0.220339 18:0.220339 19:0.2881356 20:0.2711864 21:0.17857143 22:1.4285715 24:0.07692308 
1 1:1 2:1 3:5 4:24 5:0.5 6:2 7:3 8:0.16666669 9:0.16666669 10:0.3333333 11:0.3333333 12:14 13:0.17391305 14:2 15:0.55172414 16:58 17:0.20689654 18:0.25862068 19:0.29310346 20:0.24137932 21:0.16363636 22:0.80000001 23:0.14285715 24:0.11111111 
0.5931985869433427 1:1 2:1 3:7 4:23 5:0.6666666 6:2 7:4 8:0.23809522 9:0.4285714 10:0.23809522 11:0.09523809 12:52 13:0.18181819 14:4 15:0.56666666 16:60 17:0.19999999 18:0.26666665 19:0.3 20:0.23333335 21:0.15789473 22:0.625 23:0.15384616 24:0.07692308 
1 1:3 2:1 3:9 4:21 5:0.61904764 6:2 7:1 8:0.09523809 9:0.57142854 10:0.047619045 11:0.28571427 12:54 13:0.14285715 14:4 15:0.60317457 16:63 17:0.17460316 18:0.25396824 19:0.34920633 20:0.22222221 21:0.20689656 22:1.25 23:0.13043478 24:0.375 
1 1:3 2:2 3:10 4:23 5:0.72727275 6:2 7:6 8:0.13636363 9:0.45454544 10:0.27272725 11:0.13636363 12:47 13:0.2888889 14:3 15:0.7384615 16:65 17:0.09230769 18:0.39999998 19:0.33846152 20:0.16923076 21:0.29032257 22:1.3333334 24:0.29411766 
1 1:3 2:1 3:11 4:21 5:0.61904764 6:2 7:3 8:0.19047618 9:0.23809522 10:0.38095236 11:0.19047618 12:54 13:0.2682927 14:1 15:0.6 16:65 17:0.19999999 18:0.27692306 19:0.3230769 20:0.19999999 21:0.23333333 22:0.80000001 23:0.11111111 24:0.15789473 
1 1:1 2:1 3:6 4:23 5:0.5 6:1 7:3 8:0.13636363 9:0.27272725 10:0.22727275 11:0.36363637 12:42 13:0.11111111 14:2 15:0.5833334 16:60 17:0.19999999 18:0.3 19:0.28333336 20:0.21666664 21:0.12280702 22:0.63636363 24:0.16666667 
1 4:24 5:0.5416666 6:2 7:5 8:0.16666669 9:0.375 10:0.16666669 11:0.2916667 12:9 13:0.2173913 14:2 15:0.5272727 16:55 17:0.14545453 18:0.25454545 19:0.27272725 20:0.3272727 21:0.2173913 22:0.77777779 23:0.16666667 
0.6483259107909303 1:1 2:1 3:5 4:23 5:0.5 6:1 7:4 8:0.090909064 9:0.13636363 10:0.36363637 11:0.40909094 12:46 13:0.2 14:4 15:0.5555556 16:63 17:0.12698412 18:0.26984125 19:0.28571427 20:0.3174603 21:0.22222222 22:0.875 24:0.33333334 
1 3:1 4:24 5:0.45454544 6:2 7:2 8:0.22727275 9:0.18181819 10:0.27272725 11:0.3181818 12:14 13:0.2173913 14:4 15:0.4918033 16:61 17:0.19672132 18:0.27868855 19:0.21311474 20:0.3114754 21:0.20833333 22:1.25 23:0.375 
1 3:3 4:23 5:0.45454544 6:2 7:4 8:0.3181818 9:0.27272725 10:0.18181819 11:0.22727275 12:6 13:0.2 14:4 15:0.4153846 16:65 17:0.26153845 18:0.19999999 19:0.2153846 20:0.3230769 21:0.17647059 22:1 23:0.40000001 
1 3:2 4:23 5:0.47826087 6:2 7:4 8:0.0869565 9:0.17391306 10:0.3043478 11:0.43478262 12:47 13:0.2 14:2 15:0.4285714 16:63 17:0.25396824 18:0.2063492 19:0.22222221 20:0.3174603 21:0.18367347 22:0.875 23:0.33333334 
0.6998927246996958 3:2 4:24 5:0.4583333 6:2 7:3 8:0.16666669 9:0.08333331 10:0.375 11:0.375 12:20 13:0.24444444 14:1 15:0.4166667 16:60 17:0.25 18:0.23333335 19:0.18333334 20:0.3333333 21:0.22448979 22:0.42857143 23:0.2820513 
1 1:2 2:1 3:9 4:22 5:0.61904764 6:2 7:4 8:0.047619045 9:0.52380955 10:0.09523809 11:0.3333333 12:50 13:0.20930232 14:2 15:0.61764705 16:68 17:0.14705884 18:0.2647059 19:0.35294116 20:0.2352941 21:0.2 22:0.77777779 24:0.17647059 
1 3:4 4:24 5:0.5909091 6:2 7:4 8:0.3181818 9:0.27272725 10:0.3181818 11:0.090909064 12:14 13:0.15555556 14:1 15:0.52542377 16:59 17:0.2711864 18:0.23728812 19:0.2881356 20:0.20338982 21:0.13207547 22:1 23:0.07692308 
1 3:8 4:23 5:0.5454545 6:1 7:4 8:0.27272725 9:0.18181819 10:0.36363637 11:0.18181819 12:54 13:0.1627907 14:3 15:0.515625 16:64 17:0.28125 18:0.234375 19:0.28125 20:0.203125 21:0.13793103 22:0.71428573 23:0.047619049 24:0.06666667 
0.6818707872264003 1:2 2:1 3:9 4:22 5:0.5454545 6:2 7:3 8:0.04545456 9:0.40909094 10:0.13636363 11:0.40909094 12:6 13:0.17073171 14:1 15:0.5 16:60 17:0.21666664 18:0.28333336 19:0.21666664 20:0.28333336 21:0.19298245 22:0.66666669 23:0.2 24:0.25 
1 1:2 2:1 3:8 4:25 5:0.5 6:2 7:3 8:0.45454544 9:0.18181819 10:0.3181818 11:0.04545456 12:46 13:0.23404256 14:1 15:0.5 16:64 17:0.21875 18:0.265625 19:0.234375 20:0.28125 21:0.21311475 22:1.1666666 24:0.14285715 
1 3:5 4:24 5:0.6666666 6:1 7:2 8:0.2916667 9:0.4166667 10:0.25 11:0.041666687 12:14 13:0.086956523 14:4 15:0.56896555 16:58 17:0.18965518 18:0.2758621 19:0.29310346 20:0.24137932 21:0.11111111 22:0.75 23:0.23076923 24:0.25 
1 3:2 4:22 5:0.5454545 6:2 7:4 8:0.22727275 9:0.18181819 10:0.36363637 11:0.22727275 12:19 13:0.25581396 14:3 15:0.5 16:56 17:0.23214287 18:0.21428573 19:0.28571427 20:0.26785713 21:0.23404256 22:0.5714286 23:0.13333334 
0.8093309754163326 3:5 4:21 5:0.55 6:2 7:3 8:0.10000002 9:0.3 10:0.25 11:0.35000002 12:57 13:0.21951219 14:2 15:0.51666665 16:60 17:0.21666664 18:0.21666664 19:0.3 20:0.26666665 21:0.21568628 22:0.85714287 23:0.15384616 24:0.2 
1 1:1 2:1 3:8 4:22 5:0.45454544 6:2 7:3 8:0.3181818 9:0.18181819 10:0.27272725 11:0.22727275 12:15 13:0.20930232 14:4 15:0.44444442 16:63 17:0.22222221 18:0.17460316 19:0.26984125 20:0.3333333 21:0.20689656 22:1.125 23:0.2857143 24:0.2 
1 1:1 2:1 3:9 4:23 5:0.5 6:2 7:4 8:0.18181819 9:0.27272725 10:0.22727275 11:0.3181818 12:58 13:0.2 14:4 15:0.46268654 16:67 17:0.20895523 18:0.19402987 19:0.26865673 20:0.32835823 21:0.22580644 22:1.4285715 23:0.25 24:0.29411766 
1 4:26 5:0.73913044 6:2 7:3 8:0.0869565 9:0.39130437 10:0.34782606 11:0.17391306 12:14 13:0.14285715 14:1 15:0.7307692 16:52 17:0.11538464 18:0.40384614 19:0.32692307 20:0.15384614 21:0.14285715 22:0.875 23:0.30769232 
1 1:1 2:1 3:6 4:19 5:0.7368421 6:2 7:2 8:0.15789473 9:0.31578946 10:0.42105263 11:0.10526317 12:46 13:0.085714288 14:3 15:0.74 16:50 17:0.10000002 18:0.39999998 19:0.33999997 20:0.16000003 21:0.10638298 22:1.2 23:0.35714287 24:0.16666667 
1 4:23 5:0.40909094 6:2 7:3 8:0.22727275 9:0.18181819 10:0.22727275 11:0.36363637 12:14 13:0.15555556 14:3 15:0.41071427 16:56 17:0.28571427 18:0.1785714 19:0.23214287 20:0.3035714 21:0.15555556 22:1 23:0.15384616 
0.9450124444536452 4:22 5:0.6363636 6:1 7:3 8:0.18181819 9:0.5 10:0.13636363 11:0.18181819 12:22 13:0.13636364 14:4 15:0.625 16:56 17:0.1785714 18:0.3214286 19:0.3035714 20:0.1964286 21:0.13636364 22:1.1111112 23:0.14285715 
1 1:2 2:1 3:10 4:23 5:0.45454544 6:1 7:1 8:0.36363637 9:0.18181819 10:0.27272725 11:0.18181819 12:6 13:0.022222223 14:2 15:0.5230769 16:65 17:0.19999999 18:0.23076922 19:0.29230767 20:0.27692306 21:0.081967212 22:0.8888889 24:0.25 
1 1:2 2:2 3:12 4:22 5:0.45454544 6:1 7:1 8:0.13636363 9:0.22727275 10:0.22727275 11:0.40909094 12:50 13:0.023255814 14:3 15:0.53731346 16:67 17:0.19402987 18:0.23880595 19:0.29850745 20:0.26865673 21:0.079365082 22:1.125 24:0.2 
1 1:1 2:1 3:7 4:24 5:0.5652174 6:1 7:3 8:0.13043481 9:0.34782606 10:0.21739131 11:0.3043478 12:54 13:0.13636364 14:2 15:0.609375 16:64 17:0.15625 18:0.328125 19:0.28125 20:0.234375 21:0.15789473 22:0.85714287 23:0.13043478 24:0.23076923 
1 1:2 2:1 3:5 4:25 5:0.5454545 6:2 7:3 8:0.18181819 9:0.18181819 10:0.36363637 11:0.27272725 12:2 13:0.24444444 14:2 15:0.62068963 16:58 17:0.18965518 18:0.31034482 19:0.31034482 20:0.18965518 21:0.25925925 22:0.30000001 24:0.33333334 
1 3:5 4:22 5:0.5454545 6:1 7:1 8:0.40909094 9:0.13636363 10:0.40909094 11:0.04545456 12:7 13:0.045454547 14:4 15:0.4736842 16:57 17:0.2631579 18:0.19298244 19:0.28070176 20:0.2631579 21:0.16981132 22:1.1111112 24:0.77777779 
1 1:4 2:1 3:7 4:25 5:0.48000002 6:1 7:1 8:0.07999998 9:0.27999997 10:0.19999999 11:0.44 12:44 13:0.039999999 14:3 15:0.49253732 16:67 17:0.25373137 18:0.20895523 19:0.2835821 20:0.25373137 21:0.14285715 22:0.90909094 24:0.53846157 
1 1:1 2:2 3:13 4:24 5:0.8 6:3 7:4 8:0.10000002 9:0.3 10:0.5 11:0.10000002 12:2 13:0.18181819 14:4 15:0.6438356 16:73 17:0.15068495 18:0.260274 19:0.38356167 20:0.20547944 21:0.14705883 22:1.3333334 24:0.083333336 
1 3:2 4:24 5:0.4583333 6:3 7:3 8:0.20833331 9:0.25 10:0.20833331 11:0.3333333 12:4 13:0.11627907 14:2 15:0.5283019 16:53 17:0.20754719 18:0.24528301 19:0.2830189 20:0.26415092 21:0.10638298 22:1.4 
1 3:2 4:28 5:0.5217391 6:3 7:3 8:0.26086956 9:0.3043478 10:0.21739131 11:0.21739131 12:38 13:0.12 14:3 15:0.56666666 16:60 17:0.19999999 18:0.26666665 19:0.3 20:0.23333335 21:0.11111111 22:0.55555558 
1 1:1 2:1 3:5 4:23 5:0.5454545 6:3 7:2 8:0.18181819 9:0.22727275 10:0.3181818 11:0.27272725 12:10 13:0.2 14:4 15:0.5423729 16:59 17:0.20338982 18:0.23728812 19:0.30508476 20:0.2542373 21:0.22222222 22:0.80000001 23:0.11111111 24:0.33333334 
1 3:4 4:25 5:0.6363636 6:3 7:5 8:0.090909064 9:0.22727275 10:0.40909094 11:0.27272725 12:3 13:0.22727273 14:3 15:0.6507937 16:63 17:0.12698412 18:0.30158728 19:0.34920633 20:0.22222221 21:0.1923077 22:0.25 
1 1:1 2:1 3:5 4:23 5:0.34782606 6:2 7:4 8:0.3043478 9:0.13043481 10:0.21739131 11:0.34782606 12:43 13:0.2 14:2 15:0.4915254 16:59 17:0.2542373 18:0.220339 19:0.2711864 20:0.2542373 21:0.18518518 22:1.1666666 24:0.11111111 
1 3:4 4:23 5:0.7826087 6:2 7:3 8:0.17391306 9:0.34782606 10:0.43478262 11:0.04347825 12:4 13:0.13636364 14:2 15:0.78947365 16:57 17:0.12280703 18:0.35087717 19:0.4385965 20:0.08771932 21:0.21568628 22:0.8888889 23:0.14285715 24:0.71428573 
1 1:1 2:1 3:7 4:22 5:0.5454545 6:3 7:2 8:0.27272725 9:0.13636363 10:0.40909094 11:0.18181819 12:1 13:0.12820514 14:1 15:0.5087719 16:57 17:0.2280702 18:0.2280702 19:0.28070176 20:0.2631579 21:0.13207547 22:4.5 24:0.14285715 
0.1354086645723752 1:1 2:1 3:6 4:26 5:0.47619045 6:3 7:2 8:0.19047618 9:0.3333333 10:0.14285713 11:0.3333333 12:40 13:0.18181819 14:2 15:0.48333335 16:60 17:0.23333335 18:0.21666664 19:0.26666665 20:0.28333336 21:0.17857143 22:2.5 24:0.16666667 
1 1:2 2:1 3:9 4:28 5:0.6363636 6:6 7:2 8:0.22727275 9:0.40909094 10:0.22727275 11:0.13636363 12:1 13:0.2 15:0.6056338 16:71 17:0.1690141 18:0.28169012 19:0.32394367 20:0.22535211 21:0.20588236 22:3 24:0.22222222 
1 1:2 2:1 3:9 4:21 5:0.57142854 6:6 7:2 8:0.19047618 9:0.19047618 10:0.38095236 11:0.23809522 12:44 13:0.27777779 14:2 15:0.5964912 16:57 17:0.17543858 18:0.28070176 19:0.31578946 20:0.2280702 21:0.25925925 22:0.60000002 24:0.22222222 
1 3:5 4:20 5:0.55 6:1 7:2 8:0.10000002 9:0.25 10:0.3 11:0.35000002 12:10 13:0.07692308 14:1 15:0.46666664 16:60 17:0.23333335 18:0.21666664 19:0.25 20:0.3 21:0.06122449 22:1 23:0.25 
1 3:5 4:21 5:0.55 6:1 7:2 8:0.3 9:0.19999999 10:0.35000002 11:0.14999998 12:51 13:0.073170729 14:4 15:0.4516129 16:62 17:0.24193549 18:0.2096774 19:0.24193549 20:0.30645162 21:0.05882353 22:1 23:0.2857143 
1 1:1 2:1 3:7 4:23 5:0.40909094 6:2 7:2 8:0.22727275 9:0.090909064 10:0.3181818 11:0.36363637 12:41 13:0.25581396 14:3 15:0.4745763 16:59 17:0.20338982 18:0.23728812 19:0.23728812 20:0.32203388 21:0.25 24:0.23076923 
1 1:2 2:1 3:5 4:22 5:0.5454545 6:2 7:3 8:0.22727275 9:0.3181818 10:0.22727275 11:0.22727275 12:4 13:0.18181819 14:1 15:0.559322 16:59 17:0.20338982 18:0.30508476 19:0.2542373 20:0.23728812 21:0.20754717 22:1.2857143 24:0.33333334 
1 1:1 2:1 3:7 4:23 5:0.6818182 6:3 7:5 8:0.27272725 9:0.45454544 10:0.22727275 11:0.04545456 12:2 13:0.31707317 14:1 15:0.6166667 16:60 17:0.21666664 18:0.35000002 19:0.26666665 20:0.16666669 21:0.27272728 22:1 24:0.14285715 
1 1:1 2:1 3:4 4:24 5:0.40909094 6:2 7:3 8:0.22727275 9:0.22727275 10:0.18181819 11:0.36363637 12:41 13:0.2 14:4 15:0.44067794 16:59 17:0.23728812 18:0.20338982 19:0.23728812 20:0.32203388 21:0.20754717 22:2 24:0.25 
1 3:2 4:22 5:0.5454545 6:1 7:2 8:0.27272725 9:0.18181819 10:0.36363637 11:0.18181819 12:47 13:0.090909094 14:2 15:0.51724136 16:58 17:0.18965518 18:0.2241379 19:0.29310346 20:0.29310346 21:0.083333336 22:0.63636363 23:0.14285715 
1 3:4 4:24 5:0.72727275 6:1 7:4 8:0.18181819 9:0.45454544 10:0.27272725 11:0.090909064 12:8 13:0.22727273 14:2 15:0.6721312 16:61 17:0.14754099 18:0.32786888 19:0.3442623 20:0.18032789 21:0.1923077 22:3.6666667 23:0.14285715 
0.9986617627595534 3:2 4:23 5:0.43478262 6:2 7:3 8:0.17391306 9:0.17391306 10:0.26086956 11:0.39130437 12:48 13:0.17391305 14:3 15:0.39344263 16:61 17:0.26229507 18:0.18032789 19:0.21311474 20:0.3442623 21:0.16 22:2.25 23:0.22222222 
1 4:24 5:0.4166667 6:1 7:2 8:0.2916667 9:0.20833331 10:0.20833331 11:0.2916667 12:6 13:0.16666667 14:4 15:0.4423077 16:52 17:0.28846157 18:0.19230771 19:0.25 20:0.26923078 21:0.16666667 22:0.83333331 
1 1:1 2:1 3:5 4:20 5:0.45 6:2 7:2 8:0.25 9:0.14999998 10:0.3 11:0.3 12:39 13:0.15000001 14:1 15:0.4259259 16:54 17:0.2962963 18:0.1851852 19:0.24074072 20:0.2777778 21:0.16 22:2.25 24:0.2 
0.6205982100944956 1:2 2:1 3:8 4:22 5:0.40909094 6:1 7:2 8:0.18181819 9:0.04545456 10:0.36363637 11:0.40909094 12:40 13:0.14285715 14:3 15:0.42622954 16:61 17:0.26229507 18:0.22950822 19:0.19672132 20:0.3114754 21:0.14285715 22:2.25 24:0.14285715 
1 3:2 4:24 5:0.47826087 6:2 7:4 8:0.3043478 9:0.21739131 10:0.26086956 11:0.21739131 12:43 13:0.2173913 14:2 15:0.5409836 16:61 17:0.21311474 18:0.24590164 19:0.29508197 20:0.24590164 21:0.2 22:1.6 23:0.25 
1 1:3 2:1 3:7 4:21 5:0.57142854 6:1 7:2 8:0.28571427 9:0.23809522 10:0.3333333 11:0.14285713 12:43 13:0.095238097 14:4 15:0.48333335 16:60 17:0.21666664 18:0.25 19:0.23333335 20:0.3 21:0.16363636 22:0.63636363 24:0.38461539 
1 4:23 5:0.6818182 6:2 7:3 8:0.18181819 9:0.27272725 10:0.40909094 11:0.13636363 12:6 13:0.24444444 14:3 15:0.66071427 16:56 17:0.14285713 18:0.26785713 19:0.39285713 20:0.1964286 21:0.24444444 22:1 
1 1:1 2:1 3:5 4:23 5:0.5217391 6:2 7:3 8:0.3043478 9:0.0869565 10:0.43478262 11:0.17391306 12:5 13:0.15555556 14:3 15:0.49206346 16:63 17:0.22222221 18:0.2063492 19:0.28571427 20:0.28571427 21:0.16363636 22:0.90909094 23:0.25 24:0.2 
1 1:1 2:1 3:7 4:23 5:0.5454545 6:2 7:3 8:0.13636363 9:0.3181818 10:0.22727275 11:0.3181818 12:48 13:0.2 14:3 15:0.47761196 16:67 17:0.23880595 18:0.19402987 19:0.2835821 20:0.2835821 21:0.18644068 22:1.4285715 24:0.14285715 
1 1:1 2:1 3:8 4:21 5:0.6666666 6:1 7:2 8:0.09523809 9:0.38095236 10:0.28571427 11:0.23809522 12:4 13:0.21951219 14:3 15:0.73333335 16:60 17:0.11666667 18:0.28333336 19:0.45 20:0.14999998 21:0.2 22:3.6666667 24:0.14285715 
0.7372139334718514 1:1 2:1 3:9 4:21 5:0.85 6:1 7:2 8:0.050000012 9:0.19999999 10:0.65 11:0.10000002 12:45 13:0.17073171 14:1 15:0.7258065 16:62 17:0.11290324 18:0.27419353 19:0.4516129 20:0.16129035 21:0.19298245 22:0.60000002 24:0.25 
1 1:3 2:1 3:6 4:22 5:0.6363636 6:1 7:3 8:0.13636363 9:0.40909094 10:0.22727275 11:0.22727275 12:5 13:0.11627907 14:2 15:0.6666666 16:57 17:0.12280703 18:0.35087717 19:0.31578946 20:0.21052629 21:0.16981132 22:1 23:0.25 24:0.40000001 
1 1:3 2:1 3:8 4:23 5:0.6818182 6:1 7:4 8:0.090909064 9:0.36363637 10:0.3181818 11:0.22727275 12:43 13:0.15555556 14:2 15:0.6666666 16:63 17:0.12698412 18:0.36507934 19:0.30158728 20:0.2063492 21:0.18644068 22:1 24:0.2857143 
1 1:3 2:1 3:8 4:22 5:0.57142854 6:3 7:3 8:0.09523809 9:0.28571427 10:0.28571427 11:0.3333333 12:47 13:0.20930232 14:4 15:0.5409836 16:61 17:0.18032789 18:0.27868855 19:0.26229507 20:0.27868855 21:0.24137931 22:0.54545456 23:0.11111111 24:0.33333334 
1 3:1 4:24 5:0.45454544 6:2 7:3 8:0.090909064 9:0.3181818 10:0.13636363 11:0.45454544 12:3 13:0.13043478 14:1 15:0.4310345 16:58 17:0.2241379 18:0.18965518 19:0.24137932 20:0.3448276 21:0.125 22:0.80000001 
0.1816378052696117 3:3 4:24 5:0.3333333 6:2 7:3 8:0.5 9:0.041666687 10:0.2916667 11:0.16666669 12:39 13:0.2173913 14:3 15:0.41935486 16:62 17:0.2580645 18:0.19354838 19:0.22580647 20:0.32258064 21:0.1923077 22:2.5 
1 3:1 4:25 5:0.6666666 6:2 7:4 8:0.08333331 9:0.375 10:0.2916667 11:0.25 12:6 13:0.18367347 14:1 15:0.63793105 16:58 17:0.15517241 18:0.29310346 19:0.3448276 20:0.20689654 21:0.17647059 22:0.8888889 
0.1772081213425098 3:4 4:24 5:0.625 6:2 7:3 8:0.20833331 9:0.2916667 10:0.3333333 11:0.16666669 12:42 13:0.14893617 14:2 15:0.62903225 16:62 17:0.16129035 18:0.2903226 19:0.33870965 20:0.2096774 21:0.16363636 22:0.72727275 24:0.25 
1 3:3 4:24 5:0.5 6:3 7:4 8:0.3181818 9:0.27272725 10:0.22727275 11:0.18181819 12:7 13:0.26086956 14:3 15:0.4310345 16:58 17:0.29310346 18:0.2241379 19:0.20689654 20:0.2758621 21:0.23076923 22:5 23:0.16666667 
1 3:2 4:22 5:0.5909091 6:2 7:3 8:0.090909064 9:0.22727275 10:0.36363637 11:0.3181818 12:6 13:0.18181819 14:2 15:0.57142854 16:56 17:0.14285713 18:0.23214287 19:0.33928573 20:0.28571427 21:0.20833333 22:1.25 23:0.11111111 24:0.5 
0.134304670771868 3:3 4:24 5:0.47826087 6:2 7:2 8:0.34782606 9:0.34782606 10:0.13043481 11:0.17391306 12:18 13:0.14893617 14:4 15:0.38983053 16:59 17:0.2711864 18:0.1864407 19:0.20338982 20:0.33898306 21:0.20754717 22:0.69999999 23:0.23529412 24:0.66666669 
1 1:2 2:2 3:9 4:23 5:0.6363636 6:1 7:3 8:0.090909064 9:0.5909091 10:0.04545456 11:0.27272725 12:45 13:0.13636364 14:4 15:0.57575756 16:66 17:0.18181819 18:0.24242425 19:0.3333333 20:0.24242425 21:0.19354838 22:1.4285715 24:0.33333334 
1 1:1 2:2 3:9 4:22 5:0.5 6:1 7:2 8:0.3181818 9:0.13636363 10:0.36363637 11:0.18181819 12:9 13:0.069767445 14:1 15:0.546875 16:64 17:0.203125 18:0.203125 19:0.34375 20:0.25 21:0.1 22:0.69999999 23:0.05882353 24:0.17647059 
1 1:1 2:2 3:11 4:23 5:0.5 6:1 7:3 8:0.13636363 9:0.3181818 10:0.18181819 11:0.36363637 12:54 13:0.090909094 14:2 15:0.5362319 16:69 17:0.20289856 18:0.18840581 19:0.34782606 20:0.26086956 21:0.10769231 22:1.6666666 24:0.14285715 
1 1:2 2:1 3:7 4:21 5:0.61904764 6:1 7:3 8:0.19047618 9:0.3333333 10:0.28571427 11:0.19047618 12:10 13:0.19047619 14:1 15:0.6034483 16:58 17:0.18965518 18:0.3448276 19:0.25862068 20:0.20689654 21:0.18518518 22:1.4285715 23:0.11111111 24:0.16666667 
0.6413530021802283 1:2 2:1 3:7 4:21 5:0.61904764 6:1 7:3 8:0.14285713 9:0.38095236 10:0.23809522 11:0.23809522 12:47 13:0.19047619 14:1 15:0.6034483 16:58 17:0.18965518 18:0.3448276 19:0.25862068 20:0.20689654 21:0.18518518 22:0.69999999 23:0.11111111 24:0.16666667 
1 4:22 5:0.5 6:1 7:3 8:0.13636363 9:0.3181818 10:0.18181819 11:0.36363637 12:18 13:0.13636364 14:4 15:0.39999998 16:55 17:0.19999999 18:0.19999999 19:0.19999999 20:0.39999998 21:0.13636364 22:1.2222222 23:0.2 
0.3545613241243212 1:1 2:1 3:7 4:24 5:0.5 6:2 7:2 8:0.2916667 9:0.25 10:0.25 11:0.20833331 12:15 13:0.15555556 14:1 15:0.55737704 16:61 17:0.22950822 18:0.27868855 19:0.27868855 20:0.21311474 21:0.19298245 22:0.5 23:0.35714287 24:0.33333334 
1 1:2 2:2 3:9 4:20 5:0.6666666 6:2 7:2 8:0.055555582 9:0.3333333 10:0.3333333 11:0.2777778 12:57 13:0.10526316 14:2 15:0.56896555 16:58 17:0.20689654 18:0.2758621 19:0.29310346 20:0.2241379 21:0.14814815 22:1 23:0.41935483 24:0.25 
1 3:2 4:21 5:0.4285714 6:3 7:2 8:0.38095236 9:0.23809522 10:0.19047618 11:0.19047618 12:12 13:0.23809524 14:4 15:0.4814815 16:54 17:0.25925928 18:0.22222221 19:0.25925928 20:0.25925928 21:0.2173913 22:1.1428572 23:0.090909094 
1 3:3 4:22 5:0.5 6:3 7:2 8:0.090909064 9:0.22727275 10:0.27272725 11:0.40909094 12:46 13:0.27272728 14:2 15:0.44827586 16:58 17:0.25862068 18:0.20689654 19:0.24137932 20:0.29310346 21:0.23999999 22:1.4 
1 1:1 2:1 3:5 4:24 5:0.6363636 6:2 7:4 8:0.04545456 9:0.27272725 10:0.36363637 11:0.3181818 12:7 13:0.2173913 14:3 15:0.6 16:60 17:0.11666667 18:0.25 19:0.35000002 20:0.28333336 21:0.25 22:1.6666666 23:0.16666667 24:0.40000001 
0.63635816407888 1:2 2:2 3:8 4:24 5:0.6666666 6:2 7:3 8:0.20833331 9:0.25 10:0.4166667 11:0.125 12:46 13:0.19148937 14:3 15:0.5909091 16:66 17:0.13636363 18:0.25757575 19:0.3333333 20:0.27272725 21:0.25806451 22:1 24:0.46666667 
1 4:22 5:0.40909094 6:1 7:2 8:0.3181818 9:0.18181819 10:0.22727275 11:0.27272725 12:6 13:0.090909094 14:3 15:0.38181818 16:55 17:0.2909091 18:0.18181819 19:0.19999999 20:0.3272727 21:0.090909094 22:0.66666669 
1 3:2 4:22 5:0.36363637 6:1 7:2 8:0.27272725 9:0.13636363 10:0.22727275 11:0.36363637 12:41 13:0.090909094 14:3 15:0.37288135 16:59 17:0.2881356 18:0.16949153 19:0.20338982 20:0.33898306 21:0.083333336 22:1.125 
1 3:5 4:24 5:0.5909091 6:1 7:3 8:0.090909064 9:0.22727275 10:0.36363637 11:0.3181818 12:9 13:0.13043478 14:4 15:0.5333333 16:60 17:0.23333335 18:0.23333335 19:0.3 20:0.23333335 21:0.14814815 22:0.80000001 24:0.25 
0.4260431150553077 1:1 2:1 3:9 4:22 5:0.5909091 6:1 7:2 8:0.18181819 9:0.3181818 10:0.27272725 11:0.22727275 12:44 13:0.18181819 14:4 15:0.5692308 16:65 17:0.18461537 18:0.27692306 19:0.29230767 20:0.24615383 21:0.18032786 22:0.625 24:0.17647059 
1 1:2 2:1 3:6 4:23 5:0.43478262 6:2 7:2 8:0.21739131 9:0.26086956 10:0.17391306 11:0.34782606 12:6 13:0.20930232 14:2 15:0.48214287 16:56 17:0.23214287 18:0.23214287 19:0.25 20:0.28571427 21:0.20754717 22:0.2857143 23:0.2 24:0.2 
1 1:2 2:1 3:7 4:24 5:0.47619045 6:4 7:3 8:0.28571427 9:0.23809522 10:0.23809522 11:0.23809522 12:43 13:0.24444444 14:2 15:0.5 16:60 17:0.21666664 18:0.25 19:0.25 20:0.28333336 21:0.22807017 22:2.3333333 24:0.16666667 
1 1:2 2:4 3:21 4:21 5:0.6666666 6:2 7:3 8:0.14285713 9:0.38095236 10:0.28571427 11:0.19047618 12:3 13:0.17948718 14:4 15:0.67073166 16:82 17:0.19512194 18:0.31707317 19:0.35365856 20:0.13414633 21:0.18987341 22:0.60000002 24:0.2 
0.2059187674680121 1:2 2:1 3:7 4:23 5:0.6086956 6:1 7:4 8:0.21739131 9:0.21739131 10:0.39130437 11:0.17391306 12:53 13:0.15555556 14:2 15:0.6557377 16:61 17:0.21311474 18:0.29508197 19:0.36065573 20:0.13114756 21:0.1724138 22:1 23:0.2 24:0.23076923 
1 3:4 4:25 5:0.4583333 6:1 7:5 8:0.20833331 9:0.20833331 10:0.25 11:0.3333333 12:40 13:0.24444444 14:3 15:0.48275864 16:58 17:0.29310346 18:0.24137932 19:0.24137932 20:0.2241379 21:0.20754717 22:1.6 
1 3:2 4:26 5:0.43478262 6:3 7:4 8:0.34782606 9:0.13043481 10:0.3043478 11:0.21739131 12:3 13:0.19148937 14:2 15:0.5 16:62 17:0.2580645 18:0.2903226 19:0.2096774 20:0.24193549 21:0.17647059 22:0.33333334 
1 1:2 2:2 3:9 4:21 5:0.6666666 6:1 7:4 8:0.14285713 9:0.28571427 10:0.38095236 11:0.19047618 12:45 13:0.15000001 14:1 15:0.6885246 16:61 17:0.081967235 18:0.32786888 19:0.36065573 20:0.22950822 21:0.22807017 22:0.72727275 24:0.41176471 
0.5504118279391254 1:3 2:2 3:9 4:22 5:0.6666666 6:2 7:3 8:0.19047618 9:0.38095236 10:0.28571427 11:0.14285713 12:5 13:0.19047619 14:2 15:0.6612903 16:62 17:0.12903225 18:0.33870965 19:0.32258064 20:0.2096774 21:0.24137931 22:0.90909094 23:0.25 24:0.375 
1 1:3 2:2 3:11 4:23 5:0.5909091 6:2 7:4 8:0.13636363 9:0.3181818 10:0.27272725 11:0.27272725 12:48 13:0.22727273 14:2 15:0.66176474 16:68 17:0.11764705 18:0.33823532 19:0.32352942 20:0.2205882 21:0.25 22:1.375 24:0.30000001 
1 3:7 4:24 5:0.4583333 6:1 7:1 8:0.16666669 9:0.25 10:0.20833331 11:0.375 12:7 13:0.17391305 14:4 15:0.52380955 16:63 17:0.22222221 18:0.22222221 19:0.30158728 20:0.25396824 21:0.20689656 24:0.33333334 
1 1:1 2:1 3:6 4:22 5:0.45454544 6:2 7:3 8:0.3181818 9:0.13636363 10:0.3181818 11:0.22727275 12:26 13:0.20930232 14:4 15:0.46551722 16:58 17:0.24137932 18:0.15517241 19:0.31034482 20:0.29310346 21:0.18518518 22:0.69999999 23:0.36363637 24:0.090909094 
1 1:1 2:1 3:7 4:23 5:0.5 6:2 7:4 8:0.18181819 9:0.27272725 10:0.22727275 11:0.3181818 12:64 13:0.24444444 14:4 15:0.4677419 16:62 17:0.22580647 18:0.16129035 19:0.30645162 20:0.30645162 21:0.20689656 22:2 23:0.34999999 24:0.07692308 
1 4:24 5:0.625 6:2 7:1 8:0.08333331 9:0.4166667 10:0.20833331 11:0.2916667 12:7 13:0.125 14:4 15:0.6140351 16:57 17:0.15789473 18:0.28070176 19:0.3333333 20:0.2280702 21:0.086956523 22:0.8888889 
1 3:2 4:24 5:0.625 6:2 7:1 8:0.2916667 9:0.16666669 10:0.4583333 11:0.08333331 12:43 13:0.083333336 14:3 15:0.61904764 16:63 17:0.15873015 18:0.28571427 19:0.3333333 20:0.22222221 21:0.07692308 22:1.1 
1 3:6 4:22 5:0.5 6:2 7:2 8:0.40909094 9:0.13636363 10:0.36363637 11:0.090909064 12:3 13:0.13636364 14:2 15:0.37288135 16:59 17:0.2881356 18:0.16949153 19:0.20338982 20:0.33898306 21:0.12727273 22:0.89999998 24:0.090909094 
1 4:23 5:0.6086956 6:1 7:3 8:0.17391306 9:0.26086956 10:0.34782606 11:0.21739131 12:3 13:0.11111111 14:2 15:0.6333333 16:60 17:0.19999999 18:0.3 19:0.3333333 20:0.16666669 21:0.11111111 22:0.80000001 
1 3:1 4:23 5:0.6818182 6:1 7:3 8:0.18181819 9:0.36363637 10:0.3181818 11:0.13636363 12:42 13:0.11111111 14:1 15:0.6451613 16:62 17:0.19354838 18:0.30645162 19:0.33870965 20:0.16129035 21:0.10638298 22:1.2222222 
1 1:1 2:1 3:5 4:27 5:0.5909091 6:3 7:4 8:0.27272725 9:0.36363637 10:0.22727275 11:0.13636363 12:53 13:0.16666667 14:2 15:0.63235295 16:68 17:0.17647058 18:0.35294116 19:0.2794118 20:0.19117647 21:0.1724138 22:1.1666666 24:0.2 
1 3:3 4:25 5:0.5 6:2 7:3 8:0.16666669 9:0.125 10:0.375 11:0.3333333 12:6 13:0.14893617 14:2 15:0.4736842 16:57 17:0.24561405 18:0.2280702 19:0.24561405 20:0.28070176 21:0.16981132 22:0.55555558 23:0.090909094 24:0.33333334 
1 1:1 2:1 3:5 4:24 5:0.5 6:2 7:4 8:0.22727275 9:0.36363637 10:0.13636363 11:0.27272725 12:42 13:0.15555556 14:4 15:0.4915254 16:59 17:0.23728812 18:0.23728812 19:0.2542373 20:0.2711864 21:0.16363636 22:1.6666666 23:0.11111111 24:0.2 
1 3:3 4:25 5:0.5 6:2 7:3 8:0.08333331 9:0.25 10:0.25 11:0.4166667 12:4 13:0.125 14:1 15:0.530303 16:66 17:0.18181819 18:0.22727275 19:0.3030303 20:0.2878788 21:0.11111111 22:0.89999998 
1 3:5 4:22 5:0.45454544 6:2 7:2 8:0.36363637 9:0.13636363 10:0.3181818 11:0.18181819 12:3 13:0.14285715 14:1 15:0.4745763 16:59 17:0.2542373 18:0.220339 19:0.2542373 20:0.2711864 21:0.16 22:1.125 24:0.25 
1 3:3 4:23 5:0.45454544 6:2 7:3 8:0.3181818 9:0.27272725 10:0.18181819 11:0.22727275 12:15 13:0.15555556 14:3 15:0.40350878 16:57 17:0.35087717 18:0.2280702 19:0.17543858 20:0.24561405 21:0.17647059 22:2.2 23:0.24137931 24:0.33333334 
1 1:1 2:1 3:4 4:22 5:0.5909091 6:1 7:1 8:0.090909064 9:0.090909064 10:0.5 11:0.3181818 12:59 13:0.023255814 14:4 15:0.64406776 16:59 17:0.13559324 18:0.2711864 19:0.37288135 20:0.220339 21:0.05882353 22:0.89999998 23:0.25581396 24:0.25 
1 3:4 4:22 5:0.6363636 6:2 7:2 9:0.18181819 10:0.45454544 11:0.36363637 12:3 13:0.27272728 14:3 15:0.56896555 16:58 17:0.13793105 18:0.24137932 19:0.32758623 20:0.29310346 21:0.30769232 22:1.6 24:0.5 
0.4583963447034651 1:1 2:1 3:7 4:23 5:0.5652174 6:2 7:2 8:0.0869565 9:0.26086956 10:0.3043478 11:0.34782606 12:9 13:0.095238097 14:4 15:0.52542377 16:59 17:0.1864407 18:0.220339 19:0.30508476 20:0.2881356 21:0.090909094 22:0.45454547 24:0.07692308 
1 1:1 2:1 3:7 4:25 5:0.57142854 6:2 7:2 8:0.23809522 9:0.28571427 10:0.28571427 11:0.19047618 12:49 13:0.086956523 14:4 15:0.49206346 16:63 17:0.2063492 18:0.2063492 19:0.28571427 20:0.30158728 21:0.084745765 22:1.2222222 24:0.07692308 
1 3:2 4:22 5:0.47619045 6:1 7:3 8:0.09523809 9:0.14285713 10:0.3333333 11:0.4285714 12:4 13:0.11627907 14:4 15:0.58928573 16:56 17:0.14285713 18:0.28571427 19:0.3035714 20:0.26785713 21:0.10638298 22:1 
1 4:22 5:0.4285714 6:2 7:2 8:0.19047618 9:0.14285713 10:0.28571427 11:0.38095236 12:23 13:0.11627907 14:2 15:0.45454544 16:55 17:0.27272725 18:0.19999999 19:0.25454545 20:0.27272725 21:0.11627907 22:1.1111112 23:0.44186047 
0.734834713597048 3:2 4:22 5:0.5454545 6:2 7:2 8:0.27272725 9:0.40909094 10:0.13636363 11:0.18181819 12:58 13:0.11627907 14:4 15:0.4745763 16:59 17:0.2542373 18:0.20338982 19:0.2711864 20:0.2711864 21:0.10638298 22:1.1 23:0.48717949 
1 3:4 4:21 5:0.52380955 6:2 7:2 8:0.3333333 9:0.19047618 10:0.3333333 11:0.14285713 12:37 13:0.19047619 14:4 15:0.5090909 16:55 17:0.23636365 18:0.23636365 19:0.27272725 20:0.25454545 21:0.16 22:0.625 
1 3:6 4:20 5:0.5 6:2 7:2 8:0.25 9:0.3 10:0.19999999 11:0.25 12:7 13:0.2 14:3 15:0.39999998 16:55 17:0.27272725 18:0.21818179 19:0.18181819 20:0.3272727 21:0.25490198 22:0.69999999 23:0.23076923 24:0.45454547 
1 1:3 2:1 3:8 4:22 5:0.40909094 6:2 7:4 8:0.27272725 9:0.18181819 10:0.22727275 11:0.3181818 12:44 13:0.25581396 14:3 15:0.41935486 16:62 17:0.2580645 18:0.2096774 19:0.2096774 20:0.32258064 21:0.27586207 22:2 24:0.33333334 
1 1:1 2:1 3:4 4:23 5:0.6086956 6:2 7:3 8:0.0869565 9:0.21739131 10:0.39130437 11:0.3043478 12:15 13:0.18181819 14:2 15:0.55172414 16:58 17:0.17241377 18:0.24137932 19:0.31034482 20:0.2758621 21:0.17647059 22:1.1428572 23:0.14285715 24:0.14285715 
1 3:2 4:23 5:0.45454544 6:3 7:4 8:0.3181818 9:0.22727275 10:0.22727275 11:0.22727275 12:14 13:0.22727273 14:3 15:0.44067794 16:59 17:0.2711864 18:0.220339 19:0.220339 20:0.2881356 21:0.20833333 22:1.4 23:0.2857143 
1 3:3 4:24 5:0.47826087 6:3 7:4 8:0.21739131 9:0.26086956 10:0.21739131 11:0.3043478 12:52 13:0.30434781 14:2 15:0.44444442 16:63 17:0.25396824 18:0.2063492 19:0.23809522 20:0.30158728 21:0.26923078 22:0.5 23:0.16666667 
1 1:1 2:2 3:5 4:23 5:0.6363636 6:4 7:4 8:0.18181819 9:0.3181818 10:0.3181818 11:0.18181819 12:15 13:0.27272728 14:3 15:0.56896555 16:58 17:0.17241377 18:0.25862068 19:0.31034482 20:0.25862068 21:0.28301886 22:0.80000001 23:0.14285715 24:0.33333334 
0.8808734797180158 1:1 2:2 3:6 4:24 5:0.5652174 6:4 7:4 8:0.21739131 9:0.21739131 10:0.34782606 11:0.21739131 12:52 13:0.30434781 14:3 15:0.5483871 16:62 17:0.19354838 18:0.24193549 19:0.30645162 20:0.2580645 21:0.29824561 22:2.25 23:0.083333336 24:0.27272728 
1 3:2 4:22 5:0.36363637 6:3 7:2 8:0.3181818 9:0.13636363 10:0.22727275 11:0.3181818 12:16 13:0.20930232 14:3 15:0.4528302 16:53 17:0.16981131 18:0.18867922 19:0.26415092 20:0.3773585 21:0.23404256 22:0.80000001 23:0.22580644 24:0.5 
1 1:1 2:1 3:4 4:23 5:0.40909094 6:1 7:3 8:0.27272725 9:0.3181818 10:0.090909064 11:0.3181818 12:31 13:0.15555556 14:2 15:0.4385965 16:57 17:0.21052629 18:0.21052629 19:0.2280702 20:0.35087717 21:0.16981132 22:0.55555558 23:0.32258064 24:0.25 
1 1:1 2:1 3:6 4:22 5:0.5 6:1 7:3 8:0.13636363 9:0.18181819 10:0.3181818 11:0.36363637 12:67 13:0.20930232 14:2 15:0.45762712 16:59 17:0.20338982 18:0.23728812 19:0.220339 20:0.33898306 21:0.2 22:2 23:0.30000001 24:0.16666667 
0.4399738956159442 1:2 2:1 3:6 4:24 5:0.4583333 6:3 7:3 8:0.125 9:0.08333331 10:0.375 11:0.4166667 12:58 13:0.17391305 14:2 15:0.52459013 16:61 17:0.18032789 18:0.19672132 19:0.32786888 20:0.29508197 21:0.20689656 22:1.1111112 23:0.2173913 24:0.33333334 
0.3099364885620607 1:2 2:1 3:6 4:22 5:0.5 6:2 7:2 8:0.27272725 9:0.22727275 10:0.27272725 11:0.22727275 12:14 13:0.14285715 14:2 15:0.4915254 16:59 17:0.220339 18:0.23728812 19:0.2542373 20:0.2881356 21:0.15384616 22:0.80000001 23:0.23076923 24:0.2 
1 3:11 4:22 5:0.5454545 6:2 7:4 8:0.18181819 9:0.22727275 10:0.3181818 11:0.27272725 12:15 13:0.22727273 14:3 15:0.52380955 16:63 17:0.23809522 18:0.25396824 19:0.26984125 20:0.23809522 21:0.28813559 22:0.69999999 23:0.21428572 24:0.46666667 
1 3:14 4:22 5:0.8181818 6:1 7:3 8:0.090909064 9:0.22727275 10:0.5909091 11:0.090909064 12:14 13:0.13636364 14:3 15:0.6 16:70 17:0.15714288 18:0.27142859 19:0.32857144 20:0.24285716 21:0.23809524 22:0.8888889 23:0.15384616 24:0.47368422 
1 1:9 2:1 3:16 4:22 5:0.6363636 6:1 7:3 8:0.18181819 9:0.45454544 10:0.18181819 11:0.18181819 12:64 13:0.13636364 14:2 15:0.5810811 16:74 17:0.16216218 18:0.25675678 19:0.3243243 20:0.25675678 21:0.2238806 22:1.5 23:0.18181819 24:0.39130434 
1 1:12 2:1 3:17 4:21 5:0.57142854 6:1 7:5 8:0.28571427 9:0.23809522 10:0.3333333 11:0.14285713 12:51 13:0.23809524 14:2 15:0.61764705 16:68 17:0.25 18:0.36764705 19:0.25 20:0.13235295 21:0.34375 22:0.77777779 24:0.54545456 
1 1:1 2:1 3:3 4:22 5:0.6363636 6:1 7:3 8:0.22727275 9:0.45454544 10:0.18181819 11:0.13636363 12:7 13:0.13636364 14:1 15:0.5925926 16:54 17:0.24074072 18:0.3333333 19:0.25925928 20:0.16666669 21:0.16 22:1 23:0.16666667 24:0.33333334 
1 1:1 2:1 3:5 4:22 5:0.5454545 6:1 7:3 8:0.22727275 9:0.22727275 10:0.3181818 11:0.22727275 12:41 13:0.18181819 14:2 15:0.56896555 16:58 17:0.25862068 18:0.32758623 19:0.24137932 20:0.17241377 21:0.18518518 22:1.2857143 24:0.2 
1 1:5 2:1 3:8 4:23 5:0.5909091 6:3 7:2 8:0.13636363 9:0.22727275 10:0.36363637 11:0.27272725 12:3 13:0.15555556 14:4 15:0.484375 16:64 17:0.234375 18:0.25 19:0.234375 20:0.28125 21:0.26666668 22:2.6666667 24:0.60000002 
1 3:7 4:22 5:0.36363637 6:3 7:1 8:0.40909094 9:0.22727275 10:0.13636363 11:0.22727275 12:43 13:0.1627907 14:4 15:0.46666664 16:60 17:0.25 18:0.25 19:0.21666664 20:0.28333336 21:0.2857143 22:0.71428573 24:0.69230771 
1 1:6 2:3 3:29 4:22 5:0.5909091 6:1 7:3 8:0.3181818 9:0.36363637 10:0.22727275 11:0.090909064 12:4 13:0.1627907 14:4 15:0.58762884 16:97 17:0.16494846 18:0.2886598 19:0.2989691 20:0.2474227 21:0.24731183 22:0.8888889 23:0.33333334 24:0.31999999 
1 1:6 2:4 3:31 4:23 5:0.5909091 6:2 7:4 8:0.04545456 9:0.22727275 10:0.36363637 11:0.36363637 12:82 13:0.2 14:4 15:0.592233 16:103 17:0.15533978 18:0.29126215 19:0.30097085 20:0.25242716 21:0.25252524 22:1.5 24:0.2962963 
1 4:23 5:0.5652174 6:2 7:2 8:0.26086956 9:0.21739131 10:0.34782606 11:0.17391306 12:10 13:0.13636364 14:3 15:0.5185185 16:54 17:0.25925928 18:0.2777778 19:0.24074072 20:0.22222221 21:0.13636364 22:0.89999998 
1 3:2 4:23 5:0.57142854 6:2 7:3 8:0.14285713 9:0.3333333 10:0.23809522 11:0.28571427 12:45 13:0.13636364 14:4 15:0.51724136 16:58 17:0.25862068 18:0.2758621 19:0.24137932 20:0.2241379 21:0.125 22:1 
1 1:1 2:1 3:8 4:24 5:0.6363636 6:1 7:4 8:0.04545456 9:0.3181818 10:0.3181818 11:0.3181818 12:5 13:0.18181819 14:3 15:0.625 16:64 17:0.203125 18:0.296875 19:0.328125 20:0.171875 21:0.15254237 22:2 23:0.27272728 24:0.06666667 
1 1:1 2:1 3:10 4:24 5:0.6666666 6:1 7:4 8:0.2916667 9:0.2916667 10:0.375 11:0.041666687 12:47 13:0.18181819 14:3 15:0.6212121 16:66 17:0.21212119 18:0.2878788 19:0.3333333 20:0.16666669 21:0.18032786 22:2 23:0.11111111 24:0.17647059 
1 1:1 2:1 3:5 4:24 5:0.5454545 6:2 7:3 8:0.27272725 9:0.18181819 10:0.36363637 11:0.18181819 12:43 13:0.17391305 14:1 15:0.5737705 16:61 17:0.21311474 18:0.29508197 19:0.27868855 20:0.21311474 21:0.16363636 22:0.63636363 24:0.11111111 
1 3:4 4:24 5:0.4583333 6:1 7:3 8:0.3333333 9:0.2916667 10:0.16666669 11:0.20833331 12:6 13:0.13043478 14:3 15:0.39999998 16:60 17:0.31666666 18:0.18333334 19:0.21666664 20:0.28333336 21:0.13207547 22:0.66666669 24:0.14285715 
1 1:1 2:4 3:18 4:12 5:0.16666669 6:1 7:1 8:0.3333333 9:0.08333331 10:0.08333331 11:0.5 12:56 13:0.083333336 14:3 15:0.421875 16:64 17:0.296875 18:0.1875 19:0.234375 20:0.28125 21:0.12280702 22:1.2857143 24:0.15151516 
1 4:24 5:0.47826087 6:2 7:2 8:0.17391306 9:0.0869565 10:0.39130437 11:0.34782606 12:13 13:0.15555556 14:4 15:0.4727273 16:55 17:0.23636365 18:0.21818179 19:0.25454545 20:0.2909091 21:0.15555556 22:0.44444445 23:0.090909094 
1 3:2 4:24 5:0.5 6:3 7:3 8:0.22727275 9:0.36363637 10:0.13636363 11:0.27272725 12:48 13:0.2 14:4 15:0.4745763 16:59 17:0.220339 18:0.220339 19:0.2542373 20:0.30508476 21:0.18367347 22:3.3333333 
1 3:2 4:22 5:0.72727275 6:2 7:3 8:0.090909064 9:0.27272725 10:0.45454544 11:0.18181819 12:8 13:0.1627907 14:1 15:0.67857146 16:56 17:0.1964286 18:0.375 19:0.3035714 20:0.125 21:0.17391305 22:0.625 23:0.14285715 24:0.33333334 
1 1:1 2:1 3:5 4:20 5:0.6 6:2 7:2 8:0.25 9:0.39999998 10:0.19999999 11:0.14999998 12:45 13:0.15000001 14:3 15:0.6551724 16:58 17:0.20689654 18:0.36206895 19:0.29310346 20:0.13793105 21:0.16666667 22:2 23:0.16666667 24:0.25 
1 3:3 4:23 5:0.47826087 6:1 7:2 8:0.13043481 9:0.34782606 10:0.13043481 11:0.39130437 12:4 13:0.086956523 15:0.48214287 16:56 17:0.1785714 18:0.23214287 19:0.25 20:0.33928573 21:0.15384616 22:0.63636363 24:0.66666669 
1 3:4 4:25 5:0.5909091 6:2 7:3 8:0.18181819 9:0.13636363 10:0.45454544 11:0.22727275 12:39 13:0.26086956 14:2 15:0.64406776 16:59 17:0.16949153 18:0.30508476 19:0.33898306 20:0.1864407 21:0.22222222 
1 3:3 4:26 5:0.5652174 6:3 7:4 8:0.17391306 9:0.3043478 10:0.26086956 11:0.26086956 12:4 13:0.22448979 14:1 15:0.55 16:60 17:0.19999999 18:0.3 19:0.25 20:0.25 21:0.2 22:1.6666666 
1 1:3 2:1 3:9 4:22 5:0.5909091 6:2 7:3 8:0.22727275 9:0.27272725 10:0.3181818 11:0.18181819 12:44 13:0.20930232 14:2 15:0.53125 16:64 17:0.21875 18:0.296875 19:0.234375 20:0.25 21:0.22033899 22:1.2857143 24:0.25 
1 3:3 4:23 5:0.5217391 6:2 7:1 8:0.21739131 9:0.17391306 10:0.34782606 11:0.26086956 12:10 13:0.1627907 14:3 15:0.51666665 16:60 17:0.21666664 18:0.26666665 19:0.25 20:0.26666665 21:0.14285715 22:3 23:0.22222222 
0.08738575629524389 3:6 4:21 5:0.57142854 6:2 7:1 8:0.14285713 9:0.3333333 10:0.23809522 11:0.28571427 12:50 13:0.14285715 14:4 15:0.53225803 16:62 17:0.2096774 18:0.2580645 19:0.27419353 20:0.2580645 21:0.17647059 22:1.5714285 23:0.125 24:0.33333334 
1 1:5 2:1 3:18 4:24 5:0.5454545 6:3 7:2 8:0.18181819 9:0.13636363 10:0.40909094 11:0.27272725 12:6 13:0.17391305 14:3 15:0.6375 16:80 17:0.125 18:0.28750002 19:0.35000002 20:0.23750001 21:0.18421052 22:1 23:0.40000001 24:0.2 
1 1:5 2:2 3:20 4:23 5:0.6521739 6:3 7:2 8:0.17391306 9:0.34782606 10:0.3043478 11:0.17391306 12:64 13:0.22727273 14:3 15:0.63414633 16:82 17:0.12195122 18:0.28048778 19:0.35365856 20:0.24390244 21:0.20512821 22:1.6666666 23:0.25 24:0.17647059 
0.05713615786563627 1:2 2:1 3:6 4:23 5:0.45454544 6:2 7:3 8:0.3181818 9:0.13636363 10:0.3181818 11:0.22727275 12:42 13:0.15555556 14:2 15:0.44262296 16:61 17:0.21311474 18:0.19672132 19:0.24590164 20:0.3442623 21:0.16363636 22:1.125 24:0.2 
0.8413681723104469 1:1 2:2 3:8 4:23 5:0.5652174 6:4 7:2 8:0.26086956 9:0.26086956 10:0.3043478 11:0.17391306 12:6 13:0.19047619 14:2 15:0.5409836 16:61 17:0.24590164 18:0.24590164 19:0.29508197 20:0.21311474 21:0.19298245 22:0.90909094 23:0.55555558 24:0.2 
1 1:1 2:2 3:8 4:26 5:0.52380955 6:4 7:2 8:0.28571427 9:0.23809522 10:0.28571427 11:0.19047618 12:48 13:0.27659574 14:2 15:0.530303 16:66 17:0.25757575 18:0.25757575 19:0.27272725 20:0.21212119 21:0.25806451 22:5.5 24:0.2 
1 4:24 5:0.5 6:1 7:3 8:0.22727275 9:0.36363637 10:0.13636363 11:0.27272725 12:14 13:0.17391305 14:2 15:0.375 16:56 17:0.3214286 18:0.1785714 19:0.1964286 20:0.3035714 21:0.17391305 22:0.66666669 23:0.1724138 
1 3:2 4:22 5:0.40909094 6:1 7:3 8:0.3181818 9:0.090909064 10:0.3181818 11:0.27272725 12:48 13:0.19047619 14:2 15:0.375 16:56 17:0.3214286 18:0.1785714 19:0.1964286 20:0.3035714 21:0.17391305 22:1.3333334 23:0.1724138 
1 3:1 4:22 5:0.4285714 6:1 7:3 8:0.14285713 9:0.14285713 10:0.28571427 11:0.4285714 12:12 13:0.11627907 14:3 15:0.4736842 16:57 17:0.24561405 18:0.2280702 19:0.24561405 20:0.28070176 21:0.11111111 22:1 23:0.18181819 
1 3:1 4:23 5:0.5909091 6:2 7:3 8:0.27272725 9:0.40909094 10:0.18181819 11:0.13636363 12:6 13:0.18181819 14:3 15:0.59615386 16:52 17:0.15384614 18:0.26923078 19:0.32692307 20:0.25 21:0.17391305 22:0.69999999 23:0.2 
1 3:2 4:23 5:0.5 6:2 7:3 8:0.090909064 9:0.090909064 10:0.40909094 11:0.40909094 12:37 13:0.22727273 14:3 15:0.5925926 16:54 17:0.14814812 18:0.25925928 19:0.3333333 20:0.25925928 21:0.20833333 22:1.8 
1 1:2 2:2 3:23 4:20 5:0.57894737 6:2 7:4 8:0.21052629 9:0.31578946 10:0.2631579 11:0.21052629 12:6 13:0.33333334 14:2 15:0.5 16:94 17:0.20212764 18:0.24468082 19:0.25531918 20:0.29787236 21:0.21428572 22:0.85714287 23:0.25 24:0.11111111 
1 1:1 2:2 3:11 4:22 5:0.6363636 6:1 7:5 8:0.22727275 9:0.18181819 10:0.45454544 11:0.13636363 12:8 13:0.22727273 14:2 15:0.5857143 16:70 17:0.1857143 18:0.25714284 19:0.32857144 20:0.22857141 21:0.1875 22:1.375 24:0.1 
-0.5701795683858659 1:3 2:1 3:8 4:23 5:0.6818182 6:1 7:4 8:0.090909064 9:0.36363637 10:0.3181818 11:0.22727275 12:43 13:0.15555556 14:2 15:0.6666666 16:63 17:0.12698412 18:0.36507934 19:0.30158728 20:0.2063492 21:0.18644068 22:1 24:0.2857143 
-1 3:2 4:23 5:0.6363636 6:2 7:3 8:0.090909064 9:0.3181818 10:0.3181818 11:0.27272725 12:14 13:0.1627907 14:2 15:0.57894737 16:57 17:0.21052629 18:0.3333333 19:0.24561405 20:0.21052629 21:0.14893617 22:1.375 23:0.13043478 
-1 1:3 2:1 3:8 4:23 5:0.6818182 6:1 7:4 8:0.090909064 9:0.36363637 10:0.3181818 11:0.22727275 12:43 13:0.15555556 14:2 15:0.6666666 16:63 17:0.12698412 18:0.36507934 19:0.30158728 20:0.2063492 21:0.18644068 22:1 24:0.2857143 
-0.3072519320519147 1:1 2:1 3:6 4:23 5:0.6818182 6:2 7:3 8:0.18181819 9:0.3181818 10:0.36363637 11:0.13636363 12:43 13:0.27272728 14:3 15:0.70689654 16:58 17:0.10344827 18:0.36206895 19:0.3448276 20:0.18965518 21:0.25925925 22:0.66666669 23:0.16666667 24:0.2 
-1 3:2 4:23 5:0.6363636 6:2 7:3 8:0.090909064 9:0.3181818 10:0.3181818 11:0.27272725 12:14 13:0.1627907 14:2 15:0.57894737 16:57 17:0.21052629 18:0.3333333 19:0.24561405 20:0.21052629 21:0.14893617 22:1.375 23:0.13043478 
-0.09031810915118345 1:1 2:1 3:5 4:22 5:0.5454545 6:2 7:3 8:0.18181819 9:0.36363637 10:0.18181819 11:0.27272725 12:6 13:0.19047619 14:2 15:0.57894737 16:57 17:0.21052629 18:0.2982456 19:0.28070176 20:0.21052629 21:0.17647059 22:1.1428572 24:0.11111111 
-0.03018472600691322 3:1 4:22 5:0.5 6:2 7:3 8:0.090909064 9:0.18181819 10:0.3181818 11:0.40909094 12:46 13:0.20930232 14:3 15:0.42372882 16:59 17:0.2542373 18:0.20338982 19:0.220339 20:0.32203388 21:0.2 22:1.4285715 23:0.25 
-1 1:3 2:1 3:8 4:23 5:0.6818182 6:1 7:4 8:0.090909064 9:0.36363637 10:0.3181818 11:0.22727275 12:43 13:0.15555556 14:2 15:0.6666666 16:63 17:0.12698412 18:0.36507934 19:0.30158728 20:0.2063492 21:0.18644068 22:1 24:0.2857143 
-0.9313335092100077 3:3 4:23 5:0.8181818 6:2 7:3 8:0.13636363 9:0.40909094 10:0.40909094 11:0.04545456 12:4 13:0.13636364 14:2 15:0.68333334 16:60 17:0.18333334 18:0.39999998 19:0.28333336 20:0.13333333 21:0.14285715 22:1.1 24:0.2 
-1 1:1 2:1 3:6 4:23 5:0.6818182 6:2 7:3 8:0.18181819 9:0.3181818 10:0.36363637 11:0.13636363 12:43 13:0.27272728 14:3 15:0.70689654 16:58 17:0.10344827 18:0.36206895 19:0.3448276 20:0.18965518 21:0.25925925 22:0.66666669 23:0.16666667 24:0.2 
-1 3:2 4:23 5:0.6363636 6:2 7:3 8:0.090909064 9:0.3181818 10:0.3181818 11:0.27272725 12:14 13:0.1627907 14:2 15:0.57894737 16:57 17:0.21052629 18:0.3333333 19:0.24561405 20:0.21052629 21:0.14893617 22:1.375 23:0.13043478 
-1 1:1 2:1 3:5 4:22 5:0.5454545 6:2 7:3 8:0.18181819 9:0.36363637 10:0.18181819 11:0.27272725 12:6 13:0.19047619 14:2 15:0.57894737 16:57 17:0.21052629 18:0.2982456 19:0.28070176 20:0.21052629 21:0.17647059 22:1.1428572 24:0.11111111 
-1 3:1 4:22 5:0.5 6:2 7:3 8:0.090909064 9:0.18181819 10:0.3181818 11:0.40909094 12:46 13:0.20930232 14:3 15:0.42372882 16:59 17:0.2542373 18:0.20338982 19:0.220339 20:0.32203388 21:0.2 22:1.4285715 23:0.25 
-1 1:3 2:1 3:8 4:23 5:0.6818182 6:1 7:4 8:0.090909064 9:0.36363637 10:0.3181818 11:0.22727275 12:43 13:0.15555556 14:2 15:0.6666666 16:63 17:0.12698412 18:0.36507934 19:0.30158728 20:0.2063492 21:0.18644068 22:1 24:0.2857143 
-1 3:3 4:23 5:0.8181818 6:2 7:3 8:0.13636363 9:0.40909094 10:0.40909094 11:0.04545456 12:4 13:0.13636364 14:2 15:0.68333334 16:60 17:0.18333334 18:0.39999998 19:0.28333336 20:0.13333333 21:0.14285715 22:1.1 24:0.2 
-0.6249601633842722 1:2 2:3 3:10 4:22 5:0.6363636 6:2 7:2 8:0.22727275 9:0.22727275 10:0.40909094 11:0.13636363 12:48 13:0.20930232 14:3 15:0.5909091 16:66 17:0.13636363 18:0.25757575 19:0.3333333 20:0.27272725 21:0.25806451 22:1 24:0.36842105 
-1 1:1 2:1 3:6 4:23 5:0.6818182 6:2 7:3 8:0.18181819 9:0.3181818 10:0.36363637 11:0.13636363 12:43 13:0.27272728 14:3 15:0.70689654 16:58 17:0.10344827 18:0.36206895 19:0.3448276 20:0.18965518 21:0.25925925 22:0.66666669 23:0.16666667 24:0.2 
-1 3:2 4:23 5:0.6363636 6:2 7:3 8:0.090909064 9:0.3181818 10:0.3181818 11:0.27272725 12:14 13:0.1627907 14:2 15:0.57894737 16:57 17:0.21052629 18:0.3333333 19:0.24561405 20:0.21052629 21:0.14893617 22:1.375 23:0.13043478 
-1 1:1 2:1 3:5 4:22 5:0.5454545 6:2 7:3 8:0.18181819 9:0.36363637 10:0.18181819 11:0.27272725 12:6 13:0.19047619 14:2 15:0.57894737 16:57 17:0.21052629 18:0.2982456 19:0.28070176 20:0.21052629 21:0.17647059 22:1.1428572 24:0.11111111 
-0.5639344611059255 3:3 4:23 5:0.5454545 6:2 7:4 8:0.27272725 9:0.40909094 10:0.13636363 11:0.18181819 12:4 13:0.22727273 14:3 15:0.60714287 16:56 17:0.14285713 18:0.26785713 19:0.33928573 20:0.25 21:0.2 22:0.60000002 
-0.2288630490000066 3:4 4:22 5:0.5 6:3 7:3 8:0.22727275 9:0.22727275 10:0.27272725 11:0.27272725 12:20 13:0.20930232 14:4 15:0.4909091 16:55 17:0.21818179 18:0.21818179 19:0.27272725 20:0.2909091 21:0.17647059 22:1.25 23:0.24324325 
-1 3:1 4:22 5:0.5 6:2 7:3 8:0.090909064 9:0.18181819 10:0.3181818 11:0.40909094 12:46 13:0.20930232 14:3 15:0.42372882 16:59 17:0.2542373 18:0.20338982 19:0.220339 20:0.32203388 21:0.2 22:1.4285715 23:0.25 
-0.5940508828051235 3:3 4:24 5:0.5217391 6:2 7:3 8:0.13043481 9:0.34782606 10:0.17391306 11:0.34782606 12:44 13:0.19148937 14:4 15:0.47540987 16:61 17:0.22950822 18:0.19672132 19:0.27868855 20:0.29508197 21:0.16981132 22:1 23:0.2 
-1 1:3 2:1 3:8 4:23 5:0.6818182 6:1 7:4 8:0.090909064 9:0.36363637 10:0.3181818 11:0.22727275 12:43 13:0.15555556 14:2 15:0.6666666 16:63 17:0.12698412 18:0.36507934 19:0.30158728 20:0.2063492 21:0.18644068 22:1 24:0.2857143 
-1 3:3 4:23 5:0.8181818 6:2 7:3 8:0.13636363 9:0.40909094 10:0.40909094 11:0.04545456 12:4 13:0.13636364 14:2 15:0.68333334 16:60 17:0.18333334 18:0.39999998 19:0.28333336 20:0.13333333 21:0.14285715 22:1.1 24:0.2 
-1 1:2 2:3 3:10 4:22 5:0.6363636 6:2 7:2 8:0.22727275 9:0.22727275 10:0.40909094 11:0.13636363 12:48 13:0.20930232 14:3 15:0.5909091 16:66 17:0.13636363 18:0.25757575 19:0.3333333 20:0.27272725 21:0.25806451 22:1 24:0.36842105 
-0.6155579335294972 3:1 4:22 5:0.5909091 6:1 7:3 8:0.18181819 9:0.3181818 10:0.27272725 11:0.22727275 12:9 13:0.13636364 14:3 15:0.57407403 16:54 17:0.1111111 18:0.2777778 19:0.2962963 20:0.3148148 21:0.13043478 22:1 23:0.25 
-1 1:1 2:1 3:6 4:23 5:0.6818182 6:2 7:3 8:0.18181819 9:0.3181818 10:0.36363637 11:0.13636363 12:43 13:0.27272728 14:3 15:0.70689654 16:58 17:0.10344827 18:0.36206895 19:0.3448276 20:0.18965518 21:0.25925925 22:0.66666669 23:0.16666667 24:0.2 
-0.5589084884137254 4:24 5:0.625 6:2 7:1 8:0.08333331 9:0.4166667 10:0.20833331 11:0.2916667 12:8 13:0.16666667 14:1 15:0.6363636 16:55 17:0.14545453 18:0.2909091 19:0.34545457 20:0.21818179 21:0.090909094 22:1.5 
-1 3:2 4:23 5:0.6363636 6:2 7:3 8:0.090909064 9:0.3181818 10:0.3181818 11:0.27272725 12:14 13:0.1627907 14:2 15:0.57894737 16:57 17:0.21052629 18:0.3333333 19:0.24561405 20:0.21052629 21:0.14893617 22:1.375 23:0.13043478 
-0.05860506301010794 1:1 2:1 3:6 4:22 5:0.5909091 6:1 7:3 8:0.22727275 9:0.45454544 10:0.13636363 11:0.18181819 12:4 13:0.18181819 14:2 15:0.55 16:60 17:0.26666665 18:0.31666666 19:0.23333335 20:0.18333334 21:0.17857143 22:0.66666669 24:0.16666667 
-1 1:1 2:1 3:5 4:22 5:0.5454545 6:2 7:3 8:0.18181819 9:0.36363637 10:0.18181819 11:0.27272725 12:6 13:0.19047619 14:2 15:0.57894737 16:57 17:0.21052629 18:0.2982456 19:0.28070176 20:0.21052629 21:0.17647059 22:1.1428572 24:0.11111111 
-0.09943114308828435 3:6 4:22 5:0.5454545 6:2 7:4 8:0.18181819 9:0.13636363 10:0.40909094 11:0.27272725 12:52 13:0.19047619 14:4 15:0.4375 16:64 17:0.28125 18:0.203125 19:0.234375 20:0.28125 21:0.14814815 22:0.45454547 23:0.23809524 
-1 3:3 4:23 5:0.5454545 6:2 7:4 8:0.27272725 9:0.40909094 10:0.13636363 11:0.18181819 12:4 13:0.22727273 14:3 15:0.60714287 16:56 17:0.14285713 18:0.26785713 19:0.33928573 20:0.25 21:0.2 22:0.60000002 
-1 3:4 4:22 5:0.5 6:3 7:3 8:0.22727275 9:0.22727275 10:0.27272725 11:0.27272725 12:20 13:0.20930232 14:4 15:0.4909091 16:55 17:0.21818179 18:0.21818179 19:0.27272725 20:0.2909091 21:0.17647059 22:1.25 23:0.24324325 
-0.8011701733601554 3:4 4:22 5:0.5454545 6:1 7:2 8:0.090909064 9:0.27272725 10:0.27272725 11:0.36363637 12:61 13:0.095238097 14:1 15:0.5 16:62 17:0.22580647 18:0.2580645 19:0.24193549 20:0.27419353 21:0.079999998 22:1.2857143 23:0.34999999 
-1 3:1 4:22 5:0.5 6:2 7:3 8:0.090909064 9:0.18181819 10:0.3181818 11:0.40909094 12:46 13:0.20930232 14:3 15:0.42372882 16:59 17:0.2542373 18:0.20338982 19:0.220339 20:0.32203388 21:0.2 22:1.4285715 23:0.25 
-0.2348388514654546 1:2 2:1 3:6 4:26 5:0.5416666 6:1 7:2 8:0.041666687 9:0.20833331 10:0.3333333 11:0.4166667 12:51 13:0.2 14:3 15:0.578125 16:64 17:0.171875 18:0.3125 19:0.265625 20:0.25 21:0.2 24:0.2 
-0.8817832641524939 1:1 2:1 3:6 4:22 5:0.68421054 6:2 7:2 8:0.10526317 9:0.42105263 10:0.2631579 11:0.21052629 12:12 13:0.21951219 14:3 15:0.71428573 16:56 17:0.125 18:0.39285713 19:0.3214286 20:0.16071427 21:0.20754717 22:0.25 23:0.18181819 24:0.16666667 
-0.8607046510190334 1:2 2:1 3:6 4:24 5:0.40909094 6:2 7:1 8:0.13636363 9:0.22727275 10:0.18181819 11:0.45454544 12:46 13:0.043478262 14:3 15:0.51666665 16:60 17:0.21666664 18:0.23333335 19:0.28333336 20:0.26666665 21:0.071428575 22:0.5 23:0.06666667 24:0.2 
-0.3596013343750096 3:4 4:22 5:0.5 6:1 7:1 8:0.18181819 9:0.3181818 10:0.18181819 11:0.3181818 12:9 13:0.045454547 14:1 15:0.53225803 16:62 17:0.17741936 18:0.22580647 19:0.30645162 20:0.2903226 21:0.07692308 22:1 23:0.17647059 24:0.25 
-0.5588539881602271 1:3 2:1 3:9 4:22 5:0.6818182 6:1 7:5 8:0.22727275 9:0.22727275 10:0.45454544 11:0.090909064 12:50 13:0.17073171 14:1 15:0.6818182 16:66 17:0.13636363 18:0.3333333 19:0.34848487 20:0.18181819 21:0.19298245 22:1.125 23:0.11111111 24:0.25 
-1 3:3 4:24 5:0.5217391 6:2 7:3 8:0.13043481 9:0.34782606 10:0.17391306 11:0.34782606 12:44 13:0.19148937 14:4 15:0.47540987 16:61 17:0.22950822 18:0.19672132 19:0.27868855 20:0.29508197 21:0.16981132 22:1 23:0.2 
-1 1:3 2:1 3:8 4:23 5:0.6818182 6:1 7:4 8:0.090909064 9:0.36363637 10:0.3181818 11:0.22727275 12:43 13:0.15555556 14:2 15:0.6666666 16:63 17:0.12698412 18:0.36507934 19:0.30158728 20:0.2063492 21:0.18644068 22:1 24:0.2857143 
-1 3:3 4:23 5:0.8181818 6:2 7:3 8:0.13636363 9:0.40909094 10:0.40909094 11:0.04545456 12:4 13:0.13636364 14:2 15:0.68333334 16:60 17:0.18333334 18:0.39999998 19:0.28333336 20:0.13333333 21:0.14285715 22:1.1 24:0.2 
-1 1:2 2:3 3:10 4:22 5:0.6363636 6:2 7:2 8:0.22727275 9:0.22727275 10:0.40909094 11:0.13636363 12:48 13:0.20930232 14:3 15:0.5909091 16:66 17:0.13636363 18:0.25757575 19:0.3333333 20:0.27272725 21:0.25806451 22:1 24:0.36842105 
-1 3:2 4:26 5:0.625 6:2 7:5 8:0.08333331 9:0.20833331 10:0.4166667 11:0.2916667 12:8 13:0.28 14:3 15:0.5862069 16:58 17:0.12068963 18:0.24137932 19:0.3448276 20:0.29310346 21:0.25925925 22:3.5 23:0.14285715 
-1 3:1 4:22 5:0.5909091 6:1 7:3 8:0.18181819 9:0.3181818 10:0.27272725 11:0.22727275 12:9 13:0.13636364 14:3 15:0.57407403 16:54 17:0.1111111 18:0.2777778 19:0.2962963 20:0.3148148 21:0.13043478 22:1 23:0.25 
-1 1:1 2:1 3:6 4:23 5:0.6818182 6:2 7:3 8:0.18181819 9:0.3181818 10:0.36363637 11:0.13636363 12:43 13:0.27272728 14:3 15:0.70689654 16:58 17:0.10344827 18:0.36206895 19:0.3448276 20:0.18965518 21:0.25925925 22:0.66666669 23:0.16666667 24:0.2 
-1 4:24 5:0.625 6:2 7:1 8:0.08333331 9:0.4166667 10:0.20833331 11:0.2916667 12:8 13:0.16666667 14:1 15:0.6363636 16:55 17:0.14545453 18:0.2909091 19:0.34545457 20:0.21818179 21:0.090909094 22:1.5 
-1 3:2 4:23 5:0.6363636 6:2 7:3 8:0.090909064 9:0.3181818 10:0.3181818 11:0.27272725 12:14 13:0.1627907 14:2 15:0.57894737 16:57 17:0.21052629 18:0.3333333 19:0.24561405 20:0.21052629 21:0.14893617 22:1.375 23:0.13043478 
-0.03708245469736679 1:4 2:1 3:8 4:22 5:0.77272725 6:2 7:3 8:0.18181819 9:0.36363637 10:0.40909094 11:0.04545456 12:43 13:0.2857143 14:2 15:0.578125 16:64 17:0.15625 18:0.25 19:0.328125 20:0.265625 21:0.34482759 22:3.6666667 24:0.5 
-0.0635473711824325 4:24 5:0.43478262 6:3 7:3 8:0.34782606 9:0.17391306 10:0.26086956 11:0.21739131 12:17 13:0.30434781 14:3 15:0.4528302 16:53 17:0.26415092 18:0.2264151 19:0.2264151 20:0.2830189 21:0.23809524 22:1.6 23:0.23529412 
-0.6166247281628956 3:9 4:22 5:0.5 6:1 7:2 8:0.18181819 9:0.36363637 10:0.13636363 11:0.3181818 12:57 13:0.23076923 14:4 15:0.56666666 16:60 17:0.16666669 18:0.26666665 19:0.3 20:0.26666665 21:0.24528302 23:0.16666667 24:0.2857143 
-1 1:1 2:1 3:6 4:22 5:0.5909091 6:1 7:3 8:0.22727275 9:0.45454544 10:0.13636363 11:0.18181819 12:4 13:0.18181819 14:2 15:0.55 16:60 17:0.26666665 18:0.31666666 19:0.23333335 20:0.18333334 21:0.17857143 22:0.66666669 24:0.16666667 
-0.2624761774332666 3:6 4:22 5:0.5 6:3 7:1 8:0.18181819 9:0.18181819 10:0.3181818 11:0.3181818 12:5 13:0.18181819 14:1 15:0.4745763 16:59 17:0.23728812 18:0.2542373 19:0.220339 20:0.2881356 21:0.27272728 22:1.8 23:0.14285715 24:0.63636363 
-0.5349015783971258 1:1 2:1 3:6 4:26 5:0.625 6:2 7:5 8:0.08333331 9:0.2916667 10:0.3333333 11:0.2916667 12:5 13:0.16666667 14:3 15:0.625 16:64 17:0.203125 18:0.296875 19:0.328125 20:0.171875 21:0.15254237 22:1.6 23:0.27272728 24:0.090909094 
-1 1:1 2:1 3:5 4:22 5:0.5454545 6:2 7:3 8:0.18181819 9:0.36363637 10:0.18181819 11:0.27272725 12:6 13:0.19047619 14:2 15:0.57894737 16:57 17:0.21052629 18:0.2982456 19:0.28070176 20:0.21052629 21:0.17647059 22:1.1428572 24:0.11111111 
-0.8047478725144459 3:3 4:23 5:0.45454544 6:3 7:3 8:0.18181819 9:0.090909064 10:0.36363637 11:0.36363637 12:11 13:0.20930232 14:4 15:0.4745763 16:59 17:0.220339 18:0.220339 19:0.2542373 20:0.30508476 21:0.18367347 22:0.30000001 
-0.6045165857415015 3:3 4:23 5:0.5652174 6:1 7:2 8:0.21739131 9:0.13043481 10:0.43478262 11:0.21739131 12:37 13:0.086956523 14:3 15:0.48214287 16:56 17:0.1785714 18:0.23214287 19:0.25 20:0.33928573 21:0.15384616 22:1.5714285 24:0.66666669 
-1 3:6 4:22 5:0.5454545 6:2 7:4 8:0.18181819 9:0.13636363 10:0.40909094 11:0.27272725 12:52 13:0.19047619 14:4 15:0.4375 16:64 17:0.28125 18:0.203125 19:0.234375 20:0.28125 21:0.14814815 22:0.45454547 23:0.23809524 
-1 3:3 4:23 5:0.5454545 6:2 7:4 8:0.27272725 9:0.40909094 10:0.13636363 11:0.18181819 12:4 13:0.22727273 14:3 15:0.60714287 16:56 17:0.14285713 18:0.26785713 19:0.33928573 20:0.25 21:0.2 22:0.60000002 
-0.06664771297526599 1:3 2:4 3:20 4:21 5:0.6666666 6:2 7:3 8:0.28571427 9:0.047619045 10:0.61904764 11:0.047619045 12:2 13:0.17073171 14:3 15:0.6666666 16:84 17:0.20238096 18:0.36904764 19:0.29761904 20:0.13095236 21:0.29113925 22:0.89999998 24:0.42105263 
-0.6178063472775973 1:3 2:1 3:8 4:23 5:0.40909094 6:2 7:2 8:0.22727275 9:0.18181819 10:0.22727275 11:0.36363637 12:17 13:0.11111111 14:4 15:0.49206346 16:63 17:0.23809522 18:0.25396824 19:0.23809522 20:0.26984125 21:0.2 22:0.77777779 23:0.33333334 24:0.46666667 
-0.3305736456168129 1:2 2:1 3:5 4:21 5:0.57142854 6:2 7:3 8:0.23809522 9:0.28571427 10:0.28571427 11:0.19047618 12:41 13:0.21951219 14:4 15:0.51785713 16:56 17:0.21428573 18:0.25 19:0.26785713 20:0.26785713 21:0.25490198 22:1 23:0.2 24:0.40000001 
-0.6511151433757303 1:2 2:1 3:6 4:24 5:0.6521739 6:2 7:4 8:0.0869565 9:0.3043478 10:0.34782606 11:0.26086956 12:2 13:0.23404256 14:1 15:0.546875 16:64 17:0.203125 18:0.28125 19:0.265625 20:0.25 21:0.25423729 22:0.80000001 24:0.33333334 
-1 3:4 4:22 5:0.5 6:3 7:3 8:0.22727275 9:0.22727275 10:0.27272725 11:0.27272725 12:20 13:0.20930232 14:4 15:0.4909091 16:55 17:0.21818179 18:0.21818179 19:0.27272725 20:0.2909091 21:0.17647059 22:1.25 23:0.24324325 
-1 3:4 4:22 5:0.5454545 6:1 7:2 8:0.090909064 9:0.27272725 10:0.27272725 11:0.36363637 12:61 13:0.095238097 14:1 15:0.5 16:62 17:0.22580647 18:0.2580645 19:0.24193549 20:0.27419353 21:0.079999998 22:1.2857143 23:0.34999999 
-1 3:1 4:22 5:0.5 6:2 7:3 8:0.090909064 9:0.18181819 10:0.3181818 11:0.40909094 12:46 13:0.20930232 14:3 15:0.42372882 16:59 17:0.2542373 18:0.20338982 19:0.220339 20:0.32203388 21:0.2 22:1.4285715 23:0.25 
-0.2922711005255711 3:2 4:22 5:0.5454545 6:2 7:3 8:0.18181819 9:0.22727275 10:0.3181818 11:0.27272725 12:48 13:0.14285715 14:1 15:0.5192308 16:52 17:0.26923078 18:0.23076922 19:0.28846157 20:0.21153843 21:0.13043478 22:1.25 23:0.090909094 
-1 1:2 2:1 3:6 4:26 5:0.5416666 6:1 7:2 8:0.041666687 9:0.20833331 10:0.3333333 11:0.4166667 12:51 13:0.2 14:3 15:0.578125 16:64 17:0.171875 18:0.3125 19:0.265625 20:0.25 21:0.2 24:0.2 
-1 1:1 2:1 3:5 4:26 5:0.73913044 6:3 7:3 8:0.0869565 9:0.47826087 10:0.26086956 11:0.17391306 12:9 13:0.18367347 14:4 15:0.7419355 16:62 17:0.11290324 18:0.40322578 19:0.33870965 20:0.14516127 21:0.18644068 22:0.75 23:0.25 24:0.2 
-1 1:1 2:1 3:6 4:22 5:0.68421054 6:2 7:2 8:0.10526317 9:0.42105263 10:0.2631579 11:0.21052629 12:12 13:0.21951219 14:3 15:0.71428573 16:56 17:0.125 18:0.39285713 19:0.3214286 20:0.16071427 21:0.20754717 22:0.25 23:0.18181819 24:0.16666667 
-1 1:2 2:1 3:6 4:24 5:0.40909094 6:2 7:1 8:0.13636363 9:0.22727275 10:0.18181819 11:0.45454544 12:46 13:0.043478262 14:3 15:0.51666665 16:60 17:0.21666664 18:0.23333335 19:0.28333336 20:0.26666665 21:0.071428575 22:0.5 23:0.06666667 24:0.2 
-0.3975066573177121 3:5 4:25 5:0.73913044 6:2 7:4 8:0.17391306 9:0.3043478 10:0.43478262 11:0.0869565 12:13 13:0.14893617 14:4 15:0.61904764 16:63 17:0.15873015 18:0.3333333 19:0.28571427 20:0.22222221 21:0.14285715 22:1.5 23:0.16666667 24:0.11111111 
-1 3:5 4:22 5:0.40909094 6:1 7:1 8:0.04545456 9:0.22727275 10:0.18181819 11:0.5454545 12:42 13:0.045454547 14:1 15:0.4736842 16:57 17:0.2631579 18:0.19298244 19:0.28070176 20:0.2631579 21:0.16981132 22:0.89999998 24:0.77777779 
-0.9031876125101265 3:2 4:29 5:0.5416666 6:3 7:3 8:0.25 9:0.3333333 10:0.20833331 11:0.20833331 12:38 13:0.13725491 14:3 15:0.5737705 16:61 17:0.19672132 18:0.27868855 19:0.29508197 20:0.22950822 21:0.12727273 22:0.83333331 
-1 3:5 4:23 5:0.5217391 6:1 7:2 8:0.17391306 9:0.26086956 10:0.26086956 11:0.3043478 12:2 13:0.095238097 14:2 15:0.5614035 16:57 17:0.19298244 18:0.2631579 19:0.2982456 20:0.24561405 21:0.098039217 22:1.6 24:0.11111111 
-1 3:1 4:25 5:0.8181818 6:2 7:4 8:0.13636363 9:0.36363637 10:0.45454544 11:0.04545456 12:41 13:0.17391305 14:3 15:0.66101694 16:59 17:0.11864406 18:0.30508476 19:0.35593218 20:0.220339 21:0.16666667 22:1.25 23:0.25 
-1 1:2 2:1 3:8 4:22 5:0.5909091 6:6 7:2 8:0.18181819 9:0.18181819 10:0.40909094 11:0.22727275 12:43 13:0.2631579 14:3 15:0.5964912 16:57 17:0.17543858 18:0.28070176 19:0.31578946 20:0.2280702 21:0.25925925 22:1.2 24:0.25 
-1 3:4 4:22 5:0.5 6:1 7:1 8:0.18181819 9:0.3181818 10:0.18181819 11:0.3181818 12:9 13:0.045454547 14:1 15:0.53225803 16:62 17:0.17741936 18:0.22580647 19:0.30645162 20:0.2903226 21:0.07692308 22:1 23:0.17647059 24:0.25 
-1 1:3 2:1 3:9 4:22 5:0.6818182 6:1 7:5 8:0.22727275 9:0.22727275 10:0.45454544 11:0.090909064 12:50 13:0.17073171 14:1 15:0.6818182 16:66 17:0.13636363 18:0.3333333 19:0.34848487 20:0.18181819 21:0.19298245 22:1.125 23:0.11111111 24:0.25 
-1 3:3 4:24 5:0.5217391 6:2 7:3 8:0.13043481 9:0.34782606 10:0.17391306 11:0.34782606 12:44 13:0.19148937 14:4 15:0.47540987 16:61 17:0.22950822 18:0.19672132 19:0.27868855 20:0.29508197 21:0.16981132 22:1 23:0.2 
-0.4270138488517341 1:1 2:1 3:10 4:20 5:0.65 6:1 7:2 8:0.050000012 9:0.39999998 10:0.25 11:0.3 12:3 13:0.12820514 14:2 15:0.7258065 16:62 17:0.11290324 18:0.27419353 19:0.4516129 20:0.16129035 21:0.19298245 22:1.25 24:0.33333334 
-1 1:3 2:1 3:8 4:23 5:0.6818182 6:1 7:4 8:0.090909064 9:0.36363637 10:0.3181818 11:0.22727275 12:43 13:0.15555556 14:2 15:0.6666666 16:63 17:0.12698412 18:0.36507934 19:0.30158728 20:0.2063492 21:0.18644068 22:1 24:0.2857143 
-0.1528419317848043 3:5 4:22 5:0.6363636 6:1 7:3 8:0.13636363 9:0.36363637 10:0.27272725 11:0.22727275 12:6 13:0.11627907 14:3 15:0.6545454 16:55 17:0.12727273 18:0.34545457 19:0.3090909 20:0.21818179 21:0.17647059 22:1 23:0.2 24:0.5 
-1 3:1 4:24 5:0.5454545 6:3 7:4 8:0.27272725 9:0.3181818 10:0.22727275 11:0.18181819 12:9 13:0.26086956 14:2 15:0.4259259 16:54 17:0.2962963 18:0.22222221 19:0.2037037 20:0.2777778 21:0.25 22:1 23:0.125 
-0.9783270791970825 3:3 4:23 5:0.8181818 6:2 7:3 8:0.13636363 9:0.40909094 10:0.40909094 11:0.04545456 12:4 13:0.13636364 14:2 15:0.68333334 16:60 17:0.18333334 18:0.39999998 19:0.28333336 20:0.13333333 21:0.14285715 22:1.1 24:0.2 
-1 1:2 2:3 3:10 4:22 5:0.6363636 6:2 7:2 8:0.22727275 9:0.22727275 10:0.40909094 11:0.13636363 12:48 13:0.20930232 14:3 15:0.5909091 16:66 17:0.13636363 18:0.25757575 19:0.3333333 20:0.27272725 21:0.25806451 22:1 24:0.36842105 
-1 3:2 4:26 5:0.625 6:2 7:5 8:0.08333331 9:0.20833331 10:0.4166667 11:0.2916667 12:8 13:0.28 14:3 15:0.5862069 16:58 17:0.12068963 18:0.24137932 19:0.3448276 20:0.29310346 21:0.25925925 22:3.5 23:0.14285715 
-1 3:1 4:22 5:0.5909091 6:1 7:3 8:0.18181819 9:0.3181818 10:0.27272725 11:0.22727275 12:9 13:0.13636364 14:3 15:0.57407403 16:54 17:0.1111111 18:0.2777778 19:0.2962963 20:0.3148148 21:0.13043478 22:1 23:0.25 
-1 1:2 2:1 3:11 4:21 5:0.71428573 6:1 7:3 8:0.19047618 9:0.3333333 10:0.38095236 11:0.09523809 12:13 13:0.17073171 14:3 15:0.671875 16:64 17:0.203125 18:0.3125 19:0.359375 20:0.125 21:0.18032786 22:0.45454547 23:0.18181819 24:0.2 
-0.7836068210162359 1:1 2:2 3:11 4:25 5:0.4166667 6:2 7:4 8:0.20833331 9:0.125 10:0.2916667 11:0.375 12:47 13:0.22727273 14:3 15:0.48571426 16:70 17:0.27142859 18:0.22857141 19:0.25714284 20:0.24285716 21:0.2 22:1.75 24:0.14285715 
-1 1:1 2:1 3:6 4:23 5:0.6818182 6:2 7:3 8:0.18181819 9:0.3181818 10:0.36363637 11:0.13636363 12:43 13:0.27272728 14:3 15:0.70689654 16:58 17:0.10344827 18:0.36206895 19:0.3448276 20:0.18965518 21:0.25925925 22:0.66666669 23:0.16666667 24:0.2 
-1 3:1 4:24 5:0.625 6:2 7:1 8:0.2916667 9:0.20833331 10:0.4166667 11:0.08333331 12:42 13:0.083333336 14:2 15:0.60655737 16:61 17:0.16393441 18:0.27868855 19:0.32786888 20:0.22950822 21:0.079999998 22:1.2222222 
-1 4:24 5:0.625 6:2 7:1 8:0.08333331 9:0.4166667 10:0.20833331 11:0.2916667 12:8 13:0.16666667 14:1 15:0.6363636 16:55 17:0.14545453 18:0.2909091 19:0.34545457 20:0.21818179 21:0.090909094 22:1.5 
-0.3128542213697342 3:1 4:22 5:0.6363636 6:1 7:3 8:0.13636363 9:0.27272725 10:0.36363637 11:0.22727275 12:3 13:0.11627907 14:2 15:0.6333333 16:60 17:0.19999999 18:0.3 19:0.3333333 20:0.16666669 21:0.11111111 22:0.72727275 
-1 3:2 4:23 5:0.6363636 6:2 7:3 8:0.090909064 9:0.3181818 10:0.3181818 11:0.27272725 12:14 13:0.1627907 14:2 15:0.57894737 16:57 17:0.21052629 18:0.3333333 19:0.24561405 20:0.21052629 21:0.14893617 22:1.375 23:0.13043478 
-1 1:4 2:1 3:8 4:22 5:0.77272725 6:2 7:3 8:0.18181819 9:0.36363637 10:0.40909094 11:0.04545456 12:43 13:0.2857143 14:2 15:0.578125 16:64 17:0.15625 18:0.25 19:0.328125 20:0.265625 21:0.34482759 22:3.6666667 24:0.5 
-1 3:3 4:21 5:0.47619045 6:2 7:2 8:0.14285713 9:0.23809522 10:0.23809522 11:0.38095236 12:4 13:0.19047619 14:1 15:0.5283019 16:53 17:0.2264151 18:0.24528301 19:0.2830189 20:0.24528301 21:0.16666667 22:1.2857143 
-1 4:24 5:0.43478262 6:3 7:3 8:0.34782606 9:0.17391306 10:0.26086956 11:0.21739131 12:17 13:0.30434781 14:3 15:0.4528302 16:53 17:0.26415092 18:0.2264151 19:0.2264151 20:0.2830189 21:0.23809524 22:1.6 23:0.23529412 
-1 1:1 2:2 3:10 4:23 5:0.6363636 6:3 7:4 8:0.22727275 9:0.27272725 10:0.36363637 11:0.13636363 12:56 13:0.31818181 14:4 15:0.5588235 16:68 17:0.19117647 18:0.25 19:0.30882353 20:0.25 21:0.26984128 23:0.11111111 24:0.15789473 
-0.2261312393646982 3:2 4:26 5:0.7083334 6:3 7:3 8:0.16666669 9:0.4166667 10:0.2916667 11:0.125 12:23 13:0.23999999 14:4 15:0.54385966 16:57 17:0.17543858 18:0.21052629 19:0.3333333 20:0.28070176 21:0.22222222 22:1.6 23:0.18518518 
-1 3:9 4:22 5:0.5 6:1 7:2 8:0.18181819 9:0.36363637 10:0.13636363 11:0.3181818 12:57 13:0.23076923 14:4 15:0.56666666 16:60 17:0.16666669 18:0.26666665 19:0.3 20:0.26666665 21:0.24528302 23:0.16666667 24:0.2857143 
-1 1:1 2:1 3:6 4:22 5:0.5909091 6:1 7:3 8:0.22727275 9:0.45454544 10:0.13636363 11:0.18181819 12:4 13:0.18181819 14:2 15:0.55 16:60 17:0.26666665 18:0.31666666 19:0.23333335 20:0.18333334 21:0.17857143 22:0.66666669 24:0.16666667 
-1 3:6 4:22 5:0.5 6:3 7:1 8:0.18181819 9:0.18181819 10:0.3181818 11:0.3181818 12:5 13:0.18181819 14:1 15:0.4745763 16:59 17:0.23728812 18:0.2542373 19:0.220339 20:0.2881356 21:0.27272728 22:1.8 23:0.14285715 24:0.63636363 
-1 1:1 2:1 3:6 4:26 5:0.625 6:2 7:5 8:0.08333331 9:0.2916667 10:0.3333333 11:0.2916667 12:5 13:0.16666667 14:3 15:0.625 16:64 17:0.203125 18:0.296875 19:0.328125 20:0.171875 21:0.15254237 22:1.6 23:0.27272728 24:0.090909094 
-1 1:1 2:1 3:5 4:22 5:0.5454545 6:2 7:3 8:0.18181819 9:0.36363637 10:0.18181819 11:0.27272725 12:6 13:0.19047619 14:2 15:0.57894737 16:57 17:0.21052629 18:0.2982456 19:0.28070176 20:0.21052629 21:0.17647059 22:1.1428572 24:0.11111111 
-1 3:3 4:23 5:0.45454544 6:3 7:3 8:0.18181819 9:0.090909064 10:0.36363637 11:0.36363637 12:11 13:0.20930232 14:4 15:0.4745763 16:59 17:0.220339 18:0.220339 19:0.2542373 20:0.30508476 21:0.18367347 22:0.30000001 
-1 3:3 4:23 5:0.5652174 6:1 7:2 8:0.21739131 9:0.13043481 10:0.43478262 11:0.21739131 12:37 13:0.086956523 14:3 15:0.48214287 16:56 17:0.1785714 18:0.23214287 19:0.25 20:0.33928573 21:0.15384616 22:1.5714285 24:0.66666669 
-0.462374193489836 3:5 4:27 5:0.5454545 6:5 7:2 8:0.13636363 9:0.27272725 10:0.27272725 11:0.3181818 12:54 13:0.16666667 14:3 15:0.61290324 16:62 17:0.12903225 18:0.2580645 19:0.35483873 20:0.2580645 21:0.13793103 22:1 23:0.35714287 
-0.62633481584326 1:1 2:2 3:7 4:28 5:0.5652174 6:4 7:3 8:0.26086956 9:0.26086956 10:0.3043478 11:0.17391306 12:47 13:0.25490198 14:3 15:0.5441177 16:68 17:0.25 18:0.2647059 19:0.2794118 20:0.20588237 21:0.25 22:3.6666667 24:0.23076923 
-1 3:6 4:22 5:0.5454545 6:2 7:4 8:0.18181819 9:0.13636363 10:0.40909094 11:0.27272725 12:52 13:0.19047619 14:4 15:0.4375 16:64 17:0.28125 18:0.203125 19:0.234375 20:0.28125 21:0.14814815 22:0.45454547 23:0.23809524 
-0.01936940721118678 3:8 4:22 5:0.5454545 6:2 7:4 8:0.22727275 9:0.18181819 10:0.36363637 11:0.22727275 12:54 13:0.19047619 14:1 15:0.44776118 16:67 17:0.2835821 18:0.20895523 19:0.23880595 20:0.26865673 21:0.15789473 22:1 23:0.22222222 24:0.06666667 
-1 3:3 4:23 5:0.5454545 6:2 7:4 8:0.27272725 9:0.40909094 10:0.13636363 11:0.18181819 12:4 13:0.22727273 14:3 15:0.60714287 16:56 17:0.14285713 18:0.26785713 19:0.33928573 20:0.25 21:0.2 22:0.60000002 
-0.1060794299526566 1:1 2:1 3:8 4:22 5:0.6363636 6:1 7:5 8:0.18181819 9:0.45454544 10:0.18181819 11:0.18181819 12:53 13:0.22727273 14:4 15:0.578125 16:64 17:0.1875 18:0.25 19:0.328125 20:0.234375 21:0.20689656 22:1.4285715 24:0.14285715 
-0.1604018520367567 1:3 2:2 3:14 4:23 5:0.73913044 6:1 7:2 8:0.04347825 9:0.43478262 10:0.3043478 11:0.21739131 12:60 13:0.086956523 14:3 15:0.72 16:75 17:0.07999998 18:0.3333333 19:0.38666666 20:0.19999999 21:0.14285715 22:0.81818181 23:0.33333334 24:0.25 
-0.4014849287966267 4:23 5:0.5217391 6:3 7:2 8:0.17391306 9:0.26086956 10:0.26086956 11:0.3043478 12:9 13:0.2173913 14:3 15:0.42000002 16:50 17:0.26 18:0.18 19:0.24000001 20:0.32 21:0.18181819 22:2.3333333 23:0.5 
-0.03782748444372009 4:22 5:0.5 6:3 7:1 8:0.27272725 9:0.22727275 10:0.27272725 11:0.22727275 12:12 13:0.27272728 14:2 15:0.40909094 16:44 17:0.27272725 18:0.15909094 19:0.25 20:0.3181818 21:0.15789473 22:3.3333333 23:0.42857143 
-0.09122338516570543 4:22 5:0.5909091 6:4 7:2 8:0.27272725 9:0.22727275 10:0.36363637 11:0.13636363 12:37 13:0.27272728 14:4 15:0.62 16:50 17:0.18 18:0.32 19:0.3 20:0.19999999 21:0.23809524 22:0.875 23:0.125 
-0.9964906943105339 1:3 2:4 3:20 4:21 5:0.6666666 6:2 7:3 8:0.28571427 9:0.047619045 10:0.61904764 11:0.047619045 12:2 13:0.17073171 14:3 15:0.6666666 16:84 17:0.20238096 18:0.36904764 19:0.29761904 20:0.13095236 21:0.29113925 22:0.89999998 24:0.42105263 
-0.3847838148032687 1:3 2:2 3:18 4:21 5:0.52380955 6:1 7:3 8:0.19047618 9:0.3333333 10:0.19047618 11:0.28571427 12:67 13:0.17073171 14:4 15:0.525641 16:78 17:0.21794873 18:0.26923078 19:0.25641024 20:0.25641024 21:0.2 22:1.125 23:0.42857143 24:0.23529412 
-1 1:3 2:1 3:8 4:23 5:0.40909094 6:2 7:2 8:0.22727275 9:0.18181819 10:0.22727275 11:0.36363637 12:17 13:0.11111111 14:4 15:0.49206346 16:63 17:0.23809522 18:0.25396824 19:0.23809522 20:0.26984125 21:0.2 22:0.77777779 23:0.33333334 24:0.46666667 
-1 1:2 2:1 3:5 4:21 5:0.57142854 6:2 7:3 8:0.23809522 9:0.28571427 10:0.28571427 11:0.19047618 12:41 13:0.21951219 14:4 15:0.51785713 16:56 17:0.21428573 18:0.25 19:0.26785713 20:0.26785713 21:0.25490198 22:1 23:0.2 24:0.40000001 
-0.7066159031969619 1:2 2:1 3:6 4:24 5:0.6521739 6:2 7:4 8:0.0869565 9:0.3043478 10:0.34782606 11:0.26086956 12:2 13:0.23404256 14:1 15:0.546875 16:64 17:0.203125 18:0.28125 19:0.265625 20:0.25 21:0.25423729 22:0.80000001 24:0.33333334 
-0.07934666392940935 4:25 5:0.5909091 6:3 7:5 8:0.13636363 9:0.45454544 10:0.13636363 11:0.27272725 12:10 13:0.36170211 14:3 15:0.5769231 16:52 17:0.19230771 18:0.3076923 19:0.26923078 20:0.23076922 21:0.36170211 22:2 23:0.22222222 
-0.01367203279535255 1:2 2:2 3:12 4:20 5:0.5 6:1 7:3 8:0.14999998 9:0.25 10:0.25 11:0.35000002 12:58 13:0.15789473 14:3 15:0.47945207 16:73 17:0.21917808 18:0.24657536 19:0.23287672 20:0.30136985 21:0.18032786 22:0.77777779 24:0.2173913 
-0.4266413892471064 1:3 2:2 3:12 4:22 5:0.40909094 6:1 7:1 8:0.22727275 9:0.18181819 10:0.22727275 11:0.36363637 12:12 13:0.069767445 14:1 15:0.44285715 16:70 17:0.24285716 18:0.1857143 19:0.25714284 20:0.3142857 21:0.15151516 22:1 23:0.36363637 24:0.30434781 
-1 3:4 4:22 5:0.5 6:3 7:3 8:0.22727275 9:0.22727275 10:0.27272725 11:0.27272725 12:20 13:0.20930232 14:4 15:0.4909091 16:55 17:0.21818179 18:0.21818179 19:0.27272725 20:0.2909091 21:0.17647059 22:1.25 23:0.24324325 
-0.4928639592322278 1:3 2:2 3:12 4:22 5:0.5909091 6:1 7:4 8:0.13636363 9:0.36363637 10:0.22727275 11:0.27272725 12:4 13:0.1627907 14:3 15:0.61194026 16:67 17:0.13432837 18:0.25373137 19:0.35820895 20:0.25373137 21:0.17460318 22:1 24:0.2 
-0.300365309318416 1:3 2:2 3:16 4:21 5:0.71428573 6:1 7:4 8:0.09523809 9:0.47619045 10:0.23809522 11:0.19047618 12:1 13:0.17073171 15:0.6438356 16:73 17:0.12328768 18:0.27397263 19:0.36986303 20:0.23287672 21:0.1594203 22:1 24:0.14285715 
-0.9988417952653323 3:4 4:22 5:0.5454545 6:1 7:2 8:0.090909064 9:0.27272725 10:0.27272725 11:0.36363637 12:61 13:0.095238097 14:1 15:0.5 16:62 17:0.22580647 18:0.2580645 19:0.24193549 20:0.27419353 21:0.079999998 22:1.2857143 23:0.34999999 
-0.3576037386796032 1:1 2:1 3:15 4:24 5:0.6956522 6:3 7:4 8:0.13043481 9:0.34782606 10:0.34782606 11:0.17391306 12:72 13:0.24444444 14:3 15:0.5697675 16:86 17:0.2093023 18:0.26744187 19:0.3023256 20:0.22093022 21:0.16216215 22:1.8333334 23:0.375 24:0.034482758 
-0.1622976723509933 3:2 4:24 5:0.5217391 6:2 7:4 8:0.17391306 9:0.3043478 10:0.21739131 11:0.3043478 12:37 13:0.17391305 14:4 15:0.5283019 16:53 17:0.20754719 18:0.24528301 19:0.2830189 20:0.26415092 21:0.16 22:0.66666669 23:0.16666667 
-0.9760367687445427 3:1 4:27 5:0.625 6:2 7:4 8:0.2916667 9:0.375 10:0.25 11:0.08333331 12:47 13:0.13725491 14:2 15:0.55357146 16:56 17:0.21428573 18:0.25 19:0.3035714 20:0.23214287 21:0.13207547 22:0.875 23:0.2 
-0.8646168731410672 1:2 2:3 3:21 4:21 5:0.57142854 6:3 7:3 8:0.14285713 9:0.23809522 10:0.3333333 11:0.28571427 12:64 13:0.2 14:4 15:0.5487805 16:82 17:0.17073172 18:0.23170733 19:0.31707317 20:0.28048778 21:0.16455697 22:1.6 24:0.12820514 
-0.09473403099905162 1:3 2:2 3:16 4:22 5:0.7619048 6:2 7:3 8:0.19047618 9:0.14285713 10:0.61904764 11:0.047619045 12:5 13:0.20930232 14:2 15:0.65384614 16:78 17:0.14102566 18:0.2948718 19:0.35897434 20:0.2051282 21:0.20547946 22:1.5 24:0.2 
-0.04697183273388561 3:2 4:22 5:0.6818182 6:3 7:6 8:0.13636363 9:0.22727275 10:0.45454544 11:0.18181819 12:13 13:0.31707317 14:1 15:0.75 16:48 17:0.08333331 18:0.3958333 19:0.3541667 20:0.16666669 21:0.2888889 22:3 23:0.2173913 
-0.2596510344562696 4:21 5:0.47619045 6:3 7:2 8:0.3333333 9:0.19047618 10:0.28571427 11:0.19047618 12:41 13:0.2820513 15:0.575 16:40 17:0.22500002 18:0.27499998 19:0.3 20:0.19999999 21:0.2 22:0.5 23:0.20930232 
-0.3859375227266872 1:2 2:1 3:12 4:22 5:0.5454545 6:2 7:2 8:0.04545456 9:0.36363637 10:0.18181819 11:0.40909094 12:62 13:0.37142858 14:3 15:0.4861111 16:72 17:0.19444442 18:0.2916667 19:0.19444442 20:0.31944442 21:0.28813559 23:0.23809524 24:0.16666667 
-0.9982125865973484 3:1 4:22 5:0.5 6:2 7:3 8:0.090909064 9:0.18181819 10:0.3181818 11:0.40909094 12:46 13:0.20930232 14:3 15:0.42372882 16:59 17:0.2542373 18:0.20338982 19:0.220339 20:0.32203388 21:0.2 22:1.4285715 23:0.25 
-0.9252525046079698 3:4 4:24 5:0.43478262 6:2 7:4 8:0.3043478 9:0.21739131 10:0.21739131 11:0.26086956 12:4 13:0.27659574 14:4 15:0.42028987 16:69 17:0.24637681 18:0.18840581 19:0.23188406 20:0.3333333 21:0.23636363 22:0.66666669 
-0.7923528270497361 4:27 5:0.5 6:2 7:3 8:0.3333333 9:0.4583333 10:0.041666687 11:0.16666669 12:55 13:0.25490198 14:4 15:0.4310345 16:58 17:0.25862068 18:0.24137932 19:0.18965518 20:0.31034482 21:0.19148937 22:1 23:0.31707317 
-0.09016298343565173 3:1 4:22 5:0.61904764 6:2 7:4 8:0.14285713 9:0.14285713 10:0.47619045 11:0.23809522 12:11 13:0.25581396 14:4 15:0.6226415 16:53 17:0.13207549 18:0.26415092 19:0.3584906 20:0.24528301 21:0.24444444 22:0.85714287 23:0.05882353 
-0.105609084142484 1:2 2:2 3:14 4:24 5:0.5454545 6:1 7:4 8:0.18181819 9:0.18181819 10:0.36363637 11:0.27272725 12:60 13:0.11111111 14:1 15:0.53246754 16:77 17:0.24675328 18:0.23376626 19:0.2987013 20:0.22077924 21:0.12676056 22:1.4285715 24:0.15384616 
-0.9616204114310372 3:2 4:22 5:0.5454545 6:2 7:3 8:0.18181819 9:0.22727275 10:0.3181818 11:0.27272725 12:48 13:0.14285715 14:1 15:0.5192308 16:52 17:0.26923078 18:0.23076922 19:0.28846157 20:0.21153843 21:0.13043478 22:1.25 23:0.090909094 
-1 1:2 2:1 3:6 4:26 5:0.5416666 6:1 7:2 8:0.041666687 9:0.20833331 10:0.3333333 11:0.4166667 12:51 13:0.2 14:3 15:0.578125 16:64 17:0.171875 18:0.3125 19:0.265625 20:0.25 21:0.2 24:0.2 
-0.2533239516321373 1:2 2:2 3:14 4:22 5:0.6818182 6:2 7:3 8:0.13636363 9:0.18181819 10:0.5 11:0.18181819 12:7 13:0.23076923 14:4 15:0.5263158 16:76 17:0.21052629 18:0.22368419 19:0.30263156 20:0.2631579 21:0.2238806 22:0.25 24:0.21428572 
-0.3763993104286044 1:2 2:2 3:16 4:25 5:0.55 6:3 7:3 8:0.10000002 9:0.35000002 10:0.19999999 11:0.35000002 12:68 13:0.15555556 14:2 15:0.5116279 16:86 17:0.22093022 18:0.22093022 19:0.2906977 20:0.26744187 21:0.19480519 22:1.2 24:0.25 
-0.7312169845623639 3:2 4:22 5:0.45454544 6:2 7:4 8:0.3181818 9:0.13636363 10:0.3181818 11:0.22727275 12:21 13:0.25581396 14:2 15:0.4423077 16:52 17:0.21153843 18:0.17307693 19:0.26923078 20:0.34615386 21:0.23404256 22:1.3333334 23:0.23076923 
-0.0671922083880514 1:2 2:3 3:20 4:22 5:0.5909091 6:3 7:3 8:0.22727275 9:0.3181818 10:0.27272725 11:0.18181819 12:3 13:0.25581396 14:3 15:0.47126436 16:87 17:0.20689654 18:0.21839082 19:0.25287354 20:0.3218391 21:0.24390244 22:0.625 24:0.23076923 
-0.8362784973740709 1:1 2:1 3:5 4:26 5:0.73913044 6:3 7:3 8:0.0869565 9:0.47826087 10:0.26086956 11:0.17391306 12:9 13:0.18367347 14:4 15:0.7419355 16:62 17:0.11290324 18:0.40322578 19:0.33870965 20:0.14516127 21:0.18644068 22:0.75 23:0.25 24:0.2 
-1 1:1 2:1 3:6 4:22 5:0.68421054 6:2 7:2 8:0.10526317 9:0.42105263 10:0.2631579 11:0.21052629 12:12 13:0.21951219 14:3 15:0.71428573 16:56 17:0.125 18:0.39285713 19:0.3214286 20:0.16071427 21:0.20754717 22:0.25 23:0.18181819 24:0.16666667 
-0.07128185921865578 1:1 2:1 3:11 4:22 5:0.5454545 6:2 7:4 8:0.18181819 9:0.13636363 10:0.40909094 11:0.27272725 12:58 13:0.22727273 14:3 15:0.43421054 16:76 17:0.2631579 18:0.18421054 19:0.25 20:0.30263156 21:0.16923077 22:0.875 24:0.047619049 
-0.07077934434544822 1:1 2:1 3:7 4:23 5:0.39130437 6:2 7:3 8:0.21739131 9:0.21739131 10:0.17391306 11:0.39130437 12:7 13:0.17391305 14:4 15:0.4285714 16:70 17:0.28571427 18:0.1857143 19:0.24285716 20:0.28571427 21:0.15254237 22:1.1111112 23:0.16666667 24:0.07692308 
-0.3707038613974925 1:1 2:2 3:12 4:22 5:0.5454545 6:2 7:2 8:0.18181819 9:0.22727275 10:0.3181818 11:0.27272725 12:68 13:0.13636364 14:2 15:0.6 16:80 17:0.19999999 18:0.3 19:0.3 20:0.19999999 21:0.14705883 22:0.80000001 23:0.11111111 24:0.16666667 
-1 1:2 2:1 3:6 4:24 5:0.40909094 6:2 7:1 8:0.13636363 9:0.22727275 10:0.18181819 11:0.45454544 12:46 13:0.043478262 14:3 15:0.51666665 16:60 17:0.21666664 18:0.23333335 19:0.28333336 20:0.26666665 21:0.071428575 22:0.5 23:0.06666667 24:0.2 
-0.2636687958590593 1:2 2:2 3:15 4:23 5:0.5909091 6:1 7:1 8:0.22727275 9:0.3181818 10:0.27272725 11:0.18181819 12:1 13:0.022222223 15:0.56 16:75 17:0.18666667 18:0.25333333 19:0.30666667 20:0.25333333 21:0.070422538 22:1 24:0.15384616 
-1 3:5 4:25 5:0.73913044 6:2 7:4 8:0.17391306 9:0.3043478 10:0.43478262 11:0.0869565 12:13 13:0.14893617 14:4 15:0.61904764 16:63 17:0.15873015 18:0.3333333 19:0.28571427 20:0.22222221 21:0.14285715 22:1.5 23:0.16666667 24:0.11111111 
-0.226786132094503 4:22 5:0.6363636 6:2 7:3 8:0.3181818 9:0.27272725 10:0.36363637 11:0.04545456 12:31 13:0.23809524 14:3 15:0.6590909 16:44 17:0.20454544 18:0.3181818 19:0.34090906 20:0.13636363 21:0.2 22:0.85714287 23:0.2 
-0.6875856960775881 3:5 4:22 5:0.40909094 6:1 7:1 8:0.04545456 9:0.22727275 10:0.18181819 11:0.5454545 12:42 13:0.045454547 14:1 15:0.4736842 16:57 17:0.2631579 18:0.19298244 19:0.28070176 20:0.2631579 21:0.16981132 22:0.89999998 24:0.77777779 
-0.1417811123315787 4:25 5:0.48000002 6:4 7:2 8:0.04000002 9:0.19999999 10:0.27999997 11:0.48000002 12:36 13:0.22448979 14:4 15:0.45098037 16:51 17:0.2745098 18:0.17647058 19:0.2745098 20:0.2745098 21:0.19148937 22:0.30000001 
-0.7656397236259065 3:2 4:29 5:0.5416666 6:3 7:3 8:0.25 9:0.3333333 10:0.20833331 11:0.20833331 12:38 13:0.13725491 14:3 15:0.5737705 16:61 17:0.19672132 18:0.27868855 19:0.29508197 20:0.22950822 21:0.12727273 22:0.83333331 
-0.892240483060281 3:5 4:23 5:0.5217391 6:1 7:2 8:0.17391306 9:0.26086956 10:0.26086956 11:0.3043478 12:2 13:0.095238097 14:2 15:0.5614035 16:57 17:0.19298244 18:0.2631579 19:0.2982456 20:0.24561405 21:0.098039217 22:1.6 24:0.11111111 
-0.7671506152347072 1:1 2:2 3:12 4:22 5:0.5 6:3 7:2 8:0.18181819 9:0.3181818 10:0.18181819 11:0.3181818 12:53 13:0.20930232 14:1 15:0.5774648 16:71 17:0.18309861 18:0.25352114 19:0.32394367 20:0.23943663 21:0.21212122 22:0.90909094 24:0.2173913 
-0.8243457559817663 4:24 5:0.5909091 6:3 7:4 8:0.090909064 9:0.13636363 10:0.45454544 11:0.3181818 12:14 13:0.2173913 14:3 15:0.5294118 16:51 17:0.19607842 18:0.2352941 19:0.29411763 20:0.2745098 21:0.2173913 22:1.125 23:0.15384616 
-0.6783210588795164 3:1 4:25 5:0.8181818 6:2 7:4 8:0.13636363 9:0.36363637 10:0.45454544 11:0.04545456 12:41 13:0.17391305 14:3 15:0.66101694 16:59 17:0.11864406 18:0.30508476 19:0.35593218 20:0.220339 21:0.16666667 22:1.25 23:0.25 
-0.2670764313824518 3:1 4:21 5:0.57142854 6:3 7:2 8:0.23809522 9:0.23809522 10:0.3333333 11:0.19047618 12:8 13:0.1891892 14:2 15:0.53488374 16:43 17:0.2093023 18:0.23255813 19:0.3023256 20:0.25581396 21:0.17948718 22:1 
-0.6674984498904657 1:2 2:1 3:8 4:22 5:0.5909091 6:6 7:2 8:0.18181819 9:0.18181819 10:0.40909094 11:0.22727275 12:43 13:0.2631579 14:3 15:0.5964912 16:57 17:0.17543858 18:0.28070176 19:0.31578946 20:0.2280702 21:0.25925925 22:1.2 24:0.25 
-0.291607590211465 3:1 4:21 5:0.47619045 6:6 7:2 8:0.23809522 9:0.19047618 10:0.28571427 11:0.28571427 12:36 13:0.27777779 14:3 15:0.53658533 16:41 17:0.21951222 18:0.21951222 19:0.31707317 20:0.24390244 21:0.2631579 22:0.44444445 23:0.13333334 
-0.2725533141111166 4:20 5:0.45 6:1 7:1 8:0.25 9:0.25 10:0.19999999 11:0.3 12:18 13:0.17948718 14:1 15:0.47727275 16:44 17:0.22727275 18:0.25 19:0.22727275 20:0.29545456 21:0.030303031 22:3.5 23:0.1875 
-0.1862892561148408 4:22 5:0.36363637 6:5 7:2 8:0.18181819 9:0.090909064 10:0.27272725 11:0.45454544 12:33 13:0.2682927 15:0.4285714 16:42 17:0.23809522 18:0.21428573 19:0.21428573 20:0.3333333 21:0.23076923 22:0.60000002 23:0.2173913 
-1 3:4 4:22 5:0.5 6:1 7:1 8:0.18181819 9:0.3181818 10:0.18181819 11:0.3181818 12:9 13:0.045454547 14:1 15:0.53225803 16:62 17:0.17741936 18:0.22580647 19:0.30645162 20:0.2903226 21:0.07692308 22:1 23:0.17647059 24:0.25 
-1 1:3 2:1 3:9 4:22 5:0.6818182 6:1 7:5 8:0.22727275 9:0.22727275 10:0.45454544 11:0.090909064 12:50 13:0.17073171 14:1 15:0.6818182 16:66 17:0.13636363 18:0.3333333 19:0.34848487 20:0.18181819 21:0.19298245 22:1.125 23:0.11111111 24:0.25 
-0.169151054179505 4:26 5:0.7083334 6:3 7:4 8:0.16666669 9:0.2916667 10:0.4166667 11:0.125 12:39 13:0.375 15:0.6734694 16:49 17:0.14285713 18:0.32653064 19:0.3469388 20:0.18367344 21:0.25 23:0.07692308 
-0.3800282009202595 3:11 4:23 5:0.47826087 6:2 7:3 8:0.21739131 9:0.39130437 10:0.0869565 11:0.3043478 12:1 13:0.26086956 15:0.45569623 16:79 17:0.22784811 18:0.22784811 19:0.22784811 20:0.31645572 21:0.17647059 22:1.5 
-0.2629336092024259 4:24 5:0.4166667 6:1 7:2 8:0.2916667 9:0.08333331 10:0.3333333 11:0.2916667 12:33 13:0.16666667 14:2 15:0.44 16:50 17:0.27999997 18:0.18 19:0.26 20:0.27999997 21:0.13043478 22:0.5 23:0.16666667 
-0.5048348475781872 1:1 2:1 3:8 4:20 5:0.45 6:2 7:2 8:0.3 9:0.3 10:0.14999998 11:0.25 12:2 13:0.15000001 14:2 15:0.4166667 16:60 17:0.3 18:0.18333334 19:0.23333335 20:0.28333336 21:0.14285715 22:1.5 24:0.125 
-1 3:3 4:24 5:0.5217391 6:2 7:3 8:0.13043481 9:0.34782606 10:0.17391306 11:0.34782606 12:44 13:0.19148937 14:4 15:0.47540987 16:61 17:0.22950822 18:0.19672132 19:0.27868855 20:0.29508197 21:0.16981132 22:1 23:0.2 
-0.2837057980462458 3:2 4:22 5:0.7619048 6:4 7:3 8:0.14285713 9:0.19047618 10:0.57142854 11:0.09523809 12:38 13:0.2682927 14:2 15:0.72 16:50 17:0.13999999 18:0.27999997 19:0.44 20:0.13999999 21:0.24444444 22:1.1428572 
-1 1:1 2:1 3:10 4:20 5:0.65 6:1 7:2 8:0.050000012 9:0.39999998 10:0.25 11:0.3 12:3 13:0.12820514 14:2 15:0.7258065 16:62 17:0.11290324 18:0.27419353 19:0.4516129 20:0.16129035 21:0.19298245 22:1.25 24:0.33333334 
-1 1:3 2:1 3:8 4:23 5:0.6818182 6:1 7:4 8:0.090909064 9:0.36363637 10:0.3181818 11:0.22727275 12:43 13:0.15555556 14:2 15:0.6666666 16:63 17:0.12698412 18:0.36507934 19:0.30158728 20:0.2063492 21:0.18644068 22:1 24:0.2857143 
-0.5734308462081295 1:3 2:2 3:12 4:21 5:0.71428573 6:3 7:3 8:0.19047618 9:0.28571427 10:0.4285714 11:0.09523809 12:4 13:0.21951219 14:2 15:0.530303 16:66 17:0.18181819 18:0.27272725 19:0.25757575 20:0.2878788 21:0.23809524 22:0.63636363 24:0.27272728 
-0.2248246991410732 4:24 5:0.4583333 6:2 7:3 8:0.25 9:0.08333331 10:0.375 11:0.2916667 12:31 13:0.34782609 15:0.54347825 16:46 17:0.15217394 18:0.23913044 19:0.3043478 20:0.3043478 21:0.16666667 
-0.1387194733708922 1:3 2:1 3:10 4:22 5:0.40909094 6:2 7:4 8:0.36363637 9:0.27272725 10:0.13636363 11:0.22727275 12:2 13:0.22727273 14:4 15:0.39705884 16:68 17:0.30882353 18:0.20588237 19:0.19117647 20:0.29411763 21:0.22580644 22:1 24:0.22222222 
-0.00374991016016694 3:1 4:24 5:0.5454545 6:3 7:4 8:0.27272725 9:0.3181818 10:0.22727275 11:0.18181819 12:9 13:0.26086956 14:2 15:0.4259259 16:54 17:0.2962963 18:0.22222221 19:0.2037037 20:0.2777778 21:0.25 22:1 23:0.125 
-0.1551128583722871 4:23 5:0.3043478 6:2 7:3 8:0.17391306 9:0.0869565 10:0.21739131 11:0.5217391 12:48 13:0.2888889 14:1 15:0.38297874 16:47 17:0.25531918 18:0.17021275 19:0.21276593 20:0.36170214 21:0.21951219 22:0.33333334 23:0.2173913 
-0.4761926979870814 1:2 2:2 3:16 4:22 5:0.57142854 6:3 7:3 8:0.19047618 9:0.38095236 10:0.19047618 11:0.23809522 12:7 13:0.25581396 14:3 15:0.43209875 16:81 17:0.23456788 18:0.20987654 19:0.22222221 20:0.3333333 21:0.22666667 22:1.1666666 23:0.16666667 24:0.1875 
-0.02466782339872992 1:1 2:2 3:13 4:23 5:0.5 6:1 7:3 8:0.13636363 9:0.3181818 10:0.18181819 11:0.36363637 12:56 13:0.090909094 14:1 15:0.5479452 16:73 17:0.1917808 18:0.1917808 19:0.3561644 20:0.260274 21:0.10144927 22:1.5714285 24:0.12 
-0.1198000401026623 1:2 2:3 3:15 4:21 5:0.71428573 6:1 7:3 8:0.14285713 9:0.23809522 10:0.47619045 11:0.14285713 12:2 13:0.14285715 14:2 15:0.6486486 16:74 17:0.17567569 18:0.35135138 19:0.2972973 20:0.17567569 21:0.17142858 22:1.2222222 24:0.21428572 
-0.3647517307688588 3:2 4:21 5:0.6666666 6:2 7:5 8:0.09523809 9:0.38095236 10:0.28571427 11:0.23809522 12:42 13:0.25 14:4 15:0.6458334 16:48 17:0.16666669 18:0.375 19:0.2708333 20:0.1875 21:0.22727273 22:0.75 23:0.071428575 
-0.4691998210223119 1:1 2:2 3:17 4:23 5:0.72727275 6:2 7:3 8:0.18181819 9:0.3181818 10:0.40909094 11:0.090909064 12:1 13:0.2 15:0.48888886 16:90 17:0.17777777 18:0.22222221 19:0.26666665 20:0.3333333 21:0.16455697 22:1.25 24:0.11764706 
-0.2268147300560617 4:23 5:0.34782606 6:1 7:2 8:0.13043481 9:0.21739131 10:0.13043481 11:0.5217391 12:22 13:0.34782609 14:4 15:0.34042555 16:47 17:0.21276593 18:0.17021275 19:0.17021275 20:0.44680852 21:0.16666667 23:0.1627907 
-0.3839848673553863 1:2 2:2 3:12 4:27 5:0.5833334 6:4 7:4 8:0.20833331 9:0.2916667 10:0.2916667 11:0.20833331 12:60 13:0.25490198 14:2 15:0.5584415 16:77 17:0.23376626 18:0.27272725 19:0.28571427 20:0.20779222 21:0.23287672 22:1.125 23:0.33333334 24:0.18181819 
-0.6217501041842369 1:2 2:3 3:22 4:18 5:0.5555556 6:4 7:2 8:0.2777778 9:0.22222221 10:0.3333333 11:0.16666669 12:6 13:0.29411766 14:1 15:0.56962025 16:79 17:0.22784811 18:0.278481 19:0.29113925 20:0.20253164 21:0.22666667 22:1.1428572 23:0.40000001 24:0.17073171 
-0.1680697930882366 4:21 5:0.57142854 6:3 7:2 8:0.14285713 9:0.28571427 10:0.28571427 11:0.28571427 12:40 13:0.33333334 14:4 15:0.47727275 16:44 17:0.29545456 18:0.22727275 19:0.25 20:0.22727275 21:0.22222222 22:0.30000001 23:0.125 
-0.5177200540101254 1:1 2:1 3:10 4:22 5:0.5 6:3 7:2 8:0.22727275 9:0.13636363 10:0.36363637 11:0.27272725 12:3 13:0.22727273 14:2 15:0.4861111 16:72 17:0.22222221 18:0.20833331 19:0.2777778 20:0.2916667 21:0.1875 22:5 24:0.1 
-1 1:2 2:3 3:10 4:22 5:0.6363636 6:2 7:2 8:0.22727275 9:0.22727275 10:0.40909094 11:0.13636363 12:48 13:0.20930232 14:3 15:0.5909091 16:66 17:0.13636363 18:0.25757575 19:0.3333333 20:0.27272725 21:0.25806451 22:1 24:0.36842105 
-0.9558749083422241 3:2 4:26 5:0.625 6:2 7:5 8:0.08333331 9:0.20833331 10:0.4166667 11:0.2916667 12:8 13:0.28 14:3 15:0.5862069 16:58 17:0.12068963 18:0.24137932 19:0.3448276 20:0.29310346 21:0.25925925 22:3.5 23:0.14285715 
-0.2839962073503128 1:1 2:2 3:14 4:22 5:0.5454545 6:2 7:4 8:0.22727275 9:0.27272725 10:0.27272725 11:0.22727275 12:62 13:0.25581396 14:2 15:0.5243902 16:82 17:0.18292683 18:0.24390244 19:0.28048778 20:0.29268295 21:0.2 22:0.875 24:0.11111111 
-0.6857146039338591 4:22 5:0.45454544 6:1 7:4 8:0.27272725 9:0.18181819 10:0.27272725 11:0.27272725 12:6 13:0.19047619 14:2 15:0.4375 16:48 17:0.25 18:0.20833331 19:0.22916669 20:0.3125 21:0.15000001 22:1.6 
-1 3:1 4:22 5:0.5909091 6:1 7:3 8:0.18181819 9:0.3181818 10:0.27272725 11:0.22727275 12:9 13:0.13636364 14:3 15:0.57407403 16:54 17:0.1111111 18:0.2777778 19:0.2962963 20:0.3148148 21:0.13043478 22:1 23:0.25 
-0.1038826077529657 4:22 5:0.45454544 6:1 7:1 8:0.27272725 9:0.18181819 10:0.27272725 11:0.27272725 12:11 13:0.27272728 14:1 15:0.46666664 16:45 17:0.22222221 18:0.22222221 19:0.24444443 20:0.3111111 21:0.05882353 23:0.1 
-0.6584847939456319 1:2 2:1 3:13 4:22 5:0.5909091 6:1 7:4 8:0.27272725 9:0.3181818 10:0.27272725 11:0.13636363 12:53 13:0.14285715 14:3 15:0.5416666 16:72 17:0.22222221 18:0.2361111 19:0.30555558 20:0.2361111 21:0.12121212 22:0.69999999 24:0.083333336 
-0.5396593851110788 1:3 2:2 3:16 4:24 5:0.5 6:3 7:4 8:0.2916667 9:0.16666669 10:0.3333333 11:0.20833331 12:5 13:0.2 14:3 15:0.5432099 16:81 17:0.22222221 18:0.25925928 19:0.28395063 20:0.23456788 21:0.22077923 22:3.6666667 23:0.5 24:0.25 
-0.1338334474038948 4:27 5:0.47826087 6:2 7:3 8:0.3043478 9:0.26086956 10:0.21739131 11:0.21739131 12:37 13:0.16 15:0.5098039 16:51 17:0.21568626 18:0.25490195 19:0.25490195 20:0.2745098 21:0.125 22:0.60000002 23:0.46666667 
-0.1684963588567602 4:21 5:0.57142854 6:2 7:3 8:0.14285713 9:0.28571427 10:0.28571427 11:0.28571427 12:14 13:0.15789473 14:1 15:0.53658533 16:41 17:0.19512194 18:0.26829267 19:0.26829267 20:0.26829267 21:0.15789473 22:0.83333331 23:0.28 
-0.703557718261456 1:2 2:1 3:11 4:21 5:0.71428573 6:1 7:3 8:0.19047618 9:0.3333333 10:0.38095236 11:0.09523809 12:13 13:0.17073171 14:3 15:0.671875 16:64 17:0.203125 18:0.3125 19:0.359375 20:0.125 21:0.18032786 22:0.45454547 23:0.18181819 24:0.2 
-0.6980165697550557 1:2 2:2 3:12 4:23 5:0.6956522 6:2 7:4 8:0.17391306 9:0.34782606 10:0.34782606 11:0.13043481 12:10 13:0.18181819 14:2 15:0.6666666 16:69 17:0.20289856 18:0.3043478 19:0.3623188 20:0.13043481 21:0.18181819 22:0.625 23:0.17647059 24:0.18181819 
-0.9935134232065288 1:1 2:2 3:11 4:25 5:0.4166667 6:2 7:4 8:0.20833331 9:0.125 10:0.2916667 11:0.375 12:47 13:0.22727273 14:3 15:0.48571426 16:70 17:0.27142859 18:0.22857141 19:0.25714284 20:0.24285716 21:0.2 22:1.75 24:0.14285715 
-0.1376935462352926 4:22 5:0.71428573 6:2 7:4 8:0.047619045 9:0.19047618 10:0.52380955 11:0.23809522 12:35 13:0.33333334 15:0.6904762 16:42 17:0.0714286 18:0.30952382 19:0.38095236 20:0.23809522 21:0.2631579 22:0.33333334 23:0.11111111 
-0.9977968121958938 1:1 2:1 3:6 4:23 5:0.6818182 6:2 7:3 8:0.18181819 9:0.3181818 10:0.36363637 11:0.13636363 12:43 13:0.27272728 14:3 15:0.70689654 16:58 17:0.10344827 18:0.36206895 19:0.3448276 20:0.18965518 21:0.25925925 22:0.66666669 23:0.16666667 24:0.2 
-0.04137063664295398 4:25 5:0.5416666 6:3 7:2 8:0.25 9:0.20833331 10:0.3333333 11:0.20833331 12:39 13:0.19148937 15:0.5625 16:48 17:0.16666669 18:0.20833331 19:0.3541667 20:0.2708333 21:0.11627907 22:0.85714287 23:0.25925925 
-0.3107014210085872 1:1 2:1 3:12 4:23 5:0.5 6:2 7:3 8:0.22727275 9:0.27272725 10:0.22727275 11:0.27272725 12:69 13:0.24444444 14:3 15:0.4583333 16:72 17:0.2361111 18:0.16666669 19:0.2916667 20:0.30555558 21:0.17647059 22:0.5 23:0.46666667 24:0.043478262 
-0.5643167250837957 1:2 2:3 3:22 4:22 5:0.5454545 6:2 7:2 8:0.27272725 9:0.18181819 10:0.36363637 11:0.18181819 12:10 13:0.30000001 14:1 15:0.48275864 16:87 17:0.21839082 18:0.17241377 19:0.31034482 20:0.2988506 21:0.22891566 22:0.375 23:0.46666667 24:0.1627907 
-0.1947679470775712 3:6 4:23 5:0.6363636 6:3 7:3 8:0.27272725 9:0.5909091 10:0.04545456 11:0.090909064 12:9 13:0.24444444 14:3 15:0.530303 16:66 17:0.16666669 18:0.27272725 19:0.25757575 20:0.3030303 21:0.19298245 22:1.125 23:0.17647059 
-0.8920813806399114 3:1 4:24 5:0.625 6:2 7:1 8:0.2916667 9:0.20833331 10:0.4166667 11:0.08333331 12:42 13:0.083333336 14:2 15:0.60655737 16:61 17:0.16393441 18:0.27868855 19:0.32786888 20:0.22950822 21:0.079999998 22:1.2222222 
-0.9613169905589521 4:24 5:0.625 6:2 7:1 8:0.08333331 9:0.4166667 10:0.20833331 11:0.2916667 12:8 13:0.16666667 14:1 15:0.6363636 16:55 17:0.14545453 18:0.2909091 19:0.34545457 20:0.21818179 21:0.090909094 22:1.5 
-1 3:1 4:22 5:0.6363636 6:1 7:3 8:0.13636363 9:0.27272725 10:0.36363637 11:0.22727275 12:3 13:0.11627907 14:2 15:0.6333333 16:60 17:0.19999999 18:0.3 19:0.3333333 20:0.16666669 21:0.11111111 22:0.72727275 
-0.8350337387616202 3:2 4:23 5:0.6363636 6:2 7:3 8:0.090909064 9:0.3181818 10:0.3181818 11:0.27272725 12:14 13:0.1627907 14:2 15:0.57894737 16:57 17:0.21052629 18:0.3333333 19:0.24561405 20:0.21052629 21:0.14893617 22:1.375 23:0.13043478 
-0.295464308053896 1:1 2:3 3:13 4:21 5:0.85 6:2 7:3 8:0.050000012 9:0.39999998 10:0.45 11:0.10000002 12:6 13:0.21951219 14:2 15:0.7183099 16:71 17:0.08450705 18:0.26760566 19:0.45070422 20:0.19718307 21:0.21212122 22:1.7142857 24:0.2 
-0.1462802523309466 4:26 5:0.5909091 6:3 7:3 8:0.090909064 9:0.3181818 10:0.27272725 11:0.3181818 12:38 13:0.20833333 14:1 15:0.5090909 16:55 17:0.23636365 18:0.23636365 19:0.27272725 20:0.25454545 21:0.17391305 22:0.80000001 
-0.188247427942249 1:2 2:2 3:16 4:22 5:0.5909091 6:2 7:3 8:0.22727275 9:0.27272725 10:0.3181818 11:0.18181819 12:62 13:0.19047619 14:4 15:0.4375 16:80 17:0.3125 18:0.23750001 19:0.19999999 20:0.25 21:0.21621622 22:1.1428572 24:0.25 
-0.4208959858134756 4:22 5:0.5454545 6:1 7:2 8:0.13636363 9:0.18181819 10:0.36363637 11:0.3181818 12:54 13:0.11627907 14:2 15:0.63265306 16:49 17:0.14285713 18:0.26530612 19:0.36734694 20:0.22448981 21:0.073170729 22:0.5 23:0.20754717 
-1 1:4 2:1 3:8 4:22 5:0.77272725 6:2 7:3 8:0.18181819 9:0.36363637 10:0.40909094 11:0.04545456 12:43 13:0.2857143 14:2 15:0.578125 16:64 17:0.15625 18:0.25 19:0.328125 20:0.265625 21:0.34482759 22:3.6666667 24:0.5 
-0.2693127732759938 3:6 4:24 5:0.6363636 6:2 7:3 8:0.04545456 9:0.22727275 10:0.40909094 11:0.3181818 12:1 13:0.26086956 15:0.578125 16:64 17:0.15625 18:0.25 19:0.328125 20:0.265625 21:0.34482759 22:0.27272728 24:0.66666669 
-0.6079054013448663 3:2 4:21 5:0.71428573 6:1 7:3 8:0.19047618 9:0.38095236 10:0.3333333 11:0.09523809 12:38 13:0.12195122 14:3 15:0.6111111 16:54 17:0.12962961 18:0.2962963 19:0.3148148 20:0.25925928 21:0.11111111 22:1 
-0.4592892784728588 3:7 4:23 5:0.52380955 6:2 7:2 8:0.19047618 9:0.09523809 10:0.4285714 11:0.28571427 12:16 13:0.18181819 14:3 15:0.5142857 16:70 17:0.22857141 18:0.21428573 19:0.3 20:0.25714284 21:0.1724138 22:0.60000002 23:0.5 24:0.14285715 
-0.5224336246778203 1:2 2:2 3:19 4:24 5:0.6818182 6:6 7:4 8:0.04545456 9:0.40909094 10:0.27272725 11:0.27272725 12:75 13:0.42222223 14:4 15:0.5212766 16:94 17:0.20212764 18:0.24468082 19:0.27659577 20:0.27659577 21:0.29268292 22:1.8333334 24:0.13513513 
-0.8875626014501814 3:3 4:21 5:0.47619045 6:2 7:2 8:0.14285713 9:0.23809522 10:0.23809522 11:0.38095236 12:4 13:0.19047619 14:1 15:0.5283019 16:53 17:0.2264151 18:0.24528301 19:0.2830189 20:0.24528301 21:0.16666667 22:1.2857143 
-0.4251461925054149 4:21 5:0.47619045 6:2 7:3 8:0.047619045 9:0.14285713 10:0.3333333 11:0.47619045 12:24 13:0.2820513 14:3 15:0.525 16:40 17:0.14999998 18:0.25 19:0.27499998 20:0.325 21:0.15151516 22:5 23:0.17391305 
-1 4:24 5:0.43478262 6:3 7:3 8:0.34782606 9:0.17391306 10:0.26086956 11:0.21739131 12:17 13:0.30434781 14:3 15:0.4528302 16:53 17:0.26415092 18:0.2264151 19:0.2264151 20:0.2830189 21:0.23809524 22:1.6 23:0.23529412 
-0.132171954428065 1:3 2:1 3:9 4:22 5:0.6363636 6:2 7:3 8:0.18181819 9:0.22727275 10:0.40909094 11:0.18181819 12:1 13:0.18181819 15:0.6 16:70 17:0.12857145 18:0.27142859 19:0.32857144 20:0.27142859 21:0.22580644 22:1.5714285 24:0.33333334 
-0.03952991320542881 3:1 4:23 5:0.5 6:2 7:6 8:0.22727275 9:0.22727275 10:0.27272725 11:0.27272725 12:41 13:0.27272728 14:4 15:0.5192308 16:52 17:0.23076922 18:0.26923078 19:0.25 20:0.25 21:0.26086956 22:0.85714287 23:0.11111111 
-0.5271836670246765 1:1 2:2 3:10 4:23 5:0.6363636 6:3 7:4 8:0.22727275 9:0.27272725 10:0.36363637 11:0.13636363 12:56 13:0.31818181 14:4 15:0.5588235 16:68 17:0.19117647 18:0.25 19:0.30882353 20:0.25 21:0.26984128 23:0.11111111 24:0.15789473 
-0.04490281190060775 1:1 2:2 3:11 4:24 5:0.6521739 6:1 7:5 8:0.17391306 9:0.26086956 10:0.39130437 11:0.17391306 12:57 13:0.31914893 14:4 15:0.5694444 16:72 17:0.18055558 18:0.2638889 19:0.30555558 20:0.25 21:0.28358209 22:0.375 24:0.2 
-0.5827017927071358 1:1 2:2 3:10 4:22 5:0.3181818 6:3 7:3 8:0.3181818 9:0.13636363 10:0.18181819 11:0.36363637 12:8 13:0.27272728 14:3 15:0.43478262 16:69 17:0.18840581 18:0.17391306 19:0.26086956 20:0.37681162 21:0.23809524 22:0.44444445 23:0.2 24:0.15789473 
-0.5475086309843975 1:2 2:5 3:34 4:24 5:0.5454545 6:6 7:3 8:0.18181819 9:0.13636363 10:0.40909094 11:0.27272725 12:2 13:0.30434781 14:1 15:0.50427353 16:117 17:0.18803418 18:0.23076922 19:0.27350426 20:0.3076923 21:0.25663716 22:0.77777779 24:0.2238806 
-0.4160266085316511 1:1 2:2 3:12 4:22 5:0.5454545 6:2 7:3 8:0.13636363 9:0.22727275 10:0.3181818 11:0.3181818 12:73 13:0.25581396 14:2 15:0.49295777 16:71 17:0.18309861 18:0.25352114 19:0.23943663 20:0.32394367 21:0.2238806 22:1.8 23:0.29166666 24:0.16666667 
-1 3:2 4:26 5:0.7083334 6:3 7:3 8:0.16666669 9:0.4166667 10:0.2916667 11:0.125 12:23 13:0.23999999 14:4 15:0.54385966 16:57 17:0.17543858 18:0.21052629 19:0.3333333 20:0.28070176 21:0.22222222 22:1.6 23:0.18518518 
-0.08898923099810052 4:22 5:0.45454544 6:2 7:2 8:0.18181819 9:0.27272725 10:0.18181819 11:0.36363637 12:23 13:0.25 14:4 15:0.5121951 16:41 17:0.19512194 18:0.21951222 19:0.29268295 20:0.29268295 21:0.11764706 22:2.5 23:0.22727273 
-0.3047354417706943 3:1 4:29 5:0.5 6:7 7:4 8:0.22727275 9:0.27272725 10:0.22727275 11:0.27272725 12:53 13:0.29411766 14:3 15:0.5263158 16:57 17:0.2280702 18:0.24561405 19:0.28070176 20:0.24561405 21:0.28301886 22:1.1666666 23:0.23529412 
-0.5500393141354176 1:9 2:3 3:27 4:22 5:0.6363636 6:1 7:3 8:0.13636363 9:0.40909094 10:0.22727275 11:0.22727275 12:75 13:0.13636364 14:2 15:0.5729166 16:96 17:0.14583331 18:0.25 19:0.3229167 20:0.28125 21:0.21348314 22:1.2222222 24:0.2888889 
-1 3:9 4:22 5:0.5 6:1 7:2 8:0.18181819 9:0.36363637 10:0.13636363 11:0.3181818 12:57 13:0.23076923 14:4 15:0.56666666 16:60 17:0.16666669 18:0.26666665 19:0.3 20:0.26666665 21:0.24528302 23:0.16666667 24:0.2857143 
-0.5477605185687948 4:21 5:0.47619045 6:12 7:1 8:0.38095236 9:0.3333333 10:0.14285713 11:0.14285713 12:32 13:0.53333336 15:0.5 16:30 17:0.3333333 18:0.3333333 19:0.16666669 20:0.16666669 21:0.46153846 22:0.60000002 23:0.22727273 
-0.1056291936946945 1:2 2:2 3:20 4:22 5:0.5454545 6:2 7:3 8:0.18181819 9:0.3181818 10:0.22727275 11:0.27272725 12:1 13:0.23809524 15:0.5764706 16:85 17:0.19999999 18:0.28235292 19:0.29411763 20:0.2235294 21:0.18518518 22:2.2 24:0.12820514 
