svm_type c_svc
kernel_type rbf
gamma 0.0416667
nr_class 2
total_sv 452
rho 0.482325
label 1 0
probA -4.94856
probB -1.91663
nr_sv 185 267
SV
1 3:4 4:23 5:0.39130437 6:2 7:2 8:0.17391306 9:0.21739131 10:0.17391306 11:0.43478262 12:4 13:0.15555556 14:4 15:0.42372882 16:59 17:0.23728812 18:0.16949153 19:0.2542373 20:0.33898306 21:0.24528302 22:0.25 24:0.75 
1 1:3 2:1 3:6 4:23 5:0.45454544 6:2 7:2 8:0.22727275 9:0.090909064 10:0.36363637 11:0.3181818 12:43 13:0.24444444 14:3 15:0.39682537 16:63 17:0.25396824 18:0.15873015 19:0.23809522 20:0.34920633 21:0.29824561 22:4.5 24:0.5 
1 3:1 4:22 5:0.6363636 6:4 7:2 8:0.13636363 9:0.40909094 10:0.22727275 11:0.22727275 12:7 13:0.27272728 14:3 15:0.6111111 16:54 17:0.2037037 18:0.3148148 19:0.2962963 20:0.1851852 21:0.26086956 22:0.8888889 
1 3:3 4:22 5:0.6363636 6:4 7:3 8:0.3181818 9:0.22727275 10:0.40909094 11:0.04545456 12:41 13:0.27272728 14:3 15:0.63793105 16:58 17:0.18965518 18:0.32758623 19:0.31034482 20:0.17241377 21:0.23999999 22:1.1111112 
1 3:5 4:21 5:0.57142854 6:2 7:3 8:0.3333333 9:0.047619045 10:0.52380955 11:0.09523809 12:17 13:0.2682927 14:2 15:0.5818182 16:55 17:0.23636365 18:0.34545457 19:0.23636365 20:0.18181819 21:0.31999999 22:2 23:0.22580644 24:0.55555558 
1 3:3 4:25 5:0.40909094 6:2 7:3 8:0.090909064 9:0.13636363 10:0.27272725 11:0.5 12:47 13:0.19148937 14:2 15:0.46551722 16:58 17:0.24137932 18:0.18965518 19:0.2758621 20:0.29310346 21:0.16981132 22:1 23:0.30000001 
0.824315556857679 3:5 4:22 5:0.47619045 6:2 7:2 8:0.19047618 9:0.28571427 10:0.19047618 11:0.3333333 12:21 13:0.11627907 14:2 15:0.5090909 16:55 17:0.23636365 18:0.25454545 19:0.25454545 20:0.25454545 21:0.1923077 22:1.125 23:0.31818181 24:0.55555558 
0.4765864155333137 1:2 2:1 3:5 4:22 5:0.57142854 6:2 7:3 8:0.14285713 9:0.23809522 10:0.3333333 11:0.28571427 12:5 13:0.20930232 14:2 15:0.5 16:58 17:0.2241379 18:0.24137932 19:0.25862068 20:0.2758621 21:0.24528302 22:1 23:0.25 24:0.40000001 
1 1:2 2:1 3:7 4:23 5:0.6086956 6:2 7:4 8:0.26086956 9:0.3043478 10:0.3043478 11:0.13043481 12:43 13:0.24444444 14:3 15:0.546875 16:64 17:0.203125 18:0.28125 19:0.265625 20:0.25 21:0.25423729 22:0.875 24:0.2857143 
1 1:2 2:2 3:10 4:22 5:0.6363636 6:2 7:4 8:0.27272725 9:0.22727275 10:0.40909094 11:0.090909064 12:47 13:0.33333334 14:2 15:0.6060606 16:66 17:0.19696969 18:0.3333333 19:0.27272725 20:0.19696969 21:0.3442623 22:1 24:0.36842105 
1 4:22 5:0.5 6:2 7:3 8:0.19999999 9:0.3 10:0.19999999 11:0.3 12:14 13:0.14285715 14:2 15:0.46296299 16:54 17:0.22222221 18:0.24074072 19:0.22222221 20:0.3148148 21:0.14285715 22:1.125 23:0.18518518 
0.4208664433723322 3:6 4:22 5:0.45454544 6:3 7:2 8:0.27272725 9:0.18181819 10:0.27272725 11:0.27272725 12:18 13:0.1627907 14:3 15:0.45762712 16:59 17:0.23728812 18:0.20338982 19:0.2542373 20:0.30508476 21:0.16363636 22:1.5 23:0.27272728 24:0.16666667 
0.3773499606753452 3:3 4:26 5:0.5909091 6:3 7:5 8:0.13636363 9:0.27272725 10:0.3181818 11:0.27272725 12:9 13:0.20833333 14:1 15:0.5862069 16:58 17:0.13793105 18:0.24137932 19:0.3448276 20:0.2758621 21:0.18518518 22:2.3333333 23:0.06666667 
1 1:3 2:2 3:13 4:22 5:0.71428573 6:1 7:4 8:0.14285713 9:0.23809522 10:0.47619045 11:0.14285713 12:51 13:0.1627907 14:2 15:0.6231884 16:69 17:0.13043481 18:0.26086956 19:0.3623188 20:0.24637681 21:0.16923077 22:1 24:0.18181819 
0.6430439778874096 3:3 4:23 5:0.5217391 6:1 7:2 8:0.0869565 9:0.26086956 10:0.26086956 11:0.39130437 12:60 13:0.090909094 14:1 15:0.5 16:62 17:0.22580647 18:0.2580645 19:0.24193549 20:0.27419353 21:0.079999998 22:1.2857143 23:0.34999999 
0.2313379533534803 1:1 2:1 3:5 4:23 5:0.6086956 6:2 7:3 8:0.17391306 9:0.21739131 10:0.39130437 11:0.21739131 12:5 13:0.2 14:1 15:0.5263158 16:57 17:0.21052629 18:0.2280702 19:0.2982456 20:0.2631579 21:0.18518518 22:0.5 24:0.11111111 
0.5968714851045179 1:1 2:1 3:5 4:24 5:0.5 6:2 7:3 8:0.16666669 9:0.16666669 10:0.3333333 11:0.3333333 12:14 13:0.17391305 14:2 15:0.55172414 16:58 17:0.20689654 18:0.25862068 19:0.29310346 20:0.24137932 21:0.16363636 22:0.80000001 23:0.14285715 24:0.11111111 
0.3634543187806294 1:3 2:1 3:9 4:21 5:0.61904764 6:2 7:1 8:0.09523809 9:0.57142854 10:0.047619045 11:0.28571427 12:54 13:0.14285715 14:4 15:0.60317457 16:63 17:0.17460316 18:0.25396824 19:0.34920633 20:0.22222221 21:0.20689656 22:1.25 23:0.13043478 24:0.375 
1 1:3 2:2 3:10 4:23 5:0.72727275 6:2 7:6 8:0.13636363 9:0.45454544 10:0.27272725 11:0.13636363 12:47 13:0.2888889 14:3 15:0.7384615 16:65 17:0.09230769 18:0.39999998 19:0.33846152 20:0.16923076 21:0.29032257 22:1.3333334 24:0.29411766 
1 1:3 2:1 3:11 4:21 5:0.61904764 6:2 7:3 8:0.19047618 9:0.23809522 10:0.38095236 11:0.19047618 12:54 13:0.2682927 14:1 15:0.6 16:65 17:0.19999999 18:0.27692306 19:0.3230769 20:0.19999999 21:0.23333333 22:0.80000001 23:0.11111111 24:0.15789473 
1 4:24 5:0.5416666 6:2 7:5 8:0.16666669 9:0.375 10:0.16666669 11:0.2916667 12:9 13:0.2173913 14:2 15:0.5272727 16:55 17:0.14545453 18:0.25454545 19:0.27272725 20:0.3272727 21:0.2173913 22:0.77777779 23:0.16666667 
1 1:1 2:1 3:5 4:23 5:0.5 6:1 7:4 8:0.090909064 9:0.13636363 10:0.36363637 11:0.40909094 12:46 13:0.2 14:4 15:0.5555556 16:63 17:0.12698412 18:0.26984125 19:0.28571427 20:0.3174603 21:0.22222222 22:0.875 24:0.33333334 
1 3:1 4:24 5:0.45454544 6:2 7:2 8:0.22727275 9:0.18181819 10:0.27272725 11:0.3181818 12:14 13:0.2173913 14:4 15:0.4918033 16:61 17:0.19672132 18:0.27868855 19:0.21311474 20:0.3114754 21:0.20833333 22:1.25 23:0.375 
1 3:3 4:23 5:0.45454544 6:2 7:4 8:0.3181818 9:0.27272725 10:0.18181819 11:0.22727275 12:6 13:0.2 14:4 15:0.4153846 16:65 17:0.26153845 18:0.19999999 19:0.2153846 20:0.3230769 21:0.17647059 22:1 23:0.40000001 
1 3:2 4:23 5:0.47826087 6:2 7:4 8:0.0869565 9:0.17391306 10:0.3043478 11:0.43478262 12:47 13:0.2 14:2 15:0.4285714 16:63 17:0.25396824 18:0.2063492 19:0.22222221 20:0.3174603 21:0.18367347 22:0.875 23:0.33333334 
0.8089924192750481 3:2 4:24 5:0.4583333 6:2 7:3 8:0.16666669 9:0.08333331 10:0.375 11:0.375 12:20 13:0.24444444 14:1 15:0.4166667 16:60 17:0.25 18:0.23333335 19:0.18333334 20:0.3333333 21:0.22448979 22:0.42857143 23:0.2820513 
1 1:2 2:1 3:9 4:22 5:0.61904764 6:2 7:4 8:0.047619045 9:0.52380955 10:0.09523809 11:0.3333333 12:50 13:0.20930232 14:2 15:0.61764705 16:68 17:0.14705884 18:0.2647059 19:0.35294116 20:0.2352941 21:0.2 22:0.77777779 24:0.17647059 
0.5646977383097792 3:4 4:24 5:0.5909091 6:2 7:4 8:0.3181818 9:0.27272725 10:0.3181818 11:0.090909064 12:14 13:0.15555556 14:1 15:0.52542377 16:59 17:0.2711864 18:0.23728812 19:0.2881356 20:0.20338982 21:0.13207547 22:1 23:0.07692308 
0.4304039066507918 3:8 4:23 5:0.5454545 6:1 7:4 8:0.27272725 9:0.18181819 10:0.36363637 11:0.18181819 12:54 13:0.1627907 14:3 15:0.515625 16:64 17:0.28125 18:0.234375 19:0.28125 20:0.203125 21:0.13793103 22:0.71428573 23:0.047619049 24:0.06666667 
0.97322945764751 1:2 2:1 3:9 4:22 5:0.5454545 6:2 7:3 8:0.04545456 9:0.40909094 10:0.13636363 11:0.40909094 12:6 13:0.17073171 14:1 15:0.5 16:60 17:0.21666664 18:0.28333336 19:0.21666664 20:0.28333336 21:0.19298245 22:0.66666669 23:0.2 24:0.25 
1 1:2 2:1 3:8 4:25 5:0.5 6:2 7:3 8:0.45454544 9:0.18181819 10:0.3181818 11:0.04545456 12:46 13:0.23404256 14:1 15:0.5 16:64 17:0.21875 18:0.265625 19:0.234375 20:0.28125 21:0.21311475 22:1.1666666 24:0.14285715 
1 3:5 4:24 5:0.6666666 6:1 7:2 8:0.2916667 9:0.4166667 10:0.25 11:0.041666687 12:14 13:0.086956523 14:4 15:0.56896555 16:58 17:0.18965518 18:0.2758621 19:0.29310346 20:0.24137932 21:0.11111111 22:0.75 23:0.23076923 24:0.25 
0.3585006933171065 3:2 4:22 5:0.5454545 6:2 7:4 8:0.22727275 9:0.18181819 10:0.36363637 11:0.22727275 12:19 13:0.25581396 14:3 15:0.5 16:56 17:0.23214287 18:0.21428573 19:0.28571427 20:0.26785713 21:0.23404256 22:0.5714286 23:0.13333334 
1 1:1 2:1 3:8 4:22 5:0.45454544 6:2 7:3 8:0.3181818 9:0.18181819 10:0.27272725 11:0.22727275 12:15 13:0.20930232 14:4 15:0.44444442 16:63 17:0.22222221 18:0.17460316 19:0.26984125 20:0.3333333 21:0.20689656 22:1.125 23:0.2857143 24:0.2 
1 1:1 2:1 3:9 4:23 5:0.5 6:2 7:4 8:0.18181819 9:0.27272725 10:0.22727275 11:0.3181818 12:58 13:0.2 14:4 15:0.46268654 16:67 17:0.20895523 18:0.19402987 19:0.26865673 20:0.32835823 21:0.22580644 22:1.4285715 23:0.25 24:0.29411766 
1 4:26 5:0.73913044 6:2 7:3 8:0.0869565 9:0.39130437 10:0.34782606 11:0.17391306 12:14 13:0.14285715 14:1 15:0.7307692 16:52 17:0.11538464 18:0.40384614 19:0.32692307 20:0.15384614 21:0.14285715 22:0.875 23:0.30769232 
1 1:1 2:1 3:6 4:19 5:0.7368421 6:2 7:2 8:0.15789473 9:0.31578946 10:0.42105263 11:0.10526317 12:46 13:0.085714288 14:3 15:0.74 16:50 17:0.10000002 18:0.39999998 19:0.33999997 20:0.16000003 21:0.10638298 22:1.2 23:0.35714287 24:0.16666667 
1 4:23 5:0.40909094 6:2 7:3 8:0.22727275 9:0.18181819 10:0.22727275 11:0.36363637 12:14 13:0.15555556 14:3 15:0.41071427 16:56 17:0.28571427 18:0.1785714 19:0.23214287 20:0.3035714 21:0.15555556 22:1 23:0.15384616 
0.1723365450667967 4:22 5:0.6363636 6:1 7:3 8:0.18181819 9:0.5 10:0.13636363 11:0.18181819 12:22 13:0.13636364 14:4 15:0.625 16:56 17:0.1785714 18:0.3214286 19:0.3035714 20:0.1964286 21:0.13636364 22:1.1111112 23:0.14285715 
1 1:2 2:1 3:10 4:23 5:0.45454544 6:1 7:1 8:0.36363637 9:0.18181819 10:0.27272725 11:0.18181819 12:6 13:0.022222223 14:2 15:0.5230769 16:65 17:0.19999999 18:0.23076922 19:0.29230767 20:0.27692306 21:0.081967212 22:0.8888889 24:0.25 
1 1:2 2:2 3:12 4:22 5:0.45454544 6:1 7:1 8:0.13636363 9:0.22727275 10:0.22727275 11:0.40909094 12:50 13:0.023255814 14:3 15:0.53731346 16:67 17:0.19402987 18:0.23880595 19:0.29850745 20:0.26865673 21:0.079365082 22:1.125 24:0.2 
1 1:1 2:1 3:7 4:24 5:0.5652174 6:1 7:3 8:0.13043481 9:0.34782606 10:0.21739131 11:0.3043478 12:54 13:0.13636364 14:2 15:0.609375 16:64 17:0.15625 18:0.328125 19:0.28125 20:0.234375 21:0.15789473 22:0.85714287 23:0.13043478 24:0.23076923 
1 1:2 2:1 3:5 4:25 5:0.5454545 6:2 7:3 8:0.18181819 9:0.18181819 10:0.36363637 11:0.27272725 12:2 13:0.24444444 14:2 15:0.62068963 16:58 17:0.18965518 18:0.31034482 19:0.31034482 20:0.18965518 21:0.25925925 22:0.30000001 24:0.33333334 
0.9868851479485934 3:5 4:22 5:0.5454545 6:1 7:1 8:0.40909094 9:0.13636363 10:0.40909094 11:0.04545456 12:7 13:0.045454547 14:4 15:0.4736842 16:57 17:0.2631579 18:0.19298244 19:0.28070176 20:0.2631579 21:0.16981132 22:1.1111112 24:0.77777779 
1 1:4 2:1 3:7 4:25 5:0.48000002 6:1 7:1 8:0.07999998 9:0.27999997 10:0.19999999 11:0.44 12:44 13:0.039999999 14:3 15:0.49253732 16:67 17:0.25373137 18:0.20895523 19:0.2835821 20:0.25373137 21:0.14285715 22:0.90909094 24:0.53846157 
1 1:1 2:2 3:13 4:24 5:0.8 6:3 7:4 8:0.10000002 9:0.3 10:0.5 11:0.10000002 12:2 13:0.18181819 14:4 15:0.6438356 16:73 17:0.15068495 18:0.260274 19:0.38356167 20:0.20547944 21:0.14705883 22:1.3333334 24:0.083333336 
1 3:2 4:24 5:0.4583333 6:3 7:3 8:0.20833331 9:0.25 10:0.20833331 11:0.3333333 12:4 13:0.11627907 14:2 15:0.5283019 16:53 17:0.20754719 18:0.24528301 19:0.2830189 20:0.26415092 21:0.10638298 22:1.4 
1 3:2 4:28 5:0.5217391 6:3 7:3 8:0.26086956 9:0.3043478 10:0.21739131 11:0.21739131 12:38 13:0.12 14:3 15:0.56666666 16:60 17:0.19999999 18:0.26666665 19:0.3 20:0.23333335 21:0.11111111 22:0.55555558 
1 1:1 2:1 3:5 4:23 5:0.5454545 6:3 7:2 8:0.18181819 9:0.22727275 10:0.3181818 11:0.27272725 12:10 13:0.2 14:4 15:0.5423729 16:59 17:0.20338982 18:0.23728812 19:0.30508476 20:0.2542373 21:0.22222222 22:0.80000001 23:0.11111111 24:0.33333334 
1 3:4 4:25 5:0.6363636 6:3 7:5 8:0.090909064 9:0.22727275 10:0.40909094 11:0.27272725 12:3 13:0.22727273 14:3 15:0.6507937 16:63 17:0.12698412 18:0.30158728 19:0.34920633 20:0.22222221 21:0.1923077 22:0.25 
1 3:4 4:23 5:0.7826087 6:2 7:3 8:0.17391306 9:0.34782606 10:0.43478262 11:0.04347825 12:4 13:0.13636364 14:2 15:0.78947365 16:57 17:0.12280703 18:0.35087717 19:0.4385965 20:0.08771932 21:0.21568628 22:0.8888889 23:0.14285715 24:0.71428573 
1 1:1 2:1 3:7 4:22 5:0.5454545 6:3 7:2 8:0.27272725 9:0.13636363 10:0.40909094 11:0.18181819 12:1 13:0.12820514 14:1 15:0.5087719 16:57 17:0.2280702 18:0.2280702 19:0.28070176 20:0.2631579 21:0.13207547 22:4.5 24:0.14285715 
1 1:1 2:1 3:6 4:26 5:0.47619045 6:3 7:2 8:0.19047618 9:0.3333333 10:0.14285713 11:0.3333333 12:40 13:0.18181819 14:2 15:0.48333335 16:60 17:0.23333335 18:0.21666664 19:0.26666665 20:0.28333336 21:0.17857143 22:2.5 24:0.16666667 
1 1:2 2:1 3:9 4:28 5:0.6363636 6:6 7:2 8:0.22727275 9:0.40909094 10:0.22727275 11:0.13636363 12:1 13:0.2 15:0.6056338 16:71 17:0.1690141 18:0.28169012 19:0.32394367 20:0.22535211 21:0.20588236 22:3 24:0.22222222 
1 1:2 2:1 3:9 4:21 5:0.57142854 6:6 7:2 8:0.19047618 9:0.19047618 10:0.38095236 11:0.23809522 12:44 13:0.27777779 14:2 15:0.5964912 16:57 17:0.17543858 18:0.28070176 19:0.31578946 20:0.2280702 21:0.25925925 22:0.60000002 24:0.22222222 
1 3:5 4:20 5:0.55 6:1 7:2 8:0.10000002 9:0.25 10:0.3 11:0.35000002 12:10 13:0.07692308 14:1 15:0.46666664 16:60 17:0.23333335 18:0.21666664 19:0.25 20:0.3 21:0.06122449 22:1 23:0.25 
1 1:1 2:1 3:7 4:23 5:0.40909094 6:2 7:2 8:0.22727275 9:0.090909064 10:0.3181818 11:0.36363637 12:41 13:0.25581396 14:3 15:0.4745763 16:59 17:0.20338982 18:0.23728812 19:0.23728812 20:0.32203388 21:0.25 24:0.23076923 
1 1:2 2:1 3:5 4:22 5:0.5454545 6:2 7:3 8:0.22727275 9:0.3181818 10:0.22727275 11:0.22727275 12:4 13:0.18181819 14:1 15:0.559322 16:59 17:0.20338982 18:0.30508476 19:0.2542373 20:0.23728812 21:0.20754717 22:1.2857143 24:0.33333334 
1 1:1 2:1 3:7 4:23 5:0.6818182 6:3 7:5 8:0.27272725 9:0.45454544 10:0.22727275 11:0.04545456 12:2 13:0.31707317 14:1 15:0.6166667 16:60 17:0.21666664 18:0.35000002 19:0.26666665 20:0.16666669 21:0.27272728 22:1 24:0.14285715 
1 1:1 2:1 3:4 4:24 5:0.40909094 6:2 7:3 8:0.22727275 9:0.22727275 10:0.18181819 11:0.36363637 12:41 13:0.2 14:4 15:0.44067794 16:59 17:0.23728812 18:0.20338982 19:0.23728812 20:0.32203388 21:0.20754717 22:2 24:0.25 
0.963807171752385 3:2 4:22 5:0.5454545 6:1 7:2 8:0.27272725 9:0.18181819 10:0.36363637 11:0.18181819 12:47 13:0.090909094 14:2 15:0.51724136 16:58 17:0.18965518 18:0.2241379 19:0.29310346 20:0.29310346 21:0.083333336 22:0.63636363 23:0.14285715 
1 3:4 4:24 5:0.72727275 6:1 7:4 8:0.18181819 9:0.45454544 10:0.27272725 11:0.090909064 12:8 13:0.22727273 14:2 15:0.6721312 16:61 17:0.14754099 18:0.32786888 19:0.3442623 20:0.18032789 21:0.1923077 22:3.6666667 23:0.14285715 
1 3:6 4:24 5:0.6666666 6:1 7:4 8:0.20833331 9:0.2916667 10:0.375 11:0.125 12:47 13:0.2 14:2 15:0.671875 16:64 17:0.140625 18:0.328125 19:0.34375 20:0.1875 21:0.2 22:1 23:0.090909094 24:0.2 
1 4:24 5:0.4166667 6:1 7:2 8:0.2916667 9:0.20833331 10:0.20833331 11:0.2916667 12:6 13:0.16666667 14:4 15:0.4423077 16:52 17:0.28846157 18:0.19230771 19:0.25 20:0.26923078 21:0.16666667 22:0.83333331 
1 1:1 2:1 3:5 4:20 5:0.45 6:2 7:2 8:0.25 9:0.14999998 10:0.3 11:0.3 12:39 13:0.15000001 14:1 15:0.4259259 16:54 17:0.2962963 18:0.1851852 19:0.24074072 20:0.2777778 21:0.16 22:2.25 24:0.2 
1 1:2 2:1 3:8 4:22 5:0.40909094 6:1 7:2 8:0.18181819 9:0.04545456 10:0.36363637 11:0.40909094 12:40 13:0.14285715 14:3 15:0.42622954 16:61 17:0.26229507 18:0.22950822 19:0.19672132 20:0.3114754 21:0.14285715 22:2.25 24:0.14285715 
1 3:2 4:24 5:0.47826087 6:2 7:4 8:0.3043478 9:0.21739131 10:0.26086956 11:0.21739131 12:43 13:0.2173913 14:2 15:0.5409836 16:61 17:0.21311474 18:0.24590164 19:0.29508197 20:0.24590164 21:0.2 22:1.6 23:0.25 
1 1:3 2:1 3:7 4:21 5:0.57142854 6:1 7:2 8:0.28571427 9:0.23809522 10:0.3333333 11:0.14285713 12:43 13:0.095238097 14:4 15:0.48333335 16:60 17:0.21666664 18:0.25 19:0.23333335 20:0.3 21:0.16363636 22:0.63636363 24:0.38461539 
1 4:23 5:0.6818182 6:2 7:3 8:0.18181819 9:0.27272725 10:0.40909094 11:0.13636363 12:6 13:0.24444444 14:3 15:0.66071427 16:56 17:0.14285713 18:0.26785713 19:0.39285713 20:0.1964286 21:0.24444444 22:1 
1 3:5 4:21 5:0.8095238 6:2 7:2 8:0.047619045 9:0.47619045 10:0.3333333 11:0.14285713 12:44 13:0.21951219 14:1 15:0.6935484 16:62 17:0.12903225 18:0.2903226 19:0.40322578 20:0.17741936 21:0.21568628 22:0.66666669 24:0.2 
1 1:1 2:1 3:5 4:23 5:0.5217391 6:2 7:3 8:0.3043478 9:0.0869565 10:0.43478262 11:0.17391306 12:5 13:0.15555556 14:3 15:0.49206346 16:63 17:0.22222221 18:0.2063492 19:0.28571427 20:0.28571427 21:0.16363636 22:0.90909094 23:0.25 24:0.2 
1 1:1 2:1 3:7 4:23 5:0.5454545 6:2 7:3 8:0.13636363 9:0.3181818 10:0.22727275 11:0.3181818 12:48 13:0.2 14:3 15:0.47761196 16:67 17:0.23880595 18:0.19402987 19:0.2835821 20:0.2835821 21:0.18644068 22:1.4285715 24:0.14285715 
1 1:1 2:1 3:8 4:21 5:0.6666666 6:1 7:2 8:0.09523809 9:0.38095236 10:0.28571427 11:0.23809522 12:4 13:0.21951219 14:3 15:0.73333335 16:60 17:0.11666667 18:0.28333336 19:0.45 20:0.14999998 21:0.2 22:3.6666667 24:0.14285715 
0.9919006797011691 1:1 2:1 3:9 4:21 5:0.85 6:1 7:2 8:0.050000012 9:0.19999999 10:0.65 11:0.10000002 12:45 13:0.17073171 14:1 15:0.7258065 16:62 17:0.11290324 18:0.27419353 19:0.4516129 20:0.16129035 21:0.19298245 22:0.60000002 24:0.25 
0.1336334796602757 1:3 2:1 3:6 4:22 5:0.6363636 6:1 7:3 8:0.13636363 9:0.40909094 10:0.22727275 11:0.22727275 12:5 13:0.11627907 14:2 15:0.6666666 16:57 17:0.12280703 18:0.35087717 19:0.31578946 20:0.21052629 21:0.16981132 22:1 23:0.25 24:0.40000001 
0.1891600042675845 1:3 2:1 3:8 4:22 5:0.57142854 6:3 7:3 8:0.09523809 9:0.28571427 10:0.28571427 11:0.3333333 12:47 13:0.20930232 14:4 15:0.5409836 16:61 17:0.18032789 18:0.27868855 19:0.26229507 20:0.27868855 21:0.24137931 22:0.54545456 23:0.11111111 24:0.33333334 
1 3:1 4:24 5:0.45454544 6:2 7:3 8:0.090909064 9:0.3181818 10:0.13636363 11:0.45454544 12:3 13:0.13043478 14:1 15:0.4310345 16:58 17:0.2241379 18:0.18965518 19:0.24137932 20:0.3448276 21:0.125 22:0.80000001 
1 3:3 4:24 5:0.3333333 6:2 7:3 8:0.5 9:0.041666687 10:0.2916667 11:0.16666669 12:39 13:0.2173913 14:3 15:0.41935486 16:62 17:0.2580645 18:0.19354838 19:0.22580647 20:0.32258064 21:0.1923077 22:2.5 
0.7014154710732637 3:1 4:25 5:0.6666666 6:2 7:4 8:0.08333331 9:0.375 10:0.2916667 11:0.25 12:6 13:0.18367347 14:1 15:0.63793105 16:58 17:0.15517241 18:0.29310346 19:0.3448276 20:0.20689654 21:0.17647059 22:0.8888889 
1 3:4 4:24 5:0.625 6:2 7:3 8:0.20833331 9:0.2916667 10:0.3333333 11:0.16666669 12:42 13:0.14893617 14:2 15:0.62903225 16:62 17:0.16129035 18:0.2903226 19:0.33870965 20:0.2096774 21:0.16363636 22:0.72727275 24:0.25 
1 3:3 4:24 5:0.5 6:3 7:4 8:0.3181818 9:0.27272725 10:0.22727275 11:0.18181819 12:7 13:0.26086956 14:3 15:0.4310345 16:58 17:0.29310346 18:0.2241379 19:0.20689654 20:0.2758621 21:0.23076923 22:5 23:0.16666667 
1 3:7 4:22 5:0.45454544 6:2 7:3 8:0.3181818 9:0.18181819 10:0.27272725 11:0.22727275 12:45 13:0.22727273 14:3 15:0.43548387 16:62 17:0.2903226 18:0.22580647 19:0.2096774 20:0.27419353 21:0.25 22:1.2857143 24:0.33333334 
1 3:2 4:22 5:0.5909091 6:2 7:3 8:0.090909064 9:0.22727275 10:0.36363637 11:0.3181818 12:6 13:0.18181819 14:2 15:0.57142854 16:56 17:0.14285713 18:0.23214287 19:0.33928573 20:0.28571427 21:0.20833333 22:1.25 23:0.11111111 24:0.5 
1 1:1 2:1 3:5 4:23 5:0.6818182 6:2 7:3 8:0.13636363 9:0.45454544 10:0.22727275 11:0.18181819 12:44 13:0.13636364 14:2 15:0.671875 16:64 17:0.1875 18:0.390625 19:0.28125 20:0.140625 21:0.13207547 22:0.90909094 24:0.11111111 
1 1:2 2:2 3:9 4:23 5:0.6363636 6:1 7:3 8:0.090909064 9:0.5909091 10:0.04545456 11:0.27272725 12:45 13:0.13636364 14:4 15:0.57575756 16:66 17:0.18181819 18:0.24242425 19:0.3333333 20:0.24242425 21:0.19354838 22:1.4285715 24:0.33333334 
1 1:1 2:2 3:9 4:22 5:0.5 6:1 7:2 8:0.3181818 9:0.13636363 10:0.36363637 11:0.18181819 12:9 13:0.069767445 14:1 15:0.546875 16:64 17:0.203125 18:0.203125 19:0.34375 20:0.25 21:0.1 22:0.69999999 23:0.05882353 24:0.17647059 
1 1:1 2:2 3:11 4:23 5:0.5 6:1 7:3 8:0.13636363 9:0.3181818 10:0.18181819 11:0.36363637 12:54 13:0.090909094 14:2 15:0.5362319 16:69 17:0.20289856 18:0.18840581 19:0.34782606 20:0.26086956 21:0.10769231 22:1.6666666 24:0.14285715 
1 1:2 2:1 3:7 4:21 5:0.61904764 6:1 7:3 8:0.19047618 9:0.3333333 10:0.28571427 11:0.19047618 12:10 13:0.19047619 14:1 15:0.6034483 16:58 17:0.18965518 18:0.3448276 19:0.25862068 20:0.20689654 21:0.18518518 22:1.4285715 23:0.11111111 24:0.16666667 
0.2817788808111559 4:22 5:0.5 6:1 7:3 8:0.13636363 9:0.3181818 10:0.18181819 11:0.36363637 12:18 13:0.13636364 14:4 15:0.39999998 16:55 17:0.19999999 18:0.19999999 19:0.19999999 20:0.39999998 21:0.13636364 22:1.2222222 23:0.2 
0.8936021535017654 3:2 4:23 5:0.43478262 6:1 7:4 8:0.26086956 9:0.17391306 10:0.26086956 11:0.3043478 12:53 13:0.17391305 14:2 15:0.42622954 16:61 17:0.18032789 18:0.18032789 19:0.24590164 20:0.39344263 21:0.16 22:1.2857143 23:0.1724138 
1 1:2 2:2 3:9 4:20 5:0.6666666 6:2 7:2 8:0.055555582 9:0.3333333 10:0.3333333 11:0.2777778 12:57 13:0.10526316 14:2 15:0.56896555 16:58 17:0.20689654 18:0.2758621 19:0.29310346 20:0.2241379 21:0.14814815 22:1 23:0.41935483 24:0.25 
1 3:2 4:21 5:0.4285714 6:3 7:2 8:0.38095236 9:0.23809522 10:0.19047618 11:0.19047618 12:12 13:0.23809524 14:4 15:0.4814815 16:54 17:0.25925928 18:0.22222221 19:0.25925928 20:0.25925928 21:0.2173913 22:1.1428572 23:0.090909094 
1 3:3 4:22 5:0.5 6:3 7:2 8:0.090909064 9:0.22727275 10:0.27272725 11:0.40909094 12:46 13:0.27272728 14:2 15:0.44827586 16:58 17:0.25862068 18:0.20689654 19:0.24137932 20:0.29310346 21:0.23999999 22:1.4 
1 1:1 2:1 3:5 4:24 5:0.6363636 6:2 7:4 8:0.04545456 9:0.27272725 10:0.36363637 11:0.3181818 12:7 13:0.2173913 14:3 15:0.6 16:60 17:0.11666667 18:0.25 19:0.35000002 20:0.28333336 21:0.25 22:1.6666666 23:0.16666667 24:0.40000001 
1 1:2 2:2 3:8 4:24 5:0.6666666 6:2 7:3 8:0.20833331 9:0.25 10:0.4166667 11:0.125 12:46 13:0.19148937 14:3 15:0.5909091 16:66 17:0.13636363 18:0.25757575 19:0.3333333 20:0.27272725 21:0.25806451 22:1 24:0.46666667 
1 1:1 2:1 3:5 4:23 5:0.40909094 6:1 7:3 8:0.13636363 9:0.27272725 10:0.13636363 11:0.45454544 12:39 13:0.20930232 14:3 15:0.43333334 16:60 17:0.21666664 18:0.19999999 19:0.23333335 20:0.35000002 21:0.1923077 22:3.5 24:0.11111111 
1 3:6 4:22 5:0.6818182 6:2 7:3 8:0.04545456 9:0.3181818 10:0.36363637 11:0.27272725 12:46 13:0.18181819 14:2 15:0.609375 16:64 17:0.109375 18:0.265625 19:0.34375 20:0.28125 21:0.17857143 22:2 24:0.16666667 
1 4:22 5:0.40909094 6:1 7:2 8:0.3181818 9:0.18181819 10:0.22727275 11:0.27272725 12:6 13:0.090909094 14:3 15:0.38181818 16:55 17:0.2909091 18:0.18181819 19:0.19999999 20:0.3272727 21:0.090909094 22:0.66666669 
1 3:2 4:22 5:0.36363637 6:1 7:2 8:0.27272725 9:0.13636363 10:0.22727275 11:0.36363637 12:41 13:0.090909094 14:3 15:0.37288135 16:59 17:0.2881356 18:0.16949153 19:0.20338982 20:0.33898306 21:0.083333336 22:1.125 
1 3:5 4:24 5:0.5909091 6:1 7:3 8:0.090909064 9:0.22727275 10:0.36363637 11:0.3181818 12:9 13:0.13043478 14:4 15:0.5333333 16:60 17:0.23333335 18:0.23333335 19:0.3 20:0.23333335 21:0.14814815 22:0.80000001 24:0.25 
1 1:1 2:1 3:9 4:22 5:0.5909091 6:1 7:2 8:0.18181819 9:0.3181818 10:0.27272725 11:0.22727275 12:44 13:0.18181819 14:4 15:0.5692308 16:65 17:0.18461537 18:0.27692306 19:0.29230767 20:0.24615383 21:0.18032786 22:0.625 24:0.17647059 
1 1:2 2:1 3:6 4:23 5:0.43478262 6:2 7:2 8:0.21739131 9:0.26086956 10:0.17391306 11:0.34782606 12:6 13:0.20930232 14:2 15:0.48214287 16:56 17:0.23214287 18:0.23214287 19:0.25 20:0.28571427 21:0.20754717 22:0.2857143 23:0.2 24:0.2 
0.2496795340950552 1:2 2:1 3:7 4:24 5:0.47619045 6:4 7:3 8:0.28571427 9:0.23809522 10:0.23809522 11:0.23809522 12:43 13:0.24444444 14:2 15:0.5 16:60 17:0.21666664 18:0.25 19:0.25 20:0.28333336 21:0.22807017 22:2.3333333 24:0.16666667 
1 1:2 2:4 3:21 4:21 5:0.6666666 6:2 7:3 8:0.14285713 9:0.38095236 10:0.28571427 11:0.19047618 12:3 13:0.17948718 14:4 15:0.67073166 16:82 17:0.19512194 18:0.31707317 19:0.35365856 20:0.13414633 21:0.18987341 22:0.60000002 24:0.2 
1 3:4 4:25 5:0.4583333 6:1 7:5 8:0.20833331 9:0.20833331 10:0.25 11:0.3333333 12:40 13:0.24444444 14:3 15:0.48275864 16:58 17:0.29310346 18:0.24137932 19:0.24137932 20:0.2241379 21:0.20754717 22:1.6 
1 3:2 4:26 5:0.43478262 6:3 7:4 8:0.34782606 9:0.13043481 10:0.3043478 11:0.21739131 12:3 13:0.19148937 14:2 15:0.5 16:62 17:0.2580645 18:0.2903226 19:0.2096774 20:0.24193549 21:0.17647059 22:0.33333334 
1 1:3 2:2 3:9 4:22 5:0.6666666 6:2 7:3 8:0.19047618 9:0.38095236 10:0.28571427 11:0.14285713 12:5 13:0.19047619 14:2 15:0.6612903 16:62 17:0.12903225 18:0.33870965 19:0.32258064 20:0.2096774 21:0.24137931 22:0.90909094 23:0.25 24:0.375 
1 1:3 2:2 3:11 4:23 5:0.5909091 6:2 7:4 8:0.13636363 9:0.3181818 10:0.27272725 11:0.27272725 12:48 13:0.22727273 14:2 15:0.66176474 16:68 17:0.11764705 18:0.33823532 19:0.32352942 20:0.2205882 21:0.25 22:1.375 24:0.30000001 
1 3:7 4:24 5:0.4583333 6:1 7:1 8:0.16666669 9:0.25 10:0.20833331 11:0.375 12:7 13:0.17391305 14:4 15:0.52380955 16:63 17:0.22222221 18:0.22222221 19:0.30158728 20:0.25396824 21:0.20689656 24:0.33333334 
0.9781314304496147 1:1 2:1 3:6 4:22 5:0.45454544 6:2 7:3 8:0.3181818 9:0.13636363 10:0.3181818 11:0.22727275 12:26 13:0.20930232 14:4 15:0.46551722 16:58 17:0.24137932 18:0.15517241 19:0.31034482 20:0.29310346 21:0.18518518 22:0.69999999 23:0.36363637 24:0.090909094 
0.8919854948795475 1:1 2:1 3:7 4:23 5:0.5 6:2 7:4 8:0.18181819 9:0.27272725 10:0.22727275 11:0.3181818 12:64 13:0.24444444 14:4 15:0.4677419 16:62 17:0.22580647 18:0.16129035 19:0.30645162 20:0.30645162 21:0.20689656 22:2 23:0.34999999 24:0.07692308 
1 4:24 5:0.625 6:2 7:1 8:0.08333331 9:0.4166667 10:0.20833331 11:0.2916667 12:7 13:0.125 14:4 15:0.6140351 16:57 17:0.15789473 18:0.28070176 19:0.3333333 20:0.2280702 21:0.086956523 22:0.8888889 
1 3:2 4:24 5:0.625 6:2 7:1 8:0.2916667 9:0.16666669 10:0.4583333 11:0.08333331 12:43 13:0.083333336 14:3 15:0.61904764 16:63 17:0.15873015 18:0.28571427 19:0.3333333 20:0.22222221 21:0.07692308 22:1.1 
1 3:6 4:22 5:0.5 6:2 7:2 8:0.40909094 9:0.13636363 10:0.36363637 11:0.090909064 12:3 13:0.13636364 14:2 15:0.37288135 16:59 17:0.2881356 18:0.16949153 19:0.20338982 20:0.33898306 21:0.12727273 22:0.89999998 24:0.090909094 
1 4:23 5:0.6086956 6:1 7:3 8:0.17391306 9:0.26086956 10:0.34782606 11:0.21739131 12:3 13:0.11111111 14:2 15:0.6333333 16:60 17:0.19999999 18:0.3 19:0.3333333 20:0.16666669 21:0.11111111 22:0.80000001 
1 3:1 4:23 5:0.6818182 6:1 7:3 8:0.18181819 9:0.36363637 10:0.3181818 11:0.13636363 12:42 13:0.11111111 14:1 15:0.6451613 16:62 17:0.19354838 18:0.30645162 19:0.33870965 20:0.16129035 21:0.10638298 22:1.2222222 
1 1:1 2:1 3:5 4:27 5:0.5909091 6:3 7:4 8:0.27272725 9:0.36363637 10:0.22727275 11:0.13636363 12:53 13:0.16666667 14:2 15:0.63235295 16:68 17:0.17647058 18:0.35294116 19:0.2794118 20:0.19117647 21:0.1724138 22:1.1666666 24:0.2 
1 1:1 2:1 3:5 4:24 5:0.5 6:2 7:4 8:0.22727275 9:0.36363637 10:0.13636363 11:0.27272725 12:42 13:0.15555556 14:4 15:0.4915254 16:59 17:0.23728812 18:0.23728812 19:0.2542373 20:0.2711864 21:0.16363636 22:1.6666666 23:0.11111111 24:0.2 
1 3:3 4:25 5:0.5 6:2 7:3 8:0.08333331 9:0.25 10:0.25 11:0.4166667 12:4 13:0.125 14:1 15:0.530303 16:66 17:0.18181819 18:0.22727275 19:0.3030303 20:0.2878788 21:0.11111111 22:0.89999998 
0.7307131941168657 3:4 4:22 5:0.52380955 6:2 7:3 8:0.38095236 9:0.19047618 10:0.3333333 11:0.09523809 12:47 13:0.14285715 14:2 15:0.516129 16:62 17:0.19354838 18:0.22580647 19:0.2903226 20:0.2903226 21:0.12 22:1.125 
1 1:3 2:1 3:8 4:22 5:0.5909091 6:1 7:2 8:0.13636363 9:0.22727275 10:0.36363637 11:0.27272725 12:7 13:0.17073171 14:4 15:0.4915254 16:59 17:0.2711864 18:0.20338982 19:0.2881356 20:0.23728812 21:0.18518518 22:0.18181819 24:0.23076923 
0.9936136395701489 1:1 2:1 3:6 4:21 5:0.65 6:2 7:3 8:0.10000002 9:0.14999998 10:0.5 11:0.25 12:50 13:0.15000001 14:4 15:0.64912283 16:57 17:0.10526317 18:0.21052629 19:0.4385965 20:0.24561405 21:0.1923077 22:1 23:0.16666667 24:0.33333334 
1 3:5 4:22 5:0.45454544 6:2 7:2 8:0.36363637 9:0.13636363 10:0.3181818 11:0.18181819 12:3 13:0.14285715 14:1 15:0.4745763 16:59 17:0.2542373 18:0.220339 19:0.2542373 20:0.2711864 21:0.16 22:1.125 24:0.25 
0.7781752485576426 3:3 4:23 5:0.45454544 6:2 7:3 8:0.3181818 9:0.27272725 10:0.18181819 11:0.22727275 12:15 13:0.15555556 14:3 15:0.40350878 16:57 17:0.35087717 18:0.2280702 19:0.17543858 20:0.24561405 21:0.17647059 22:2.2 23:0.24137931 24:0.33333334 
0.1378404336904243 1:1 2:1 3:4 4:22 5:0.5909091 6:1 7:1 8:0.090909064 9:0.090909064 10:0.5 11:0.3181818 12:59 13:0.023255814 14:4 15:0.64406776 16:59 17:0.13559324 18:0.2711864 19:0.37288135 20:0.220339 21:0.05882353 22:0.89999998 23:0.25581396 24:0.25 
1 3:4 4:22 5:0.6363636 6:2 7:2 9:0.18181819 10:0.45454544 11:0.36363637 12:3 13:0.27272728 14:3 15:0.56896555 16:58 17:0.13793105 18:0.24137932 19:0.32758623 20:0.29310346 21:0.30769232 22:1.6 24:0.5 
1 3:6 4:22 5:0.77272725 6:2 7:3 8:0.18181819 9:0.36363637 10:0.40909094 11:0.04545456 12:41 13:0.20930232 14:4 15:0.59016395 16:61 17:0.13114756 18:0.26229507 19:0.32786888 20:0.27868855 21:0.30909091 22:1.8333334 24:0.66666669 
1 1:1 2:1 3:7 4:23 5:0.5652174 6:2 7:2 8:0.0869565 9:0.26086956 10:0.3043478 11:0.34782606 12:9 13:0.095238097 14:4 15:0.52542377 16:59 17:0.1864407 18:0.220339 19:0.30508476 20:0.2881356 21:0.090909094 22:0.45454547 24:0.07692308 
1 1:1 2:1 3:7 4:25 5:0.57142854 6:2 7:2 8:0.23809522 9:0.28571427 10:0.28571427 11:0.19047618 12:49 13:0.086956523 14:4 15:0.49206346 16:63 17:0.2063492 18:0.2063492 19:0.28571427 20:0.30158728 21:0.084745765 22:1.2222222 24:0.07692308 
1 3:2 4:22 5:0.47619045 6:1 7:3 8:0.09523809 9:0.14285713 10:0.3333333 11:0.4285714 12:4 13:0.11627907 14:4 15:0.58928573 16:56 17:0.14285713 18:0.28571427 19:0.3035714 20:0.26785713 21:0.10638298 22:1 
1 4:22 5:0.4285714 6:2 7:2 8:0.19047618 9:0.14285713 10:0.28571427 11:0.38095236 12:23 13:0.11627907 14:2 15:0.45454544 16:55 17:0.27272725 18:0.19999999 19:0.25454545 20:0.27272725 21:0.11627907 22:1.1111112 23:0.44186047 
0.9858297528331955 3:2 4:22 5:0.5454545 6:2 7:2 8:0.27272725 9:0.40909094 10:0.13636363 11:0.18181819 12:58 13:0.11627907 14:4 15:0.4745763 16:59 17:0.2542373 18:0.20338982 19:0.2711864 20:0.2711864 21:0.10638298 22:1.1 23:0.48717949 
1 3:4 4:21 5:0.52380955 6:2 7:2 8:0.3333333 9:0.19047618 10:0.3333333 11:0.14285713 12:37 13:0.19047619 14:4 15:0.5090909 16:55 17:0.23636365 18:0.23636365 19:0.27272725 20:0.25454545 21:0.16 22:0.625 
1 3:6 4:20 5:0.5 6:2 7:2 8:0.25 9:0.3 10:0.19999999 11:0.25 12:7 13:0.2 14:3 15:0.39999998 16:55 17:0.27272725 18:0.21818179 19:0.18181819 20:0.3272727 21:0.25490198 22:0.69999999 23:0.23076923 24:0.45454547 
0.4702521412673825 1:3 2:1 3:8 4:22 5:0.40909094 6:2 7:4 8:0.27272725 9:0.18181819 10:0.22727275 11:0.3181818 12:44 13:0.25581396 14:3 15:0.41935486 16:62 17:0.2580645 18:0.2096774 19:0.2096774 20:0.32258064 21:0.27586207 22:2 24:0.33333334 
1 1:1 2:1 3:4 4:23 5:0.6086956 6:2 7:3 8:0.0869565 9:0.21739131 10:0.39130437 11:0.3043478 12:15 13:0.18181819 14:2 15:0.55172414 16:58 17:0.17241377 18:0.24137932 19:0.31034482 20:0.2758621 21:0.17647059 22:1.1428572 23:0.14285715 24:0.14285715 
1 3:2 4:23 5:0.45454544 6:3 7:4 8:0.3181818 9:0.22727275 10:0.22727275 11:0.22727275 12:14 13:0.22727273 14:3 15:0.44067794 16:59 17:0.2711864 18:0.220339 19:0.220339 20:0.2881356 21:0.20833333 22:1.4 23:0.2857143 
1 3:3 4:24 5:0.47826087 6:3 7:4 8:0.21739131 9:0.26086956 10:0.21739131 11:0.3043478 12:52 13:0.30434781 14:2 15:0.44444442 16:63 17:0.25396824 18:0.2063492 19:0.23809522 20:0.30158728 21:0.26923078 22:0.5 23:0.16666667 
1 3:6 4:22 5:0.6363636 6:2 7:3 8:0.090909064 9:0.3181818 10:0.3181818 11:0.27272725 12:46 13:0.27272728 14:2 15:0.59375 16:64 17:0.125 18:0.265625 19:0.328125 20:0.28125 21:0.25 22:1 24:0.16666667 
1 1:1 2:2 3:5 4:23 5:0.6363636 6:4 7:4 8:0.18181819 9:0.3181818 10:0.3181818 11:0.18181819 12:15 13:0.27272728 14:3 15:0.56896555 16:58 17:0.17241377 18:0.25862068 19:0.31034482 20:0.25862068 21:0.28301886 22:0.80000001 23:0.14285715 24:0.33333334 
1 1:1 2:2 3:6 4:24 5:0.5652174 6:4 7:4 8:0.21739131 9:0.21739131 10:0.34782606 11:0.21739131 12:52 13:0.30434781 14:3 15:0.5483871 16:62 17:0.19354838 18:0.24193549 19:0.30645162 20:0.2580645 21:0.29824561 22:2.25 23:0.083333336 24:0.27272728 
1 3:2 4:22 5:0.36363637 6:3 7:2 8:0.3181818 9:0.13636363 10:0.22727275 11:0.3181818 12:16 13:0.20930232 14:3 15:0.4528302 16:53 17:0.16981131 18:0.18867922 19:0.26415092 20:0.3773585 21:0.23404256 22:0.80000001 23:0.22580644 24:0.5 
1 1:1 2:1 3:4 4:23 5:0.40909094 6:1 7:3 8:0.27272725 9:0.3181818 10:0.090909064 11:0.3181818 12:31 13:0.15555556 14:2 15:0.4385965 16:57 17:0.21052629 18:0.21052629 19:0.2280702 20:0.35087717 21:0.16981132 22:0.55555558 23:0.32258064 24:0.25 
1 1:1 2:1 3:6 4:22 5:0.5 6:1 7:3 8:0.13636363 9:0.18181819 10:0.3181818 11:0.36363637 12:67 13:0.20930232 14:2 15:0.45762712 16:59 17:0.20338982 18:0.23728812 19:0.220339 20:0.33898306 21:0.2 22:2 23:0.30000001 24:0.16666667 
0.1516531142733842 1:2 2:1 3:6 4:24 5:0.4583333 6:3 7:3 8:0.125 9:0.08333331 10:0.375 11:0.4166667 12:58 13:0.17391305 14:2 15:0.52459013 16:61 17:0.18032789 18:0.19672132 19:0.32786888 20:0.29508197 21:0.20689656 22:1.1111112 23:0.2173913 24:0.33333334 
1 1:2 2:1 3:6 4:22 5:0.5 6:2 7:2 8:0.27272725 9:0.22727275 10:0.27272725 11:0.22727275 12:14 13:0.14285715 14:2 15:0.4915254 16:59 17:0.220339 18:0.23728812 19:0.2542373 20:0.2881356 21:0.15384616 22:0.80000001 23:0.23076923 24:0.2 
1 3:11 4:22 5:0.5454545 6:2 7:4 8:0.18181819 9:0.22727275 10:0.3181818 11:0.27272725 12:15 13:0.22727273 14:3 15:0.52380955 16:63 17:0.23809522 18:0.25396824 19:0.26984125 20:0.23809522 21:0.28813559 22:0.69999999 23:0.21428572 24:0.46666667 
1 3:14 4:22 5:0.8181818 6:1 7:3 8:0.090909064 9:0.22727275 10:0.5909091 11:0.090909064 12:14 13:0.13636364 14:3 15:0.6 16:70 17:0.15714288 18:0.27142859 19:0.32857144 20:0.24285716 21:0.23809524 22:0.8888889 23:0.15384616 24:0.47368422 
1 1:9 2:1 3:16 4:22 5:0.6363636 6:1 7:3 8:0.18181819 9:0.45454544 10:0.18181819 11:0.18181819 12:64 13:0.13636364 14:2 15:0.5810811 16:74 17:0.16216218 18:0.25675678 19:0.3243243 20:0.25675678 21:0.2238806 22:1.5 23:0.18181819 24:0.39130434 
1 1:12 2:1 3:17 4:21 5:0.57142854 6:1 7:5 8:0.28571427 9:0.23809522 10:0.3333333 11:0.14285713 12:51 13:0.23809524 14:2 15:0.61764705 16:68 17:0.25 18:0.36764705 19:0.25 20:0.13235295 21:0.34375 22:0.77777779 24:0.54545456 
1 1:2 2:1 3:6 4:22 5:0.5909091 6:2 7:2 8:0.18181819 9:0.3181818 10:0.27272725 11:0.22727275 12:15 13:0.13636364 14:1 15:0.5762712 16:59 17:0.1864407 18:0.2881356 19:0.2881356 20:0.23728812 21:0.16363636 22:1 23:0.23076923 24:0.27272728 
1 1:1 2:1 3:3 4:22 5:0.6363636 6:1 7:3 8:0.22727275 9:0.45454544 10:0.18181819 11:0.13636363 12:7 13:0.13636364 14:1 15:0.5925926 16:54 17:0.24074072 18:0.3333333 19:0.25925928 20:0.16666669 21:0.16 22:1 23:0.16666667 24:0.33333334 
0.7025645979700923 1:1 2:1 3:5 4:22 5:0.5454545 6:1 7:3 8:0.22727275 9:0.22727275 10:0.3181818 11:0.22727275 12:41 13:0.18181819 14:2 15:0.56896555 16:58 17:0.25862068 18:0.32758623 19:0.24137932 20:0.17241377 21:0.18518518 22:1.2857143 24:0.2 
1 1:5 2:1 3:8 4:23 5:0.5909091 6:3 7:2 8:0.13636363 9:0.22727275 10:0.36363637 11:0.27272725 12:3 13:0.15555556 14:4 15:0.484375 16:64 17:0.234375 18:0.25 19:0.234375 20:0.28125 21:0.26666668 22:2.6666667 24:0.60000002 
1 3:7 4:22 5:0.36363637 6:3 7:1 8:0.40909094 9:0.22727275 10:0.13636363 11:0.22727275 12:43 13:0.1627907 14:4 15:0.46666664 16:60 17:0.25 18:0.25 19:0.21666664 20:0.28333336 21:0.2857143 22:0.71428573 24:0.69230771 
1 1:6 2:3 3:29 4:22 5:0.5909091 6:1 7:3 8:0.3181818 9:0.36363637 10:0.22727275 11:0.090909064 12:4 13:0.1627907 14:4 15:0.58762884 16:97 17:0.16494846 18:0.2886598 19:0.2989691 20:0.2474227 21:0.24731183 22:0.8888889 23:0.33333334 24:0.31999999 
1 1:6 2:4 3:31 4:23 5:0.5909091 6:2 7:4 8:0.04545456 9:0.22727275 10:0.36363637 11:0.36363637 12:82 13:0.2 14:4 15:0.592233 16:103 17:0.15533978 18:0.29126215 19:0.30097085 20:0.25242716 21:0.25252524 22:1.5 24:0.2962963 
1 4:23 5:0.5652174 6:2 7:2 8:0.26086956 9:0.21739131 10:0.34782606 11:0.17391306 12:10 13:0.13636364 14:3 15:0.5185185 16:54 17:0.25925928 18:0.2777778 19:0.24074072 20:0.22222221 21:0.13636364 22:0.89999998 
1 3:2 4:23 5:0.57142854 6:2 7:3 8:0.14285713 9:0.3333333 10:0.23809522 11:0.28571427 12:45 13:0.13636364 14:4 15:0.51724136 16:58 17:0.25862068 18:0.2758621 19:0.24137932 20:0.2241379 21:0.125 22:1 
1 1:1 2:1 3:8 4:24 5:0.6363636 6:1 7:4 8:0.04545456 9:0.3181818 10:0.3181818 11:0.3181818 12:5 13:0.18181819 14:3 15:0.625 16:64 17:0.203125 18:0.296875 19:0.328125 20:0.171875 21:0.15254237 22:2 23:0.27272728 24:0.06666667 
1 1:1 2:1 3:10 4:24 5:0.6666666 6:1 7:4 8:0.2916667 9:0.2916667 10:0.375 11:0.041666687 12:47 13:0.18181819 14:3 15:0.6212121 16:66 17:0.21212119 18:0.2878788 19:0.3333333 20:0.16666669 21:0.18032786 22:2 23:0.11111111 24:0.17647059 
1 3:4 4:24 5:0.4583333 6:1 7:3 8:0.3333333 9:0.2916667 10:0.16666669 11:0.20833331 12:6 13:0.13043478 14:3 15:0.39999998 16:60 17:0.31666666 18:0.18333334 19:0.21666664 20:0.28333336 21:0.13207547 22:0.66666669 24:0.14285715 
1 1:1 2:4 3:18 4:12 5:0.16666669 6:1 7:1 8:0.3333333 9:0.08333331 10:0.08333331 11:0.5 12:56 13:0.083333336 14:3 15:0.421875 16:64 17:0.296875 18:0.1875 19:0.234375 20:0.28125 21:0.12280702 22:1.2857143 24:0.15151516 
0.7316958285244692 4:24 5:0.47826087 6:2 7:2 8:0.17391306 9:0.0869565 10:0.39130437 11:0.34782606 12:13 13:0.15555556 14:4 15:0.4727273 16:55 17:0.23636365 18:0.21818179 19:0.25454545 20:0.2909091 21:0.15555556 22:0.44444445 23:0.090909094 
1 3:2 4:24 5:0.5 6:3 7:3 8:0.22727275 9:0.36363637 10:0.13636363 11:0.27272725 12:48 13:0.2 14:4 15:0.4745763 16:59 17:0.220339 18:0.220339 19:0.2542373 20:0.30508476 21:0.18367347 22:3.3333333 
0.6674093185524689 3:2 4:22 5:0.72727275 6:2 7:3 8:0.090909064 9:0.27272725 10:0.45454544 11:0.18181819 12:8 13:0.1627907 14:1 15:0.67857146 16:56 17:0.1964286 18:0.375 19:0.3035714 20:0.125 21:0.17391305 22:0.625 23:0.14285715 24:0.33333334 
1 1:1 2:1 3:5 4:20 5:0.6 6:2 7:2 8:0.25 9:0.39999998 10:0.19999999 11:0.14999998 12:45 13:0.15000001 14:3 15:0.6551724 16:58 17:0.20689654 18:0.36206895 19:0.29310346 20:0.13793105 21:0.16666667 22:2 23:0.16666667 24:0.25 
1 3:3 4:23 5:0.47826087 6:1 7:2 8:0.13043481 9:0.34782606 10:0.13043481 11:0.39130437 12:4 13:0.086956523 15:0.48214287 16:56 17:0.1785714 18:0.23214287 19:0.25 20:0.33928573 21:0.15384616 22:0.63636363 24:0.66666669 
1 3:4 4:25 5:0.5909091 6:2 7:3 8:0.18181819 9:0.13636363 10:0.45454544 11:0.22727275 12:39 13:0.26086956 14:2 15:0.64406776 16:59 17:0.16949153 18:0.30508476 19:0.33898306 20:0.1864407 21:0.22222222 
1 3:3 4:26 5:0.5652174 6:3 7:4 8:0.17391306 9:0.3043478 10:0.26086956 11:0.26086956 12:4 13:0.22448979 14:1 15:0.55 16:60 17:0.19999999 18:0.3 19:0.25 20:0.25 21:0.2 22:1.6666666 
1 1:3 2:1 3:9 4:22 5:0.5909091 6:2 7:3 8:0.22727275 9:0.27272725 10:0.3181818 11:0.18181819 12:44 13:0.20930232 14:2 15:0.53125 16:64 17:0.21875 18:0.296875 19:0.234375 20:0.25 21:0.22033899 22:1.2857143 24:0.25 
0.4558507701196761 3:6 4:21 5:0.57142854 6:2 7:1 8:0.14285713 9:0.3333333 10:0.23809522 11:0.28571427 12:50 13:0.14285715 14:4 15:0.53225803 16:62 17:0.2096774 18:0.2580645 19:0.27419353 20:0.2580645 21:0.17647059 22:1.5714285 23:0.125 24:0.33333334 
1 1:5 2:1 3:18 4:24 5:0.5454545 6:3 7:2 8:0.18181819 9:0.13636363 10:0.40909094 11:0.27272725 12:6 13:0.17391305 14:3 15:0.6375 16:80 17:0.125 18:0.28750002 19:0.35000002 20:0.23750001 21:0.18421052 22:1 23:0.40000001 24:0.2 
1 1:5 2:2 3:20 4:23 5:0.6521739 6:3 7:2 8:0.17391306 9:0.34782606 10:0.3043478 11:0.17391306 12:64 13:0.22727273 14:3 15:0.63414633 16:82 17:0.12195122 18:0.28048778 19:0.35365856 20:0.24390244 21:0.20512821 22:1.6666666 23:0.25 24:0.17647059 
0.7675592674258438 1:2 2:1 3:6 4:23 5:0.45454544 6:2 7:3 8:0.3181818 9:0.13636363 10:0.3181818 11:0.22727275 12:42 13:0.15555556 14:2 15:0.44262296 16:61 17:0.21311474 18:0.19672132 19:0.24590164 20:0.3442623 21:0.16363636 22:1.125 24:0.2 
1 1:1 2:2 3:8 4:23 5:0.5652174 6:4 7:2 8:0.26086956 9:0.26086956 10:0.3043478 11:0.17391306 12:6 13:0.19047619 14:2 15:0.5409836 16:61 17:0.24590164 18:0.24590164 19:0.29508197 20:0.21311474 21:0.19298245 22:0.90909094 23:0.55555558 24:0.2 
1 1:1 2:2 3:8 4:26 5:0.52380955 6:4 7:2 8:0.28571427 9:0.23809522 10:0.28571427 11:0.19047618 12:48 13:0.27659574 14:2 15:0.530303 16:66 17:0.25757575 18:0.25757575 19:0.27272725 20:0.21212119 21:0.25806451 22:5.5 24:0.2 
1 4:24 5:0.5 6:1 7:3 8:0.22727275 9:0.36363637 10:0.13636363 11:0.27272725 12:14 13:0.17391305 14:2 15:0.375 16:56 17:0.3214286 18:0.1785714 19:0.1964286 20:0.3035714 21:0.17391305 22:0.66666669 23:0.1724138 
1 3:2 4:22 5:0.40909094 6:1 7:3 8:0.3181818 9:0.090909064 10:0.3181818 11:0.27272725 12:48 13:0.19047619 14:2 15:0.375 16:56 17:0.3214286 18:0.1785714 19:0.1964286 20:0.3035714 21:0.17391305 22:1.3333334 23:0.1724138 
0.8586107399438139 3:1 4:22 5:0.4285714 6:1 7:3 8:0.14285713 9:0.14285713 10:0.28571427 11:0.4285714 12:12 13:0.11627907 14:3 15:0.4736842 16:57 17:0.24561405 18:0.2280702 19:0.24561405 20:0.28070176 21:0.11111111 22:1 23:0.18181819 
1 3:1 4:23 5:0.5909091 6:2 7:3 8:0.27272725 9:0.40909094 10:0.18181819 11:0.13636363 12:6 13:0.18181819 14:3 15:0.59615386 16:52 17:0.15384614 18:0.26923078 19:0.32692307 20:0.25 21:0.17391305 22:0.69999999 23:0.2 
1 3:2 4:23 5:0.5 6:2 7:3 8:0.090909064 9:0.090909064 10:0.40909094 11:0.40909094 12:37 13:0.22727273 14:3 15:0.5925926 16:54 17:0.14814812 18:0.25925928 19:0.3333333 20:0.25925928 21:0.20833333 22:1.8 
1 1:2 2:2 3:23 4:20 5:0.57894737 6:2 7:4 8:0.21052629 9:0.31578946 10:0.2631579 11:0.21052629 12:6 13:0.33333334 14:2 15:0.5 16:94 17:0.20212764 18:0.24468082 19:0.25531918 20:0.29787236 21:0.21428572 22:0.85714287 23:0.25 24:0.11111111 
1 1:1 2:1 3:6 4:24 5:0.45454544 6:3 7:4 8:0.18181819 9:0.22727275 10:0.22727275 11:0.36363637 12:46 13:0.2173913 14:3 15:0.44444442 16:63 17:0.2063492 18:0.2063492 19:0.23809522 20:0.34920633 21:0.19298245 22:0.2 23:0.25 24:0.090909094 
1 1:1 2:2 3:11 4:22 5:0.6363636 6:1 7:5 8:0.22727275 9:0.18181819 10:0.45454544 11:0.13636363 12:8 13:0.22727273 14:2 15:0.5857143 16:70 17:0.1857143 18:0.25714284 19:0.32857144 20:0.22857141 21:0.1875 22:1.375 24:0.1 
-0.3570617582893506 1:2 2:1 3:8 4:22 5:0.6363636 6:2 7:2 8:0.22727275 9:0.27272725 10:0.36363637 11:0.13636363 12:44 13:0.25581396 14:3 15:0.53125 16:64 17:0.234375 18:0.296875 19:0.234375 20:0.234375 21:0.24137931 22:2.25 24:0.2 
-0.01770313993203611 3:3 4:23 5:0.8181818 6:2 7:3 8:0.13636363 9:0.40909094 10:0.40909094 11:0.04545456 12:4 13:0.13636364 14:2 15:0.68333334 16:60 17:0.18333334 18:0.39999998 19:0.28333336 20:0.13333333 21:0.14285715 22:1.1 24:0.2 
-1 1:1 2:1 3:6 4:22 5:0.45454544 6:1 7:2 8:0.3181818 9:0.13636363 10:0.3181818 11:0.22727275 12:12 13:0.095238097 14:3 15:0.5344827 16:58 17:0.2241379 18:0.20689654 19:0.32758623 20:0.24137932 21:0.11111111 22:1.3333334 23:0.043478262 24:0.16666667 
-1 4:22 5:0.40909094 6:1 7:2 8:0.3181818 9:0.18181819 10:0.22727275 11:0.27272725 12:6 13:0.090909094 14:3 15:0.38181818 16:55 17:0.2909091 18:0.18181819 19:0.19999999 20:0.3272727 21:0.090909094 22:0.66666669 
-1 1:3 2:2 3:11 4:22 5:0.57142854 6:2 7:3 8:0.14285713 9:0.28571427 10:0.28571427 11:0.28571427 12:48 13:0.23809524 14:2 15:0.6515151 16:66 17:0.12121213 18:0.3333333 19:0.3181818 20:0.22727275 21:0.25806451 22:1.5714285 24:0.30000001 
-1 1:1 2:1 3:7 4:23 5:0.72727275 6:2 7:3 8:0.13636363 9:0.40909094 10:0.3181818 11:0.13636363 12:6 13:0.22727273 14:4 15:0.68333334 16:60 17:0.11666667 18:0.35000002 19:0.3333333 20:0.19999999 21:0.25 22:1.2222222 23:0.2 24:0.33333334 
-0.09055841050868996 1:1 2:1 3:5 4:21 5:0.6666666 6:2 7:3 8:0.09523809 9:0.23809522 10:0.4285714 11:0.23809522 12:16 13:0.2 14:1 15:0.57142854 16:56 17:0.16071427 18:0.25 19:0.3214286 20:0.26785713 21:0.18367347 22:1.2 23:0.13333334 24:0.11111111 
-1 1:1 2:1 3:5 4:22 5:0.5454545 6:2 7:2 8:0.3181818 9:0.36363637 10:0.18181819 11:0.13636363 12:45 13:0.18181819 14:3 15:0.62903225 16:62 17:0.22580647 18:0.33870965 19:0.2903226 20:0.14516127 21:0.1923077 22:1.4285715 24:0.25 
-1 3:1 4:24 5:0.5454545 6:2 7:4 8:0.18181819 9:0.36363637 10:0.18181819 11:0.27272725 12:13 13:0.17391305 14:4 15:0.39655173 16:58 17:0.31034482 18:0.18965518 19:0.20689654 20:0.29310346 21:0.16666667 22:0.66666669 23:0.18518518 
-0.6146261456055203 3:4 4:23 5:0.5 6:2 7:4 8:0.27272725 9:0.36363637 10:0.13636363 11:0.22727275 12:3 13:0.22727273 14:1 15:0.6034483 16:58 17:0.13793105 18:0.25862068 19:0.3448276 20:0.25862068 21:0.1923077 22:0.5 
-0.4149782627052008 1:1 2:1 3:6 4:26 5:0.5833334 6:2 7:4 8:0.25 9:0.375 10:0.20833331 11:0.16666669 12:51 13:0.16 14:3 15:0.5625 16:64 17:0.1875 18:0.25 19:0.3125 20:0.25 21:0.14754099 22:1 23:0.18181819 24:0.090909094 
-0.3974847972319732 3:4 4:22 5:0.45454544 6:2 7:4 8:0.090909064 9:0.18181819 10:0.27272725 11:0.45454544 12:49 13:0.20930232 14:2 15:0.4153846 16:65 17:0.26153845 18:0.19999999 19:0.2153846 20:0.3230769 21:0.17647059 22:0.85714287 23:0.40000001 
-0.01057582547935924 1:2 2:1 3:7 4:24 5:0.6363636 6:2 7:3 8:0.18181819 9:0.45454544 10:0.18181819 11:0.18181819 12:39 13:0.30232558 14:4 15:0.6333333 16:60 17:0.18333334 18:0.3333333 19:0.3 20:0.18333334 21:0.2857143 24:0.23076923 
-1 1:2 2:1 3:8 4:22 5:0.6363636 6:2 7:2 8:0.22727275 9:0.27272725 10:0.36363637 11:0.13636363 12:44 13:0.25581396 14:3 15:0.53125 16:64 17:0.234375 18:0.296875 19:0.234375 20:0.234375 21:0.24137931 22:2.25 24:0.2 
-1 3:3 4:23 5:0.8181818 6:2 7:3 8:0.13636363 9:0.40909094 10:0.40909094 11:0.04545456 12:4 13:0.13636364 14:2 15:0.68333334 16:60 17:0.18333334 18:0.39999998 19:0.28333336 20:0.13333333 21:0.14285715 22:1.1 24:0.2 
-1 1:1 2:1 3:6 4:22 5:0.45454544 6:1 7:2 8:0.3181818 9:0.13636363 10:0.3181818 11:0.22727275 12:12 13:0.095238097 14:3 15:0.5344827 16:58 17:0.2241379 18:0.20689654 19:0.32758623 20:0.24137932 21:0.11111111 22:1.3333334 23:0.043478262 24:0.16666667 
-0.1304652054299315 3:2 4:22 5:0.36363637 6:1 7:2 8:0.27272725 9:0.13636363 10:0.22727275 11:0.36363637 12:41 13:0.090909094 14:3 15:0.37288135 16:59 17:0.2881356 18:0.16949153 19:0.20338982 20:0.33898306 21:0.083333336 22:1.125 
-1 4:22 5:0.40909094 6:1 7:2 8:0.3181818 9:0.18181819 10:0.22727275 11:0.27272725 12:6 13:0.090909094 14:3 15:0.38181818 16:55 17:0.2909091 18:0.18181819 19:0.19999999 20:0.3272727 21:0.090909094 22:0.66666669 
-1 1:3 2:2 3:11 4:22 5:0.57142854 6:2 7:3 8:0.14285713 9:0.28571427 10:0.28571427 11:0.28571427 12:48 13:0.23809524 14:2 15:0.6515151 16:66 17:0.12121213 18:0.3333333 19:0.3181818 20:0.22727275 21:0.25806451 22:1.5714285 24:0.30000001 
-1 1:1 2:1 3:7 4:23 5:0.72727275 6:2 7:3 8:0.13636363 9:0.40909094 10:0.3181818 11:0.13636363 12:6 13:0.22727273 14:4 15:0.68333334 16:60 17:0.11666667 18:0.35000002 19:0.3333333 20:0.19999999 21:0.25 22:1.2222222 23:0.2 24:0.33333334 
-1 1:1 2:1 3:5 4:21 5:0.6666666 6:2 7:3 8:0.09523809 9:0.23809522 10:0.4285714 11:0.23809522 12:16 13:0.2 14:1 15:0.57142854 16:56 17:0.16071427 18:0.25 19:0.3214286 20:0.26785713 21:0.18367347 22:1.2 23:0.13333334 24:0.11111111 
-0.2779683883479304 3:1 4:25 5:0.5652174 6:2 7:3 8:0.13043481 9:0.3043478 10:0.26086956 11:0.3043478 12:44 13:0.125 14:1 15:0.5 16:60 17:0.26666665 18:0.26666665 19:0.23333335 20:0.23333335 21:0.12 22:1.4285715 
-1 1:1 2:1 3:5 4:22 5:0.5454545 6:2 7:2 8:0.3181818 9:0.36363637 10:0.18181819 11:0.13636363 12:45 13:0.18181819 14:3 15:0.62903225 16:62 17:0.22580647 18:0.33870965 19:0.2903226 20:0.14516127 21:0.1923077 22:1.4285715 24:0.25 
-0.3760755279264663 3:7 4:23 5:0.6086956 6:2 7:3 8:0.21739131 9:0.26086956 10:0.34782606 11:0.17391306 12:42 13:0.15555556 14:4 15:0.53225803 16:62 17:0.2096774 18:0.2903226 19:0.24193549 20:0.2580645 21:0.19298245 22:1.7142857 24:0.33333334 
-1 3:1 4:24 5:0.5454545 6:2 7:4 8:0.18181819 9:0.36363637 10:0.18181819 11:0.27272725 12:13 13:0.17391305 14:4 15:0.39655173 16:58 17:0.31034482 18:0.18965518 19:0.20689654 20:0.29310346 21:0.16666667 22:0.66666669 23:0.18518518 
-1 3:4 4:23 5:0.5 6:2 7:4 8:0.27272725 9:0.36363637 10:0.13636363 11:0.22727275 12:3 13:0.22727273 14:1 15:0.6034483 16:58 17:0.13793105 18:0.25862068 19:0.3448276 20:0.25862068 21:0.1923077 22:0.5 
-1 1:1 2:1 3:6 4:26 5:0.5833334 6:2 7:4 8:0.25 9:0.375 10:0.20833331 11:0.16666669 12:51 13:0.16 14:3 15:0.5625 16:64 17:0.1875 18:0.25 19:0.3125 20:0.25 21:0.14754099 22:1 23:0.18181819 24:0.090909094 
-1 3:4 4:22 5:0.45454544 6:2 7:4 8:0.090909064 9:0.18181819 10:0.27272725 11:0.45454544 12:49 13:0.20930232 14:2 15:0.4153846 16:65 17:0.26153845 18:0.19999999 19:0.2153846 20:0.3230769 21:0.17647059 22:0.85714287 23:0.40000001 
-0.2442851372296843 1:2 2:1 3:5 4:24 5:0.40909094 6:2 7:1 8:0.13636363 9:0.22727275 10:0.18181819 11:0.45454544 12:45 13:0.043478262 14:4 15:0.5 16:58 17:0.2241379 18:0.2241379 19:0.2758621 20:0.2758621 21:0.074074075 22:0.8888889 23:0.05882353 24:0.25 
-1 1:2 2:1 3:7 4:24 5:0.6363636 6:2 7:3 8:0.18181819 9:0.45454544 10:0.18181819 11:0.18181819 12:39 13:0.30232558 14:4 15:0.6333333 16:60 17:0.18333334 18:0.3333333 19:0.3 20:0.18333334 21:0.2857143 24:0.23076923 
-0.2744396388348587 1:1 2:1 3:7 4:24 5:0.8636364 6:3 7:4 8:0.090909064 9:0.36363637 10:0.5 11:0.04545456 12:46 13:0.20930232 14:2 15:0.6716418 16:67 17:0.11940301 18:0.3134328 19:0.35820895 20:0.20895523 21:0.17857143 22:1 24:0.07692308 
-1 1:2 2:1 3:8 4:22 5:0.6363636 6:2 7:2 8:0.22727275 9:0.27272725 10:0.36363637 11:0.13636363 12:44 13:0.25581396 14:3 15:0.53125 16:64 17:0.234375 18:0.296875 19:0.234375 20:0.234375 21:0.24137931 22:2.25 24:0.2 
-1 3:3 4:24 5:0.6521739 6:2 7:4 8:0.0869565 9:0.3043478 10:0.34782606 11:0.26086956 12:4 13:0.26086956 14:3 15:0.52380955 16:63 17:0.2063492 18:0.23809522 19:0.28571427 20:0.26984125 21:0.23076923 22:0.625 
-1 3:5 4:22 5:0.77272725 6:2 7:2 8:0.090909064 9:0.45454544 10:0.3181818 11:0.13636363 12:44 13:0.20930232 14:1 15:0.671875 16:64 17:0.140625 18:0.28125 19:0.390625 20:0.1875 21:0.20754717 22:0.72727275 24:0.2 
-0.2758307859208343 4:22 5:0.6666666 6:2 7:3 8:0.19047618 9:0.23809522 10:0.4285714 11:0.14285713 12:7 13:0.25581396 14:3 15:0.6481482 16:54 17:0.14814812 18:0.25925928 19:0.3888889 20:0.2037037 21:0.25581396 22:1 
-0.3541203843343392 3:2 4:24 5:0.5652174 6:2 7:4 8:0.13043481 9:0.34782606 10:0.21739131 11:0.3043478 12:43 13:0.19148937 14:4 15:0.4915254 16:59 17:0.220339 18:0.20338982 19:0.2881356 20:0.2881356 21:0.17647059 22:1.2 23:0.16666667 
-1 3:3 4:23 5:0.8181818 6:2 7:3 8:0.13636363 9:0.40909094 10:0.40909094 11:0.04545456 12:4 13:0.13636364 14:2 15:0.68333334 16:60 17:0.18333334 18:0.39999998 19:0.28333336 20:0.13333333 21:0.14285715 22:1.1 24:0.2 
-1 1:1 2:1 3:6 4:22 5:0.45454544 6:1 7:2 8:0.3181818 9:0.13636363 10:0.3181818 11:0.22727275 12:12 13:0.095238097 14:3 15:0.5344827 16:58 17:0.2241379 18:0.20689654 19:0.32758623 20:0.24137932 21:0.11111111 22:1.3333334 23:0.043478262 24:0.16666667 
-1 3:2 4:22 5:0.36363637 6:1 7:2 8:0.27272725 9:0.13636363 10:0.22727275 11:0.36363637 12:41 13:0.090909094 14:3 15:0.37288135 16:59 17:0.2881356 18:0.16949153 19:0.20338982 20:0.33898306 21:0.083333336 22:1.125 
-1 4:22 5:0.40909094 6:1 7:2 8:0.3181818 9:0.18181819 10:0.22727275 11:0.27272725 12:6 13:0.090909094 14:3 15:0.38181818 16:55 17:0.2909091 18:0.18181819 19:0.19999999 20:0.3272727 21:0.090909094 22:0.66666669 
-0.2242004005160216 3:2 4:23 5:0.5909091 6:3 7:2 8:0.13636363 9:0.3181818 10:0.27272725 11:0.27272725 12:7 13:0.2 14:2 15:0.5471698 16:53 17:0.20754719 18:0.26415092 19:0.2830189 20:0.24528301 21:0.18367347 22:1.2857143 23:0.16666667 
-0.5229107309973948 1:2 2:1 3:7 4:21 5:0.4285714 6:2 7:2 8:0.23809522 9:0.23809522 10:0.19047618 11:0.3333333 12:7 13:0.17948718 14:1 15:0.5 16:54 17:0.22222221 18:0.24074072 19:0.25925928 20:0.2777778 21:0.17647059 22:0.5714286 23:0.33333334 24:0.16666667 
-1 1:3 2:2 3:11 4:22 5:0.57142854 6:2 7:3 8:0.14285713 9:0.28571427 10:0.28571427 11:0.28571427 12:48 13:0.23809524 14:2 15:0.6515151 16:66 17:0.12121213 18:0.3333333 19:0.3181818 20:0.22727275 21:0.25806451 22:1.5714285 24:0.30000001 
-1 1:1 2:1 3:7 4:23 5:0.72727275 6:2 7:3 8:0.13636363 9:0.40909094 10:0.3181818 11:0.13636363 12:6 13:0.22727273 14:4 15:0.68333334 16:60 17:0.11666667 18:0.35000002 19:0.3333333 20:0.19999999 21:0.25 22:1.2222222 23:0.2 24:0.33333334 
-1 1:1 2:1 3:5 4:21 5:0.6666666 6:2 7:3 8:0.09523809 9:0.23809522 10:0.4285714 11:0.23809522 12:16 13:0.2 14:1 15:0.57142854 16:56 17:0.16071427 18:0.25 19:0.3214286 20:0.26785713 21:0.18367347 22:1.2 23:0.13333334 24:0.11111111 
-0.6589372440734163 4:24 5:0.47826087 6:3 7:4 8:0.34782606 9:0.21739131 10:0.26086956 11:0.17391306 12:15 13:0.2173913 14:1 15:0.45614034 16:57 17:0.2631579 18:0.2280702 19:0.2280702 20:0.28070176 21:0.2173913 22:0.80000001 23:0.26666668 
-1 3:1 4:25 5:0.5652174 6:2 7:3 8:0.13043481 9:0.3043478 10:0.26086956 11:0.3043478 12:44 13:0.125 14:1 15:0.5 16:60 17:0.26666665 18:0.26666665 19:0.23333335 20:0.23333335 21:0.12 22:1.4285715 
-0.1492970154304978 3:7 4:22 5:0.5454545 6:1 7:2 8:0.18181819 9:0.18181819 10:0.36363637 11:0.27272725 12:10 13:0.090909094 14:3 15:0.49206346 16:63 17:0.26984125 18:0.2063492 19:0.28571427 20:0.23809522 21:0.13793103 22:0.77777779 23:0.15789473 24:0.2857143 
-1 1:1 2:1 3:5 4:22 5:0.5454545 6:2 7:2 8:0.3181818 9:0.36363637 10:0.18181819 11:0.13636363 12:45 13:0.18181819 14:3 15:0.62903225 16:62 17:0.22580647 18:0.33870965 19:0.2903226 20:0.14516127 21:0.1923077 22:1.4285715 24:0.25 
-1 3:5 4:23 5:0.5454545 6:2 7:2 8:0.22727275 9:0.3181818 10:0.22727275 11:0.22727275 12:3 13:0.23809524 14:4 15:0.6666666 16:57 17:0.15789473 18:0.31578946 19:0.35087717 20:0.17543858 21:0.1923077 22:0.2857143 
-1 3:7 4:23 5:0.6086956 6:2 7:3 8:0.21739131 9:0.26086956 10:0.34782606 11:0.17391306 12:42 13:0.15555556 14:4 15:0.53225803 16:62 17:0.2096774 18:0.2903226 19:0.24193549 20:0.2580645 21:0.19298245 22:1.7142857 24:0.33333334 
-1 3:1 4:24 5:0.5454545 6:2 7:4 8:0.18181819 9:0.36363637 10:0.18181819 11:0.27272725 12:13 13:0.17391305 14:4 15:0.39655173 16:58 17:0.31034482 18:0.18965518 19:0.20689654 20:0.29310346 21:0.16666667 22:0.66666669 23:0.18518518 
-1 3:4 4:23 5:0.5 6:2 7:4 8:0.27272725 9:0.36363637 10:0.13636363 11:0.22727275 12:3 13:0.22727273 14:1 15:0.6034483 16:58 17:0.13793105 18:0.25862068 19:0.3448276 20:0.25862068 21:0.1923077 22:0.5 
-0.05368686501870795 1:1 2:1 3:6 4:22 5:0.36363637 6:3 7:4 8:0.3181818 9:0.22727275 10:0.13636363 11:0.3181818 12:7 13:0.23809524 14:3 15:0.45762712 16:59 17:0.20338982 18:0.220339 19:0.23728812 20:0.33898306 21:0.20754717 22:4.5 23:0.16666667 24:0.090909094 
-0.2871349650958471 1:3 2:1 3:6 4:24 5:0.43478262 6:2 7:2 8:0.21739131 9:0.0869565 10:0.34782606 11:0.34782606 12:43 13:0.27659574 14:3 15:0.38461536 16:65 17:0.26153845 18:0.15384614 19:0.23076922 20:0.35384613 21:0.32203391 24:0.5 
-0.5037720031243663 3:2 4:20 5:0.45 6:2 7:2 8:0.3 9:0.25 10:0.19999999 11:0.25 12:48 13:0.15789473 14:2 15:0.46296299 16:54 17:0.22222221 18:0.24074072 19:0.22222221 20:0.3148148 21:0.14285715 22:0.77777779 23:0.18518518 
-0.2757475486676746 1:1 2:1 3:8 4:22 5:0.5 6:1 7:3 8:0.18181819 9:0.27272725 10:0.22727275 11:0.3181818 12:54 13:0.19047619 14:4 15:0.47142857 16:70 17:0.21428573 18:0.24285716 19:0.22857141 20:0.3142857 21:0.1724138 22:0.5 23:0.090909094 24:0.125 
-1 1:1 2:1 3:6 4:26 5:0.5833334 6:2 7:4 8:0.25 9:0.375 10:0.20833331 11:0.16666669 12:51 13:0.16 14:3 15:0.5625 16:64 17:0.1875 18:0.25 19:0.3125 20:0.25 21:0.14754099 22:1 23:0.18181819 24:0.090909094 
-0.007178184412126722 1:1 2:1 3:8 4:22 5:0.6818182 6:1 7:2 8:0.27272725 9:0.27272725 10:0.40909094 11:0.04545456 12:3 13:0.069767445 14:3 15:0.5967742 16:62 17:0.19354838 18:0.30645162 19:0.2903226 20:0.2096774 21:0.11864407 22:1.2222222 24:0.25 
-1 3:4 4:22 5:0.45454544 6:2 7:4 8:0.090909064 9:0.18181819 10:0.27272725 11:0.45454544 12:49 13:0.20930232 14:2 15:0.4153846 16:65 17:0.26153845 18:0.19999999 19:0.2153846 20:0.3230769 21:0.17647059 22:0.85714287 23:0.40000001 
-0.1944059153941905 3:3 4:24 5:0.6363636 6:2 7:4 8:0.090909064 9:0.5 10:0.13636363 11:0.27272725 12:10 13:0.22727273 14:1 15:0.5660378 16:53 17:0.18867922 18:0.3207547 19:0.24528301 20:0.24528301 21:0.2 22:1.6 23:0.17647059 
-0.6292483243517781 1:1 2:1 3:7 4:20 5:0.6 6:2 7:2 8:0.25 9:0.14999998 10:0.45 11:0.14999998 12:16 13:0.23076923 14:4 15:0.53225803 16:62 17:0.2096774 18:0.22580647 19:0.30645162 20:0.2580645 21:0.20754717 22:2.5 23:0.16666667 24:0.14285715 
-0.898851868383182 3:3 4:24 5:0.45454544 6:2 7:5 8:0.13636363 9:0.27272725 10:0.18181819 11:0.40909094 12:53 13:0.26086956 14:4 15:0.4385965 16:57 17:0.2280702 18:0.17543858 19:0.2631579 20:0.3333333 21:0.23076923 22:0.875 23:0.23529412 
-0.1346054064387884 1:2 2:2 3:14 4:19 5:0.57894737 6:3 7:2 8:0.21052629 9:0.15789473 10:0.42105263 11:0.21052629 12:54 13:0.1891892 14:4 15:0.72727275 16:66 17:0.12121213 18:0.39393938 19:0.3333333 20:0.15151513 21:0.17460318 22:0.72727275 23:0.33333334 24:0.15384616 
-1 1:2 2:1 3:5 4:24 5:0.40909094 6:2 7:1 8:0.13636363 9:0.22727275 10:0.18181819 11:0.45454544 12:45 13:0.043478262 14:4 15:0.5 16:58 17:0.2241379 18:0.2241379 19:0.2758621 20:0.2758621 21:0.074074075 22:0.8888889 23:0.05882353 24:0.25 
-1 1:2 2:1 3:7 4:24 5:0.6363636 6:2 7:3 8:0.18181819 9:0.45454544 10:0.18181819 11:0.18181819 12:39 13:0.30232558 14:4 15:0.6333333 16:60 17:0.18333334 18:0.3333333 19:0.3 20:0.18333334 21:0.2857143 24:0.23076923 
-1 1:1 2:1 3:4 4:22 5:0.5 6:3 7:2 8:0.22727275 9:0.3181818 10:0.18181819 11:0.27272725 12:45 13:0.19047619 14:3 15:0.56363636 16:55 17:0.18181819 18:0.25454545 19:0.3090909 20:0.25454545 21:0.2 22:0.80000001 23:0.18181819 24:0.25 
-1 1:1 2:1 3:7 4:24 5:0.8636364 6:3 7:4 8:0.090909064 9:0.36363637 10:0.5 11:0.04545456 12:46 13:0.20930232 14:2 15:0.6716418 16:67 17:0.11940301 18:0.3134328 19:0.35820895 20:0.20895523 21:0.17857143 22:1 24:0.07692308 
-1 1:1 2:1 3:5 4:27 5:0.5 6:3 7:2 8:0.18181819 9:0.3181818 10:0.18181819 11:0.3181818 12:39 13:0.17391305 14:4 15:0.48333335 16:60 17:0.23333335 18:0.21666664 19:0.26666665 20:0.28333336 21:0.17857143 22:4 24:0.2 
-0.100745010394784 1:1 2:1 3:7 4:21 5:0.57142854 6:3 7:2 8:0.23809522 9:0.14285713 10:0.4285714 11:0.19047618 12:2 13:0.13513513 14:4 15:0.5272727 16:55 17:0.21818179 18:0.23636365 19:0.2909091 20:0.25454545 21:0.13725491 22:5 24:0.14285715 
-0.4880591251226695 3:3 4:25 5:0.5 6:5 7:3 8:0.22727275 9:0.40909094 10:0.090909064 11:0.27272725 12:6 13:0.26086956 14:4 15:0.45454544 16:55 17:0.21818179 18:0.23636365 19:0.21818179 20:0.3272727 21:0.26923078 22:0.71428573 24:0.33333334 
-1 1:2 2:1 3:8 4:22 5:0.6363636 6:2 7:2 8:0.22727275 9:0.27272725 10:0.36363637 11:0.13636363 12:44 13:0.25581396 14:3 15:0.53125 16:64 17:0.234375 18:0.296875 19:0.234375 20:0.234375 21:0.24137931 22:2.25 24:0.2 
-0.2198999542582011 1:1 2:1 3:3 4:26 5:0.6818182 6:3 7:5 8:0.090909064 9:0.36363637 10:0.3181818 11:0.22727275 12:39 13:0.23404256 14:4 15:0.62068963 16:58 17:0.20689654 18:0.3448276 19:0.2758621 20:0.17241377 21:0.24528302 22:1 24:0.33333334 
-0.4074141035527849 1:1 2:1 3:6 4:23 5:0.45454544 6:1 7:2 8:0.18181819 9:0.3181818 10:0.13636363 11:0.36363637 12:7 13:0.06666667 14:3 15:0.49253732 16:67 17:0.20895523 18:0.20895523 19:0.2835821 20:0.29850745 21:0.087719299 22:0.85714287 23:0.16666667 24:0.16666667 
-1 3:3 4:24 5:0.6521739 6:2 7:4 8:0.0869565 9:0.3043478 10:0.34782606 11:0.26086956 12:4 13:0.26086956 14:3 15:0.52380955 16:63 17:0.2063492 18:0.23809522 19:0.28571427 20:0.26984125 21:0.23076923 22:0.625 
-1 3:5 4:22 5:0.77272725 6:2 7:2 8:0.090909064 9:0.45454544 10:0.3181818 11:0.13636363 12:44 13:0.20930232 14:1 15:0.671875 16:64 17:0.140625 18:0.28125 19:0.390625 20:0.1875 21:0.20754717 22:0.72727275 24:0.2 
-1 4:22 5:0.6666666 6:2 7:3 8:0.19047618 9:0.23809522 10:0.4285714 11:0.14285713 12:7 13:0.25581396 14:3 15:0.6481482 16:54 17:0.14814812 18:0.25925928 19:0.3888889 20:0.2037037 21:0.25581396 22:1 
-1 3:2 4:24 5:0.5652174 6:2 7:4 8:0.13043481 9:0.34782606 10:0.21739131 11:0.3043478 12:43 13:0.19148937 14:4 15:0.4915254 16:59 17:0.220339 18:0.20338982 19:0.2881356 20:0.2881356 21:0.17647059 22:1.2 23:0.16666667 
-0.2959211004884866 3:4 4:23 5:0.6818182 6:1 7:3 8:0.090909064 9:0.3181818 10:0.36363637 11:0.22727275 12:39 13:0.15555556 14:2 15:0.6545454 16:55 17:0.12727273 18:0.34545457 19:0.3090909 20:0.21818179 21:0.17647059 22:0.81818181 23:0.2 24:0.33333334 
-1 3:5 4:22 5:0.36363637 6:2 7:3 8:0.45454544 9:0.04545456 10:0.3181818 11:0.18181819 12:41 13:0.23809524 14:4 15:0.41935486 16:62 17:0.2580645 18:0.19354838 19:0.22580647 20:0.32258064 21:0.1923077 22:2.25 
-0.8013995949898887 4:26 5:0.5 6:2 7:3 8:0.08333331 9:0.3333333 10:0.16666669 11:0.4166667 12:2 13:0.16 14:1 15:0.43333334 16:60 17:0.23333335 18:0.19999999 19:0.23333335 20:0.3333333 21:0.16 22:0.60000002 
-1 3:3 4:23 5:0.8181818 6:2 7:3 8:0.13636363 9:0.40909094 10:0.40909094 11:0.04545456 12:4 13:0.13636364 14:2 15:0.68333334 16:60 17:0.18333334 18:0.39999998 19:0.28333336 20:0.13333333 21:0.14285715 22:1.1 24:0.2 
-1 1:1 2:1 3:6 4:22 5:0.45454544 6:1 7:2 8:0.3181818 9:0.13636363 10:0.3181818 11:0.22727275 12:12 13:0.095238097 14:3 15:0.5344827 16:58 17:0.2241379 18:0.20689654 19:0.32758623 20:0.24137932 21:0.11111111 22:1.3333334 23:0.043478262 24:0.16666667 
-1 3:2 4:22 5:0.36363637 6:1 7:2 8:0.27272725 9:0.13636363 10:0.22727275 11:0.36363637 12:41 13:0.090909094 14:3 15:0.37288135 16:59 17:0.2881356 18:0.16949153 19:0.20338982 20:0.33898306 21:0.083333336 22:1.125 
-1 4:22 5:0.40909094 6:1 7:2 8:0.3181818 9:0.18181819 10:0.22727275 11:0.27272725 12:6 13:0.090909094 14:3 15:0.38181818 16:55 17:0.2909091 18:0.18181819 19:0.19999999 20:0.3272727 21:0.090909094 22:0.66666669 
-1 3:2 4:23 5:0.5909091 6:3 7:2 8:0.13636363 9:0.3181818 10:0.27272725 11:0.27272725 12:7 13:0.2 14:2 15:0.5471698 16:53 17:0.20754719 18:0.26415092 19:0.2830189 20:0.24528301 21:0.18367347 22:1.2857143 23:0.16666667 
-1 1:2 2:1 3:7 4:21 5:0.4285714 6:2 7:2 8:0.23809522 9:0.23809522 10:0.19047618 11:0.3333333 12:7 13:0.17948718 14:1 15:0.5 16:54 17:0.22222221 18:0.24074072 19:0.25925928 20:0.2777778 21:0.17647059 22:0.5714286 23:0.33333334 24:0.16666667 
-0.04350827226619347 1:2 2:1 3:11 4:23 5:0.73913044 6:2 7:4 8:0.17391306 9:0.34782606 10:0.39130437 11:0.0869565 12:11 13:0.18181819 14:1 15:0.6865672 16:67 17:0.19402987 18:0.3134328 19:0.37313432 20:0.11940301 21:0.1875 22:0.54545456 23:0.15789473 24:0.2 
-1 1:3 2:2 3:11 4:22 5:0.57142854 6:2 7:3 8:0.14285713 9:0.28571427 10:0.28571427 11:0.28571427 12:48 13:0.23809524 14:2 15:0.6515151 16:66 17:0.12121213 18:0.3333333 19:0.3181818 20:0.22727275 21:0.25806451 22:1.5714285 24:0.30000001 
-1 1:1 2:1 3:7 4:23 5:0.72727275 6:2 7:3 8:0.13636363 9:0.40909094 10:0.3181818 11:0.13636363 12:6 13:0.22727273 14:4 15:0.68333334 16:60 17:0.11666667 18:0.35000002 19:0.3333333 20:0.19999999 21:0.25 22:1.2222222 23:0.2 24:0.33333334 
-1 1:3 2:1 3:9 4:25 5:0.40909094 6:1 7:2 8:0.27272725 9:0.27272725 10:0.13636363 11:0.3181818 12:48 13:0.31914893 14:2 15:0.47761196 16:67 17:0.25373137 18:0.22388059 19:0.25373137 20:0.26865673 21:0.29032257 24:0.2 
-1 1:1 2:1 3:5 4:21 5:0.6666666 6:2 7:3 8:0.09523809 9:0.23809522 10:0.4285714 11:0.23809522 12:16 13:0.2 14:1 15:0.57142854 16:56 17:0.16071427 18:0.25 19:0.3214286 20:0.26785713 21:0.18367347 22:1.2 23:0.13333334 24:0.11111111 
-1 4:24 5:0.47826087 6:3 7:4 8:0.34782606 9:0.21739131 10:0.26086956 11:0.17391306 12:15 13:0.2173913 14:1 15:0.45614034 16:57 17:0.2631579 18:0.2280702 19:0.2280702 20:0.28070176 21:0.2173913 22:0.80000001 23:0.26666668 
-0.3440442416144555 3:5 4:22 5:0.6363636 6:1 7:2 8:0.22727275 9:0.3181818 10:0.3181818 11:0.13636363 12:5 13:0.31818181 14:2 15:0.5806452 16:62 17:0.12903225 18:0.2580645 19:0.32258064 20:0.2903226 21:0.25925925 22:1.6666666 
-0.3693615034087341 3:1 4:25 5:0.6956522 6:4 7:4 8:0.13043481 9:0.34782606 10:0.34782606 11:0.17391306 12:17 13:0.27659574 14:2 15:0.5925926 16:54 17:0.14814812 18:0.25925928 19:0.3333333 20:0.25925928 21:0.26530612 22:1.8 23:0.1875 
-0.2375010179085182 3:11 4:21 5:0.61904764 6:1 7:4 8:0.23809522 9:0.3333333 10:0.28571427 11:0.14285713 12:45 13:0.31578946 14:4 15:0.60714287 16:56 17:0.26785713 18:0.35714287 19:0.25 20:0.125 21:0.38461539 23:0.11111111 24:0.5714286 
-0.1211115279044459 1:6 2:4 3:32 4:23 5:0.5909091 6:2 7:4 8:0.090909064 9:0.22727275 10:0.36363637 11:0.3181818 12:83 13:0.22727273 14:1 15:0.58653843 16:104 17:0.16346157 18:0.28846157 19:0.29807693 20:0.25 21:0.25999999 22:1.1666666 24:0.2857143 
-1 3:1 4:25 5:0.5652174 6:2 7:3 8:0.13043481 9:0.3043478 10:0.26086956 11:0.3043478 12:44 13:0.125 14:1 15:0.5 16:60 17:0.26666665 18:0.26666665 19:0.23333335 20:0.23333335 21:0.12 22:1.4285715 
-1 3:7 4:22 5:0.5454545 6:1 7:2 8:0.18181819 9:0.18181819 10:0.36363637 11:0.27272725 12:10 13:0.090909094 14:3 15:0.49206346 16:63 17:0.26984125 18:0.2063492 19:0.28571427 20:0.23809522 21:0.13793103 22:0.77777779 23:0.15789473 24:0.2857143 
-1 1:1 2:1 3:5 4:22 5:0.5454545 6:2 7:2 8:0.3181818 9:0.36363637 10:0.18181819 11:0.13636363 12:45 13:0.18181819 14:3 15:0.62903225 16:62 17:0.22580647 18:0.33870965 19:0.2903226 20:0.14516127 21:0.1923077 22:1.4285715 24:0.25 
-1 3:5 4:23 5:0.5454545 6:2 7:2 8:0.22727275 9:0.3181818 10:0.22727275 11:0.22727275 12:3 13:0.23809524 14:4 15:0.6666666 16:57 17:0.15789473 18:0.31578946 19:0.35087717 20:0.17543858 21:0.1923077 22:0.2857143 
-1 3:7 4:23 5:0.6086956 6:2 7:3 8:0.21739131 9:0.26086956 10:0.34782606 11:0.17391306 12:42 13:0.15555556 14:4 15:0.53225803 16:62 17:0.2096774 18:0.2903226 19:0.24193549 20:0.2580645 21:0.19298245 22:1.7142857 24:0.33333334 
-0.1113184019122823 3:7 4:27 5:0.5454545 6:5 7:3 8:0.18181819 9:0.27272725 10:0.27272725 11:0.27272725 12:56 13:0.16666667 14:2 15:0.6060606 16:66 17:0.13636363 18:0.25757575 19:0.34848487 20:0.25757575 21:0.12903225 22:0.2857143 23:0.41666666 
-0.2731576331048322 1:2 2:1 3:8 4:22 5:0.45454544 6:2 7:3 8:0.090909064 9:0.3181818 10:0.13636363 11:0.45454544 12:2 13:0.1627907 14:3 15:0.46031743 16:63 17:0.2063492 18:0.2063492 19:0.25396824 20:0.3333333 21:0.15789473 22:1.8 24:0.14285715 
-0.5256793656107658 1:1 2:2 3:11 4:21 5:0.52380955 6:4 7:2 8:0.28571427 9:0.23809522 10:0.28571427 11:0.19047618 12:5 13:0.24324325 14:2 15:0.53225803 16:62 17:0.2580645 18:0.24193549 19:0.2903226 20:0.2096774 21:0.20689656 22:2.3333333 23:0.5 24:0.14285715 
-1 3:1 4:24 5:0.5454545 6:2 7:4 8:0.18181819 9:0.36363637 10:0.18181819 11:0.27272725 12:13 13:0.17391305 14:4 15:0.39655173 16:58 17:0.31034482 18:0.18965518 19:0.20689654 20:0.29310346 21:0.16666667 22:0.66666669 23:0.18518518 
-0.231591961661247 3:3 4:23 5:0.5454545 6:2 7:4 8:0.090909064 9:0.13636363 10:0.40909094 11:0.36363637 12:38 13:0.22727273 14:3 15:0.60714287 16:56 17:0.14285713 18:0.26785713 19:0.33928573 20:0.25 21:0.2 22:1.6666666 
-1 3:4 4:23 5:0.5 6:2 7:4 8:0.27272725 9:0.36363637 10:0.13636363 11:0.22727275 12:3 13:0.22727273 14:1 15:0.6034483 16:58 17:0.13793105 18:0.25862068 19:0.3448276 20:0.25862068 21:0.1923077 22:0.5 
-1 1:1 2:1 3:6 4:22 5:0.36363637 6:3 7:4 8:0.3181818 9:0.22727275 10:0.13636363 11:0.3181818 12:7 13:0.23809524 14:3 15:0.45762712 16:59 17:0.20338982 18:0.220339 19:0.23728812 20:0.33898306 21:0.20754717 22:4.5 23:0.16666667 24:0.090909094 
-0.09861329008175351 1:1 2:2 3:11 4:22 5:0.6363636 6:1 7:5 8:0.13636363 9:0.45454544 10:0.18181819 11:0.22727275 12:56 13:0.22727273 14:3 15:0.5857143 16:70 17:0.1857143 18:0.25714284 19:0.32857144 20:0.22857141 21:0.1875 22:0.72727275 24:0.1 
-0.4189709540591844 1:3 2:3 3:16 4:23 5:0.6521739 6:1 7:3 8:0.0869565 9:0.39130437 10:0.26086956 11:0.26086956 12:62 13:0.13043478 14:2 15:0.6962025 16:79 17:0.08860761 18:0.3291139 19:0.36708862 20:0.21518987 21:0.16216215 22:1.1428572 24:0.21428572 
-0.990514212258452 1:3 2:1 3:6 4:24 5:0.43478262 6:2 7:2 8:0.21739131 9:0.0869565 10:0.34782606 11:0.34782606 12:43 13:0.27659574 14:3 15:0.38461536 16:65 17:0.26153845 18:0.15384614 19:0.23076922 20:0.35384613 21:0.32203391 24:0.5 
-0.5388225517578431 1:4 2:1 3:14 4:22 5:0.8181818 6:1 7:2 8:0.18181819 9:0.3181818 10:0.5 12:52 13:0.2972973 14:2 15:0.6712329 16:73 17:0.16438359 18:0.34246576 19:0.32876712 20:0.16438359 21:0.2923077 24:0.2857143 
-0.03189236689365053 1:3 2:2 3:10 4:21 5:0.61904764 6:2 7:3 8:0.28571427 9:0.047619045 10:0.57142854 11:0.09523809 12:12 13:0.23809524 14:2 15:0.6153846 16:65 17:0.2153846 18:0.35384613 19:0.26153845 20:0.16923076 21:0.30000001 22:2.2 23:0.23809524 24:0.44444445 
-0.67083361075766 1:3 2:2 3:18 4:24 5:0.52380955 6:1 7:3 8:0.23809522 9:0.19047618 10:0.3333333 11:0.23809522 12:9 13:0.24444444 14:4 15:0.5 16:82 17:0.20731705 18:0.25609756 19:0.24390244 20:0.29268295 21:0.24050634 22:0.22222222 23:0.29411766 24:0.23529412 
-0.1797633676672231 3:2 4:22 5:0.6363636 6:3 7:4 8:0.27272725 9:0.22727275 10:0.40909094 11:0.090909064 12:39 13:0.31707317 14:4 15:0.58000004 16:50 17:0.18 18:0.3 19:0.27999997 20:0.24000001 21:0.33333334 22:0.69999999 23:0.30000001 24:0.5 
-1 3:2 4:20 5:0.45 6:2 7:2 8:0.3 9:0.25 10:0.19999999 11:0.25 12:48 13:0.15789473 14:2 15:0.46296299 16:54 17:0.22222221 18:0.24074072 19:0.22222221 20:0.3148148 21:0.14285715 22:0.77777779 23:0.18518518 
-0.9977565857606644 1:1 2:1 3:8 4:22 5:0.5 6:1 7:3 8:0.18181819 9:0.27272725 10:0.22727275 11:0.3181818 12:54 13:0.19047619 14:4 15:0.47142857 16:70 17:0.21428573 18:0.24285716 19:0.22857141 20:0.3142857 21:0.1724138 22:0.5 23:0.090909094 24:0.125 
-0.4156928897513383 1:3 2:3 3:19 4:23 5:0.45454544 6:4 7:1 8:0.3181818 9:0.22727275 10:0.22727275 11:0.22727275 12:68 13:0.15555556 14:4 15:0.45348835 16:86 17:0.23255813 18:0.1976744 19:0.25581396 20:0.31395346 21:0.19512194 22:0.89999998 23:0.33333334 24:0.24324325 
-0.1892861007497258 4:22 5:0.6818182 6:3 7:2 8:0.13636363 9:0.22727275 10:0.45454544 11:0.18181819 12:37 13:0.2 14:4 15:0.5952381 16:42 17:0.11904764 18:0.23809522 19:0.35714287 20:0.28571427 21:0.15789473 22:0.77777779 23:0.16129032 
-0.4950268529796052 4:25 5:0.61904764 6:3 7:4 8:0.09523809 9:0.28571427 10:0.3333333 11:0.28571427 12:13 13:0.17391305 14:3 15:0.62 16:50 17:0.10000002 18:0.26 19:0.36 20:0.27999997 21:0.17391305 22:0.89999998 23:0.13043478 
-0.5215646244430178 1:1 2:1 3:18 4:24 5:0.5454545 6:3 7:4 8:0.3181818 9:0.22727275 10:0.3181818 11:0.13636363 12:6 13:0.33333334 14:3 15:0.5543478 16:92 17:0.22826087 18:0.26086956 19:0.29347825 20:0.21739131 21:0.2 22:0.625 23:0.2 24:0.028571429 
-0.2655535829052084 3:11 4:24 5:0.6086956 6:3 7:4 8:0.13043481 9:0.26086956 10:0.34782606 11:0.26086956 12:68 13:0.2 14:3 15:0.5443038 16:79 17:0.21518987 18:0.26582277 19:0.278481 20:0.24050635 21:0.13432837 22:0.69999999 23:0.39130434 
-0.1083320973399458 1:1 2:1 3:11 4:21 5:0.61904764 6:2 7:4 8:0.09523809 9:0.23809522 10:0.38095236 11:0.28571427 12:1 13:0.21951219 15:0.5230769 16:65 17:0.2153846 18:0.23076922 19:0.29230767 20:0.26153845 21:0.16129032 22:1.6666666 24:0.047619049 
-1 1:1 2:1 3:6 4:26 5:0.5833334 6:2 7:4 8:0.25 9:0.375 10:0.20833331 11:0.16666669 12:51 13:0.16 14:3 15:0.5625 16:64 17:0.1875 18:0.25 19:0.3125 20:0.25 21:0.14754099 22:1 23:0.18181819 24:0.090909094 
-0.2431478833945209 1:2 2:3 3:15 4:21 5:0.47619045 6:1 7:2 8:0.14285713 9:0.09523809 10:0.38095236 11:0.38095236 12:7 13:0.095238097 14:3 15:0.5416666 16:72 17:0.19444442 18:0.2361111 19:0.30555558 20:0.2638889 21:0.13043478 22:0.89999998 23:0.2857143 24:0.18518518 
-0.4027977417915757 1:3 2:1 3:9 4:21 5:0.71428573 6:2 7:1 8:0.19047618 9:0.047619045 10:0.6666666 11:0.09523809 12:12 13:0.14285715 14:2 15:0.60317457 16:63 17:0.17460316 18:0.25396824 19:0.34920633 20:0.22222221 21:0.20689656 22:0.80000001 23:0.13043478 24:0.375 
-0.6384163529718336 1:3 2:1 3:9 4:21 5:0.6666666 6:2 7:3 8:0.14285713 9:0.4285714 10:0.23809522 11:0.19047618 12:11 13:0.19047619 14:3 15:0.5967742 16:62 17:0.19354838 18:0.2903226 19:0.30645162 20:0.2096774 21:0.19298245 22:1.25 23:0.23809524 24:0.2 
-1 1:1 2:1 3:8 4:22 5:0.6818182 6:1 7:2 8:0.27272725 9:0.27272725 10:0.40909094 11:0.04545456 12:3 13:0.069767445 14:3 15:0.5967742 16:62 17:0.19354838 18:0.30645162 19:0.2903226 20:0.2096774 21:0.11864407 22:1.2222222 24:0.25 
-0.1307334099914118 4:26 5:0.5 6:2 7:5 8:0.125 9:0.16666669 10:0.3333333 11:0.375 12:38 13:0.36000001 15:0.5098039 16:51 17:0.15686274 18:0.25490195 19:0.25490195 20:0.3333333 21:0.23809524 23:0.125 
-0.4897617242158378 1:2 2:1 3:16 4:22 5:0.5 6:8 7:2 8:0.090909064 9:0.36363637 10:0.13636363 11:0.40909094 12:66 13:0.41176471 14:3 15:0.49367088 16:79 17:0.20253164 18:0.29113925 19:0.20253164 20:0.30379748 21:0.27272728 22:0.625 23:0.2857143 24:0.125 
-0.9976434939215211 3:4 4:22 5:0.45454544 6:2 7:4 8:0.090909064 9:0.18181819 10:0.27272725 11:0.45454544 12:49 13:0.20930232 14:2 15:0.4153846 16:65 17:0.26153845 18:0.19999999 19:0.2153846 20:0.3230769 21:0.17647059 22:0.85714287 23:0.40000001 
-0.2945725666368001 1:1 2:1 3:10 4:26 5:0.4583333 6:3 7:4 8:0.2916667 9:0.4583333 11:0.25 12:66 13:0.23999999 14:4 15:0.425 16:80 17:0.2625 18:0.22500002 19:0.19999999 20:0.3125 21:0.2173913 22:1.5714285 23:0.36842105 24:0.15789473 
-0.1707259273269499 4:22 5:0.61904764 6:2 7:3 8:0.19047618 9:0.19047618 10:0.4285714 11:0.19047618 12:16 13:0.3488372 14:2 15:0.627907 16:43 17:0.16279072 18:0.25581396 19:0.37209302 20:0.2093023 21:0.2 23:0.18518518 
-0.550753116007239 1:2 2:1 3:12 4:23 5:0.5909091 6:1 7:3 8:0.3181818 9:0.40909094 10:0.18181819 11:0.090909064 12:8 13:0.090909094 14:4 15:0.5277778 16:72 17:0.2638889 18:0.2361111 19:0.2916667 20:0.20833331 21:0.12121212 22:0.90909094 23:0.07692308 24:0.18181819 
-0.3029284061590211 1:2 2:2 3:15 4:23 5:0.5909091 6:1 7:4 8:0.27272725 9:0.3181818 10:0.27272725 11:0.13636363 12:5 13:0.11627907 14:2 15:0.53246754 16:77 17:0.24675328 18:0.23376626 19:0.2987013 20:0.22077924 21:0.12676056 22:0.69999999 24:0.14285715 
-0.9538494077520503 3:3 4:24 5:0.6363636 6:2 7:4 8:0.090909064 9:0.5 10:0.13636363 11:0.27272725 12:10 13:0.22727273 14:1 15:0.5660378 16:53 17:0.18867922 18:0.3207547 19:0.24528301 20:0.24528301 21:0.2 22:1.6 23:0.17647059 
-0.1921594036144913 1:2 2:1 3:11 4:24 5:0.6666666 6:4 7:3 8:0.3333333 9:0.4583333 10:0.20833331 12:8 13:0.2173913 14:4 15:0.5857143 16:70 17:0.17142856 18:0.3142857 19:0.27142859 20:0.24285716 21:0.18181819 22:1.1428572 24:0.1 
-0.2497825516772978 1:2 2:2 3:14 4:27 5:0.5 6:3 7:4 8:0.13636363 9:0.3181818 10:0.18181819 11:0.36363637 12:66 13:0.18367347 14:3 15:0.5116279 16:86 17:0.22093022 18:0.22093022 19:0.2906977 20:0.26744187 21:0.19480519 22:0.80000001 24:0.21428572 
-0.984339595143417 1:1 2:1 3:7 4:20 5:0.6 6:2 7:2 8:0.25 9:0.14999998 10:0.45 11:0.14999998 12:16 13:0.23076923 14:4 15:0.53225803 16:62 17:0.2096774 18:0.22580647 19:0.30645162 20:0.2580645 21:0.20754717 22:2.5 23:0.16666667 24:0.14285715 
-0.9781837312234597 3:3 4:24 5:0.45454544 6:2 7:5 8:0.13636363 9:0.27272725 10:0.18181819 11:0.40909094 12:53 13:0.26086956 14:4 15:0.4385965 16:57 17:0.2280702 18:0.17543858 19:0.2631579 20:0.3333333 21:0.23076923 22:0.875 23:0.23529412 
-0.2532736194380934 4:23 5:0.73913044 6:2 7:3 8:0.13043481 9:0.39130437 10:0.34782606 11:0.13043481 12:39 13:0.1627907 15:0.77272725 16:44 17:0.090909064 18:0.4318182 19:0.34090906 20:0.13636363 21:0.12195122 22:0.72727275 23:0.29411766 
-1 1:2 2:2 3:14 4:19 5:0.57894737 6:3 7:2 8:0.21052629 9:0.15789473 10:0.42105263 11:0.21052629 12:54 13:0.1891892 14:4 15:0.72727275 16:66 17:0.12121213 18:0.39393938 19:0.3333333 20:0.15151513 21:0.17460318 22:0.72727275 23:0.33333334 24:0.15384616 
-0.2234357239867373 4:23 5:0.43478262 6:2 7:3 8:0.3043478 9:0.17391306 10:0.26086956 11:0.26086956 12:43 13:0.33333334 14:1 15:0.3958333 16:48 17:0.2916667 18:0.16666669 19:0.22916669 20:0.3125 21:0.1891892 23:0.11764706 
-0.2743274118440429 1:1 2:2 3:14 4:22 5:0.72727275 6:2 7:2 8:0.18181819 9:0.36363637 10:0.36363637 11:0.090909064 12:8 13:0.13636364 14:3 15:0.61904764 16:84 17:0.19047618 18:0.30952382 19:0.30952382 20:0.19047618 21:0.1388889 22:1.2222222 23:0.14285715 24:0.14285715 
-0.01168019349502455 1:2 2:2 3:16 4:22 5:0.5454545 6:1 7:1 8:0.13636363 9:0.18181819 10:0.36363637 11:0.3181818 12:54 13:0.023255814 14:3 15:0.56 16:75 17:0.18666667 18:0.25333333 19:0.30666667 20:0.25333333 21:0.070422538 22:1 24:0.14285715 
-1 1:2 2:1 3:5 4:24 5:0.40909094 6:2 7:1 8:0.13636363 9:0.22727275 10:0.18181819 11:0.45454544 12:45 13:0.043478262 14:4 15:0.5 16:58 17:0.2241379 18:0.2241379 19:0.2758621 20:0.2758621 21:0.074074075 22:0.8888889 23:0.05882353 24:0.25 
-0.3459739351969048 1:2 2:4 3:18 4:24 5:0.6956522 6:2 7:3 8:0.21739131 9:0.26086956 10:0.43478262 11:0.0869565 12:2 13:0.11111111 14:2 15:0.6352941 16:85 17:0.16470587 18:0.32941175 19:0.30588233 20:0.19999999 21:0.15384616 22:1 24:0.21212122 
-1 1:2 2:1 3:7 4:24 5:0.6363636 6:2 7:3 8:0.18181819 9:0.45454544 10:0.18181819 11:0.18181819 12:39 13:0.30232558 14:4 15:0.6333333 16:60 17:0.18333334 18:0.3333333 19:0.3 20:0.18333334 21:0.2857143 24:0.23076923 
-0.1959855492876511 4:26 5:0.44 6:4 7:2 8:0.48000002 9:0.16000003 10:0.27999997 11:0.07999998 12:10 13:0.25490198 14:2 15:0.45098037 16:51 17:0.2745098 18:0.17647058 19:0.2745098 20:0.2745098 21:0.19148937 22:3.3333333 
-0.4627997719057834 1:3 2:3 3:20 4:20 5:0.55 6:1 7:2 8:0.10000002 9:0.25 10:0.3 11:0.35000002 12:58 13:0.2 14:4 15:0.6447369 16:76 17:0.14473683 18:0.2631579 19:0.38157892 20:0.21052629 21:0.18309858 22:2.6666667 24:0.16666667 
-0.4756679891062046 4:29 5:0.5416666 6:3 7:3 8:0.25 9:0.25 10:0.2916667 11:0.20833331 12:34 13:0.16981132 14:3 15:0.5454545 16:55 17:0.19999999 18:0.25454545 19:0.2909091 20:0.25454545 21:0.10204082 22:0.85714287 
-0.2432216080740333 4:27 5:0.5652174 6:3 7:2 8:0.21739131 9:0.21739131 10:0.34782606 11:0.21739131 12:33 13:0.2 15:0.53999996 16:50 17:0.19999999 18:0.24000001 19:0.3 20:0.26 21:0.090909094 22:0.30000001 23:0.11111111 
-0.8796525745375542 1:1 2:1 3:4 4:22 5:0.5 6:3 7:2 8:0.22727275 9:0.3181818 10:0.18181819 11:0.27272725 12:45 13:0.19047619 14:3 15:0.56363636 16:55 17:0.18181819 18:0.25454545 19:0.3090909 20:0.25454545 21:0.2 22:0.80000001 23:0.18181819 24:0.25 
-1 1:1 2:1 3:7 4:24 5:0.8636364 6:3 7:4 8:0.090909064 9:0.36363637 10:0.5 11:0.04545456 12:46 13:0.20930232 14:2 15:0.6716418 16:67 17:0.11940301 18:0.3134328 19:0.35820895 20:0.20895523 21:0.17857143 22:1 24:0.07692308 
-0.7756855261267313 1:1 2:1 3:5 4:27 5:0.5 6:3 7:2 8:0.18181819 9:0.3181818 10:0.18181819 11:0.3181818 12:39 13:0.17391305 14:4 15:0.48333335 16:60 17:0.23333335 18:0.21666664 19:0.26666665 20:0.28333336 21:0.17857143 22:4 24:0.2 
-0.9847334477086284 1:1 2:1 3:7 4:21 5:0.57142854 6:3 7:2 8:0.23809522 9:0.14285713 10:0.4285714 11:0.19047618 12:2 13:0.13513513 14:4 15:0.5272727 16:55 17:0.21818179 18:0.23636365 19:0.2909091 20:0.25454545 21:0.13725491 22:5 24:0.14285715 
-0.9605986974110315 3:2 4:28 5:0.77272725 6:6 7:2 8:0.13636363 9:0.45454544 10:0.3181818 11:0.090909064 12:8 13:0.28 14:2 15:0.5964912 16:57 17:0.17543858 18:0.28070176 19:0.31578946 20:0.2280702 21:0.25925925 22:1 
-0.3828778524867709 4:21 5:0.47619045 6:6 7:2 8:0.23809522 9:0.19047618 10:0.28571427 11:0.28571427 12:35 13:0.27777779 14:1 15:0.56410253 16:39 17:0.2051282 18:0.23076922 19:0.3333333 20:0.23076922 21:0.27777779 22:0.40000001 23:0.125 
-0.7102303084961618 4:20 5:0.45 6:1 7:1 8:0.14999998 9:0.19999999 10:0.25 11:0.39999998 12:15 13:0.07692308 14:3 15:0.44 16:50 17:0.26 18:0.22000003 19:0.22000003 20:0.3 21:0.07692308 22:0.875 23:0.15384616 
-0.8502495581351931 3:3 4:25 5:0.5 6:5 7:3 8:0.22727275 9:0.40909094 10:0.090909064 11:0.27272725 12:6 13:0.26086956 14:4 15:0.45454544 16:55 17:0.21818179 18:0.23636365 19:0.21818179 20:0.3272727 21:0.26923078 22:0.71428573 24:0.33333334 
-1 1:2 2:1 3:8 4:22 5:0.6363636 6:2 7:2 8:0.22727275 9:0.27272725 10:0.36363637 11:0.13636363 12:44 13:0.25581396 14:3 15:0.53125 16:64 17:0.234375 18:0.296875 19:0.234375 20:0.234375 21:0.24137931 22:2.25 24:0.2 
-1 1:1 2:1 3:3 4:26 5:0.6818182 6:3 7:5 8:0.090909064 9:0.36363637 10:0.3181818 11:0.22727275 12:39 13:0.23404256 14:4 15:0.62068963 16:58 17:0.20689654 18:0.3448276 19:0.2758621 20:0.17241377 21:0.24528302 22:1 24:0.33333334 
-0.9490689890475787 1:1 2:1 3:6 4:23 5:0.45454544 6:1 7:2 8:0.18181819 9:0.3181818 10:0.13636363 11:0.36363637 12:7 13:0.06666667 14:3 15:0.49253732 16:67 17:0.20895523 18:0.20895523 19:0.2835821 20:0.29850745 21:0.087719299 22:0.85714287 23:0.16666667 24:0.16666667 
-0.3425386044150927 4:26 5:0.6666666 6:3 7:5 8:0.16666669 9:0.4166667 10:0.25 11:0.16666669 12:12 13:0.29166666 14:3 15:0.6603774 16:53 17:0.1509434 18:0.3207547 19:0.33962262 20:0.18867922 21:0.22727273 22:1.6 23:0.090909094 
-0.1412224916359647 3:2 4:24 5:0.4583333 6:2 7:2 8:0.20833331 9:0.125 10:0.3333333 11:0.3333333 12:36 13:0.125 14:3 15:0.4464286 16:56 17:0.28571427 18:0.1964286 19:0.25 20:0.26785713 21:0.15384616 22:1.6 24:0.5 
-0.01257338244001025 3:2 4:20 5:0.39999998 6:1 7:1 8:0.3 9:0.25 10:0.14999998 11:0.3 12:8 13:0.050000001 14:4 15:0.4375 16:48 17:0.2916667 18:0.1875 19:0.25 20:0.2708333 21:0.090909094 22:1.375 23:0.2857143 24:0.5 
-0.5249752968041663 3:2 4:22 5:0.36363637 6:2 7:3 8:0.27272725 9:0.090909064 10:0.27272725 11:0.36363637 12:34 13:0.14285715 14:2 15:0.43137252 16:51 17:0.2745098 18:0.2352941 19:0.19607842 20:0.29411763 21:0.13043478 22:0.40000001 
-0.6312944469640277 3:3 4:24 5:0.6521739 6:2 7:4 8:0.0869565 9:0.3043478 10:0.34782606 11:0.26086956 12:4 13:0.26086956 14:3 15:0.52380955 16:63 17:0.2063492 18:0.23809522 19:0.28571427 20:0.26984125 21:0.23076923 22:0.625 
-0.3360091008294652 1:3 2:1 3:10 4:21 5:0.4285714 6:1 7:1 8:0.09523809 9:0.19047618 10:0.23809522 11:0.47619045 12:1 13:0.095238097 15:0.469697 16:66 17:0.22727275 18:0.24242425 19:0.22727275 20:0.3030303 21:0.14754099 22:1.5 24:0.2631579 
-0.658703856211968 3:5 4:22 5:0.77272725 6:2 7:2 8:0.090909064 9:0.45454544 10:0.3181818 11:0.13636363 12:44 13:0.20930232 14:1 15:0.671875 16:64 17:0.140625 18:0.28125 19:0.390625 20:0.1875 21:0.20754717 22:0.72727275 24:0.2 
-1 4:22 5:0.6666666 6:2 7:3 8:0.19047618 9:0.23809522 10:0.4285714 11:0.14285713 12:7 13:0.25581396 14:3 15:0.6481482 16:54 17:0.14814812 18:0.25925928 19:0.3888889 20:0.2037037 21:0.25581396 22:1 
-0.9524637154361739 3:2 4:24 5:0.5652174 6:2 7:4 8:0.13043481 9:0.34782606 10:0.21739131 11:0.3043478 12:43 13:0.19148937 14:4 15:0.4915254 16:59 17:0.220339 18:0.20338982 19:0.2881356 20:0.2881356 21:0.17647059 22:1.2 23:0.16666667 
-0.3508027827576324 1:1 2:1 3:8 4:22 5:0.45454544 6:2 7:3 8:0.36363637 9:0.090909064 10:0.36363637 11:0.18181819 12:3 13:0.20930232 14:2 15:0.47761196 16:67 17:0.23880595 18:0.19402987 19:0.2835821 20:0.2835821 21:0.18644068 22:1 24:0.125 
-1 3:4 4:23 5:0.6818182 6:1 7:3 8:0.090909064 9:0.3181818 10:0.36363637 11:0.22727275 12:39 13:0.15555556 14:2 15:0.6545454 16:55 17:0.12727273 18:0.34545457 19:0.3090909 20:0.21818179 21:0.17647059 22:0.81818181 23:0.2 24:0.33333334 
-0.859352369108349 3:5 4:22 5:0.36363637 6:2 7:3 8:0.45454544 9:0.04545456 10:0.3181818 11:0.18181819 12:41 13:0.23809524 14:4 15:0.41935486 16:62 17:0.2580645 18:0.19354838 19:0.22580647 20:0.32258064 21:0.1923077 22:2.25 
-0.9018927486814288 4:26 5:0.5 6:2 7:3 8:0.08333331 9:0.3333333 10:0.16666669 11:0.4166667 12:2 13:0.16 14:1 15:0.43333334 16:60 17:0.23333335 18:0.19999999 19:0.23333335 20:0.3333333 21:0.16 22:0.60000002 
-0.009016491575034764 4:22 5:0.40909094 6:3 7:3 8:0.3181818 9:0.18181819 10:0.22727275 11:0.27272725 12:38 13:0.2857143 14:4 15:0.4375 16:48 17:0.2916667 18:0.22916669 19:0.20833331 20:0.2708333 21:0.2857143 22:1.5 23:0.090909094 
-0.1423306413429983 1:1 2:1 3:6 4:23 5:0.5909091 6:2 7:3 8:0.27272725 9:0.40909094 10:0.18181819 11:0.13636363 12:44 13:0.15555556 14:4 15:0.5692308 16:65 17:0.15384614 18:0.23076922 19:0.33846152 20:0.27692306 21:0.19298245 22:0.89999998 24:0.33333334 
-0.4617432645293324 1:2 2:3 3:22 4:21 5:0.52380955 6:3 7:3 8:0.23809522 9:0.19047618 10:0.3333333 11:0.23809522 12:72 13:0.23809524 14:2 15:0.4395604 16:91 17:0.24175823 18:0.2087912 19:0.23076922 20:0.3186813 21:0.22352941 22:1.2857143 24:0.20930232 
-1 3:3 4:23 5:0.8181818 6:2 7:3 8:0.13636363 9:0.40909094 10:0.40909094 11:0.04545456 12:4 13:0.13636364 14:2 15:0.68333334 16:60 17:0.18333334 18:0.39999998 19:0.28333336 20:0.13333333 21:0.14285715 22:1.1 24:0.2 
-0.7013518434711922 3:3 4:22 5:0.5454545 6:1 7:4 8:0.18181819 9:0.04545456 10:0.5 11:0.27272725 12:7 13:0.25581396 14:2 15:0.5849056 16:53 17:0.18867922 18:0.24528301 19:0.33962262 20:0.2264151 21:0.22448979 22:2.2 
-0.2010416013982259 1:1 2:2 3:17 4:23 5:0.5454545 6:1 7:3 8:0.13636363 9:0.3181818 10:0.22727275 11:0.3181818 12:60 13:0.090909094 14:3 15:0.5925926 16:81 17:0.17283952 18:0.22222221 19:0.3703704 20:0.23456788 21:0.090909094 22:0.83333331 24:0.090909094 
-1 1:1 2:1 3:6 4:22 5:0.45454544 6:1 7:2 8:0.3181818 9:0.13636363 10:0.3181818 11:0.22727275 12:12 13:0.095238097 14:3 15:0.5344827 16:58 17:0.2241379 18:0.20689654 19:0.32758623 20:0.24137932 21:0.11111111 22:1.3333334 23:0.043478262 24:0.16666667 
-0.4624588383960203 1:2 2:2 3:14 4:21 5:0.6666666 6:1 7:3 8:0.19047618 9:0.23809522 10:0.4285714 11:0.14285713 12:3 13:0.14285715 14:2 15:0.6388889 16:72 17:0.18055558 18:0.3472222 19:0.2916667 20:0.18055558 21:0.17647059 22:1 24:0.23076923 
-0.1276791752706047 4:22 5:0.3181818 6:1 7:3 8:0.3181818 9:0.13636363 10:0.18181819 11:0.36363637 12:48 13:0.27272728 14:4 15:0.32653064 16:49 17:0.22448981 18:0.16326529 19:0.16326529 20:0.44897962 21:0.15789473 22:0.2857143 23:0.17073171 
-0.1993008237718998 1:1 2:2 3:14 4:24 5:0.73913044 6:2 7:4 8:0.13043481 9:0.34782606 10:0.39130437 11:0.13043481 12:3 13:0.19148937 14:4 15:0.4883721 16:86 17:0.17441863 18:0.22093022 19:0.26744187 20:0.33720928 21:0.17333333 22:1 24:0.14285715 
-0.1850504811437412 1:2 2:3 3:17 4:27 5:0.5 6:4 7:4 8:0.2916667 9:0.25 10:0.25 11:0.20833331 12:65 13:0.29411766 14:2 15:0.56321836 16:87 17:0.22988504 18:0.2758621 19:0.28735632 20:0.20689654 21:0.25301206 22:1.8 24:0.1875 
-0.5910623049721754 1:2 2:4 3:26 4:18 5:0.6111111 6:4 7:3 8:0.16666669 9:0.3333333 10:0.2777778 11:0.22222221 12:2 13:0.37142858 14:4 15:0.56321836 16:87 17:0.22988504 18:0.2758621 19:0.28735632 20:0.20689654 21:0.25301206 22:0.625 24:0.16666667 
-0.1382294840434504 1:1 2:1 3:13 4:21 5:0.57142854 6:2 7:1 8:0.09523809 9:0.3333333 10:0.23809522 11:0.3333333 12:56 13:0.14285715 14:1 15:0.5131579 16:76 17:0.21052629 18:0.22368419 19:0.2894737 20:0.2763158 21:0.17647059 22:0.72727275 24:0.23076923 
-0.776009896082838 1:2 2:3 3:10 4:25 5:0.625 6:2 7:3 8:0.041666687 9:0.375 10:0.25 11:0.3333333 12:1 13:0.18367347 15:0.5972222 16:72 17:0.1388889 18:0.2638889 19:0.3333333 20:0.2638889 21:0.23529412 22:1 24:0.36842105 
-0.3223679014278604 3:1 4:22 5:0.5 6:1 7:4 8:0.22727275 9:0.18181819 10:0.3181818 11:0.27272725 12:4 13:0.14285715 14:4 15:0.48076922 16:52 17:0.23076922 18:0.23076922 19:0.25 20:0.28846157 21:0.13636364 22:1.1428572 
-1 3:2 4:22 5:0.36363637 6:1 7:2 8:0.27272725 9:0.13636363 10:0.22727275 11:0.36363637 12:41 13:0.090909094 14:3 15:0.37288135 16:59 17:0.2881356 18:0.16949153 19:0.20338982 20:0.33898306 21:0.083333336 22:1.125 
-1 4:22 5:0.40909094 6:1 7:2 8:0.3181818 9:0.18181819 10:0.22727275 11:0.27272725 12:6 13:0.090909094 14:3 15:0.38181818 16:55 17:0.2909091 18:0.18181819 19:0.19999999 20:0.3272727 21:0.090909094 22:0.66666669 
-0.5433584948069782 1:2 2:1 3:13 4:22 5:0.5909091 6:1 7:4 8:0.27272725 9:0.3181818 10:0.27272725 11:0.13636363 12:53 13:0.14285715 14:3 15:0.5416666 16:72 17:0.22222221 18:0.2361111 19:0.30555558 20:0.2361111 21:0.12121212 22:0.69999999 24:0.083333336 
-0.05554594855290991 4:26 5:0.6666666 6:3 7:3 8:0.20833331 9:0.3333333 10:0.3333333 11:0.125 12:49 13:0.23999999 14:3 15:0.5185185 16:54 17:0.2037037 18:0.24074072 19:0.2777778 20:0.2777778 21:0.23999999 22:0.69999999 23:0.25714287 
-0.9941840866986583 3:2 4:23 5:0.5909091 6:3 7:2 8:0.13636363 9:0.3181818 10:0.27272725 11:0.27272725 12:7 13:0.2 14:2 15:0.5471698 16:53 17:0.20754719 18:0.26415092 19:0.2830189 20:0.24528301 21:0.18367347 22:1.2857143 23:0.16666667 
-1 1:2 2:1 3:7 4:21 5:0.4285714 6:2 7:2 8:0.23809522 9:0.23809522 10:0.19047618 11:0.3333333 12:7 13:0.17948718 14:1 15:0.5 16:54 17:0.22222221 18:0.24074072 19:0.25925928 20:0.2777778 21:0.17647059 22:0.5714286 23:0.33333334 24:0.16666667 
-0.2833201298502047 4:22 5:0.71428573 6:2 7:4 8:0.19047618 9:0.38095236 10:0.3333333 11:0.09523809 12:23 13:0.19047619 14:4 15:0.6666666 16:45 17:0.22222221 18:0.3111111 19:0.35555553 20:0.1111111 21:0.19047619 22:1.375 23:0.17073171 
-0.1641837477557629 1:2 2:3 3:17 4:26 5:0.6521739 6:2 7:4 8:0.21739131 9:0.26086956 10:0.39130437 11:0.13043481 12:63 13:0.18367347 14:2 15:0.6547619 16:84 17:0.20238096 18:0.30952382 19:0.3452381 20:0.14285713 21:0.18518518 22:1.6 24:0.1875 
-0.9896592572385357 1:2 2:1 3:11 4:23 5:0.73913044 6:2 7:4 8:0.17391306 9:0.34782606 10:0.39130437 11:0.0869565 12:11 13:0.18181819 14:1 15:0.6865672 16:67 17:0.19402987 18:0.3134328 19:0.37313432 20:0.11940301 21:0.1875 22:0.54545456 23:0.15789473 24:0.2 
-0.3352515212973747 4:27 5:0.5416666 6:1 7:6 8:0.3333333 9:0.2916667 10:0.25 11:0.125 12:9 13:0.23999999 14:4 15:0.5098039 16:51 17:0.25490195 18:0.25490195 19:0.25490195 20:0.2352941 21:0.17391305 22:1.5 23:0.17647059 
-1 1:3 2:2 3:11 4:22 5:0.57142854 6:2 7:3 8:0.14285713 9:0.28571427 10:0.28571427 11:0.28571427 12:48 13:0.23809524 14:2 15:0.6515151 16:66 17:0.12121213 18:0.3333333 19:0.3181818 20:0.22727275 21:0.25806451 22:1.5714285 24:0.30000001 
-1 1:1 2:1 3:7 4:23 5:0.72727275 6:2 7:3 8:0.13636363 9:0.40909094 10:0.3181818 11:0.13636363 12:6 13:0.22727273 14:4 15:0.68333334 16:60 17:0.11666667 18:0.35000002 19:0.3333333 20:0.19999999 21:0.25 22:1.2222222 23:0.2 24:0.33333334 
-0.8172325625589608 3:6 4:26 5:0.4583333 6:4 7:2 8:0.375 9:0.16666669 10:0.2916667 11:0.16666669 12:47 13:0.2 14:4 15:0.5230769 16:65 17:0.2153846 18:0.2153846 19:0.3076923 20:0.26153845 21:0.2 22:3.5 24:0.2 
-0.6984730879332099 1:1 2:1 3:12 4:22 5:0.40909094 6:2 7:3 8:0.3181818 9:0.090909064 10:0.3181818 11:0.27272725 12:20 13:0.25581396 14:3 15:0.44285715 16:70 17:0.24285716 18:0.15714288 19:0.28571427 20:0.3142857 21:0.18181819 22:1.8 23:0.4375 24:0.043478262 
-0.5083232857455821 1:2 2:2 3:19 4:29 5:0.45454544 6:2 7:3 8:0.18181819 9:0.22727275 10:0.22727275 11:0.36363637 12:76 13:0.33333334 14:4 15:0.4673913 16:92 17:0.21739131 18:0.17391306 19:0.29347825 20:0.31521738 21:0.27272728 23:0.2 24:0.1891892 
-0.04660623276152164 1:1 2:1 3:13 4:22 5:0.5 6:1 7:3 8:0.04545456 9:0.04545456 10:0.45454544 11:0.45454544 12:59 13:0.2857143 14:2 15:0.5454545 16:77 17:0.16883117 18:0.25974023 19:0.28571427 20:0.28571427 21:0.20588236 22:0.42857143 24:0.07692308 
-0.1198914844037168 4:24 5:0.75 6:2 7:1 8:0.16666669 9:0.20833331 10:0.5416666 11:0.08333331 12:37 13:0.25 14:4 15:0.6862745 16:51 17:0.11764705 18:0.31372547 19:0.372549 20:0.19607842 21:0.1 
-0.08356051288818957 4:23 5:0.47826087 6:1 7:2 8:0.3043478 9:0.26086956 10:0.21739131 11:0.21739131 12:9 13:0.33333334 14:4 15:0.625 16:48 17:0.20833331 18:0.3125 19:0.3125 20:0.16666669 21:0.090909094 23:0.125 
-0.8057148648151562 4:24 5:0.5454545 6:2 7:4 8:0.3181818 9:0.36363637 10:0.18181819 11:0.13636363 12:48 13:0.15555556 14:4 15:0.5818182 16:55 17:0.21818179 18:0.34545457 19:0.23636365 20:0.19999999 21:0.15555556 22:0.63636363 23:0.12 
-0.9377931946039003 1:1 2:1 3:8 4:26 5:0.5833334 6:2 7:5 8:0.16666669 9:0.4583333 10:0.125 11:0.25 12:45 13:0.16666667 14:2 15:0.5441177 16:68 17:0.20588237 18:0.25 19:0.29411763 20:0.25 21:0.15625 22:0.8888889 24:0.125 
-0.8526065410082033 1:3 2:1 3:9 4:25 5:0.40909094 6:1 7:2 8:0.27272725 9:0.27272725 10:0.13636363 11:0.3181818 12:48 13:0.31914893 14:2 15:0.47761196 16:67 17:0.25373137 18:0.22388059 19:0.25373137 20:0.26865673 21:0.29032257 24:0.2 
-0.3455196763937312 1:1 2:4 3:17 4:20 5:0.85 6:2 7:2 8:0.050000012 9:0.45 10:0.39999998 11:0.10000002 12:3 13:0.2 14:3 15:0.72727275 16:77 17:0.077922106 18:0.27272725 19:0.45454544 20:0.1948052 21:0.19444445 22:0.91666669 24:0.1875 
-0.7859854680612499 4:23 5:0.6818182 6:1 7:2 8:0.13636363 9:0.36363637 10:0.3181818 11:0.18181819 12:26 13:0.11111111 14:3 15:0.64705884 16:51 17:0.1372549 18:0.2745098 19:0.372549 20:0.21568626 21:0.069767445 22:2 23:0.21568628 
-0.2847112207122846 4:22 5:0.5 6:4 7:3 8:0.22727275 9:0.27272725 10:0.22727275 11:0.27272725 12:32 13:0.45454547 15:0.5 16:44 17:0.15909094 18:0.22727275 19:0.27272725 20:0.34090906 21:0.36842105 22:0.375 23:0.125 
-0.1118715119658624 1:1 2:1 3:6 4:27 5:0.5217391 6:2 7:2 8:0.26086956 9:0.26086956 10:0.26086956 11:0.21739131 12:48 13:0.079999998 14:4 15:0.47692305 16:65 17:0.2153846 18:0.19999999 19:0.27692306 20:0.3076923 21:0.081967212 22:1.2222222 24:0.090909094 
-0.1919294930781677 3:3 4:21 5:0.57142854 6:2 7:1 8:0.047619045 9:0.28571427 10:0.28571427 11:0.38095236 12:15 13:0.07692308 14:4 15:0.5510204 16:49 17:0.18367344 18:0.24489796 19:0.30612242 20:0.26530612 21:0.06666667 22:1.5 23:0.090909094 
-0.1980914932528287 3:2 4:21 5:0.71428573 6:1 7:3 8:0.19047618 9:0.38095236 10:0.3333333 11:0.09523809 12:38 13:0.12195122 14:3 15:0.6111111 16:54 17:0.12962961 18:0.2962963 19:0.3148148 20:0.25925928 21:0.11111111 22:1 
-0.5000088974049197 1:1 2:1 3:10 4:21 5:0.57142854 6:2 7:3 8:0.19047618 9:0.3333333 10:0.23809522 11:0.23809522 12:66 13:0.2 14:3 15:0.5138889 16:72 17:0.22222221 18:0.20833331 19:0.30555558 20:0.2638889 21:0.16666667 22:1.2 23:0.53846157 24:0.1 
-0.2872855945452996 4:21 5:0.52380955 6:2 7:2 8:0.19047618 9:0.23809522 10:0.28571427 11:0.28571427 12:8 13:0.23809524 14:3 15:0.5555556 16:45 17:0.22222221 18:0.26666665 19:0.28888887 20:0.22222221 21:0.2 22:1.375 
-0.0930292041411887 3:1 4:21 5:0.39999998 6:3 7:3 8:0.3 9:0.25 10:0.14999998 11:0.3 12:38 13:0.2682927 14:4 15:0.42553192 16:47 17:0.27659577 18:0.23404253 19:0.19148934 20:0.29787236 21:0.25581396 22:0.40000001 23:0.23809524 
-0.1966716630519267 1:2 2:2 3:10 4:23 5:0.73913044 6:2 7:2 8:0.04347825 9:0.21739131 10:0.5217391 11:0.21739131 12:9 13:0.15555556 14:1 15:0.5797101 16:69 17:0.15942031 18:0.24637681 19:0.3333333 20:0.26086956 21:0.16129032 22:1 23:0.17647059 24:0.17647059 
-1 1:1 2:1 3:5 4:21 5:0.6666666 6:2 7:3 8:0.09523809 9:0.23809522 10:0.4285714 11:0.23809522 12:16 13:0.2 14:1 15:0.57142854 16:56 17:0.16071427 18:0.25 19:0.3214286 20:0.26785713 21:0.18367347 22:1.2 23:0.13333334 24:0.11111111 
-0.183339497493895 1:3 2:2 3:11 4:22 5:0.5454545 6:2 7:3 8:0.22727275 9:0.27272725 10:0.27272725 11:0.22727275 12:59 13:0.1627907 14:1 15:0.44 16:75 17:0.25333333 18:0.19999999 19:0.24000001 20:0.30666667 21:0.21875 22:0.69999999 23:0.33333334 24:0.33333334 
-0.9512707480147102 4:24 5:0.47826087 6:3 7:4 8:0.34782606 9:0.21739131 10:0.26086956 11:0.17391306 12:15 13:0.2173913 14:1 15:0.45614034 16:57 17:0.2631579 18:0.2280702 19:0.2280702 20:0.28070176 21:0.2173913 22:0.80000001 23:0.26666668 
-0.9935192547938007 3:5 4:22 5:0.6363636 6:1 7:2 8:0.22727275 9:0.3181818 10:0.3181818 11:0.13636363 12:5 13:0.31818181 14:2 15:0.5806452 16:62 17:0.12903225 18:0.2580645 19:0.32258064 20:0.2903226 21:0.25925925 22:1.6666666 
-0.3000063657245405 3:1 4:23 5:0.6363636 6:2 7:6 8:0.13636363 9:0.3181818 10:0.3181818 11:0.22727275 12:11 13:0.27272728 14:3 15:0.5192308 16:52 17:0.23076922 18:0.26923078 19:0.25 20:0.25 21:0.26086956 22:1.1666666 23:0.11111111 
-1 3:1 4:25 5:0.6956522 6:4 7:4 8:0.13043481 9:0.34782606 10:0.34782606 11:0.17391306 12:17 13:0.27659574 14:2 15:0.5925926 16:54 17:0.14814812 18:0.25925928 19:0.3333333 20:0.25925928 21:0.26530612 22:1.8 23:0.1875 
-0.1555301307917265 1:1 2:2 3:10 4:22 5:0.3181818 6:3 7:3 8:0.3181818 9:0.13636363 10:0.18181819 11:0.36363637 12:8 13:0.27272728 14:3 15:0.43478262 16:69 17:0.18840581 18:0.17391306 19:0.26086956 20:0.37681162 21:0.23809524 22:0.44444445 23:0.2 24:0.15789473 
-0.5049267342220783 1:1 2:3 3:19 4:25 5:0.5909091 6:2 7:3 8:0.13636363 9:0.22727275 10:0.36363637 11:0.27272725 12:16 13:0.31914893 14:4 15:0.49438202 16:89 17:0.2022472 18:0.23595506 19:0.25842696 20:0.30337077 21:0.24705882 23:0.26666668 24:0.15789473 
-0.5190032149324255 1:2 2:5 3:29 4:24 5:0.5909091 6:6 7:3 8:0.18181819 9:0.22727275 10:0.36363637 11:0.22727275 12:7 13:0.34782609 14:2 15:0.49532712 16:107 17:0.20560747 18:0.23364484 19:0.26168227 20:0.2990654 21:0.26213592 22:1 23:0.16666667 24:0.19298245 
-0.3161450187649486 1:3 2:3 3:22 4:26 5:0.6666666 6:2 7:3 8:0.20833331 9:0.3333333 10:0.3333333 11:0.125 12:4 13:0.27272728 14:3 15:0.57777774 16:90 17:0.16666669 18:0.22222221 19:0.35555553 20:0.25555557 21:0.26436782 24:0.25581396 
-0.5172210271181606 1:2 2:2 3:19 4:22 5:0.5 6:2 7:4 8:0.27272725 9:0.3181818 10:0.18181819 11:0.22727275 12:64 13:0.22727273 14:2 15:0.5294118 16:85 17:0.2117647 18:0.2588235 19:0.27058822 20:0.2588235 21:0.17948718 22:0.60000002 24:0.11764706 
-0.5681628123886518 3:4 4:22 5:0.5909091 6:2 7:2 8:0.13636363 9:0.27272725 10:0.3181818 11:0.27272725 12:22 13:0.35135135 14:4 15:0.57142854 16:49 17:0.20408165 18:0.28571427 19:0.28571427 20:0.22448981 21:0.2888889 23:0.23809524 
-0.4649293511229022 1:9 2:2 3:22 4:22 5:0.5909091 6:1 7:2 8:0.22727275 9:0.40909094 10:0.18181819 11:0.18181819 12:70 13:0.13636364 14:1 15:0.54651165 16:86 17:0.16279072 18:0.23255813 19:0.31395346 20:0.2906977 21:0.21518987 22:1.1428572 23:0.2 24:0.31428573 
-0.5031663228575689 3:2 4:22 5:0.3181818 6:9 7:3 8:0.3181818 9:0.13636363 10:0.18181819 11:0.36363637 12:50 13:0.37142858 14:2 15:0.47826087 16:46 17:0.19565219 18:0.21739131 19:0.26086956 20:0.32608694 21:0.33333334 22:1.1666666 23:0.12 
-1 3:11 4:21 5:0.61904764 6:1 7:4 8:0.23809522 9:0.3333333 10:0.28571427 11:0.14285713 12:45 13:0.31578946 14:4 15:0.60714287 16:56 17:0.26785713 18:0.35714287 19:0.25 20:0.125 21:0.38461539 23:0.11111111 24:0.5714286 
-0.8774281602850017 1:2 2:2 3:18 4:22 5:0.5 6:2 7:4 8:0.18181819 9:0.36363637 10:0.13636363 11:0.3181818 12:3 13:0.23809524 14:4 15:0.56790125 16:81 17:0.20987654 18:0.28395063 19:0.28395063 20:0.22222221 21:0.19480519 22:1.2 24:0.14285715 
-0.2158917013378273 4:22 5:0.5454545 6:5 7:2 8:0.18181819 9:0.27272725 10:0.27272725 11:0.27272725 12:13 13:0.44186047 14:3 15:0.4883721 16:43 17:0.23255813 18:0.27906978 19:0.2093023 20:0.27906978 21:0.38461539 22:1.6666666 23:0.043478262 
-1 1:6 2:4 3:32 4:23 5:0.5909091 6:2 7:4 8:0.090909064 9:0.22727275 10:0.36363637 11:0.3181818 12:83 13:0.22727273 14:1 15:0.58653843 16:104 17:0.16346157 18:0.28846157 19:0.29807693 20:0.25 21:0.25999999 22:1.1666666 24:0.2857143 
-0.5107279391884093 1:6 2:2 3:20 4:22 5:0.5454545 6:3 7:4 8:0.090909064 9:0.27272725 10:0.27272725 11:0.36363637 12:71 13:0.30232558 14:2 15:0.575 16:80 17:0.16250002 18:0.28750002 19:0.28750002 20:0.2625 21:0.2631579 22:0.36363637 23:0.2173913 24:0.21212122 
-1 3:1 4:25 5:0.5652174 6:2 7:3 8:0.13043481 9:0.3043478 10:0.26086956 11:0.3043478 12:44 13:0.125 14:1 15:0.5 16:60 17:0.26666665 18:0.26666665 19:0.23333335 20:0.23333335 21:0.12 22:1.4285715 
-0.02338810614463137 4:23 5:0.52380955 6:2 7:2 8:0.14285713 9:0.3333333 10:0.19047618 11:0.3333333 12:40 13:0.22727273 14:4 15:0.4791667 16:48 17:0.2708333 18:0.25 19:0.22916669 20:0.25 21:0.10526316 22:0.22222222 23:0.083333336 
-0.1787134278220978 4:24 5:0.4583333 6:1 7:4 8:0.2916667 9:0.2916667 10:0.16666669 11:0.25 12:13 13:0.24444444 14:4 15:0.5 16:46 17:0.26086956 18:0.23913044 19:0.26086956 20:0.23913044 21:0.12820514 22:5 23:0.083333336 
-0.5149331133874538 1:1 2:4 3:16 4:12 5:0.25 8:0.5 10:0.25 11:0.25 12:6 13:0.083333336 14:3 15:0.39999998 16:60 17:0.31666666 18:0.18333334 19:0.21666664 20:0.28333336 21:0.13207547 22:0.60000002 24:0.1724138 
-0.1755922400416152 3:9 4:23 5:0.45454544 6:3 7:2 8:0.18181819 10:0.45454544 11:0.36363637 12:5 13:0.18181819 14:3 15:0.49295777 16:71 17:0.21126759 18:0.22535211 19:0.26760566 20:0.29577464 21:0.14754099 22:1.25 24:0.05882353 
-1 3:7 4:22 5:0.5454545 6:1 7:2 8:0.18181819 9:0.18181819 10:0.36363637 11:0.27272725 12:10 13:0.090909094 14:3 15:0.49206346 16:63 17:0.26984125 18:0.2063492 19:0.28571427 20:0.23809522 21:0.13793103 22:0.77777779 23:0.15789473 24:0.2857143 
-1 1:1 2:1 3:5 4:22 5:0.5454545 6:2 7:2 8:0.3181818 9:0.36363637 10:0.18181819 11:0.13636363 12:45 13:0.18181819 14:3 15:0.62903225 16:62 17:0.22580647 18:0.33870965 19:0.2903226 20:0.14516127 21:0.1923077 22:1.4285715 24:0.25 
-0.8437468727727754 3:3 4:23 5:0.5652174 6:1 7:2 8:0.21739131 9:0.13043481 10:0.43478262 11:0.21739131 12:37 13:0.086956523 14:3 15:0.48214287 16:56 17:0.1785714 18:0.23214287 19:0.25 20:0.33928573 21:0.15384616 22:1.5714285 24:0.66666669 
