svm_type c_svc
kernel_type rbf
gamma 0.0416667
nr_class 2
total_sv 463
rho 0.433342
label 1 0
probA -3.44264
probB -0.777477
nr_sv 189 274
SV
1 1:1 2:1 3:7 4:23 5:0.6521739 6:1 7:2 8:0.0869565 9:0.47826087 10:0.17391306 11:0.26086956 12:53 13:0.090909094 14:3 15:0.6721312 16:61 17:0.09836066 18:0.32786888 19:0.3442623 20:0.22950822 21:0.14285715 22:0.80000001 23:0.2 24:0.33333334 
0.009931073068043391 3:4 4:23 5:0.39130437 6:2 7:2 8:0.17391306 9:0.21739131 10:0.17391306 11:0.43478262 12:4 13:0.15555556 14:4 15:0.42372882 16:59 17:0.23728812 18:0.16949153 19:0.2542373 20:0.33898306 21:0.24528302 22:0.25 24:0.75 
1 1:3 2:1 3:6 4:23 5:0.45454544 6:2 7:2 8:0.22727275 9:0.090909064 10:0.36363637 11:0.3181818 12:43 13:0.24444444 14:3 15:0.39682537 16:63 17:0.25396824 18:0.15873015 19:0.23809522 20:0.34920633 21:0.29824561 22:4.5 24:0.5 
1 3:1 4:22 5:0.6363636 6:4 7:2 8:0.13636363 9:0.40909094 10:0.22727275 11:0.22727275 12:7 13:0.27272728 14:3 15:0.6111111 16:54 17:0.2037037 18:0.3148148 19:0.2962963 20:0.1851852 21:0.26086956 22:0.8888889 
1 3:3 4:22 5:0.6363636 6:4 7:3 8:0.3181818 9:0.22727275 10:0.40909094 11:0.04545456 12:41 13:0.27272728 14:3 15:0.63793105 16:58 17:0.18965518 18:0.32758623 19:0.31034482 20:0.17241377 21:0.23999999 22:1.1111112 
1 3:5 4:21 5:0.57142854 6:2 7:3 8:0.3333333 9:0.047619045 10:0.52380955 11:0.09523809 12:17 13:0.2682927 14:2 15:0.5818182 16:55 17:0.23636365 18:0.34545457 19:0.23636365 20:0.18181819 21:0.31999999 22:2 23:0.22580644 24:0.55555558 
1 3:3 4:25 5:0.40909094 6:2 7:3 8:0.090909064 9:0.13636363 10:0.27272725 11:0.5 12:47 13:0.19148937 14:2 15:0.46551722 16:58 17:0.24137932 18:0.18965518 19:0.2758621 20:0.29310346 21:0.16981132 22:1 23:0.30000001 
1 3:5 4:22 5:0.47619045 6:2 7:2 8:0.19047618 9:0.28571427 10:0.19047618 11:0.3333333 12:21 13:0.11627907 14:2 15:0.5090909 16:55 17:0.23636365 18:0.25454545 19:0.25454545 20:0.25454545 21:0.1923077 22:1.125 23:0.31818181 24:0.55555558 
0.4750690445985873 1:3 2:1 3:7 4:22 5:0.5454545 6:2 7:1 8:0.27272725 9:0.3181818 10:0.22727275 11:0.18181819 12:56 13:0.1627907 14:2 15:0.52542377 16:59 17:0.220339 18:0.2711864 19:0.2542373 20:0.2542373 21:0.21428572 22:1 23:0.30000001 24:0.38461539 
1 1:2 2:1 3:5 4:22 5:0.57142854 6:2 7:3 8:0.14285713 9:0.23809522 10:0.3333333 11:0.28571427 12:5 13:0.20930232 14:2 15:0.5 16:58 17:0.2241379 18:0.24137932 19:0.25862068 20:0.2758621 21:0.24528302 22:1 23:0.25 24:0.40000001 
1 1:2 2:2 3:10 4:22 5:0.6363636 6:2 7:4 8:0.27272725 9:0.22727275 10:0.40909094 11:0.090909064 12:47 13:0.33333334 14:2 15:0.6060606 16:66 17:0.19696969 18:0.3333333 19:0.27272725 20:0.19696969 21:0.3442623 22:1 24:0.36842105 
1 4:22 5:0.5 6:2 7:3 8:0.19999999 9:0.3 10:0.19999999 11:0.3 12:14 13:0.14285715 14:2 15:0.46296299 16:54 17:0.22222221 18:0.24074072 19:0.22222221 20:0.3148148 21:0.14285715 22:1.125 23:0.18518518 
0.8149470384021213 3:6 4:22 5:0.45454544 6:3 7:2 8:0.27272725 9:0.18181819 10:0.27272725 11:0.27272725 12:18 13:0.1627907 14:3 15:0.45762712 16:59 17:0.23728812 18:0.20338982 19:0.2542373 20:0.30508476 21:0.16363636 22:1.5 23:0.27272728 24:0.16666667 
1 1:1 2:1 3:7 4:23 5:0.5909091 6:3 7:2 8:0.22727275 9:0.22727275 10:0.36363637 11:0.18181819 12:57 13:0.15555556 14:3 15:0.44444442 16:63 17:0.23809522 18:0.19047618 19:0.25396824 20:0.3174603 21:0.15254237 22:0.375 23:0.31034482 24:0.14285715 
1 3:3 4:26 5:0.5909091 6:3 7:5 8:0.13636363 9:0.27272725 10:0.3181818 11:0.27272725 12:9 13:0.20833333 14:1 15:0.5862069 16:58 17:0.13793105 18:0.24137932 19:0.3448276 20:0.2758621 21:0.18518518 22:2.3333333 23:0.06666667 
1 1:3 2:2 3:13 4:22 5:0.71428573 6:1 7:4 8:0.14285713 9:0.23809522 10:0.47619045 11:0.14285713 12:51 13:0.1627907 14:2 15:0.6231884 16:69 17:0.13043481 18:0.26086956 19:0.3623188 20:0.24637681 21:0.16923077 22:1 24:0.18181819 
0.6726970406381555 3:3 4:23 5:0.5217391 6:1 7:2 8:0.0869565 9:0.26086956 10:0.26086956 11:0.39130437 12:60 13:0.090909094 14:1 15:0.5 16:62 17:0.22580647 18:0.2580645 19:0.24193549 20:0.27419353 21:0.079999998 22:1.2857143 23:0.34999999 
1 1:1 2:1 3:5 4:23 5:0.6086956 6:2 7:3 8:0.17391306 9:0.21739131 10:0.39130437 11:0.21739131 12:5 13:0.2 14:1 15:0.5263158 16:57 17:0.21052629 18:0.2280702 19:0.2982456 20:0.2631579 21:0.18518518 22:0.5 24:0.11111111 
1 1:1 2:1 3:7 4:22 5:0.57142854 6:2 7:4 8:0.23809522 9:0.28571427 10:0.28571427 11:0.19047618 12:42 13:0.20930232 14:3 15:0.5084746 16:59 17:0.220339 18:0.220339 19:0.2881356 20:0.2711864 21:0.17857143 22:1.4285715 24:0.07692308 
1 1:1 2:1 3:7 4:23 5:0.6666666 6:2 7:4 8:0.23809522 9:0.4285714 10:0.23809522 11:0.09523809 12:52 13:0.18181819 14:4 15:0.56666666 16:60 17:0.19999999 18:0.26666665 19:0.3 20:0.23333335 21:0.15789473 22:0.625 23:0.15384616 24:0.07692308 
1 1:3 2:1 3:9 4:21 5:0.61904764 6:2 7:1 8:0.09523809 9:0.57142854 10:0.047619045 11:0.28571427 12:54 13:0.14285715 14:4 15:0.60317457 16:63 17:0.17460316 18:0.25396824 19:0.34920633 20:0.22222221 21:0.20689656 22:1.25 23:0.13043478 24:0.375 
1 1:3 2:2 3:10 4:23 5:0.72727275 6:2 7:6 8:0.13636363 9:0.45454544 10:0.27272725 11:0.13636363 12:47 13:0.2888889 14:3 15:0.7384615 16:65 17:0.09230769 18:0.39999998 19:0.33846152 20:0.16923076 21:0.29032257 22:1.3333334 24:0.29411766 
1 1:3 2:1 3:11 4:21 5:0.61904764 6:2 7:3 8:0.19047618 9:0.23809522 10:0.38095236 11:0.19047618 12:54 13:0.2682927 14:1 15:0.6 16:65 17:0.19999999 18:0.27692306 19:0.3230769 20:0.19999999 21:0.23333333 22:0.80000001 23:0.11111111 24:0.15789473 
1 1:1 2:1 3:6 4:23 5:0.5 6:1 7:3 8:0.13636363 9:0.27272725 10:0.22727275 11:0.36363637 12:42 13:0.11111111 14:2 15:0.5833334 16:60 17:0.19999999 18:0.3 19:0.28333336 20:0.21666664 21:0.12280702 22:0.63636363 24:0.16666667 
1 4:24 5:0.5416666 6:2 7:5 8:0.16666669 9:0.375 10:0.16666669 11:0.2916667 12:9 13:0.2173913 14:2 15:0.5272727 16:55 17:0.14545453 18:0.25454545 19:0.27272725 20:0.3272727 21:0.2173913 22:0.77777779 23:0.16666667 
1 1:1 2:1 3:5 4:23 5:0.5 6:1 7:4 8:0.090909064 9:0.13636363 10:0.36363637 11:0.40909094 12:46 13:0.2 14:4 15:0.5555556 16:63 17:0.12698412 18:0.26984125 19:0.28571427 20:0.3174603 21:0.22222222 22:0.875 24:0.33333334 
0.8409786229640674 3:1 4:24 5:0.45454544 6:2 7:2 8:0.22727275 9:0.18181819 10:0.27272725 11:0.3181818 12:14 13:0.2173913 14:4 15:0.4918033 16:61 17:0.19672132 18:0.27868855 19:0.21311474 20:0.3114754 21:0.20833333 22:1.25 23:0.375 
1 3:3 4:23 5:0.45454544 6:2 7:4 8:0.3181818 9:0.27272725 10:0.18181819 11:0.22727275 12:6 13:0.2 14:4 15:0.4153846 16:65 17:0.26153845 18:0.19999999 19:0.2153846 20:0.3230769 21:0.17647059 22:1 23:0.40000001 
1 3:2 4:23 5:0.47826087 6:2 7:4 8:0.0869565 9:0.17391306 10:0.3043478 11:0.43478262 12:47 13:0.2 14:2 15:0.4285714 16:63 17:0.25396824 18:0.2063492 19:0.22222221 20:0.3174603 21:0.18367347 22:0.875 23:0.33333334 
0.6892412121027309 3:2 4:24 5:0.4583333 6:2 7:3 8:0.16666669 9:0.08333331 10:0.375 11:0.375 12:20 13:0.24444444 14:1 15:0.4166667 16:60 17:0.25 18:0.23333335 19:0.18333334 20:0.3333333 21:0.22448979 22:0.42857143 23:0.2820513 
1 1:2 2:1 3:9 4:22 5:0.61904764 6:2 7:4 8:0.047619045 9:0.52380955 10:0.09523809 11:0.3333333 12:50 13:0.20930232 14:2 15:0.61764705 16:68 17:0.14705884 18:0.2647059 19:0.35294116 20:0.2352941 21:0.2 22:0.77777779 24:0.17647059 
1 3:8 4:23 5:0.5454545 6:1 7:4 8:0.27272725 9:0.18181819 10:0.36363637 11:0.18181819 12:54 13:0.1627907 14:3 15:0.515625 16:64 17:0.28125 18:0.234375 19:0.28125 20:0.203125 21:0.13793103 22:0.71428573 23:0.047619049 24:0.06666667 
1 1:2 2:1 3:9 4:22 5:0.5454545 6:2 7:3 8:0.04545456 9:0.40909094 10:0.13636363 11:0.40909094 12:6 13:0.17073171 14:1 15:0.5 16:60 17:0.21666664 18:0.28333336 19:0.21666664 20:0.28333336 21:0.19298245 22:0.66666669 23:0.2 24:0.25 
1 1:2 2:1 3:8 4:25 5:0.5 6:2 7:3 8:0.45454544 9:0.18181819 10:0.3181818 11:0.04545456 12:46 13:0.23404256 14:1 15:0.5 16:64 17:0.21875 18:0.265625 19:0.234375 20:0.28125 21:0.21311475 22:1.1666666 24:0.14285715 
0.7133876582538614 3:2 4:22 5:0.5454545 6:2 7:4 8:0.22727275 9:0.18181819 10:0.36363637 11:0.22727275 12:19 13:0.25581396 14:3 15:0.5 16:56 17:0.23214287 18:0.21428573 19:0.28571427 20:0.26785713 21:0.23404256 22:0.5714286 23:0.13333334 
1 1:1 2:1 3:8 4:22 5:0.45454544 6:2 7:3 8:0.3181818 9:0.18181819 10:0.27272725 11:0.22727275 12:15 13:0.20930232 14:4 15:0.44444442 16:63 17:0.22222221 18:0.17460316 19:0.26984125 20:0.3333333 21:0.20689656 22:1.125 23:0.2857143 24:0.2 
1 1:1 2:1 3:9 4:23 5:0.5 6:2 7:4 8:0.18181819 9:0.27272725 10:0.22727275 11:0.3181818 12:58 13:0.2 14:4 15:0.46268654 16:67 17:0.20895523 18:0.19402987 19:0.26865673 20:0.32835823 21:0.22580644 22:1.4285715 23:0.25 24:0.29411766 
1 4:26 5:0.73913044 6:2 7:3 8:0.0869565 9:0.39130437 10:0.34782606 11:0.17391306 12:14 13:0.14285715 14:1 15:0.7307692 16:52 17:0.11538464 18:0.40384614 19:0.32692307 20:0.15384614 21:0.14285715 22:0.875 23:0.30769232 
1 1:1 2:1 3:6 4:19 5:0.7368421 6:2 7:2 8:0.15789473 9:0.31578946 10:0.42105263 11:0.10526317 12:46 13:0.085714288 14:3 15:0.74 16:50 17:0.10000002 18:0.39999998 19:0.33999997 20:0.16000003 21:0.10638298 22:1.2 23:0.35714287 24:0.16666667 
0.3254595017727205 4:22 5:0.6363636 6:1 7:3 8:0.18181819 9:0.5 10:0.13636363 11:0.18181819 12:22 13:0.13636364 14:4 15:0.625 16:56 17:0.1785714 18:0.3214286 19:0.3035714 20:0.1964286 21:0.13636364 22:1.1111112 23:0.14285715 
1 1:2 2:1 3:10 4:23 5:0.45454544 6:1 7:1 8:0.36363637 9:0.18181819 10:0.27272725 11:0.18181819 12:6 13:0.022222223 14:2 15:0.5230769 16:65 17:0.19999999 18:0.23076922 19:0.29230767 20:0.27692306 21:0.081967212 22:0.8888889 24:0.25 
1 1:2 2:2 3:12 4:22 5:0.45454544 6:1 7:1 8:0.13636363 9:0.22727275 10:0.22727275 11:0.40909094 12:50 13:0.023255814 14:3 15:0.53731346 16:67 17:0.19402987 18:0.23880595 19:0.29850745 20:0.26865673 21:0.079365082 22:1.125 24:0.2 
1 1:1 2:1 3:7 4:24 5:0.5652174 6:1 7:3 8:0.13043481 9:0.34782606 10:0.21739131 11:0.3043478 12:54 13:0.13636364 14:2 15:0.609375 16:64 17:0.15625 18:0.328125 19:0.28125 20:0.234375 21:0.15789473 22:0.85714287 23:0.13043478 24:0.23076923 
0.2665495634279724 1:2 2:1 3:5 4:25 5:0.5454545 6:2 7:3 8:0.18181819 9:0.18181819 10:0.36363637 11:0.27272725 12:2 13:0.24444444 14:2 15:0.62068963 16:58 17:0.18965518 18:0.31034482 19:0.31034482 20:0.18965518 21:0.25925925 22:0.30000001 24:0.33333334 
1 3:5 4:22 5:0.5454545 6:1 7:1 8:0.40909094 9:0.13636363 10:0.40909094 11:0.04545456 12:7 13:0.045454547 14:4 15:0.4736842 16:57 17:0.2631579 18:0.19298244 19:0.28070176 20:0.2631579 21:0.16981132 22:1.1111112 24:0.77777779 
1 1:4 2:1 3:7 4:25 5:0.48000002 6:1 7:1 8:0.07999998 9:0.27999997 10:0.19999999 11:0.44 12:44 13:0.039999999 14:3 15:0.49253732 16:67 17:0.25373137 18:0.20895523 19:0.2835821 20:0.25373137 21:0.14285715 22:0.90909094 24:0.53846157 
1 1:1 2:2 3:13 4:24 5:0.8 6:3 7:4 8:0.10000002 9:0.3 10:0.5 11:0.10000002 12:2 13:0.18181819 14:4 15:0.6438356 16:73 17:0.15068495 18:0.260274 19:0.38356167 20:0.20547944 21:0.14705883 22:1.3333334 24:0.083333336 
1 3:2 4:24 5:0.4583333 6:3 7:3 8:0.20833331 9:0.25 10:0.20833331 11:0.3333333 12:4 13:0.11627907 14:2 15:0.5283019 16:53 17:0.20754719 18:0.24528301 19:0.2830189 20:0.26415092 21:0.10638298 22:1.4 
1 3:2 4:28 5:0.5217391 6:3 7:3 8:0.26086956 9:0.3043478 10:0.21739131 11:0.21739131 12:38 13:0.12 14:3 15:0.56666666 16:60 17:0.19999999 18:0.26666665 19:0.3 20:0.23333335 21:0.11111111 22:0.55555558 
1 1:1 2:2 3:7 4:22 5:0.5 6:3 7:2 8:0.18181819 9:0.3181818 10:0.18181819 11:0.3181818 12:48 13:0.25581396 14:2 15:0.5409836 16:61 17:0.19672132 18:0.22950822 19:0.3114754 20:0.26229507 21:0.25 22:2 24:0.23076923 
0.9539084446704026 3:4 4:25 5:0.6363636 6:3 7:5 8:0.090909064 9:0.22727275 10:0.40909094 11:0.27272725 12:3 13:0.22727273 14:3 15:0.6507937 16:63 17:0.12698412 18:0.30158728 19:0.34920633 20:0.22222221 21:0.1923077 22:0.25 
1 1:1 2:1 3:5 4:23 5:0.34782606 6:2 7:4 8:0.3043478 9:0.13043481 10:0.21739131 11:0.34782606 12:43 13:0.2 14:2 15:0.4915254 16:59 17:0.2542373 18:0.220339 19:0.2711864 20:0.2542373 21:0.18518518 22:1.1666666 24:0.11111111 
1 3:4 4:23 5:0.7826087 6:2 7:3 8:0.17391306 9:0.34782606 10:0.43478262 11:0.04347825 12:4 13:0.13636364 14:2 15:0.78947365 16:57 17:0.12280703 18:0.35087717 19:0.4385965 20:0.08771932 21:0.21568628 22:0.8888889 23:0.14285715 24:0.71428573 
0.9208056213237548 1:1 2:1 3:7 4:22 5:0.5454545 6:3 7:2 8:0.27272725 9:0.13636363 10:0.40909094 11:0.18181819 12:1 13:0.12820514 14:1 15:0.5087719 16:57 17:0.2280702 18:0.2280702 19:0.28070176 20:0.2631579 21:0.13207547 22:4.5 24:0.14285715 
1 1:2 2:1 3:9 4:28 5:0.6363636 6:6 7:2 8:0.22727275 9:0.40909094 10:0.22727275 11:0.13636363 12:1 13:0.2 15:0.6056338 16:71 17:0.1690141 18:0.28169012 19:0.32394367 20:0.22535211 21:0.20588236 22:3 24:0.22222222 
1 1:2 2:1 3:9 4:21 5:0.57142854 6:6 7:2 8:0.19047618 9:0.19047618 10:0.38095236 11:0.23809522 12:44 13:0.27777779 14:2 15:0.5964912 16:57 17:0.17543858 18:0.28070176 19:0.31578946 20:0.2280702 21:0.25925925 22:0.60000002 24:0.22222222 
1 3:5 4:20 5:0.55 6:1 7:2 8:0.10000002 9:0.25 10:0.3 11:0.35000002 12:10 13:0.07692308 14:1 15:0.46666664 16:60 17:0.23333335 18:0.21666664 19:0.25 20:0.3 21:0.06122449 22:1 23:0.25 
1 3:5 4:21 5:0.55 6:1 7:2 8:0.3 9:0.19999999 10:0.35000002 11:0.14999998 12:51 13:0.073170729 14:4 15:0.4516129 16:62 17:0.24193549 18:0.2096774 19:0.24193549 20:0.30645162 21:0.05882353 22:1 23:0.2857143 
1 1:1 2:1 3:7 4:23 5:0.40909094 6:2 7:2 8:0.22727275 9:0.090909064 10:0.3181818 11:0.36363637 12:41 13:0.25581396 14:3 15:0.4745763 16:59 17:0.20338982 18:0.23728812 19:0.23728812 20:0.32203388 21:0.25 24:0.23076923 
1 1:2 2:1 3:5 4:22 5:0.5454545 6:2 7:3 8:0.22727275 9:0.3181818 10:0.22727275 11:0.22727275 12:4 13:0.18181819 14:1 15:0.559322 16:59 17:0.20338982 18:0.30508476 19:0.2542373 20:0.23728812 21:0.20754717 22:1.2857143 24:0.33333334 
1 1:1 2:1 3:7 4:23 5:0.6818182 6:3 7:5 8:0.27272725 9:0.45454544 10:0.22727275 11:0.04545456 12:2 13:0.31707317 14:1 15:0.6166667 16:60 17:0.21666664 18:0.35000002 19:0.26666665 20:0.16666669 21:0.27272728 22:1 24:0.14285715 
1 1:1 2:1 3:4 4:24 5:0.40909094 6:2 7:3 8:0.22727275 9:0.22727275 10:0.18181819 11:0.36363637 12:41 13:0.2 14:4 15:0.44067794 16:59 17:0.23728812 18:0.20338982 19:0.23728812 20:0.32203388 21:0.20754717 22:2 24:0.25 
1 3:4 4:24 5:0.72727275 6:1 7:4 8:0.18181819 9:0.45454544 10:0.27272725 11:0.090909064 12:8 13:0.22727273 14:2 15:0.6721312 16:61 17:0.14754099 18:0.32786888 19:0.3442623 20:0.18032789 21:0.1923077 22:3.6666667 23:0.14285715 
0.4894959640249768 3:6 4:24 5:0.6666666 6:1 7:4 8:0.20833331 9:0.2916667 10:0.375 11:0.125 12:47 13:0.2 14:2 15:0.671875 16:64 17:0.140625 18:0.328125 19:0.34375 20:0.1875 21:0.2 22:1 23:0.090909094 24:0.2 
0.5382740977976594 3:2 4:23 5:0.43478262 6:2 7:3 8:0.17391306 9:0.17391306 10:0.26086956 11:0.39130437 12:48 13:0.17391305 14:3 15:0.39344263 16:61 17:0.26229507 18:0.18032789 19:0.21311474 20:0.3442623 21:0.16 22:2.25 23:0.22222222 
1 4:24 5:0.4166667 6:1 7:2 8:0.2916667 9:0.20833331 10:0.20833331 11:0.2916667 12:6 13:0.16666667 14:4 15:0.4423077 16:52 17:0.28846157 18:0.19230771 19:0.25 20:0.26923078 21:0.16666667 22:0.83333331 
1 1:1 2:1 3:5 4:20 5:0.45 6:2 7:2 8:0.25 9:0.14999998 10:0.3 11:0.3 12:39 13:0.15000001 14:1 15:0.4259259 16:54 17:0.2962963 18:0.1851852 19:0.24074072 20:0.2777778 21:0.16 22:2.25 24:0.2 
1 1:2 2:1 3:8 4:22 5:0.40909094 6:1 7:2 8:0.18181819 9:0.04545456 10:0.36363637 11:0.40909094 12:40 13:0.14285715 14:3 15:0.42622954 16:61 17:0.26229507 18:0.22950822 19:0.19672132 20:0.3114754 21:0.14285715 22:2.25 24:0.14285715 
1 3:2 4:24 5:0.47826087 6:2 7:4 8:0.3043478 9:0.21739131 10:0.26086956 11:0.21739131 12:43 13:0.2173913 14:2 15:0.5409836 16:61 17:0.21311474 18:0.24590164 19:0.29508197 20:0.24590164 21:0.2 22:1.6 23:0.25 
1 1:3 2:1 3:7 4:21 5:0.57142854 6:1 7:2 8:0.28571427 9:0.23809522 10:0.3333333 11:0.14285713 12:43 13:0.095238097 14:4 15:0.48333335 16:60 17:0.21666664 18:0.25 19:0.23333335 20:0.3 21:0.16363636 22:0.63636363 24:0.38461539 
0.8525733324736752 4:23 5:0.6818182 6:2 7:3 8:0.18181819 9:0.27272725 10:0.40909094 11:0.13636363 12:6 13:0.24444444 14:3 15:0.66071427 16:56 17:0.14285713 18:0.26785713 19:0.39285713 20:0.1964286 21:0.24444444 22:1 
1 3:5 4:21 5:0.8095238 6:2 7:2 8:0.047619045 9:0.47619045 10:0.3333333 11:0.14285713 12:44 13:0.21951219 14:1 15:0.6935484 16:62 17:0.12903225 18:0.2903226 19:0.40322578 20:0.17741936 21:0.21568628 22:0.66666669 24:0.2 
1 1:1 2:1 3:5 4:23 5:0.5217391 6:2 7:3 8:0.3043478 9:0.0869565 10:0.43478262 11:0.17391306 12:5 13:0.15555556 14:3 15:0.49206346 16:63 17:0.22222221 18:0.2063492 19:0.28571427 20:0.28571427 21:0.16363636 22:0.90909094 23:0.25 24:0.2 
1 1:1 2:1 3:7 4:23 5:0.5454545 6:2 7:3 8:0.13636363 9:0.3181818 10:0.22727275 11:0.3181818 12:48 13:0.2 14:3 15:0.47761196 16:67 17:0.23880595 18:0.19402987 19:0.2835821 20:0.2835821 21:0.18644068 22:1.4285715 24:0.14285715 
1 1:1 2:1 3:8 4:21 5:0.6666666 6:1 7:2 8:0.09523809 9:0.38095236 10:0.28571427 11:0.23809522 12:4 13:0.21951219 14:3 15:0.73333335 16:60 17:0.11666667 18:0.28333336 19:0.45 20:0.14999998 21:0.2 22:3.6666667 24:0.14285715 
1 1:1 2:1 3:9 4:21 5:0.85 6:1 7:2 8:0.050000012 9:0.19999999 10:0.65 11:0.10000002 12:45 13:0.17073171 14:1 15:0.7258065 16:62 17:0.11290324 18:0.27419353 19:0.4516129 20:0.16129035 21:0.19298245 22:0.60000002 24:0.25 
1 1:3 2:1 3:6 4:22 5:0.6363636 6:1 7:3 8:0.13636363 9:0.40909094 10:0.22727275 11:0.22727275 12:5 13:0.11627907 14:2 15:0.6666666 16:57 17:0.12280703 18:0.35087717 19:0.31578946 20:0.21052629 21:0.16981132 22:1 23:0.25 24:0.40000001 
1 1:3 2:1 3:8 4:22 5:0.57142854 6:3 7:3 8:0.09523809 9:0.28571427 10:0.28571427 11:0.3333333 12:47 13:0.20930232 14:4 15:0.5409836 16:61 17:0.18032789 18:0.27868855 19:0.26229507 20:0.27868855 21:0.24137931 22:0.54545456 23:0.11111111 24:0.33333334 
1 3:1 4:24 5:0.45454544 6:2 7:3 8:0.090909064 9:0.3181818 10:0.13636363 11:0.45454544 12:3 13:0.13043478 14:1 15:0.4310345 16:58 17:0.2241379 18:0.18965518 19:0.24137932 20:0.3448276 21:0.125 22:0.80000001 
1 3:3 4:24 5:0.3333333 6:2 7:3 8:0.5 9:0.041666687 10:0.2916667 11:0.16666669 12:39 13:0.2173913 14:3 15:0.41935486 16:62 17:0.2580645 18:0.19354838 19:0.22580647 20:0.32258064 21:0.1923077 22:2.5 
1 3:1 4:25 5:0.6666666 6:2 7:4 8:0.08333331 9:0.375 10:0.2916667 11:0.25 12:6 13:0.18367347 14:1 15:0.63793105 16:58 17:0.15517241 18:0.29310346 19:0.3448276 20:0.20689654 21:0.17647059 22:0.8888889 
1 3:4 4:24 5:0.625 6:2 7:3 8:0.20833331 9:0.2916667 10:0.3333333 11:0.16666669 12:42 13:0.14893617 14:2 15:0.62903225 16:62 17:0.16129035 18:0.2903226 19:0.33870965 20:0.2096774 21:0.16363636 22:0.72727275 24:0.25 
1 3:3 4:24 5:0.5 6:3 7:4 8:0.3181818 9:0.27272725 10:0.22727275 11:0.18181819 12:7 13:0.26086956 14:3 15:0.4310345 16:58 17:0.29310346 18:0.2241379 19:0.20689654 20:0.2758621 21:0.23076923 22:5 23:0.16666667 
1 3:7 4:22 5:0.45454544 6:2 7:3 8:0.3181818 9:0.18181819 10:0.27272725 11:0.22727275 12:45 13:0.22727273 14:3 15:0.43548387 16:62 17:0.2903226 18:0.22580647 19:0.2096774 20:0.27419353 21:0.25 22:1.2857143 24:0.33333334 
1 3:2 4:22 5:0.5909091 6:2 7:3 8:0.090909064 9:0.22727275 10:0.36363637 11:0.3181818 12:6 13:0.18181819 14:2 15:0.57142854 16:56 17:0.14285713 18:0.23214287 19:0.33928573 20:0.28571427 21:0.20833333 22:1.25 23:0.11111111 24:0.5 
1 1:1 2:1 3:5 4:23 5:0.6818182 6:2 7:3 8:0.13636363 9:0.45454544 10:0.22727275 11:0.18181819 12:44 13:0.13636364 14:2 15:0.671875 16:64 17:0.1875 18:0.390625 19:0.28125 20:0.140625 21:0.13207547 22:0.90909094 24:0.11111111 
1 1:1 2:2 3:9 4:22 5:0.5 6:1 7:2 8:0.3181818 9:0.13636363 10:0.36363637 11:0.18181819 12:9 13:0.069767445 14:1 15:0.546875 16:64 17:0.203125 18:0.203125 19:0.34375 20:0.25 21:0.1 22:0.69999999 23:0.05882353 24:0.17647059 
1 1:1 2:2 3:11 4:23 5:0.5 6:1 7:3 8:0.13636363 9:0.3181818 10:0.18181819 11:0.36363637 12:54 13:0.090909094 14:2 15:0.5362319 16:69 17:0.20289856 18:0.18840581 19:0.34782606 20:0.26086956 21:0.10769231 22:1.6666666 24:0.14285715 
1 1:2 2:1 3:7 4:21 5:0.61904764 6:1 7:3 8:0.19047618 9:0.3333333 10:0.28571427 11:0.19047618 12:10 13:0.19047619 14:1 15:0.6034483 16:58 17:0.18965518 18:0.3448276 19:0.25862068 20:0.20689654 21:0.18518518 22:1.4285715 23:0.11111111 24:0.16666667 
1 1:2 2:1 3:7 4:21 5:0.61904764 6:1 7:3 8:0.14285713 9:0.38095236 10:0.23809522 11:0.23809522 12:47 13:0.19047619 14:1 15:0.6034483 16:58 17:0.18965518 18:0.3448276 19:0.25862068 20:0.20689654 21:0.18518518 22:0.69999999 23:0.11111111 24:0.16666667 
1 4:22 5:0.5 6:1 7:3 8:0.13636363 9:0.3181818 10:0.18181819 11:0.36363637 12:18 13:0.13636364 14:4 15:0.39999998 16:55 17:0.19999999 18:0.19999999 19:0.19999999 20:0.39999998 21:0.13636364 22:1.2222222 23:0.2 
1 3:2 4:23 5:0.43478262 6:1 7:4 8:0.26086956 9:0.17391306 10:0.26086956 11:0.3043478 12:53 13:0.17391305 14:2 15:0.42622954 16:61 17:0.18032789 18:0.18032789 19:0.24590164 20:0.39344263 21:0.16 22:1.2857143 23:0.1724138 
0.5177738106212948 1:1 2:1 3:7 4:24 5:0.5 6:2 7:2 8:0.2916667 9:0.25 10:0.25 11:0.20833331 12:15 13:0.15555556 14:1 15:0.55737704 16:61 17:0.22950822 18:0.27868855 19:0.27868855 20:0.21311474 21:0.19298245 22:0.5 23:0.35714287 24:0.33333334 
0.9995410308032207 1:2 2:2 3:9 4:20 5:0.6666666 6:2 7:2 8:0.055555582 9:0.3333333 10:0.3333333 11:0.2777778 12:57 13:0.10526316 14:2 15:0.56896555 16:58 17:0.20689654 18:0.2758621 19:0.29310346 20:0.2241379 21:0.14814815 22:1 23:0.41935483 24:0.25 
1 3:2 4:21 5:0.4285714 6:3 7:2 8:0.38095236 9:0.23809522 10:0.19047618 11:0.19047618 12:12 13:0.23809524 14:4 15:0.4814815 16:54 17:0.25925928 18:0.22222221 19:0.25925928 20:0.25925928 21:0.2173913 22:1.1428572 23:0.090909094 
0.3492994784644094 3:3 4:22 5:0.5 6:3 7:2 8:0.090909064 9:0.22727275 10:0.27272725 11:0.40909094 12:46 13:0.27272728 14:2 15:0.44827586 16:58 17:0.25862068 18:0.20689654 19:0.24137932 20:0.29310346 21:0.23999999 22:1.4 
1 1:1 2:1 3:5 4:24 5:0.6363636 6:2 7:4 8:0.04545456 9:0.27272725 10:0.36363637 11:0.3181818 12:7 13:0.2173913 14:3 15:0.6 16:60 17:0.11666667 18:0.25 19:0.35000002 20:0.28333336 21:0.25 22:1.6666666 23:0.16666667 24:0.40000001 
0.7800860703395519 1:2 2:2 3:8 4:24 5:0.6666666 6:2 7:3 8:0.20833331 9:0.25 10:0.4166667 11:0.125 12:46 13:0.19148937 14:3 15:0.5909091 16:66 17:0.13636363 18:0.25757575 19:0.3333333 20:0.27272725 21:0.25806451 22:1 24:0.46666667 
1 3:2 4:23 5:0.5909091 6:1 7:3 8:0.18181819 9:0.22727275 10:0.36363637 11:0.22727275 12:51 13:0.2 14:2 15:0.4918033 16:61 17:0.21311474 18:0.21311474 19:0.27868855 20:0.29508197 21:0.18367347 22:1.75 23:0.2173913 
1 1:1 2:1 3:5 4:23 5:0.40909094 6:1 7:3 8:0.13636363 9:0.27272725 10:0.13636363 11:0.45454544 12:39 13:0.20930232 14:3 15:0.43333334 16:60 17:0.21666664 18:0.19999999 19:0.23333335 20:0.35000002 21:0.1923077 22:3.5 24:0.11111111 
0.670525211817936 4:22 5:0.40909094 6:1 7:2 8:0.3181818 9:0.18181819 10:0.22727275 11:0.27272725 12:6 13:0.090909094 14:3 15:0.38181818 16:55 17:0.2909091 18:0.18181819 19:0.19999999 20:0.3272727 21:0.090909094 22:0.66666669 
1 3:2 4:22 5:0.36363637 6:1 7:2 8:0.27272725 9:0.13636363 10:0.22727275 11:0.36363637 12:41 13:0.090909094 14:3 15:0.37288135 16:59 17:0.2881356 18:0.16949153 19:0.20338982 20:0.33898306 21:0.083333336 22:1.125 
0.6767642151721519 3:5 4:24 5:0.5909091 6:1 7:3 8:0.090909064 9:0.22727275 10:0.36363637 11:0.3181818 12:9 13:0.13043478 14:4 15:0.5333333 16:60 17:0.23333335 18:0.23333335 19:0.3 20:0.23333335 21:0.14814815 22:0.80000001 24:0.25 
1 1:2 2:1 3:7 4:23 5:0.5652174 6:1 7:4 8:0.26086956 9:0.3043478 10:0.26086956 11:0.17391306 12:47 13:0.13636364 14:2 15:0.53225803 16:62 17:0.22580647 18:0.22580647 19:0.30645162 20:0.24193549 21:0.14285715 22:1.4285715 24:0.16666667 
1 1:1 2:1 3:9 4:22 5:0.5909091 6:1 7:2 8:0.18181819 9:0.3181818 10:0.27272725 11:0.22727275 12:44 13:0.18181819 14:4 15:0.5692308 16:65 17:0.18461537 18:0.27692306 19:0.29230767 20:0.24615383 21:0.18032786 22:0.625 24:0.17647059 
1 1:2 2:1 3:6 4:23 5:0.43478262 6:2 7:2 8:0.21739131 9:0.26086956 10:0.17391306 11:0.34782606 12:6 13:0.20930232 14:2 15:0.48214287 16:56 17:0.23214287 18:0.23214287 19:0.25 20:0.28571427 21:0.20754717 22:0.2857143 23:0.2 24:0.2 
0.1447765742205754 1:2 2:1 3:7 4:24 5:0.47619045 6:4 7:3 8:0.28571427 9:0.23809522 10:0.23809522 11:0.23809522 12:43 13:0.24444444 14:2 15:0.5 16:60 17:0.21666664 18:0.25 19:0.25 20:0.28333336 21:0.22807017 22:2.3333333 24:0.16666667 
1 1:2 2:4 3:21 4:21 5:0.6666666 6:2 7:3 8:0.14285713 9:0.38095236 10:0.28571427 11:0.19047618 12:3 13:0.17948718 14:4 15:0.67073166 16:82 17:0.19512194 18:0.31707317 19:0.35365856 20:0.13414633 21:0.18987341 22:0.60000002 24:0.2 
1 1:2 2:1 3:7 4:23 5:0.6086956 6:1 7:4 8:0.21739131 9:0.21739131 10:0.39130437 11:0.17391306 12:53 13:0.15555556 14:2 15:0.6557377 16:61 17:0.21311474 18:0.29508197 19:0.36065573 20:0.13114756 21:0.1724138 22:1 23:0.2 24:0.23076923 
1 3:4 4:25 5:0.4583333 6:1 7:5 8:0.20833331 9:0.20833331 10:0.25 11:0.3333333 12:40 13:0.24444444 14:3 15:0.48275864 16:58 17:0.29310346 18:0.24137932 19:0.24137932 20:0.2241379 21:0.20754717 22:1.6 
0.977928295826712 3:2 4:26 5:0.43478262 6:3 7:4 8:0.34782606 9:0.13043481 10:0.3043478 11:0.21739131 12:3 13:0.19148937 14:2 15:0.5 16:62 17:0.2580645 18:0.2903226 19:0.2096774 20:0.24193549 21:0.17647059 22:0.33333334 
1 1:2 2:2 3:9 4:21 5:0.6666666 6:1 7:4 8:0.14285713 9:0.28571427 10:0.38095236 11:0.19047618 12:45 13:0.15000001 14:1 15:0.6885246 16:61 17:0.081967235 18:0.32786888 19:0.36065573 20:0.22950822 21:0.22807017 22:0.72727275 24:0.41176471 
1 1:3 2:2 3:9 4:22 5:0.6666666 6:2 7:3 8:0.19047618 9:0.38095236 10:0.28571427 11:0.14285713 12:5 13:0.19047619 14:2 15:0.6612903 16:62 17:0.12903225 18:0.33870965 19:0.32258064 20:0.2096774 21:0.24137931 22:0.90909094 23:0.25 24:0.375 
1 1:3 2:2 3:11 4:23 5:0.5909091 6:2 7:4 8:0.13636363 9:0.3181818 10:0.27272725 11:0.27272725 12:48 13:0.22727273 14:2 15:0.66176474 16:68 17:0.11764705 18:0.33823532 19:0.32352942 20:0.2205882 21:0.25 22:1.375 24:0.30000001 
1 3:7 4:24 5:0.4583333 6:1 7:1 8:0.16666669 9:0.25 10:0.20833331 11:0.375 12:7 13:0.17391305 14:4 15:0.52380955 16:63 17:0.22222221 18:0.22222221 19:0.30158728 20:0.25396824 21:0.20689656 24:0.33333334 
1 1:1 2:1 3:6 4:22 5:0.45454544 6:2 7:3 8:0.3181818 9:0.13636363 10:0.3181818 11:0.22727275 12:26 13:0.20930232 14:4 15:0.46551722 16:58 17:0.24137932 18:0.15517241 19:0.31034482 20:0.29310346 21:0.18518518 22:0.69999999 23:0.36363637 24:0.090909094 
0.8585013643543584 1:1 2:1 3:7 4:23 5:0.5 6:2 7:4 8:0.18181819 9:0.27272725 10:0.22727275 11:0.3181818 12:64 13:0.24444444 14:4 15:0.4677419 16:62 17:0.22580647 18:0.16129035 19:0.30645162 20:0.30645162 21:0.20689656 22:2 23:0.34999999 24:0.07692308 
0.9007266884160734 3:3 4:22 5:0.5 6:3 7:3 9:0.090909064 10:0.40909094 11:0.5 12:49 13:0.25581396 14:2 15:0.55172414 16:58 17:0.15517241 18:0.29310346 19:0.25862068 20:0.29310346 21:0.22448979 22:1 23:0.12 
1 4:24 5:0.625 6:2 7:1 8:0.08333331 9:0.4166667 10:0.20833331 11:0.2916667 12:7 13:0.125 14:4 15:0.6140351 16:57 17:0.15789473 18:0.28070176 19:0.3333333 20:0.2280702 21:0.086956523 22:0.8888889 
1 3:2 4:24 5:0.625 6:2 7:1 8:0.2916667 9:0.16666669 10:0.4583333 11:0.08333331 12:43 13:0.083333336 14:3 15:0.61904764 16:63 17:0.15873015 18:0.28571427 19:0.3333333 20:0.22222221 21:0.07692308 22:1.1 
1 3:6 4:22 5:0.5 6:2 7:2 8:0.40909094 9:0.13636363 10:0.36363637 11:0.090909064 12:3 13:0.13636364 14:2 15:0.37288135 16:59 17:0.2881356 18:0.16949153 19:0.20338982 20:0.33898306 21:0.12727273 22:0.89999998 24:0.090909094 
0.2937514480380117 4:23 5:0.6086956 6:1 7:3 8:0.17391306 9:0.26086956 10:0.34782606 11:0.21739131 12:3 13:0.11111111 14:2 15:0.6333333 16:60 17:0.19999999 18:0.3 19:0.3333333 20:0.16666669 21:0.11111111 22:0.80000001 
1 3:1 4:23 5:0.6818182 6:1 7:3 8:0.18181819 9:0.36363637 10:0.3181818 11:0.13636363 12:42 13:0.11111111 14:1 15:0.6451613 16:62 17:0.19354838 18:0.30645162 19:0.33870965 20:0.16129035 21:0.10638298 22:1.2222222 
1 1:1 2:1 3:5 4:27 5:0.5909091 6:3 7:4 8:0.27272725 9:0.36363637 10:0.22727275 11:0.13636363 12:53 13:0.16666667 14:2 15:0.63235295 16:68 17:0.17647058 18:0.35294116 19:0.2794118 20:0.19117647 21:0.1724138 22:1.1666666 24:0.2 
1 3:3 4:25 5:0.5 6:2 7:3 8:0.16666669 9:0.125 10:0.375 11:0.3333333 12:6 13:0.14893617 14:2 15:0.4736842 16:57 17:0.24561405 18:0.2280702 19:0.24561405 20:0.28070176 21:0.16981132 22:0.55555558 23:0.090909094 24:0.33333334 
1 1:1 2:1 3:5 4:24 5:0.5 6:2 7:4 8:0.22727275 9:0.36363637 10:0.13636363 11:0.27272725 12:42 13:0.15555556 14:4 15:0.4915254 16:59 17:0.23728812 18:0.23728812 19:0.2542373 20:0.2711864 21:0.16363636 22:1.6666666 23:0.11111111 24:0.2 
1 3:3 4:25 5:0.5 6:2 7:3 8:0.08333331 9:0.25 10:0.25 11:0.4166667 12:4 13:0.125 14:1 15:0.530303 16:66 17:0.18181819 18:0.22727275 19:0.3030303 20:0.2878788 21:0.11111111 22:0.89999998 
0.9963691252635536 3:4 4:22 5:0.52380955 6:2 7:3 8:0.38095236 9:0.19047618 10:0.3333333 11:0.09523809 12:47 13:0.14285715 14:2 15:0.516129 16:62 17:0.19354838 18:0.22580647 19:0.2903226 20:0.2903226 21:0.12 22:1.125 
0.4420617694227797 1:3 2:1 3:8 4:22 5:0.5909091 6:1 7:2 8:0.13636363 9:0.22727275 10:0.36363637 11:0.27272725 12:7 13:0.17073171 14:4 15:0.4915254 16:59 17:0.2711864 18:0.20338982 19:0.2881356 20:0.23728812 21:0.18518518 22:0.18181819 24:0.23076923 
1 1:1 2:1 3:6 4:21 5:0.65 6:2 7:3 8:0.10000002 9:0.14999998 10:0.5 11:0.25 12:50 13:0.15000001 14:4 15:0.64912283 16:57 17:0.10526317 18:0.21052629 19:0.4385965 20:0.24561405 21:0.1923077 22:1 23:0.16666667 24:0.33333334 
0.5606967553623772 3:5 4:22 5:0.45454544 6:2 7:2 8:0.36363637 9:0.13636363 10:0.3181818 11:0.18181819 12:3 13:0.14285715 14:1 15:0.4745763 16:59 17:0.2542373 18:0.220339 19:0.2542373 20:0.2711864 21:0.16 22:1.125 24:0.25 
1 1:1 2:1 3:5 4:22 5:0.5454545 6:1 7:2 8:0.22727275 9:0.27272725 10:0.27272725 11:0.22727275 12:51 13:0.1627907 14:2 15:0.40677965 16:59 17:0.33898306 18:0.220339 19:0.1864407 20:0.2542373 21:0.16981132 22:0.5 23:0.25925925 24:0.2 
0.2644674717122747 3:4 4:22 5:0.6363636 6:2 7:2 9:0.18181819 10:0.45454544 11:0.36363637 12:3 13:0.27272728 14:3 15:0.56896555 16:58 17:0.13793105 18:0.24137932 19:0.32758623 20:0.29310346 21:0.30769232 22:1.6 24:0.5 
1 3:6 4:22 5:0.77272725 6:2 7:3 8:0.18181819 9:0.36363637 10:0.40909094 11:0.04545456 12:41 13:0.20930232 14:4 15:0.59016395 16:61 17:0.13114756 18:0.26229507 19:0.32786888 20:0.27868855 21:0.30909091 22:1.8333334 24:0.66666669 
1 1:1 2:1 3:7 4:25 5:0.57142854 6:2 7:2 8:0.23809522 9:0.28571427 10:0.28571427 11:0.19047618 12:49 13:0.086956523 14:4 15:0.49206346 16:63 17:0.2063492 18:0.2063492 19:0.28571427 20:0.30158728 21:0.084745765 22:1.2222222 24:0.07692308 
1 3:2 4:22 5:0.47619045 6:1 7:3 8:0.09523809 9:0.14285713 10:0.3333333 11:0.4285714 12:4 13:0.11627907 14:4 15:0.58928573 16:56 17:0.14285713 18:0.28571427 19:0.3035714 20:0.26785713 21:0.10638298 22:1 
1 4:22 5:0.4285714 6:2 7:2 8:0.19047618 9:0.14285713 10:0.28571427 11:0.38095236 12:23 13:0.11627907 14:2 15:0.45454544 16:55 17:0.27272725 18:0.19999999 19:0.25454545 20:0.27272725 21:0.11627907 22:1.1111112 23:0.44186047 
0.9703632773179774 3:2 4:22 5:0.5454545 6:2 7:2 8:0.27272725 9:0.40909094 10:0.13636363 11:0.18181819 12:58 13:0.11627907 14:4 15:0.4745763 16:59 17:0.2542373 18:0.20338982 19:0.2711864 20:0.2711864 21:0.10638298 22:1.1 23:0.48717949 
1 3:4 4:21 5:0.52380955 6:2 7:2 8:0.3333333 9:0.19047618 10:0.3333333 11:0.14285713 12:37 13:0.19047619 14:4 15:0.5090909 16:55 17:0.23636365 18:0.23636365 19:0.27272725 20:0.25454545 21:0.16 22:0.625 
1 3:6 4:20 5:0.5 6:2 7:2 8:0.25 9:0.3 10:0.19999999 11:0.25 12:7 13:0.2 14:3 15:0.39999998 16:55 17:0.27272725 18:0.21818179 19:0.18181819 20:0.3272727 21:0.25490198 22:0.69999999 23:0.23076923 24:0.45454547 
1 1:3 2:1 3:8 4:22 5:0.40909094 6:2 7:4 8:0.27272725 9:0.18181819 10:0.22727275 11:0.3181818 12:44 13:0.25581396 14:3 15:0.41935486 16:62 17:0.2580645 18:0.2096774 19:0.2096774 20:0.32258064 21:0.27586207 22:2 24:0.33333334 
1 1:1 2:1 3:5 4:23 5:0.57142854 6:2 7:3 8:0.28571427 9:0.3333333 10:0.23809522 11:0.14285713 12:53 13:0.18181819 14:4 15:0.56666666 16:60 17:0.16666669 18:0.25 19:0.31666666 20:0.26666665 21:0.16981132 22:0.45454547 23:0.15384616 24:0.11111111 
1 3:3 4:24 5:0.47826087 6:3 7:4 8:0.21739131 9:0.26086956 10:0.21739131 11:0.3043478 12:52 13:0.30434781 14:2 15:0.44444442 16:63 17:0.25396824 18:0.2063492 19:0.23809522 20:0.30158728 21:0.26923078 22:0.5 23:0.16666667 
0.367929890588958 1:1 2:2 3:5 4:23 5:0.6363636 6:4 7:4 8:0.18181819 9:0.3181818 10:0.3181818 11:0.18181819 12:15 13:0.27272728 14:3 15:0.56896555 16:58 17:0.17241377 18:0.25862068 19:0.31034482 20:0.25862068 21:0.28301886 22:0.80000001 23:0.14285715 24:0.33333334 
1 1:1 2:2 3:6 4:24 5:0.5652174 6:4 7:4 8:0.21739131 9:0.21739131 10:0.34782606 11:0.21739131 12:52 13:0.30434781 14:3 15:0.5483871 16:62 17:0.19354838 18:0.24193549 19:0.30645162 20:0.2580645 21:0.29824561 22:2.25 23:0.083333336 24:0.27272728 
1 3:2 4:22 5:0.36363637 6:3 7:2 8:0.3181818 9:0.13636363 10:0.22727275 11:0.3181818 12:16 13:0.20930232 14:3 15:0.4528302 16:53 17:0.16981131 18:0.18867922 19:0.26415092 20:0.3773585 21:0.23404256 22:0.80000001 23:0.22580644 24:0.5 
1 1:1 2:1 3:4 4:23 5:0.45454544 6:3 7:3 8:0.13636363 9:0.22727275 10:0.22727275 11:0.40909094 12:50 13:0.2 14:2 15:0.44067794 16:59 17:0.1864407 18:0.1864407 19:0.2542373 20:0.37288135 21:0.20754717 22:1.2857143 23:0.28 24:0.25 
1 1:1 2:1 3:4 4:23 5:0.40909094 6:1 7:3 8:0.27272725 9:0.3181818 10:0.090909064 11:0.3181818 12:31 13:0.15555556 14:2 15:0.4385965 16:57 17:0.21052629 18:0.21052629 19:0.2280702 20:0.35087717 21:0.16981132 22:0.55555558 23:0.32258064 24:0.25 
1 1:1 2:1 3:6 4:22 5:0.5 6:1 7:3 8:0.13636363 9:0.18181819 10:0.3181818 11:0.36363637 12:67 13:0.20930232 14:2 15:0.45762712 16:59 17:0.20338982 18:0.23728812 19:0.220339 20:0.33898306 21:0.2 22:2 23:0.30000001 24:0.16666667 
0.858224451324842 3:11 4:22 5:0.5454545 6:2 7:4 8:0.18181819 9:0.22727275 10:0.3181818 11:0.27272725 12:15 13:0.22727273 14:3 15:0.52380955 16:63 17:0.23809522 18:0.25396824 19:0.26984125 20:0.23809522 21:0.28813559 22:0.69999999 23:0.21428572 24:0.46666667 
1 3:14 4:22 5:0.8181818 6:1 7:3 8:0.090909064 9:0.22727275 10:0.5909091 11:0.090909064 12:14 13:0.13636364 14:3 15:0.6 16:70 17:0.15714288 18:0.27142859 19:0.32857144 20:0.24285716 21:0.23809524 22:0.8888889 23:0.15384616 24:0.47368422 
1 1:9 2:1 3:16 4:22 5:0.6363636 6:1 7:3 8:0.18181819 9:0.45454544 10:0.18181819 11:0.18181819 12:64 13:0.13636364 14:2 15:0.5810811 16:74 17:0.16216218 18:0.25675678 19:0.3243243 20:0.25675678 21:0.2238806 22:1.5 23:0.18181819 24:0.39130434 
1 1:12 2:1 3:17 4:21 5:0.57142854 6:1 7:5 8:0.28571427 9:0.23809522 10:0.3333333 11:0.14285713 12:51 13:0.23809524 14:2 15:0.61764705 16:68 17:0.25 18:0.36764705 19:0.25 20:0.13235295 21:0.34375 22:0.77777779 24:0.54545456 
1 1:1 2:1 3:3 4:22 5:0.6363636 6:1 7:3 8:0.22727275 9:0.45454544 10:0.18181819 11:0.13636363 12:7 13:0.13636364 14:1 15:0.5925926 16:54 17:0.24074072 18:0.3333333 19:0.25925928 20:0.16666669 21:0.16 22:1 23:0.16666667 24:0.33333334 
1 1:1 2:1 3:5 4:22 5:0.5454545 6:1 7:3 8:0.22727275 9:0.22727275 10:0.3181818 11:0.22727275 12:41 13:0.18181819 14:2 15:0.56896555 16:58 17:0.25862068 18:0.32758623 19:0.24137932 20:0.17241377 21:0.18518518 22:1.2857143 24:0.2 
1 1:5 2:1 3:8 4:23 5:0.5909091 6:3 7:2 8:0.13636363 9:0.22727275 10:0.36363637 11:0.27272725 12:3 13:0.15555556 14:4 15:0.484375 16:64 17:0.234375 18:0.25 19:0.234375 20:0.28125 21:0.26666668 22:2.6666667 24:0.60000002 
1 3:7 4:22 5:0.36363637 6:3 7:1 8:0.40909094 9:0.22727275 10:0.13636363 11:0.22727275 12:43 13:0.1627907 14:4 15:0.46666664 16:60 17:0.25 18:0.25 19:0.21666664 20:0.28333336 21:0.2857143 22:0.71428573 24:0.69230771 
1 1:6 2:3 3:29 4:22 5:0.5909091 6:1 7:3 8:0.3181818 9:0.36363637 10:0.22727275 11:0.090909064 12:4 13:0.1627907 14:4 15:0.58762884 16:97 17:0.16494846 18:0.2886598 19:0.2989691 20:0.2474227 21:0.24731183 22:0.8888889 23:0.33333334 24:0.31999999 
1 1:6 2:4 3:31 4:23 5:0.5909091 6:2 7:4 8:0.04545456 9:0.22727275 10:0.36363637 11:0.36363637 12:82 13:0.2 14:4 15:0.592233 16:103 17:0.15533978 18:0.29126215 19:0.30097085 20:0.25242716 21:0.25252524 22:1.5 24:0.2962963 
1 4:23 5:0.5652174 6:2 7:2 8:0.26086956 9:0.21739131 10:0.34782606 11:0.17391306 12:10 13:0.13636364 14:3 15:0.5185185 16:54 17:0.25925928 18:0.2777778 19:0.24074072 20:0.22222221 21:0.13636364 22:0.89999998 
1 3:2 4:23 5:0.57142854 6:2 7:3 8:0.14285713 9:0.3333333 10:0.23809522 11:0.28571427 12:45 13:0.13636364 14:4 15:0.51724136 16:58 17:0.25862068 18:0.2758621 19:0.24137932 20:0.2241379 21:0.125 22:1 
1 1:1 2:1 3:8 4:24 5:0.6363636 6:1 7:4 8:0.04545456 9:0.3181818 10:0.3181818 11:0.3181818 12:5 13:0.18181819 14:3 15:0.625 16:64 17:0.203125 18:0.296875 19:0.328125 20:0.171875 21:0.15254237 22:2 23:0.27272728 24:0.06666667 
1 1:1 2:1 3:10 4:24 5:0.6666666 6:1 7:4 8:0.2916667 9:0.2916667 10:0.375 11:0.041666687 12:47 13:0.18181819 14:3 15:0.6212121 16:66 17:0.21212119 18:0.2878788 19:0.3333333 20:0.16666669 21:0.18032786 22:2 23:0.11111111 24:0.17647059 
0.1383183155008167 1:1 2:1 3:5 4:24 5:0.5454545 6:2 7:3 8:0.27272725 9:0.18181819 10:0.36363637 11:0.18181819 12:43 13:0.17391305 14:1 15:0.5737705 16:61 17:0.21311474 18:0.29508197 19:0.27868855 20:0.21311474 21:0.16363636 22:0.63636363 24:0.11111111 
1 3:4 4:24 5:0.4583333 6:1 7:3 8:0.3333333 9:0.2916667 10:0.16666669 11:0.20833331 12:6 13:0.13043478 14:3 15:0.39999998 16:60 17:0.31666666 18:0.18333334 19:0.21666664 20:0.28333336 21:0.13207547 22:0.66666669 24:0.14285715 
1 1:1 2:4 3:18 4:12 5:0.16666669 6:1 7:1 8:0.3333333 9:0.08333331 10:0.08333331 11:0.5 12:56 13:0.083333336 14:3 15:0.421875 16:64 17:0.296875 18:0.1875 19:0.234375 20:0.28125 21:0.12280702 22:1.2857143 24:0.15151516 
0.9586869124511314 4:24 5:0.47826087 6:2 7:2 8:0.17391306 9:0.0869565 10:0.39130437 11:0.34782606 12:13 13:0.15555556 14:4 15:0.4727273 16:55 17:0.23636365 18:0.21818179 19:0.25454545 20:0.2909091 21:0.15555556 22:0.44444445 23:0.090909094 
0.1940243347902231 3:2 4:24 5:0.5 6:3 7:3 8:0.22727275 9:0.36363637 10:0.13636363 11:0.27272725 12:48 13:0.2 14:4 15:0.4745763 16:59 17:0.220339 18:0.220339 19:0.2542373 20:0.30508476 21:0.18367347 22:3.3333333 
0.751812304734368 3:5 4:22 5:0.5454545 6:1 7:1 8:0.27272725 9:0.22727275 10:0.3181818 11:0.18181819 12:49 13:0.18181819 14:2 15:0.4745763 16:59 17:0.2881356 18:0.20338982 19:0.2711864 20:0.23728812 21:0.14814815 22:0.625 23:0.13043478 
1 3:2 4:22 5:0.72727275 6:2 7:3 8:0.090909064 9:0.27272725 10:0.45454544 11:0.18181819 12:8 13:0.1627907 14:1 15:0.67857146 16:56 17:0.1964286 18:0.375 19:0.3035714 20:0.125 21:0.17391305 22:0.625 23:0.14285715 24:0.33333334 
1 1:1 2:1 3:5 4:20 5:0.6 6:2 7:2 8:0.25 9:0.39999998 10:0.19999999 11:0.14999998 12:45 13:0.15000001 14:3 15:0.6551724 16:58 17:0.20689654 18:0.36206895 19:0.29310346 20:0.13793105 21:0.16666667 22:2 23:0.16666667 24:0.25 
1 3:3 4:23 5:0.47826087 6:1 7:2 8:0.13043481 9:0.34782606 10:0.13043481 11:0.39130437 12:4 13:0.086956523 15:0.48214287 16:56 17:0.1785714 18:0.23214287 19:0.25 20:0.33928573 21:0.15384616 22:0.63636363 24:0.66666669 
1 3:4 4:25 5:0.5909091 6:2 7:3 8:0.18181819 9:0.13636363 10:0.45454544 11:0.22727275 12:39 13:0.26086956 14:2 15:0.64406776 16:59 17:0.16949153 18:0.30508476 19:0.33898306 20:0.1864407 21:0.22222222 
1 3:3 4:26 5:0.5652174 6:3 7:4 8:0.17391306 9:0.3043478 10:0.26086956 11:0.26086956 12:4 13:0.22448979 14:1 15:0.55 16:60 17:0.19999999 18:0.3 19:0.25 20:0.25 21:0.2 22:1.6666666 
1 1:3 2:1 3:9 4:22 5:0.5909091 6:2 7:3 8:0.22727275 9:0.27272725 10:0.3181818 11:0.18181819 12:44 13:0.20930232 14:2 15:0.53125 16:64 17:0.21875 18:0.296875 19:0.234375 20:0.25 21:0.22033899 22:1.2857143 24:0.25 
1 3:3 4:23 5:0.5217391 6:2 7:1 8:0.21739131 9:0.17391306 10:0.34782606 11:0.26086956 12:10 13:0.1627907 14:3 15:0.51666665 16:60 17:0.21666664 18:0.26666665 19:0.25 20:0.26666665 21:0.14285715 22:3 23:0.22222222 
1 3:6 4:21 5:0.57142854 6:2 7:1 8:0.14285713 9:0.3333333 10:0.23809522 11:0.28571427 12:50 13:0.14285715 14:4 15:0.53225803 16:62 17:0.2096774 18:0.2580645 19:0.27419353 20:0.2580645 21:0.17647059 22:1.5714285 23:0.125 24:0.33333334 
1 1:5 2:1 3:18 4:24 5:0.5454545 6:3 7:2 8:0.18181819 9:0.13636363 10:0.40909094 11:0.27272725 12:6 13:0.17391305 14:3 15:0.6375 16:80 17:0.125 18:0.28750002 19:0.35000002 20:0.23750001 21:0.18421052 22:1 23:0.40000001 24:0.2 
1 1:5 2:2 3:20 4:23 5:0.6521739 6:3 7:2 8:0.17391306 9:0.34782606 10:0.3043478 11:0.17391306 12:64 13:0.22727273 14:3 15:0.63414633 16:82 17:0.12195122 18:0.28048778 19:0.35365856 20:0.24390244 21:0.20512821 22:1.6666666 23:0.25 24:0.17647059 
0.6374611651963845 1:2 2:1 3:6 4:23 5:0.45454544 6:2 7:3 8:0.3181818 9:0.13636363 10:0.3181818 11:0.22727275 12:42 13:0.15555556 14:2 15:0.44262296 16:61 17:0.21311474 18:0.19672132 19:0.24590164 20:0.3442623 21:0.16363636 22:1.125 24:0.2 
0.5771807707559747 1:1 2:2 3:8 4:23 5:0.5652174 6:4 7:2 8:0.26086956 9:0.26086956 10:0.3043478 11:0.17391306 12:6 13:0.19047619 14:2 15:0.5409836 16:61 17:0.24590164 18:0.24590164 19:0.29508197 20:0.21311474 21:0.19298245 22:0.90909094 23:0.55555558 24:0.2 
1 1:1 2:2 3:8 4:26 5:0.52380955 6:4 7:2 8:0.28571427 9:0.23809522 10:0.28571427 11:0.19047618 12:48 13:0.27659574 14:2 15:0.530303 16:66 17:0.25757575 18:0.25757575 19:0.27272725 20:0.21212119 21:0.25806451 22:5.5 24:0.2 
1 3:2 4:22 5:0.40909094 6:1 7:3 8:0.3181818 9:0.090909064 10:0.3181818 11:0.27272725 12:48 13:0.19047619 14:2 15:0.375 16:56 17:0.3214286 18:0.1785714 19:0.1964286 20:0.3035714 21:0.17391305 22:1.3333334 23:0.1724138 
0.6035842187984123 3:3 4:22 5:0.5909091 6:1 7:3 8:0.22727275 9:0.36363637 10:0.22727275 11:0.18181819 12:49 13:0.20930232 14:2 15:0.47540987 16:61 17:0.24590164 18:0.21311474 19:0.26229507 20:0.27868855 21:0.18367347 22:2 
1 3:1 4:23 5:0.5909091 6:2 7:3 8:0.27272725 9:0.40909094 10:0.18181819 11:0.13636363 12:6 13:0.18181819 14:3 15:0.59615386 16:52 17:0.15384614 18:0.26923078 19:0.32692307 20:0.25 21:0.17391305 22:0.69999999 23:0.2 
1 3:2 4:23 5:0.5 6:2 7:3 8:0.090909064 9:0.090909064 10:0.40909094 11:0.40909094 12:37 13:0.22727273 14:3 15:0.5925926 16:54 17:0.14814812 18:0.25925928 19:0.3333333 20:0.25925928 21:0.20833333 22:1.8 
1 1:2 2:2 3:23 4:20 5:0.57894737 6:2 7:4 8:0.21052629 9:0.31578946 10:0.2631579 11:0.21052629 12:6 13:0.33333334 14:2 15:0.5 16:94 17:0.20212764 18:0.24468082 19:0.25531918 20:0.29787236 21:0.21428572 22:0.85714287 23:0.25 24:0.11111111 
0.0675733797886669 1:1 2:1 3:6 4:24 5:0.45454544 6:3 7:4 8:0.18181819 9:0.22727275 10:0.22727275 11:0.36363637 12:46 13:0.2173913 14:3 15:0.44444442 16:63 17:0.2063492 18:0.2063492 19:0.23809522 20:0.34920633 21:0.19298245 22:0.2 23:0.25 24:0.090909094 
1 1:1 2:2 3:11 4:22 5:0.6363636 6:1 7:5 8:0.22727275 9:0.18181819 10:0.45454544 11:0.13636363 12:8 13:0.22727273 14:2 15:0.5857143 16:70 17:0.1857143 18:0.25714284 19:0.32857144 20:0.22857141 21:0.1875 22:1.375 24:0.1 
-1 3:3 4:22 5:0.45454544 6:1 7:1 8:0.18181819 9:0.27272725 10:0.18181819 11:0.36363637 12:6 13:0.18181819 14:1 15:0.4464286 16:56 17:0.23214287 18:0.1785714 19:0.26785713 20:0.3214286 21:0.23999999 22:1 24:0.66666669 
-1 1:2 2:1 3:8 4:21 5:0.61904764 6:2 7:3 8:0.28571427 9:0.3333333 10:0.28571427 11:0.09523809 12:44 13:0.2682927 14:1 15:0.53225803 16:62 17:0.2096774 18:0.27419353 19:0.2580645 20:0.2580645 21:0.2631579 22:1 24:0.25 
-0.0576601765031427 1:1 2:1 3:6 4:21 5:0.61904764 6:2 7:3 8:0.14285713 9:0.23809522 10:0.38095236 11:0.23809522 12:6 13:0.17073171 14:1 15:0.5272727 16:55 17:0.19999999 18:0.23636365 19:0.2909091 20:0.27272725 21:0.15384616 22:0.80000001 23:0.2 24:0.090909094 
-1 1:2 2:1 3:9 4:25 5:0.5 6:2 7:4 8:0.40909094 9:0.18181819 10:0.3181818 11:0.090909064 12:47 13:0.19148937 14:2 15:0.5 16:66 17:0.21212119 18:0.25757575 19:0.24242425 20:0.2878788 21:0.20634921 22:1.5 24:0.25 
-1 3:3 4:22 5:0.45454544 6:2 7:3 8:0.27272725 9:0.18181819 10:0.27272725 11:0.27272725 12:50 13:0.20930232 14:2 15:0.39999998 16:60 17:0.3 18:0.16666669 19:0.23333335 20:0.3 21:0.18367347 22:1.1666666 23:0.090909094 
-1 1:2 2:1 3:7 4:22 5:0.6818182 6:2 7:3 8:0.18181819 9:0.3181818 10:0.36363637 11:0.13636363 12:43 13:0.20930232 14:4 15:0.5483871 16:62 17:0.2096774 18:0.30645162 19:0.24193549 20:0.24193549 21:0.21428572 22:1.5 24:0.23076923 
-0.1993587089194616 1:3 2:1 3:10 4:22 5:0.6818182 6:1 7:4 8:0.22727275 9:0.22727275 10:0.45454544 11:0.090909064 12:51 13:0.17073171 14:2 15:0.6911765 16:68 17:0.13235295 18:0.33823532 19:0.35294116 20:0.17647058 21:0.18644068 22:1 23:0.14285715 24:0.22222222 
-0.1533823913379259 3:1 4:25 5:0.6666666 6:2 7:4 8:0.08333331 9:0.375 10:0.2916667 11:0.25 12:6 13:0.18367347 14:1 15:0.63793105 16:58 17:0.15517241 18:0.29310346 19:0.3448276 20:0.20689654 21:0.17647059 22:0.8888889 
-0.6467799033184455 3:5 4:22 5:0.45454544 6:2 7:3 8:0.3181818 9:0.22727275 10:0.22727275 11:0.22727275 12:43 13:0.25581396 14:3 15:0.4310345 16:58 17:0.29310346 18:0.2241379 19:0.20689654 20:0.2758621 21:0.23076923 22:0.40000001 23:0.16666667 24:0.11111111 
-0.9862943702553406 1:2 2:1 3:8 4:21 5:0.57142854 6:1 7:3 8:0.19047618 9:0.3333333 10:0.23809522 11:0.23809522 12:48 13:0.19047619 14:2 15:0.5833334 16:60 17:0.21666664 18:0.3333333 19:0.25 20:0.19999999 21:0.21428572 22:1.25 24:0.2857143 
-0.8501848184546266 1:2 2:1 3:5 4:23 5:0.8095238 6:1 7:4 8:0.09523809 9:0.52380955 10:0.28571427 11:0.09523809 12:7 13:0.18181819 14:3 15:0.7017544 16:57 17:0.07017541 18:0.3333333 19:0.36842108 20:0.2280702 21:0.24528302 22:1.7142857 24:0.55555558 
-0.9052064527645008 3:5 4:22 5:0.72727275 6:2 7:3 8:0.18181819 9:0.3181818 10:0.40909094 11:0.090909064 12:40 13:0.22727273 14:3 15:0.5833334 16:60 17:0.13333333 18:0.25 19:0.3333333 20:0.28333336 21:0.2962963 22:1 24:0.60000002 
-1 1:1 2:1 3:4 4:25 5:0.5217391 6:2 7:3 8:0.3043478 9:0.3043478 10:0.21739131 11:0.17391306 12:52 13:0.16666667 14:3 15:0.5645161 16:62 17:0.16129035 18:0.24193549 19:0.32258064 20:0.27419353 21:0.16363636 22:0.69999999 23:0.16666667 24:0.14285715 
-1 1:2 2:1 3:7 4:22 5:0.5909091 6:2 7:2 8:0.22727275 9:0.22727275 10:0.36363637 11:0.18181819 12:53 13:0.13636364 14:4 15:0.55737704 16:61 17:0.19672132 18:0.27868855 19:0.27868855 20:0.24590164 21:0.15789473 22:1.25 23:0.25 24:0.23076923 
-0.4073839922782583 3:6 4:21 5:0.61904764 6:1 7:2 8:0.28571427 9:0.23809522 10:0.38095236 11:0.09523809 12:6 13:0.12195122 14:1 15:0.5 16:62 17:0.2580645 18:0.2580645 19:0.24193549 20:0.24193549 21:0.11538462 22:1.2857143 24:0.090909094 
-1 1:1 2:1 3:5 4:22 5:0.5454545 6:2 7:2 8:0.3181818 9:0.36363637 10:0.18181819 11:0.13636363 12:45 13:0.18181819 14:3 15:0.62903225 16:62 17:0.22580647 18:0.33870965 19:0.2903226 20:0.14516127 21:0.1923077 22:1.4285715 24:0.25 
-1 3:3 4:23 5:0.5909091 6:2 7:3 8:0.18181819 9:0.40909094 10:0.18181819 11:0.22727275 12:5 13:0.18181819 14:4 15:0.6727273 16:55 17:0.14545453 18:0.3272727 19:0.34545457 20:0.18181819 21:0.16 22:1 
-1 3:3 4:25 5:0.5909091 6:3 7:4 8:0.18181819 9:0.3181818 10:0.27272725 11:0.22727275 12:5 13:0.23404256 14:1 15:0.56896555 16:58 17:0.18965518 18:0.31034482 19:0.25862068 20:0.24137932 21:0.20754717 22:1.6666666 
-1 1:2 2:1 3:7 4:22 5:0.45454544 6:2 7:3 8:0.090909064 9:0.27272725 10:0.18181819 11:0.45454544 12:3 13:0.1627907 14:3 15:0.44262296 16:61 17:0.21311474 18:0.19672132 19:0.24590164 20:0.3442623 21:0.16363636 22:1.1428572 24:0.16666667 
-1 3:3 4:22 5:0.45454544 6:1 7:1 8:0.18181819 9:0.27272725 10:0.18181819 11:0.36363637 12:6 13:0.18181819 14:1 15:0.4464286 16:56 17:0.23214287 18:0.1785714 19:0.26785713 20:0.3214286 21:0.23999999 22:1 24:0.66666669 
-0.6838252611490511 3:4 4:22 5:0.6666666 6:2 7:3 8:0.14285713 9:0.61904764 10:0.047619045 11:0.19047618 12:51 13:0.30232558 14:2 15:0.5818182 16:55 17:0.23636365 18:0.34545457 19:0.23636365 20:0.18181819 21:0.31999999 22:0.5 23:0.22580644 24:0.42857143 
-0.2679883023560613 1:3 2:1 3:7 4:23 5:0.40909094 6:2 7:2 8:0.18181819 9:0.18181819 10:0.22727275 11:0.40909094 12:18 13:0.15555556 14:4 15:0.5081967 16:61 17:0.22950822 18:0.26229507 19:0.24590164 20:0.26229507 21:0.20689656 22:1 23:0.31578946 24:0.38461539 
-1 1:2 2:1 3:8 4:21 5:0.61904764 6:2 7:3 8:0.28571427 9:0.3333333 10:0.28571427 11:0.09523809 12:44 13:0.2682927 14:1 15:0.53225803 16:62 17:0.2096774 18:0.27419353 19:0.2580645 20:0.2580645 21:0.2631579 22:1 24:0.25 
-0.732767023642839 3:3 4:24 5:0.45454544 6:2 7:4 8:0.22727275 9:0.18181819 10:0.27272725 11:0.3181818 12:9 13:0.17391305 14:4 15:0.453125 16:64 17:0.21875 18:0.234375 19:0.21875 20:0.328125 21:0.1923077 22:0.77777779 23:0.05882353 24:0.33333334 
-1 1:1 2:1 3:6 4:21 5:0.61904764 6:2 7:3 8:0.14285713 9:0.23809522 10:0.38095236 11:0.23809522 12:6 13:0.17073171 14:1 15:0.5272727 16:55 17:0.19999999 18:0.23636365 19:0.2909091 20:0.27272725 21:0.15384616 22:0.80000001 23:0.2 24:0.090909094 
-1 1:2 2:1 3:9 4:25 5:0.5 6:2 7:4 8:0.40909094 9:0.18181819 10:0.3181818 11:0.090909064 12:47 13:0.19148937 14:2 15:0.5 16:66 17:0.21212119 18:0.25757575 19:0.24242425 20:0.2878788 21:0.20634921 22:1.5 24:0.25 
-0.4933622575755783 3:3 4:20 5:0.6 6:2 7:3 8:0.25 9:0.19999999 10:0.39999998 11:0.14999998 12:20 13:0.2820513 14:1 15:0.5185185 16:54 17:0.22222221 18:0.22222221 19:0.2962963 20:0.25925928 21:0.24444444 22:0.625 23:0.125 
-1 3:3 4:22 5:0.45454544 6:2 7:3 8:0.27272725 9:0.18181819 10:0.27272725 11:0.27272725 12:50 13:0.20930232 14:2 15:0.39999998 16:60 17:0.3 18:0.16666669 19:0.23333335 20:0.3 21:0.18367347 22:1.1666666 23:0.090909094 
-0.167936533228597 3:3 4:25 5:0.48000002 6:1 7:1 8:0.48000002 9:0.12000001 10:0.36 11:0.04000002 12:6 13:0.12 14:2 15:0.45762712 16:59 17:0.2711864 18:0.1864407 19:0.2711864 20:0.2711864 21:0.16363636 22:2.5 24:0.60000002 
-1 1:2 2:1 3:7 4:22 5:0.6818182 6:2 7:3 8:0.18181819 9:0.3181818 10:0.36363637 11:0.13636363 12:43 13:0.20930232 14:4 15:0.5483871 16:62 17:0.2096774 18:0.30645162 19:0.24193549 20:0.24193549 21:0.21428572 22:1.5 24:0.23076923 
-0.3602235004130402 3:1 4:23 5:0.5 6:2 7:3 8:0.22727275 9:0.22727275 10:0.27272725 11:0.27272725 12:8 13:0.18181819 14:4 15:0.46153843 16:52 17:0.25 18:0.21153843 19:0.25 20:0.28846157 21:0.17391305 22:1.4285715 
-1 1:3 2:1 3:10 4:22 5:0.6818182 6:1 7:4 8:0.22727275 9:0.22727275 10:0.45454544 11:0.090909064 12:51 13:0.17073171 14:2 15:0.6911765 16:68 17:0.13235295 18:0.33823532 19:0.35294116 20:0.17647058 21:0.18644068 22:1 23:0.14285715 24:0.22222222 
-0.2949767506162546 4:26 5:0.6666666 6:3 7:5 8:0.16666669 9:0.4166667 10:0.25 11:0.16666669 12:11 13:0.25 14:2 15:0.6727273 16:55 17:0.14545453 18:0.3272727 19:0.34545457 20:0.18181819 21:0.2173913 22:1.1428572 23:0.1 
-1 3:1 4:25 5:0.6666666 6:2 7:4 8:0.08333331 9:0.375 10:0.2916667 11:0.25 12:6 13:0.18367347 14:1 15:0.63793105 16:58 17:0.15517241 18:0.29310346 19:0.3448276 20:0.20689654 21:0.17647059 22:0.8888889 
-1 3:5 4:22 5:0.45454544 6:2 7:3 8:0.3181818 9:0.22727275 10:0.22727275 11:0.22727275 12:43 13:0.25581396 14:3 15:0.4310345 16:58 17:0.29310346 18:0.2241379 19:0.20689654 20:0.2758621 21:0.23076923 22:0.40000001 23:0.16666667 24:0.11111111 
-1 1:2 2:1 3:8 4:21 5:0.57142854 6:1 7:3 8:0.19047618 9:0.3333333 10:0.23809522 11:0.23809522 12:48 13:0.19047619 14:2 15:0.5833334 16:60 17:0.21666664 18:0.3333333 19:0.25 20:0.19999999 21:0.21428572 22:1.25 24:0.2857143 
-1 1:2 2:1 3:5 4:23 5:0.8095238 6:1 7:4 8:0.09523809 9:0.52380955 10:0.28571427 11:0.09523809 12:7 13:0.18181819 14:3 15:0.7017544 16:57 17:0.07017541 18:0.3333333 19:0.36842108 20:0.2280702 21:0.24528302 22:1.7142857 24:0.55555558 
-0.3519357388450622 3:1 4:24 5:0.625 6:2 7:1 8:0.2916667 9:0.20833331 10:0.4166667 11:0.08333331 12:42 13:0.083333336 14:2 15:0.60655737 16:61 17:0.16393441 18:0.27868855 19:0.32786888 20:0.22950822 21:0.079999998 22:1.2222222 
-0.6498605707076072 3:2 4:25 5:0.5416666 6:2 7:3 8:0.3333333 9:0.20833331 10:0.3333333 11:0.125 12:45 13:0.125 14:2 15:0.53125 16:64 17:0.1875 18:0.234375 19:0.296875 20:0.28125 21:0.11538462 22:1.1111112 
-1 3:5 4:22 5:0.72727275 6:2 7:3 8:0.18181819 9:0.3181818 10:0.40909094 11:0.090909064 12:40 13:0.22727273 14:3 15:0.5833334 16:60 17:0.13333333 18:0.25 19:0.3333333 20:0.28333336 21:0.2962963 22:1 24:0.60000002 
-1 1:1 2:1 3:4 4:25 5:0.5217391 6:2 7:3 8:0.3043478 9:0.3043478 10:0.21739131 11:0.17391306 12:52 13:0.16666667 14:3 15:0.5645161 16:62 17:0.16129035 18:0.24193549 19:0.32258064 20:0.27419353 21:0.16363636 22:0.69999999 23:0.16666667 24:0.14285715 
-0.3301437539845329 1:1 2:2 3:8 4:23 5:0.5909091 6:4 7:5 8:0.22727275 9:0.27272725 10:0.3181818 11:0.18181819 12:54 13:0.31818181 14:2 15:0.5625 16:64 17:0.1875 18:0.25 19:0.3125 20:0.25 21:0.28813559 22:0.5714286 23:0.090909094 24:0.2 
-1 1:2 2:1 3:7 4:22 5:0.5909091 6:2 7:2 8:0.22727275 9:0.22727275 10:0.36363637 11:0.18181819 12:53 13:0.13636364 14:4 15:0.55737704 16:61 17:0.19672132 18:0.27868855 19:0.27868855 20:0.24590164 21:0.15789473 22:1.25 23:0.25 24:0.23076923 
-1 3:6 4:21 5:0.61904764 6:1 7:2 8:0.28571427 9:0.23809522 10:0.38095236 11:0.09523809 12:6 13:0.12195122 14:1 15:0.5 16:62 17:0.2580645 18:0.2580645 19:0.24193549 20:0.24193549 21:0.11538462 22:1.2857143 24:0.090909094 
-0.0857288105363201 3:4 4:24 5:0.6363636 6:2 7:4 8:0.27272725 9:0.3181818 10:0.3181818 11:0.090909064 12:43 13:0.15555556 14:1 15:0.6140351 16:57 17:0.21052629 18:0.28070176 19:0.3333333 20:0.17543858 21:0.15384616 22:1.25 23:0.22222222 24:0.14285715 
-0.2516800191919989 1:1 2:1 3:5 4:26 5:0.625 6:2 7:5 8:0.08333331 9:0.2916667 10:0.3333333 11:0.2916667 12:6 13:0.16666667 14:1 15:0.6451613 16:62 17:0.19354838 18:0.30645162 19:0.33870965 20:0.16129035 21:0.15789473 22:1.1428572 23:0.23076923 24:0.11111111 
-1 1:1 2:1 3:5 4:22 5:0.5454545 6:2 7:2 8:0.3181818 9:0.36363637 10:0.18181819 11:0.13636363 12:45 13:0.18181819 14:3 15:0.62903225 16:62 17:0.22580647 18:0.33870965 19:0.2903226 20:0.14516127 21:0.1923077 22:1.4285715 24:0.25 
-1 3:3 4:23 5:0.5909091 6:2 7:3 8:0.18181819 9:0.40909094 10:0.18181819 11:0.22727275 12:5 13:0.18181819 14:4 15:0.6727273 16:55 17:0.14545453 18:0.3272727 19:0.34545457 20:0.18181819 21:0.16 22:1 
-1 3:3 4:25 5:0.5909091 6:3 7:4 8:0.18181819 9:0.3181818 10:0.27272725 11:0.22727275 12:5 13:0.23404256 14:1 15:0.56896555 16:58 17:0.18965518 18:0.31034482 19:0.25862068 20:0.24137932 21:0.20754717 22:1.6666666 
-0.8184425738733619 3:3 4:21 5:0.52380955 6:2 7:1 8:0.23809522 9:0.19047618 10:0.3333333 11:0.23809522 12:12 13:0.17948718 14:4 15:0.53571427 16:56 17:0.21428573 18:0.28571427 19:0.25 20:0.25 21:0.15555556 22:3.3333333 23:0.18181819 
-1 1:2 2:1 3:7 4:22 5:0.45454544 6:2 7:3 8:0.090909064 9:0.27272725 10:0.18181819 11:0.45454544 12:3 13:0.1627907 14:3 15:0.44262296 16:61 17:0.21311474 18:0.19672132 19:0.24590164 20:0.3442623 21:0.16363636 22:1.1428572 24:0.16666667 
-0.9040620015290614 3:5 4:21 5:0.57142854 6:2 7:4 8:0.23809522 9:0.38095236 10:0.19047618 11:0.19047618 12:51 13:0.21951219 14:4 15:0.49206346 16:63 17:0.23809522 18:0.22222221 19:0.26984125 20:0.26984125 21:0.17647059 22:1.6 
-1 3:3 4:22 5:0.45454544 6:1 7:1 8:0.18181819 9:0.27272725 10:0.18181819 11:0.36363637 12:6 13:0.18181819 14:1 15:0.4464286 16:56 17:0.23214287 18:0.1785714 19:0.26785713 20:0.3214286 21:0.23999999 22:1 24:0.66666669 
-1 3:4 4:22 5:0.6666666 6:2 7:3 8:0.14285713 9:0.61904764 10:0.047619045 11:0.19047618 12:51 13:0.30232558 14:2 15:0.5818182 16:55 17:0.23636365 18:0.34545457 19:0.23636365 20:0.18181819 21:0.31999999 22:0.5 23:0.22580644 24:0.42857143 
-1 1:3 2:1 3:7 4:23 5:0.40909094 6:2 7:2 8:0.18181819 9:0.18181819 10:0.22727275 11:0.40909094 12:18 13:0.15555556 14:4 15:0.5081967 16:61 17:0.22950822 18:0.26229507 19:0.24590164 20:0.26229507 21:0.20689656 22:1 23:0.31578946 24:0.38461539 
-1 1:2 2:1 3:8 4:21 5:0.61904764 6:2 7:3 8:0.28571427 9:0.3333333 10:0.28571427 11:0.09523809 12:44 13:0.2682927 14:1 15:0.53225803 16:62 17:0.2096774 18:0.27419353 19:0.2580645 20:0.2580645 21:0.2631579 22:1 24:0.25 
-1 3:3 4:24 5:0.45454544 6:2 7:4 8:0.22727275 9:0.18181819 10:0.27272725 11:0.3181818 12:9 13:0.17391305 14:4 15:0.453125 16:64 17:0.21875 18:0.234375 19:0.21875 20:0.328125 21:0.1923077 22:0.77777779 23:0.05882353 24:0.33333334 
-1 1:1 2:1 3:6 4:21 5:0.61904764 6:2 7:3 8:0.14285713 9:0.23809522 10:0.38095236 11:0.23809522 12:6 13:0.17073171 14:1 15:0.5272727 16:55 17:0.19999999 18:0.23636365 19:0.2909091 20:0.27272725 21:0.15384616 22:0.80000001 23:0.2 24:0.090909094 
-0.09711261911490618 3:1 4:26 5:0.5416666 6:2 7:5 8:0.08333331 9:0.20833331 10:0.3333333 11:0.375 12:43 13:0.23999999 14:2 15:0.55737704 16:61 17:0.13114756 18:0.27868855 19:0.27868855 20:0.3114754 21:0.23076923 22:0.75 
-1 1:2 2:1 3:9 4:25 5:0.5 6:2 7:4 8:0.40909094 9:0.18181819 10:0.3181818 11:0.090909064 12:47 13:0.19148937 14:2 15:0.5 16:66 17:0.21212119 18:0.25757575 19:0.24242425 20:0.2878788 21:0.20634921 22:1.5 24:0.25 
-1 3:3 4:20 5:0.6 6:2 7:3 8:0.25 9:0.19999999 10:0.39999998 11:0.14999998 12:20 13:0.2820513 14:1 15:0.5185185 16:54 17:0.22222221 18:0.22222221 19:0.2962963 20:0.25925928 21:0.24444444 22:0.625 23:0.125 
-1 3:3 4:22 5:0.45454544 6:2 7:3 8:0.27272725 9:0.18181819 10:0.27272725 11:0.27272725 12:50 13:0.20930232 14:2 15:0.39999998 16:60 17:0.3 18:0.16666669 19:0.23333335 20:0.3 21:0.18367347 22:1.1666666 23:0.090909094 
-1 3:3 4:25 5:0.48000002 6:1 7:1 8:0.48000002 9:0.12000001 10:0.36 11:0.04000002 12:6 13:0.12 14:2 15:0.45762712 16:59 17:0.2711864 18:0.1864407 19:0.2711864 20:0.2711864 21:0.16363636 22:2.5 24:0.60000002 
-0.5930490798509893 3:2 4:29 5:0.5416666 6:3 7:3 8:0.25 9:0.3333333 10:0.20833331 11:0.20833331 12:38 13:0.13725491 14:3 15:0.5737705 16:61 17:0.19672132 18:0.27868855 19:0.29508197 20:0.22950822 21:0.12727273 22:0.83333331 
-0.2645817415591438 1:2 2:1 3:10 4:22 5:0.5909091 6:2 7:1 8:0.18181819 9:0.18181819 10:0.40909094 11:0.22727275 12:45 13:0.2631579 14:3 15:0.6229508 16:61 17:0.16393441 18:0.29508197 19:0.32786888 20:0.21311474 21:0.24137931 24:0.2 
-0.4388988524362435 1:1 2:1 3:9 4:22 5:0.5454545 6:2 7:2 8:0.18181819 9:0.40909094 10:0.13636363 11:0.27272725 12:3 13:0.20930232 14:4 15:0.45901638 16:61 17:0.21311474 18:0.22950822 19:0.22950822 20:0.32786888 21:0.24137931 22:2 24:0.33333334 
-1 1:2 2:1 3:7 4:22 5:0.6818182 6:2 7:3 8:0.18181819 9:0.3181818 10:0.36363637 11:0.13636363 12:43 13:0.20930232 14:4 15:0.5483871 16:62 17:0.2096774 18:0.30645162 19:0.24193549 20:0.24193549 21:0.21428572 22:1.5 24:0.23076923 
-1 3:1 4:23 5:0.5 6:2 7:3 8:0.22727275 9:0.22727275 10:0.27272725 11:0.27272725 12:8 13:0.18181819 14:4 15:0.46153843 16:52 17:0.25 18:0.21153843 19:0.25 20:0.28846157 21:0.17391305 22:1.4285715 
-1 1:3 2:1 3:10 4:22 5:0.6818182 6:1 7:4 8:0.22727275 9:0.22727275 10:0.45454544 11:0.090909064 12:51 13:0.17073171 14:2 15:0.6911765 16:68 17:0.13235295 18:0.33823532 19:0.35294116 20:0.17647058 21:0.18644068 22:1 23:0.14285715 24:0.22222222 
-1 4:26 5:0.6666666 6:3 7:5 8:0.16666669 9:0.4166667 10:0.25 11:0.16666669 12:11 13:0.25 14:2 15:0.6727273 16:55 17:0.14545453 18:0.3272727 19:0.34545457 20:0.18181819 21:0.2173913 22:1.1428572 23:0.1 
-0.2268899496319494 1:1 2:1 3:7 4:24 5:0.5652174 6:2 7:4 8:0.13043481 9:0.34782606 10:0.21739131 11:0.3043478 12:48 13:0.19148937 14:3 15:0.49275362 16:69 17:0.23188406 18:0.20289856 19:0.28985506 20:0.2753623 21:0.18032786 22:1.25 24:0.14285715 
-1 3:4 4:22 5:0.36363637 6:2 7:3 8:0.45454544 9:0.04545456 10:0.3181818 11:0.18181819 12:40 13:0.19047619 14:4 15:0.43333334 16:60 17:0.23333335 18:0.19999999 19:0.23333335 20:0.3333333 21:0.16 22:1.3333334 
-1 3:1 4:25 5:0.6666666 6:2 7:4 8:0.08333331 9:0.375 10:0.2916667 11:0.25 12:6 13:0.18367347 14:1 15:0.63793105 16:58 17:0.15517241 18:0.29310346 19:0.3448276 20:0.20689654 21:0.17647059 22:0.8888889 
-1 3:5 4:22 5:0.45454544 6:2 7:3 8:0.3181818 9:0.22727275 10:0.22727275 11:0.22727275 12:43 13:0.25581396 14:3 15:0.4310345 16:58 17:0.29310346 18:0.2241379 19:0.20689654 20:0.2758621 21:0.23076923 22:0.40000001 23:0.16666667 24:0.11111111 
-1 1:2 2:1 3:8 4:21 5:0.57142854 6:1 7:3 8:0.19047618 9:0.3333333 10:0.23809522 11:0.23809522 12:48 13:0.19047619 14:2 15:0.5833334 16:60 17:0.21666664 18:0.3333333 19:0.25 20:0.19999999 21:0.21428572 22:1.25 24:0.2857143 
-1 1:2 2:2 3:10 4:21 5:0.61904764 6:1 7:4 8:0.23809522 9:0.28571427 10:0.3333333 11:0.14285713 12:7 13:0.19047619 14:2 15:0.609375 16:64 17:0.203125 18:0.34375 19:0.265625 20:0.1875 21:0.2 22:1.125 24:0.22222222 
-1 3:6 4:22 5:0.5 6:1 7:3 8:0.18181819 9:0.13636363 10:0.36363637 11:0.3181818 12:57 13:0.22727273 14:4 15:0.46268654 16:67 17:0.16417909 18:0.20895523 19:0.25373137 20:0.37313432 21:0.17857143 22:0.875 23:0.13043478 
-0.1598636128823971 1:1 2:1 3:5 4:22 5:0.77272725 6:2 7:4 8:0.090909064 9:0.36363637 10:0.40909094 11:0.13636363 12:43 13:0.23809524 14:3 15:0.60714287 16:56 17:0.10714287 18:0.25 19:0.35714287 20:0.28571427 21:0.26923078 22:0.75 23:0.125 24:0.40000001 
-0.008603140753610785 1:2 2:4 3:20 4:23 5:0.6086956 6:2 7:4 8:0.17391306 9:0.34782606 10:0.26086956 11:0.21739131 12:2 13:0.1627907 14:2 15:0.6547619 16:84 17:0.20238096 18:0.30952382 19:0.3452381 20:0.14285713 21:0.18518518 22:0.5 24:0.21052632 
-0.6589783228583124 3:2 4:24 5:0.6521739 6:2 7:4 8:0.21739131 9:0.34782606 10:0.3043478 11:0.13043481 12:19 13:0.17391305 14:2 15:0.6415094 16:53 17:0.2264151 18:0.3018868 19:0.33962262 20:0.13207549 21:0.16 22:2 23:0.21212122 
-1 1:2 2:1 3:5 4:23 5:0.8095238 6:1 7:4 8:0.09523809 9:0.52380955 10:0.28571427 11:0.09523809 12:7 13:0.18181819 14:3 15:0.7017544 16:57 17:0.07017541 18:0.3333333 19:0.36842108 20:0.2280702 21:0.24528302 22:1.7142857 24:0.55555558 
-0.1905113017757084 3:5 4:26 5:0.4583333 6:1 7:1 8:0.375 9:0.16666669 10:0.2916667 11:0.16666669 12:46 13:0.22448979 14:4 15:0.52380955 16:63 17:0.22222221 18:0.22222221 19:0.30158728 20:0.25396824 21:0.20689656 24:0.11111111 
-1 3:1 4:24 5:0.625 6:2 7:1 8:0.2916667 9:0.20833331 10:0.4166667 11:0.08333331 12:42 13:0.083333336 14:2 15:0.60655737 16:61 17:0.16393441 18:0.27868855 19:0.32786888 20:0.22950822 21:0.079999998 22:1.2222222 
-1 3:2 4:25 5:0.5416666 6:2 7:3 8:0.3333333 9:0.20833331 10:0.3333333 11:0.125 12:45 13:0.125 14:2 15:0.53125 16:64 17:0.1875 18:0.234375 19:0.296875 20:0.28125 21:0.11538462 22:1.1111112 
-1 3:5 4:22 5:0.72727275 6:2 7:3 8:0.18181819 9:0.3181818 10:0.40909094 11:0.090909064 12:40 13:0.22727273 14:3 15:0.5833334 16:60 17:0.13333333 18:0.25 19:0.3333333 20:0.28333336 21:0.2962963 22:1 24:0.60000002 
-1 1:3 2:1 3:8 4:20 5:0.39999998 6:2 7:3 8:0.25 9:0.19999999 10:0.19999999 11:0.35000002 12:44 13:0.23076923 14:3 15:0.4137931 16:58 17:0.25862068 18:0.2241379 19:0.18965518 20:0.32758623 21:0.25925925 22:2 23:0.2 24:0.33333334 
-1 1:1 2:1 3:4 4:25 5:0.5217391 6:2 7:3 8:0.3043478 9:0.3043478 10:0.21739131 11:0.17391306 12:52 13:0.16666667 14:3 15:0.5645161 16:62 17:0.16129035 18:0.24193549 19:0.32258064 20:0.27419353 21:0.16363636 22:0.69999999 23:0.16666667 24:0.14285715 
-0.6123470732815606 4:22 5:0.5909091 6:3 7:3 8:0.18181819 9:0.3181818 10:0.27272725 11:0.22727275 12:10 13:0.22727273 14:1 15:0.5769231 16:52 17:0.11538464 18:0.28846157 19:0.28846157 20:0.3076923 21:0.22727273 22:1.1 23:0.22222222 
-1 1:1 2:2 3:8 4:23 5:0.5909091 6:4 7:5 8:0.22727275 9:0.27272725 10:0.3181818 11:0.18181819 12:54 13:0.31818181 14:2 15:0.5625 16:64 17:0.1875 18:0.25 19:0.3125 20:0.25 21:0.28813559 22:0.5714286 23:0.090909094 24:0.2 
-0.00539033488773943 1:7 2:1 3:17 4:22 5:0.6818182 6:1 7:5 8:0.13636363 9:0.3181818 10:0.36363637 11:0.18181819 12:62 13:0.31818181 14:3 15:0.56 16:75 17:0.19999999 18:0.27999997 19:0.27999997 20:0.24000001 21:0.29577464 22:0.75 23:0.125 24:0.25925925 
-1 1:2 2:1 3:7 4:22 5:0.5909091 6:2 7:2 8:0.22727275 9:0.22727275 10:0.36363637 11:0.18181819 12:53 13:0.13636364 14:4 15:0.55737704 16:61 17:0.19672132 18:0.27868855 19:0.27868855 20:0.24590164 21:0.15789473 22:1.25 23:0.25 24:0.23076923 
-0.6018811277380974 1:5 2:1 3:11 4:22 5:0.3181818 6:1 7:1 8:0.36363637 9:0.18181819 10:0.13636363 11:0.3181818 12:47 13:0.095238097 14:2 15:0.47761196 16:67 17:0.22388059 18:0.23880595 19:0.23880595 20:0.29850745 21:0.26984128 22:1 24:0.61904764 
-1 3:6 4:21 5:0.61904764 6:1 7:2 8:0.28571427 9:0.23809522 10:0.38095236 11:0.09523809 12:6 13:0.12195122 14:1 15:0.5 16:62 17:0.2580645 18:0.2580645 19:0.24193549 20:0.24193549 21:0.11538462 22:1.2857143 24:0.090909094 
-1 3:4 4:24 5:0.6363636 6:2 7:4 8:0.27272725 9:0.3181818 10:0.3181818 11:0.090909064 12:43 13:0.15555556 14:1 15:0.6140351 16:57 17:0.21052629 18:0.28070176 19:0.3333333 20:0.17543858 21:0.15384616 22:1.25 23:0.22222222 24:0.14285715 
-1 1:1 2:1 3:5 4:26 5:0.625 6:2 7:5 8:0.08333331 9:0.2916667 10:0.3333333 11:0.2916667 12:6 13:0.16666667 14:1 15:0.6451613 16:62 17:0.19354838 18:0.30645162 19:0.33870965 20:0.16129035 21:0.15789473 22:1.1428572 23:0.23076923 24:0.11111111 
-0.01181368575680253 4:23 5:0.5 6:2 7:2 8:0.22727275 9:0.090909064 10:0.40909094 11:0.27272725 12:15 13:0.11627907 14:4 15:0.49019605 16:51 17:0.25490195 18:0.2352941 19:0.25490195 20:0.25490195 21:0.073170729 22:1.2857143 23:0.23076923 
-1 1:1 2:1 3:5 4:22 5:0.5454545 6:2 7:2 8:0.3181818 9:0.36363637 10:0.18181819 11:0.13636363 12:45 13:0.18181819 14:3 15:0.62903225 16:62 17:0.22580647 18:0.33870965 19:0.2903226 20:0.14516127 21:0.1923077 22:1.4285715 24:0.25 
-0.2689080085925377 3:3 4:23 5:0.5652174 6:1 7:2 8:0.21739131 9:0.13043481 10:0.43478262 11:0.21739131 12:37 13:0.086956523 14:3 15:0.48214287 16:56 17:0.1785714 18:0.23214287 19:0.25 20:0.33928573 21:0.15384616 22:1.5714285 24:0.66666669 
-1 3:3 4:23 5:0.5909091 6:2 7:3 8:0.18181819 9:0.40909094 10:0.18181819 11:0.22727275 12:5 13:0.18181819 14:4 15:0.6727273 16:55 17:0.14545453 18:0.3272727 19:0.34545457 20:0.18181819 21:0.16 22:1 
-1 3:3 4:25 5:0.5909091 6:3 7:4 8:0.18181819 9:0.3181818 10:0.27272725 11:0.22727275 12:5 13:0.23404256 14:1 15:0.56896555 16:58 17:0.18965518 18:0.31034482 19:0.25862068 20:0.24137932 21:0.20754717 22:1.6666666 
-1 3:3 4:21 5:0.52380955 6:2 7:1 8:0.23809522 9:0.19047618 10:0.3333333 11:0.23809522 12:12 13:0.17948718 14:4 15:0.53571427 16:56 17:0.21428573 18:0.28571427 19:0.25 20:0.25 21:0.15555556 22:3.3333333 23:0.18181819 
-1 1:2 2:1 3:7 4:22 5:0.45454544 6:2 7:3 8:0.090909064 9:0.27272725 10:0.18181819 11:0.45454544 12:3 13:0.1627907 14:3 15:0.44262296 16:61 17:0.21311474 18:0.19672132 19:0.24590164 20:0.3442623 21:0.16363636 22:1.1428572 24:0.16666667 
-1 3:5 4:21 5:0.57142854 6:2 7:4 8:0.23809522 9:0.38095236 10:0.19047618 11:0.19047618 12:51 13:0.21951219 14:4 15:0.49206346 16:63 17:0.23809522 18:0.22222221 19:0.26984125 20:0.26984125 21:0.17647059 22:1.6 
-0.9365317580745527 3:4 4:23 5:0.5454545 6:2 7:4 8:0.090909064 9:0.13636363 10:0.40909094 11:0.36363637 12:39 13:0.22727273 14:2 15:0.6034483 16:58 17:0.13793105 18:0.25862068 19:0.3448276 20:0.25862068 21:0.1923077 22:2 
-0.2901955647672886 1:3 2:3 3:15 4:23 5:0.82608694 6:1 7:2 8:0.0869565 9:0.3043478 10:0.5217391 11:0.0869565 12:7 13:0.13043478 14:1 15:0.71428573 16:77 17:0.077922106 18:0.33766234 19:0.3766234 20:0.20779222 21:0.16666667 22:0.8888889 24:0.23076923 
-1 3:3 4:22 5:0.45454544 6:1 7:1 8:0.18181819 9:0.27272725 10:0.18181819 11:0.36363637 12:6 13:0.18181819 14:1 15:0.4464286 16:56 17:0.23214287 18:0.1785714 19:0.26785713 20:0.3214286 21:0.23999999 22:1 24:0.66666669 
-1 3:4 4:22 5:0.6666666 6:2 7:3 8:0.14285713 9:0.61904764 10:0.047619045 11:0.19047618 12:51 13:0.30232558 14:2 15:0.5818182 16:55 17:0.23636365 18:0.34545457 19:0.23636365 20:0.18181819 21:0.31999999 22:0.5 23:0.22580644 24:0.42857143 
-0.8177546614733204 1:2 2:2 3:13 4:22 5:0.36363637 6:3 7:4 8:0.18181819 9:0.13636363 10:0.22727275 11:0.45454544 12:54 13:0.27272728 14:2 15:0.4861111 16:72 17:0.2361111 18:0.20833331 19:0.2777778 20:0.2777778 21:0.2238806 22:1.1666666 24:0.13043478 
-0.2907235190045961 1:3 2:2 3:18 4:21 5:0.52380955 6:1 7:3 8:0.19047618 9:0.3333333 10:0.19047618 11:0.28571427 12:67 13:0.17073171 14:4 15:0.525641 16:78 17:0.21794873 18:0.26923078 19:0.25641024 20:0.25641024 21:0.2 22:1.125 23:0.42857143 24:0.23529412 
-0.8915735933285314 1:3 2:1 3:7 4:23 5:0.40909094 6:2 7:2 8:0.18181819 9:0.18181819 10:0.22727275 11:0.40909094 12:18 13:0.15555556 14:4 15:0.5081967 16:61 17:0.22950822 18:0.26229507 19:0.24590164 20:0.26229507 21:0.20689656 22:1 23:0.31578946 24:0.38461539 
-1 1:2 2:1 3:8 4:21 5:0.61904764 6:2 7:3 8:0.28571427 9:0.3333333 10:0.28571427 11:0.09523809 12:44 13:0.2682927 14:1 15:0.53225803 16:62 17:0.2096774 18:0.27419353 19:0.2580645 20:0.2580645 21:0.2631579 22:1 24:0.25 
-0.09016215924816331 3:2 4:23 5:0.5652174 6:2 7:3 8:0.21739131 9:0.3043478 10:0.26086956 11:0.21739131 12:38 13:0.2888889 14:4 15:0.5 16:54 17:0.22222221 18:0.24074072 19:0.25925928 20:0.2777778 21:0.26530612 22:0.5714286 23:0.16666667 
-0.4623644340588217 3:3 4:22 5:0.5909091 6:3 7:4 8:0.3181818 9:0.22727275 10:0.36363637 11:0.090909064 12:40 13:0.31707317 14:4 15:0.5769231 16:52 17:0.19230771 18:0.3076923 19:0.26923078 20:0.23076922 21:0.36170211 22:1.25 23:0.22222222 24:0.66666669 
-0.3467097785693241 4:20 5:0.45 6:2 7:3 8:0.35000002 9:0.14999998 10:0.3 11:0.19999999 12:42 13:0.36842105 14:4 15:0.4285714 16:42 17:0.23809522 18:0.23809522 19:0.19047618 20:0.3333333 21:0.2 23:0.12820514 
-0.9924524893695812 3:3 4:24 5:0.45454544 6:2 7:4 8:0.22727275 9:0.18181819 10:0.27272725 11:0.3181818 12:9 13:0.17391305 14:4 15:0.453125 16:64 17:0.21875 18:0.234375 19:0.21875 20:0.328125 21:0.1923077 22:0.77777779 23:0.05882353 24:0.33333334 
-0.1794597520886939 4:23 5:0.5454545 6:3 7:3 8:0.3181818 9:0.22727275 10:0.3181818 11:0.13636363 12:49 13:0.24444444 14:4 15:0.4680851 16:47 17:0.23404253 18:0.21276593 19:0.25531918 20:0.29787236 21:0.20930232 22:0.66666669 23:0.2 
-0.3287990364712498 4:22 5:0.36363637 6:3 7:3 8:0.18181819 9:0.22727275 10:0.13636363 11:0.45454544 12:26 13:0.30232558 14:4 15:0.4883721 16:43 17:0.23255813 18:0.23255813 19:0.25581396 20:0.27906978 21:0.23076923 22:2.75 23:0.18367347 
-0.2673108409412252 1:3 2:2 3:15 4:22 5:0.6818182 6:1 7:4 8:0.090909064 9:0.45454544 10:0.22727275 11:0.22727275 12:1 13:0.1627907 15:0.6438356 16:73 17:0.12328768 18:0.27397263 19:0.36986303 20:0.23287672 21:0.1594203 22:1.0909091 24:0.15384616 
-0.4604820622138136 3:8 4:23 5:0.6363636 6:1 7:3 8:0.090909064 9:0.27272725 10:0.36363637 11:0.27272725 12:65 13:0.20930232 14:1 15:0.53521127 16:71 17:0.22535211 18:0.26760566 19:0.26760566 20:0.23943663 21:0.15254237 22:3.6666667 23:0.29032257 
-0.4570903966519316 1:1 2:1 3:14 4:24 5:0.6521739 6:3 7:4 8:0.13043481 9:0.3043478 10:0.34782606 11:0.21739131 12:71 13:0.24444444 14:2 15:0.5595238 16:84 17:0.21428573 18:0.26190478 19:0.29761904 20:0.22619045 21:0.16666667 22:2 23:0.33333334 24:0.037037037 
-0.998473096827808 1:1 2:1 3:6 4:21 5:0.61904764 6:2 7:3 8:0.14285713 9:0.23809522 10:0.38095236 11:0.23809522 12:6 13:0.17073171 14:1 15:0.5272727 16:55 17:0.19999999 18:0.23636365 19:0.2909091 20:0.27272725 21:0.15384616 22:0.80000001 23:0.2 24:0.090909094 
-0.584779004404979 1:1 2:1 3:11 4:24 5:0.5833334 6:1 7:3 8:0.125 9:0.16666669 10:0.4166667 11:0.2916667 12:8 13:0.125 14:1 15:0.55714285 16:70 17:0.1857143 18:0.24285716 19:0.3142857 20:0.25714284 21:0.13432837 22:1 23:0.25 24:0.15789473 
-0.6882865949375643 1:2 2:2 3:12 4:21 5:0.57142854 6:1 7:3 8:0.14285713 9:0.14285713 10:0.4285714 11:0.28571427 12:10 13:0.14285715 14:3 15:0.5454545 16:66 17:0.19696969 18:0.24242425 19:0.3030303 20:0.25757575 21:0.14285715 22:1.125 23:0.2 24:0.14285715 
-0.3832018180334696 1:3 2:2 3:11 4:21 5:0.7619048 6:2 7:2 8:0.19047618 9:0.047619045 10:0.71428573 11:0.047619045 12:10 13:0.14285715 14:3 15:0.6268657 16:67 17:0.16417909 18:0.26865673 19:0.35820895 20:0.20895523 21:0.19354838 22:0.89999998 23:0.15789473 24:0.30000001 
-0.02731232416502745 1:3 2:2 3:12 4:22 5:0.72727275 6:2 7:5 8:0.04545456 9:0.40909094 10:0.3181818 11:0.22727275 12:3 13:0.25581396 14:2 15:0.7164179 16:67 17:0.10447758 18:0.38805968 19:0.32835823 20:0.1791045 21:0.28125 22:1 24:0.33333334 
-0.8098340627242728 1:3 2:2 3:20 4:21 5:0.6666666 6:2 7:3 8:0.09523809 9:0.14285713 10:0.52380955 11:0.23809522 12:63 13:0.21951219 14:3 15:0.6385542 16:83 17:0.1686747 18:0.3012048 19:0.3373494 20:0.19277108 21:0.20512821 22:0.80000001 24:0.1891892 
-0.9991961449434907 3:1 4:26 5:0.5416666 6:2 7:5 8:0.08333331 9:0.20833331 10:0.3333333 11:0.375 12:43 13:0.23999999 14:2 15:0.55737704 16:61 17:0.13114756 18:0.27868855 19:0.27868855 20:0.3114754 21:0.23076923 22:0.75 
-0.01220376857878007 4:22 5:0.5454545 6:2 7:4 8:0.18181819 9:0.3181818 10:0.22727275 11:0.27272725 12:15 13:0.39534885 14:3 15:0.5454545 16:44 17:0.13636363 18:0.27272725 19:0.27272725 20:0.3181818 21:0.25714287 23:0.13043478 
-0.565021330013103 1:2 2:1 3:6 4:32 5:0.5454545 6:8 7:3 8:0.27272725 9:0.22727275 10:0.3181818 11:0.18181819 12:9 13:0.25925925 14:1 15:0.49367088 16:79 17:0.20253164 18:0.29113925 19:0.20253164 20:0.30379748 21:0.27272728 22:0.8888889 23:0.2857143 24:0.33333334 
-0.1738960814151711 3:6 4:22 5:0.45454544 6:2 7:3 8:0.090909064 9:0.18181819 10:0.27272725 11:0.45454544 12:51 13:0.27272728 14:1 15:0.42028987 16:69 17:0.24637681 18:0.18840581 19:0.23188406 20:0.3333333 21:0.23636363 22:1 24:0.090909094 
-0.3397234636884238 1:1 2:1 3:7 4:23 5:0.43478262 6:2 7:4 8:0.3043478 9:0.26086956 10:0.17391306 11:0.26086956 12:2 13:0.26086956 14:3 15:0.42465752 16:73 17:0.24657536 18:0.1917808 19:0.23287672 20:0.32876712 21:0.22033899 22:1 24:0.07692308 
-0.1878328698555795 1:1 2:2 3:11 4:24 5:0.4166667 6:3 7:3 8:0.25 10:0.4166667 11:0.3333333 12:11 13:0.26086956 14:4 15:0.42307693 16:78 17:0.26923078 18:0.23076922 19:0.19230771 20:0.3076923 21:0.2238806 22:0.63636363 23:0.33333334 24:0.14285715 
-0.2125948145442164 1:2 2:2 3:17 4:24 5:0.5454545 6:1 7:4 8:0.13636363 9:0.18181819 10:0.36363637 11:0.3181818 12:63 13:0.11111111 14:4 15:0.5421687 16:83 17:0.24096388 18:0.24096388 19:0.3012048 20:0.21686745 21:0.11688311 22:0.72727275 24:0.125 
-0.2150620567178242 1:2 2:2 3:14 4:24 5:0.5454545 6:1 7:4 8:0.18181819 9:0.18181819 10:0.36363637 11:0.27272725 12:60 13:0.11111111 14:1 15:0.53246754 16:77 17:0.24675328 18:0.23376626 19:0.2987013 20:0.22077924 21:0.12676056 22:1.4285715 24:0.15384616 
-1 1:2 2:1 3:9 4:25 5:0.5 6:2 7:4 8:0.40909094 9:0.18181819 10:0.3181818 11:0.090909064 12:47 13:0.19148937 14:2 15:0.5 16:66 17:0.21212119 18:0.25757575 19:0.24242425 20:0.2878788 21:0.20634921 22:1.5 24:0.25 
-0.2528262607275988 1:2 2:1 3:13 4:24 5:0.5833334 6:4 7:3 8:0.375 9:0.4166667 10:0.16666669 11:0.041666687 12:6 13:0.2173913 14:2 15:0.554054 16:74 17:0.1891892 18:0.2972973 19:0.25675678 20:0.25675678 21:0.17142858 22:1.2857143 24:0.083333336 
-0.4940891855568856 1:2 2:2 3:11 4:22 5:0.6363636 6:2 7:3 8:0.18181819 9:0.13636363 10:0.5 11:0.18181819 12:10 13:0.14285715 14:4 15:0.520548 16:73 17:0.20547944 18:0.21917808 19:0.30136985 20:0.27397263 21:0.1875 22:0.8888889 23:0.23076923 24:0.27272728 
-0.9951214403459431 3:3 4:20 5:0.6 6:2 7:3 8:0.25 9:0.19999999 10:0.39999998 11:0.14999998 12:20 13:0.2820513 14:1 15:0.5185185 16:54 17:0.22222221 18:0.22222221 19:0.2962963 20:0.25925928 21:0.24444444 22:0.625 23:0.125 
-0.9755039893274914 1:2 2:2 3:10 4:23 5:0.5 6:2 7:4 8:0.18181819 9:0.27272725 10:0.22727275 11:0.3181818 12:59 13:0.2 14:1 15:0.46376812 16:69 17:0.20289856 18:0.18840581 19:0.2753623 20:0.3333333 21:0.21875 22:1.4285715 23:0.27272728 24:0.2631579 
-0.1190577545478733 1:2 2:2 3:15 4:23 5:0.5 6:1 7:3 8:0.18181819 9:0.3181818 10:0.18181819 11:0.3181818 12:64 13:0.2 14:1 15:0.48101264 16:79 17:0.20253164 18:0.21518987 19:0.26582277 20:0.31645572 21:0.21621622 22:1 23:0.33333334 24:0.24137931 
-0.8209106550052832 1:1 2:1 3:12 4:19 5:0.6315789 6:3 7:2 8:0.21052629 9:0.15789473 10:0.4736842 11:0.15789473 12:52 13:0.22222222 14:4 15:0.7419355 16:62 17:0.11290324 18:0.40322578 19:0.33870965 20:0.14516127 21:0.18644068 22:0.77777779 23:0.25 24:0.13043478 
-1 3:3 4:22 5:0.45454544 6:2 7:3 8:0.27272725 9:0.18181819 10:0.27272725 11:0.27272725 12:50 13:0.20930232 14:2 15:0.39999998 16:60 17:0.3 18:0.16666669 19:0.23333335 20:0.3 21:0.18367347 22:1.1666666 23:0.090909094 
-0.8383637925441889 4:24 5:0.43478262 6:2 7:3 8:0.21739131 9:0.17391306 10:0.26086956 11:0.34782606 12:16 13:0.27659574 14:4 15:0.4423077 16:52 17:0.26923078 18:0.19230771 19:0.25 20:0.28846157 21:0.17073171 22:2.6666667 23:0.13333334 
-0.3688893873558119 4:22 5:0.77272725 6:1 7:3 8:0.090909064 9:0.22727275 10:0.5454545 11:0.13636363 12:51 13:0.36363637 14:1 15:0.63043475 16:46 17:0.17391306 18:0.32608694 19:0.3043478 20:0.19565219 21:0.17647059 23:0.11538462 
-0.9909664956879626 1:2 2:1 3:10 4:22 5:0.40909094 8:0.13636363 9:0.22727275 10:0.18181819 11:0.45454544 12:48 13:0.023255814 14:3 15:0.52380955 16:63 17:0.2063492 18:0.23809522 19:0.28571427 20:0.26984125 21:0.084745765 22:1.125 24:0.25 
-0.2492593901938149 1:2 2:2 3:15 4:23 5:0.5909091 6:1 7:1 8:0.22727275 9:0.3181818 10:0.27272725 11:0.18181819 12:1 13:0.022222223 15:0.56 16:75 17:0.18666667 18:0.25333333 19:0.30666667 20:0.25333333 21:0.070422538 22:1 24:0.15384616 
-0.04964799754227827 4:22 5:0.6363636 6:2 7:3 8:0.3181818 9:0.27272725 10:0.36363637 11:0.04545456 12:31 13:0.23809524 14:3 15:0.6590909 16:44 17:0.20454544 18:0.3181818 19:0.34090906 20:0.13636363 21:0.2 22:0.85714287 23:0.2 
-0.3144857848087566 1:4 2:1 3:11 4:22 5:0.5 8:0.36363637 9:0.090909064 10:0.40909094 11:0.13636363 12:1 13:0.045454547 15:0.49275362 16:69 17:0.24637681 18:0.20289856 19:0.28985506 20:0.26086956 21:0.13846155 22:1.4285715 24:0.33333334 
-1 3:3 4:25 5:0.48000002 6:1 7:1 8:0.48000002 9:0.12000001 10:0.36 11:0.04000002 12:6 13:0.12 14:2 15:0.45762712 16:59 17:0.2711864 18:0.1864407 19:0.2711864 20:0.2711864 21:0.16363636 22:2.5 24:0.60000002 
-0.05258779493039317 4:23 5:0.75 6:3 7:3 8:0.10000002 9:0.14999998 10:0.6 11:0.14999998 12:16 13:0.2857143 14:3 15:0.627907 16:43 17:0.18604654 18:0.25581396 19:0.37209302 20:0.18604654 21:0.21052632 22:1.3333334 23:0.06666667 
-0.8779529699970968 3:2 4:29 5:0.5416666 6:3 7:3 8:0.25 9:0.3333333 10:0.20833331 11:0.20833331 12:38 13:0.13725491 14:3 15:0.5737705 16:61 17:0.19672132 18:0.27868855 19:0.29508197 20:0.22950822 21:0.12727273 22:0.83333331 
-0.1957701542830645 4:23 5:0.5217391 6:3 7:2 8:0.21739131 9:0.26086956 10:0.26086956 11:0.26086956 12:9 13:0.19047619 14:3 15:0.5454545 16:44 17:0.20454544 18:0.25 19:0.29545456 20:0.25 21:0.10526316 22:1.6666666 23:0.06666667 
-0.2630272787634242 4:22 5:0.5909091 6:3 7:4 8:0.18181819 9:0.36363637 10:0.22727275 11:0.22727275 12:39 13:0.33333334 15:0.5813954 16:43 17:0.16279072 18:0.25581396 19:0.32558137 20:0.25581396 21:0.2631579 22:1 23:0.11764706 
-0.005934696822419703 4:22 5:0.5454545 6:3 7:4 8:0.22727275 9:0.36363637 10:0.18181819 11:0.22727275 12:40 13:0.2857143 14:4 15:0.5555556 16:45 17:0.17777777 18:0.24444443 19:0.3111111 20:0.26666665 21:0.25 22:1 23:0.125 
-0.08847508499711987 3:1 4:25 5:0.86956525 6:2 7:3 8:0.0869565 9:0.43478262 10:0.43478262 11:0.04347825 12:37 13:0.23404256 14:2 15:0.8181818 16:55 17:0.10909092 18:0.36363637 19:0.45454544 20:0.07272726 21:0.22448979 22:0.5 23:0.11111111 
-0.3836654636904204 4:27 5:0.5909091 6:3 7:3 8:0.18181819 9:0.3181818 10:0.27272725 11:0.22727275 12:32 13:0.22448979 15:0.5510204 16:49 17:0.20408165 18:0.24489796 19:0.30612242 20:0.24489796 21:0.15555556 22:0.18181819 
-0.4921183457227402 4:21 5:0.47619045 6:3 7:2 8:0.23809522 9:0.23809522 10:0.23809522 11:0.28571427 12:11 13:0.23076923 14:2 15:0.5128205 16:39 17:0.2051282 18:0.23076922 19:0.28205127 20:0.28205127 21:0.14285715 22:5.5 23:0.11111111 
-0.982586253213218 1:2 2:1 3:10 4:22 5:0.5909091 6:2 7:1 8:0.18181819 9:0.18181819 10:0.40909094 11:0.22727275 12:45 13:0.2631579 14:3 15:0.6229508 16:61 17:0.16393441 18:0.29508197 19:0.32786888 20:0.21311474 21:0.24137931 24:0.2 
-0.4548144836610331 4:21 5:0.4285714 6:6 7:2 8:0.23809522 9:0.19047618 10:0.23809522 11:0.3333333 12:34 13:0.33333334 15:0.5405406 16:37 17:0.2162162 18:0.2162162 19:0.3243243 20:0.24324322 21:0.29411766 22:0.40000001 23:0.11764706 
-0.1104287531189962 3:11 4:20 5:0.45 6:3 7:3 8:0.050000012 9:0.3 10:0.14999998 11:0.5 12:4 13:0.1891892 14:3 15:0.47142857 16:70 17:0.22857141 18:0.24285716 19:0.22857141 20:0.3 21:0.11864407 22:0.42857143 
-0.9784448359236203 3:1 4:20 5:0.45 6:1 7:2 8:0.14999998 9:0.19999999 10:0.25 11:0.39999998 12:14 13:0.07692308 14:1 15:0.4423077 16:52 17:0.25 18:0.21153843 19:0.23076922 20:0.3076923 21:0.073170729 22:0.75 23:0.16666667 
-1 1:1 2:1 3:9 4:22 5:0.5454545 6:2 7:2 8:0.18181819 9:0.40909094 10:0.13636363 11:0.27272725 12:3 13:0.20930232 14:4 15:0.45901638 16:61 17:0.21311474 18:0.22950822 19:0.22950822 20:0.32786888 21:0.24137931 22:2 24:0.33333334 
-1 1:2 2:1 3:7 4:22 5:0.6818182 6:2 7:3 8:0.18181819 9:0.3181818 10:0.36363637 11:0.13636363 12:43 13:0.20930232 14:4 15:0.5483871 16:62 17:0.2096774 18:0.30645162 19:0.24193549 20:0.24193549 21:0.21428572 22:1.5 24:0.23076923 
-0.9467391547620206 3:1 4:23 5:0.5 6:2 7:3 8:0.22727275 9:0.22727275 10:0.27272725 11:0.27272725 12:8 13:0.18181819 14:4 15:0.46153843 16:52 17:0.25 18:0.21153843 19:0.25 20:0.28846157 21:0.17391305 22:1.4285715 
-0.01308959362475582 1:1 2:2 3:11 4:23 5:0.5909091 6:1 7:2 8:0.090909064 9:0.36363637 10:0.22727275 11:0.3181818 12:2 13:0.06666667 14:2 15:0.5584415 16:77 17:0.18181819 18:0.23376626 19:0.32467532 20:0.25974023 21:0.10447761 22:1 24:0.18181819 
-1 1:3 2:1 3:10 4:22 5:0.6818182 6:1 7:4 8:0.22727275 9:0.22727275 10:0.45454544 11:0.090909064 12:51 13:0.17073171 14:2 15:0.6911765 16:68 17:0.13235295 18:0.33823532 19:0.35294116 20:0.17647058 21:0.18644068 22:1 23:0.14285715 24:0.22222222 
-1 4:26 5:0.6666666 6:3 7:5 8:0.16666669 9:0.4166667 10:0.25 11:0.16666669 12:11 13:0.25 14:2 15:0.6727273 16:55 17:0.14545453 18:0.3272727 19:0.34545457 20:0.18181819 21:0.2173913 22:1.1428572 23:0.1 
-0.4369984396389973 3:1 4:24 5:0.4583333 6:2 7:2 8:0.20833331 9:0.125 10:0.3333333 11:0.3333333 12:35 13:0.16666667 14:4 15:0.4259259 16:54 17:0.2962963 18:0.1851852 19:0.24074072 20:0.2777778 21:0.16 22:1.5 
-0.3526481663429146 4:20 5:0.35000002 6:1 7:2 8:0.39999998 9:0.10000002 10:0.25 11:0.25 12:32 13:0.2 15:0.35000002 16:40 17:0.35000002 18:0.14999998 19:0.19999999 20:0.3 21:0.11111111 22:0.18181819 23:0.18181819 
-0.06833629130171222 4:22 5:0.36363637 6:2 7:3 8:0.3181818 9:0.090909064 10:0.27272725 11:0.3181818 12:32 13:0.14285715 14:4 15:0.42553192 16:47 17:0.27659577 18:0.23404253 19:0.19148934 20:0.29787236 21:0.14285715 22:1.125 
-0.1235799346630914 4:24 5:0.47826087 6:1 7:2 8:0.21739131 9:0.21739131 10:0.26086956 11:0.3043478 12:36 13:0.26086956 15:0.5531915 16:47 17:0.17021275 18:0.25531918 19:0.29787236 20:0.27659577 21:0.055555556 23:0.45454547 
-0.5977676980486617 3:5 4:23 5:0.72727275 6:2 7:2 8:0.13636363 9:0.27272725 10:0.45454544 11:0.13636363 12:1 13:0.2 15:0.6818182 16:66 17:0.13636363 18:0.2878788 19:0.39393938 20:0.18181819 21:0.2 22:1.375 24:0.2 
-0.7846920008005207 3:5 4:22 5:0.71428573 6:2 7:2 8:0.14285713 9:0.23809522 10:0.47619045 11:0.14285713 12:2 13:0.20930232 14:3 15:0.671875 16:64 17:0.140625 18:0.28125 19:0.390625 20:0.1875 21:0.20754717 22:1.375 24:0.2 
-1 1:1 2:1 3:7 4:24 5:0.5652174 6:2 7:4 8:0.13043481 9:0.34782606 10:0.21739131 11:0.3043478 12:48 13:0.19148937 14:3 15:0.49275362 16:69 17:0.23188406 18:0.20289856 19:0.28985506 20:0.2753623 21:0.18032786 22:1.25 24:0.14285715 
-0.0462068525241511 4:22 5:0.7619048 6:4 7:3 8:0.14285713 9:0.19047618 10:0.57142854 11:0.09523809 12:35 13:0.2682927 14:4 15:0.7045455 16:44 17:0.15909094 18:0.25 19:0.45454544 20:0.13636363 21:0.23076923 22:0.81818181 23:0.090909094 
-0.1050056055998177 4:21 5:0.8 6:4 7:3 8:0.14999998 9:0.19999999 10:0.6 11:0.050000012 12:35 13:0.2820513 14:4 15:0.71428573 16:42 17:0.16666669 18:0.26190478 19:0.45238096 20:0.11904764 21:0.24324325 22:1 23:0.083333336 
-0.001994025972738896 4:25 5:0.6818182 6:3 7:4 8:0.090909064 9:0.3181818 10:0.36363637 11:0.22727275 12:35 13:0.27659574 15:0.6382979 16:47 17:0.12765956 18:0.34042555 19:0.29787236 20:0.23404253 21:0.20930232 22:0.5 23:0.11111111 
-0.2315322083568434 4:22 5:0.47619045 6:3 7:3 8:0.19047618 9:0.09523809 10:0.38095236 11:0.3333333 12:16 13:0.33333334 14:3 15:0.44186044 16:43 17:0.2093023 18:0.2093023 19:0.23255813 20:0.3488372 21:0.30000001 22:0.5714286 23:0.11111111 
-0.619108965858102 3:4 4:22 5:0.36363637 6:2 7:3 8:0.45454544 9:0.04545456 10:0.3181818 11:0.18181819 12:40 13:0.19047619 14:4 15:0.43333334 16:60 17:0.23333335 18:0.19999999 19:0.23333335 20:0.3333333 21:0.16 22:1.3333334 
-1 3:1 4:25 5:0.6666666 6:2 7:4 8:0.08333331 9:0.375 10:0.2916667 11:0.25 12:6 13:0.18367347 14:1 15:0.63793105 16:58 17:0.15517241 18:0.29310346 19:0.3448276 20:0.20689654 21:0.17647059 22:0.8888889 
-0.9439640394677354 3:5 4:22 5:0.45454544 6:2 7:3 8:0.3181818 9:0.22727275 10:0.22727275 11:0.22727275 12:43 13:0.25581396 14:3 15:0.4310345 16:58 17:0.29310346 18:0.2241379 19:0.20689654 20:0.2758621 21:0.23076923 22:0.40000001 23:0.16666667 24:0.11111111 
-0.08036357254764069 4:22 5:0.5909091 6:2 7:4 8:0.04545456 9:0.18181819 10:0.40909094 11:0.36363637 12:12 13:0.40909091 14:3 15:0.5909091 16:44 17:0.11363637 18:0.22727275 19:0.36363637 20:0.29545456 21:0.27777779 23:0.047619049 
-0.3349148580623172 1:2 2:2 3:17 4:23 5:0.5652174 6:3 7:2 8:0.13043481 9:0.17391306 10:0.39130437 11:0.3043478 12:67 13:0.24444444 14:3 15:0.4588235 16:85 17:0.2235294 18:0.2235294 19:0.2352941 20:0.31764704 21:0.21518987 22:0.75 23:0.25 24:0.17647059 
-0.5646493272081894 1:2 2:3 3:23 4:21 5:0.57142854 6:3 7:3 8:0.19047618 9:0.23809522 10:0.3333333 11:0.23809522 12:73 13:0.23809524 14:4 15:0.4516129 16:93 17:0.23655915 18:0.21505374 19:0.23655915 20:0.31182796 21:0.21839081 22:1 24:0.2 
-0.1219134066974832 4:23 5:0.6363636 6:2 7:5 8:0.13636363 9:0.40909094 10:0.22727275 11:0.22727275 12:36 13:0.24444444 14:1 15:0.5510204 16:49 17:0.20408165 18:0.22448981 19:0.32653064 20:0.24489796 21:0.24444444 22:0.875 
-1 1:2 2:1 3:8 4:21 5:0.57142854 6:1 7:3 8:0.19047618 9:0.3333333 10:0.23809522 11:0.23809522 12:48 13:0.19047619 14:2 15:0.5833334 16:60 17:0.21666664 18:0.3333333 19:0.25 20:0.19999999 21:0.21428572 22:1.25 24:0.2857143 
-0.8426096671263607 1:2 2:2 3:10 4:21 5:0.61904764 6:1 7:4 8:0.23809522 9:0.28571427 10:0.3333333 11:0.14285713 12:7 13:0.19047619 14:2 15:0.609375 16:64 17:0.203125 18:0.34375 19:0.265625 20:0.1875 21:0.2 22:1.125 24:0.22222222 
-0.6204693601585817 3:6 4:22 5:0.5 6:1 7:3 8:0.18181819 9:0.13636363 10:0.36363637 11:0.3181818 12:57 13:0.22727273 14:4 15:0.46268654 16:67 17:0.16417909 18:0.20895523 19:0.25373137 20:0.37313432 21:0.17857143 22:0.875 23:0.13043478 
-0.3043996710110478 3:3 4:29 5:0.625 6:2 7:3 8:0.16666669 9:0.3333333 10:0.2916667 11:0.20833331 12:53 13:0.20754717 14:1 15:0.5396825 16:63 17:0.23809522 18:0.26984125 19:0.26984125 20:0.22222221 21:0.22033899 22:2.5 23:0.30769232 24:0.33333334 
-0.3767408400956834 1:2 2:3 3:19 4:21 5:0.5 6:4 7:3 8:0.2777778 9:0.2777778 10:0.22222221 11:0.22222221 12:67 13:0.2820513 14:1 15:0.56962025 16:79 17:0.22784811 18:0.278481 19:0.29113925 20:0.20253164 21:0.22666667 22:0.5 23:0.40000001 24:0.16666667 
-0.1168013138698267 1:1 2:1 3:11 4:21 5:0.47619045 6:2 7:1 8:0.23809522 9:0.14285713 10:0.3333333 11:0.28571427 12:3 13:0.23809524 14:2 15:0.4861111 16:72 17:0.22222221 18:0.20833331 19:0.2777778 20:0.2916667 21:0.1875 22:3.3333333 24:0.090909094 
-0.1993728305898856 1:1 2:1 3:10 4:22 5:0.5454545 6:3 7:2 8:0.090909064 9:0.27272725 10:0.27272725 11:0.36363637 12:53 13:0.22727273 14:2 15:0.4861111 16:72 17:0.22222221 18:0.20833331 19:0.2777778 20:0.2916667 21:0.1875 22:0.2 24:0.1 
-0.9782772964188114 1:1 2:1 3:5 4:22 5:0.77272725 6:2 7:4 8:0.090909064 9:0.36363637 10:0.40909094 11:0.13636363 12:43 13:0.23809524 14:3 15:0.60714287 16:56 17:0.10714287 18:0.25 19:0.35714287 20:0.28571427 21:0.26923078 22:0.75 23:0.125 24:0.40000001 
-0.4652813584474032 1:1 2:1 3:4 4:26 5:0.6666666 6:2 7:4 8:0.041666687 9:0.2916667 10:0.375 11:0.2916667 12:6 13:0.23999999 14:1 15:0.61290324 16:62 17:0.11290324 18:0.2580645 19:0.35483873 20:0.27419353 21:0.24137931 22:3.3333333 23:0.2 24:0.25 
-0.06345651430538563 1:1 2:1 3:9 4:22 5:0.5909091 6:2 7:4 8:0.090909064 9:0.36363637 10:0.22727275 11:0.3181818 12:6 13:0.22727273 14:4 15:0.53424656 16:73 17:0.1917808 18:0.24657536 19:0.2876712 20:0.27397263 21:0.18032786 22:1.125 23:0.27272728 24:0.05882353 
-0.1409103682213353 3:6 4:22 5:0.6363636 6:2 7:3 8:0.22727275 9:0.27272725 10:0.36363637 11:0.13636363 12:4 13:0.18181819 14:2 15:0.609375 16:64 17:0.109375 18:0.265625 19:0.34375 20:0.28125 21:0.17857143 22:0.5 24:0.16666667 
-0.3877882795152187 4:22 5:0.36363637 6:1 7:2 8:0.22727275 9:0.13636363 10:0.22727275 11:0.40909094 12:39 13:0.090909094 14:4 15:0.38181818 16:55 17:0.2909091 18:0.18181819 19:0.19999999 20:0.3272727 21:0.090909094 22:1.5 
-0.5837917373494004 1:2 2:1 3:12 4:24 5:0.5909091 6:1 7:4 8:0.090909064 9:0.18181819 10:0.40909094 11:0.3181818 12:2 13:0.13043478 14:3 15:0.5405406 16:74 17:0.2162162 18:0.22972971 19:0.3108108 20:0.24324322 21:0.11764706 22:1.25 24:0.090909094 
-0.9448225400026788 1:2 2:1 3:8 4:25 5:0.6086956 6:1 7:4 8:0.0869565 9:0.17391306 10:0.43478262 11:0.3043478 12:5 13:0.125 14:2 15:0.5441177 16:68 17:0.2205882 18:0.2352941 19:0.30882353 20:0.2352941 21:0.12903225 22:1.1111112 24:0.14285715 
-0.3879975434927485 1:3 2:1 3:10 4:27 5:0.625 6:3 7:5 8:0.20833331 9:0.3333333 10:0.2916667 11:0.16666669 12:59 13:0.21568628 14:1 15:0.5333333 16:75 17:0.22666669 18:0.25333333 19:0.27999997 20:0.24000001 21:0.23943663 22:1.5 23:0.2857143 24:0.30000001 
-0.4460859948561227 1:2 2:2 3:11 4:23 5:0.39130437 6:4 7:2 8:0.3043478 9:0.13043481 10:0.26086956 11:0.3043478 12:1 13:0.20930232 15:0.469697 16:66 17:0.22727275 18:0.22727275 19:0.24242425 20:0.3030303 21:0.20634921 22:0.89999998 24:0.2 
-0.05435532730695074 4:25 5:0.52380955 6:2 7:3 8:0.28571427 9:0.28571427 10:0.23809522 11:0.19047618 12:38 13:0.13043478 14:4 15:0.53061223 16:49 17:0.20408165 18:0.26530612 19:0.26530612 20:0.26530612 21:0.13043478 22:0.60000002 23:0.41176471 
-0.0489675634903329 1:2 2:2 3:14 4:23 5:0.6666666 6:2 7:4 8:0.23809522 9:0.23809522 10:0.4285714 11:0.09523809 12:60 13:0.18181819 14:3 15:0.6849315 16:73 17:0.1917808 18:0.31506848 19:0.36986303 20:0.12328768 21:0.17142858 22:0.54545456 23:0.23076923 24:0.15384616 
-1 1:2 2:4 3:20 4:23 5:0.6086956 6:2 7:4 8:0.17391306 9:0.34782606 10:0.26086956 11:0.21739131 12:2 13:0.1627907 14:2 15:0.6547619 16:84 17:0.20238096 18:0.30952382 19:0.3452381 20:0.14285713 21:0.18518518 22:0.5 24:0.21052632 
-1 3:2 4:24 5:0.6521739 6:2 7:4 8:0.21739131 9:0.34782606 10:0.3043478 11:0.13043481 12:19 13:0.17391305 14:2 15:0.6415094 16:53 17:0.2264151 18:0.3018868 19:0.33962262 20:0.13207549 21:0.16 22:2 23:0.21212122 
-0.8337127438490635 1:1 2:2 3:11 4:25 5:0.4166667 6:2 7:4 8:0.20833331 9:0.125 10:0.2916667 11:0.375 12:47 13:0.22727273 14:3 15:0.48571426 16:70 17:0.27142859 18:0.22857141 19:0.25714284 20:0.24285716 21:0.2 22:1.75 24:0.14285715 
-1 1:2 2:1 3:5 4:23 5:0.8095238 6:1 7:4 8:0.09523809 9:0.52380955 10:0.28571427 11:0.09523809 12:7 13:0.18181819 14:3 15:0.7017544 16:57 17:0.07017541 18:0.3333333 19:0.36842108 20:0.2280702 21:0.24528302 22:1.7142857 24:0.55555558 
-0.07979049716895378 4:24 5:0.71428573 6:3 7:3 8:0.19047618 9:0.38095236 10:0.3333333 11:0.09523809 12:39 13:0.2888889 14:4 15:0.6734694 16:49 17:0.12244898 18:0.3469388 19:0.32653064 20:0.20408165 21:0.2888889 22:1.6 23:0.14285715 
-1 3:5 4:26 5:0.4583333 6:1 7:1 8:0.375 9:0.16666669 10:0.2916667 11:0.16666669 12:46 13:0.22448979 14:4 15:0.52380955 16:63 17:0.22222221 18:0.22222221 19:0.30158728 20:0.25396824 21:0.20689656 24:0.11111111 
-0.3092082849956759 1:1 2:1 3:13 4:23 5:0.45454544 6:2 7:3 8:0.22727275 9:0.27272725 10:0.18181819 11:0.3181818 12:70 13:0.2 14:1 15:0.45945948 16:74 17:0.22972971 18:0.16216218 19:0.2972973 20:0.3108108 21:0.17142858 22:0.80000001 23:0.5 24:0.12 
-0.5896765184564939 1:2 2:5 3:30 4:22 5:0.5454545 6:8 7:2 8:0.27272725 9:0.18181819 10:0.36363637 11:0.18181819 12:2 13:0.36842105 14:4 15:0.47000003 16:100 17:0.23000002 18:0.18 19:0.29000002 20:0.3 21:0.27083334 22:0.8888889 24:0.20689656 
-0.09849440871582715 1:1 2:1 3:16 4:22 5:0.5909091 6:1 7:4 8:0.090909064 9:0.090909064 10:0.5 11:0.3181818 12:62 13:0.14285715 14:2 15:0.55421686 16:83 17:0.1686747 18:0.26506025 19:0.28915662 20:0.27710843 21:0.1891892 22:1.375 24:0.25 
-1 3:1 4:24 5:0.625 6:2 7:1 8:0.2916667 9:0.20833331 10:0.4166667 11:0.08333331 12:42 13:0.083333336 14:2 15:0.60655737 16:61 17:0.16393441 18:0.27868855 19:0.32786888 20:0.22950822 21:0.079999998 22:1.2222222 
-0.02687439769657331 4:24 5:0.75 6:2 7:1 8:0.16666669 9:0.20833331 10:0.5416666 11:0.08333331 12:37 13:0.25 14:4 15:0.6862745 16:51 17:0.11764705 18:0.31372547 19:0.372549 20:0.19607842 21:0.1 
-0.3069763064228084 4:22 5:0.5454545 6:1 7:2 8:0.27272725 9:0.27272725 10:0.27272725 11:0.18181819 12:7 13:0.20930232 14:1 15:0.6153846 16:52 17:0.21153843 18:0.3076923 19:0.3076923 20:0.17307693 21:0.081081077 22:5 23:0.16666667 
-0.1034465702265762 1:1 2:2 3:10 4:22 5:0.72727275 6:3 7:3 8:0.04545456 9:0.27272725 10:0.45454544 11:0.22727275 12:7 13:0.17948718 14:3 15:0.63235295 16:68 17:0.17647058 18:0.35294116 19:0.2794118 20:0.19117647 21:0.1724138 22:0.66666669 24:0.15789473 
-1 3:2 4:25 5:0.5416666 6:2 7:3 8:0.3333333 9:0.20833331 10:0.3333333 11:0.125 12:45 13:0.125 14:2 15:0.53125 16:64 17:0.1875 18:0.234375 19:0.296875 20:0.28125 21:0.11538462 22:1.1111112 
-0.5207516648443692 3:2 4:28 5:0.45454544 6:3 7:3 8:0.27272725 9:0.27272725 10:0.18181819 11:0.27272725 12:44 13:0.2 14:4 15:0.4915254 16:59 17:0.2711864 18:0.20338982 19:0.2881356 20:0.23728812 21:0.18518518 22:2.5 
-0.7231099739897434 3:2 4:26 5:0.5 6:3 7:3 8:0.13636363 9:0.27272725 10:0.22727275 11:0.36363637 12:41 13:0.19148937 14:3 15:0.46666664 16:60 17:0.26666665 18:0.21666664 19:0.25 20:0.26666665 21:0.17647059 22:0.5 
-0.04032456493892908 1:2 2:2 3:16 4:22 5:0.5909091 6:2 7:3 8:0.22727275 9:0.27272725 10:0.3181818 11:0.18181819 12:62 13:0.19047619 14:4 15:0.4375 16:80 17:0.3125 18:0.23750001 19:0.19999999 20:0.25 21:0.21621622 22:1.1428572 24:0.25 
-0.432190534196695 1:1 2:2 3:14 4:23 5:0.8636364 6:1 7:2 8:0.04545456 9:0.45454544 10:0.40909094 11:0.090909064 12:12 13:0.06666667 14:3 15:0.7375 16:80 17:0.10000002 18:0.3125 19:0.425 20:0.16250002 21:0.083333336 22:0.81818181 23:0.36363637 24:0.11111111 
-1 3:5 4:22 5:0.72727275 6:2 7:3 8:0.18181819 9:0.3181818 10:0.40909094 11:0.090909064 12:40 13:0.22727273 14:3 15:0.5833334 16:60 17:0.13333333 18:0.25 19:0.3333333 20:0.28333336 21:0.2962963 22:1 24:0.60000002 
-0.7289502909397257 1:1 2:1 3:5 4:27 5:0.5217391 6:2 7:2 8:0.3043478 9:0.26086956 10:0.26086956 11:0.17391306 12:47 13:0.079999998 14:4 15:0.49206346 16:63 17:0.2063492 18:0.2063492 19:0.28571427 20:0.30158728 21:0.084745765 22:1.1111112 24:0.11111111 
-0.3609037977372649 1:1 2:1 3:14 4:21 5:0.47619045 6:2 7:2 8:0.23809522 9:0.19047618 10:0.28571427 11:0.28571427 12:4 13:0.10526316 14:4 15:0.47826087 16:69 17:0.21739131 18:0.20289856 19:0.2753623 20:0.3043478 21:0.07692308 22:1.5 24:0.037037037 
-0.1352778487464781 4:21 5:0.71428573 6:1 7:3 8:0.09523809 9:0.52380955 10:0.19047618 11:0.19047618 12:33 13:0.2682927 14:4 15:0.6363636 16:44 17:0.11363637 18:0.3181818 19:0.3181818 20:0.25 21:0.14285715 22:0.375 
-0.4578616851536114 4:21 5:0.52380955 6:2 7:2 8:0.38095236 9:0.38095236 10:0.14285713 11:0.09523809 12:56 13:0.12195122 14:3 15:0.4716981 16:53 17:0.26415092 18:0.20754719 19:0.26415092 20:0.26415092 21:0.12195122 22:0.89999998 23:0.42222223 
-0.6154552421504471 1:2 2:2 3:22 4:23 5:0.5454545 6:6 7:4 8:0.18181819 9:0.13636363 10:0.40909094 11:0.27272725 12:1 13:0.44186047 15:0.52040815 16:98 17:0.20408165 18:0.24489796 19:0.2755102 20:0.2755102 21:0.27906978 22:1 24:0.11627907 
-0.7424014888382624 3:2 4:21 5:0.47619045 6:2 7:2 8:0.14285713 9:0.23809522 10:0.23809522 11:0.38095236 12:5 13:0.19047619 14:1 15:0.5490196 16:51 17:0.21568626 18:0.25490195 19:0.29411763 20:0.2352941 21:0.17391305 22:1.1111112 
-0.1913723642890983 1:3 2:1 3:8 4:20 5:0.39999998 6:2 7:3 8:0.25 9:0.19999999 10:0.19999999 11:0.35000002 12:44 13:0.23076923 14:3 15:0.4137931 16:58 17:0.25862068 18:0.2241379 19:0.18965518 20:0.32758623 21:0.25925925 22:2 23:0.2 24:0.33333334 
-1 1:1 2:1 3:4 4:25 5:0.5217391 6:2 7:3 8:0.3043478 9:0.3043478 10:0.21739131 11:0.17391306 12:52 13:0.16666667 14:3 15:0.5645161 16:62 17:0.16129035 18:0.24193549 19:0.32258064 20:0.27419353 21:0.16363636 22:0.69999999 23:0.16666667 24:0.14285715 
-0.05401287993042233 4:24 5:0.52380955 6:2 7:3 8:0.28571427 9:0.3333333 10:0.19047618 11:0.19047618 12:48 13:0.2 14:4 15:0.53999996 16:50 17:0.16000003 18:0.24000001 19:0.3 20:0.3 21:0.1627907 22:0.625 23:0.16666667 
-0.2021353839747722 4:23 5:0.45454544 6:3 7:3 8:0.18181819 9:0.27272725 10:0.18181819 11:0.36363637 12:47 13:0.27272728 14:1 15:0.45098037 16:51 17:0.2745098 18:0.21568626 19:0.2352941 20:0.2745098 21:0.2 22:0.45454547 23:0.27777779 
-0.05154557151905713 3:5 4:24 5:0.43478262 6:2 7:4 8:0.21739131 9:0.17391306 10:0.26086956 11:0.34782606 12:10 13:0.27659574 14:2 15:0.43283582 16:67 17:0.25373137 18:0.19402987 19:0.23880595 20:0.3134328 21:0.25 22:0.80000001 23:0.2 24:0.11111111 
-0.7964285282650748 4:22 5:0.5909091 6:3 7:3 8:0.18181819 9:0.3181818 10:0.27272725 11:0.22727275 12:10 13:0.22727273 14:1 15:0.5769231 16:52 17:0.11538464 18:0.28846157 19:0.28846157 20:0.3076923 21:0.22727273 22:1.1 23:0.22222222 
-1 1:1 2:2 3:8 4:23 5:0.5909091 6:4 7:5 8:0.22727275 9:0.27272725 10:0.3181818 11:0.18181819 12:54 13:0.31818181 14:2 15:0.5625 16:64 17:0.1875 18:0.25 19:0.3125 20:0.25 21:0.28813559 22:0.5714286 23:0.090909094 24:0.2 
-0.4620203370095652 1:4 2:3 3:15 4:23 5:0.6521739 6:1 7:5 8:0.17391306 9:0.34782606 10:0.3043478 11:0.17391306 12:5 13:0.2 14:4 15:0.56410253 16:78 17:0.17948717 18:0.25641024 19:0.3076923 20:0.25641024 21:0.26027396 22:1.25 24:0.35714287 
-0.5091169265425266 1:1 2:2 3:16 4:23 5:0.5 6:2 7:3 8:0.27272725 9:0.18181819 10:0.3181818 11:0.22727275 12:2 13:0.24444444 14:4 15:0.4878049 16:82 17:0.15853661 18:0.20731705 19:0.28048778 20:0.35365856 21:0.23684211 22:0.85714287 24:0.22580644 
-0.1810930828409965 4:22 5:0.40909094 6:3 7:3 8:0.22727275 9:0.18181819 10:0.22727275 11:0.36363637 12:21 13:0.3488372 14:4 15:0.46511626 16:43 17:0.16279072 18:0.18604654 19:0.27906978 20:0.37209302 21:0.24324325 22:2.5 23:0.21951219 
-0.5618924114434709 1:1 2:3 3:19 4:22 5:0.5909091 6:2 7:3 8:0.13636363 9:0.3181818 10:0.27272725 11:0.27272725 12:80 13:0.23809524 14:2 15:0.5119048 16:84 17:0.1785714 18:0.25 19:0.26190478 20:0.30952382 21:0.2 22:1.125 23:0.37142858 24:0.15789473 
-0.6937354213408254 3:2 4:22 5:0.40909094 6:1 7:2 8:0.27272725 9:0.27272725 10:0.13636363 11:0.3181818 12:33 13:0.13636364 14:2 15:0.42307693 16:52 17:0.23076922 18:0.19230771 19:0.23076922 20:0.34615386 21:0.125 22:1.2857143 23:0.34328359 
-1 1:7 2:1 3:17 4:22 5:0.6818182 6:1 7:5 8:0.13636363 9:0.3181818 10:0.36363637 11:0.18181819 12:62 13:0.31818181 14:3 15:0.56 16:75 17:0.19999999 18:0.27999997 19:0.27999997 20:0.24000001 21:0.29577464 22:0.75 23:0.125 24:0.25925925 
-0.5536529623829125 4:22 5:0.40909094 6:9 7:2 8:0.27272725 9:0.13636363 10:0.27272725 11:0.3181818 12:46 13:0.42857143 14:3 15:0.5263158 16:38 17:0.15789473 18:0.2368421 19:0.2894737 20:0.31578946 21:0.3548387 22:0.66666669 23:0.13793103 
-0.5748714900260973 4:31 5:0.8181818 6:9 7:3 8:0.04545456 9:0.36363637 10:0.45454544 11:0.13636363 12:20 13:0.28301886 14:4 15:0.5862069 16:58 17:0.15517241 18:0.2758621 19:0.31034482 20:0.25862068 21:0.25490198 22:1.3333334 23:0.15789473 
-0.372881454653442 3:4 4:21 5:0.47619045 6:1 7:1 8:0.38095236 9:0.23809522 10:0.23809522 11:0.14285713 12:38 13:0.48387095 14:4 15:0.5952381 16:42 17:0.28571427 18:0.35714287 19:0.23809522 20:0.11904764 21:0.42105263 23:0.1875 24:0.14285715 
-1 1:2 2:1 3:7 4:22 5:0.5909091 6:2 7:2 8:0.22727275 9:0.22727275 10:0.36363637 11:0.18181819 12:53 13:0.13636364 14:4 15:0.55737704 16:61 17:0.19672132 18:0.27868855 19:0.27868855 20:0.24590164 21:0.15789473 22:1.25 23:0.25 24:0.23076923 
-0.05480548196518834 4:22 5:0.6363636 6:1 7:3 8:0.18181819 9:0.36363637 10:0.27272725 11:0.18181819 12:12 13:0.22727273 14:4 15:0.5909091 16:44 17:0.25 18:0.3181818 19:0.27272725 20:0.15909094 21:0.15000001 22:3.6666667 23:0.18181819 
