svm_type c_svc
kernel_type rbf
gamma 0.0416667
nr_class 2
total_sv 421
rho 0.430648
label 1 0
probA -9.40265
probB -5.6751
nr_sv 178 243
SV
0.9985556444886383 1:1 2:1 3:7 4:23 5:0.6521739 6:1 7:2 8:0.0869565 9:0.47826087 10:0.17391306 11:0.26086956 12:53 13:0.090909094 14:3 15:0.6721312 16:61 17:0.09836066 18:0.32786888 19:0.3442623 20:0.22950822 21:0.14285715 22:0.80000001 23:0.2 24:0.33333334 
1 3:4 4:23 5:0.39130437 6:2 7:2 8:0.17391306 9:0.21739131 10:0.17391306 11:0.43478262 12:4 13:0.15555556 14:4 15:0.42372882 16:59 17:0.23728812 18:0.16949153 19:0.2542373 20:0.33898306 21:0.24528302 22:0.25 24:0.75 
1 1:3 2:1 3:6 4:23 5:0.45454544 6:2 7:2 8:0.22727275 9:0.090909064 10:0.36363637 11:0.3181818 12:43 13:0.24444444 14:3 15:0.39682537 16:63 17:0.25396824 18:0.15873015 19:0.23809522 20:0.34920633 21:0.29824561 22:4.5 24:0.5 
1 3:1 4:22 5:0.6363636 6:4 7:2 8:0.13636363 9:0.40909094 10:0.22727275 11:0.22727275 12:7 13:0.27272728 14:3 15:0.6111111 16:54 17:0.2037037 18:0.3148148 19:0.2962963 20:0.1851852 21:0.26086956 22:0.8888889 
1 3:3 4:22 5:0.6363636 6:4 7:3 8:0.3181818 9:0.22727275 10:0.40909094 11:0.04545456 12:41 13:0.27272728 14:3 15:0.63793105 16:58 17:0.18965518 18:0.32758623 19:0.31034482 20:0.17241377 21:0.23999999 22:1.1111112 
1 3:5 4:21 5:0.57142854 6:2 7:3 8:0.3333333 9:0.047619045 10:0.52380955 11:0.09523809 12:17 13:0.2682927 14:2 15:0.5818182 16:55 17:0.23636365 18:0.34545457 19:0.23636365 20:0.18181819 21:0.31999999 22:2 23:0.22580644 24:0.55555558 
1 3:3 4:25 5:0.40909094 6:2 7:3 8:0.090909064 9:0.13636363 10:0.27272725 11:0.5 12:47 13:0.19148937 14:2 15:0.46551722 16:58 17:0.24137932 18:0.18965518 19:0.2758621 20:0.29310346 21:0.16981132 22:1 23:0.30000001 
1 3:5 4:22 5:0.47619045 6:2 7:2 8:0.19047618 9:0.28571427 10:0.19047618 11:0.3333333 12:21 13:0.11627907 14:2 15:0.5090909 16:55 17:0.23636365 18:0.25454545 19:0.25454545 20:0.25454545 21:0.1923077 22:1.125 23:0.31818181 24:0.55555558 
1 1:2 2:1 3:5 4:22 5:0.57142854 6:2 7:3 8:0.14285713 9:0.23809522 10:0.3333333 11:0.28571427 12:5 13:0.20930232 14:2 15:0.5 16:58 17:0.2241379 18:0.24137932 19:0.25862068 20:0.2758621 21:0.24528302 22:1 23:0.25 24:0.40000001 
1 1:2 2:1 3:7 4:23 5:0.6086956 6:2 7:4 8:0.26086956 9:0.3043478 10:0.3043478 11:0.13043481 12:43 13:0.24444444 14:3 15:0.546875 16:64 17:0.203125 18:0.28125 19:0.265625 20:0.25 21:0.25423729 22:0.875 24:0.2857143 
1 1:2 2:2 3:10 4:22 5:0.6363636 6:2 7:4 8:0.27272725 9:0.22727275 10:0.40909094 11:0.090909064 12:47 13:0.33333334 14:2 15:0.6060606 16:66 17:0.19696969 18:0.3333333 19:0.27272725 20:0.19696969 21:0.3442623 22:1 24:0.36842105 
1 4:22 5:0.5 6:2 7:3 8:0.19999999 9:0.3 10:0.19999999 11:0.3 12:14 13:0.14285715 14:2 15:0.46296299 16:54 17:0.22222221 18:0.24074072 19:0.22222221 20:0.3148148 21:0.14285715 22:1.125 23:0.18518518 
0.9664505029531734 3:6 4:22 5:0.45454544 6:3 7:2 8:0.27272725 9:0.18181819 10:0.27272725 11:0.27272725 12:18 13:0.1627907 14:3 15:0.45762712 16:59 17:0.23728812 18:0.20338982 19:0.2542373 20:0.30508476 21:0.16363636 22:1.5 23:0.27272728 24:0.16666667 
1 3:3 4:26 5:0.5909091 6:3 7:5 8:0.13636363 9:0.27272725 10:0.3181818 11:0.27272725 12:9 13:0.20833333 14:1 15:0.5862069 16:58 17:0.13793105 18:0.24137932 19:0.3448276 20:0.2758621 21:0.18518518 22:2.3333333 23:0.06666667 
1 1:3 2:2 3:13 4:22 5:0.71428573 6:1 7:4 8:0.14285713 9:0.23809522 10:0.47619045 11:0.14285713 12:51 13:0.1627907 14:2 15:0.6231884 16:69 17:0.13043481 18:0.26086956 19:0.3623188 20:0.24637681 21:0.16923077 22:1 24:0.18181819 
0.06214351961021997 3:1 4:23 5:0.5 6:1 7:2 8:0.40909094 9:0.18181819 10:0.3181818 11:0.090909064 12:22 13:0.06666667 14:3 15:0.4915254 16:59 17:0.23728812 18:0.2542373 19:0.23728812 20:0.2711864 21:0.063829787 22:0.89999998 23:0.3488372 
0.8988674915663512 3:3 4:23 5:0.5217391 6:1 7:2 8:0.0869565 9:0.26086956 10:0.26086956 11:0.39130437 12:60 13:0.090909094 14:1 15:0.5 16:62 17:0.22580647 18:0.2580645 19:0.24193549 20:0.27419353 21:0.079999998 22:1.2857143 23:0.34999999 
0.6776750751966437 1:3 2:1 3:9 4:21 5:0.61904764 6:2 7:1 8:0.09523809 9:0.57142854 10:0.047619045 11:0.28571427 12:54 13:0.14285715 14:4 15:0.60317457 16:63 17:0.17460316 18:0.25396824 19:0.34920633 20:0.22222221 21:0.20689656 22:1.25 23:0.13043478 24:0.375 
0.1566858435316319 1:3 2:2 3:10 4:23 5:0.72727275 6:2 7:6 8:0.13636363 9:0.45454544 10:0.27272725 11:0.13636363 12:47 13:0.2888889 14:3 15:0.7384615 16:65 17:0.09230769 18:0.39999998 19:0.33846152 20:0.16923076 21:0.29032257 22:1.3333334 24:0.29411766 
1 1:3 2:1 3:11 4:21 5:0.61904764 6:2 7:3 8:0.19047618 9:0.23809522 10:0.38095236 11:0.19047618 12:54 13:0.2682927 14:1 15:0.6 16:65 17:0.19999999 18:0.27692306 19:0.3230769 20:0.19999999 21:0.23333333 22:0.80000001 23:0.11111111 24:0.15789473 
1 4:24 5:0.5416666 6:2 7:5 8:0.16666669 9:0.375 10:0.16666669 11:0.2916667 12:9 13:0.2173913 14:2 15:0.5272727 16:55 17:0.14545453 18:0.25454545 19:0.27272725 20:0.3272727 21:0.2173913 22:0.77777779 23:0.16666667 
0.7040534293703666 1:1 2:1 3:5 4:23 5:0.5 6:1 7:4 8:0.090909064 9:0.13636363 10:0.36363637 11:0.40909094 12:46 13:0.2 14:4 15:0.5555556 16:63 17:0.12698412 18:0.26984125 19:0.28571427 20:0.3174603 21:0.22222222 22:0.875 24:0.33333334 
1 3:1 4:24 5:0.45454544 6:2 7:2 8:0.22727275 9:0.18181819 10:0.27272725 11:0.3181818 12:14 13:0.2173913 14:4 15:0.4918033 16:61 17:0.19672132 18:0.27868855 19:0.21311474 20:0.3114754 21:0.20833333 22:1.25 23:0.375 
1 3:3 4:23 5:0.45454544 6:2 7:4 8:0.3181818 9:0.27272725 10:0.18181819 11:0.22727275 12:6 13:0.2 14:4 15:0.4153846 16:65 17:0.26153845 18:0.19999999 19:0.2153846 20:0.3230769 21:0.17647059 22:1 23:0.40000001 
0.4844524713266671 3:2 4:24 5:0.4583333 6:2 7:3 8:0.16666669 9:0.08333331 10:0.375 11:0.375 12:20 13:0.24444444 14:1 15:0.4166667 16:60 17:0.25 18:0.23333335 19:0.18333334 20:0.3333333 21:0.22448979 22:0.42857143 23:0.2820513 
0.04589948806868965 1:2 2:1 3:9 4:22 5:0.61904764 6:2 7:4 8:0.047619045 9:0.52380955 10:0.09523809 11:0.3333333 12:50 13:0.20930232 14:2 15:0.61764705 16:68 17:0.14705884 18:0.2647059 19:0.35294116 20:0.2352941 21:0.2 22:0.77777779 24:0.17647059 
1 3:4 4:24 5:0.5909091 6:2 7:4 8:0.3181818 9:0.27272725 10:0.3181818 11:0.090909064 12:14 13:0.15555556 14:1 15:0.52542377 16:59 17:0.2711864 18:0.23728812 19:0.2881356 20:0.20338982 21:0.13207547 22:1 23:0.07692308 
1 3:8 4:23 5:0.5454545 6:1 7:4 8:0.27272725 9:0.18181819 10:0.36363637 11:0.18181819 12:54 13:0.1627907 14:3 15:0.515625 16:64 17:0.28125 18:0.234375 19:0.28125 20:0.203125 21:0.13793103 22:0.71428573 23:0.047619049 24:0.06666667 
1 1:2 2:1 3:9 4:22 5:0.5454545 6:2 7:3 8:0.04545456 9:0.40909094 10:0.13636363 11:0.40909094 12:6 13:0.17073171 14:1 15:0.5 16:60 17:0.21666664 18:0.28333336 19:0.21666664 20:0.28333336 21:0.19298245 22:0.66666669 23:0.2 24:0.25 
0.9190493310669786 1:2 2:1 3:8 4:25 5:0.5 6:2 7:3 8:0.45454544 9:0.18181819 10:0.3181818 11:0.04545456 12:46 13:0.23404256 14:1 15:0.5 16:64 17:0.21875 18:0.265625 19:0.234375 20:0.28125 21:0.21311475 22:1.1666666 24:0.14285715 
0.4262652282141902 3:5 4:24 5:0.6666666 6:1 7:2 8:0.2916667 9:0.4166667 10:0.25 11:0.041666687 12:14 13:0.086956523 14:4 15:0.56896555 16:58 17:0.18965518 18:0.2758621 19:0.29310346 20:0.24137932 21:0.11111111 22:0.75 23:0.23076923 24:0.25 
1 3:2 4:22 5:0.5454545 6:2 7:4 8:0.22727275 9:0.18181819 10:0.36363637 11:0.22727275 12:19 13:0.25581396 14:3 15:0.5 16:56 17:0.23214287 18:0.21428573 19:0.28571427 20:0.26785713 21:0.23404256 22:0.5714286 23:0.13333334 
0.3136432331749616 3:5 4:21 5:0.55 6:2 7:3 8:0.10000002 9:0.3 10:0.25 11:0.35000002 12:57 13:0.21951219 14:2 15:0.51666665 16:60 17:0.21666664 18:0.21666664 19:0.3 20:0.26666665 21:0.21568628 22:0.85714287 23:0.15384616 24:0.2 
1 1:1 2:1 3:8 4:22 5:0.45454544 6:2 7:3 8:0.3181818 9:0.18181819 10:0.27272725 11:0.22727275 12:15 13:0.20930232 14:4 15:0.44444442 16:63 17:0.22222221 18:0.17460316 19:0.26984125 20:0.3333333 21:0.20689656 22:1.125 23:0.2857143 24:0.2 
1 1:1 2:1 3:9 4:23 5:0.5 6:2 7:4 8:0.18181819 9:0.27272725 10:0.22727275 11:0.3181818 12:58 13:0.2 14:4 15:0.46268654 16:67 17:0.20895523 18:0.19402987 19:0.26865673 20:0.32835823 21:0.22580644 22:1.4285715 23:0.25 24:0.29411766 
1 4:26 5:0.73913044 6:2 7:3 8:0.0869565 9:0.39130437 10:0.34782606 11:0.17391306 12:14 13:0.14285715 14:1 15:0.7307692 16:52 17:0.11538464 18:0.40384614 19:0.32692307 20:0.15384614 21:0.14285715 22:0.875 23:0.30769232 
1 1:1 2:1 3:6 4:19 5:0.7368421 6:2 7:2 8:0.15789473 9:0.31578946 10:0.42105263 11:0.10526317 12:46 13:0.085714288 14:3 15:0.74 16:50 17:0.10000002 18:0.39999998 19:0.33999997 20:0.16000003 21:0.10638298 22:1.2 23:0.35714287 24:0.16666667 
1 4:22 5:0.6363636 6:1 7:3 8:0.18181819 9:0.5 10:0.13636363 11:0.18181819 12:22 13:0.13636364 14:4 15:0.625 16:56 17:0.1785714 18:0.3214286 19:0.3035714 20:0.1964286 21:0.13636364 22:1.1111112 23:0.14285715 
1 1:2 2:1 3:10 4:23 5:0.45454544 6:1 7:1 8:0.36363637 9:0.18181819 10:0.27272725 11:0.18181819 12:6 13:0.022222223 14:2 15:0.5230769 16:65 17:0.19999999 18:0.23076922 19:0.29230767 20:0.27692306 21:0.081967212 22:0.8888889 24:0.25 
0.7694181523009647 1:2 2:2 3:12 4:22 5:0.45454544 6:1 7:1 8:0.13636363 9:0.22727275 10:0.22727275 11:0.40909094 12:50 13:0.023255814 14:3 15:0.53731346 16:67 17:0.19402987 18:0.23880595 19:0.29850745 20:0.26865673 21:0.079365082 22:1.125 24:0.2 
1 1:1 2:1 3:7 4:24 5:0.5652174 6:1 7:3 8:0.13043481 9:0.34782606 10:0.21739131 11:0.3043478 12:54 13:0.13636364 14:2 15:0.609375 16:64 17:0.15625 18:0.328125 19:0.28125 20:0.234375 21:0.15789473 22:0.85714287 23:0.13043478 24:0.23076923 
1 1:2 2:1 3:5 4:25 5:0.5454545 6:2 7:3 8:0.18181819 9:0.18181819 10:0.36363637 11:0.27272725 12:2 13:0.24444444 14:2 15:0.62068963 16:58 17:0.18965518 18:0.31034482 19:0.31034482 20:0.18965518 21:0.25925925 22:0.30000001 24:0.33333334 
0.2766775080779942 3:5 4:22 5:0.5454545 6:1 7:1 8:0.40909094 9:0.13636363 10:0.40909094 11:0.04545456 12:7 13:0.045454547 14:4 15:0.4736842 16:57 17:0.2631579 18:0.19298244 19:0.28070176 20:0.2631579 21:0.16981132 22:1.1111112 24:0.77777779 
1 1:4 2:1 3:7 4:25 5:0.48000002 6:1 7:1 8:0.07999998 9:0.27999997 10:0.19999999 11:0.44 12:44 13:0.039999999 14:3 15:0.49253732 16:67 17:0.25373137 18:0.20895523 19:0.2835821 20:0.25373137 21:0.14285715 22:0.90909094 24:0.53846157 
1 1:1 2:2 3:13 4:24 5:0.8 6:3 7:4 8:0.10000002 9:0.3 10:0.5 11:0.10000002 12:2 13:0.18181819 14:4 15:0.6438356 16:73 17:0.15068495 18:0.260274 19:0.38356167 20:0.20547944 21:0.14705883 22:1.3333334 24:0.083333336 
1 3:2 4:24 5:0.4583333 6:3 7:3 8:0.20833331 9:0.25 10:0.20833331 11:0.3333333 12:4 13:0.11627907 14:2 15:0.5283019 16:53 17:0.20754719 18:0.24528301 19:0.2830189 20:0.26415092 21:0.10638298 22:1.4 
1 3:2 4:28 5:0.5217391 6:3 7:3 8:0.26086956 9:0.3043478 10:0.21739131 11:0.21739131 12:38 13:0.12 14:3 15:0.56666666 16:60 17:0.19999999 18:0.26666665 19:0.3 20:0.23333335 21:0.11111111 22:0.55555558 
1 1:1 2:1 3:5 4:23 5:0.5454545 6:3 7:2 8:0.18181819 9:0.22727275 10:0.3181818 11:0.27272725 12:10 13:0.2 14:4 15:0.5423729 16:59 17:0.20338982 18:0.23728812 19:0.30508476 20:0.2542373 21:0.22222222 22:0.80000001 23:0.11111111 24:0.33333334 
1 3:4 4:25 5:0.6363636 6:3 7:5 8:0.090909064 9:0.22727275 10:0.40909094 11:0.27272725 12:3 13:0.22727273 14:3 15:0.6507937 16:63 17:0.12698412 18:0.30158728 19:0.34920633 20:0.22222221 21:0.1923077 22:0.25 
0.9248979774509563 1:1 2:1 3:7 4:22 5:0.5454545 6:3 7:2 8:0.27272725 9:0.13636363 10:0.40909094 11:0.18181819 12:1 13:0.12820514 14:1 15:0.5087719 16:57 17:0.2280702 18:0.2280702 19:0.28070176 20:0.2631579 21:0.13207547 22:4.5 24:0.14285715 
1 1:1 2:1 3:6 4:26 5:0.47619045 6:3 7:2 8:0.19047618 9:0.3333333 10:0.14285713 11:0.3333333 12:40 13:0.18181819 14:2 15:0.48333335 16:60 17:0.23333335 18:0.21666664 19:0.26666665 20:0.28333336 21:0.17857143 22:2.5 24:0.16666667 
1 1:2 2:1 3:9 4:28 5:0.6363636 6:6 7:2 8:0.22727275 9:0.40909094 10:0.22727275 11:0.13636363 12:1 13:0.2 15:0.6056338 16:71 17:0.1690141 18:0.28169012 19:0.32394367 20:0.22535211 21:0.20588236 22:3 24:0.22222222 
1 1:2 2:1 3:9 4:21 5:0.57142854 6:6 7:2 8:0.19047618 9:0.19047618 10:0.38095236 11:0.23809522 12:44 13:0.27777779 14:2 15:0.5964912 16:57 17:0.17543858 18:0.28070176 19:0.31578946 20:0.2280702 21:0.25925925 22:0.60000002 24:0.22222222 
1 3:5 4:20 5:0.55 6:1 7:2 8:0.10000002 9:0.25 10:0.3 11:0.35000002 12:10 13:0.07692308 14:1 15:0.46666664 16:60 17:0.23333335 18:0.21666664 19:0.25 20:0.3 21:0.06122449 22:1 23:0.25 
0.3919359029043371 3:5 4:21 5:0.55 6:1 7:2 8:0.3 9:0.19999999 10:0.35000002 11:0.14999998 12:51 13:0.073170729 14:4 15:0.4516129 16:62 17:0.24193549 18:0.2096774 19:0.24193549 20:0.30645162 21:0.05882353 22:1 23:0.2857143 
1 1:1 2:1 3:7 4:23 5:0.40909094 6:2 7:2 8:0.22727275 9:0.090909064 10:0.3181818 11:0.36363637 12:41 13:0.25581396 14:3 15:0.4745763 16:59 17:0.20338982 18:0.23728812 19:0.23728812 20:0.32203388 21:0.25 24:0.23076923 
1 1:2 2:1 3:5 4:22 5:0.5454545 6:2 7:3 8:0.22727275 9:0.3181818 10:0.22727275 11:0.22727275 12:4 13:0.18181819 14:1 15:0.559322 16:59 17:0.20338982 18:0.30508476 19:0.2542373 20:0.23728812 21:0.20754717 22:1.2857143 24:0.33333334 
1 1:1 2:1 3:7 4:23 5:0.6818182 6:3 7:5 8:0.27272725 9:0.45454544 10:0.22727275 11:0.04545456 12:2 13:0.31707317 14:1 15:0.6166667 16:60 17:0.21666664 18:0.35000002 19:0.26666665 20:0.16666669 21:0.27272728 22:1 24:0.14285715 
1 1:1 2:1 3:4 4:24 5:0.40909094 6:2 7:3 8:0.22727275 9:0.22727275 10:0.18181819 11:0.36363637 12:41 13:0.2 14:4 15:0.44067794 16:59 17:0.23728812 18:0.20338982 19:0.23728812 20:0.32203388 21:0.20754717 22:2 24:0.25 
0.002689441847061947 3:2 4:22 5:0.5454545 6:1 7:2 8:0.27272725 9:0.18181819 10:0.36363637 11:0.18181819 12:47 13:0.090909094 14:2 15:0.51724136 16:58 17:0.18965518 18:0.2241379 19:0.29310346 20:0.29310346 21:0.083333336 22:0.63636363 23:0.14285715 
1 3:4 4:24 5:0.72727275 6:1 7:4 8:0.18181819 9:0.45454544 10:0.27272725 11:0.090909064 12:8 13:0.22727273 14:2 15:0.6721312 16:61 17:0.14754099 18:0.32786888 19:0.3442623 20:0.18032789 21:0.1923077 22:3.6666667 23:0.14285715 
0.07636136428156984 3:6 4:24 5:0.6666666 6:1 7:4 8:0.20833331 9:0.2916667 10:0.375 11:0.125 12:47 13:0.2 14:2 15:0.671875 16:64 17:0.140625 18:0.328125 19:0.34375 20:0.1875 21:0.2 22:1 23:0.090909094 24:0.2 
1 4:24 5:0.4166667 6:1 7:2 8:0.2916667 9:0.20833331 10:0.20833331 11:0.2916667 12:6 13:0.16666667 14:4 15:0.4423077 16:52 17:0.28846157 18:0.19230771 19:0.25 20:0.26923078 21:0.16666667 22:0.83333331 
1 1:1 2:1 3:5 4:20 5:0.45 6:2 7:2 8:0.25 9:0.14999998 10:0.3 11:0.3 12:39 13:0.15000001 14:1 15:0.4259259 16:54 17:0.2962963 18:0.1851852 19:0.24074072 20:0.2777778 21:0.16 22:2.25 24:0.2 
0.4257129164601864 1:2 2:1 3:8 4:22 5:0.40909094 6:1 7:2 8:0.18181819 9:0.04545456 10:0.36363637 11:0.40909094 12:40 13:0.14285715 14:3 15:0.42622954 16:61 17:0.26229507 18:0.22950822 19:0.19672132 20:0.3114754 21:0.14285715 22:2.25 24:0.14285715 
1 3:2 4:24 5:0.47826087 6:2 7:4 8:0.3043478 9:0.21739131 10:0.26086956 11:0.21739131 12:43 13:0.2173913 14:2 15:0.5409836 16:61 17:0.21311474 18:0.24590164 19:0.29508197 20:0.24590164 21:0.2 22:1.6 23:0.25 
1 4:23 5:0.6818182 6:2 7:3 8:0.18181819 9:0.27272725 10:0.40909094 11:0.13636363 12:6 13:0.24444444 14:3 15:0.66071427 16:56 17:0.14285713 18:0.26785713 19:0.39285713 20:0.1964286 21:0.24444444 22:1 
1 1:1 2:1 3:5 4:23 5:0.5217391 6:2 7:3 8:0.3043478 9:0.0869565 10:0.43478262 11:0.17391306 12:5 13:0.15555556 14:3 15:0.49206346 16:63 17:0.22222221 18:0.2063492 19:0.28571427 20:0.28571427 21:0.16363636 22:0.90909094 23:0.25 24:0.2 
1 1:1 2:1 3:7 4:23 5:0.5454545 6:2 7:3 8:0.13636363 9:0.3181818 10:0.22727275 11:0.3181818 12:48 13:0.2 14:3 15:0.47761196 16:67 17:0.23880595 18:0.19402987 19:0.2835821 20:0.2835821 21:0.18644068 22:1.4285715 24:0.14285715 
1 1:1 2:1 3:8 4:21 5:0.6666666 6:1 7:2 8:0.09523809 9:0.38095236 10:0.28571427 11:0.23809522 12:4 13:0.21951219 14:3 15:0.73333335 16:60 17:0.11666667 18:0.28333336 19:0.45 20:0.14999998 21:0.2 22:3.6666667 24:0.14285715 
1 1:1 2:1 3:9 4:21 5:0.85 6:1 7:2 8:0.050000012 9:0.19999999 10:0.65 11:0.10000002 12:45 13:0.17073171 14:1 15:0.7258065 16:62 17:0.11290324 18:0.27419353 19:0.4516129 20:0.16129035 21:0.19298245 22:0.60000002 24:0.25 
1 1:3 2:1 3:6 4:22 5:0.6363636 6:1 7:3 8:0.13636363 9:0.40909094 10:0.22727275 11:0.22727275 12:5 13:0.11627907 14:2 15:0.6666666 16:57 17:0.12280703 18:0.35087717 19:0.31578946 20:0.21052629 21:0.16981132 22:1 23:0.25 24:0.40000001 
1 1:3 2:1 3:8 4:23 5:0.6818182 6:1 7:4 8:0.090909064 9:0.36363637 10:0.3181818 11:0.22727275 12:43 13:0.15555556 14:2 15:0.6666666 16:63 17:0.12698412 18:0.36507934 19:0.30158728 20:0.2063492 21:0.18644068 22:1 24:0.2857143 
0.09003790350492684 1:3 2:1 3:8 4:22 5:0.57142854 6:3 7:3 8:0.09523809 9:0.28571427 10:0.28571427 11:0.3333333 12:47 13:0.20930232 14:4 15:0.5409836 16:61 17:0.18032789 18:0.27868855 19:0.26229507 20:0.27868855 21:0.24137931 22:0.54545456 23:0.11111111 24:0.33333334 
1 3:1 4:24 5:0.45454544 6:2 7:3 8:0.090909064 9:0.3181818 10:0.13636363 11:0.45454544 12:3 13:0.13043478 14:1 15:0.4310345 16:58 17:0.2241379 18:0.18965518 19:0.24137932 20:0.3448276 21:0.125 22:0.80000001 
1 3:3 4:24 5:0.3333333 6:2 7:3 8:0.5 9:0.041666687 10:0.2916667 11:0.16666669 12:39 13:0.2173913 14:3 15:0.41935486 16:62 17:0.2580645 18:0.19354838 19:0.22580647 20:0.32258064 21:0.1923077 22:2.5 
0.126704829685724 3:1 4:25 5:0.6666666 6:2 7:4 8:0.08333331 9:0.375 10:0.2916667 11:0.25 12:6 13:0.18367347 14:1 15:0.63793105 16:58 17:0.15517241 18:0.29310346 19:0.3448276 20:0.20689654 21:0.17647059 22:0.8888889 
1 3:4 4:24 5:0.625 6:2 7:3 8:0.20833331 9:0.2916667 10:0.3333333 11:0.16666669 12:42 13:0.14893617 14:2 15:0.62903225 16:62 17:0.16129035 18:0.2903226 19:0.33870965 20:0.2096774 21:0.16363636 22:0.72727275 24:0.25 
1 3:3 4:24 5:0.5 6:3 7:4 8:0.3181818 9:0.27272725 10:0.22727275 11:0.18181819 12:7 13:0.26086956 14:3 15:0.4310345 16:58 17:0.29310346 18:0.2241379 19:0.20689654 20:0.2758621 21:0.23076923 22:5 23:0.16666667 
1 3:2 4:22 5:0.5909091 6:2 7:3 8:0.090909064 9:0.22727275 10:0.36363637 11:0.3181818 12:6 13:0.18181819 14:2 15:0.57142854 16:56 17:0.14285713 18:0.23214287 19:0.33928573 20:0.28571427 21:0.20833333 22:1.25 23:0.11111111 24:0.5 
0.2051277138990998 1:2 2:1 3:7 4:21 5:0.38095236 6:2 7:2 8:0.09523809 9:0.09523809 10:0.28571427 11:0.52380955 12:57 13:0.21951219 14:2 15:0.3770492 16:61 17:0.27868855 18:0.18032789 19:0.19672132 20:0.3442623 21:0.23636363 22:1.2 23:0.1875 24:0.2857143 
1 1:1 2:1 3:5 4:23 5:0.6818182 6:2 7:3 8:0.13636363 9:0.45454544 10:0.22727275 11:0.18181819 12:44 13:0.13636364 14:2 15:0.671875 16:64 17:0.1875 18:0.390625 19:0.28125 20:0.140625 21:0.13207547 22:0.90909094 24:0.11111111 
1 1:2 2:2 3:9 4:23 5:0.6363636 6:1 7:3 8:0.090909064 9:0.5909091 10:0.04545456 11:0.27272725 12:45 13:0.13636364 14:4 15:0.57575756 16:66 17:0.18181819 18:0.24242425 19:0.3333333 20:0.24242425 21:0.19354838 22:1.4285715 24:0.33333334 
1 1:1 2:2 3:9 4:22 5:0.5 6:1 7:2 8:0.3181818 9:0.13636363 10:0.36363637 11:0.18181819 12:9 13:0.069767445 14:1 15:0.546875 16:64 17:0.203125 18:0.203125 19:0.34375 20:0.25 21:0.1 22:0.69999999 23:0.05882353 24:0.17647059 
1 1:1 2:2 3:11 4:23 5:0.5 6:1 7:3 8:0.13636363 9:0.3181818 10:0.18181819 11:0.36363637 12:54 13:0.090909094 14:2 15:0.5362319 16:69 17:0.20289856 18:0.18840581 19:0.34782606 20:0.26086956 21:0.10769231 22:1.6666666 24:0.14285715 
1 1:2 2:1 3:7 4:21 5:0.61904764 6:1 7:3 8:0.19047618 9:0.3333333 10:0.28571427 11:0.19047618 12:10 13:0.19047619 14:1 15:0.6034483 16:58 17:0.18965518 18:0.3448276 19:0.25862068 20:0.20689654 21:0.18518518 22:1.4285715 23:0.11111111 24:0.16666667 
0.4994109575673378 1:2 2:1 3:7 4:21 5:0.61904764 6:1 7:3 8:0.14285713 9:0.38095236 10:0.23809522 11:0.23809522 12:47 13:0.19047619 14:1 15:0.6034483 16:58 17:0.18965518 18:0.3448276 19:0.25862068 20:0.20689654 21:0.18518518 22:0.69999999 23:0.11111111 24:0.16666667 
0.9003027871926892 4:22 5:0.5 6:1 7:3 8:0.13636363 9:0.3181818 10:0.18181819 11:0.36363637 12:18 13:0.13636364 14:4 15:0.39999998 16:55 17:0.19999999 18:0.19999999 19:0.19999999 20:0.39999998 21:0.13636364 22:1.2222222 23:0.2 
0.6682927830318754 3:2 4:23 5:0.43478262 6:1 7:4 8:0.26086956 9:0.17391306 10:0.26086956 11:0.3043478 12:53 13:0.17391305 14:2 15:0.42622954 16:61 17:0.18032789 18:0.18032789 19:0.24590164 20:0.39344263 21:0.16 22:1.2857143 23:0.1724138 
0.3868769904239394 1:1 2:1 3:7 4:24 5:0.5 6:2 7:2 8:0.2916667 9:0.25 10:0.25 11:0.20833331 12:15 13:0.15555556 14:1 15:0.55737704 16:61 17:0.22950822 18:0.27868855 19:0.27868855 20:0.21311474 21:0.19298245 22:0.5 23:0.35714287 24:0.33333334 
0.9023343209827531 1:2 2:2 3:9 4:20 5:0.6666666 6:2 7:2 8:0.055555582 9:0.3333333 10:0.3333333 11:0.2777778 12:57 13:0.10526316 14:2 15:0.56896555 16:58 17:0.20689654 18:0.2758621 19:0.29310346 20:0.2241379 21:0.14814815 22:1 23:0.41935483 24:0.25 
1 3:2 4:21 5:0.4285714 6:3 7:2 8:0.38095236 9:0.23809522 10:0.19047618 11:0.19047618 12:12 13:0.23809524 14:4 15:0.4814815 16:54 17:0.25925928 18:0.22222221 19:0.25925928 20:0.25925928 21:0.2173913 22:1.1428572 23:0.090909094 
1 3:3 4:22 5:0.5 6:3 7:2 8:0.090909064 9:0.22727275 10:0.27272725 11:0.40909094 12:46 13:0.27272728 14:2 15:0.44827586 16:58 17:0.25862068 18:0.20689654 19:0.24137932 20:0.29310346 21:0.23999999 22:1.4 
1 1:1 2:1 3:5 4:24 5:0.6363636 6:2 7:4 8:0.04545456 9:0.27272725 10:0.36363637 11:0.3181818 12:7 13:0.2173913 14:3 15:0.6 16:60 17:0.11666667 18:0.25 19:0.35000002 20:0.28333336 21:0.25 22:1.6666666 23:0.16666667 24:0.40000001 
1 1:2 2:2 3:8 4:24 5:0.6666666 6:2 7:3 8:0.20833331 9:0.25 10:0.4166667 11:0.125 12:46 13:0.19148937 14:3 15:0.5909091 16:66 17:0.13636363 18:0.25757575 19:0.3333333 20:0.27272725 21:0.25806451 22:1 24:0.46666667 
1 1:1 2:1 3:5 4:23 5:0.40909094 6:1 7:3 8:0.13636363 9:0.27272725 10:0.13636363 11:0.45454544 12:39 13:0.20930232 14:3 15:0.43333334 16:60 17:0.21666664 18:0.19999999 19:0.23333335 20:0.35000002 21:0.1923077 22:3.5 24:0.11111111 
1 4:22 5:0.40909094 6:1 7:2 8:0.3181818 9:0.18181819 10:0.22727275 11:0.27272725 12:6 13:0.090909094 14:3 15:0.38181818 16:55 17:0.2909091 18:0.18181819 19:0.19999999 20:0.3272727 21:0.090909094 22:0.66666669 
1 3:2 4:22 5:0.36363637 6:1 7:2 8:0.27272725 9:0.13636363 10:0.22727275 11:0.36363637 12:41 13:0.090909094 14:3 15:0.37288135 16:59 17:0.2881356 18:0.16949153 19:0.20338982 20:0.33898306 21:0.083333336 22:1.125 
1 3:5 4:24 5:0.5909091 6:1 7:3 8:0.090909064 9:0.22727275 10:0.36363637 11:0.3181818 12:9 13:0.13043478 14:4 15:0.5333333 16:60 17:0.23333335 18:0.23333335 19:0.3 20:0.23333335 21:0.14814815 22:0.80000001 24:0.25 
1 1:1 2:1 3:9 4:22 5:0.5909091 6:1 7:2 8:0.18181819 9:0.3181818 10:0.27272725 11:0.22727275 12:44 13:0.18181819 14:4 15:0.5692308 16:65 17:0.18461537 18:0.27692306 19:0.29230767 20:0.24615383 21:0.18032786 22:0.625 24:0.17647059 
0.9844267262303845 1:2 2:1 3:6 4:23 5:0.43478262 6:2 7:2 8:0.21739131 9:0.26086956 10:0.17391306 11:0.34782606 12:6 13:0.20930232 14:2 15:0.48214287 16:56 17:0.23214287 18:0.23214287 19:0.25 20:0.28571427 21:0.20754717 22:0.2857143 23:0.2 24:0.2 
1 1:2 2:1 3:7 4:24 5:0.47619045 6:4 7:3 8:0.28571427 9:0.23809522 10:0.23809522 11:0.23809522 12:43 13:0.24444444 14:2 15:0.5 16:60 17:0.21666664 18:0.25 19:0.25 20:0.28333336 21:0.22807017 22:2.3333333 24:0.16666667 
1 1:2 2:4 3:21 4:21 5:0.6666666 6:2 7:3 8:0.14285713 9:0.38095236 10:0.28571427 11:0.19047618 12:3 13:0.17948718 14:4 15:0.67073166 16:82 17:0.19512194 18:0.31707317 19:0.35365856 20:0.13414633 21:0.18987341 22:0.60000002 24:0.2 
0.188840286750793 3:5 4:24 5:0.73913044 6:1 7:3 8:0.17391306 9:0.39130437 10:0.34782606 11:0.0869565 12:16 13:0.14893617 14:4 15:0.6779661 16:59 17:0.20338982 18:0.30508476 19:0.37288135 20:0.11864406 21:0.17857143 22:0.81818181 23:0.18518518 24:0.33333334 
1 1:2 2:1 3:7 4:23 5:0.6086956 6:1 7:4 8:0.21739131 9:0.21739131 10:0.39130437 11:0.17391306 12:53 13:0.15555556 14:2 15:0.6557377 16:61 17:0.21311474 18:0.29508197 19:0.36065573 20:0.13114756 21:0.1724138 22:1 23:0.2 24:0.23076923 
1 3:4 4:25 5:0.4583333 6:1 7:5 8:0.20833331 9:0.20833331 10:0.25 11:0.3333333 12:40 13:0.24444444 14:3 15:0.48275864 16:58 17:0.29310346 18:0.24137932 19:0.24137932 20:0.2241379 21:0.20754717 22:1.6 
1 3:2 4:26 5:0.43478262 6:3 7:4 8:0.34782606 9:0.13043481 10:0.3043478 11:0.21739131 12:3 13:0.19148937 14:2 15:0.5 16:62 17:0.2580645 18:0.2903226 19:0.2096774 20:0.24193549 21:0.17647059 22:0.33333334 
1 1:3 2:2 3:9 4:22 5:0.6666666 6:2 7:3 8:0.19047618 9:0.38095236 10:0.28571427 11:0.14285713 12:5 13:0.19047619 14:2 15:0.6612903 16:62 17:0.12903225 18:0.33870965 19:0.32258064 20:0.2096774 21:0.24137931 22:0.90909094 23:0.25 24:0.375 
0.7057874106331014 1:3 2:2 3:11 4:23 5:0.5909091 6:2 7:4 8:0.13636363 9:0.3181818 10:0.27272725 11:0.27272725 12:48 13:0.22727273 14:2 15:0.66176474 16:68 17:0.11764705 18:0.33823532 19:0.32352942 20:0.2205882 21:0.25 22:1.375 24:0.30000001 
1 3:7 4:24 5:0.4583333 6:1 7:1 8:0.16666669 9:0.25 10:0.20833331 11:0.375 12:7 13:0.17391305 14:4 15:0.52380955 16:63 17:0.22222221 18:0.22222221 19:0.30158728 20:0.25396824 21:0.20689656 24:0.33333334 
1 1:1 2:1 3:6 4:22 5:0.45454544 6:2 7:3 8:0.3181818 9:0.13636363 10:0.3181818 11:0.22727275 12:26 13:0.20930232 14:4 15:0.46551722 16:58 17:0.24137932 18:0.15517241 19:0.31034482 20:0.29310346 21:0.18518518 22:0.69999999 23:0.36363637 24:0.090909094 
0.7802967745545217 1:1 2:1 3:7 4:23 5:0.5 6:2 7:4 8:0.18181819 9:0.27272725 10:0.22727275 11:0.3181818 12:64 13:0.24444444 14:4 15:0.4677419 16:62 17:0.22580647 18:0.16129035 19:0.30645162 20:0.30645162 21:0.20689656 22:2 23:0.34999999 24:0.07692308 
0.2527507315402053 4:24 5:0.625 6:2 7:1 8:0.08333331 9:0.4166667 10:0.20833331 11:0.2916667 12:7 13:0.125 14:4 15:0.6140351 16:57 17:0.15789473 18:0.28070176 19:0.3333333 20:0.2280702 21:0.086956523 22:0.8888889 
1 3:2 4:24 5:0.625 6:2 7:1 8:0.2916667 9:0.16666669 10:0.4583333 11:0.08333331 12:43 13:0.083333336 14:3 15:0.61904764 16:63 17:0.15873015 18:0.28571427 19:0.3333333 20:0.22222221 21:0.07692308 22:1.1 
1 3:6 4:22 5:0.5 6:2 7:2 8:0.40909094 9:0.13636363 10:0.36363637 11:0.090909064 12:3 13:0.13636364 14:2 15:0.37288135 16:59 17:0.2881356 18:0.16949153 19:0.20338982 20:0.33898306 21:0.12727273 22:0.89999998 24:0.090909094 
1 4:23 5:0.6086956 6:1 7:3 8:0.17391306 9:0.26086956 10:0.34782606 11:0.21739131 12:3 13:0.11111111 14:2 15:0.6333333 16:60 17:0.19999999 18:0.3 19:0.3333333 20:0.16666669 21:0.11111111 22:0.80000001 
1 3:1 4:23 5:0.6818182 6:1 7:3 8:0.18181819 9:0.36363637 10:0.3181818 11:0.13636363 12:42 13:0.11111111 14:1 15:0.6451613 16:62 17:0.19354838 18:0.30645162 19:0.33870965 20:0.16129035 21:0.10638298 22:1.2222222 
1 1:1 2:1 3:5 4:27 5:0.5909091 6:3 7:4 8:0.27272725 9:0.36363637 10:0.22727275 11:0.13636363 12:53 13:0.16666667 14:2 15:0.63235295 16:68 17:0.17647058 18:0.35294116 19:0.2794118 20:0.19117647 21:0.1724138 22:1.1666666 24:0.2 
0.4424659315539953 3:3 4:25 5:0.5 6:2 7:3 8:0.16666669 9:0.125 10:0.375 11:0.3333333 12:6 13:0.14893617 14:2 15:0.4736842 16:57 17:0.24561405 18:0.2280702 19:0.24561405 20:0.28070176 21:0.16981132 22:0.55555558 23:0.090909094 24:0.33333334 
1 1:1 2:1 3:5 4:24 5:0.5 6:2 7:4 8:0.22727275 9:0.36363637 10:0.13636363 11:0.27272725 12:42 13:0.15555556 14:4 15:0.4915254 16:59 17:0.23728812 18:0.23728812 19:0.2542373 20:0.2711864 21:0.16363636 22:1.6666666 23:0.11111111 24:0.2 
1 3:3 4:25 5:0.5 6:2 7:3 8:0.08333331 9:0.25 10:0.25 11:0.4166667 12:4 13:0.125 14:1 15:0.530303 16:66 17:0.18181819 18:0.22727275 19:0.3030303 20:0.2878788 21:0.11111111 22:0.89999998 
1 1:3 2:1 3:8 4:22 5:0.5909091 6:1 7:2 8:0.13636363 9:0.22727275 10:0.36363637 11:0.27272725 12:7 13:0.17073171 14:4 15:0.4915254 16:59 17:0.2711864 18:0.20338982 19:0.2881356 20:0.23728812 21:0.18518518 22:0.18181819 24:0.23076923 
1 1:1 2:1 3:6 4:21 5:0.65 6:2 7:3 8:0.10000002 9:0.14999998 10:0.5 11:0.25 12:50 13:0.15000001 14:4 15:0.64912283 16:57 17:0.10526317 18:0.21052629 19:0.4385965 20:0.24561405 21:0.1923077 22:1 23:0.16666667 24:0.33333334 
1 3:5 4:22 5:0.45454544 6:2 7:2 8:0.36363637 9:0.13636363 10:0.3181818 11:0.18181819 12:3 13:0.14285715 14:1 15:0.4745763 16:59 17:0.2542373 18:0.220339 19:0.2542373 20:0.2711864 21:0.16 22:1.125 24:0.25 
0.7695261010935814 1:1 2:1 3:4 4:22 5:0.5909091 6:1 7:1 8:0.090909064 9:0.090909064 10:0.5 11:0.3181818 12:59 13:0.023255814 14:4 15:0.64406776 16:59 17:0.13559324 18:0.2711864 19:0.37288135 20:0.220339 21:0.05882353 22:0.89999998 23:0.25581396 24:0.25 
1 3:4 4:22 5:0.6363636 6:2 7:2 9:0.18181819 10:0.45454544 11:0.36363637 12:3 13:0.27272728 14:3 15:0.56896555 16:58 17:0.13793105 18:0.24137932 19:0.32758623 20:0.29310346 21:0.30769232 22:1.6 24:0.5 
0.5368108724153576 3:6 4:22 5:0.77272725 6:2 7:3 8:0.18181819 9:0.36363637 10:0.40909094 11:0.04545456 12:41 13:0.20930232 14:4 15:0.59016395 16:61 17:0.13114756 18:0.26229507 19:0.32786888 20:0.27868855 21:0.30909091 22:1.8333334 24:0.66666669 
0.3833475519652118 1:1 2:1 3:7 4:23 5:0.5652174 6:2 7:2 8:0.0869565 9:0.26086956 10:0.3043478 11:0.34782606 12:9 13:0.095238097 14:4 15:0.52542377 16:59 17:0.1864407 18:0.220339 19:0.30508476 20:0.2881356 21:0.090909094 22:0.45454547 24:0.07692308 
0.6572580955108305 3:2 4:22 5:0.47619045 6:1 7:3 8:0.09523809 9:0.14285713 10:0.3333333 11:0.4285714 12:4 13:0.11627907 14:4 15:0.58928573 16:56 17:0.14285713 18:0.28571427 19:0.3035714 20:0.26785713 21:0.10638298 22:1 
1 4:22 5:0.4285714 6:2 7:2 8:0.19047618 9:0.14285713 10:0.28571427 11:0.38095236 12:23 13:0.11627907 14:2 15:0.45454544 16:55 17:0.27272725 18:0.19999999 19:0.25454545 20:0.27272725 21:0.11627907 22:1.1111112 23:0.44186047 
1 3:2 4:22 5:0.5454545 6:2 7:2 8:0.27272725 9:0.40909094 10:0.13636363 11:0.18181819 12:58 13:0.11627907 14:4 15:0.4745763 16:59 17:0.2542373 18:0.20338982 19:0.2711864 20:0.2711864 21:0.10638298 22:1.1 23:0.48717949 
1 3:4 4:21 5:0.52380955 6:2 7:2 8:0.3333333 9:0.19047618 10:0.3333333 11:0.14285713 12:37 13:0.19047619 14:4 15:0.5090909 16:55 17:0.23636365 18:0.23636365 19:0.27272725 20:0.25454545 21:0.16 22:0.625 
1 3:6 4:20 5:0.5 6:2 7:2 8:0.25 9:0.3 10:0.19999999 11:0.25 12:7 13:0.2 14:3 15:0.39999998 16:55 17:0.27272725 18:0.21818179 19:0.18181819 20:0.3272727 21:0.25490198 22:0.69999999 23:0.23076923 24:0.45454547 
1 1:3 2:1 3:8 4:22 5:0.40909094 6:2 7:4 8:0.27272725 9:0.18181819 10:0.22727275 11:0.3181818 12:44 13:0.25581396 14:3 15:0.41935486 16:62 17:0.2580645 18:0.2096774 19:0.2096774 20:0.32258064 21:0.27586207 22:2 24:0.33333334 
1 3:2 4:23 5:0.45454544 6:3 7:4 8:0.3181818 9:0.22727275 10:0.22727275 11:0.22727275 12:14 13:0.22727273 14:3 15:0.44067794 16:59 17:0.2711864 18:0.220339 19:0.220339 20:0.2881356 21:0.20833333 22:1.4 23:0.2857143 
0.7795234904632289 3:3 4:24 5:0.47826087 6:3 7:4 8:0.21739131 9:0.26086956 10:0.21739131 11:0.3043478 12:52 13:0.30434781 14:2 15:0.44444442 16:63 17:0.25396824 18:0.2063492 19:0.23809522 20:0.30158728 21:0.26923078 22:0.5 23:0.16666667 
0.8507781941634496 3:6 4:22 5:0.6363636 6:2 7:3 8:0.090909064 9:0.3181818 10:0.3181818 11:0.27272725 12:46 13:0.27272728 14:2 15:0.59375 16:64 17:0.125 18:0.265625 19:0.328125 20:0.28125 21:0.25 22:1 24:0.16666667 
0.2139246324283162 1:1 2:2 3:7 4:24 5:0.5909091 6:2 7:5 8:0.18181819 9:0.22727275 10:0.36363637 11:0.22727275 12:46 13:0.24444444 14:1 15:0.5625 16:64 17:0.203125 18:0.28125 19:0.28125 20:0.234375 21:0.24137931 22:1.6666666 24:0.23076923 
0.211674626232945 1:1 2:2 3:5 4:23 5:0.6363636 6:4 7:4 8:0.18181819 9:0.3181818 10:0.3181818 11:0.18181819 12:15 13:0.27272728 14:3 15:0.56896555 16:58 17:0.17241377 18:0.25862068 19:0.31034482 20:0.25862068 21:0.28301886 22:0.80000001 23:0.14285715 24:0.33333334 
0.4782056232646787 1:1 2:2 3:6 4:24 5:0.5652174 6:4 7:4 8:0.21739131 9:0.21739131 10:0.34782606 11:0.21739131 12:52 13:0.30434781 14:3 15:0.5483871 16:62 17:0.19354838 18:0.24193549 19:0.30645162 20:0.2580645 21:0.29824561 22:2.25 23:0.083333336 24:0.27272728 
1 3:2 4:22 5:0.36363637 6:3 7:2 8:0.3181818 9:0.13636363 10:0.22727275 11:0.3181818 12:16 13:0.20930232 14:3 15:0.4528302 16:53 17:0.16981131 18:0.18867922 19:0.26415092 20:0.3773585 21:0.23404256 22:0.80000001 23:0.22580644 24:0.5 
1 1:1 2:1 3:4 4:23 5:0.40909094 6:1 7:3 8:0.27272725 9:0.3181818 10:0.090909064 11:0.3181818 12:31 13:0.15555556 14:2 15:0.4385965 16:57 17:0.21052629 18:0.21052629 19:0.2280702 20:0.35087717 21:0.16981132 22:0.55555558 23:0.32258064 24:0.25 
1 1:1 2:1 3:6 4:22 5:0.5 6:1 7:3 8:0.13636363 9:0.18181819 10:0.3181818 11:0.36363637 12:67 13:0.20930232 14:2 15:0.45762712 16:59 17:0.20338982 18:0.23728812 19:0.220339 20:0.33898306 21:0.2 22:2 23:0.30000001 24:0.16666667 
0.1494326525606171 1:2 2:1 3:6 4:22 5:0.5 6:2 7:2 8:0.27272725 9:0.22727275 10:0.27272725 11:0.22727275 12:14 13:0.14285715 14:2 15:0.4915254 16:59 17:0.220339 18:0.23728812 19:0.2542373 20:0.2881356 21:0.15384616 22:0.80000001 23:0.23076923 24:0.2 
1 3:11 4:22 5:0.5454545 6:2 7:4 8:0.18181819 9:0.22727275 10:0.3181818 11:0.27272725 12:15 13:0.22727273 14:3 15:0.52380955 16:63 17:0.23809522 18:0.25396824 19:0.26984125 20:0.23809522 21:0.28813559 22:0.69999999 23:0.21428572 24:0.46666667 
1 3:14 4:22 5:0.8181818 6:1 7:3 8:0.090909064 9:0.22727275 10:0.5909091 11:0.090909064 12:14 13:0.13636364 14:3 15:0.6 16:70 17:0.15714288 18:0.27142859 19:0.32857144 20:0.24285716 21:0.23809524 22:0.8888889 23:0.15384616 24:0.47368422 
1 1:9 2:1 3:16 4:22 5:0.6363636 6:1 7:3 8:0.18181819 9:0.45454544 10:0.18181819 11:0.18181819 12:64 13:0.13636364 14:2 15:0.5810811 16:74 17:0.16216218 18:0.25675678 19:0.3243243 20:0.25675678 21:0.2238806 22:1.5 23:0.18181819 24:0.39130434 
1 1:12 2:1 3:17 4:21 5:0.57142854 6:1 7:5 8:0.28571427 9:0.23809522 10:0.3333333 11:0.14285713 12:51 13:0.23809524 14:2 15:0.61764705 16:68 17:0.25 18:0.36764705 19:0.25 20:0.13235295 21:0.34375 22:0.77777779 24:0.54545456 
1 1:1 2:1 3:3 4:22 5:0.6363636 6:1 7:3 8:0.22727275 9:0.45454544 10:0.18181819 11:0.13636363 12:7 13:0.13636364 14:1 15:0.5925926 16:54 17:0.24074072 18:0.3333333 19:0.25925928 20:0.16666669 21:0.16 22:1 23:0.16666667 24:0.33333334 
0.4095373448937911 1:1 2:1 3:5 4:22 5:0.5454545 6:1 7:3 8:0.22727275 9:0.22727275 10:0.3181818 11:0.22727275 12:41 13:0.18181819 14:2 15:0.56896555 16:58 17:0.25862068 18:0.32758623 19:0.24137932 20:0.17241377 21:0.18518518 22:1.2857143 24:0.2 
1 1:5 2:1 3:8 4:23 5:0.5909091 6:3 7:2 8:0.13636363 9:0.22727275 10:0.36363637 11:0.27272725 12:3 13:0.15555556 14:4 15:0.484375 16:64 17:0.234375 18:0.25 19:0.234375 20:0.28125 21:0.26666668 22:2.6666667 24:0.60000002 
1 1:6 2:3 3:29 4:22 5:0.5909091 6:1 7:3 8:0.3181818 9:0.36363637 10:0.22727275 11:0.090909064 12:4 13:0.1627907 14:4 15:0.58762884 16:97 17:0.16494846 18:0.2886598 19:0.2989691 20:0.2474227 21:0.24731183 22:0.8888889 23:0.33333334 24:0.31999999 
1 1:6 2:4 3:31 4:23 5:0.5909091 6:2 7:4 8:0.04545456 9:0.22727275 10:0.36363637 11:0.36363637 12:82 13:0.2 14:4 15:0.592233 16:103 17:0.15533978 18:0.29126215 19:0.30097085 20:0.25242716 21:0.25252524 22:1.5 24:0.2962963 
1 4:23 5:0.5652174 6:2 7:2 8:0.26086956 9:0.21739131 10:0.34782606 11:0.17391306 12:10 13:0.13636364 14:3 15:0.5185185 16:54 17:0.25925928 18:0.2777778 19:0.24074072 20:0.22222221 21:0.13636364 22:0.89999998 
1 3:2 4:23 5:0.57142854 6:2 7:3 8:0.14285713 9:0.3333333 10:0.23809522 11:0.28571427 12:45 13:0.13636364 14:4 15:0.51724136 16:58 17:0.25862068 18:0.2758621 19:0.24137932 20:0.2241379 21:0.125 22:1 
1 1:1 2:1 3:8 4:24 5:0.6363636 6:1 7:4 8:0.04545456 9:0.3181818 10:0.3181818 11:0.3181818 12:5 13:0.18181819 14:3 15:0.625 16:64 17:0.203125 18:0.296875 19:0.328125 20:0.171875 21:0.15254237 22:2 23:0.27272728 24:0.06666667 
1 3:4 4:24 5:0.4583333 6:1 7:3 8:0.3333333 9:0.2916667 10:0.16666669 11:0.20833331 12:6 13:0.13043478 14:3 15:0.39999998 16:60 17:0.31666666 18:0.18333334 19:0.21666664 20:0.28333336 21:0.13207547 22:0.66666669 24:0.14285715 
1 1:1 2:4 3:18 4:12 5:0.16666669 6:1 7:1 8:0.3333333 9:0.08333331 10:0.08333331 11:0.5 12:56 13:0.083333336 14:3 15:0.421875 16:64 17:0.296875 18:0.1875 19:0.234375 20:0.28125 21:0.12280702 22:1.2857143 24:0.15151516 
0.4404588749095211 4:24 5:0.47826087 6:2 7:2 8:0.17391306 9:0.0869565 10:0.39130437 11:0.34782606 12:13 13:0.15555556 14:4 15:0.4727273 16:55 17:0.23636365 18:0.21818179 19:0.25454545 20:0.2909091 21:0.15555556 22:0.44444445 23:0.090909094 
0.3847717548318027 3:2 4:24 5:0.5 6:3 7:3 8:0.22727275 9:0.36363637 10:0.13636363 11:0.27272725 12:48 13:0.2 14:4 15:0.4745763 16:59 17:0.220339 18:0.220339 19:0.2542373 20:0.30508476 21:0.18367347 22:3.3333333 
1 3:2 4:22 5:0.72727275 6:2 7:3 8:0.090909064 9:0.27272725 10:0.45454544 11:0.18181819 12:8 13:0.1627907 14:1 15:0.67857146 16:56 17:0.1964286 18:0.375 19:0.3035714 20:0.125 21:0.17391305 22:0.625 23:0.14285715 24:0.33333334 
0.5245027489288118 1:1 2:1 3:5 4:20 5:0.6 6:2 7:2 8:0.25 9:0.39999998 10:0.19999999 11:0.14999998 12:45 13:0.15000001 14:3 15:0.6551724 16:58 17:0.20689654 18:0.36206895 19:0.29310346 20:0.13793105 21:0.16666667 22:2 23:0.16666667 24:0.25 
1 3:4 4:25 5:0.5909091 6:2 7:3 8:0.18181819 9:0.13636363 10:0.45454544 11:0.22727275 12:39 13:0.26086956 14:2 15:0.64406776 16:59 17:0.16949153 18:0.30508476 19:0.33898306 20:0.1864407 21:0.22222222 
1 3:3 4:26 5:0.5652174 6:3 7:4 8:0.17391306 9:0.3043478 10:0.26086956 11:0.26086956 12:4 13:0.22448979 14:1 15:0.55 16:60 17:0.19999999 18:0.3 19:0.25 20:0.25 21:0.2 22:1.6666666 
1 1:3 2:1 3:9 4:22 5:0.5909091 6:2 7:3 8:0.22727275 9:0.27272725 10:0.3181818 11:0.18181819 12:44 13:0.20930232 14:2 15:0.53125 16:64 17:0.21875 18:0.296875 19:0.234375 20:0.25 21:0.22033899 22:1.2857143 24:0.25 
1 3:3 4:23 5:0.5217391 6:2 7:1 8:0.21739131 9:0.17391306 10:0.34782606 11:0.26086956 12:10 13:0.1627907 14:3 15:0.51666665 16:60 17:0.21666664 18:0.26666665 19:0.25 20:0.26666665 21:0.14285715 22:3 23:0.22222222 
1 1:5 2:1 3:18 4:24 5:0.5454545 6:3 7:2 8:0.18181819 9:0.13636363 10:0.40909094 11:0.27272725 12:6 13:0.17391305 14:3 15:0.6375 16:80 17:0.125 18:0.28750002 19:0.35000002 20:0.23750001 21:0.18421052 22:1 23:0.40000001 24:0.2 
1 1:5 2:2 3:20 4:23 5:0.6521739 6:3 7:2 8:0.17391306 9:0.34782606 10:0.3043478 11:0.17391306 12:64 13:0.22727273 14:3 15:0.63414633 16:82 17:0.12195122 18:0.28048778 19:0.35365856 20:0.24390244 21:0.20512821 22:1.6666666 23:0.25 24:0.17647059 
1 1:1 2:2 3:8 4:23 5:0.5652174 6:4 7:2 8:0.26086956 9:0.26086956 10:0.3043478 11:0.17391306 12:6 13:0.19047619 14:2 15:0.5409836 16:61 17:0.24590164 18:0.24590164 19:0.29508197 20:0.21311474 21:0.19298245 22:0.90909094 23:0.55555558 24:0.2 
0.7318712834194303 1:1 2:2 3:8 4:26 5:0.52380955 6:4 7:2 8:0.28571427 9:0.23809522 10:0.28571427 11:0.19047618 12:48 13:0.27659574 14:2 15:0.530303 16:66 17:0.25757575 18:0.25757575 19:0.27272725 20:0.21212119 21:0.25806451 22:5.5 24:0.2 
0.2153767359380012 4:24 5:0.5 6:1 7:3 8:0.22727275 9:0.36363637 10:0.13636363 11:0.27272725 12:14 13:0.17391305 14:2 15:0.375 16:56 17:0.3214286 18:0.1785714 19:0.1964286 20:0.3035714 21:0.17391305 22:0.66666669 23:0.1724138 
1 3:2 4:22 5:0.40909094 6:1 7:3 8:0.3181818 9:0.090909064 10:0.3181818 11:0.27272725 12:48 13:0.19047619 14:2 15:0.375 16:56 17:0.3214286 18:0.1785714 19:0.1964286 20:0.3035714 21:0.17391305 22:1.3333334 23:0.1724138 
1 3:1 4:22 5:0.4285714 6:1 7:3 8:0.14285713 9:0.14285713 10:0.28571427 11:0.4285714 12:12 13:0.11627907 14:3 15:0.4736842 16:57 17:0.24561405 18:0.2280702 19:0.24561405 20:0.28070176 21:0.11111111 22:1 23:0.18181819 
1 3:1 4:23 5:0.5909091 6:2 7:3 8:0.27272725 9:0.40909094 10:0.18181819 11:0.13636363 12:6 13:0.18181819 14:3 15:0.59615386 16:52 17:0.15384614 18:0.26923078 19:0.32692307 20:0.25 21:0.17391305 22:0.69999999 23:0.2 
1 3:2 4:23 5:0.5 6:2 7:3 8:0.090909064 9:0.090909064 10:0.40909094 11:0.40909094 12:37 13:0.22727273 14:3 15:0.5925926 16:54 17:0.14814812 18:0.25925928 19:0.3333333 20:0.25925928 21:0.20833333 22:1.8 
1 1:2 2:2 3:23 4:20 5:0.57894737 6:2 7:4 8:0.21052629 9:0.31578946 10:0.2631579 11:0.21052629 12:6 13:0.33333334 14:2 15:0.5 16:94 17:0.20212764 18:0.24468082 19:0.25531918 20:0.29787236 21:0.21428572 22:0.85714287 23:0.25 24:0.11111111 
1 1:1 2:1 3:6 4:24 5:0.45454544 6:3 7:4 8:0.18181819 9:0.22727275 10:0.22727275 11:0.36363637 12:46 13:0.2173913 14:3 15:0.44444442 16:63 17:0.2063492 18:0.2063492 19:0.23809522 20:0.34920633 21:0.19298245 22:0.2 23:0.25 24:0.090909094 
1 1:1 2:2 3:11 4:22 5:0.6363636 6:1 7:5 8:0.22727275 9:0.18181819 10:0.45454544 11:0.13636363 12:8 13:0.22727273 14:2 15:0.5857143 16:70 17:0.1857143 18:0.25714284 19:0.32857144 20:0.22857141 21:0.1875 22:1.375 24:0.1 
-1 3:4 4:24 5:0.5652174 6:2 7:3 8:0.13043481 9:0.21739131 10:0.34782606 11:0.3043478 12:4 13:0.19148937 14:2 15:0.51666665 16:60 17:0.21666664 18:0.25 19:0.26666665 20:0.26666665 21:0.23636363 22:1.2222222 23:0.33333334 24:0.5 
-1 3:4 4:24 5:0.5652174 6:2 7:3 8:0.13043481 9:0.21739131 10:0.34782606 11:0.3043478 12:4 13:0.19148937 14:2 15:0.51666665 16:60 17:0.21666664 18:0.25 19:0.26666665 20:0.26666665 21:0.23636363 22:1.2222222 23:0.33333334 24:0.5 
-0.4675506382836627 1:3 2:1 3:8 4:23 5:0.6086956 6:2 7:3 8:0.21739131 9:0.26086956 10:0.34782606 11:0.17391306 12:43 13:0.2 14:3 15:0.53125 16:64 17:0.21875 18:0.296875 19:0.234375 20:0.25 21:0.22033899 22:1.2857143 24:0.2857143 
-1 3:4 4:24 5:0.5652174 6:2 7:3 8:0.13043481 9:0.21739131 10:0.34782606 11:0.3043478 12:4 13:0.19148937 14:2 15:0.51666665 16:60 17:0.21666664 18:0.25 19:0.26666665 20:0.26666665 21:0.23636363 22:1.2222222 23:0.33333334 24:0.5 
-0.2437824614946223 3:2 4:22 5:0.5454545 6:1 7:3 8:0.090909064 9:0.27272725 10:0.27272725 11:0.36363637 12:13 13:0.1627907 14:3 15:0.4915254 16:59 17:0.20338982 18:0.220339 19:0.2711864 20:0.30508476 21:0.14893617 22:1 23:0.28 
-0.6857428878590121 1:1 2:1 3:7 4:22 5:0.5454545 6:1 7:3 8:0.22727275 9:0.27272725 10:0.27272725 11:0.22727275 12:53 13:0.11627907 14:1 15:0.4126984 16:63 17:0.34920633 18:0.22222221 19:0.19047618 20:0.23809522 21:0.19298245 22:1.125 23:0.2173913 24:0.42857143 
-1 1:3 2:1 3:8 4:23 5:0.6086956 6:2 7:3 8:0.21739131 9:0.26086956 10:0.34782606 11:0.17391306 12:43 13:0.2 14:3 15:0.53125 16:64 17:0.21875 18:0.296875 19:0.234375 20:0.25 21:0.22033899 22:1.2857143 24:0.2857143 
-1 3:4 4:24 5:0.5652174 6:2 7:3 8:0.13043481 9:0.21739131 10:0.34782606 11:0.3043478 12:4 13:0.19148937 14:2 15:0.51666665 16:60 17:0.21666664 18:0.25 19:0.26666665 20:0.26666665 21:0.23636363 22:1.2222222 23:0.33333334 24:0.5 
-0.07444148224472152 3:4 4:20 5:0.6 6:2 7:3 8:0.25 9:0.19999999 10:0.39999998 11:0.14999998 12:19 13:0.2820513 14:3 15:0.5 16:56 17:0.23214287 18:0.21428573 19:0.28571427 20:0.26785713 21:0.23404256 22:0.66666669 23:0.13333334 
-1 3:2 4:22 5:0.5454545 6:1 7:3 8:0.090909064 9:0.27272725 10:0.27272725 11:0.36363637 12:13 13:0.1627907 14:3 15:0.4915254 16:59 17:0.20338982 18:0.220339 19:0.2711864 20:0.30508476 21:0.14893617 22:1 23:0.28 
-1 1:1 2:1 3:7 4:22 5:0.5454545 6:1 7:3 8:0.22727275 9:0.27272725 10:0.27272725 11:0.22727275 12:53 13:0.11627907 14:1 15:0.4126984 16:63 17:0.34920633 18:0.22222221 19:0.19047618 20:0.23809522 21:0.19298245 22:1.125 23:0.2173913 24:0.42857143 
-0.6401232555940081 1:1 2:1 3:6 4:24 5:0.6818182 6:2 7:5 8:0.22727275 9:0.36363637 10:0.3181818 11:0.090909064 12:45 13:0.18181819 14:4 15:0.6333333 16:60 17:0.19999999 18:0.3 19:0.3333333 20:0.16666669 21:0.16363636 22:0.625 23:0.2 24:0.090909094 
-1 1:3 2:1 3:8 4:23 5:0.6086956 6:2 7:3 8:0.21739131 9:0.26086956 10:0.34782606 11:0.17391306 12:43 13:0.2 14:3 15:0.53125 16:64 17:0.21875 18:0.296875 19:0.234375 20:0.25 21:0.22033899 22:1.2857143 24:0.2857143 
-0.6691813075615788 1:1 2:1 3:5 4:22 5:0.36363637 6:3 7:4 8:0.3181818 9:0.22727275 10:0.13636363 11:0.3181818 12:8 13:0.23809524 14:2 15:0.4385965 16:57 17:0.21052629 18:0.21052629 19:0.2280702 20:0.35087717 21:0.21568628 22:1.6 23:0.14285715 24:0.11111111 
-1 3:4 4:24 5:0.5652174 6:2 7:3 8:0.13043481 9:0.21739131 10:0.34782606 11:0.3043478 12:4 13:0.19148937 14:2 15:0.51666665 16:60 17:0.21666664 18:0.25 19:0.26666665 20:0.26666665 21:0.23636363 22:1.2222222 23:0.33333334 24:0.5 
-1 3:4 4:20 5:0.6 6:2 7:3 8:0.25 9:0.19999999 10:0.39999998 11:0.14999998 12:19 13:0.2820513 14:3 15:0.5 16:56 17:0.23214287 18:0.21428573 19:0.28571427 20:0.26785713 21:0.23404256 22:0.66666669 23:0.13333334 
-0.9009975728090532 3:4 4:25 5:0.82608694 6:2 7:3 8:0.04347825 9:0.47826087 10:0.34782606 11:0.13043481 12:40 13:0.14893617 14:3 15:0.7833333 16:60 17:0.11666667 18:0.35000002 19:0.43333334 20:0.10000002 21:0.22222222 22:1.125 24:0.71428573 
-0.1989724931760891 4:23 5:0.77272725 6:2 7:4 8:0.13636363 9:0.36363637 10:0.40909094 11:0.090909064 12:7 13:0.1627907 14:3 15:0.6481482 16:54 17:0.2037037 18:0.3888889 19:0.25925928 20:0.14814812 21:0.1627907 22:1.375 
-1 3:2 4:22 5:0.5454545 6:1 7:3 8:0.090909064 9:0.27272725 10:0.27272725 11:0.36363637 12:13 13:0.1627907 14:3 15:0.4915254 16:59 17:0.20338982 18:0.220339 19:0.2711864 20:0.30508476 21:0.14893617 22:1 23:0.28 
-1 1:1 2:1 3:7 4:22 5:0.5454545 6:1 7:3 8:0.22727275 9:0.27272725 10:0.27272725 11:0.22727275 12:53 13:0.11627907 14:1 15:0.4126984 16:63 17:0.34920633 18:0.22222221 19:0.19047618 20:0.23809522 21:0.19298245 22:1.125 23:0.2173913 24:0.42857143 
-0.8631789003654521 1:1 2:2 3:9 4:22 5:0.5454545 6:1 7:3 8:0.27272725 9:0.3181818 10:0.22727275 11:0.18181819 12:45 13:0.13636364 14:2 15:0.5909091 16:66 17:0.24242425 18:0.3333333 19:0.25757575 20:0.16666669 21:0.16129032 22:0.63636363 24:0.22222222 
-1 1:1 2:1 3:6 4:24 5:0.6818182 6:2 7:5 8:0.22727275 9:0.36363637 10:0.3181818 11:0.090909064 12:45 13:0.18181819 14:4 15:0.6333333 16:60 17:0.19999999 18:0.3 19:0.3333333 20:0.16666669 21:0.16363636 22:0.625 23:0.2 24:0.090909094 
-0.2394201845294694 3:7 4:22 5:0.5454545 6:1 7:2 8:0.18181819 9:0.18181819 10:0.36363637 11:0.27272725 12:10 13:0.090909094 14:3 15:0.49206346 16:63 17:0.26984125 18:0.2063492 19:0.28571427 20:0.23809522 21:0.13793103 22:0.77777779 23:0.15789473 24:0.2857143 
-1 1:3 2:1 3:8 4:23 5:0.6086956 6:2 7:3 8:0.21739131 9:0.26086956 10:0.34782606 11:0.17391306 12:43 13:0.2 14:3 15:0.53125 16:64 17:0.21875 18:0.296875 19:0.234375 20:0.25 21:0.22033899 22:1.2857143 24:0.2857143 
-1 1:1 2:1 3:5 4:22 5:0.36363637 6:3 7:4 8:0.3181818 9:0.22727275 10:0.13636363 11:0.3181818 12:8 13:0.23809524 14:2 15:0.4385965 16:57 17:0.21052629 18:0.21052629 19:0.2280702 20:0.35087717 21:0.21568628 22:1.6 23:0.14285715 24:0.11111111 
-0.6403874691372148 3:1 4:22 5:0.6363636 6:4 7:2 8:0.13636363 9:0.40909094 10:0.22727275 11:0.22727275 12:7 13:0.27272728 14:3 15:0.6111111 16:54 17:0.2037037 18:0.3148148 19:0.2962963 20:0.1851852 21:0.26086956 22:0.8888889 
-1 3:4 4:24 5:0.5652174 6:2 7:3 8:0.13043481 9:0.21739131 10:0.34782606 11:0.3043478 12:4 13:0.19148937 14:2 15:0.51666665 16:60 17:0.21666664 18:0.25 19:0.26666665 20:0.26666665 21:0.23636363 22:1.2222222 23:0.33333334 24:0.5 
-0.1362192849895144 3:1 4:22 5:0.5454545 6:1 7:2 8:0.04545456 9:0.3181818 10:0.22727275 11:0.40909094 12:58 13:0.069767445 14:3 15:0.5087719 16:57 17:0.2280702 18:0.2631579 19:0.24561405 20:0.2631579 21:0.06666667 22:1.4285715 23:0.33333334 
-1 3:4 4:20 5:0.6 6:2 7:3 8:0.25 9:0.19999999 10:0.39999998 11:0.14999998 12:19 13:0.2820513 14:3 15:0.5 16:56 17:0.23214287 18:0.21428573 19:0.28571427 20:0.26785713 21:0.23404256 22:0.66666669 23:0.13333334 
-1 3:4 4:25 5:0.82608694 6:2 7:3 8:0.04347825 9:0.47826087 10:0.34782606 11:0.13043481 12:40 13:0.14893617 14:3 15:0.7833333 16:60 17:0.11666667 18:0.35000002 19:0.43333334 20:0.10000002 21:0.22222222 22:1.125 24:0.71428573 
-1 1:1 2:1 3:4 4:24 5:0.4166667 6:2 7:2 8:0.25 9:0.125 10:0.2916667 11:0.3333333 12:38 13:0.125 14:1 15:0.4166667 16:60 17:0.3 18:0.18333334 19:0.23333335 20:0.28333336 21:0.14285715 22:1 24:0.25 
-0.1418806927899519 3:5 4:22 5:0.7619048 6:4 7:3 8:0.14285713 9:0.14285713 10:0.61904764 11:0.09523809 12:41 13:0.23809524 14:3 15:0.73214287 16:56 17:0.125 18:0.28571427 19:0.4464286 20:0.14285713 21:0.21568628 22:0.625 24:0.11111111 
-0.4078438680476654 1:1 2:1 3:8 4:20 5:0.7 6:1 7:2 8:0.10000002 9:0.39999998 10:0.3 11:0.19999999 12:5 13:0.23076923 14:3 15:0.7413793 16:58 17:0.12068963 18:0.29310346 19:0.44827586 20:0.13793105 21:0.20754717 22:3.6666667 24:0.14285715 
-0.495948335786022 1:3 2:1 3:7 4:22 5:0.6363636 6:1 7:3 8:0.13636363 9:0.40909094 10:0.22727275 11:0.22727275 12:4 13:0.1627907 14:4 15:0.6779661 16:59 17:0.11864406 18:0.37288135 19:0.30508476 20:0.20338982 21:0.2 22:1.125 24:0.33333334 
-1 4:23 5:0.77272725 6:2 7:4 8:0.13636363 9:0.36363637 10:0.40909094 11:0.090909064 12:7 13:0.1627907 14:3 15:0.6481482 16:54 17:0.2037037 18:0.3888889 19:0.25925928 20:0.14814812 21:0.1627907 22:1.375 
-0.8581111504805555 3:3 4:21 5:0.52380955 6:3 7:1 8:0.09523809 9:0.23809522 10:0.28571427 11:0.38095236 12:46 13:0.2857143 14:2 15:0.46428573 16:56 17:0.25 18:0.21428573 19:0.25 20:0.28571427 21:0.25 22:1.4 
-1 3:2 4:22 5:0.5454545 6:1 7:3 8:0.090909064 9:0.27272725 10:0.27272725 11:0.36363637 12:13 13:0.1627907 14:3 15:0.4915254 16:59 17:0.20338982 18:0.220339 19:0.2711864 20:0.30508476 21:0.14893617 22:1 23:0.28 
-0.6622356348543952 3:2 4:25 5:0.6086956 6:2 7:3 8:0.17391306 9:0.43478262 10:0.17391306 11:0.21739131 12:41 13:0.2 14:4 15:0.51666665 16:60 17:0.25 18:0.3 19:0.21666664 20:0.23333335 21:0.18367347 22:3 
-0.04482325448557039 1:2 2:2 3:7 4:23 5:0.8095238 6:1 7:4 8:0.09523809 9:0.52380955 10:0.28571427 11:0.09523809 12:5 13:0.13636364 14:2 15:0.6885246 16:61 17:0.081967235 18:0.32786888 19:0.36065573 20:0.22950822 21:0.22807017 22:1.1 24:0.53846157 
-0.5186326506902325 3:2 4:24 5:0.6521739 6:1 7:3 8:0.17391306 9:0.34782606 10:0.3043478 11:0.17391306 12:43 13:0.13043478 14:3 15:0.63076925 16:65 17:0.19999999 18:0.3076923 19:0.3230769 20:0.16923076 21:0.12 22:1.375 
-0.8938913009901976 3:1 4:22 5:0.6363636 6:1 7:3 8:0.13636363 9:0.27272725 10:0.36363637 11:0.22727275 12:3 13:0.11627907 14:2 15:0.6333333 16:60 17:0.19999999 18:0.3 19:0.3333333 20:0.16666669 21:0.11111111 22:0.72727275 
-0.9815987761484484 1:1 2:1 3:4 4:23 5:0.5 6:2 7:3 8:0.18181819 9:0.13636363 10:0.36363637 11:0.3181818 12:7 13:0.11627907 14:4 15:0.4909091 16:55 17:0.25454545 18:0.23636365 19:0.25454545 20:0.25454545 21:0.13725491 22:0.77777779 23:0.23076923 24:0.25 
-1 1:1 2:1 3:7 4:22 5:0.5454545 6:1 7:3 8:0.22727275 9:0.27272725 10:0.27272725 11:0.22727275 12:53 13:0.11627907 14:1 15:0.4126984 16:63 17:0.34920633 18:0.22222221 19:0.19047618 20:0.23809522 21:0.19298245 22:1.125 23:0.2173913 24:0.42857143 
-1 1:1 2:2 3:9 4:22 5:0.5454545 6:1 7:3 8:0.27272725 9:0.3181818 10:0.22727275 11:0.18181819 12:45 13:0.13636364 14:2 15:0.5909091 16:66 17:0.24242425 18:0.3333333 19:0.25757575 20:0.16666669 21:0.16129032 22:0.63636363 24:0.22222222 
-1 1:1 2:1 3:6 4:24 5:0.6818182 6:2 7:5 8:0.22727275 9:0.36363637 10:0.3181818 11:0.090909064 12:45 13:0.18181819 14:4 15:0.6333333 16:60 17:0.19999999 18:0.3 19:0.3333333 20:0.16666669 21:0.16363636 22:0.625 23:0.2 24:0.090909094 
-1 3:7 4:22 5:0.5454545 6:1 7:2 8:0.18181819 9:0.18181819 10:0.36363637 11:0.27272725 12:10 13:0.090909094 14:3 15:0.49206346 16:63 17:0.26984125 18:0.2063492 19:0.28571427 20:0.23809522 21:0.13793103 22:0.77777779 23:0.15789473 24:0.2857143 
-1 1:3 2:1 3:8 4:23 5:0.6086956 6:2 7:3 8:0.21739131 9:0.26086956 10:0.34782606 11:0.17391306 12:43 13:0.2 14:3 15:0.53125 16:64 17:0.21875 18:0.296875 19:0.234375 20:0.25 21:0.22033899 22:1.2857143 24:0.2857143 
-1 3:1 4:23 5:0.5909091 6:2 7:3 8:0.27272725 9:0.40909094 10:0.18181819 11:0.13636363 12:6 13:0.18181819 14:3 15:0.59615386 16:52 17:0.15384614 18:0.26923078 19:0.32692307 20:0.25 21:0.17391305 22:0.69999999 23:0.2 
-1 1:1 2:1 3:5 4:22 5:0.36363637 6:3 7:4 8:0.3181818 9:0.22727275 10:0.13636363 11:0.3181818 12:8 13:0.23809524 14:2 15:0.4385965 16:57 17:0.21052629 18:0.21052629 19:0.2280702 20:0.35087717 21:0.21568628 22:1.6 23:0.14285715 24:0.11111111 
-1 3:1 4:22 5:0.6363636 6:4 7:2 8:0.13636363 9:0.40909094 10:0.22727275 11:0.22727275 12:7 13:0.27272728 14:3 15:0.6111111 16:54 17:0.2037037 18:0.3148148 19:0.2962963 20:0.1851852 21:0.26086956 22:0.8888889 
-1 3:4 4:24 5:0.5652174 6:2 7:3 8:0.13043481 9:0.21739131 10:0.34782606 11:0.3043478 12:4 13:0.19148937 14:2 15:0.51666665 16:60 17:0.21666664 18:0.25 19:0.26666665 20:0.26666665 21:0.23636363 22:1.2222222 23:0.33333334 24:0.5 
-1 3:2 4:24 5:0.40909094 6:2 7:4 8:0.22727275 9:0.18181819 10:0.22727275 11:0.36363637 12:10 13:0.2173913 14:4 15:0.4516129 16:62 17:0.22580647 18:0.24193549 19:0.2096774 20:0.32258064 21:0.2 22:0.71428573 23:0.052631579 
-1 3:1 4:22 5:0.5454545 6:1 7:2 8:0.04545456 9:0.3181818 10:0.22727275 11:0.40909094 12:58 13:0.069767445 14:3 15:0.5087719 16:57 17:0.2280702 18:0.2631579 19:0.24561405 20:0.2631579 21:0.06666667 22:1.4285715 23:0.33333334 
-0.1594430407623205 3:1 4:27 5:0.625 6:2 7:4 8:0.2916667 9:0.375 10:0.25 11:0.08333331 12:47 13:0.13725491 14:2 15:0.55357146 16:56 17:0.21428573 18:0.25 19:0.3035714 20:0.23214287 21:0.13207547 22:0.875 23:0.2 
-1 3:4 4:20 5:0.6 6:2 7:3 8:0.25 9:0.19999999 10:0.39999998 11:0.14999998 12:19 13:0.2820513 14:3 15:0.5 16:56 17:0.23214287 18:0.21428573 19:0.28571427 20:0.26785713 21:0.23404256 22:0.66666669 23:0.13333334 
-0.03976651473341627 1:1 2:2 3:9 4:23 5:0.5909091 6:3 7:3 8:0.18181819 9:0.18181819 10:0.40909094 11:0.22727275 12:6 13:0.24444444 14:2 15:0.5522388 16:67 17:0.19402987 18:0.23880595 19:0.3134328 20:0.25373137 21:0.22580644 22:1 24:0.17647059 
-1 1:1 2:1 3:6 4:24 5:0.5652174 6:2 7:4 8:0.21739131 9:0.21739131 10:0.34782606 11:0.21739131 12:5 13:0.19148937 14:4 15:0.49206346 16:63 17:0.25396824 18:0.22222221 19:0.26984125 20:0.25396824 21:0.1724138 22:1 24:0.090909094 
-1 3:4 4:25 5:0.82608694 6:2 7:3 8:0.04347825 9:0.47826087 10:0.34782606 11:0.13043481 12:40 13:0.14893617 14:3 15:0.7833333 16:60 17:0.11666667 18:0.35000002 19:0.43333334 20:0.10000002 21:0.22222222 22:1.125 24:0.71428573 
-0.3457322108625094 4:26 5:0.6666666 6:3 7:5 8:0.16666669 9:0.4166667 10:0.25 11:0.16666669 12:12 13:0.29166666 14:3 15:0.6603774 16:53 17:0.1509434 18:0.3207547 19:0.33962262 20:0.18867922 21:0.22727273 22:1.6 23:0.090909094 
-1 1:1 2:1 3:4 4:24 5:0.4166667 6:2 7:2 8:0.25 9:0.125 10:0.2916667 11:0.3333333 12:38 13:0.125 14:1 15:0.4166667 16:60 17:0.3 18:0.18333334 19:0.23333335 20:0.28333336 21:0.14285715 22:1 24:0.25 
-1 3:6 4:22 5:0.77272725 6:2 7:2 8:0.090909064 9:0.40909094 10:0.36363637 11:0.13636363 12:45 13:0.1627907 14:1 15:0.6818182 16:66 17:0.13636363 18:0.2878788 19:0.39393938 20:0.18181819 21:0.2 22:0.90909094 24:0.33333334 
-1 3:1 4:22 5:0.5 6:1 7:3 8:0.18181819 9:0.090909064 10:0.40909094 11:0.3181818 12:10 13:0.1627907 14:2 15:0.49056602 16:53 17:0.20754719 18:0.18867922 19:0.3018868 20:0.3018868 21:0.15555556 22:1 23:0.22222222 
-1 3:5 4:22 5:0.7619048 6:4 7:3 8:0.14285713 9:0.14285713 10:0.61904764 11:0.09523809 12:41 13:0.23809524 14:3 15:0.73214287 16:56 17:0.125 18:0.28571427 19:0.4464286 20:0.14285713 21:0.21568628 22:0.625 24:0.11111111 
-1 1:1 2:1 3:8 4:20 5:0.7 6:1 7:2 8:0.10000002 9:0.39999998 10:0.3 11:0.19999999 12:5 13:0.23076923 14:3 15:0.7413793 16:58 17:0.12068963 18:0.29310346 19:0.44827586 20:0.13793105 21:0.20754717 22:3.6666667 24:0.14285715 
-1 1:3 2:1 3:7 4:22 5:0.6363636 6:1 7:3 8:0.13636363 9:0.40909094 10:0.22727275 11:0.22727275 12:4 13:0.1627907 14:4 15:0.6779661 16:59 17:0.11864406 18:0.37288135 19:0.30508476 20:0.20338982 21:0.2 22:1.125 24:0.33333334 
-0.1264643371084564 1:3 2:2 3:14 4:22 5:0.6666666 6:3 7:3 8:0.09523809 9:0.3333333 10:0.3333333 11:0.23809522 12:52 13:0.25581396 14:3 15:0.5694444 16:72 17:0.16666669 18:0.2777778 19:0.2916667 20:0.2638889 21:0.24637681 22:0.75 24:0.23076923 
-1 4:23 5:0.77272725 6:2 7:4 8:0.13636363 9:0.36363637 10:0.40909094 11:0.090909064 12:7 13:0.1627907 14:3 15:0.6481482 16:54 17:0.2037037 18:0.3888889 19:0.25925928 20:0.14814812 21:0.1627907 22:1.375 
-0.3015925858851602 3:7 4:22 5:0.5454545 6:1 7:3 8:0.18181819 9:0.13636363 10:0.40909094 11:0.27272725 12:58 13:0.22727273 14:2 15:0.46376812 16:69 17:0.15942031 18:0.20289856 19:0.26086956 20:0.37681162 21:0.20689656 22:1.6666666 23:0.047619049 24:0.14285715 
-1 3:3 4:21 5:0.52380955 6:3 7:1 8:0.09523809 9:0.23809522 10:0.28571427 11:0.38095236 12:46 13:0.2857143 14:2 15:0.46428573 16:56 17:0.25 18:0.21428573 19:0.25 20:0.28571427 21:0.25 22:1.4 
-1 3:2 4:22 5:0.5454545 6:1 7:3 8:0.090909064 9:0.27272725 10:0.27272725 11:0.36363637 12:13 13:0.1627907 14:3 15:0.4915254 16:59 17:0.20338982 18:0.220339 19:0.2711864 20:0.30508476 21:0.14893617 22:1 23:0.28 
-0.633347144732424 3:1 4:22 5:0.36363637 6:1 7:2 8:0.22727275 9:0.13636363 10:0.22727275 11:0.40909094 12:40 13:0.090909094 14:2 15:0.38596493 16:57 17:0.28070176 18:0.17543858 19:0.21052629 20:0.3333333 21:0.086956523 22:1.3333334 
-0.5976031196650428 1:2 2:1 3:6 4:26 5:0.47826087 6:4 7:3 8:0.26086956 9:0.21739131 10:0.26086956 11:0.26086956 12:42 13:0.22448979 14:3 15:0.48387098 16:62 17:0.22580647 18:0.24193549 19:0.24193549 20:0.2903226 21:0.22033899 22:1.4 24:0.2 
-0.666370967026801 1:2 2:1 3:10 4:21 5:0.4285714 6:4 7:2 8:0.23809522 9:0.19047618 10:0.23809522 11:0.3333333 12:4 13:0.23076923 14:4 15:0.5 16:60 17:0.21666664 18:0.25 19:0.25 20:0.28333336 21:0.22807017 22:0.30000001 24:0.22222222 
-0.09651855993337294 1:2 2:3 3:17 4:23 5:0.6521739 6:2 7:2 8:0.17391306 9:0.34782606 10:0.3043478 11:0.17391306 12:5 13:0.18181819 14:3 15:0.67088604 16:79 17:0.20253164 18:0.31645572 19:0.35443038 20:0.12658226 21:0.18421052 22:1 23:0.14285715 24:0.1875 
-0.1962103478291445 1:2 2:1 3:8 4:24 5:0.6956522 6:1 7:4 8:0.21739131 9:0.34782606 10:0.34782606 11:0.0869565 12:13 13:0.17391305 14:3 15:0.671875 16:64 17:0.203125 18:0.3125 19:0.359375 20:0.125 21:0.18032786 22:0.625 23:0.18181819 24:0.2 
-1 3:2 4:25 5:0.6086956 6:2 7:3 8:0.17391306 9:0.43478262 10:0.17391306 11:0.21739131 12:41 13:0.2 14:4 15:0.51666665 16:60 17:0.25 18:0.3 19:0.21666664 20:0.23333335 21:0.18367347 22:3 
-1 1:2 2:2 3:7 4:23 5:0.8095238 6:1 7:4 8:0.09523809 9:0.52380955 10:0.28571427 11:0.09523809 12:5 13:0.13636364 14:2 15:0.6885246 16:61 17:0.081967235 18:0.32786888 19:0.36065573 20:0.22950822 21:0.22807017 22:1.1 24:0.53846157 
-1 3:2 4:24 5:0.6521739 6:1 7:3 8:0.17391306 9:0.34782606 10:0.3043478 11:0.17391306 12:43 13:0.13043478 14:3 15:0.63076925 16:65 17:0.19999999 18:0.3076923 19:0.3230769 20:0.16923076 21:0.12 22:1.375 
-1 3:1 4:22 5:0.6363636 6:1 7:3 8:0.13636363 9:0.27272725 10:0.36363637 11:0.22727275 12:3 13:0.11627907 14:2 15:0.6333333 16:60 17:0.19999999 18:0.3 19:0.3333333 20:0.16666669 21:0.11111111 22:0.72727275 
-1 4:23 5:0.5454545 6:2 7:4 8:0.13636363 9:0.3181818 10:0.22727275 11:0.3181818 12:17 13:0.20930232 14:2 15:0.5490196 16:51 17:0.2352941 18:0.3333333 19:0.21568626 20:0.21568626 21:0.17073171 22:1.4 23:0.10344828 
-1 1:1 2:1 3:4 4:23 5:0.5 6:2 7:3 8:0.18181819 9:0.13636363 10:0.36363637 11:0.3181818 12:7 13:0.11627907 14:4 15:0.4909091 16:55 17:0.25454545 18:0.23636365 19:0.25454545 20:0.25454545 21:0.13725491 22:0.77777779 23:0.23076923 24:0.25 
-0.2160825027876666 3:4 4:25 5:0.5416666 6:2 7:3 8:0.375 9:0.20833331 10:0.3333333 11:0.08333331 12:47 13:0.16666667 14:2 15:0.5147059 16:68 17:0.20588237 18:0.2205882 19:0.29411763 20:0.2794118 21:0.14285715 22:1.2857143 
-1 1:1 2:1 3:7 4:22 5:0.5454545 6:1 7:3 8:0.22727275 9:0.27272725 10:0.27272725 11:0.22727275 12:53 13:0.11627907 14:1 15:0.4126984 16:63 17:0.34920633 18:0.22222221 19:0.19047618 20:0.23809522 21:0.19298245 22:1.125 23:0.2173913 24:0.42857143 
-1 4:23 5:0.45454544 6:2 7:2 8:0.13636363 9:0.13636363 10:0.3181818 11:0.40909094 12:24 13:0.2 14:4 15:0.4716981 16:53 17:0.26415092 18:0.20754719 19:0.26415092 20:0.26415092 21:0.12195122 22:2.5 23:0.42222223 
-1 1:1 2:2 3:9 4:22 5:0.5454545 6:1 7:3 8:0.27272725 9:0.3181818 10:0.22727275 11:0.18181819 12:45 13:0.13636364 14:2 15:0.5909091 16:66 17:0.24242425 18:0.3333333 19:0.25757575 20:0.16666669 21:0.16129032 22:0.63636363 24:0.22222222 
-0.7479751108565253 1:5 2:1 3:11 4:22 5:0.3181818 6:1 7:1 8:0.36363637 9:0.18181819 10:0.13636363 11:0.3181818 12:47 13:0.095238097 14:2 15:0.47761196 16:67 17:0.22388059 18:0.23880595 19:0.23880595 20:0.29850745 21:0.26984128 22:1 24:0.61904764 
-0.1285751037626626 1:6 2:4 3:30 4:22 5:0.5454545 6:1 7:3 8:0.3181818 9:0.36363637 10:0.18181819 11:0.13636363 12:3 13:0.20930232 14:2 15:0.57575756 16:99 17:0.16161615 18:0.28282827 19:0.2929293 20:0.2626263 21:0.2631579 22:0.625 24:0.30769232 
-0.1852337136510368 1:2 2:1 3:9 4:23 5:0.5217391 6:1 7:2 8:0.13043481 9:0.34782606 10:0.17391306 11:0.34782606 12:50 13:0.086956523 14:2 15:0.5277778 16:72 17:0.2361111 18:0.2638889 19:0.2638889 20:0.2361111 21:0.096774191 22:0.81818181 24:0.125 
-1 1:1 2:1 3:6 4:24 5:0.6818182 6:2 7:5 8:0.22727275 9:0.36363637 10:0.3181818 11:0.090909064 12:45 13:0.18181819 14:4 15:0.6333333 16:60 17:0.19999999 18:0.3 19:0.3333333 20:0.16666669 21:0.16363636 22:0.625 23:0.2 24:0.090909094 
-1 3:7 4:22 5:0.5454545 6:1 7:2 8:0.18181819 9:0.18181819 10:0.36363637 11:0.27272725 12:10 13:0.090909094 14:3 15:0.49206346 16:63 17:0.26984125 18:0.2063492 19:0.28571427 20:0.23809522 21:0.13793103 22:0.77777779 23:0.15789473 24:0.2857143 
-1 1:3 2:1 3:8 4:23 5:0.6086956 6:2 7:3 8:0.21739131 9:0.26086956 10:0.34782606 11:0.17391306 12:43 13:0.2 14:3 15:0.53125 16:64 17:0.21875 18:0.296875 19:0.234375 20:0.25 21:0.22033899 22:1.2857143 24:0.2857143 
-0.3851549139700512 3:4 4:28 5:0.5652174 6:5 7:2 8:0.13043481 9:0.3043478 10:0.26086956 11:0.3043478 12:53 13:0.16 14:4 15:0.61290324 16:62 17:0.12903225 18:0.2580645 19:0.35483873 20:0.2580645 21:0.13793103 22:1.4285715 23:0.35714287 
-1 3:2 4:23 5:0.5 6:2 7:3 8:0.090909064 9:0.090909064 10:0.40909094 11:0.40909094 12:37 13:0.22727273 14:3 15:0.5925926 16:54 17:0.14814812 18:0.25925928 19:0.3333333 20:0.25925928 21:0.20833333 22:1.8 
-0.1806253479680364 3:1 4:23 5:0.5909091 6:2 7:3 8:0.27272725 9:0.40909094 10:0.18181819 11:0.13636363 12:6 13:0.18181819 14:3 15:0.59615386 16:52 17:0.15384614 18:0.26923078 19:0.32692307 20:0.25 21:0.17391305 22:0.69999999 23:0.2 
-1 1:1 2:1 3:5 4:22 5:0.36363637 6:3 7:4 8:0.3181818 9:0.22727275 10:0.13636363 11:0.3181818 12:8 13:0.23809524 14:2 15:0.4385965 16:57 17:0.21052629 18:0.21052629 19:0.2280702 20:0.35087717 21:0.21568628 22:1.6 23:0.14285715 24:0.11111111 
-0.4334948781032398 1:3 2:4 3:19 4:25 5:0.7826087 6:1 7:2 8:0.0869565 9:0.17391306 10:0.6086956 11:0.13043481 12:3 13:0.20833333 14:3 15:0.70114946 16:87 17:0.08045977 18:0.3218391 19:0.37931037 20:0.21839082 21:0.21951219 24:0.23529412 
-0.07996716780995669 1:4 2:1 3:14 4:22 5:0.8181818 6:1 7:2 8:0.18181819 9:0.3181818 10:0.5 12:52 13:0.2972973 14:2 15:0.6712329 16:73 17:0.16438359 18:0.34246576 19:0.32876712 20:0.16438359 21:0.2923077 24:0.2857143 
-1 3:1 4:22 5:0.6363636 6:4 7:2 8:0.13636363 9:0.40909094 10:0.22727275 11:0.22727275 12:7 13:0.27272728 14:3 15:0.6111111 16:54 17:0.2037037 18:0.3148148 19:0.2962963 20:0.1851852 21:0.26086956 22:0.8888889 
-0.08469934336469191 3:3 4:22 5:0.6666666 6:2 7:3 8:0.09523809 9:0.61904764 10:0.047619045 11:0.23809522 12:50 13:0.3488372 14:2 15:0.6037736 16:53 17:0.2264151 18:0.3584906 19:0.24528301 20:0.16981131 21:0.33333334 22:0.5 23:0.21212122 24:0.2 
-0.4937327872706381 3:2 4:22 5:0.5 6:2 7:3 8:0.36363637 9:0.27272725 10:0.22727275 11:0.13636363 12:15 13:0.12195122 14:4 15:0.45999998 16:50 17:0.24000001 18:0.22000003 19:0.24000001 20:0.3 21:0.11111111 22:2 23:0.35714287 
-0.568664333483998 1:3 2:3 3:21 4:21 5:0.4285714 6:1 7:3 8:0.14285713 9:0.28571427 10:0.14285713 11:0.4285714 12:70 13:0.23076923 14:3 15:0.5 16:82 17:0.20731705 18:0.25609756 19:0.24390244 20:0.29268295 21:0.24050634 22:5 23:0.29411766 24:0.25 
-0.5306457829087904 1:3 2:3 3:26 4:22 5:0.40909094 6:5 7:5 8:0.18181819 9:0.3181818 10:0.090909064 11:0.40909094 12:75 13:0.34999999 14:1 15:0.50537634 16:93 17:0.20430106 18:0.2580645 19:0.24731183 20:0.2903226 21:0.26666668 22:0.875 24:0.2 
-1 3:4 4:24 5:0.5652174 6:2 7:3 8:0.13043481 9:0.21739131 10:0.34782606 11:0.3043478 12:4 13:0.19148937 14:2 15:0.51666665 16:60 17:0.21666664 18:0.25 19:0.26666665 20:0.26666665 21:0.23636363 22:1.2222222 23:0.33333334 24:0.5 
-0.3595311909793892 1:2 2:1 3:7 4:25 5:0.6818182 6:3 7:5 8:0.18181819 9:0.5909091 10:0.090909064 11:0.13636363 12:3 13:0.36170211 14:2 15:0.6060606 16:66 17:0.19696969 18:0.3333333 19:0.27272725 20:0.19696969 21:0.3442623 22:2 24:0.2857143 
-0.7390893114551673 3:2 4:24 5:0.40909094 6:2 7:4 8:0.22727275 9:0.18181819 10:0.22727275 11:0.36363637 12:10 13:0.2173913 14:4 15:0.4516129 16:62 17:0.22580647 18:0.24193549 19:0.2096774 20:0.32258064 21:0.2 22:0.71428573 23:0.052631579 
-0.2603965778469471 4:23 5:0.5909091 6:3 7:3 8:0.3181818 9:0.22727275 10:0.36363637 11:0.090909064 12:50 13:0.2 14:4 15:0.46938777 16:49 17:0.22448981 18:0.20408165 19:0.26530612 20:0.30612242 21:0.2 22:0.8888889 23:0.20930232 
-0.5149827829824829 1:3 2:3 3:22 4:22 5:0.40909094 6:4 7:2 8:0.18181819 9:0.13636363 10:0.27272725 11:0.40909094 12:2 13:0.20930232 14:1 15:0.46666664 16:90 17:0.23333335 18:0.21111113 19:0.25555557 20:0.3 21:0.20930232 22:0.89999998 24:0.20930232 
-0.9042815253743888 3:6 4:22 5:0.72727275 6:1 7:4 8:0.090909064 9:0.27272725 10:0.45454544 11:0.18181819 12:44 13:0.19047619 14:3 15:0.60714287 16:56 17:0.125 18:0.25 19:0.35714287 20:0.26785713 21:0.1923077 22:0.875 23:0.05882353 24:0.2 
-1 3:1 4:22 5:0.5454545 6:1 7:2 8:0.04545456 9:0.3181818 10:0.22727275 11:0.40909094 12:58 13:0.069767445 14:3 15:0.5087719 16:57 17:0.2280702 18:0.2631579 19:0.24561405 20:0.2631579 21:0.06666667 22:1.4285715 23:0.33333334 
-0.4833861615358872 1:1 2:1 3:17 4:24 5:0.6521739 6:3 7:4 8:0.17391306 9:0.34782606 10:0.3043478 11:0.17391306 12:74 13:0.2888889 14:1 15:0.5555556 16:90 17:0.22222221 18:0.26666665 19:0.28888887 20:0.22222221 21:0.17948718 22:1.125 23:0.33333334 24:0.030303031 
-0.2566968428138068 1:1 2:1 3:11 4:21 5:0.61904764 6:2 7:4 8:0.09523809 9:0.23809522 10:0.38095236 11:0.28571427 12:1 13:0.21951219 15:0.5230769 16:65 17:0.2153846 18:0.23076922 19:0.29230767 20:0.26153845 21:0.16129032 22:1.6666666 24:0.047619049 
-1 3:1 4:27 5:0.625 6:2 7:4 8:0.2916667 9:0.375 10:0.25 11:0.08333331 12:47 13:0.13725491 14:2 15:0.55357146 16:56 17:0.21428573 18:0.25 19:0.3035714 20:0.23214287 21:0.13207547 22:0.875 23:0.2 
-0.06848439478422075 4:22 5:0.6818182 6:3 7:6 8:0.13636363 9:0.18181819 10:0.5 11:0.18181819 12:15 13:0.31707317 14:2 15:0.72727275 16:44 17:0.090909064 18:0.38636363 19:0.34090906 20:0.18181819 21:0.31707317 22:1 23:0.18518518 
-0.410250008408196 1:2 2:2 3:21 4:22 5:0.36363637 6:8 7:3 8:0.18181819 9:0.22727275 10:0.13636363 11:0.45454544 12:71 13:0.44444445 14:3 15:0.49438202 16:89 17:0.2022472 18:0.29213482 19:0.2022472 20:0.30337077 21:0.28947368 22:1 24:0.15000001 
-0.308460559496984 1:1 2:2 3:12 4:24 5:0.4583333 6:3 7:4 8:0.25 10:0.4583333 11:0.2916667 12:10 13:0.26086956 14:4 15:0.425 16:80 17:0.2625 18:0.22500002 19:0.19999999 20:0.3125 21:0.2173913 22:0.77777779 23:0.36842105 24:0.13043478 
-0.6670504062781468 1:2 2:1 3:11 4:23 5:0.5909091 6:1 7:3 8:0.3181818 9:0.40909094 10:0.18181819 11:0.090909064 12:9 13:0.13636364 14:4 15:0.54285717 16:70 17:0.25714284 18:0.24285716 19:0.3 20:0.19999999 21:0.125 22:1.25 23:0.06666667 24:0.1 
-0.4551374174660314 1:2 2:2 3:10 4:27 5:0.45454544 6:3 7:4 8:0.13636363 9:0.3181818 10:0.13636363 11:0.40909094 12:62 13:0.18367347 14:4 15:0.5128205 16:78 17:0.21794873 18:0.21794873 19:0.2948718 20:0.26923078 21:0.2173913 22:4.5 24:0.30000001 
-1 3:4 4:20 5:0.6 6:2 7:3 8:0.25 9:0.19999999 10:0.39999998 11:0.14999998 12:19 13:0.2820513 14:3 15:0.5 16:56 17:0.23214287 18:0.21428573 19:0.28571427 20:0.26785713 21:0.23404256 22:0.66666669 23:0.13333334 
-0.3733437769056534 1:2 2:2 3:16 4:23 5:0.5 6:1 7:3 8:0.13636363 9:0.3181818 10:0.18181819 11:0.36363637 12:65 13:0.2 14:1 15:0.46913582 16:81 17:0.20987654 18:0.20987654 19:0.25925928 20:0.32098764 21:0.23684211 22:2 23:0.2 24:0.29032257 
-0.3954604956357942 1:2 2:3 3:20 4:23 5:0.5 6:3 7:3 8:0.13636363 9:0.27272725 10:0.22727275 11:0.36363637 12:69 13:0.24444444 14:4 15:0.48314607 16:89 17:0.2022472 18:0.2247191 19:0.25842696 20:0.31460673 21:0.23809524 22:1 24:0.23076923 
-0.4193673215165008 1:2 2:3 3:20 4:19 5:0.6315789 6:3 7:2 8:0.21052629 9:0.31578946 10:0.31578946 11:0.15789473 12:60 13:0.2631579 14:2 15:0.7179487 16:78 17:0.14102566 18:0.38461536 19:0.3333333 20:0.14102566 21:0.2 22:0.90909094 24:0.13513513 
-0.3137097116497385 1:1 2:1 3:11 4:23 5:0.43478262 6:2 7:4 8:0.17391306 9:0.21739131 10:0.21739131 11:0.39130437 12:3 13:0.2173913 14:4 15:0.4358974 16:78 17:0.25641024 18:0.17948717 19:0.25641024 20:0.3076923 21:0.1641791 22:1 24:0.047619049 
-0.08204046869437354 1:1 2:1 3:11 4:22 5:0.6818182 6:2 7:2 8:0.22727275 9:0.40909094 10:0.27272725 11:0.090909064 12:11 13:0.13636364 14:3 15:0.5897436 16:78 17:0.2051282 18:0.2948718 19:0.2948718 20:0.2051282 21:0.15151516 22:0.63636363 23:0.1 24:0.18181819 
-0.03577409460103528 4:26 5:0.5 6:2 7:2 8:0.090909064 9:0.22727275 10:0.27272725 11:0.40909094 12:41 13:0.125 14:2 15:0.53999996 16:50 17:0.19999999 18:0.24000001 19:0.3 20:0.26 21:0.086956523 22:0.66666669 23:0.039999999 
-0.09195637916821109 1:2 2:3 3:12 4:25 5:0.6086956 6:2 7:4 8:0.13043481 9:0.34782606 10:0.26086956 11:0.26086956 12:59 13:0.13043478 14:1 15:0.61333334 16:75 17:0.17333335 18:0.32 19:0.29333335 20:0.21333331 21:0.17647059 22:1.6 24:0.27272728 
-0.1063991079392049 4:22 5:0.5 6:4 7:2 8:0.04545456 9:0.18181819 10:0.3181818 11:0.45454544 12:36 13:0.25581396 14:4 15:0.46666664 16:45 17:0.26666665 18:0.17777777 19:0.28888887 20:0.26666665 21:0.21951219 22:0.30000001 
-0.01912390760400777 3:2 4:24 5:0.8 6:3 7:4 8:0.050000012 9:0.19999999 10:0.6 11:0.14999998 12:12 13:0.18181819 14:3 15:0.65384614 16:52 17:0.17307693 18:0.26923078 19:0.38461536 20:0.17307693 21:0.19148937 22:0.72727275 23:0.047619049 24:0.33333334 
-0.6201723894404911 4:29 5:0.5416666 6:3 7:3 8:0.25 9:0.25 10:0.2916667 11:0.20833331 12:34 13:0.16981132 14:3 15:0.5454545 16:55 17:0.19999999 18:0.25454545 19:0.2909091 20:0.25454545 21:0.10204082 22:0.85714287 
-0.9982628179342565 1:1 2:2 3:9 4:23 5:0.5909091 6:3 7:3 8:0.18181819 9:0.18181819 10:0.40909094 11:0.22727275 12:6 13:0.24444444 14:2 15:0.5522388 16:67 17:0.19402987 18:0.23880595 19:0.3134328 20:0.25373137 21:0.22580644 22:1 24:0.17647059 
-0.07671134232613093 1:1 2:1 3:6 4:24 5:0.5652174 6:2 7:4 8:0.21739131 9:0.21739131 10:0.34782606 11:0.21739131 12:5 13:0.19148937 14:4 15:0.49206346 16:63 17:0.25396824 18:0.22222221 19:0.26984125 20:0.25396824 21:0.1724138 22:1 24:0.090909094 
-1 3:4 4:25 5:0.82608694 6:2 7:3 8:0.04347825 9:0.47826087 10:0.34782606 11:0.13043481 12:40 13:0.14893617 14:3 15:0.7833333 16:60 17:0.11666667 18:0.35000002 19:0.43333334 20:0.10000002 21:0.22222222 22:1.125 24:0.71428573 
-0.3562237934121005 4:22 5:0.5 6:3 7:2 8:0.27272725 9:0.22727275 10:0.27272725 11:0.22727275 12:9 13:0.23076923 14:2 15:0.5121951 16:41 17:0.21951222 18:0.21951222 19:0.29268295 20:0.26829267 21:0.1891892 22:1.25 
-0.1505694019672012 1:1 2:1 3:3 4:21 5:0.57142854 6:3 7:2 8:0.19047618 9:0.23809522 10:0.3333333 11:0.23809522 12:6 13:0.13513513 14:2 15:0.5319149 16:47 17:0.21276593 18:0.23404253 19:0.29787236 20:0.25531918 21:0.1627907 22:0.80000001 24:0.33333334 
-0.5040944982120428 4:22 5:0.45454544 6:6 7:2 8:0.22727275 9:0.18181819 10:0.27272725 11:0.3181818 12:34 13:0.31578946 15:0.56410253 16:39 17:0.2051282 18:0.23076922 19:0.3333333 20:0.23076922 21:0.27777779 22:0.40000001 23:0.125 
-0.4399347145466074 3:1 4:27 5:0.7619048 6:6 7:2 8:0.14285713 9:0.4285714 10:0.3333333 11:0.09523809 12:10 13:0.25 14:2 15:0.6037736 16:53 17:0.16981131 18:0.26415092 19:0.33962262 20:0.2264151 21:0.23999999 22:2.25 23:0.11111111 
-0.3288140990624674 4:20 5:0.45 6:1 7:1 8:0.25 9:0.25 10:0.19999999 11:0.3 12:18 13:0.17948718 14:1 15:0.47727275 16:44 17:0.22727275 18:0.25 19:0.22727275 20:0.29545456 21:0.030303031 22:3.5 23:0.1875 
-0.304306275245404 3:12 4:20 5:0.5 6:3 7:3 8:0.050000012 9:0.35000002 10:0.14999998 11:0.45 12:3 13:0.1891892 14:1 15:0.4861111 16:72 17:0.22222221 18:0.25 19:0.2361111 20:0.2916667 21:0.1147541 22:0.85714287 
-0.1076867345433066 1:1 2:1 3:4 4:26 5:0.6363636 6:3 7:5 8:0.13636363 9:0.3181818 10:0.3181818 11:0.22727275 12:40 13:0.27659574 14:3 15:0.6166667 16:60 17:0.21666664 18:0.35000002 19:0.26666665 20:0.16666669 21:0.27272728 22:1.5 24:0.25 
-0.6473072163451071 1:3 2:1 3:10 4:25 5:0.8181818 6:1 7:5 8:0.13636363 9:0.5454545 10:0.27272725 11:0.04545456 12:2 13:0.17391305 14:2 15:0.6986301 16:73 17:0.13698632 18:0.34246576 19:0.3561644 20:0.16438359 21:0.1875 22:1 24:0.22222222 
-0.9900309512769162 4:26 5:0.6666666 6:3 7:5 8:0.16666669 9:0.4166667 10:0.25 11:0.16666669 12:12 13:0.29166666 14:3 15:0.6603774 16:53 17:0.1509434 18:0.3207547 19:0.33962262 20:0.18867922 21:0.22727273 22:1.6 23:0.090909094 
-0.4876658147472173 1:1 2:1 3:4 4:24 5:0.4166667 6:2 7:2 8:0.25 9:0.125 10:0.2916667 11:0.3333333 12:38 13:0.125 14:1 15:0.4166667 16:60 17:0.3 18:0.18333334 19:0.23333335 20:0.28333336 21:0.14285715 22:1 24:0.25 
-0.4014577988953315 1:1 2:1 3:3 4:20 5:0.45 6:1 7:1 8:0.3 9:0.25 10:0.19999999 11:0.25 12:7 13:0.1 14:2 15:0.44 16:50 17:0.27999997 18:0.18 19:0.26 20:0.27999997 21:0.13043478 22:1 23:0.16666667 24:0.33333334 
-0.7240673911235641 1:3 2:1 3:9 4:21 5:0.4285714 6:1 7:2 8:0.09523809 9:0.19047618 10:0.23809522 11:0.47619045 12:2 13:0.095238097 14:1 15:0.484375 16:64 17:0.21875 18:0.25 19:0.234375 20:0.296875 21:0.15254237 22:1.6666666 24:0.29411766 
-0.8379340748406281 3:6 4:22 5:0.77272725 6:2 7:2 8:0.090909064 9:0.40909094 10:0.36363637 11:0.13636363 12:45 13:0.1627907 14:1 15:0.6818182 16:66 17:0.13636363 18:0.2878788 19:0.39393938 20:0.18181819 21:0.2 22:0.90909094 24:0.33333334 
-0.8723145444441084 3:1 4:22 5:0.5 6:1 7:3 8:0.18181819 9:0.090909064 10:0.40909094 11:0.3181818 12:10 13:0.1627907 14:2 15:0.49056602 16:53 17:0.20754719 18:0.18867922 19:0.3018868 20:0.3018868 21:0.15555556 22:1 23:0.22222222 
-1 3:5 4:22 5:0.7619048 6:4 7:3 8:0.14285713 9:0.14285713 10:0.61904764 11:0.09523809 12:41 13:0.23809524 14:3 15:0.73214287 16:56 17:0.125 18:0.28571427 19:0.4464286 20:0.14285713 21:0.21568628 22:0.625 24:0.11111111 
-1 1:1 2:1 3:8 4:20 5:0.7 6:1 7:2 8:0.10000002 9:0.39999998 10:0.3 11:0.19999999 12:5 13:0.23076923 14:3 15:0.7413793 16:58 17:0.12068963 18:0.29310346 19:0.44827586 20:0.13793105 21:0.20754717 22:3.6666667 24:0.14285715 
-0.9856005577587362 1:3 2:1 3:7 4:22 5:0.6363636 6:1 7:3 8:0.13636363 9:0.40909094 10:0.22727275 11:0.22727275 12:4 13:0.1627907 14:4 15:0.6779661 16:59 17:0.11864406 18:0.37288135 19:0.30508476 20:0.20338982 21:0.2 22:1.125 24:0.33333334 
-1 1:3 2:2 3:14 4:22 5:0.6666666 6:3 7:3 8:0.09523809 9:0.3333333 10:0.3333333 11:0.23809522 12:52 13:0.25581396 14:3 15:0.5694444 16:72 17:0.16666669 18:0.2777778 19:0.2916667 20:0.2638889 21:0.24637681 22:0.75 24:0.23076923 
-0.387339699266221 4:26 5:0.5833334 6:2 7:3 8:0.041666687 9:0.375 10:0.20833331 11:0.375 12:7 13:0.31999999 14:1 15:0.5 16:50 17:0.18 18:0.22000003 19:0.27999997 20:0.32 21:0.15000001 
-0.005680247509498047 4:22 5:0.27272725 6:3 7:3 8:0.36363637 9:0.090909064 10:0.18181819 11:0.36363637 12:35 13:0.33333334 15:0.4047619 16:42 17:0.28571427 18:0.19047618 19:0.21428573 20:0.30952382 21:0.22222222 22:0.25 23:0.21428572 
-0.1335383723725765 1:2 2:2 3:18 4:23 5:0.5652174 6:3 7:2 8:0.17391306 9:0.43478262 10:0.13043481 11:0.26086956 12:4 13:0.2173913 14:1 15:0.44827586 16:87 17:0.22988504 18:0.21839082 19:0.22988504 20:0.3218391 21:0.20987654 22:1.1111112 23:0.33333334 24:0.2 
-0.08646056315108822 3:2 4:21 5:0.38095236 6:2 7:2 8:0.14285713 9:0.09523809 10:0.28571427 11:0.47619045 12:52 13:0.17073171 14:3 15:0.39215684 16:51 17:0.25490195 18:0.17647058 19:0.21568626 20:0.35294116 21:0.2 22:0.63636363 23:0.23809524 24:0.5 
-1 4:23 5:0.77272725 6:2 7:4 8:0.13636363 9:0.36363637 10:0.40909094 11:0.090909064 12:7 13:0.1627907 14:3 15:0.6481482 16:54 17:0.2037037 18:0.3888889 19:0.25925928 20:0.14814812 21:0.1627907 22:1.375 
-0.06822698261837822 4:23 5:0.6363636 6:2 7:5 8:0.18181819 9:0.36363637 10:0.27272725 11:0.18181819 12:34 13:0.33333334 15:0.5555556 16:45 17:0.19999999 18:0.22222221 19:0.3333333 20:0.24444443 21:0.2682927 22:0.83333331 
-0.0423998729243107 1:1 2:2 3:16 4:23 5:0.5909091 6:1 7:3 8:0.18181819 9:0.13636363 10:0.45454544 11:0.22727275 12:2 13:0.090909094 14:2 15:0.5822785 16:79 17:0.17721522 18:0.21518987 19:0.36708862 20:0.24050635 21:0.093333334 22:1.1 24:0.096774191 
-0.07830734948313076 1:1 2:2 3:16 4:23 5:0.5454545 6:1 7:3 8:0.13636363 9:0.3181818 10:0.22727275 11:0.3181818 12:59 13:0.090909094 14:3 15:0.5822785 16:79 17:0.17721522 18:0.21518987 19:0.36708862 20:0.24050635 21:0.093333334 22:0.90909094 24:0.096774191 
-0.3698266164136159 4:21 5:0.6666666 6:2 7:4 8:0.09523809 9:0.38095236 10:0.28571427 11:0.23809522 12:40 13:0.2 14:4 15:0.6363636 16:44 17:0.15909094 18:0.36363637 19:0.27272725 20:0.20454544 21:0.2 22:1 23:0.125 
-1 3:7 4:22 5:0.5454545 6:1 7:3 8:0.18181819 9:0.13636363 10:0.40909094 11:0.27272725 12:58 13:0.22727273 14:2 15:0.46376812 16:69 17:0.15942031 18:0.20289856 19:0.26086956 20:0.37681162 21:0.20689656 22:1.6666666 23:0.047619049 24:0.14285715 
-0.1251026845860746 1:1 2:1 3:10 4:23 5:0.5652174 6:2 7:4 8:0.13043481 9:0.17391306 10:0.39130437 11:0.3043478 12:61 13:0.2173913 14:3 15:0.46753246 16:77 17:0.16883117 18:0.20779222 19:0.25974023 20:0.36363637 21:0.18181819 22:0.69999999 23:0.07692308 24:0.1 
-0.431818378525388 1:2 2:2 3:12 4:24 5:0.5 6:4 7:3 8:0.2916667 9:0.2916667 10:0.20833331 11:0.20833331 12:10 13:0.24444444 14:1 15:0.5492958 16:71 17:0.23943663 18:0.28169012 19:0.26760566 20:0.21126759 21:0.2238806 22:0.8888889 23:0.33333334 24:0.18181819 
-0.5440318763620055 3:1 4:18 5:0.5555556 6:2 7:3 8:0.22222221 9:0.3333333 10:0.22222221 11:0.22222221 12:27 13:0.17647059 14:3 15:0.65 16:40 17:0.17500001 18:0.325 19:0.325 20:0.17500001 21:0.16666667 22:1.1428572 23:0.30612245 
-1 3:3 4:21 5:0.52380955 6:3 7:1 8:0.09523809 9:0.23809522 10:0.28571427 11:0.38095236 12:46 13:0.2857143 14:2 15:0.46428573 16:56 17:0.25 18:0.21428573 19:0.25 20:0.28571427 21:0.25 22:1.4 
-0.7758265815740527 1:1 2:1 3:5 4:26 5:0.625 6:2 7:4 8:0.041666687 9:0.2916667 10:0.3333333 11:0.3333333 12:5 13:0.2 14:1 15:0.59375 16:64 17:0.125 18:0.25 19:0.34375 20:0.28125 21:0.23333333 22:1.6666666 23:0.25 24:0.40000001 
-1 3:2 4:22 5:0.5454545 6:1 7:3 8:0.090909064 9:0.27272725 10:0.27272725 11:0.36363637 12:13 13:0.1627907 14:3 15:0.4915254 16:59 17:0.20338982 18:0.220339 19:0.2711864 20:0.30508476 21:0.14893617 22:1 23:0.28 
-0.09589470505267839 4:22 5:0.45454544 6:1 7:3 8:0.27272725 9:0.18181819 10:0.27272725 11:0.27272725 12:7 13:0.23809524 14:1 15:0.45652175 16:46 17:0.23913044 18:0.21739131 19:0.23913044 20:0.3043478 21:0.15789473 22:1.2 
-1 3:1 4:22 5:0.36363637 6:1 7:2 8:0.22727275 9:0.13636363 10:0.22727275 11:0.40909094 12:40 13:0.090909094 14:2 15:0.38596493 16:57 17:0.28070176 18:0.17543858 19:0.21052629 20:0.3333333 21:0.086956523 22:1.3333334 
-0.04206989357722665 4:22 5:0.5909091 6:2 7:3 8:0.22727275 9:0.3181818 10:0.27272725 11:0.18181819 12:39 13:0.15000001 14:1 15:0.52272725 16:44 17:0.22727275 18:0.22727275 19:0.29545456 20:0.25 21:0.10526316 22:0.875 23:0.125 
-0.3068628185632671 1:2 2:1 3:7 4:25 5:0.6086956 6:1 7:4 8:0.0869565 9:0.17391306 10:0.43478262 11:0.3043478 12:6 13:0.125 14:2 15:0.530303 16:66 17:0.22727275 18:0.22727275 19:0.3030303 20:0.24242425 21:0.13333334 22:0.69999999 24:0.16666667 
-0.8309420130001494 1:3 2:1 3:8 4:27 5:0.625 6:3 7:4 8:0.16666669 9:0.2916667 10:0.3333333 11:0.20833331 12:57 13:0.17647059 14:4 15:0.52112675 16:71 17:0.22535211 18:0.25352114 19:0.26760566 20:0.25352114 21:0.2238806 22:1.25 23:0.33333334 24:0.375 
-0.8702333284198626 1:2 2:1 3:6 4:26 5:0.47826087 6:4 7:3 8:0.26086956 9:0.21739131 10:0.26086956 11:0.26086956 12:42 13:0.22448979 14:3 15:0.48387098 16:62 17:0.22580647 18:0.24193549 19:0.24193549 20:0.2903226 21:0.22033899 22:1.4 24:0.2 
-0.9363881953634846 1:2 2:1 3:10 4:21 5:0.4285714 6:4 7:2 8:0.23809522 9:0.19047618 10:0.23809522 11:0.3333333 12:4 13:0.23076923 14:4 15:0.5 16:60 17:0.21666664 18:0.25 19:0.25 20:0.28333336 21:0.22807017 22:0.30000001 24:0.22222222 
-0.4029181468432597 3:4 4:21 5:0.57142854 6:1 7:3 8:0.28571427 9:0.19047618 10:0.38095236 11:0.14285713 12:50 13:0.17073171 14:3 15:0.62745094 16:51 17:0.2352941 18:0.29411763 19:0.3333333 20:0.1372549 21:0.16666667 22:0.89999998 23:0.2 24:0.14285715 
-0.9732893094434503 1:2 2:3 3:17 4:23 5:0.6521739 6:2 7:2 8:0.17391306 9:0.34782606 10:0.3043478 11:0.17391306 12:5 13:0.18181819 14:3 15:0.67088604 16:79 17:0.20253164 18:0.31645572 19:0.35443038 20:0.12658226 21:0.18421052 22:1 23:0.14285715 24:0.1875 
-1 1:2 2:1 3:8 4:24 5:0.6956522 6:1 7:4 8:0.21739131 9:0.34782606 10:0.34782606 11:0.0869565 12:13 13:0.17391305 14:3 15:0.671875 16:64 17:0.203125 18:0.3125 19:0.359375 20:0.125 21:0.18032786 22:0.625 23:0.18181819 24:0.2 
-0.1599683766215485 4:25 5:0.5 6:1 7:5 8:0.16666669 9:0.25 10:0.25 11:0.3333333 12:35 13:0.2173913 14:1 15:0.53061223 16:49 17:0.24489796 18:0.26530612 19:0.26530612 20:0.22448981 21:0.18181819 22:1 23:0.15789473 
-0.9619888823963765 3:2 4:25 5:0.6086956 6:2 7:3 8:0.17391306 9:0.43478262 10:0.17391306 11:0.21739131 12:41 13:0.2 14:4 15:0.51666665 16:60 17:0.25 18:0.3 19:0.21666664 20:0.23333335 21:0.18367347 22:3 
-1 1:2 2:2 3:7 4:23 5:0.8095238 6:1 7:4 8:0.09523809 9:0.52380955 10:0.28571427 11:0.09523809 12:5 13:0.13636364 14:2 15:0.6885246 16:61 17:0.081967235 18:0.32786888 19:0.36065573 20:0.22950822 21:0.22807017 22:1.1 24:0.53846157 
-0.1300294503429463 4:25 5:0.6818182 6:3 7:3 8:0.18181819 9:0.40909094 10:0.27272725 11:0.13636363 12:37 13:0.31914893 15:0.6808511 16:47 17:0.12765956 18:0.36170214 19:0.31914896 20:0.19148934 21:0.25581396 22:0.71428573 23:0.2173913 
-0.5656751651082956 1:3 2:1 3:13 4:24 5:0.5 6:4 7:2 8:0.20833331 9:0.25 10:0.25 11:0.2916667 12:1 13:0.17391305 15:0.50666666 16:75 17:0.22666669 18:0.21333331 19:0.29333335 20:0.26666665 21:0.17142858 22:0.81818181 24:0.16666667 
-0.5245945301051522 1:2 2:4 3:24 4:28 5:0.40909094 6:8 7:3 8:0.22727275 9:0.22727275 10:0.18181819 11:0.36363637 12:80 13:0.36000001 14:3 15:0.47000003 16:100 17:0.23000002 18:0.18 19:0.29000002 20:0.3 21:0.27083334 22:0.875 24:0.17391305 
-0.3305958640803806 3:1 4:22 5:0.45454544 6:2 7:3 8:0.3181818 9:0.090909064 10:0.36363637 11:0.22727275 12:31 13:0.19047619 14:2 15:0.4583333 16:48 17:0.22916669 18:0.14583331 19:0.3125 20:0.3125 21:0.18181819 22:1.1428572 23:0.33333334 
-0.05053230300328262 1:1 2:1 3:9 4:23 5:0.6363636 6:3 7:4 8:0.27272725 9:0.5454545 10:0.090909064 11:0.090909064 12:6 13:0.24444444 14:1 15:0.5416666 16:72 17:0.16666669 18:0.2638889 19:0.2777778 20:0.2916667 21:0.20634921 22:0.72727275 23:0.090909094 24:0.11111111 
-0.5440289419959503 3:5 4:24 5:0.5833334 6:2 7:1 8:0.125 9:0.4166667 10:0.16666669 11:0.2916667 12:1 13:0.083333336 15:0.6376811 16:69 17:0.14492756 18:0.28985506 19:0.34782606 20:0.21739131 21:0.068965517 22:1 
-0.827999135867815 3:3 4:24 5:0.5833334 6:2 7:1 8:0.125 9:0.4166667 10:0.16666669 11:0.2916667 12:3 13:0.083333336 14:3 15:0.63076925 16:65 17:0.15384614 18:0.29230767 19:0.33846152 20:0.2153846 21:0.074074075 22:1 
-0.9968943228786583 3:2 4:24 5:0.6521739 6:1 7:3 8:0.17391306 9:0.34782606 10:0.3043478 11:0.17391306 12:43 13:0.13043478 14:3 15:0.63076925 16:65 17:0.19999999 18:0.3076923 19:0.3230769 20:0.16923076 21:0.12 22:1.375 
-0.9802101428696675 3:1 4:22 5:0.6363636 6:1 7:3 8:0.13636363 9:0.27272725 10:0.36363637 11:0.22727275 12:3 13:0.11627907 14:2 15:0.6333333 16:60 17:0.19999999 18:0.3 19:0.3333333 20:0.16666669 21:0.11111111 22:0.72727275 
-0.66105517577354 4:23 5:0.5454545 6:2 7:4 8:0.13636363 9:0.3181818 10:0.22727275 11:0.3181818 12:17 13:0.20930232 14:2 15:0.5490196 16:51 17:0.2352941 18:0.3333333 19:0.21568626 20:0.21568626 21:0.17073171 22:1.4 23:0.10344828 
-1 1:1 2:1 3:4 4:23 5:0.5 6:2 7:3 8:0.18181819 9:0.13636363 10:0.36363637 11:0.3181818 12:7 13:0.11627907 14:4 15:0.4909091 16:55 17:0.25454545 18:0.23636365 19:0.25454545 20:0.25454545 21:0.13725491 22:0.77777779 23:0.23076923 24:0.25 
-1 3:4 4:25 5:0.5416666 6:2 7:3 8:0.375 9:0.20833331 10:0.3333333 11:0.08333331 12:47 13:0.16666667 14:2 15:0.5147059 16:68 17:0.20588237 18:0.2205882 19:0.29411763 20:0.2794118 21:0.14285715 22:1.2857143 
-0.3726418424638495 3:4 4:22 5:0.47619045 6:2 7:3 8:0.09523809 9:0.23809522 10:0.23809522 11:0.4285714 12:6 13:0.14285715 14:2 15:0.516129 16:62 17:0.19354838 18:0.22580647 19:0.2903226 20:0.2903226 21:0.12 22:0.8888889 
-0.6165002691372932 1:1 2:3 3:14 4:20 5:0.75 6:2 7:3 8:0.050000012 9:0.25 10:0.5 11:0.19999999 12:57 13:0.23076923 14:3 15:0.7183099 16:71 17:0.08450705 18:0.26760566 19:0.45070422 20:0.19718307 21:0.21212122 22:0.58333331 24:0.18518518 
-0.1789243131729464 4:22 5:0.40909094 6:3 7:2 8:0.3181818 9:0.18181819 10:0.22727275 11:0.27272725 12:12 13:0.30000001 14:4 15:0.5121951 16:41 17:0.24390244 18:0.24390244 19:0.26829267 20:0.24390244 21:0.125 23:0.22222222 
-0.9965684882601972 1:1 2:1 3:7 4:22 5:0.5454545 6:1 7:3 8:0.22727275 9:0.27272725 10:0.27272725 11:0.22727275 12:53 13:0.11627907 14:1 15:0.4126984 16:63 17:0.34920633 18:0.22222221 19:0.19047618 20:0.23809522 21:0.19298245 22:1.125 23:0.2173913 24:0.42857143 
-0.5530626458284963 1:1 2:2 3:25 4:23 5:0.95454544 6:3 7:4 8:0.04545456 9:0.40909094 10:0.5454545 12:80 13:0.25581396 14:4 15:0.76 16:100 17:0.11000001 18:0.32 19:0.44 20:0.13 21:0.15217391 22:2 24:0.06122449 
-0.01157610052721197 4:22 5:0.5 6:4 7:3 8:0.090909064 9:0.18181819 10:0.3181818 11:0.40909094 12:10 13:0.45454547 14:2 15:0.5 16:44 17:0.15909094 18:0.22727275 19:0.27272725 20:0.34090906 21:0.36842105 22:2.6666667 23:0.125 
-0.2851522939014238 3:1 4:28 5:0.5652174 6:2 7:3 8:0.3043478 9:0.21739131 10:0.34782606 11:0.13043481 12:44 13:0.098039217 14:1 15:0.5087719 16:57 17:0.19298244 18:0.21052629 19:0.2982456 20:0.2982456 21:0.094339624 22:1.5 
-0.4240183842753944 1:1 2:1 3:14 4:21 5:0.47619045 6:2 7:2 8:0.23809522 9:0.19047618 10:0.28571427 11:0.28571427 12:4 13:0.10526316 14:4 15:0.47826087 16:69 17:0.21739131 18:0.20289856 19:0.2753623 20:0.3043478 21:0.07692308 22:1.5 24:0.037037037 
-0.2062861939905606 3:1 4:21 5:0.6666666 6:1 7:3 8:0.19047618 9:0.38095236 10:0.28571427 11:0.14285713 12:37 13:0.12195122 14:3 15:0.59615386 16:52 17:0.13461536 18:0.28846157 19:0.3076923 20:0.26923078 21:0.11627907 22:1 
-0.4042016235436681 1:1 2:1 3:10 4:23 5:0.52380955 6:2 7:3 8:0.19047618 9:0.19047618 10:0.3333333 11:0.28571427 12:13 13:0.22727273 14:4 15:0.53947365 16:76 17:0.21052629 18:0.2368421 19:0.30263156 20:0.25 21:0.1875 22:0.83333331 23:0.54545456 24:0.1 
-0.8359350704470033 4:23 5:0.45454544 6:2 7:2 8:0.13636363 9:0.13636363 10:0.3181818 11:0.40909094 12:24 13:0.2 14:4 15:0.4716981 16:53 17:0.26415092 18:0.20754719 19:0.26415092 20:0.26415092 21:0.12195122 22:2.5 23:0.42222223 
-0.542536263857161 3:4 4:20 5:0.39999998 6:2 7:2 8:0.3 9:0.25 10:0.14999998 11:0.3 12:40 13:0.25 14:4 15:0.43137252 16:51 17:0.2745098 18:0.2352941 19:0.19607842 20:0.29411763 21:0.23404256 22:0.55555558 23:0.29411766 24:0.14285715 
-0.9299182932877538 1:3 2:1 3:7 4:23 5:0.5454545 6:2 7:4 8:0.18181819 9:0.3181818 10:0.22727275 11:0.27272725 12:4 13:0.24444444 14:1 15:0.41935486 16:62 17:0.2580645 18:0.2096774 19:0.2096774 20:0.32258064 21:0.27586207 22:0.5 24:0.38461539 
-0.2304681306206103 1:2 2:3 3:13 4:21 5:0.71428573 6:2 7:1 8:0.047619045 9:0.19047618 10:0.52380955 11:0.23809522 12:8 13:0.17073171 14:3 15:0.5774648 16:71 17:0.1690141 18:0.23943663 19:0.3380282 20:0.25352114 21:0.1875 22:0.55555558 23:0.06666667 24:0.2173913 
-0.2042255258317793 1:3 2:2 3:12 4:25 5:0.5 6:3 7:4 8:0.090909064 9:0.22727275 10:0.27272725 11:0.40909094 12:4 13:0.23404256 14:2 15:0.43209875 16:81 17:0.24691355 18:0.19753087 19:0.23456788 20:0.32098764 21:0.25714287 22:0.375 24:0.30434781 
-0.6270324759125806 1:4 2:3 3:17 4:23 5:0.5454545 6:1 7:5 8:0.18181819 9:0.13636363 10:0.40909094 11:0.27272725 12:63 13:0.2 14:3 15:0.5609756 16:82 17:0.17073172 18:0.24390244 19:0.31707317 20:0.26829267 21:0.24675325 22:0.77777779 24:0.3125 
-0.4423484563573093 1:1 2:2 3:7 4:24 5:0.6086956 6:4 7:5 8:0.17391306 9:0.3043478 10:0.3043478 11:0.21739131 12:12 13:0.30434781 14:3 15:0.5625 16:64 17:0.1875 18:0.25 19:0.3125 20:0.25 21:0.28813559 22:1 23:0.090909094 24:0.23076923 
-0.2548409938341281 1:1 2:2 3:12 4:22 5:0.40909094 6:3 7:3 8:0.27272725 9:0.22727275 10:0.18181819 11:0.3181818 12:6 13:0.27272728 14:4 15:0.46575344 16:73 17:0.17808217 18:0.1917808 19:0.27397263 20:0.3561644 21:0.2238806 22:2 23:0.27272728 24:0.13043478 
-0.08527867665710584 4:23 5:0.5 6:3 7:3 8:0.04545456 9:0.18181819 10:0.3181818 11:0.45454544 12:45 13:0.24444444 14:4 15:0.44897962 16:49 17:0.18367344 18:0.18367344 19:0.26530612 20:0.36734694 21:0.20930232 22:0.40000001 23:0.25714287 
-0.5691215494801929 1:2 2:5 3:33 4:24 5:0.5454545 6:6 7:3 8:0.18181819 9:0.13636363 10:0.40909094 11:0.27272725 12:3 13:0.34782609 14:3 15:0.5043478 16:115 17:0.19130433 18:0.23478264 19:0.26956522 20:0.3043478 21:0.26126125 22:1.1428572 24:0.2 
-0.5072512096852533 1:1 2:2 3:13 4:22 5:0.5454545 6:2 7:4 8:0.090909064 9:0.22727275 10:0.3181818 11:0.36363637 12:74 13:0.25581396 14:4 15:0.4931507 16:73 17:0.17808217 18:0.24657536 19:0.24657536 20:0.32876712 21:0.2173913 22:1.4 23:0.30434781 24:0.15384616 
-0.3993583102715833 1:2 2:1 3:11 4:24 5:0.4166667 6:3 7:3 8:0.16666669 10:0.4166667 11:0.4166667 12:63 13:0.26086956 14:2 15:0.52112675 16:71 17:0.18309861 18:0.19718307 19:0.32394367 20:0.29577464 21:0.23529412 22:1.4 23:0.07692308 24:0.18181819 
-0.6061352158505802 1:7 2:1 3:15 4:22 5:0.6363636 6:2 7:5 8:0.13636363 9:0.3181818 10:0.3181818 11:0.22727275 12:60 13:0.27272728 14:4 15:0.56338024 16:71 17:0.21126759 18:0.28169012 19:0.28169012 20:0.22535211 21:0.28358209 22:0.625 23:0.2 24:0.30434781 
-0.5643227564227372 4:22 5:0.40909094 6:9 7:2 8:0.27272725 9:0.13636363 10:0.27272725 11:0.3181818 12:47 13:0.37142858 14:4 15:0.525 16:40 17:0.14999998 18:0.22500002 19:0.3 20:0.325 21:0.33333334 22:1.125 23:0.14285715 
-0.7209576069825679 1:9 2:3 3:26 4:22 5:0.5909091 6:1 7:3 8:0.090909064 9:0.090909064 10:0.5 11:0.3181818 12:2 13:0.13636364 14:3 15:0.5638298 16:94 17:0.14893615 18:0.24468082 19:0.31914896 20:0.28723407 21:0.21839081 22:0.75 24:0.30232558 
-0.4586902955474252 3:10 4:21 5:0.57142854 6:1 7:4 8:0.28571427 9:0.28571427 10:0.28571427 11:0.14285713 12:44 13:0.35135135 14:4 15:0.5925926 16:54 17:0.2777778 18:0.35185188 19:0.24074072 20:0.12962961 21:0.40000001 23:0.1 24:0.53846157 
-0.4890836308697216 1:2 2:2 3:20 4:22 5:0.5454545 6:2 7:3 8:0.18181819 9:0.3181818 10:0.22727275 11:0.27272725 12:1 13:0.23809524 15:0.5764706 16:85 17:0.19999999 18:0.28235292 19:0.29411763 20:0.2235294 21:0.18518518 22:2.2 24:0.12820514 
-1 1:1 2:2 3:9 4:22 5:0.5454545 6:1 7:3 8:0.27272725 9:0.3181818 10:0.22727275 11:0.18181819 12:45 13:0.13636364 14:2 15:0.5909091 16:66 17:0.24242425 18:0.3333333 19:0.25757575 20:0.16666669 21:0.16129032 22:0.63636363 24:0.22222222 
-0.1888223127732601 4:22 5:0.5454545 6:1 7:3 8:0.3181818 9:0.27272725 10:0.27272725 11:0.13636363 12:34 13:0.22727273 15:0.5909091 16:44 17:0.25 18:0.3181818 19:0.27272725 20:0.15909094 21:0.15000001 22:0.27272728 23:0.18181819 
-0.9316836120411487 1:5 2:1 3:11 4:22 5:0.3181818 6:1 7:1 8:0.36363637 9:0.18181819 10:0.13636363 11:0.3181818 12:47 13:0.095238097 14:2 15:0.47761196 16:67 17:0.22388059 18:0.23880595 19:0.23880595 20:0.29850745 21:0.26984128 22:1 24:0.61904764 
-0.14037043356013 4:23 5:0.5 6:5 7:2 8:0.3181818 9:0.27272725 10:0.22727275 11:0.18181819 12:37 13:0.33333334 14:4 15:0.5102041 16:49 17:0.22448981 18:0.28571427 19:0.22448981 20:0.26530612 21:0.33333334 22:0.54545456 23:0.05882353 
-0.8538920555251144 1:1 2:1 3:14 4:23 5:0.5909091 6:3 7:3 8:0.13636363 9:0.3181818 10:0.27272725 11:0.27272725 12:18 13:0.33333334 14:1 15:0.55714285 16:70 17:0.15714288 18:0.27142859 19:0.28571427 20:0.28571427 21:0.27272728 22:2.6666667 23:0.21212122 24:0.16666667 
-1 1:6 2:4 3:30 4:22 5:0.5454545 6:1 7:3 8:0.3181818 9:0.36363637 10:0.18181819 11:0.13636363 12:3 13:0.20930232 14:2 15:0.57575756 16:99 17:0.16161615 18:0.28282827 19:0.2929293 20:0.2626263 21:0.2631579 22:0.625 24:0.30769232 
-0.9860323214272907 1:2 2:1 3:9 4:23 5:0.5217391 6:1 7:2 8:0.13043481 9:0.34782606 10:0.17391306 11:0.34782606 12:50 13:0.086956523 14:2 15:0.5277778 16:72 17:0.2361111 18:0.2638889 19:0.2638889 20:0.2361111 21:0.096774191 22:0.81818181 24:0.125 
-0.6028355449236121 1:2 2:1 3:8 4:21 5:0.61904764 6:1 7:2 8:0.23809522 9:0.19047618 10:0.4285714 11:0.14285713 12:4 13:0.095238097 14:4 15:0.5 16:66 17:0.25757575 18:0.25757575 19:0.24242425 20:0.24242425 21:0.10714286 22:0.89999998 24:0.14285715 
-1 1:1 2:1 3:6 4:24 5:0.6818182 6:2 7:5 8:0.22727275 9:0.36363637 10:0.3181818 11:0.090909064 12:45 13:0.18181819 14:4 15:0.6333333 16:60 17:0.19999999 18:0.3 19:0.3333333 20:0.16666669 21:0.16363636 22:0.625 23:0.2 24:0.090909094 
-0.1878379631270223 4:24 5:0.4583333 6:1 7:4 8:0.2916667 9:0.2916667 10:0.16666669 11:0.25 12:13 13:0.24444444 14:4 15:0.5 16:46 17:0.26086956 18:0.23913044 19:0.26086956 20:0.23913044 21:0.12820514 22:5 23:0.083333336 
-0.5990980815990956 1:1 2:3 3:11 4:13 5:0.4166667 6:1 7:1 8:0.16666669 9:0.16666669 10:0.25 11:0.4166667 12:50 13:0.039999999 14:2 15:0.4423077 16:52 17:0.28846157 18:0.21153843 19:0.23076922 20:0.26923078 21:0.11111111 22:1 23:0.11111111 24:0.2 
-0.1566950445334162 4:24 5:0.5454545 6:2 7:2 8:0.27272725 9:0.45454544 10:0.090909064 11:0.18181819 12:43 13:0.2 14:1 15:0.5102041 16:49 17:0.24489796 18:0.24489796 19:0.26530612 20:0.24489796 21:0.07692308 22:0.30000001 23:0.21428572 
-0.9564572615122873 3:7 4:22 5:0.5454545 6:1 7:2 8:0.18181819 9:0.18181819 10:0.36363637 11:0.27272725 12:10 13:0.090909094 14:3 15:0.49206346 16:63 17:0.26984125 18:0.2063492 19:0.28571427 20:0.23809522 21:0.13793103 22:0.77777779 23:0.15789473 24:0.2857143 
-0.009316147766916087 4:24 5:0.6818182 6:1 7:3 8:0.22727275 9:0.45454544 10:0.22727275 11:0.090909064 12:37 13:0.30434781 15:0.7173913 16:46 17:0.19565219 18:0.39130437 19:0.32608694 20:0.0869565 21:0.11111111 23:0.25 
-0.9965877240587954 1:3 2:1 3:8 4:23 5:0.6086956 6:2 7:3 8:0.21739131 9:0.26086956 10:0.34782606 11:0.17391306 12:43 13:0.2 14:3 15:0.53125 16:64 17:0.21875 18:0.296875 19:0.234375 20:0.25 21:0.22033899 22:1.2857143 24:0.2857143 
-0.5448015847259712 4:21 5:0.57142854 6:3 7:2 8:0.19047618 9:0.28571427 10:0.28571427 11:0.23809522 12:15 13:0.17948718 14:2 15:0.52 16:50 17:0.22000003 18:0.27999997 19:0.24000001 20:0.26 21:0.17948718 22:1.1111112 23:0.14285715 
-0.6400492656160706 1:5 2:1 3:18 4:22 5:0.5909091 6:3 7:2 8:0.18181819 9:0.36363637 10:0.22727275 11:0.22727275 12:62 13:0.14285715 14:3 15:0.6315789 16:76 17:0.11842108 18:0.2894737 19:0.34210527 20:0.25 21:0.16666667 22:1 23:0.42857143 24:0.2 
-0.9993805341920634 3:4 4:28 5:0.5652174 6:5 7:2 8:0.13043481 9:0.3043478 10:0.26086956 11:0.3043478 12:53 13:0.16 14:4 15:0.61290324 16:62 17:0.12903225 18:0.2580645 19:0.35483873 20:0.2580645 21:0.13793103 22:1.4285715 23:0.35714287 
-0.3121559919129243 4:21 5:0.6666666 6:4 7:3 8:0.19047618 9:0.23809522 10:0.4285714 11:0.14285713 12:16 13:0.2972973 14:2 15:0.6097561 16:41 17:0.21951222 18:0.26829267 19:0.3414634 20:0.17073172 21:0.2972973 22:0.625 23:0.1724138 
-0.02037888984369055 3:1 4:22 5:0.45454544 6:1 7:3 8:0.3181818 9:0.090909064 10:0.36363637 11:0.22727275 12:47 13:0.14285715 14:1 15:0.3888889 16:54 17:0.3333333 18:0.1851852 19:0.2037037 20:0.2777778 21:0.13636364 22:1 23:0.22580644 
-0.4199274877734515 1:1 2:2 3:14 4:26 5:0.72727275 6:2 7:5 8:0.13636363 9:0.3181818 10:0.40909094 11:0.13636363 12:1 13:0.20833333 15:0.517647 16:85 17:0.24705881 18:0.2235294 19:0.29411763 20:0.2352941 21:0.17333333 22:1.5714285 24:0.11111111 
-0.3277529147320383 1:1 2:1 3:12 4:22 5:0.6363636 6:2 7:3 8:0.22727275 9:0.27272725 10:0.36363637 11:0.13636363 12:58 13:0.1627907 14:1 15:0.5189873 16:79 17:0.21518987 18:0.22784811 19:0.29113925 20:0.26582277 21:0.13432837 22:0.69999999 24:0.083333336 
-0.4231672110641577 3:2 4:23 5:0.5 6:2 7:3 8:0.090909064 9:0.090909064 10:0.40909094 11:0.40909094 12:37 13:0.22727273 14:3 15:0.5925926 16:54 17:0.14814812 18:0.25925928 19:0.3333333 20:0.25925928 21:0.20833333 22:1.8 
-0.4729903468105943 1:2 2:1 3:15 4:20 5:0.57894737 6:1 7:3 8:0.21052629 9:0.36842108 10:0.21052629 11:0.21052629 12:73 13:0.17948718 14:4 15:0.48101264 16:79 17:0.1898734 18:0.22784811 19:0.25316453 20:0.3291139 21:0.1594203 22:0.875 23:0.39130434 24:0.13333334 
-0.996247796524465 1:1 2:1 3:5 4:22 5:0.36363637 6:3 7:4 8:0.3181818 9:0.22727275 10:0.13636363 11:0.3181818 12:8 13:0.23809524 14:2 15:0.4385965 16:57 17:0.21052629 18:0.21052629 19:0.2280702 20:0.35087717 21:0.21568628 22:1.6 23:0.14285715 24:0.11111111 
-0.8075039072579578 1:1 2:1 3:3 4:22 5:0.5909091 6:1 7:5 8:0.22727275 9:0.36363637 10:0.22727275 11:0.18181819 12:48 13:0.20930232 14:3 15:0.57407403 16:54 17:0.2037037 18:0.24074072 19:0.3333333 20:0.22222221 21:0.20833333 22:1.2857143 23:0.06666667 24:0.2 
