svm_type c_svc
kernel_type rbf
gamma 0.0416667
nr_class 2
total_sv 465
rho 0.50621
label 1 0
probA -18.7706
probB -14.6089
nr_sv 190 275
SV
1 3:4 4:23 5:0.39130437 6:2 7:2 8:0.17391306 9:0.21739131 10:0.17391306 11:0.43478262 12:4 13:0.15555556 14:4 15:0.42372882 16:59 17:0.23728812 18:0.16949153 19:0.2542373 20:0.33898306 21:0.24528302 22:0.25 24:0.75 
1 1:3 2:1 3:6 4:23 5:0.45454544 6:2 7:2 8:0.22727275 9:0.090909064 10:0.36363637 11:0.3181818 12:43 13:0.24444444 14:3 15:0.39682537 16:63 17:0.25396824 18:0.15873015 19:0.23809522 20:0.34920633 21:0.29824561 22:4.5 24:0.5 
1 3:1 4:22 5:0.6363636 6:4 7:2 8:0.13636363 9:0.40909094 10:0.22727275 11:0.22727275 12:7 13:0.27272728 14:3 15:0.6111111 16:54 17:0.2037037 18:0.3148148 19:0.2962963 20:0.1851852 21:0.26086956 22:0.8888889 
1 3:3 4:22 5:0.6363636 6:4 7:3 8:0.3181818 9:0.22727275 10:0.40909094 11:0.04545456 12:41 13:0.27272728 14:3 15:0.63793105 16:58 17:0.18965518 18:0.32758623 19:0.31034482 20:0.17241377 21:0.23999999 22:1.1111112 
1 3:5 4:21 5:0.57142854 6:2 7:3 8:0.3333333 9:0.047619045 10:0.52380955 11:0.09523809 12:17 13:0.2682927 14:2 15:0.5818182 16:55 17:0.23636365 18:0.34545457 19:0.23636365 20:0.18181819 21:0.31999999 22:2 23:0.22580644 24:0.55555558 
1 3:3 4:25 5:0.40909094 6:2 7:3 8:0.090909064 9:0.13636363 10:0.27272725 11:0.5 12:47 13:0.19148937 14:2 15:0.46551722 16:58 17:0.24137932 18:0.18965518 19:0.2758621 20:0.29310346 21:0.16981132 22:1 23:0.30000001 
1 3:5 4:22 5:0.47619045 6:2 7:2 8:0.19047618 9:0.28571427 10:0.19047618 11:0.3333333 12:21 13:0.11627907 14:2 15:0.5090909 16:55 17:0.23636365 18:0.25454545 19:0.25454545 20:0.25454545 21:0.1923077 22:1.125 23:0.31818181 24:0.55555558 
0.7708708243349824 1:3 2:1 3:7 4:22 5:0.5454545 6:2 7:1 8:0.27272725 9:0.3181818 10:0.22727275 11:0.18181819 12:56 13:0.1627907 14:2 15:0.52542377 16:59 17:0.220339 18:0.2711864 19:0.2542373 20:0.2542373 21:0.21428572 22:1 23:0.30000001 24:0.38461539 
1 1:2 2:1 3:5 4:22 5:0.57142854 6:2 7:3 8:0.14285713 9:0.23809522 10:0.3333333 11:0.28571427 12:5 13:0.20930232 14:2 15:0.5 16:58 17:0.2241379 18:0.24137932 19:0.25862068 20:0.2758621 21:0.24528302 22:1 23:0.25 24:0.40000001 
0.7068019302043113 1:2 2:1 3:7 4:23 5:0.6086956 6:2 7:4 8:0.26086956 9:0.3043478 10:0.3043478 11:0.13043481 12:43 13:0.24444444 14:3 15:0.546875 16:64 17:0.203125 18:0.28125 19:0.265625 20:0.25 21:0.25423729 22:0.875 24:0.2857143 
0.628178662529036 1:2 2:2 3:10 4:22 5:0.6363636 6:2 7:4 8:0.27272725 9:0.22727275 10:0.40909094 11:0.090909064 12:47 13:0.33333334 14:2 15:0.6060606 16:66 17:0.19696969 18:0.3333333 19:0.27272725 20:0.19696969 21:0.3442623 22:1 24:0.36842105 
1 4:22 5:0.5 6:2 7:3 8:0.19999999 9:0.3 10:0.19999999 11:0.3 12:14 13:0.14285715 14:2 15:0.46296299 16:54 17:0.22222221 18:0.24074072 19:0.22222221 20:0.3148148 21:0.14285715 22:1.125 23:0.18518518 
1 3:2 4:22 5:0.5 6:2 7:3 8:0.27272725 9:0.3181818 10:0.18181819 11:0.22727275 12:48 13:0.19047619 14:2 15:0.48275864 16:58 17:0.2241379 18:0.25862068 19:0.2241379 20:0.29310346 21:0.17391305 22:1 23:0.13043478 
1 3:6 4:22 5:0.45454544 6:3 7:2 8:0.27272725 9:0.18181819 10:0.27272725 11:0.27272725 12:18 13:0.1627907 14:3 15:0.45762712 16:59 17:0.23728812 18:0.20338982 19:0.2542373 20:0.30508476 21:0.16363636 22:1.5 23:0.27272728 24:0.16666667 
1 3:3 4:26 5:0.5909091 6:3 7:5 8:0.13636363 9:0.27272725 10:0.3181818 11:0.27272725 12:9 13:0.20833333 14:1 15:0.5862069 16:58 17:0.13793105 18:0.24137932 19:0.3448276 20:0.2758621 21:0.18518518 22:2.3333333 23:0.06666667 
1 1:3 2:2 3:13 4:22 5:0.71428573 6:1 7:4 8:0.14285713 9:0.23809522 10:0.47619045 11:0.14285713 12:51 13:0.1627907 14:2 15:0.6231884 16:69 17:0.13043481 18:0.26086956 19:0.3623188 20:0.24637681 21:0.16923077 22:1 24:0.18181819 
0.692163411067037 3:3 4:23 5:0.5217391 6:1 7:2 8:0.0869565 9:0.26086956 10:0.26086956 11:0.39130437 12:60 13:0.090909094 14:1 15:0.5 16:62 17:0.22580647 18:0.2580645 19:0.24193549 20:0.27419353 21:0.079999998 22:1.2857143 23:0.34999999 
0.3844162835558722 1:1 2:1 3:5 4:23 5:0.6086956 6:2 7:3 8:0.17391306 9:0.21739131 10:0.39130437 11:0.21739131 12:5 13:0.2 14:1 15:0.5263158 16:57 17:0.21052629 18:0.2280702 19:0.2982456 20:0.2631579 21:0.18518518 22:0.5 24:0.11111111 
1 1:1 2:1 3:5 4:24 5:0.5 6:2 7:3 8:0.16666669 9:0.16666669 10:0.3333333 11:0.3333333 12:14 13:0.17391305 14:2 15:0.55172414 16:58 17:0.20689654 18:0.25862068 19:0.29310346 20:0.24137932 21:0.16363636 22:0.80000001 23:0.14285715 24:0.11111111 
0.5707774461609494 1:1 2:1 3:7 4:23 5:0.6666666 6:2 7:4 8:0.23809522 9:0.4285714 10:0.23809522 11:0.09523809 12:52 13:0.18181819 14:4 15:0.56666666 16:60 17:0.19999999 18:0.26666665 19:0.3 20:0.23333335 21:0.15789473 22:0.625 23:0.15384616 24:0.07692308 
0.9335700977345616 1:3 2:1 3:9 4:21 5:0.61904764 6:2 7:1 8:0.09523809 9:0.57142854 10:0.047619045 11:0.28571427 12:54 13:0.14285715 14:4 15:0.60317457 16:63 17:0.17460316 18:0.25396824 19:0.34920633 20:0.22222221 21:0.20689656 22:1.25 23:0.13043478 24:0.375 
0.3377125326780916 1:3 2:2 3:10 4:23 5:0.72727275 6:2 7:6 8:0.13636363 9:0.45454544 10:0.27272725 11:0.13636363 12:47 13:0.2888889 14:3 15:0.7384615 16:65 17:0.09230769 18:0.39999998 19:0.33846152 20:0.16923076 21:0.29032257 22:1.3333334 24:0.29411766 
1 1:3 2:1 3:11 4:21 5:0.61904764 6:2 7:3 8:0.19047618 9:0.23809522 10:0.38095236 11:0.19047618 12:54 13:0.2682927 14:1 15:0.6 16:65 17:0.19999999 18:0.27692306 19:0.3230769 20:0.19999999 21:0.23333333 22:0.80000001 23:0.11111111 24:0.15789473 
1 1:1 2:1 3:6 4:23 5:0.5 6:1 7:3 8:0.13636363 9:0.27272725 10:0.22727275 11:0.36363637 12:42 13:0.11111111 14:2 15:0.5833334 16:60 17:0.19999999 18:0.3 19:0.28333336 20:0.21666664 21:0.12280702 22:0.63636363 24:0.16666667 
1 4:24 5:0.5416666 6:2 7:5 8:0.16666669 9:0.375 10:0.16666669 11:0.2916667 12:9 13:0.2173913 14:2 15:0.5272727 16:55 17:0.14545453 18:0.25454545 19:0.27272725 20:0.3272727 21:0.2173913 22:0.77777779 23:0.16666667 
0.02708889303168667 3:1 4:24 5:0.45454544 6:2 7:2 8:0.22727275 9:0.18181819 10:0.27272725 11:0.3181818 12:14 13:0.2173913 14:4 15:0.4918033 16:61 17:0.19672132 18:0.27868855 19:0.21311474 20:0.3114754 21:0.20833333 22:1.25 23:0.375 
1 3:3 4:23 5:0.45454544 6:2 7:4 8:0.3181818 9:0.27272725 10:0.18181819 11:0.22727275 12:6 13:0.2 14:4 15:0.4153846 16:65 17:0.26153845 18:0.19999999 19:0.2153846 20:0.3230769 21:0.17647059 22:1 23:0.40000001 
1 3:2 4:23 5:0.47826087 6:2 7:4 8:0.0869565 9:0.17391306 10:0.3043478 11:0.43478262 12:47 13:0.2 14:2 15:0.4285714 16:63 17:0.25396824 18:0.2063492 19:0.22222221 20:0.3174603 21:0.18367347 22:0.875 23:0.33333334 
1 3:2 4:24 5:0.4583333 6:2 7:3 8:0.16666669 9:0.08333331 10:0.375 11:0.375 12:20 13:0.24444444 14:1 15:0.4166667 16:60 17:0.25 18:0.23333335 19:0.18333334 20:0.3333333 21:0.22448979 22:0.42857143 23:0.2820513 
1 1:2 2:1 3:9 4:22 5:0.61904764 6:2 7:4 8:0.047619045 9:0.52380955 10:0.09523809 11:0.3333333 12:50 13:0.20930232 14:2 15:0.61764705 16:68 17:0.14705884 18:0.2647059 19:0.35294116 20:0.2352941 21:0.2 22:0.77777779 24:0.17647059 
1 3:4 4:24 5:0.5909091 6:2 7:4 8:0.3181818 9:0.27272725 10:0.3181818 11:0.090909064 12:14 13:0.15555556 14:1 15:0.52542377 16:59 17:0.2711864 18:0.23728812 19:0.2881356 20:0.20338982 21:0.13207547 22:1 23:0.07692308 
1 3:8 4:23 5:0.5454545 6:1 7:4 8:0.27272725 9:0.18181819 10:0.36363637 11:0.18181819 12:54 13:0.1627907 14:3 15:0.515625 16:64 17:0.28125 18:0.234375 19:0.28125 20:0.203125 21:0.13793103 22:0.71428573 23:0.047619049 24:0.06666667 
0.1334627334490404 1:2 2:1 3:9 4:22 5:0.5454545 6:2 7:3 8:0.04545456 9:0.40909094 10:0.13636363 11:0.40909094 12:6 13:0.17073171 14:1 15:0.5 16:60 17:0.21666664 18:0.28333336 19:0.21666664 20:0.28333336 21:0.19298245 22:0.66666669 23:0.2 24:0.25 
0.2269820188826908 1:2 2:1 3:8 4:25 5:0.5 6:2 7:3 8:0.45454544 9:0.18181819 10:0.3181818 11:0.04545456 12:46 13:0.23404256 14:1 15:0.5 16:64 17:0.21875 18:0.265625 19:0.234375 20:0.28125 21:0.21311475 22:1.1666666 24:0.14285715 
1 3:5 4:24 5:0.6666666 6:1 7:2 8:0.2916667 9:0.4166667 10:0.25 11:0.041666687 12:14 13:0.086956523 14:4 15:0.56896555 16:58 17:0.18965518 18:0.2758621 19:0.29310346 20:0.24137932 21:0.11111111 22:0.75 23:0.23076923 24:0.25 
1 3:2 4:22 5:0.5454545 6:2 7:4 8:0.22727275 9:0.18181819 10:0.36363637 11:0.22727275 12:19 13:0.25581396 14:3 15:0.5 16:56 17:0.23214287 18:0.21428573 19:0.28571427 20:0.26785713 21:0.23404256 22:0.5714286 23:0.13333334 
0.2760457545169006 3:5 4:21 5:0.55 6:2 7:3 8:0.10000002 9:0.3 10:0.25 11:0.35000002 12:57 13:0.21951219 14:2 15:0.51666665 16:60 17:0.21666664 18:0.21666664 19:0.3 20:0.26666665 21:0.21568628 22:0.85714287 23:0.15384616 24:0.2 
1 1:1 2:1 3:8 4:22 5:0.45454544 6:2 7:3 8:0.3181818 9:0.18181819 10:0.27272725 11:0.22727275 12:15 13:0.20930232 14:4 15:0.44444442 16:63 17:0.22222221 18:0.17460316 19:0.26984125 20:0.3333333 21:0.20689656 22:1.125 23:0.2857143 24:0.2 
1 1:1 2:1 3:9 4:23 5:0.5 6:2 7:4 8:0.18181819 9:0.27272725 10:0.22727275 11:0.3181818 12:58 13:0.2 14:4 15:0.46268654 16:67 17:0.20895523 18:0.19402987 19:0.26865673 20:0.32835823 21:0.22580644 22:1.4285715 23:0.25 24:0.29411766 
1 4:26 5:0.73913044 6:2 7:3 8:0.0869565 9:0.39130437 10:0.34782606 11:0.17391306 12:14 13:0.14285715 14:1 15:0.7307692 16:52 17:0.11538464 18:0.40384614 19:0.32692307 20:0.15384614 21:0.14285715 22:0.875 23:0.30769232 
1 1:1 2:1 3:6 4:19 5:0.7368421 6:2 7:2 8:0.15789473 9:0.31578946 10:0.42105263 11:0.10526317 12:46 13:0.085714288 14:3 15:0.74 16:50 17:0.10000002 18:0.39999998 19:0.33999997 20:0.16000003 21:0.10638298 22:1.2 23:0.35714287 24:0.16666667 
1 3:2 4:23 5:0.47826087 6:2 7:3 8:0.26086956 9:0.17391306 10:0.3043478 11:0.26086956 12:49 13:0.2 14:1 15:0.39999998 16:60 17:0.3 18:0.16666669 19:0.23333335 20:0.3 21:0.18367347 22:1.1666666 23:0.090909094 
0.3220383803360647 4:22 5:0.6363636 6:1 7:3 8:0.18181819 9:0.5 10:0.13636363 11:0.18181819 12:22 13:0.13636364 14:4 15:0.625 16:56 17:0.1785714 18:0.3214286 19:0.3035714 20:0.1964286 21:0.13636364 22:1.1111112 23:0.14285715 
1 1:2 2:1 3:10 4:23 5:0.45454544 6:1 7:1 8:0.36363637 9:0.18181819 10:0.27272725 11:0.18181819 12:6 13:0.022222223 14:2 15:0.5230769 16:65 17:0.19999999 18:0.23076922 19:0.29230767 20:0.27692306 21:0.081967212 22:0.8888889 24:0.25 
1 1:2 2:2 3:12 4:22 5:0.45454544 6:1 7:1 8:0.13636363 9:0.22727275 10:0.22727275 11:0.40909094 12:50 13:0.023255814 14:3 15:0.53731346 16:67 17:0.19402987 18:0.23880595 19:0.29850745 20:0.26865673 21:0.079365082 22:1.125 24:0.2 
1 1:2 2:1 3:5 4:25 5:0.5454545 6:2 7:3 8:0.18181819 9:0.18181819 10:0.36363637 11:0.27272725 12:2 13:0.24444444 14:2 15:0.62068963 16:58 17:0.18965518 18:0.31034482 19:0.31034482 20:0.18965518 21:0.25925925 22:0.30000001 24:0.33333334 
1 3:5 4:22 5:0.5454545 6:1 7:1 8:0.40909094 9:0.13636363 10:0.40909094 11:0.04545456 12:7 13:0.045454547 14:4 15:0.4736842 16:57 17:0.2631579 18:0.19298244 19:0.28070176 20:0.2631579 21:0.16981132 22:1.1111112 24:0.77777779 
1 1:4 2:1 3:7 4:25 5:0.48000002 6:1 7:1 8:0.07999998 9:0.27999997 10:0.19999999 11:0.44 12:44 13:0.039999999 14:3 15:0.49253732 16:67 17:0.25373137 18:0.20895523 19:0.2835821 20:0.25373137 21:0.14285715 22:0.90909094 24:0.53846157 
1 1:1 2:2 3:13 4:24 5:0.8 6:3 7:4 8:0.10000002 9:0.3 10:0.5 11:0.10000002 12:2 13:0.18181819 14:4 15:0.6438356 16:73 17:0.15068495 18:0.260274 19:0.38356167 20:0.20547944 21:0.14705883 22:1.3333334 24:0.083333336 
1 3:2 4:24 5:0.4583333 6:3 7:3 8:0.20833331 9:0.25 10:0.20833331 11:0.3333333 12:4 13:0.11627907 14:2 15:0.5283019 16:53 17:0.20754719 18:0.24528301 19:0.2830189 20:0.26415092 21:0.10638298 22:1.4 
1 3:2 4:28 5:0.5217391 6:3 7:3 8:0.26086956 9:0.3043478 10:0.21739131 11:0.21739131 12:38 13:0.12 14:3 15:0.56666666 16:60 17:0.19999999 18:0.26666665 19:0.3 20:0.23333335 21:0.11111111 22:0.55555558 
1 1:1 2:1 3:5 4:23 5:0.5454545 6:3 7:2 8:0.18181819 9:0.22727275 10:0.3181818 11:0.27272725 12:10 13:0.2 14:4 15:0.5423729 16:59 17:0.20338982 18:0.23728812 19:0.30508476 20:0.2542373 21:0.22222222 22:0.80000001 23:0.11111111 24:0.33333334 
0.07759380487314861 1:1 2:2 3:7 4:22 5:0.5 6:3 7:2 8:0.18181819 9:0.3181818 10:0.18181819 11:0.3181818 12:48 13:0.25581396 14:2 15:0.5409836 16:61 17:0.19672132 18:0.22950822 19:0.3114754 20:0.26229507 21:0.25 22:2 24:0.23076923 
1 3:4 4:25 5:0.6363636 6:3 7:5 8:0.090909064 9:0.22727275 10:0.40909094 11:0.27272725 12:3 13:0.22727273 14:3 15:0.6507937 16:63 17:0.12698412 18:0.30158728 19:0.34920633 20:0.22222221 21:0.1923077 22:0.25 
1 1:1 2:1 3:5 4:23 5:0.34782606 6:2 7:4 8:0.3043478 9:0.13043481 10:0.21739131 11:0.34782606 12:43 13:0.2 14:2 15:0.4915254 16:59 17:0.2542373 18:0.220339 19:0.2711864 20:0.2542373 21:0.18518518 22:1.1666666 24:0.11111111 
1 3:4 4:23 5:0.7826087 6:2 7:3 8:0.17391306 9:0.34782606 10:0.43478262 11:0.04347825 12:4 13:0.13636364 14:2 15:0.78947365 16:57 17:0.12280703 18:0.35087717 19:0.4385965 20:0.08771932 21:0.21568628 22:0.8888889 23:0.14285715 24:0.71428573 
0.7471838189352352 1:1 2:1 3:7 4:22 5:0.5454545 6:3 7:2 8:0.27272725 9:0.13636363 10:0.40909094 11:0.18181819 12:1 13:0.12820514 14:1 15:0.5087719 16:57 17:0.2280702 18:0.2280702 19:0.28070176 20:0.2631579 21:0.13207547 22:4.5 24:0.14285715 
1 1:1 2:1 3:6 4:26 5:0.47619045 6:3 7:2 8:0.19047618 9:0.3333333 10:0.14285713 11:0.3333333 12:40 13:0.18181819 14:2 15:0.48333335 16:60 17:0.23333335 18:0.21666664 19:0.26666665 20:0.28333336 21:0.17857143 22:2.5 24:0.16666667 
1 1:2 2:1 3:9 4:28 5:0.6363636 6:6 7:2 8:0.22727275 9:0.40909094 10:0.22727275 11:0.13636363 12:1 13:0.2 15:0.6056338 16:71 17:0.1690141 18:0.28169012 19:0.32394367 20:0.22535211 21:0.20588236 22:3 24:0.22222222 
0.8462362310237443 1:2 2:1 3:9 4:21 5:0.57142854 6:6 7:2 8:0.19047618 9:0.19047618 10:0.38095236 11:0.23809522 12:44 13:0.27777779 14:2 15:0.5964912 16:57 17:0.17543858 18:0.28070176 19:0.31578946 20:0.2280702 21:0.25925925 22:0.60000002 24:0.22222222 
1 3:5 4:20 5:0.55 6:1 7:2 8:0.10000002 9:0.25 10:0.3 11:0.35000002 12:10 13:0.07692308 14:1 15:0.46666664 16:60 17:0.23333335 18:0.21666664 19:0.25 20:0.3 21:0.06122449 22:1 23:0.25 
1 1:1 2:1 3:7 4:23 5:0.40909094 6:2 7:2 8:0.22727275 9:0.090909064 10:0.3181818 11:0.36363637 12:41 13:0.25581396 14:3 15:0.4745763 16:59 17:0.20338982 18:0.23728812 19:0.23728812 20:0.32203388 21:0.25 24:0.23076923 
1 1:2 2:1 3:5 4:22 5:0.5454545 6:2 7:3 8:0.22727275 9:0.3181818 10:0.22727275 11:0.22727275 12:4 13:0.18181819 14:1 15:0.559322 16:59 17:0.20338982 18:0.30508476 19:0.2542373 20:0.23728812 21:0.20754717 22:1.2857143 24:0.33333334 
1 1:1 2:1 3:7 4:23 5:0.6818182 6:3 7:5 8:0.27272725 9:0.45454544 10:0.22727275 11:0.04545456 12:2 13:0.31707317 14:1 15:0.6166667 16:60 17:0.21666664 18:0.35000002 19:0.26666665 20:0.16666669 21:0.27272728 22:1 24:0.14285715 
1 1:1 2:1 3:4 4:24 5:0.40909094 6:2 7:3 8:0.22727275 9:0.22727275 10:0.18181819 11:0.36363637 12:41 13:0.2 14:4 15:0.44067794 16:59 17:0.23728812 18:0.20338982 19:0.23728812 20:0.32203388 21:0.20754717 22:2 24:0.25 
1 3:4 4:24 5:0.72727275 6:1 7:4 8:0.18181819 9:0.45454544 10:0.27272725 11:0.090909064 12:8 13:0.22727273 14:2 15:0.6721312 16:61 17:0.14754099 18:0.32786888 19:0.3442623 20:0.18032789 21:0.1923077 22:3.6666667 23:0.14285715 
0.2723005511314422 3:6 4:24 5:0.6666666 6:1 7:4 8:0.20833331 9:0.2916667 10:0.375 11:0.125 12:47 13:0.2 14:2 15:0.671875 16:64 17:0.140625 18:0.328125 19:0.34375 20:0.1875 21:0.2 22:1 23:0.090909094 24:0.2 
1 4:24 5:0.4166667 6:1 7:2 8:0.2916667 9:0.20833331 10:0.20833331 11:0.2916667 12:6 13:0.16666667 14:4 15:0.4423077 16:52 17:0.28846157 18:0.19230771 19:0.25 20:0.26923078 21:0.16666667 22:0.83333331 
1 1:1 2:1 3:5 4:20 5:0.45 6:2 7:2 8:0.25 9:0.14999998 10:0.3 11:0.3 12:39 13:0.15000001 14:1 15:0.4259259 16:54 17:0.2962963 18:0.1851852 19:0.24074072 20:0.2777778 21:0.16 22:2.25 24:0.2 
1 1:2 2:1 3:8 4:22 5:0.40909094 6:1 7:2 8:0.18181819 9:0.04545456 10:0.36363637 11:0.40909094 12:40 13:0.14285715 14:3 15:0.42622954 16:61 17:0.26229507 18:0.22950822 19:0.19672132 20:0.3114754 21:0.14285715 22:2.25 24:0.14285715 
1 3:2 4:24 5:0.47826087 6:2 7:4 8:0.3043478 9:0.21739131 10:0.26086956 11:0.21739131 12:43 13:0.2173913 14:2 15:0.5409836 16:61 17:0.21311474 18:0.24590164 19:0.29508197 20:0.24590164 21:0.2 22:1.6 23:0.25 
1 1:3 2:1 3:7 4:21 5:0.57142854 6:1 7:2 8:0.28571427 9:0.23809522 10:0.3333333 11:0.14285713 12:43 13:0.095238097 14:4 15:0.48333335 16:60 17:0.21666664 18:0.25 19:0.23333335 20:0.3 21:0.16363636 22:0.63636363 24:0.38461539 
1 4:23 5:0.6818182 6:2 7:3 8:0.18181819 9:0.27272725 10:0.40909094 11:0.13636363 12:6 13:0.24444444 14:3 15:0.66071427 16:56 17:0.14285713 18:0.26785713 19:0.39285713 20:0.1964286 21:0.24444444 22:1 
1 3:5 4:21 5:0.8095238 6:2 7:2 8:0.047619045 9:0.47619045 10:0.3333333 11:0.14285713 12:44 13:0.21951219 14:1 15:0.6935484 16:62 17:0.12903225 18:0.2903226 19:0.40322578 20:0.17741936 21:0.21568628 22:0.66666669 24:0.2 
1 1:1 2:1 3:5 4:23 5:0.5217391 6:2 7:3 8:0.3043478 9:0.0869565 10:0.43478262 11:0.17391306 12:5 13:0.15555556 14:3 15:0.49206346 16:63 17:0.22222221 18:0.2063492 19:0.28571427 20:0.28571427 21:0.16363636 22:0.90909094 23:0.25 24:0.2 
1 1:1 2:1 3:7 4:23 5:0.5454545 6:2 7:3 8:0.13636363 9:0.3181818 10:0.22727275 11:0.3181818 12:48 13:0.2 14:3 15:0.47761196 16:67 17:0.23880595 18:0.19402987 19:0.2835821 20:0.2835821 21:0.18644068 22:1.4285715 24:0.14285715 
1 1:1 2:1 3:8 4:21 5:0.6666666 6:1 7:2 8:0.09523809 9:0.38095236 10:0.28571427 11:0.23809522 12:4 13:0.21951219 14:3 15:0.73333335 16:60 17:0.11666667 18:0.28333336 19:0.45 20:0.14999998 21:0.2 22:3.6666667 24:0.14285715 
1 1:3 2:1 3:6 4:22 5:0.6363636 6:1 7:3 8:0.13636363 9:0.40909094 10:0.22727275 11:0.22727275 12:5 13:0.11627907 14:2 15:0.6666666 16:57 17:0.12280703 18:0.35087717 19:0.31578946 20:0.21052629 21:0.16981132 22:1 23:0.25 24:0.40000001 
0.5222555058540903 1:3 2:1 3:8 4:23 5:0.6818182 6:1 7:4 8:0.090909064 9:0.36363637 10:0.3181818 11:0.22727275 12:43 13:0.15555556 14:2 15:0.6666666 16:63 17:0.12698412 18:0.36507934 19:0.30158728 20:0.2063492 21:0.18644068 22:1 24:0.2857143 
0.617830660072167 1:3 2:1 3:8 4:22 5:0.57142854 6:3 7:3 8:0.09523809 9:0.28571427 10:0.28571427 11:0.3333333 12:47 13:0.20930232 14:4 15:0.5409836 16:61 17:0.18032789 18:0.27868855 19:0.26229507 20:0.27868855 21:0.24137931 22:0.54545456 23:0.11111111 24:0.33333334 
1 3:1 4:24 5:0.45454544 6:2 7:3 8:0.090909064 9:0.3181818 10:0.13636363 11:0.45454544 12:3 13:0.13043478 14:1 15:0.4310345 16:58 17:0.2241379 18:0.18965518 19:0.24137932 20:0.3448276 21:0.125 22:0.80000001 
1 3:3 4:24 5:0.3333333 6:2 7:3 8:0.5 9:0.041666687 10:0.2916667 11:0.16666669 12:39 13:0.2173913 14:3 15:0.41935486 16:62 17:0.2580645 18:0.19354838 19:0.22580647 20:0.32258064 21:0.1923077 22:2.5 
1 3:1 4:25 5:0.6666666 6:2 7:4 8:0.08333331 9:0.375 10:0.2916667 11:0.25 12:6 13:0.18367347 14:1 15:0.63793105 16:58 17:0.15517241 18:0.29310346 19:0.3448276 20:0.20689654 21:0.17647059 22:0.8888889 
1 3:4 4:24 5:0.625 6:2 7:3 8:0.20833331 9:0.2916667 10:0.3333333 11:0.16666669 12:42 13:0.14893617 14:2 15:0.62903225 16:62 17:0.16129035 18:0.2903226 19:0.33870965 20:0.2096774 21:0.16363636 22:0.72727275 24:0.25 
1 3:3 4:24 5:0.5 6:3 7:4 8:0.3181818 9:0.27272725 10:0.22727275 11:0.18181819 12:7 13:0.26086956 14:3 15:0.4310345 16:58 17:0.29310346 18:0.2241379 19:0.20689654 20:0.2758621 21:0.23076923 22:5 23:0.16666667 
1 3:2 4:22 5:0.5909091 6:2 7:3 8:0.090909064 9:0.22727275 10:0.36363637 11:0.3181818 12:6 13:0.18181819 14:2 15:0.57142854 16:56 17:0.14285713 18:0.23214287 19:0.33928573 20:0.28571427 21:0.20833333 22:1.25 23:0.11111111 24:0.5 
1 3:3 4:24 5:0.47826087 6:2 7:2 8:0.34782606 9:0.34782606 10:0.13043481 11:0.17391306 12:18 13:0.14893617 14:4 15:0.38983053 16:59 17:0.2711864 18:0.1864407 19:0.20338982 20:0.33898306 21:0.20754717 22:0.69999999 23:0.23529412 24:0.66666669 
1 1:1 2:1 3:5 4:23 5:0.6818182 6:2 7:3 8:0.13636363 9:0.45454544 10:0.22727275 11:0.18181819 12:44 13:0.13636364 14:2 15:0.671875 16:64 17:0.1875 18:0.390625 19:0.28125 20:0.140625 21:0.13207547 22:0.90909094 24:0.11111111 
0.4364287094038765 1:2 2:2 3:9 4:23 5:0.6363636 6:1 7:3 8:0.090909064 9:0.5909091 10:0.04545456 11:0.27272725 12:45 13:0.13636364 14:4 15:0.57575756 16:66 17:0.18181819 18:0.24242425 19:0.3333333 20:0.24242425 21:0.19354838 22:1.4285715 24:0.33333334 
1 1:1 2:2 3:9 4:22 5:0.5 6:1 7:2 8:0.3181818 9:0.13636363 10:0.36363637 11:0.18181819 12:9 13:0.069767445 14:1 15:0.546875 16:64 17:0.203125 18:0.203125 19:0.34375 20:0.25 21:0.1 22:0.69999999 23:0.05882353 24:0.17647059 
1 1:1 2:2 3:11 4:23 5:0.5 6:1 7:3 8:0.13636363 9:0.3181818 10:0.18181819 11:0.36363637 12:54 13:0.090909094 14:2 15:0.5362319 16:69 17:0.20289856 18:0.18840581 19:0.34782606 20:0.26086956 21:0.10769231 22:1.6666666 24:0.14285715 
1 1:2 2:1 3:7 4:21 5:0.61904764 6:1 7:3 8:0.19047618 9:0.3333333 10:0.28571427 11:0.19047618 12:10 13:0.19047619 14:1 15:0.6034483 16:58 17:0.18965518 18:0.3448276 19:0.25862068 20:0.20689654 21:0.18518518 22:1.4285715 23:0.11111111 24:0.16666667 
0.7393720087604865 1:2 2:1 3:7 4:21 5:0.61904764 6:1 7:3 8:0.14285713 9:0.38095236 10:0.23809522 11:0.23809522 12:47 13:0.19047619 14:1 15:0.6034483 16:58 17:0.18965518 18:0.3448276 19:0.25862068 20:0.20689654 21:0.18518518 22:0.69999999 23:0.11111111 24:0.16666667 
1 4:22 5:0.5 6:1 7:3 8:0.13636363 9:0.3181818 10:0.18181819 11:0.36363637 12:18 13:0.13636364 14:4 15:0.39999998 16:55 17:0.19999999 18:0.19999999 19:0.19999999 20:0.39999998 21:0.13636364 22:1.2222222 23:0.2 
0.1999336548235716 3:2 4:23 5:0.43478262 6:1 7:4 8:0.26086956 9:0.17391306 10:0.26086956 11:0.3043478 12:53 13:0.17391305 14:2 15:0.42622954 16:61 17:0.18032789 18:0.18032789 19:0.24590164 20:0.39344263 21:0.16 22:1.2857143 23:0.1724138 
0.5619440135212427 1:1 2:1 3:7 4:24 5:0.5 6:2 7:2 8:0.2916667 9:0.25 10:0.25 11:0.20833331 12:15 13:0.15555556 14:1 15:0.55737704 16:61 17:0.22950822 18:0.27868855 19:0.27868855 20:0.21311474 21:0.19298245 22:0.5 23:0.35714287 24:0.33333334 
1 1:2 2:2 3:9 4:20 5:0.6666666 6:2 7:2 8:0.055555582 9:0.3333333 10:0.3333333 11:0.2777778 12:57 13:0.10526316 14:2 15:0.56896555 16:58 17:0.20689654 18:0.2758621 19:0.29310346 20:0.2241379 21:0.14814815 22:1 23:0.41935483 24:0.25 
1 3:2 4:21 5:0.4285714 6:3 7:2 8:0.38095236 9:0.23809522 10:0.19047618 11:0.19047618 12:12 13:0.23809524 14:4 15:0.4814815 16:54 17:0.25925928 18:0.22222221 19:0.25925928 20:0.25925928 21:0.2173913 22:1.1428572 23:0.090909094 
1 3:3 4:22 5:0.5 6:3 7:2 8:0.090909064 9:0.22727275 10:0.27272725 11:0.40909094 12:46 13:0.27272728 14:2 15:0.44827586 16:58 17:0.25862068 18:0.20689654 19:0.24137932 20:0.29310346 21:0.23999999 22:1.4 
1 1:1 2:1 3:5 4:24 5:0.6363636 6:2 7:4 8:0.04545456 9:0.27272725 10:0.36363637 11:0.3181818 12:7 13:0.2173913 14:3 15:0.6 16:60 17:0.11666667 18:0.25 19:0.35000002 20:0.28333336 21:0.25 22:1.6666666 23:0.16666667 24:0.40000001 
0.5649996783848985 1:2 2:2 3:8 4:24 5:0.6666666 6:2 7:3 8:0.20833331 9:0.25 10:0.4166667 11:0.125 12:46 13:0.19148937 14:3 15:0.5909091 16:66 17:0.13636363 18:0.25757575 19:0.3333333 20:0.27272725 21:0.25806451 22:1 24:0.46666667 
0.6921888589203308 3:2 4:23 5:0.5909091 6:1 7:3 8:0.18181819 9:0.22727275 10:0.36363637 11:0.22727275 12:51 13:0.2 14:2 15:0.4918033 16:61 17:0.21311474 18:0.21311474 19:0.27868855 20:0.29508197 21:0.18367347 22:1.75 23:0.2173913 
1 1:1 2:1 3:5 4:23 5:0.40909094 6:1 7:3 8:0.13636363 9:0.27272725 10:0.13636363 11:0.45454544 12:39 13:0.20930232 14:3 15:0.43333334 16:60 17:0.21666664 18:0.19999999 19:0.23333335 20:0.35000002 21:0.1923077 22:3.5 24:0.11111111 
1 4:22 5:0.40909094 6:1 7:2 8:0.3181818 9:0.18181819 10:0.22727275 11:0.27272725 12:6 13:0.090909094 14:3 15:0.38181818 16:55 17:0.2909091 18:0.18181819 19:0.19999999 20:0.3272727 21:0.090909094 22:0.66666669 
1 3:2 4:22 5:0.36363637 6:1 7:2 8:0.27272725 9:0.13636363 10:0.22727275 11:0.36363637 12:41 13:0.090909094 14:3 15:0.37288135 16:59 17:0.2881356 18:0.16949153 19:0.20338982 20:0.33898306 21:0.083333336 22:1.125 
1 3:5 4:24 5:0.5909091 6:1 7:3 8:0.090909064 9:0.22727275 10:0.36363637 11:0.3181818 12:9 13:0.13043478 14:4 15:0.5333333 16:60 17:0.23333335 18:0.23333335 19:0.3 20:0.23333335 21:0.14814815 22:0.80000001 24:0.25 
0.943267086807237 3:6 4:24 5:0.4166667 6:3 7:3 8:0.2916667 9:0.16666669 10:0.25 11:0.2916667 12:15 13:0.15555556 14:2 15:0.4918033 16:61 17:0.22950822 18:0.22950822 19:0.26229507 20:0.27868855 21:0.22807017 22:0.77777779 23:0.2857143 24:0.5 
1 1:1 2:1 3:9 4:22 5:0.5909091 6:1 7:2 8:0.18181819 9:0.3181818 10:0.27272725 11:0.22727275 12:44 13:0.18181819 14:4 15:0.5692308 16:65 17:0.18461537 18:0.27692306 19:0.29230767 20:0.24615383 21:0.18032786 22:0.625 24:0.17647059 
1 1:2 2:1 3:6 4:23 5:0.43478262 6:2 7:2 8:0.21739131 9:0.26086956 10:0.17391306 11:0.34782606 12:6 13:0.20930232 14:2 15:0.48214287 16:56 17:0.23214287 18:0.23214287 19:0.25 20:0.28571427 21:0.20754717 22:0.2857143 23:0.2 24:0.2 
0.5323526142701646 1:2 2:1 3:7 4:24 5:0.47619045 6:4 7:3 8:0.28571427 9:0.23809522 10:0.23809522 11:0.23809522 12:43 13:0.24444444 14:2 15:0.5 16:60 17:0.21666664 18:0.25 19:0.25 20:0.28333336 21:0.22807017 22:2.3333333 24:0.16666667 
1 1:2 2:4 3:21 4:21 5:0.6666666 6:2 7:3 8:0.14285713 9:0.38095236 10:0.28571427 11:0.19047618 12:3 13:0.17948718 14:4 15:0.67073166 16:82 17:0.19512194 18:0.31707317 19:0.35365856 20:0.13414633 21:0.18987341 22:0.60000002 24:0.2 
1 3:5 4:24 5:0.73913044 6:1 7:3 8:0.17391306 9:0.39130437 10:0.34782606 11:0.0869565 12:16 13:0.14893617 14:4 15:0.6779661 16:59 17:0.20338982 18:0.30508476 19:0.37288135 20:0.11864406 21:0.17857143 22:0.81818181 23:0.18518518 24:0.33333334 
1 3:4 4:25 5:0.4583333 6:1 7:5 8:0.20833331 9:0.20833331 10:0.25 11:0.3333333 12:40 13:0.24444444 14:3 15:0.48275864 16:58 17:0.29310346 18:0.24137932 19:0.24137932 20:0.2241379 21:0.20754717 22:1.6 
1 3:2 4:26 5:0.43478262 6:3 7:4 8:0.34782606 9:0.13043481 10:0.3043478 11:0.21739131 12:3 13:0.19148937 14:2 15:0.5 16:62 17:0.2580645 18:0.2903226 19:0.2096774 20:0.24193549 21:0.17647059 22:0.33333334 
1 1:3 2:2 3:9 4:22 5:0.6666666 6:2 7:3 8:0.19047618 9:0.38095236 10:0.28571427 11:0.14285713 12:5 13:0.19047619 14:2 15:0.6612903 16:62 17:0.12903225 18:0.33870965 19:0.32258064 20:0.2096774 21:0.24137931 22:0.90909094 23:0.25 24:0.375 
1 1:3 2:2 3:11 4:23 5:0.5909091 6:2 7:4 8:0.13636363 9:0.3181818 10:0.27272725 11:0.27272725 12:48 13:0.22727273 14:2 15:0.66176474 16:68 17:0.11764705 18:0.33823532 19:0.32352942 20:0.2205882 21:0.25 22:1.375 24:0.30000001 
1 3:7 4:24 5:0.4583333 6:1 7:1 8:0.16666669 9:0.25 10:0.20833331 11:0.375 12:7 13:0.17391305 14:4 15:0.52380955 16:63 17:0.22222221 18:0.22222221 19:0.30158728 20:0.25396824 21:0.20689656 24:0.33333334 
1 1:1 2:1 3:6 4:22 5:0.45454544 6:2 7:3 8:0.3181818 9:0.13636363 10:0.3181818 11:0.22727275 12:26 13:0.20930232 14:4 15:0.46551722 16:58 17:0.24137932 18:0.15517241 19:0.31034482 20:0.29310346 21:0.18518518 22:0.69999999 23:0.36363637 24:0.090909094 
1 1:1 2:1 3:7 4:23 5:0.5 6:2 7:4 8:0.18181819 9:0.27272725 10:0.22727275 11:0.3181818 12:64 13:0.24444444 14:4 15:0.4677419 16:62 17:0.22580647 18:0.16129035 19:0.30645162 20:0.30645162 21:0.20689656 22:2 23:0.34999999 24:0.07692308 
1 3:3 4:22 5:0.5 6:3 7:3 9:0.090909064 10:0.40909094 11:0.5 12:49 13:0.25581396 14:2 15:0.55172414 16:58 17:0.15517241 18:0.29310346 19:0.25862068 20:0.29310346 21:0.22448979 22:1 23:0.12 
1 4:24 5:0.625 6:2 7:1 8:0.08333331 9:0.4166667 10:0.20833331 11:0.2916667 12:7 13:0.125 14:4 15:0.6140351 16:57 17:0.15789473 18:0.28070176 19:0.3333333 20:0.2280702 21:0.086956523 22:0.8888889 
1 3:2 4:24 5:0.625 6:2 7:1 8:0.2916667 9:0.16666669 10:0.4583333 11:0.08333331 12:43 13:0.083333336 14:3 15:0.61904764 16:63 17:0.15873015 18:0.28571427 19:0.3333333 20:0.22222221 21:0.07692308 22:1.1 
1 3:6 4:22 5:0.5 6:2 7:2 8:0.40909094 9:0.13636363 10:0.36363637 11:0.090909064 12:3 13:0.13636364 14:2 15:0.37288135 16:59 17:0.2881356 18:0.16949153 19:0.20338982 20:0.33898306 21:0.12727273 22:0.89999998 24:0.090909094 
1 4:23 5:0.6086956 6:1 7:3 8:0.17391306 9:0.26086956 10:0.34782606 11:0.21739131 12:3 13:0.11111111 14:2 15:0.6333333 16:60 17:0.19999999 18:0.3 19:0.3333333 20:0.16666669 21:0.11111111 22:0.80000001 
1 3:1 4:23 5:0.6818182 6:1 7:3 8:0.18181819 9:0.36363637 10:0.3181818 11:0.13636363 12:42 13:0.11111111 14:1 15:0.6451613 16:62 17:0.19354838 18:0.30645162 19:0.33870965 20:0.16129035 21:0.10638298 22:1.2222222 
1 1:1 2:1 3:5 4:27 5:0.5909091 6:3 7:4 8:0.27272725 9:0.36363637 10:0.22727275 11:0.13636363 12:53 13:0.16666667 14:2 15:0.63235295 16:68 17:0.17647058 18:0.35294116 19:0.2794118 20:0.19117647 21:0.1724138 22:1.1666666 24:0.2 
1 3:3 4:25 5:0.5 6:2 7:3 8:0.16666669 9:0.125 10:0.375 11:0.3333333 12:6 13:0.14893617 14:2 15:0.4736842 16:57 17:0.24561405 18:0.2280702 19:0.24561405 20:0.28070176 21:0.16981132 22:0.55555558 23:0.090909094 24:0.33333334 
1 1:1 2:1 3:5 4:24 5:0.5 6:2 7:4 8:0.22727275 9:0.36363637 10:0.13636363 11:0.27272725 12:42 13:0.15555556 14:4 15:0.4915254 16:59 17:0.23728812 18:0.23728812 19:0.2542373 20:0.2711864 21:0.16363636 22:1.6666666 23:0.11111111 24:0.2 
1 3:3 4:25 5:0.5 6:2 7:3 8:0.08333331 9:0.25 10:0.25 11:0.4166667 12:4 13:0.125 14:1 15:0.530303 16:66 17:0.18181819 18:0.22727275 19:0.3030303 20:0.2878788 21:0.11111111 22:0.89999998 
1 1:3 2:1 3:8 4:22 5:0.5909091 6:1 7:2 8:0.13636363 9:0.22727275 10:0.36363637 11:0.27272725 12:7 13:0.17073171 14:4 15:0.4915254 16:59 17:0.2711864 18:0.20338982 19:0.2881356 20:0.23728812 21:0.18518518 22:0.18181819 24:0.23076923 
1 1:1 2:1 3:6 4:21 5:0.65 6:2 7:3 8:0.10000002 9:0.14999998 10:0.5 11:0.25 12:50 13:0.15000001 14:4 15:0.64912283 16:57 17:0.10526317 18:0.21052629 19:0.4385965 20:0.24561405 21:0.1923077 22:1 23:0.16666667 24:0.33333334 
1 3:5 4:22 5:0.45454544 6:2 7:2 8:0.36363637 9:0.13636363 10:0.3181818 11:0.18181819 12:3 13:0.14285715 14:1 15:0.4745763 16:59 17:0.2542373 18:0.220339 19:0.2542373 20:0.2711864 21:0.16 22:1.125 24:0.25 
1 3:3 4:23 5:0.45454544 6:2 7:3 8:0.3181818 9:0.27272725 10:0.18181819 11:0.22727275 12:15 13:0.15555556 14:3 15:0.40350878 16:57 17:0.35087717 18:0.2280702 19:0.17543858 20:0.24561405 21:0.17647059 22:2.2 23:0.24137931 24:0.33333334 
1 1:1 2:1 3:5 4:22 5:0.5454545 6:1 7:2 8:0.22727275 9:0.27272725 10:0.27272725 11:0.22727275 12:51 13:0.1627907 14:2 15:0.40677965 16:59 17:0.33898306 18:0.220339 19:0.1864407 20:0.2542373 21:0.16981132 22:0.5 23:0.25925925 24:0.2 
0.6391933959084527 1:1 2:1 3:4 4:22 5:0.5909091 6:1 7:1 8:0.090909064 9:0.090909064 10:0.5 11:0.3181818 12:59 13:0.023255814 14:4 15:0.64406776 16:59 17:0.13559324 18:0.2711864 19:0.37288135 20:0.220339 21:0.05882353 22:0.89999998 23:0.25581396 24:0.25 
1 3:4 4:22 5:0.6363636 6:2 7:2 9:0.18181819 10:0.45454544 11:0.36363637 12:3 13:0.27272728 14:3 15:0.56896555 16:58 17:0.13793105 18:0.24137932 19:0.32758623 20:0.29310346 21:0.30769232 22:1.6 24:0.5 
0.7487851698461427 1:1 2:1 3:7 4:23 5:0.5652174 6:2 7:2 8:0.0869565 9:0.26086956 10:0.3043478 11:0.34782606 12:9 13:0.095238097 14:4 15:0.52542377 16:59 17:0.1864407 18:0.220339 19:0.30508476 20:0.2881356 21:0.090909094 22:0.45454547 24:0.07692308 
0.9038054478442206 1:1 2:1 3:7 4:25 5:0.57142854 6:2 7:2 8:0.23809522 9:0.28571427 10:0.28571427 11:0.19047618 12:49 13:0.086956523 14:4 15:0.49206346 16:63 17:0.2063492 18:0.2063492 19:0.28571427 20:0.30158728 21:0.084745765 22:1.2222222 24:0.07692308 
1 3:2 4:22 5:0.47619045 6:1 7:3 8:0.09523809 9:0.14285713 10:0.3333333 11:0.4285714 12:4 13:0.11627907 14:4 15:0.58928573 16:56 17:0.14285713 18:0.28571427 19:0.3035714 20:0.26785713 21:0.10638298 22:1 
1 4:22 5:0.4285714 6:2 7:2 8:0.19047618 9:0.14285713 10:0.28571427 11:0.38095236 12:23 13:0.11627907 14:2 15:0.45454544 16:55 17:0.27272725 18:0.19999999 19:0.25454545 20:0.27272725 21:0.11627907 22:1.1111112 23:0.44186047 
0.5725535149294965 3:2 4:22 5:0.5454545 6:2 7:2 8:0.27272725 9:0.40909094 10:0.13636363 11:0.18181819 12:58 13:0.11627907 14:4 15:0.4745763 16:59 17:0.2542373 18:0.20338982 19:0.2711864 20:0.2711864 21:0.10638298 22:1.1 23:0.48717949 
1 3:4 4:21 5:0.52380955 6:2 7:2 8:0.3333333 9:0.19047618 10:0.3333333 11:0.14285713 12:37 13:0.19047619 14:4 15:0.5090909 16:55 17:0.23636365 18:0.23636365 19:0.27272725 20:0.25454545 21:0.16 22:0.625 
1 3:6 4:20 5:0.5 6:2 7:2 8:0.25 9:0.3 10:0.19999999 11:0.25 12:7 13:0.2 14:3 15:0.39999998 16:55 17:0.27272725 18:0.21818179 19:0.18181819 20:0.3272727 21:0.25490198 22:0.69999999 23:0.23076923 24:0.45454547 
1 1:1 2:1 3:4 4:23 5:0.6086956 6:2 7:3 8:0.0869565 9:0.21739131 10:0.39130437 11:0.3043478 12:15 13:0.18181819 14:2 15:0.55172414 16:58 17:0.17241377 18:0.24137932 19:0.31034482 20:0.2758621 21:0.17647059 22:1.1428572 23:0.14285715 24:0.14285715 
1 1:1 2:1 3:5 4:23 5:0.57142854 6:2 7:3 8:0.28571427 9:0.3333333 10:0.23809522 11:0.14285713 12:53 13:0.18181819 14:4 15:0.56666666 16:60 17:0.16666669 18:0.25 19:0.31666666 20:0.26666665 21:0.16981132 22:0.45454547 23:0.15384616 24:0.11111111 
1 3:3 4:24 5:0.47826087 6:3 7:4 8:0.21739131 9:0.26086956 10:0.21739131 11:0.3043478 12:52 13:0.30434781 14:2 15:0.44444442 16:63 17:0.25396824 18:0.2063492 19:0.23809522 20:0.30158728 21:0.26923078 22:0.5 23:0.16666667 
1 1:1 2:2 3:5 4:23 5:0.6363636 6:4 7:4 8:0.18181819 9:0.3181818 10:0.3181818 11:0.18181819 12:15 13:0.27272728 14:3 15:0.56896555 16:58 17:0.17241377 18:0.25862068 19:0.31034482 20:0.25862068 21:0.28301886 22:0.80000001 23:0.14285715 24:0.33333334 
1 1:1 2:2 3:6 4:24 5:0.5652174 6:4 7:4 8:0.21739131 9:0.21739131 10:0.34782606 11:0.21739131 12:52 13:0.30434781 14:3 15:0.5483871 16:62 17:0.19354838 18:0.24193549 19:0.30645162 20:0.2580645 21:0.29824561 22:2.25 23:0.083333336 24:0.27272728 
1 3:2 4:22 5:0.36363637 6:3 7:2 8:0.3181818 9:0.13636363 10:0.22727275 11:0.3181818 12:16 13:0.20930232 14:3 15:0.4528302 16:53 17:0.16981131 18:0.18867922 19:0.26415092 20:0.3773585 21:0.23404256 22:0.80000001 23:0.22580644 24:0.5 
1 1:1 2:1 3:4 4:23 5:0.45454544 6:3 7:3 8:0.13636363 9:0.22727275 10:0.22727275 11:0.40909094 12:50 13:0.2 14:2 15:0.44067794 16:59 17:0.1864407 18:0.1864407 19:0.2542373 20:0.37288135 21:0.20754717 22:1.2857143 23:0.28 24:0.25 
1 1:1 2:1 3:4 4:23 5:0.40909094 6:1 7:3 8:0.27272725 9:0.3181818 10:0.090909064 11:0.3181818 12:31 13:0.15555556 14:2 15:0.4385965 16:57 17:0.21052629 18:0.21052629 19:0.2280702 20:0.35087717 21:0.16981132 22:0.55555558 23:0.32258064 24:0.25 
1 1:1 2:1 3:6 4:22 5:0.5 6:1 7:3 8:0.13636363 9:0.18181819 10:0.3181818 11:0.36363637 12:67 13:0.20930232 14:2 15:0.45762712 16:59 17:0.20338982 18:0.23728812 19:0.220339 20:0.33898306 21:0.2 22:2 23:0.30000001 24:0.16666667 
1 3:11 4:22 5:0.5454545 6:2 7:4 8:0.18181819 9:0.22727275 10:0.3181818 11:0.27272725 12:15 13:0.22727273 14:3 15:0.52380955 16:63 17:0.23809522 18:0.25396824 19:0.26984125 20:0.23809522 21:0.28813559 22:0.69999999 23:0.21428572 24:0.46666667 
1 3:14 4:22 5:0.8181818 6:1 7:3 8:0.090909064 9:0.22727275 10:0.5909091 11:0.090909064 12:14 13:0.13636364 14:3 15:0.6 16:70 17:0.15714288 18:0.27142859 19:0.32857144 20:0.24285716 21:0.23809524 22:0.8888889 23:0.15384616 24:0.47368422 
1 1:9 2:1 3:16 4:22 5:0.6363636 6:1 7:3 8:0.18181819 9:0.45454544 10:0.18181819 11:0.18181819 12:64 13:0.13636364 14:2 15:0.5810811 16:74 17:0.16216218 18:0.25675678 19:0.3243243 20:0.25675678 21:0.2238806 22:1.5 23:0.18181819 24:0.39130434 
1 1:12 2:1 3:17 4:21 5:0.57142854 6:1 7:5 8:0.28571427 9:0.23809522 10:0.3333333 11:0.14285713 12:51 13:0.23809524 14:2 15:0.61764705 16:68 17:0.25 18:0.36764705 19:0.25 20:0.13235295 21:0.34375 22:0.77777779 24:0.54545456 
1 1:2 2:1 3:6 4:22 5:0.5909091 6:2 7:2 8:0.18181819 9:0.3181818 10:0.27272725 11:0.22727275 12:15 13:0.13636364 14:1 15:0.5762712 16:59 17:0.1864407 18:0.2881356 19:0.2881356 20:0.23728812 21:0.16363636 22:1 23:0.23076923 24:0.27272728 
1 1:1 2:1 3:3 4:22 5:0.6363636 6:1 7:3 8:0.22727275 9:0.45454544 10:0.18181819 11:0.13636363 12:7 13:0.13636364 14:1 15:0.5925926 16:54 17:0.24074072 18:0.3333333 19:0.25925928 20:0.16666669 21:0.16 22:1 23:0.16666667 24:0.33333334 
1 1:1 2:1 3:5 4:22 5:0.5454545 6:1 7:3 8:0.22727275 9:0.22727275 10:0.3181818 11:0.22727275 12:41 13:0.18181819 14:2 15:0.56896555 16:58 17:0.25862068 18:0.32758623 19:0.24137932 20:0.17241377 21:0.18518518 22:1.2857143 24:0.2 
1 1:5 2:1 3:8 4:23 5:0.5909091 6:3 7:2 8:0.13636363 9:0.22727275 10:0.36363637 11:0.27272725 12:3 13:0.15555556 14:4 15:0.484375 16:64 17:0.234375 18:0.25 19:0.234375 20:0.28125 21:0.26666668 22:2.6666667 24:0.60000002 
1 1:6 2:3 3:29 4:22 5:0.5909091 6:1 7:3 8:0.3181818 9:0.36363637 10:0.22727275 11:0.090909064 12:4 13:0.1627907 14:4 15:0.58762884 16:97 17:0.16494846 18:0.2886598 19:0.2989691 20:0.2474227 21:0.24731183 22:0.8888889 23:0.33333334 24:0.31999999 
1 1:6 2:4 3:31 4:23 5:0.5909091 6:2 7:4 8:0.04545456 9:0.22727275 10:0.36363637 11:0.36363637 12:82 13:0.2 14:4 15:0.592233 16:103 17:0.15533978 18:0.29126215 19:0.30097085 20:0.25242716 21:0.25252524 22:1.5 24:0.2962963 
1 4:23 5:0.5652174 6:2 7:2 8:0.26086956 9:0.21739131 10:0.34782606 11:0.17391306 12:10 13:0.13636364 14:3 15:0.5185185 16:54 17:0.25925928 18:0.2777778 19:0.24074072 20:0.22222221 21:0.13636364 22:0.89999998 
1 3:2 4:23 5:0.57142854 6:2 7:3 8:0.14285713 9:0.3333333 10:0.23809522 11:0.28571427 12:45 13:0.13636364 14:4 15:0.51724136 16:58 17:0.25862068 18:0.2758621 19:0.24137932 20:0.2241379 21:0.125 22:1 
1 1:1 2:1 3:8 4:24 5:0.6363636 6:1 7:4 8:0.04545456 9:0.3181818 10:0.3181818 11:0.3181818 12:5 13:0.18181819 14:3 15:0.625 16:64 17:0.203125 18:0.296875 19:0.328125 20:0.171875 21:0.15254237 22:2 23:0.27272728 24:0.06666667 
0.9689376708520572 1:1 2:1 3:10 4:24 5:0.6666666 6:1 7:4 8:0.2916667 9:0.2916667 10:0.375 11:0.041666687 12:47 13:0.18181819 14:3 15:0.6212121 16:66 17:0.21212119 18:0.2878788 19:0.3333333 20:0.16666669 21:0.18032786 22:2 23:0.11111111 24:0.17647059 
1 1:1 2:1 3:5 4:24 5:0.5454545 6:2 7:3 8:0.27272725 9:0.18181819 10:0.36363637 11:0.18181819 12:43 13:0.17391305 14:1 15:0.5737705 16:61 17:0.21311474 18:0.29508197 19:0.27868855 20:0.21311474 21:0.16363636 22:0.63636363 24:0.11111111 
1 3:4 4:24 5:0.4583333 6:1 7:3 8:0.3333333 9:0.2916667 10:0.16666669 11:0.20833331 12:6 13:0.13043478 14:3 15:0.39999998 16:60 17:0.31666666 18:0.18333334 19:0.21666664 20:0.28333336 21:0.13207547 22:0.66666669 24:0.14285715 
1 1:1 2:4 3:18 4:12 5:0.16666669 6:1 7:1 8:0.3333333 9:0.08333331 10:0.08333331 11:0.5 12:56 13:0.083333336 14:3 15:0.421875 16:64 17:0.296875 18:0.1875 19:0.234375 20:0.28125 21:0.12280702 22:1.2857143 24:0.15151516 
1 3:2 4:24 5:0.5 6:3 7:3 8:0.22727275 9:0.36363637 10:0.13636363 11:0.27272725 12:48 13:0.2 14:4 15:0.4745763 16:59 17:0.220339 18:0.220339 19:0.2542373 20:0.30508476 21:0.18367347 22:3.3333333 
0.2114578081606445 3:5 4:22 5:0.5454545 6:1 7:1 8:0.27272725 9:0.22727275 10:0.3181818 11:0.18181819 12:49 13:0.18181819 14:2 15:0.4745763 16:59 17:0.2881356 18:0.20338982 19:0.2711864 20:0.23728812 21:0.14814815 22:0.625 23:0.13043478 
1 3:2 4:22 5:0.72727275 6:2 7:3 8:0.090909064 9:0.27272725 10:0.45454544 11:0.18181819 12:8 13:0.1627907 14:1 15:0.67857146 16:56 17:0.1964286 18:0.375 19:0.3035714 20:0.125 21:0.17391305 22:0.625 23:0.14285715 24:0.33333334 
0.03001655461119532 1:1 2:1 3:5 4:20 5:0.6 6:2 7:2 8:0.25 9:0.39999998 10:0.19999999 11:0.14999998 12:45 13:0.15000001 14:3 15:0.6551724 16:58 17:0.20689654 18:0.36206895 19:0.29310346 20:0.13793105 21:0.16666667 22:2 23:0.16666667 24:0.25 
1 3:4 4:25 5:0.5909091 6:2 7:3 8:0.18181819 9:0.13636363 10:0.45454544 11:0.22727275 12:39 13:0.26086956 14:2 15:0.64406776 16:59 17:0.16949153 18:0.30508476 19:0.33898306 20:0.1864407 21:0.22222222 
1 3:3 4:26 5:0.5652174 6:3 7:4 8:0.17391306 9:0.3043478 10:0.26086956 11:0.26086956 12:4 13:0.22448979 14:1 15:0.55 16:60 17:0.19999999 18:0.3 19:0.25 20:0.25 21:0.2 22:1.6666666 
0.5141927736252365 3:3 4:23 5:0.5217391 6:2 7:1 8:0.21739131 9:0.17391306 10:0.34782606 11:0.26086956 12:10 13:0.1627907 14:3 15:0.51666665 16:60 17:0.21666664 18:0.26666665 19:0.25 20:0.26666665 21:0.14285715 22:3 23:0.22222222 
0.17575343169616 3:6 4:21 5:0.57142854 6:2 7:1 8:0.14285713 9:0.3333333 10:0.23809522 11:0.28571427 12:50 13:0.14285715 14:4 15:0.53225803 16:62 17:0.2096774 18:0.2580645 19:0.27419353 20:0.2580645 21:0.17647059 22:1.5714285 23:0.125 24:0.33333334 
1 1:5 2:1 3:18 4:24 5:0.5454545 6:3 7:2 8:0.18181819 9:0.13636363 10:0.40909094 11:0.27272725 12:6 13:0.17391305 14:3 15:0.6375 16:80 17:0.125 18:0.28750002 19:0.35000002 20:0.23750001 21:0.18421052 22:1 23:0.40000001 24:0.2 
1 1:5 2:2 3:20 4:23 5:0.6521739 6:3 7:2 8:0.17391306 9:0.34782606 10:0.3043478 11:0.17391306 12:64 13:0.22727273 14:3 15:0.63414633 16:82 17:0.12195122 18:0.28048778 19:0.35365856 20:0.24390244 21:0.20512821 22:1.6666666 23:0.25 24:0.17647059 
1 1:2 2:1 3:6 4:23 5:0.45454544 6:2 7:3 8:0.3181818 9:0.13636363 10:0.3181818 11:0.22727275 12:42 13:0.15555556 14:2 15:0.44262296 16:61 17:0.21311474 18:0.19672132 19:0.24590164 20:0.3442623 21:0.16363636 22:1.125 24:0.2 
1 1:1 2:2 3:8 4:23 5:0.5652174 6:4 7:2 8:0.26086956 9:0.26086956 10:0.3043478 11:0.17391306 12:6 13:0.19047619 14:2 15:0.5409836 16:61 17:0.24590164 18:0.24590164 19:0.29508197 20:0.21311474 21:0.19298245 22:0.90909094 23:0.55555558 24:0.2 
1 1:1 2:2 3:8 4:26 5:0.52380955 6:4 7:2 8:0.28571427 9:0.23809522 10:0.28571427 11:0.19047618 12:48 13:0.27659574 14:2 15:0.530303 16:66 17:0.25757575 18:0.25757575 19:0.27272725 20:0.21212119 21:0.25806451 22:5.5 24:0.2 
1 4:24 5:0.5 6:1 7:3 8:0.22727275 9:0.36363637 10:0.13636363 11:0.27272725 12:14 13:0.17391305 14:2 15:0.375 16:56 17:0.3214286 18:0.1785714 19:0.1964286 20:0.3035714 21:0.17391305 22:0.66666669 23:0.1724138 
1 3:2 4:22 5:0.40909094 6:1 7:3 8:0.3181818 9:0.090909064 10:0.3181818 11:0.27272725 12:48 13:0.19047619 14:2 15:0.375 16:56 17:0.3214286 18:0.1785714 19:0.1964286 20:0.3035714 21:0.17391305 22:1.3333334 23:0.1724138 
0.9779693915924478 3:1 4:22 5:0.4285714 6:1 7:3 8:0.14285713 9:0.14285713 10:0.28571427 11:0.4285714 12:12 13:0.11627907 14:3 15:0.4736842 16:57 17:0.24561405 18:0.2280702 19:0.24561405 20:0.28070176 21:0.11111111 22:1 23:0.18181819 
1 3:1 4:23 5:0.5909091 6:2 7:3 8:0.27272725 9:0.40909094 10:0.18181819 11:0.13636363 12:6 13:0.18181819 14:3 15:0.59615386 16:52 17:0.15384614 18:0.26923078 19:0.32692307 20:0.25 21:0.17391305 22:0.69999999 23:0.2 
1 3:2 4:23 5:0.5 6:2 7:3 8:0.090909064 9:0.090909064 10:0.40909094 11:0.40909094 12:37 13:0.22727273 14:3 15:0.5925926 16:54 17:0.14814812 18:0.25925928 19:0.3333333 20:0.25925928 21:0.20833333 22:1.8 
1 1:2 2:2 3:23 4:20 5:0.57894737 6:2 7:4 8:0.21052629 9:0.31578946 10:0.2631579 11:0.21052629 12:6 13:0.33333334 14:2 15:0.5 16:94 17:0.20212764 18:0.24468082 19:0.25531918 20:0.29787236 21:0.21428572 22:0.85714287 23:0.25 24:0.11111111 
0.3633701941252923 1:1 2:1 3:6 4:24 5:0.45454544 6:3 7:4 8:0.18181819 9:0.22727275 10:0.22727275 11:0.36363637 12:46 13:0.2173913 14:3 15:0.44444442 16:63 17:0.2063492 18:0.2063492 19:0.23809522 20:0.34920633 21:0.19298245 22:0.2 23:0.25 24:0.090909094 
1 1:1 2:2 3:11 4:22 5:0.6363636 6:1 7:5 8:0.22727275 9:0.18181819 10:0.45454544 11:0.13636363 12:8 13:0.22727273 14:2 15:0.5857143 16:70 17:0.1857143 18:0.25714284 19:0.32857144 20:0.22857141 21:0.1875 22:1.375 24:0.1 
-0.3498735990049489 1:1 2:1 3:4 4:23 5:0.45454544 6:3 7:3 8:0.13636363 9:0.22727275 10:0.22727275 11:0.40909094 12:50 13:0.2 14:2 15:0.44067794 16:59 17:0.1864407 18:0.1864407 19:0.2542373 20:0.37288135 21:0.20754717 22:1.2857143 23:0.28 24:0.25 
-1 1:1 2:1 3:4 4:23 5:0.45454544 6:3 7:3 8:0.13636363 9:0.22727275 10:0.22727275 11:0.40909094 12:50 13:0.2 14:2 15:0.44067794 16:59 17:0.1864407 18:0.1864407 19:0.2542373 20:0.37288135 21:0.20754717 22:1.2857143 23:0.28 24:0.25 
-1 3:2 4:25 5:0.625 6:2 7:4 8:0.08333331 9:0.375 10:0.25 11:0.2916667 12:5 13:0.18367347 14:2 15:0.6166667 16:60 17:0.16666669 18:0.28333336 19:0.3333333 20:0.21666664 21:0.16981132 22:1.25 
-0.06893390834686799 3:4 4:24 5:0.6956522 6:1 7:3 8:0.21739131 9:0.39130437 10:0.3043478 11:0.0869565 12:17 13:0.14893617 14:3 15:0.6666666 16:57 17:0.21052629 18:0.31578946 19:0.35087717 20:0.12280703 21:0.14814815 22:1.2222222 23:0.24137931 24:0.14285715 
-1 1:1 2:1 3:4 4:23 5:0.45454544 6:3 7:3 8:0.13636363 9:0.22727275 10:0.22727275 11:0.40909094 12:50 13:0.2 14:2 15:0.44067794 16:59 17:0.1864407 18:0.1864407 19:0.2542373 20:0.37288135 21:0.20754717 22:1.2857143 23:0.28 24:0.25 
-1 3:2 4:25 5:0.625 6:2 7:4 8:0.08333331 9:0.375 10:0.25 11:0.2916667 12:5 13:0.18367347 14:2 15:0.6166667 16:60 17:0.16666669 18:0.28333336 19:0.3333333 20:0.21666664 21:0.16981132 22:1.25 
-0.3728147311325309 3:3 4:22 5:0.36363637 6:1 7:2 8:0.3181818 9:0.13636363 10:0.22727275 11:0.3181818 12:42 13:0.090909094 14:1 15:0.36065573 16:61 17:0.29508197 18:0.16393441 19:0.19672132 20:0.3442623 21:0.079999998 22:1.125 
-1 3:4 4:24 5:0.6956522 6:1 7:3 8:0.21739131 9:0.39130437 10:0.3043478 11:0.0869565 12:17 13:0.14893617 14:3 15:0.6666666 16:57 17:0.21052629 18:0.31578946 19:0.35087717 20:0.12280703 21:0.14814815 22:1.2222222 23:0.24137931 24:0.14285715 
-1 1:1 2:1 3:4 4:23 5:0.45454544 6:3 7:3 8:0.13636363 9:0.22727275 10:0.22727275 11:0.40909094 12:50 13:0.2 14:2 15:0.44067794 16:59 17:0.1864407 18:0.1864407 19:0.2542373 20:0.37288135 21:0.20754717 22:1.2857143 23:0.28 24:0.25 
-0.8759299941137906 4:22 5:0.6666666 6:2 7:3 8:0.19047618 9:0.23809522 10:0.4285714 11:0.14285713 12:7 13:0.25581396 14:3 15:0.6481482 16:54 17:0.14814812 18:0.25925928 19:0.3888889 20:0.2037037 21:0.25581396 22:1 
-0.9648948689190179 1:3 2:1 3:6 4:23 5:0.72727275 6:1 7:3 8:0.090909064 9:0.3181818 10:0.40909094 11:0.18181819 12:41 13:0.15555556 14:3 15:0.6779661 16:59 17:0.11864406 18:0.37288135 19:0.30508476 20:0.20338982 21:0.2 22:1.2222222 24:0.40000001 
-1 3:2 4:25 5:0.625 6:2 7:4 8:0.08333331 9:0.375 10:0.25 11:0.2916667 12:5 13:0.18367347 14:2 15:0.6166667 16:60 17:0.16666669 18:0.28333336 19:0.3333333 20:0.21666664 21:0.16981132 22:1.25 
-1 3:3 4:22 5:0.36363637 6:1 7:2 8:0.3181818 9:0.13636363 10:0.22727275 11:0.3181818 12:42 13:0.090909094 14:1 15:0.36065573 16:61 17:0.29508197 18:0.16393441 19:0.19672132 20:0.3442623 21:0.079999998 22:1.125 
-0.2325338459867604 1:1 2:1 3:4 4:23 5:0.6363636 6:3 7:2 8:0.090909064 9:0.36363637 10:0.27272725 11:0.27272725 12:5 13:0.15555556 14:4 15:0.57894737 16:57 17:0.19298244 18:0.28070176 19:0.2982456 20:0.2280702 21:0.16981132 22:1.125 23:0.25 24:0.25 
-1 3:4 4:24 5:0.6956522 6:1 7:3 8:0.21739131 9:0.39130437 10:0.3043478 11:0.0869565 12:17 13:0.14893617 14:3 15:0.6666666 16:57 17:0.21052629 18:0.31578946 19:0.35087717 20:0.12280703 21:0.14814815 22:1.2222222 23:0.24137931 24:0.14285715 
-1 1:1 2:1 3:4 4:23 5:0.45454544 6:3 7:3 8:0.13636363 9:0.22727275 10:0.22727275 11:0.40909094 12:50 13:0.2 14:2 15:0.44067794 16:59 17:0.1864407 18:0.1864407 19:0.2542373 20:0.37288135 21:0.20754717 22:1.2857143 23:0.28 24:0.25 
-0.2018761301676315 1:1 2:1 3:5 4:23 5:0.6363636 6:1 7:5 8:0.13636363 9:0.13636363 10:0.5 11:0.22727275 12:13 13:0.24444444 14:4 15:0.5833334 16:60 17:0.18333334 18:0.25 19:0.3333333 20:0.23333335 21:0.22222222 22:1 24:0.11111111 
-0.02949958158612475 3:5 4:25 5:0.5 6:2 7:4 8:0.36363637 9:0.18181819 10:0.3181818 11:0.13636363 12:43 13:0.2173913 14:4 15:0.51724136 16:58 17:0.20689654 18:0.29310346 19:0.2241379 20:0.2758621 21:0.2 22:1.25 23:0.16666667 24:0.11111111 
-0.4045458655320594 1:1 2:1 3:10 4:23 5:0.6086956 6:3 7:3 8:0.21739131 9:0.21739131 10:0.39130437 11:0.17391306 12:50 13:0.20930232 14:3 15:0.72727275 16:66 17:0.12121213 18:0.39393938 19:0.3333333 20:0.15151513 21:0.17460318 22:0.36363637 23:0.33333334 24:0.1 
-1 4:22 5:0.6666666 6:2 7:3 8:0.19047618 9:0.23809522 10:0.4285714 11:0.14285713 12:7 13:0.25581396 14:3 15:0.6481482 16:54 17:0.14814812 18:0.25925928 19:0.3888889 20:0.2037037 21:0.25581396 22:1 
-1 1:3 2:1 3:6 4:23 5:0.72727275 6:1 7:3 8:0.090909064 9:0.3181818 10:0.40909094 11:0.18181819 12:41 13:0.15555556 14:3 15:0.6779661 16:59 17:0.11864406 18:0.37288135 19:0.30508476 20:0.20338982 21:0.2 22:1.2222222 24:0.40000001 
-0.04508493730816975 1:1 2:1 3:6 4:24 5:0.6666666 6:2 7:2 8:0.16666669 9:0.2916667 10:0.375 11:0.16666669 12:44 13:0.14893617 14:4 15:0.6363636 16:66 17:0.15151513 18:0.2878788 19:0.34848487 20:0.21212119 21:0.15254237 22:0.80000001 24:0.16666667 
-1 3:2 4:25 5:0.625 6:2 7:4 8:0.08333331 9:0.375 10:0.25 11:0.2916667 12:5 13:0.18367347 14:2 15:0.6166667 16:60 17:0.16666669 18:0.28333336 19:0.3333333 20:0.21666664 21:0.16981132 22:1.25 
-1 3:3 4:22 5:0.36363637 6:1 7:2 8:0.3181818 9:0.13636363 10:0.22727275 11:0.3181818 12:42 13:0.090909094 14:1 15:0.36065573 16:61 17:0.29508197 18:0.16393441 19:0.19672132 20:0.3442623 21:0.079999998 22:1.125 
-1 1:1 2:1 3:4 4:23 5:0.6363636 6:3 7:2 8:0.090909064 9:0.36363637 10:0.27272725 11:0.27272725 12:5 13:0.15555556 14:4 15:0.57894737 16:57 17:0.19298244 18:0.28070176 19:0.2982456 20:0.2280702 21:0.16981132 22:1.125 23:0.25 24:0.25 
-1 3:4 4:24 5:0.6956522 6:1 7:3 8:0.21739131 9:0.39130437 10:0.3043478 11:0.0869565 12:17 13:0.14893617 14:3 15:0.6666666 16:57 17:0.21052629 18:0.31578946 19:0.35087717 20:0.12280703 21:0.14814815 22:1.2222222 23:0.24137931 24:0.14285715 
-0.5653128473210427 3:1 4:22 5:0.57142854 6:2 7:3 8:0.14285713 9:0.3333333 10:0.23809522 11:0.28571427 12:9 13:0.14285715 14:1 15:0.55357146 16:56 17:0.1785714 18:0.25 19:0.3035714 20:0.26785713 21:0.13636364 22:0.63636363 
-1 1:1 2:1 3:4 4:23 5:0.45454544 6:3 7:3 8:0.13636363 9:0.22727275 10:0.22727275 11:0.40909094 12:50 13:0.2 14:2 15:0.44067794 16:59 17:0.1864407 18:0.1864407 19:0.2542373 20:0.37288135 21:0.20754717 22:1.2857143 23:0.28 24:0.25 
-0.6492873367852416 3:2 4:23 5:0.6363636 6:2 7:3 8:0.22727275 9:0.40909094 10:0.22727275 11:0.13636363 12:43 13:0.15555556 14:2 15:0.6551724 16:58 17:0.20689654 18:0.36206895 19:0.29310346 20:0.13793105 21:0.16666667 22:1.6 23:0.16666667 24:0.33333334 
-1 1:1 2:1 3:5 4:23 5:0.6363636 6:1 7:5 8:0.13636363 9:0.13636363 10:0.5 11:0.22727275 12:13 13:0.24444444 14:4 15:0.5833334 16:60 17:0.18333334 18:0.25 19:0.3333333 20:0.23333335 21:0.22222222 22:1 24:0.11111111 
-0.2221154413874137 1:2 2:1 3:10 4:22 5:0.5454545 6:3 7:2 8:0.3181818 9:0.22727275 10:0.3181818 11:0.13636363 12:7 13:0.22727273 14:3 15:0.45454544 16:66 17:0.24242425 18:0.18181819 19:0.27272725 20:0.3030303 21:0.21311475 22:0.45454547 23:0.16666667 24:0.17647059 
-0.6315113878357878 1:1 2:1 3:8 4:22 5:0.36363637 6:2 7:1 8:0.27272725 9:0.18181819 10:0.18181819 11:0.36363637 12:16 13:0.1627907 14:3 15:0.44444442 16:63 17:0.23809522 18:0.19047618 19:0.25396824 20:0.3174603 21:0.15254237 22:2.6666667 23:0.31034482 24:0.125 
-0.6552806212633691 3:5 4:22 5:0.6363636 6:1 7:3 8:0.3181818 9:0.27272725 10:0.36363637 11:0.04545456 12:6 13:0.11627907 14:3 15:0.58928573 16:56 17:0.1964286 18:0.3035714 19:0.28571427 20:0.21428573 21:0.13207547 22:1.7142857 24:0.2 
-1 1:1 2:1 3:4 4:22 5:0.5454545 6:1 7:3 8:0.18181819 9:0.40909094 10:0.13636363 11:0.27272725 12:7 13:0.23809524 14:3 15:0.5423729 16:59 17:0.13559324 18:0.2711864 19:0.2711864 20:0.32203388 21:0.23999999 22:1.6 24:0.25 
-1 3:5 4:25 5:0.5 6:2 7:4 8:0.36363637 9:0.18181819 10:0.3181818 11:0.13636363 12:43 13:0.2173913 14:4 15:0.51724136 16:58 17:0.20689654 18:0.29310346 19:0.2241379 20:0.2758621 21:0.2 22:1.25 23:0.16666667 24:0.11111111 
-1 1:1 2:1 3:10 4:23 5:0.6086956 6:3 7:3 8:0.21739131 9:0.21739131 10:0.39130437 11:0.17391306 12:50 13:0.20930232 14:3 15:0.72727275 16:66 17:0.12121213 18:0.39393938 19:0.3333333 20:0.15151513 21:0.17460318 22:0.36363637 23:0.33333334 24:0.1 
-0.7743333573486905 1:4 2:1 3:7 4:22 5:0.45454544 6:1 7:1 8:0.04545456 9:0.27272725 10:0.18181819 11:0.5 12:44 13:0.045454547 14:3 15:0.47540987 16:61 17:0.26229507 18:0.19672132 19:0.27868855 20:0.26229507 21:0.15789473 22:1 24:0.53846157 
-0.9809597233548538 1:1 2:1 3:4 4:26 5:0.6363636 6:3 7:5 8:0.13636363 9:0.3181818 10:0.3181818 11:0.22727275 12:40 13:0.27659574 14:3 15:0.6166667 16:60 17:0.21666664 18:0.35000002 19:0.26666665 20:0.16666669 21:0.27272728 22:1.5 24:0.25 
-0.2124934645451591 1:1 2:1 3:5 4:24 5:0.4583333 6:2 7:2 8:0.2916667 9:0.25 10:0.20833331 11:0.25 12:1 13:0.125 15:0.43548387 16:62 17:0.2903226 18:0.19354838 19:0.24193549 20:0.27419353 21:0.13793103 22:1.1111112 24:0.2 
-0.8383643364363685 1:3 2:1 3:7 4:21 5:0.4285714 6:1 7:2 8:0.09523809 9:0.23809522 10:0.19047618 11:0.47619045 12:4 13:0.095238097 14:4 15:0.48333335 16:60 17:0.21666664 18:0.25 19:0.23333335 20:0.3 21:0.16363636 22:1.5714285 24:0.38461539 
-1 4:22 5:0.6666666 6:2 7:3 8:0.19047618 9:0.23809522 10:0.4285714 11:0.14285713 12:7 13:0.25581396 14:3 15:0.6481482 16:54 17:0.14814812 18:0.25925928 19:0.3888889 20:0.2037037 21:0.25581396 22:1 
-1 1:3 2:1 3:6 4:23 5:0.72727275 6:1 7:3 8:0.090909064 9:0.3181818 10:0.40909094 11:0.18181819 12:41 13:0.15555556 14:3 15:0.6779661 16:59 17:0.11864406 18:0.37288135 19:0.30508476 20:0.20338982 21:0.2 22:1.2222222 24:0.40000001 
-1 1:1 2:1 3:6 4:24 5:0.6666666 6:2 7:2 8:0.16666669 9:0.2916667 10:0.375 11:0.16666669 12:44 13:0.14893617 14:4 15:0.6363636 16:66 17:0.15151513 18:0.2878788 19:0.34848487 20:0.21212119 21:0.15254237 22:0.80000001 24:0.16666667 
-1 3:2 4:25 5:0.625 6:2 7:4 8:0.08333331 9:0.375 10:0.25 11:0.2916667 12:5 13:0.18367347 14:2 15:0.6166667 16:60 17:0.16666669 18:0.28333336 19:0.3333333 20:0.21666664 21:0.16981132 22:1.25 
-0.2237434997438787 3:2 4:22 5:0.5 6:1 7:3 8:0.22727275 9:0.18181819 10:0.3181818 11:0.27272725 12:3 13:0.14285715 14:4 15:0.46296299 16:54 17:0.24074072 18:0.22222221 19:0.24074072 20:0.2962963 21:0.13043478 22:1.4285715 
-1 3:3 4:22 5:0.36363637 6:1 7:2 8:0.3181818 9:0.13636363 10:0.22727275 11:0.3181818 12:42 13:0.090909094 14:1 15:0.36065573 16:61 17:0.29508197 18:0.16393441 19:0.19672132 20:0.3442623 21:0.079999998 22:1.125 
-1 1:1 2:1 3:4 4:23 5:0.6363636 6:3 7:2 8:0.090909064 9:0.36363637 10:0.27272725 11:0.27272725 12:5 13:0.15555556 14:4 15:0.57894737 16:57 17:0.19298244 18:0.28070176 19:0.2982456 20:0.2280702 21:0.16981132 22:1.125 23:0.25 24:0.25 
-1 3:4 4:24 5:0.6956522 6:1 7:3 8:0.21739131 9:0.39130437 10:0.3043478 11:0.0869565 12:17 13:0.14893617 14:3 15:0.6666666 16:57 17:0.21052629 18:0.31578946 19:0.35087717 20:0.12280703 21:0.14814815 22:1.2222222 23:0.24137931 24:0.14285715 
-1 3:1 4:22 5:0.57142854 6:2 7:3 8:0.14285713 9:0.3333333 10:0.23809522 11:0.28571427 12:9 13:0.14285715 14:1 15:0.55357146 16:56 17:0.1785714 18:0.25 19:0.3035714 20:0.26785713 21:0.13636364 22:0.63636363 
-0.63048427989841 3:6 4:23 5:0.5 6:2 7:4 8:0.22727275 9:0.3181818 10:0.18181819 11:0.27272725 12:5 13:0.2 14:3 15:0.39999998 16:60 17:0.26666665 18:0.21666664 19:0.18333334 20:0.3333333 21:0.25 22:0.5 23:0.25 24:0.45454547 
-1 1:1 2:1 3:4 4:23 5:0.45454544 6:3 7:3 8:0.13636363 9:0.22727275 10:0.22727275 11:0.40909094 12:50 13:0.2 14:2 15:0.44067794 16:59 17:0.1864407 18:0.1864407 19:0.2542373 20:0.37288135 21:0.20754717 22:1.2857143 23:0.28 24:0.25 
-0.5927018878185245 1:1 2:1 3:3 4:22 5:0.40909094 6:3 7:3 8:0.3181818 9:0.18181819 10:0.22727275 11:0.27272725 12:15 13:0.20930232 14:1 15:0.4727273 16:55 17:0.16363639 18:0.19999999 19:0.27272725 20:0.36363637 21:0.22448979 22:0.89999998 23:0.24137931 24:0.33333334 
-0.5140280001946154 3:8 4:22 5:0.5454545 6:1 7:2 8:0.18181819 9:0.36363637 10:0.18181819 11:0.27272725 12:56 13:0.2631579 14:4 15:0.5862069 16:58 17:0.15517241 18:0.2758621 19:0.31034482 20:0.25862068 21:0.25490198 23:0.15789473 24:0.23076923 
-0.3505143467020791 3:5 4:23 5:0.5 6:3 7:3 8:0.18181819 9:0.04545456 10:0.45454544 11:0.3181818 12:9 13:0.20930232 14:1 15:0.49206346 16:63 17:0.2063492 18:0.22222221 19:0.26984125 20:0.30158728 21:0.16981132 22:1 
-1 3:2 4:23 5:0.6363636 6:2 7:3 8:0.22727275 9:0.40909094 10:0.22727275 11:0.13636363 12:43 13:0.15555556 14:2 15:0.6551724 16:58 17:0.20689654 18:0.36206895 19:0.29310346 20:0.13793105 21:0.16666667 22:1.6 23:0.16666667 24:0.33333334 
-0.0457919472295998 1:1 2:1 3:5 4:20 5:0.65 6:2 7:2 8:0.10000002 9:0.25 10:0.39999998 11:0.25 12:7 13:0.15000001 14:1 15:0.6551724 16:58 17:0.20689654 18:0.36206895 19:0.29310346 20:0.13793105 21:0.16666667 22:0.5 23:0.16666667 24:0.25 
-0.5235192266339357 3:6 4:24 5:0.5652174 6:5 7:2 8:0.17391306 9:0.21739131 10:0.34782606 11:0.26086956 12:16 13:0.14285715 14:1 15:0.62068963 16:58 17:0.12068963 18:0.2758621 19:0.3448276 20:0.25862068 21:0.11111111 22:1.8 23:0.375 
-1 1:1 2:1 3:5 4:23 5:0.6363636 6:1 7:5 8:0.13636363 9:0.13636363 10:0.5 11:0.22727275 12:13 13:0.24444444 14:4 15:0.5833334 16:60 17:0.18333334 18:0.25 19:0.3333333 20:0.23333335 21:0.22222222 22:1 24:0.11111111 
-1 1:3 2:1 3:5 4:24 5:0.43478262 6:2 7:2 8:0.21739131 9:0.0869565 10:0.34782606 11:0.34782606 12:42 13:0.23404256 14:1 15:0.39682537 16:63 17:0.25396824 18:0.15873015 19:0.23809522 20:0.34920633 21:0.29824561 22:4 24:0.60000002 
-1 1:2 2:1 3:10 4:22 5:0.5454545 6:3 7:2 8:0.3181818 9:0.22727275 10:0.3181818 11:0.13636363 12:7 13:0.22727273 14:3 15:0.45454544 16:66 17:0.24242425 18:0.18181819 19:0.27272725 20:0.3030303 21:0.21311475 22:0.45454547 23:0.16666667 24:0.17647059 
-0.2110133413398804 3:4 4:21 5:0.57142854 6:2 7:3 8:0.23809522 9:0.28571427 10:0.28571427 11:0.19047618 12:40 13:0.21951219 14:4 15:0.5 16:54 17:0.22222221 18:0.24074072 19:0.25925928 20:0.2777778 21:0.26530612 22:1.2857143 23:0.16666667 24:0.5 
-1 1:1 2:1 3:8 4:22 5:0.36363637 6:2 7:1 8:0.27272725 9:0.18181819 10:0.18181819 11:0.36363637 12:16 13:0.1627907 14:3 15:0.44444442 16:63 17:0.23809522 18:0.19047618 19:0.25396824 20:0.3174603 21:0.15254237 22:2.6666667 23:0.31034482 24:0.125 
-1 3:7 4:22 5:0.57142854 6:1 7:4 8:0.14285713 9:0.28571427 10:0.28571427 11:0.28571427 12:9 13:0.1627907 14:1 15:0.5862069 16:58 17:0.13793105 18:0.24137932 19:0.3448276 20:0.2758621 21:0.18518518 22:1 23:0.06666667 24:0.27272728 
-1 3:5 4:22 5:0.6363636 6:1 7:3 8:0.3181818 9:0.27272725 10:0.36363637 11:0.04545456 12:6 13:0.11627907 14:3 15:0.58928573 16:56 17:0.1964286 18:0.3035714 19:0.28571427 20:0.21428573 21:0.13207547 22:1.7142857 24:0.2 
-1 1:1 2:1 3:4 4:22 5:0.5454545 6:1 7:3 8:0.18181819 9:0.40909094 10:0.13636363 11:0.27272725 12:7 13:0.23809524 14:3 15:0.5423729 16:59 17:0.13559324 18:0.2711864 19:0.2711864 20:0.32203388 21:0.23999999 22:1.6 24:0.25 
-1 3:3 4:22 5:0.5909091 6:2 7:3 8:0.18181819 9:0.22727275 10:0.36363637 11:0.22727275 12:49 13:0.14285715 14:3 15:0.537037 16:54 17:0.25925928 18:0.24074072 19:0.2962963 20:0.2037037 21:0.125 22:1 23:0.096774191 
-1 3:5 4:25 5:0.5 6:2 7:4 8:0.36363637 9:0.18181819 10:0.3181818 11:0.13636363 12:43 13:0.2173913 14:4 15:0.51724136 16:58 17:0.20689654 18:0.29310346 19:0.2241379 20:0.2758621 21:0.2 22:1.25 23:0.16666667 24:0.11111111 
-1 1:1 2:1 3:10 4:23 5:0.6086956 6:3 7:3 8:0.21739131 9:0.21739131 10:0.39130437 11:0.17391306 12:50 13:0.20930232 14:3 15:0.72727275 16:66 17:0.12121213 18:0.39393938 19:0.3333333 20:0.15151513 21:0.17460318 22:0.36363637 23:0.33333334 24:0.1 
-1 1:2 2:2 3:12 4:22 5:0.45454544 6:1 7:1 8:0.13636363 9:0.22727275 10:0.22727275 11:0.40909094 12:50 13:0.023255814 14:3 15:0.53731346 16:67 17:0.19402987 18:0.23880595 19:0.29850745 20:0.26865673 21:0.079365082 22:1.125 24:0.2 
-1 1:2 2:1 3:6 4:22 5:0.5 6:2 7:1 8:0.40909094 9:0.18181819 10:0.3181818 11:0.090909064 12:10 13:0.047619049 14:1 15:0.51785713 16:56 17:0.21428573 18:0.23214287 19:0.28571427 20:0.26785713 21:0.07692308 22:1.8 23:0.052631579 24:0.2 
-1 1:4 2:1 3:7 4:22 5:0.45454544 6:1 7:1 8:0.04545456 9:0.27272725 10:0.18181819 11:0.5 12:44 13:0.045454547 14:3 15:0.47540987 16:61 17:0.26229507 18:0.19672132 19:0.27868855 20:0.26229507 21:0.15789473 22:1 24:0.53846157 
-1 3:2 4:23 5:0.47826087 6:3 7:2 8:0.21739131 9:0.26086956 10:0.21739131 11:0.3043478 12:5 13:0.12195122 14:1 15:0.5490196 16:51 17:0.19607842 18:0.25490195 19:0.29411763 20:0.25490195 21:0.11111111 22:1.4 
-0.6818718314114288 4:25 5:0.5652174 6:2 7:4 8:0.26086956 9:0.26086956 10:0.3043478 11:0.17391306 12:10 13:0.16666667 14:1 15:0.49056602 16:53 17:0.26415092 18:0.24528301 19:0.24528301 20:0.24528301 21:0.16666667 22:1.125 23:0.11111111 
-1 1:1 2:1 3:4 4:26 5:0.6363636 6:3 7:5 8:0.13636363 9:0.3181818 10:0.3181818 11:0.22727275 12:40 13:0.27659574 14:3 15:0.6166667 16:60 17:0.21666664 18:0.35000002 19:0.26666665 20:0.16666669 21:0.27272728 22:1.5 24:0.25 
-0.08719354296016221 3:4 4:27 5:0.75 6:1 7:5 8:0.16666669 9:0.4583333 10:0.2916667 11:0.08333331 12:6 13:0.22448979 14:3 15:0.6818182 16:66 17:0.13636363 18:0.3333333 19:0.34848487 20:0.18181819 21:0.19298245 22:2.6666667 23:0.11111111 
-1 1:1 2:1 3:5 4:24 5:0.4583333 6:2 7:2 8:0.2916667 9:0.25 10:0.20833331 11:0.25 12:1 13:0.125 15:0.43548387 16:62 17:0.2903226 18:0.19354838 19:0.24193549 20:0.27419353 21:0.13793103 22:1.1111112 24:0.2 
-1 1:3 2:1 3:7 4:21 5:0.4285714 6:1 7:2 8:0.09523809 9:0.23809522 10:0.19047618 11:0.47619045 12:4 13:0.095238097 14:4 15:0.48333335 16:60 17:0.21666664 18:0.25 19:0.23333335 20:0.3 21:0.16363636 22:1.5714285 24:0.38461539 
-1 4:22 5:0.6666666 6:2 7:3 8:0.19047618 9:0.23809522 10:0.4285714 11:0.14285713 12:7 13:0.25581396 14:3 15:0.6481482 16:54 17:0.14814812 18:0.25925928 19:0.3888889 20:0.2037037 21:0.25581396 22:1 
-1 1:3 2:1 3:6 4:23 5:0.72727275 6:1 7:3 8:0.090909064 9:0.3181818 10:0.40909094 11:0.18181819 12:41 13:0.15555556 14:3 15:0.6779661 16:59 17:0.11864406 18:0.37288135 19:0.30508476 20:0.20338982 21:0.2 22:1.2222222 24:0.40000001 
-1 1:1 2:1 3:6 4:24 5:0.6666666 6:2 7:2 8:0.16666669 9:0.2916667 10:0.375 11:0.16666669 12:44 13:0.14893617 14:4 15:0.6363636 16:66 17:0.15151513 18:0.2878788 19:0.34848487 20:0.21212119 21:0.15254237 22:0.80000001 24:0.16666667 
-1 3:2 4:25 5:0.625 6:2 7:4 8:0.08333331 9:0.375 10:0.25 11:0.2916667 12:5 13:0.18367347 14:2 15:0.6166667 16:60 17:0.16666669 18:0.28333336 19:0.3333333 20:0.21666664 21:0.16981132 22:1.25 
-0.1052458810131928 1:3 2:1 3:11 4:22 5:0.40909094 6:2 7:3 8:0.27272725 9:0.18181819 10:0.22727275 11:0.3181818 12:49 13:0.22727273 14:4 15:0.3857143 16:70 17:0.3142857 18:0.19999999 19:0.1857143 20:0.3 21:0.21875 22:0.875 24:0.2 
-1 3:2 4:22 5:0.5 6:1 7:3 8:0.22727275 9:0.18181819 10:0.3181818 11:0.27272725 12:3 13:0.14285715 14:4 15:0.46296299 16:54 17:0.24074072 18:0.22222221 19:0.24074072 20:0.2962963 21:0.13043478 22:1.4285715 
-1 3:3 4:22 5:0.36363637 6:1 7:2 8:0.3181818 9:0.13636363 10:0.22727275 11:0.3181818 12:42 13:0.090909094 14:1 15:0.36065573 16:61 17:0.29508197 18:0.16393441 19:0.19672132 20:0.3442623 21:0.079999998 22:1.125 
-1 1:1 2:1 3:4 4:23 5:0.6363636 6:3 7:2 8:0.090909064 9:0.36363637 10:0.27272725 11:0.27272725 12:5 13:0.15555556 14:4 15:0.57894737 16:57 17:0.19298244 18:0.28070176 19:0.2982456 20:0.2280702 21:0.16981132 22:1.125 23:0.25 24:0.25 
-1 3:4 4:24 5:0.6956522 6:1 7:3 8:0.21739131 9:0.39130437 10:0.3043478 11:0.0869565 12:17 13:0.14893617 14:3 15:0.6666666 16:57 17:0.21052629 18:0.31578946 19:0.35087717 20:0.12280703 21:0.14814815 22:1.2222222 23:0.24137931 24:0.14285715 
-0.4052048099801966 3:6 4:24 5:0.6086956 6:3 7:3 8:0.13043481 9:0.43478262 10:0.17391306 11:0.26086956 12:44 13:0.13636364 14:1 15:0.530303 16:66 17:0.24242425 18:0.3030303 19:0.22727275 20:0.22727275 21:0.16363636 22:1.25 24:0.27272728 
-0.1460014355201684 3:4 4:23 5:0.36363637 6:2 7:3 8:0.13636363 9:0.27272725 10:0.090909064 11:0.5 12:39 13:0.15555556 14:1 15:0.38596493 16:57 17:0.28070176 18:0.17543858 19:0.21052629 20:0.3333333 21:0.13207547 22:0.69999999 
-0.5430201060211672 1:1 2:1 3:6 4:26 5:0.5416666 6:2 7:4 8:0.20833331 9:0.375 10:0.16666669 11:0.25 12:43 13:0.16666667 14:3 15:0.515625 16:64 17:0.21875 18:0.234375 19:0.28125 20:0.265625 21:0.16666667 22:1.25 24:0.16666667 
-1 1:1 2:1 3:8 4:23 5:0.5454545 6:2 7:4 8:0.18181819 9:0.090909064 10:0.45454544 11:0.27272725 12:3 13:0.1627907 14:3 15:0.5079365 16:63 17:0.22222221 18:0.23809522 19:0.26984125 20:0.26984125 21:0.15254237 22:1 23:0.2 24:0.125 
-0.1781369799851455 3:2 4:25 5:0.5416666 6:2 7:3 8:0.3333333 9:0.20833331 10:0.3333333 11:0.125 12:45 13:0.125 14:2 15:0.53125 16:64 17:0.1875 18:0.234375 19:0.296875 20:0.28125 21:0.11538462 22:1.1111112 
-1 3:1 4:22 5:0.57142854 6:2 7:3 8:0.14285713 9:0.3333333 10:0.23809522 11:0.28571427 12:9 13:0.14285715 14:1 15:0.55357146 16:56 17:0.1785714 18:0.25 19:0.3035714 20:0.26785713 21:0.13636364 22:0.63636363 
-1 3:5 4:23 5:0.52380955 6:2 7:2 8:0.14285713 9:0.23809522 10:0.28571427 11:0.3333333 12:2 13:0.27272728 14:4 15:0.5084746 16:59 17:0.23728812 18:0.23728812 19:0.2711864 20:0.2542373 21:0.22222222 22:0.33333334 
-1 3:6 4:23 5:0.5 6:2 7:4 8:0.22727275 9:0.3181818 10:0.18181819 11:0.27272725 12:5 13:0.2 14:3 15:0.39999998 16:60 17:0.26666665 18:0.21666664 19:0.18333334 20:0.3333333 21:0.25 22:0.5 23:0.25 24:0.45454547 
-1 4:24 5:0.43478262 6:3 7:3 8:0.34782606 9:0.17391306 10:0.26086956 11:0.21739131 12:17 13:0.30434781 14:3 15:0.4528302 16:53 17:0.26415092 18:0.2264151 19:0.2264151 20:0.2830189 21:0.23809524 22:1.6 23:0.23529412 
-1 1:1 2:1 3:4 4:23 5:0.45454544 6:3 7:3 8:0.13636363 9:0.22727275 10:0.22727275 11:0.40909094 12:50 13:0.2 14:2 15:0.44067794 16:59 17:0.1864407 18:0.1864407 19:0.2542373 20:0.37288135 21:0.20754717 22:1.2857143 23:0.28 24:0.25 
-1 1:1 2:1 3:3 4:22 5:0.40909094 6:3 7:3 8:0.3181818 9:0.18181819 10:0.22727275 11:0.27272725 12:15 13:0.20930232 14:1 15:0.4727273 16:55 17:0.16363639 18:0.19999999 19:0.27272725 20:0.36363637 21:0.22448979 22:0.89999998 23:0.24137931 24:0.33333334 
-1 1:1 2:1 3:7 4:22 5:0.5454545 6:2 7:4 8:0.13636363 9:0.22727275 10:0.3181818 11:0.3181818 12:68 13:0.20930232 14:1 15:0.47540987 16:61 17:0.19672132 18:0.24590164 19:0.22950822 20:0.32786888 21:0.19298245 22:1.1666666 23:0.31034482 24:0.14285715 
-1 3:8 4:22 5:0.5454545 6:1 7:2 8:0.18181819 9:0.36363637 10:0.18181819 11:0.27272725 12:56 13:0.2631579 14:4 15:0.5862069 16:58 17:0.15517241 18:0.2758621 19:0.31034482 20:0.25862068 21:0.25490198 23:0.15789473 24:0.23076923 
-0.2494039336751714 3:11 4:22 5:0.5909091 6:1 7:2 8:0.13636363 9:0.45454544 10:0.13636363 11:0.27272725 12:59 13:0.17073171 14:4 15:0.59375 16:64 17:0.15625 18:0.28125 19:0.3125 20:0.25 21:0.22807017 22:0.27272728 23:0.1875 24:0.375 
-0.4748033207508714 1:5 2:1 3:9 4:22 5:0.36363637 6:1 7:1 8:0.40909094 9:0.18181819 10:0.18181819 11:0.22727275 12:45 13:0.1627907 14:3 15:0.484375 16:64 17:0.234375 18:0.25 19:0.234375 20:0.28125 21:0.26666668 22:0.25 24:0.52941179 
-0.04170310943252575 3:7 4:23 5:0.5454545 6:3 7:2 8:0.18181819 9:0.22727275 10:0.3181818 11:0.27272725 12:4 13:0.15555556 14:4 15:0.48387098 16:62 17:0.24193549 18:0.2580645 19:0.22580647 20:0.27419353 21:0.27586207 22:1.6 24:0.69230771 
-0.9640302838593412 1:2 2:2 3:12 4:22 5:0.6818182 6:1 7:4 8:0.27272725 9:0.3181818 10:0.36363637 11:0.04545456 12:49 13:0.2 14:4 15:0.6212121 16:66 17:0.21212119 18:0.2878788 19:0.3333333 20:0.16666669 21:0.18032786 22:2.2 23:0.11111111 24:0.14285715 
-1 3:5 4:23 5:0.5 6:3 7:3 8:0.18181819 9:0.04545456 10:0.45454544 11:0.3181818 12:9 13:0.20930232 14:1 15:0.49206346 16:63 17:0.2063492 18:0.22222221 19:0.26984125 20:0.30158728 21:0.16981132 22:1 
-1 3:2 4:23 5:0.6363636 6:2 7:3 8:0.22727275 9:0.40909094 10:0.22727275 11:0.13636363 12:43 13:0.15555556 14:2 15:0.6551724 16:58 17:0.20689654 18:0.36206895 19:0.29310346 20:0.13793105 21:0.16666667 22:1.6 23:0.16666667 24:0.33333334 
-1 1:1 2:1 3:5 4:20 5:0.65 6:2 7:2 8:0.10000002 9:0.25 10:0.39999998 11:0.25 12:7 13:0.15000001 14:1 15:0.6551724 16:58 17:0.20689654 18:0.36206895 19:0.29310346 20:0.13793105 21:0.16666667 22:0.5 23:0.16666667 24:0.25 
-0.439375814827939 3:3 4:23 5:0.5652174 6:1 7:2 8:0.21739131 9:0.13043481 10:0.43478262 11:0.21739131 12:37 13:0.086956523 14:3 15:0.48214287 16:56 17:0.1785714 18:0.23214287 19:0.25 20:0.33928573 21:0.15384616 22:1.5714285 24:0.66666669 
-1 3:2 4:26 5:0.6086956 6:3 7:3 8:0.13043481 9:0.3043478 10:0.3043478 11:0.26086956 12:49 13:0.18367347 14:2 15:0.546875 16:64 17:0.203125 18:0.265625 19:0.28125 20:0.25 21:0.16981132 22:0.42857143 23:0.14285715 
-1 3:6 4:24 5:0.5652174 6:5 7:2 8:0.17391306 9:0.21739131 10:0.34782606 11:0.26086956 12:16 13:0.14285715 14:1 15:0.62068963 16:58 17:0.12068963 18:0.2758621 19:0.3448276 20:0.25862068 21:0.11111111 22:1.8 23:0.375 
-0.9277886671485238 3:7 4:21 5:0.57142854 6:2 7:3 8:0.23809522 9:0.38095236 10:0.19047618 11:0.19047618 12:53 13:0.21951219 14:4 15:0.49253732 16:67 17:0.23880595 18:0.22388059 19:0.26865673 20:0.26865673 21:0.16363636 22:1 
-0.8076627901102965 3:4 4:19 5:0.57894737 6:2 7:2 8:0.052631557 9:0.31578946 10:0.2631579 11:0.36842108 12:25 13:0.13513513 14:4 15:0.45454544 16:55 17:0.19999999 18:0.19999999 19:0.25454545 20:0.34545457 21:0.11111111 22:0.90909094 23:0.31914893 
-1 1:1 2:1 3:5 4:23 5:0.6363636 6:1 7:5 8:0.13636363 9:0.13636363 10:0.5 11:0.22727275 12:13 13:0.24444444 14:4 15:0.5833334 16:60 17:0.18333334 18:0.25 19:0.3333333 20:0.23333335 21:0.22222222 22:1 24:0.11111111 
-0.275674472478846 4:23 5:0.6521739 6:3 7:4 8:0.0869565 9:0.47826087 10:0.17391306 11:0.26086956 12:45 13:0.23809524 14:4 15:0.6666666 16:45 17:0.1111111 18:0.35555553 19:0.3111111 20:0.22222221 21:0.2 22:0.40000001 23:0.11111111 
-0.717054585288185 1:3 2:1 3:5 4:24 5:0.43478262 6:2 7:2 8:0.21739131 9:0.0869565 10:0.34782606 11:0.34782606 12:42 13:0.23404256 14:1 15:0.39682537 16:63 17:0.25396824 18:0.15873015 19:0.23809522 20:0.34920633 21:0.29824561 22:4 24:0.60000002 
-0.1145046759204378 3:1 4:22 5:0.36363637 6:1 7:1 8:0.22727275 9:0.090909064 10:0.27272725 11:0.40909094 12:38 13:0.18181819 14:3 15:0.4423077 16:52 17:0.25 18:0.19230771 19:0.25 20:0.3076923 21:0.17391305 22:0.25 23:0.66666669 
-0.1733707200327483 4:22 5:0.5909091 6:4 7:2 8:0.27272725 9:0.27272725 10:0.3181818 11:0.13636363 12:35 13:0.36363637 14:4 15:0.63043475 16:46 17:0.17391306 18:0.32608694 19:0.3043478 20:0.19565219 21:0.2631579 22:0.25 23:0.1 
-0.04610509997837019 1:3 2:3 3:17 4:21 5:0.6666666 6:2 7:2 8:0.28571427 9:0.09523809 10:0.57142854 11:0.047619045 12:5 13:0.23809524 14:2 15:0.65822786 16:79 17:0.20253164 18:0.36708862 19:0.29113925 20:0.1392405 21:0.2972973 22:1.5 23:0.14285715 24:0.375 
-1 1:2 2:1 3:10 4:22 5:0.5454545 6:3 7:2 8:0.3181818 9:0.22727275 10:0.3181818 11:0.13636363 12:7 13:0.22727273 14:3 15:0.45454544 16:66 17:0.24242425 18:0.18181819 19:0.27272725 20:0.3030303 21:0.21311475 22:0.45454547 23:0.16666667 24:0.17647059 
-0.44171731058903 1:3 2:3 3:24 4:21 5:0.38095236 6:5 7:4 8:0.14285713 9:0.28571427 10:0.09523809 11:0.47619045 12:73 13:0.33333334 14:2 15:0.5113636 16:88 17:0.19318181 18:0.26136363 19:0.25 20:0.29545456 21:0.27058825 22:3 23:0.090909094 24:0.2173913 
-0.497284506900889 1:3 2:2 3:19 4:22 5:0.5 6:1 7:3 8:0.13636363 9:0.3181818 10:0.18181819 11:0.36363637 12:68 13:0.17073171 14:1 15:0.5125 16:80 17:0.21249998 18:0.2625 19:0.25 20:0.27499998 21:0.22077923 22:2.2 23:0.36842105 24:0.27777779 
-1 3:4 4:21 5:0.57142854 6:2 7:3 8:0.23809522 9:0.28571427 10:0.28571427 11:0.19047618 12:40 13:0.21951219 14:4 15:0.5 16:54 17:0.22222221 18:0.24074072 19:0.25925928 20:0.2777778 21:0.26530612 22:1.2857143 23:0.16666667 24:0.5 
-0.08823674581816443 1:2 2:1 3:6 4:24 5:0.6521739 6:2 7:4 8:0.0869565 9:0.3043478 10:0.34782606 11:0.26086956 12:2 13:0.23404256 14:1 15:0.546875 16:64 17:0.203125 18:0.28125 19:0.265625 20:0.25 21:0.25423729 22:0.80000001 24:0.33333334 
-0.7052781398553317 1:2 2:1 3:7 4:25 5:0.6818182 6:3 7:5 8:0.18181819 9:0.5909091 10:0.090909064 11:0.13636363 12:3 13:0.36170211 14:2 15:0.6060606 16:66 17:0.19696969 18:0.3333333 19:0.27272725 20:0.19696969 21:0.3442623 22:2 24:0.2857143 
-0.3645550638272083 1:2 2:2 3:11 4:20 5:0.55 6:1 7:3 8:0.10000002 9:0.3 10:0.25 11:0.35000002 12:57 13:0.12820514 14:4 15:0.4861111 16:72 17:0.20833331 18:0.25 19:0.2361111 20:0.30555558 21:0.16666667 22:0.63636363 23:0.11111111 24:0.23809524 
-0.1397372239149529 1:2 2:2 3:12 4:24 5:0.5909091 6:1 7:4 8:0.27272725 9:0.18181819 10:0.40909094 11:0.13636363 12:1 13:0.13043478 15:0.49382716 16:81 17:0.20987654 18:0.24691355 19:0.24691355 20:0.2962963 21:0.1594203 22:1.4285715 24:0.2173913 
-0.3419510850449914 1:3 2:3 3:20 4:23 5:0.45454544 6:4 7:1 8:0.3181818 9:0.22727275 10:0.22727275 11:0.22727275 12:69 13:0.2 14:3 15:0.45454544 16:88 17:0.23863637 18:0.20454544 19:0.25 20:0.3068182 21:0.21428572 22:1.125 24:0.23076923 
-0.966383826786867 1:1 2:1 3:8 4:22 5:0.36363637 6:2 7:1 8:0.27272725 9:0.18181819 10:0.18181819 11:0.36363637 12:16 13:0.1627907 14:3 15:0.44444442 16:63 17:0.23809522 18:0.19047618 19:0.25396824 20:0.3174603 21:0.15254237 22:2.6666667 23:0.31034482 24:0.125 
-0.7262015246421603 3:7 4:22 5:0.57142854 6:1 7:4 8:0.14285713 9:0.28571427 10:0.28571427 11:0.28571427 12:9 13:0.1627907 14:1 15:0.5862069 16:58 17:0.13793105 18:0.24137932 19:0.3448276 20:0.2758621 21:0.18518518 22:1 23:0.06666667 24:0.27272728 
-0.3883185884830928 1:1 2:1 3:15 4:23 5:0.6818182 6:3 7:4 8:0.13636363 9:0.3181818 10:0.36363637 11:0.18181819 12:72 13:0.25581396 14:3 15:0.5595238 16:84 17:0.21428573 18:0.26190478 19:0.29761904 20:0.22619045 21:0.16666667 22:2.2 23:0.33333334 24:0.034482758 
-0.3847392487824669 4:23 5:0.5652174 6:1 7:1 8:0.0869565 9:0.3043478 10:0.26086956 11:0.34782606 12:51 13:0.2888889 15:0.48888886 16:45 17:0.22222221 18:0.24444443 19:0.24444443 20:0.28888887 21:0.030303031 23:0.29824561 
-0.2808749883791263 1:1 2:1 3:11 4:21 5:0.61904764 6:2 7:4 8:0.09523809 9:0.23809522 10:0.38095236 11:0.28571427 12:1 13:0.21951219 15:0.5230769 16:65 17:0.2153846 18:0.23076922 19:0.29230767 20:0.26153845 21:0.16129032 22:1.6666666 24:0.047619049 
-0.7764106075611756 3:2 4:27 5:0.625 6:2 7:4 8:0.2916667 9:0.375 10:0.25 11:0.08333331 12:48 13:0.17647059 14:3 15:0.55172414 16:58 17:0.20689654 18:0.25862068 19:0.29310346 20:0.24137932 21:0.16363636 22:0.875 23:0.14285715 
-0.009311028984702839 4:24 5:0.61904764 6:2 7:3 8:0.3333333 9:0.38095236 10:0.23809522 11:0.047619045 12:45 13:0.15555556 15:0.54347825 16:46 17:0.19565219 18:0.23913044 19:0.3043478 20:0.26086956 21:0.11627907 22:0.8888889 23:0.2 
-0.4485673359123695 1:3 2:2 3:18 4:21 5:0.6666666 6:2 7:2 8:0.047619045 9:0.61904764 10:0.047619045 11:0.28571427 12:63 13:0.17073171 14:1 15:0.6625 16:80 17:0.13749999 18:0.3 19:0.3625 20:0.19999999 21:0.2 22:0.66666669 24:0.23529412 
-0.3339056639311929 1:3 2:2 3:16 4:21 5:0.7619048 6:2 7:4 8:0.09523809 9:0.23809522 10:0.52380955 11:0.14285713 12:59 13:0.21951219 14:2 15:0.64 16:75 17:0.17333335 18:0.30666667 19:0.3333333 20:0.18666667 21:0.22857143 22:1.3333334 24:0.24137931 
-1 3:5 4:22 5:0.6363636 6:1 7:3 8:0.3181818 9:0.27272725 10:0.36363637 11:0.04545456 12:6 13:0.11627907 14:3 15:0.58928573 16:56 17:0.1964286 18:0.3035714 19:0.28571427 20:0.21428573 21:0.13207547 22:1.7142857 24:0.2 
-0.2858049361786814 1:1 2:1 3:4 4:22 5:0.5454545 6:1 7:3 8:0.18181819 9:0.40909094 10:0.13636363 11:0.27272725 12:7 13:0.23809524 14:3 15:0.5423729 16:59 17:0.13559324 18:0.2711864 19:0.2711864 20:0.32203388 21:0.23999999 22:1.6 24:0.25 
-0.492252496126316 1:2 2:1 3:12 4:32 5:0.6363636 6:8 7:4 8:0.27272725 9:0.36363637 10:0.27272725 11:0.090909064 12:3 13:0.33333334 14:2 15:0.48351645 16:91 17:0.2087912 18:0.28571427 19:0.19780219 20:0.3076923 21:0.2820513 22:0.36363637 24:0.16666667 
-0.1889293297931943 4:23 5:0.45454544 6:2 7:2 8:0.27272725 9:0.22727275 10:0.22727275 11:0.27272725 12:14 13:0.33333334 14:2 15:0.4285714 16:49 17:0.26530612 18:0.18367344 19:0.24489796 20:0.30612242 21:0.14285715 23:0.30769232 
-0.4070995622791372 3:5 4:27 5:0.5 6:3 7:4 8:0.25 9:0.5 11:0.25 12:62 13:0.25490198 14:4 15:0.4166667 16:72 17:0.2638889 18:0.2361111 19:0.18055558 20:0.31944442 21:0.21311475 22:1 23:0.33333334 
-0.2549704185699769 4:22 5:0.61904764 6:2 7:3 8:0.14285713 9:0.19047618 10:0.4285714 11:0.23809522 12:12 13:0.25581396 14:2 15:0.60784316 16:51 17:0.1372549 18:0.25490195 19:0.35294116 20:0.25490195 21:0.25581396 22:0.60000002 23:0.052631579 
-0.591320504597092 3:3 4:22 5:0.5909091 6:2 7:3 8:0.18181819 9:0.22727275 10:0.36363637 11:0.22727275 12:49 13:0.14285715 14:3 15:0.537037 16:54 17:0.25925928 18:0.24074072 19:0.2962963 20:0.2037037 21:0.125 22:1 23:0.096774191 
-0.1324130320940486 1:2 2:2 3:17 4:24 5:0.5454545 6:1 7:4 8:0.13636363 9:0.18181819 10:0.36363637 11:0.3181818 12:63 13:0.11111111 14:4 15:0.5421687 16:83 17:0.24096388 18:0.24096388 19:0.3012048 20:0.21686745 21:0.11688311 22:0.72727275 24:0.125 
-1 3:5 4:25 5:0.5 6:2 7:4 8:0.36363637 9:0.18181819 10:0.3181818 11:0.13636363 12:43 13:0.2173913 14:4 15:0.51724136 16:58 17:0.20689654 18:0.29310346 19:0.2241379 20:0.2758621 21:0.2 22:1.25 23:0.16666667 24:0.11111111 
-0.1101145317472205 4:22 5:0.40909094 6:2 7:3 8:0.22727275 9:0.22727275 10:0.18181819 11:0.36363637 12:48 13:0.36363637 15:0.46666664 16:45 17:0.24444443 18:0.22222221 19:0.24444443 20:0.28888887 21:0.22222222 23:0.17073171 
-0.2391933748034321 1:2 2:3 3:17 4:25 5:0.5 6:3 7:3 8:0.10000002 9:0.35000002 10:0.14999998 11:0.39999998 12:69 13:0.2 14:2 15:0.5 16:88 17:0.21590906 18:0.21590906 19:0.28409094 20:0.28409094 21:0.21518987 22:1.5714285 24:0.23529412 
-0.4155206748273011 1:2 2:2 3:13 4:22 5:0.5454545 6:2 7:4 8:0.27272725 9:0.18181819 10:0.36363637 11:0.18181819 12:10 13:0.20930232 14:4 15:0.46575344 16:73 17:0.20547944 18:0.1917808 19:0.27397263 20:0.32876712 21:0.20588236 22:2.5 23:0.33333334 24:0.2 
-0.998901638659082 1:1 2:1 3:10 4:23 5:0.6086956 6:3 7:3 8:0.21739131 9:0.21739131 10:0.39130437 11:0.17391306 12:50 13:0.20930232 14:3 15:0.72727275 16:66 17:0.12121213 18:0.39393938 19:0.3333333 20:0.15151513 21:0.17460318 22:0.36363637 23:0.33333334 24:0.1 
-0.3149852564110328 1:2 2:3 3:19 4:19 5:0.7368421 6:3 7:2 8:0.15789473 9:0.42105263 10:0.31578946 11:0.10526317 12:2 13:0.2631579 14:2 15:0.71052635 16:76 17:0.14473683 18:0.38157892 19:0.32894737 20:0.14473683 21:0.20547946 22:0.72727275 24:0.14285715 
-0.5046393670529479 1:1 2:1 3:8 4:22 5:0.5 6:2 7:3 8:0.22727275 9:0.13636363 10:0.36363637 11:0.27272725 12:55 13:0.18181819 14:4 15:0.4285714 16:70 17:0.28571427 18:0.1857143 19:0.24285716 20:0.28571427 21:0.15254237 22:0.89999998 23:0.16666667 24:0.06666667 
-0.3272230910213052 1:1 2:1 3:7 4:22 5:0.6363636 6:1 7:2 8:0.18181819 9:0.22727275 10:0.40909094 11:0.18181819 12:63 13:0.13636364 14:2 15:0.6 16:70 17:0.19999999 18:0.3 19:0.3 20:0.19999999 21:0.13793103 22:0.875 23:0.14285715 24:0.14285715 
-0.01048075951663733 1:2 2:2 3:12 4:22 5:0.45454544 6:1 7:1 8:0.13636363 9:0.22727275 10:0.22727275 11:0.40909094 12:50 13:0.023255814 14:3 15:0.53731346 16:67 17:0.19402987 18:0.23880595 19:0.29850745 20:0.26865673 21:0.079365082 22:1.125 24:0.2 
-0.9611633976661422 1:2 2:1 3:6 4:22 5:0.5 6:2 7:1 8:0.40909094 9:0.18181819 10:0.3181818 11:0.090909064 12:10 13:0.047619049 14:1 15:0.51785713 16:56 17:0.21428573 18:0.23214287 19:0.28571427 20:0.26785713 21:0.07692308 22:1.8 23:0.052631579 24:0.2 
-0.5806652436163863 3:3 4:24 5:0.6363636 6:2 7:3 8:0.27272725 9:0.36363637 10:0.27272725 11:0.090909064 12:35 13:0.2 14:2 15:0.6481482 16:54 17:0.1851852 18:0.3148148 19:0.3333333 20:0.16666669 21:0.2 22:1 24:0.2 
-0.7068023831163084 1:4 2:1 3:7 4:22 5:0.45454544 6:1 7:1 8:0.04545456 9:0.27272725 10:0.18181819 11:0.5 12:44 13:0.045454547 14:3 15:0.47540987 16:61 17:0.26229507 18:0.19672132 19:0.27868855 20:0.26229507 21:0.15789473 22:1 24:0.53846157 
-0.4786637943220645 1:3 2:4 3:23 4:20 5:0.5 6:1 7:2 8:0.050000012 9:0.19999999 10:0.3 11:0.45 12:61 13:0.25 14:3 15:0.6329114 16:79 17:0.1392405 18:0.25316453 19:0.37974685 20:0.22784811 21:0.21621622 24:0.19047619 
-0.5615295641386416 4:29 5:0.5416666 6:3 7:3 8:0.25 9:0.2916667 10:0.25 11:0.20833331 12:35 13:0.13207547 14:4 15:0.5614035 16:57 17:0.19298244 18:0.2631579 19:0.2982456 20:0.24561405 21:0.098039217 22:1 
-0.4577674790395252 3:2 4:23 5:0.47826087 6:3 7:2 8:0.21739131 9:0.26086956 10:0.21739131 11:0.3043478 12:5 13:0.12195122 14:1 15:0.5490196 16:51 17:0.19607842 18:0.25490195 19:0.29411763 20:0.25490195 21:0.11111111 22:1.4 
-0.03215392094165853 1:1 2:1 3:3 4:22 5:0.5 6:3 7:3 8:0.22727275 9:0.36363637 10:0.13636363 11:0.27272725 12:44 13:0.19047619 14:4 15:0.5471698 16:53 17:0.18867922 18:0.24528301 19:0.3018868 20:0.26415092 21:0.20833333 22:0.80000001 23:0.16666667 24:0.33333334 
-0.8493554315254219 3:4 4:25 5:0.8181818 6:3 7:5 8:0.13636363 9:0.36363637 10:0.45454544 11:0.04545456 12:44 13:0.22727273 14:2 15:0.6507937 16:63 17:0.12698412 18:0.30158728 19:0.34920633 20:0.22222221 21:0.1923077 22:4 
-1 4:25 5:0.5652174 6:2 7:4 8:0.26086956 9:0.26086956 10:0.3043478 11:0.17391306 12:10 13:0.16666667 14:1 15:0.49056602 16:53 17:0.26415092 18:0.24528301 19:0.24528301 20:0.24528301 21:0.16666667 22:1.125 23:0.11111111 
-0.8213160349526153 1:1 2:1 3:3 4:27 5:0.5454545 6:3 7:2 8:0.18181819 9:0.3181818 10:0.22727275 11:0.27272725 12:37 13:0.125 14:1 15:0.5 16:58 17:0.24137932 18:0.2241379 19:0.2758621 20:0.25862068 21:0.14814815 22:1.6666666 24:0.33333334 
-0.316188659831829 3:1 4:21 5:0.57142854 6:3 7:2 8:0.23809522 9:0.23809522 10:0.3333333 11:0.19047618 12:8 13:0.1891892 14:2 15:0.53488374 16:43 17:0.2093023 18:0.23255813 19:0.3023256 20:0.25581396 21:0.17948718 22:1 
-0.4481042189621131 1:2 2:1 3:15 4:22 5:0.6363636 6:2 7:1 8:0.04545456 9:0.22727275 10:0.40909094 11:0.3181818 12:50 13:0.11627907 14:3 15:0.6056338 16:71 17:0.1690141 18:0.28169012 19:0.32394367 20:0.22535211 21:0.20588236 22:0.8888889 24:0.36000001 
-0.4405207066456413 4:21 5:0.4285714 6:6 7:2 8:0.23809522 9:0.19047618 10:0.23809522 11:0.3333333 12:34 13:0.33333334 15:0.5405406 16:37 17:0.2162162 18:0.2162162 19:0.3243243 20:0.24324322 21:0.29411766 22:0.40000001 23:0.11764706 
-0.1869272873309921 3:10 4:20 5:0.45 6:1 7:2 8:0.050000012 9:0.25 10:0.19999999 11:0.5 12:5 13:0.1891892 14:3 15:0.45588237 16:68 17:0.2352941 18:0.2352941 19:0.2205882 20:0.30882353 21:0.12280702 22:0.2 
-0.2301171840039968 4:21 5:0.5 6:1 7:1 8:0.3 9:0.19999999 10:0.3 11:0.19999999 12:45 13:0.12195122 14:2 15:0.44 16:50 17:0.26 18:0.22000003 19:0.22000003 20:0.3 21:0.07692308 22:0.85714287 23:0.15384616 
-0.2175139532422335 4:25 5:0.5454545 6:5 7:3 8:0.27272725 9:0.40909094 10:0.13636363 11:0.18181819 12:9 13:0.23404256 14:4 15:0.45999998 16:50 17:0.24000001 18:0.24000001 19:0.22000003 20:0.3 21:0.23404256 22:1 23:0.2 
-0.7459329533373711 1:1 2:1 3:4 4:26 5:0.6363636 6:3 7:5 8:0.13636363 9:0.3181818 10:0.3181818 11:0.22727275 12:40 13:0.27659574 14:3 15:0.6166667 16:60 17:0.21666664 18:0.35000002 19:0.26666665 20:0.16666669 21:0.27272728 22:1.5 24:0.25 
-0.4383177875982344 1:3 2:1 3:10 4:25 5:0.8181818 6:1 7:5 8:0.13636363 9:0.5454545 10:0.27272725 11:0.04545456 12:2 13:0.17391305 14:2 15:0.6986301 16:73 17:0.13698632 18:0.34246576 19:0.3561644 20:0.16438359 21:0.1875 22:1 24:0.22222222 
-0.9988851268853302 3:4 4:27 5:0.75 6:1 7:5 8:0.16666669 9:0.4583333 10:0.2916667 11:0.08333331 12:6 13:0.22448979 14:3 15:0.6818182 16:66 17:0.13636363 18:0.3333333 19:0.34848487 20:0.18181819 21:0.19298245 22:2.6666667 23:0.11111111 
-0.9899799580199159 1:1 2:1 3:5 4:24 5:0.4583333 6:2 7:2 8:0.2916667 9:0.25 10:0.20833331 11:0.25 12:1 13:0.125 15:0.43548387 16:62 17:0.2903226 18:0.19354838 19:0.24193549 20:0.27419353 21:0.13793103 22:1.1111112 24:0.2 
-0.2327014782361386 4:22 5:0.40909094 6:2 7:3 8:0.27272725 9:0.18181819 10:0.22727275 11:0.3181818 12:30 13:0.23809524 15:0.41860467 16:43 17:0.27906978 18:0.23255813 19:0.18604654 20:0.3023256 21:0.15789473 22:0.625 
-1 1:3 2:1 3:7 4:21 5:0.4285714 6:1 7:2 8:0.09523809 9:0.23809522 10:0.19047618 11:0.47619045 12:4 13:0.095238097 14:4 15:0.48333335 16:60 17:0.21666664 18:0.25 19:0.23333335 20:0.3 21:0.16363636 22:1.5714285 24:0.38461539 
-0.1304285035637475 4:22 5:0.77272725 6:2 7:3 8:0.090909064 9:0.40909094 10:0.36363637 11:0.13636363 12:38 13:0.30232558 14:4 15:0.6730769 16:52 17:0.13461536 18:0.26923078 19:0.40384614 20:0.19230771 21:0.2682927 22:0.8888889 
-0.2646312488079175 4:22 5:0.6666666 6:2 7:3 8:0.19047618 9:0.23809522 10:0.4285714 11:0.14285713 12:7 13:0.25581396 14:3 15:0.6481482 16:54 17:0.14814812 18:0.25925928 19:0.3888889 20:0.2037037 21:0.25581396 22:1 
-0.07927845362391645 4:22 5:0.5 6:1 7:3 8:0.13636363 9:0.13636363 10:0.36363637 11:0.36363637 12:14 13:0.25581396 14:3 15:0.5333333 16:45 17:0.19999999 18:0.22222221 19:0.3111111 20:0.26666665 21:0.13513513 22:3 23:0.23076923 
-0.09035530139485141 4:22 5:0.7619048 6:4 7:3 8:0.19047618 9:0.19047618 10:0.57142854 11:0.047619045 12:34 13:0.31707317 15:0.71428573 16:42 17:0.16666669 18:0.26190478 19:0.45238096 20:0.11904764 21:0.24324325 22:0.66666669 23:0.083333336 
-1 1:3 2:1 3:6 4:23 5:0.72727275 6:1 7:3 8:0.090909064 9:0.3181818 10:0.40909094 11:0.18181819 12:41 13:0.15555556 14:3 15:0.6779661 16:59 17:0.11864406 18:0.37288135 19:0.30508476 20:0.20338982 21:0.2 22:1.2222222 24:0.40000001 
-0.05473863659331021 4:22 5:0.47619045 6:3 7:3 8:0.19047618 9:0.09523809 10:0.38095236 11:0.3333333 12:16 13:0.33333334 14:3 15:0.44186044 16:43 17:0.2093023 18:0.2093023 19:0.23255813 20:0.3488372 21:0.30000001 22:0.5714286 23:0.11111111 
-0.09752120215753202 4:22 5:0.45454544 6:2 7:2 8:0.22727275 9:0.090909064 10:0.36363637 11:0.3181818 12:31 13:0.38095239 15:0.54761904 16:42 17:0.14285713 18:0.23809522 19:0.30952382 20:0.30952382 21:0.1875 
-0.08803816584641207 4:24 5:0.4583333 6:2 7:3 8:0.25 9:0.08333331 10:0.375 11:0.2916667 12:31 13:0.34782609 15:0.54347825 16:46 17:0.15217394 18:0.23913044 19:0.3043478 20:0.3043478 21:0.16666667 
-1 1:1 2:1 3:6 4:24 5:0.6666666 6:2 7:2 8:0.16666669 9:0.2916667 10:0.375 11:0.16666669 12:44 13:0.14893617 14:4 15:0.6363636 16:66 17:0.15151513 18:0.2878788 19:0.34848487 20:0.21212119 21:0.15254237 22:0.80000001 24:0.16666667 
-0.9358009176904054 3:2 4:25 5:0.625 6:2 7:4 8:0.08333331 9:0.375 10:0.25 11:0.2916667 12:5 13:0.18367347 14:2 15:0.6166667 16:60 17:0.16666669 18:0.28333336 19:0.3333333 20:0.21666664 21:0.16981132 22:1.25 
-1 1:3 2:1 3:11 4:22 5:0.40909094 6:2 7:3 8:0.27272725 9:0.18181819 10:0.22727275 11:0.3181818 12:49 13:0.22727273 14:4 15:0.3857143 16:70 17:0.3142857 18:0.19999999 19:0.1857143 20:0.3 21:0.21875 22:0.875 24:0.2 
-0.1258087009261727 1:2 2:2 3:15 4:24 5:0.6086956 6:3 7:3 8:0.17391306 9:0.43478262 10:0.17391306 11:0.21739131 12:6 13:0.23404256 14:3 15:0.44578314 16:83 17:0.22891569 18:0.21686745 19:0.22891569 20:0.32530123 21:0.22077923 22:1.3333334 23:0.2 24:0.2 
-0.3424311275736547 1:2 2:2 3:16 4:22 5:0.57142854 6:3 7:3 8:0.19047618 9:0.38095236 10:0.19047618 11:0.23809522 12:7 13:0.25581396 14:3 15:0.43209875 16:81 17:0.23456788 18:0.20987654 19:0.22222221 20:0.3333333 21:0.22666667 22:1.1666666 23:0.16666667 24:0.1875 
-0.28954228150742 1:1 2:2 3:14 4:23 5:0.5909091 6:1 7:3 8:0.18181819 9:0.090909064 10:0.5 11:0.22727275 12:4 13:0.090909094 14:3 15:0.56 16:75 17:0.18666667 18:0.19999999 19:0.36 20:0.25333333 21:0.098591551 22:0.90909094 24:0.11111111 
-0.1203667708552604 1:1 2:2 3:16 4:23 5:0.5454545 6:1 7:3 8:0.13636363 9:0.3181818 10:0.22727275 11:0.3181818 12:59 13:0.090909094 14:3 15:0.5822785 16:79 17:0.17721522 18:0.21518987 19:0.36708862 20:0.24050635 21:0.093333334 22:0.90909094 24:0.096774191 
-0.2369320747197481 3:3 4:21 5:0.61904764 6:1 7:4 8:0.14285713 9:0.3333333 10:0.28571427 11:0.23809522 12:43 13:0.25 14:3 15:0.62 16:50 17:0.18 18:0.36 19:0.26 20:0.19999999 21:0.2173913 22:0.625 23:0.07692308 
-0.7273763756306217 3:5 4:21 5:0.61904764 6:1 7:4 8:0.19047618 9:0.38095236 10:0.23809522 11:0.19047618 12:12 13:0.19047619 14:4 15:0.6111111 16:54 17:0.1851852 18:0.35185188 19:0.25925928 20:0.2037037 21:0.2 22:1.25 23:0.090909094 24:0.25 
-0.3371076708930399 1:1 2:1 3:8 4:22 5:0.5909091 6:2 7:4 8:0.13636363 9:0.18181819 10:0.40909094 11:0.27272725 12:59 13:0.22727273 14:4 15:0.47887325 16:71 17:0.15492958 18:0.21126759 19:0.26760566 20:0.36619717 21:0.2 22:1.6666666 23:0.052631579 24:0.125 
-0.2731144415113427 4:23 5:0.34782606 6:1 7:3 8:0.17391306 9:0.21739131 10:0.13043481 11:0.47826087 12:21 13:0.30434781 14:3 15:0.32653064 16:49 17:0.22448981 18:0.16326529 19:0.16326529 20:0.44897962 21:0.15789473 23:0.17073171 
-0.3219769408153141 1:2 2:2 3:11 4:27 5:0.5833334 6:4 7:4 8:0.20833331 9:0.2916667 10:0.2916667 11:0.20833331 12:59 13:0.25490198 14:1 15:0.56 16:75 17:0.24000001 18:0.27999997 19:0.27999997 20:0.19999999 21:0.23943663 22:1.5 23:0.2857143 24:0.2 
-0.4132190610959511 1:2 2:3 3:21 4:18 5:0.5 6:4 7:2 8:0.2777778 9:0.22222221 10:0.2777778 11:0.22222221 12:7 13:0.33333334 14:2 15:0.5584415 16:77 17:0.23376626 18:0.27272725 19:0.28571427 20:0.20779222 21:0.23287672 22:1.6 23:0.33333334 24:0.15000001 
-0.1509075659579799 1:1 2:1 3:13 4:21 5:0.52380955 6:2 7:1 8:0.19047618 9:0.14285713 10:0.38095236 11:0.28571427 12:1 13:0.14285715 15:0.5131579 16:76 17:0.21052629 18:0.22368419 19:0.2894737 20:0.2763158 21:0.17647059 22:1.375 24:0.23076923 
-0.03458452767376707 4:22 5:0.5909091 6:3 7:2 8:0.13636363 9:0.27272725 10:0.3181818 11:0.27272725 12:40 13:0.31818181 14:4 15:0.47826087 16:46 17:0.2826087 18:0.21739131 19:0.26086956 20:0.23913044 21:0.21052632 22:0.33333334 23:0.13333334 
-0.4511995682803562 1:2 2:3 3:10 4:25 5:0.625 6:2 7:3 8:0.041666687 9:0.375 10:0.25 11:0.3333333 12:1 13:0.18367347 15:0.5972222 16:72 17:0.1388889 18:0.2638889 19:0.3333333 20:0.2638889 21:0.23529412 22:1 24:0.36842105 
-0.07926161510794161 1:1 2:2 3:14 4:22 5:0.5454545 6:2 7:4 8:0.22727275 9:0.27272725 10:0.27272725 11:0.22727275 12:62 13:0.25581396 14:2 15:0.5243902 16:82 17:0.18292683 18:0.24390244 19:0.28048778 20:0.29268295 21:0.2 22:0.875 24:0.11111111 
-1 3:2 4:22 5:0.5 6:1 7:3 8:0.22727275 9:0.18181819 10:0.3181818 11:0.27272725 12:3 13:0.14285715 14:4 15:0.46296299 16:54 17:0.24074072 18:0.22222221 19:0.24074072 20:0.2962963 21:0.13043478 22:1.4285715 
-1 3:3 4:22 5:0.36363637 6:1 7:2 8:0.3181818 9:0.13636363 10:0.22727275 11:0.3181818 12:42 13:0.090909094 14:1 15:0.36065573 16:61 17:0.29508197 18:0.16393441 19:0.19672132 20:0.3442623 21:0.079999998 22:1.125 
-0.4762741612237931 4:22 5:0.45454544 6:1 7:1 8:0.22727275 9:0.18181819 10:0.27272725 11:0.3181818 12:8 13:0.18181819 14:4 15:0.41176468 16:51 17:0.2745098 18:0.19607842 19:0.21568626 20:0.31372547 21:0.1 22:1.4 
-0.3304198463497308 4:27 5:0.47826087 6:2 7:4 8:0.17391306 9:0.13043481 10:0.34782606 11:0.34782606 12:14 13:0.23999999 14:1 15:0.52 16:50 17:0.24000001 18:0.24000001 19:0.27999997 20:0.24000001 21:0.13636364 22:4 23:0.07692308 
-0.3308176763998252 1:3 2:1 3:13 4:27 5:0.5833334 6:3 7:5 8:0.25 9:0.375 10:0.20833331 11:0.16666669 12:62 13:0.21568628 14:2 15:0.5432099 16:81 17:0.22222221 18:0.25925928 19:0.28395063 20:0.23456788 21:0.22077923 22:0.81818181 23:0.5 24:0.23076923 
-1 1:1 2:1 3:4 4:23 5:0.6363636 6:3 7:2 8:0.090909064 9:0.36363637 10:0.27272725 11:0.27272725 12:5 13:0.15555556 14:4 15:0.57894737 16:57 17:0.19298244 18:0.28070176 19:0.2982456 20:0.2280702 21:0.16981132 22:1.125 23:0.25 24:0.25 
-0.2167101880860071 4:21 5:0.57142854 6:2 7:3 8:0.14285713 9:0.28571427 10:0.28571427 11:0.28571427 12:14 13:0.15789473 14:1 15:0.53658533 16:41 17:0.19512194 18:0.26829267 19:0.26829267 20:0.26829267 21:0.15789473 22:0.83333331 23:0.28 
-0.01682109898709792 4:22 5:0.6666666 6:2 7:4 8:0.23809522 9:0.23809522 10:0.4285714 11:0.09523809 12:47 13:0.19047619 14:2 15:0.6666666 16:45 17:0.22222221 18:0.3111111 19:0.35555553 20:0.1111111 21:0.19047619 22:0.72727275 23:0.17073171 
-0.9700042655260123 1:2 2:4 3:19 4:23 5:0.6521739 6:2 7:3 8:0.13043481 9:0.39130437 10:0.26086956 11:0.21739131 12:3 13:0.1627907 14:4 15:0.67073166 16:82 17:0.19512194 18:0.31707317 19:0.35365856 20:0.13414633 21:0.18987341 22:0.60000002 24:0.22222222 
-1 3:4 4:24 5:0.6956522 6:1 7:3 8:0.21739131 9:0.39130437 10:0.3043478 11:0.0869565 12:17 13:0.14893617 14:3 15:0.6666666 16:57 17:0.21052629 18:0.31578946 19:0.35087717 20:0.12280703 21:0.14814815 22:1.2222222 23:0.24137931 24:0.14285715 
-0.2467891593168949 4:25 5:0.4583333 6:1 7:5 8:0.20833331 9:0.20833331 10:0.25 11:0.3333333 12:34 13:0.2173913 15:0.5319149 16:47 17:0.25531918 18:0.25531918 19:0.27659577 20:0.21276593 21:0.14285715 22:0.5714286 23:0.23809524 
-0.8712426262628187 3:6 4:24 5:0.6086956 6:3 7:3 8:0.13043481 9:0.43478262 10:0.17391306 11:0.26086956 12:44 13:0.13636364 14:1 15:0.530303 16:66 17:0.24242425 18:0.3030303 19:0.22727275 20:0.22727275 21:0.16363636 22:1.25 24:0.27272728 
-0.475862283604193 1:2 2:3 3:23 4:22 5:0.5454545 6:2 7:2 8:0.22727275 9:0.18181819 10:0.36363637 11:0.22727275 12:9 13:0.30000001 14:1 15:0.47727275 16:88 17:0.21590906 18:0.17045456 19:0.3068182 20:0.3068182 21:0.23809524 23:0.42857143 24:0.18181819 
-0.4944352042919521 1:2 2:5 3:31 4:22 5:0.5909091 6:8 7:2 8:0.22727275 9:0.18181819 10:0.40909094 11:0.18181819 12:1 13:0.36842105 15:0.4705882 16:102 17:0.22549021 18:0.17647058 19:0.29411763 20:0.30392158 21:0.26530612 22:1 24:0.2 
-0.394353904380409 3:6 4:23 5:0.6363636 6:3 7:3 8:0.27272725 9:0.5909091 10:0.04545456 11:0.090909064 12:9 13:0.24444444 14:3 15:0.530303 16:66 17:0.16666669 18:0.27272725 19:0.25757575 20:0.3030303 21:0.19298245 22:1.125 23:0.17647059 
-0.5166334794614842 3:5 4:24 5:0.5833334 6:2 7:1 8:0.125 9:0.4166667 10:0.16666669 11:0.2916667 12:1 13:0.083333336 15:0.6376811 16:69 17:0.14492756 18:0.28985506 19:0.34782606 20:0.21739131 21:0.068965517 22:1 
-0.9485086440677758 3:4 4:23 5:0.36363637 6:2 7:3 8:0.13636363 9:0.27272725 10:0.090909064 11:0.5 12:39 13:0.15555556 14:1 15:0.38596493 16:57 17:0.28070176 18:0.17543858 19:0.21052629 20:0.3333333 21:0.13207547 22:0.69999999 
-0.3091656778252958 1:1 2:2 3:14 4:22 5:0.8181818 6:3 7:2 9:0.3181818 10:0.5 11:0.18181819 12:3 13:0.17948718 14:3 15:0.65789473 16:76 17:0.15789473 18:0.35526317 19:0.30263156 20:0.18421054 21:0.15151516 22:1.8333334 24:0.11111111 
-0.9957683574691163 1:1 2:1 3:6 4:26 5:0.5416666 6:2 7:4 8:0.20833331 9:0.375 10:0.16666669 11:0.25 12:43 13:0.16666667 14:3 15:0.515625 16:64 17:0.21875 18:0.234375 19:0.28125 20:0.265625 21:0.16666667 22:1.25 24:0.16666667 
-0.5819494793671911 1:1 2:1 3:8 4:23 5:0.5454545 6:2 7:4 8:0.18181819 9:0.090909064 10:0.45454544 11:0.27272725 12:3 13:0.1627907 14:3 15:0.5079365 16:63 17:0.22222221 18:0.23809522 19:0.26984125 20:0.26984125 21:0.15254237 22:1 23:0.2 24:0.125 
-0.9974389364603146 3:2 4:25 5:0.5416666 6:2 7:3 8:0.3333333 9:0.20833331 10:0.3333333 11:0.125 12:45 13:0.125 14:2 15:0.53125 16:64 17:0.1875 18:0.234375 19:0.296875 20:0.28125 21:0.11538462 22:1.1111112 
-1 3:1 4:22 5:0.57142854 6:2 7:3 8:0.14285713 9:0.3333333 10:0.23809522 11:0.28571427 12:9 13:0.14285715 14:1 15:0.55357146 16:56 17:0.1785714 18:0.25 19:0.3035714 20:0.26785713 21:0.13636364 22:0.63636363 
-0.1037209586961647 3:3 4:22 5:0.5909091 6:3 7:3 8:0.13636363 9:0.13636363 10:0.45454544 11:0.27272725 12:12 13:0.15000001 14:3 15:0.49019605 16:51 17:0.2745098 18:0.19607842 19:0.29411763 20:0.2352941 21:0.13043478 22:3.3333333 
-0.03469302993819644 1:1 2:4 3:18 4:20 5:0.8 6:2 7:2 8:0.050000012 9:0.3 10:0.5 11:0.14999998 12:61 13:0.2 14:2 15:0.73417723 16:79 17:0.07594937 18:0.278481 19:0.45569623 20:0.1898734 21:0.1891892 22:1 24:0.17647059 
-0.1062996890299703 4:26 5:0.5909091 6:3 7:3 8:0.13636363 9:0.36363637 10:0.22727275 11:0.27272725 12:36 13:0.29166666 14:4 15:0.5098039 16:51 17:0.2352941 18:0.2352941 19:0.2745098 20:0.25490195 21:0.19047619 22:0.40000001 
-0.2095133583844123 1:2 2:3 3:17 4:24 5:0.5909091 6:2 7:4 8:0.13636363 9:0.36363637 10:0.22727275 11:0.27272725 12:1 13:0.17391305 15:0.45348835 16:86 17:0.3023256 18:0.24418604 19:0.2093023 20:0.24418604 21:0.2 22:1 24:0.23529412 
-0.3303043277972857 4:23 5:0.3181818 6:2 7:4 8:0.36363637 9:0.22727275 10:0.090909064 11:0.3181818 12:21 13:0.33333334 14:4 15:0.3333333 16:45 17:0.39999998 18:0.19999999 19:0.13333333 20:0.26666665 21:0.23076923 22:4 23:0.17073171 
-0.5768783695573692 1:1 2:2 3:24 4:24 5:0.8636364 6:3 7:4 8:0.090909064 9:0.36363637 10:0.5 11:0.04545456 12:2 13:0.24444444 14:4 15:0.76 16:100 17:0.11000001 18:0.32 19:0.44 20:0.13 21:0.15217391 22:0.54545456 24:0.063829787 
-0.2196671566459559 4:22 5:0.6363636 6:4 7:3 8:0.22727275 9:0.36363637 10:0.27272725 11:0.13636363 12:35 13:0.31818181 14:2 15:0.53999996 16:50 17:0.13999999 18:0.24000001 19:0.3 20:0.32 21:0.31818181 22:0.45454547 23:0.2 
-0.2879236423394265 4:24 5:0.61904764 6:2 7:2 8:0.19047618 9:0.28571427 10:0.3333333 11:0.19047618 12:41 13:0.15555556 15:0.6 16:45 17:0.15555555 18:0.26666665 19:0.3333333 20:0.24444443 21:0.073170729 22:0.36363637 23:0.07692308 
-0.07420570789501518 4:22 5:0.57142854 6:1 7:3 8:0.09523809 9:0.09523809 10:0.47619045 11:0.3333333 12:10 13:0.30232558 14:3 15:0.6363636 16:44 17:0.11363637 18:0.3181818 19:0.3181818 20:0.25 21:0.14285715 
-0.5639487262230074 1:2 2:2 3:19 4:22 5:0.57142854 6:6 7:3 8:0.14285713 9:0.23809522 10:0.3333333 11:0.28571427 12:5 13:0.42857143 14:2 15:0.51648355 16:91 17:0.19780219 18:0.24175823 19:0.27472526 20:0.28571427 21:0.29113925 22:0.54545456 23:0.14285715 24:0.13513513 
-0.4923093960073187 1:2 2:2 3:21 4:24 5:0.6363636 6:6 7:4 8:0.04545456 9:0.45454544 10:0.18181819 11:0.3181818 12:77 13:0.42222223 14:2 15:0.52040815 16:98 17:0.20408165 18:0.24489796 19:0.2755102 20:0.2755102 21:0.27906978 22:1.25 24:0.12195122 
-0.7933327077389359 3:5 4:23 5:0.52380955 6:2 7:2 8:0.14285713 9:0.23809522 10:0.28571427 11:0.3333333 12:2 13:0.27272728 14:4 15:0.5084746 16:59 17:0.23728812 18:0.23728812 19:0.2711864 20:0.2542373 21:0.22222222 22:0.33333334 
-0.07043535306718389 3:1 4:21 5:0.39999998 6:3 7:3 8:0.3 9:0.25 10:0.14999998 11:0.3 12:38 13:0.2682927 14:4 15:0.42553192 16:47 17:0.27659577 18:0.23404253 19:0.19148934 20:0.29787236 21:0.25581396 22:0.40000001 23:0.23809524 
-1 3:6 4:23 5:0.5 6:2 7:4 8:0.22727275 9:0.3181818 10:0.18181819 11:0.27272725 12:5 13:0.2 14:3 15:0.39999998 16:60 17:0.26666665 18:0.21666664 19:0.18333334 20:0.3333333 21:0.25 22:0.5 23:0.25 24:0.45454547 
-0.9833452808100105 3:3 4:21 5:0.61904764 6:2 7:2 8:0.09523809 9:0.19047618 10:0.4285714 11:0.28571427 12:18 13:0.2 14:2 15:0.53846157 16:52 17:0.17307693 18:0.23076922 19:0.3076923 20:0.28846157 21:0.2 22:0.5 23:0.11764706 24:0.2 
-0.6643624960760121 4:23 5:0.5454545 6:3 7:4 8:0.18181819 9:0.3181818 10:0.22727275 11:0.27272725 12:49 13:0.22727273 14:4 15:0.4727273 16:55 17:0.25454545 18:0.23636365 19:0.23636365 20:0.27272725 21:0.22727273 22:1.1111112 23:0.25 
-0.9583412705786976 4:24 5:0.43478262 6:3 7:3 8:0.34782606 9:0.17391306 10:0.26086956 11:0.21739131 12:17 13:0.30434781 14:3 15:0.4528302 16:53 17:0.26415092 18:0.2264151 19:0.2264151 20:0.2830189 21:0.23809524 22:1.6 23:0.23529412 
-0.7711864585854391 1:1 2:2 3:13 4:22 5:0.6363636 6:1 7:5 8:0.13636363 9:0.36363637 10:0.27272725 11:0.22727275 12:8 13:0.25581396 14:4 15:0.5694444 16:72 17:0.18055558 18:0.2638889 19:0.30555558 20:0.25 21:0.28358209 22:0.8888889 24:0.33333334 
-0.4372318580138457 1:4 2:3 3:17 4:24 5:0.5217391 6:1 7:5 8:0.21739131 9:0.13043481 10:0.39130437 11:0.26086956 12:63 13:0.19148937 14:3 15:0.54761904 16:84 17:0.1785714 18:0.23809522 19:0.30952382 20:0.27380955 21:0.24050634 22:0.875 24:0.3125 
-1 1:1 2:1 3:4 4:23 5:0.45454544 6:3 7:3 8:0.13636363 9:0.22727275 10:0.22727275 11:0.40909094 12:50 13:0.2 14:2 15:0.44067794 16:59 17:0.1864407 18:0.1864407 19:0.2542373 20:0.37288135 21:0.20754717 22:1.2857143 23:0.28 24:0.25 
-1 1:1 2:1 3:3 4:22 5:0.40909094 6:3 7:3 8:0.3181818 9:0.18181819 10:0.22727275 11:0.27272725 12:15 13:0.20930232 14:1 15:0.4727273 16:55 17:0.16363639 18:0.19999999 19:0.27272725 20:0.36363637 21:0.22448979 22:0.89999998 23:0.24137931 24:0.33333334 
-0.4937088825061289 1:1 2:1 3:7 4:22 5:0.5454545 6:2 7:4 8:0.13636363 9:0.22727275 10:0.3181818 11:0.3181818 12:68 13:0.20930232 14:1 15:0.47540987 16:61 17:0.19672132 18:0.24590164 19:0.22950822 20:0.32786888 21:0.19298245 22:1.1666666 23:0.31034482 24:0.14285715 
-0.4937238611513725 1:2 2:6 3:36 4:22 5:0.5454545 6:6 7:3 8:0.18181819 9:0.27272725 10:0.27272725 11:0.27272725 12:97 13:0.33333334 14:4 15:0.50427353 16:117 17:0.18803418 18:0.23076922 19:0.27350426 20:0.3076923 21:0.25663716 22:1.5714285 24:0.21126761 
-0.2883637513309227 1:2 2:1 3:11 4:24 5:0.4166667 6:3 7:3 8:0.16666669 10:0.4166667 11:0.4166667 12:63 13:0.26086956 14:2 15:0.52112675 16:71 17:0.18309861 18:0.19718307 19:0.32394367 20:0.29577464 21:0.23529412 22:1.4 23:0.07692308 24:0.18181819 
-0.6659247901625267 1:7 2:1 3:19 4:22 5:0.5454545 6:1 7:5 8:0.18181819 9:0.27272725 10:0.27272725 11:0.27272725 12:7 13:0.22727273 14:3 15:0.556962 16:79 17:0.20253164 18:0.278481 19:0.278481 20:0.24050635 21:0.28 22:0.77777779 23:0.16666667 24:0.3548387 
